~o
<STREAMINFO> 1 25
<VECSIZE> 25<NULLD><MFCC_D_N_Z_0><DIAGC>
~s "silst"
<MEAN> 25
 -6.941489e+00 3.987117e+00 -7.466118e-01 3.356034e+00 6.004803e+00 4.715116e+00 3.310647e+00 5.876053e+00 3.673917e+00 4.825573e+00 4.155884e+00 3.643151e+00 -9.493084e-03 8.724301e-03 2.007395e-02 2.800193e-02 1.174256e-02 -7.777204e-03 -1.210534e-02 -4.297238e-03 -6.816630e-03 -1.007060e-02 2.245425e-03 5.339271e-03 -4.797309e-03
<VARIANCE> 25
 2.993388e+00 2.948910e+00 4.156093e+00 5.389677e+00 6.986847e+00 7.452713e+00 8.626356e+00 1.067001e+01 9.590444e+00 1.003832e+01 9.907948e+00 9.115197e+00 1.088032e-01 2.022671e-01 3.436687e-01 4.681703e-01 6.031237e-01 7.197878e-01 8.317905e-01 9.378979e-01 9.786977e-01 1.021016e+00 9.908735e-01 9.139767e-01 1.310840e-01
<GCONST> 5.992128e+01
~h "sp"
<BEGINHMM>
<NUMSTATES> 3
<STATE> 2
~s "silst"
<TRANSP> 3
 0.000000e+00 6.843709e-01 3.156291e-01
 0.000000e+00 9.724932e-01 2.750686e-02
 0.000000e+00 0.000000e+00 0.000000e+00
<ENDHMM>
~h "\340\262\236\340\263\215"
<BEGINHMM>
<NUMSTATES> 5
<STATE> 2
<MEAN> 25
 3.363246e-09 -5.073974e-09 -2.667070e-08 -7.742742e-09 -4.152962e-08 5.464628e-08 -2.856819e-08 -3.137197e-08 -1.315223e-08 -1.457514e-08 1.178106e-08 -4.705634e-08 -5.036812e-04 -4.192874e-04 1.220702e-04 -4.396494e-04 -3.006390e-04 7.270148e-05 1.006791e-04 -4.520885e-04 -6.791297e-04 -7.117605e-04 -2.317067e-04 -1.422502e-04 3.583877e-03
<VARIANCE> 25
 7.771582e+01 4.669402e+01 4.885701e+01 4.639305e+01 7.525224e+01 6.131878e+01 4.945510e+01 6.535645e+01 4.383388e+01 5.195151e+01 3.898161e+01 3.388782e+01 2.163800e+00 2.160548e+00 2.178321e+00 2.195785e+00 3.386122e+00 2.583580e+00 2.687976e+00 2.741140e+00 2.512795e+00 2.406658e+00 2.020564e+00 1.918339e+00 2.693773e+00
<GCONST> 1.047231e+02
<STATE> 3
<MEAN> 25
 3.363246e-09 -5.073974e-09 -2.667070e-08 -7.742742e-09 -4.152962e-08 5.464628e-08 -2.856819e-08 -3.137197e-08 -1.315223e-08 -1.457514e-08 1.178106e-08 -4.705634e-08 -5.036812e-04 -4.192874e-04 1.220702e-04 -4.396494e-04 -3.006390e-04 7.270148e-05 1.006791e-04 -4.520885e-04 -6.791297e-04 -7.117605e-04 -2.317067e-04 -1.422502e-04 3.583877e-03
<VARIANCE> 25
 7.771582e+01 4.669402e+01 4.885701e+01 4.639305e+01 7.525224e+01 6.131878e+01 4.945510e+01 6.535645e+01 4.383388e+01 5.195151e+01 3.898161e+01 3.388782e+01 2.163800e+00 2.160548e+00 2.178321e+00 2.195785e+00 3.386122e+00 2.583580e+00 2.687976e+00 2.741140e+00 2.512795e+00 2.406658e+00 2.020564e+00 1.918339e+00 2.693773e+00
<GCONST> 1.047231e+02
<STATE> 4
<MEAN> 25
 3.363246e-09 -5.073974e-09 -2.667070e-08 -7.742742e-09 -4.152962e-08 5.464628e-08 -2.856819e-08 -3.137197e-08 -1.315223e-08 -1.457514e-08 1.178106e-08 -4.705634e-08 -5.036812e-04 -4.192874e-04 1.220702e-04 -4.396494e-04 -3.006390e-04 7.270148e-05 1.006791e-04 -4.520885e-04 -6.791297e-04 -7.117605e-04 -2.317067e-04 -1.422502e-04 3.583877e-03
<VARIANCE> 25
 7.771582e+01 4.669402e+01 4.885701e+01 4.639305e+01 7.525224e+01 6.131878e+01 4.945510e+01 6.535645e+01 4.383388e+01 5.195151e+01 3.898161e+01 3.388782e+01 2.163800e+00 2.160548e+00 2.178321e+00 2.195785e+00 3.386122e+00 2.583580e+00 2.687976e+00 2.741140e+00 2.512795e+00 2.406658e+00 2.020564e+00 1.918339e+00 2.693773e+00
<GCONST> 1.047231e+02
<TRANSP> 5
 0.000000e+00 1.000000e+00 0.000000e+00 0.000000e+00 0.000000e+00
 0.000000e+00 6.000000e-01 4.000000e-01 0.000000e+00 0.000000e+00
 0.000000e+00 0.000000e+00 6.000000e-01 4.000000e-01 0.000000e+00
 0.000000e+00 0.000000e+00 0.000000e+00 7.000000e-01 3.000000e-01
 0.000000e+00 0.000000e+00 0.000000e+00 0.000000e+00 0.000000e+00
<ENDHMM>
~h "\340\262\257\340\263\215"
<BEGINHMM>
<NUMSTATES> 5
<STATE> 2
<MEAN> 25
 3.497120e-01 -1.087828e+00 1.076764e+01 1.410781e+00 -9.359663e+00 -6.833551e+00 -2.799550e+00 -4.113409e+00 -4.205997e+00 -7.042294e+00 -2.305678e+00 -1.982394e+00 8.658593e-01 1.508729e-02 7.410079e-01 6.223804e-01 -1.638307e+00 -1.136733e+00 -2.791675e-01 -5.337240e-01 -2.419812e-01 -1.064631e+00 1.085576e-02 6.311761e-01 5.970377e-01
<VARIANCE> 25
 5.614867e+01 3.955651e+01 5.132156e+01 5.435922e+01 7.960012e+01 4.838314e+01 3.409739e+01 4.153483e+01 4.016458e+01 3.491503e+01 2.764433e+01 2.263097e+01 5.540158e+00 3.082271e+00 4.619838e+00 3.827965e+00 5.260007e+00 4.820908e+00 3.112803e+00 3.357977e+00 2.998399e+00 3.114671e+00 2.155082e+00 2.879397e+00 2.445159e+00
<GCONST> 1.070270e+02
<STATE> 3
<MEAN> 25
 5.087589e+00 -4.834788e+00 1.025659e+01 4.082038e+00 -1.724226e+01 -1.427737e+01 -4.073097e+00 -6.193058e+00 -2.035424e+00 -1.112589e+01 -4.196857e-01 2.791205e+00 6.132023e-01 -1.402827e+00 -1.928257e+00 -3.337479e-01 5.447525e-01 -1.308955e+00 -1.145834e+00 1.228428e+00 1.905240e+00 4.629719e-01 -5.702010e-02 3.877554e-01 7.428238e-01
<VARIANCE> 25
 5.467899e+00 2.592267e+01 2.345547e+01 2.467831e+01 2.657910e+01 2.997086e+01 3.617400e+01 2.662763e+01 3.017539e+01 2.178663e+01 2.047342e+01 1.390435e+01 6.271158e-01 1.718378e+00 3.046423e+00 1.614187e+00 2.598322e+00 2.901769e+00 2.483603e+00 3.420235e+00 3.579022e+00 2.286165e+00 1.730086e+00 1.761972e+00 5.438277e-01
<GCONST> 9.138688e+01
<STATE> 4
<MEAN> 25
 7.336306e+00 -1.031463e+01 -2.085917e-01 -3.487502e-01 -1.059652e+01 -1.533552e+01 -8.284593e+00 -3.350822e-01 6.078927e+00 -5.006071e+00 -3.749132e+00 -4.347103e-01 4.940090e-01 -6.797215e-01 -2.189858e+00 -1.411388e+00 2.033700e+00 1.533243e+00 2.527619e-02 2.138287e-01 4.563832e-01 1.774951e+00 -9.260604e-01 -1.662056e+00 2.073001e-01
<VARIANCE> 25
 6.670815e+00 2.431880e+01 2.092727e+01 2.267032e+01 2.913778e+01 3.011626e+01 4.156774e+01 3.399942e+01 2.244256e+01 2.281866e+01 2.341551e+01 2.299916e+01 3.700088e-01 1.820014e+00 3.075152e+00 2.280406e+00 2.844796e+00 3.445735e+00 2.467638e+00 3.509289e+00 3.644563e+00 2.601989e+00 3.176885e+00 2.772414e+00 6.091548e-01
<GCONST> 9.367928e+01
<TRANSP> 5
 0.000000e+00 1.000000e+00 0.000000e+00 0.000000e+00 0.000000e+00
 0.000000e+00 6.481491e-01 3.518508e-01 0.000000e+00 0.000000e+00
 0.000000e+00 0.000000e+00 7.205638e-01 2.794362e-01 0.000000e+00
 0.000000e+00 0.000000e+00 0.000000e+00 6.873983e-01 3.126016e-01
 0.000000e+00 0.000000e+00 0.000000e+00 0.000000e+00 0.000000e+00
<ENDHMM>
~h "\340\262\226\340\263\215"
<BEGINHMM>
<NUMSTATES> 5
<STATE> 2
<MEAN> 25
 -6.379600e+00 2.631391e+00 1.414767e-01 2.245136e+00 5.441840e+00 3.341817e+00 3.135913e+00 5.147185e+00 2.597087e+00 3.009553e+00 3.288049e+00 2.593522e+00 -8.673211e-01 -3.814979e-01 1.000354e+00 -5.098132e-01 3.524207e-01 -2.407924e-01 -4.008892e-01 6.808243e-01 1.023994e-01 -3.396077e-02 3.955919e-01 2.800978e-01 2.181585e-01
<VARIANCE> 25
 1.111214e+01 1.030898e+01 2.142204e+01 2.575460e+01 2.354985e+01 1.740716e+01 1.576405e+01 1.779447e+01 1.363657e+01 1.432295e+01 1.792450e+01 1.890483e+01 1.464207e+00 1.630073e+00 3.343938e+00 3.039792e+00 2.662563e+00 1.810458e+00 2.041560e+00 2.708149e+00 1.504432e+00 1.716669e+00 1.836208e+00 1.488165e+00 1.138399e+00
<GCONST> 8.830923e+01
<STATE> 3
<MEAN> 25
 -8.656966e+00 1.694680e+00 4.319924e+00 -1.196451e-01 5.973105e+00 2.232970e+00 6.634861e-01 7.322635e+00 2.516930e+00 1.861404e+00 3.504093e+00 2.622995e+00 6.341541e-01 7.979708e-01 -1.325031e+00 8.472122e-01 -2.804324e-01 3.468473e-01 5.549392e-01 -7.430347e-01 8.633432e-02 3.887300e-01 3.882171e-02 4.310295e-02 -8.238671e-01
<VARIANCE> 25
 2.156153e+01 1.973314e+01 4.414534e+01 4.196428e+01 2.412394e+01 2.275501e+01 1.660571e+01 2.761324e+01 2.306093e+01 1.651252e+01 1.308035e+01 1.580240e+01 1.445118e+00 1.305151e+00 3.584614e+00 3.286080e+00 2.200492e+00 2.192498e+00 1.881690e+00 2.320415e+00 1.940734e+00 1.762096e+00 1.522112e+00 1.232483e+00 8.761585e-01
<GCONST> 9.110899e+01
<STATE> 4
<MEAN> 25
 -5.391483e+00 4.530546e+00 2.867869e-02 3.719837e+00 4.942625e+00 3.647772e+00 2.397637e+00 3.626004e+00 3.721463e+00 3.484516e+00 3.215709e+00 3.380703e+00 1.019991e-02 -1.630625e-02 1.729023e-02 1.787277e-02 -1.405425e-02 -1.206518e-02 -1.274232e-02 -1.637437e-03 -1.209120e-02 4.364216e-03 8.985885e-03 -1.460734e-02 1.253866e-02
<VARIANCE> 25
 1.558600e+00 3.792700e+00 4.936843e+00 5.115697e+00 7.984499e+00 6.802803e+00 8.068419e+00 8.824172e+00 8.136850e+00 9.206955e+00 9.256533e+00 8.778974e+00 1.006232e-01 3.258709e-01 3.946212e-01 4.775086e-01 7.674037e-01 7.080175e-01 8.146522e-01 9.288551e-01 8.912538e-01 9.603065e-01 9.252509e-01 9.218190e-01 1.897845e-01
<GCONST> 5.997512e+01
<TRANSP> 5
 0.000000e+00 1.000000e+00 0.000000e+00 0.000000e+00 0.000000e+00
 0.000000e+00 7.569887e-01 2.430113e-01 0.000000e+00 0.000000e+00
 0.000000e+00 0.000000e+00 6.442388e-01 3.557612e-01 0.000000e+00
 0.000000e+00 0.000000e+00 0.000000e+00 9.734619e-01 2.653813e-02
 0.000000e+00 0.000000e+00 0.000000e+00 0.000000e+00 0.000000e+00
<ENDHMM>
~h "\340\262\247\340\263\215"
<BEGINHMM>
<NUMSTATES> 5
<STATE> 2
<MEAN> 25
 6.131065e+00 3.325265e+00 4.853280e+00 4.680112e+00 2.717330e+00 -3.118191e+00 -9.026503e+00 -5.230161e+00 -6.882703e-01 -9.759873e-01 -3.919140e+00 -7.847678e+00 7.077797e-02 2.366746e+00 1.602604e+00 2.072579e+00 1.473257e+00 1.034085e+00 1.236191e+00 1.131474e+00 -7.399395e-01 -1.321909e-01 -1.087385e+00 -6.408901e-01 -2.419708e+00
<VARIANCE> 25
 2.269757e+01 3.945079e+01 3.148012e+01 3.290838e+01 3.011307e+01 4.124783e+01 4.509654e+01 6.882607e+01 3.387599e+01 3.435270e+01 2.348656e+01 2.274980e+01 2.490550e+00 1.393807e+00 2.689467e+00 2.798620e+00 3.585847e+00 4.558774e+00 5.226320e+00 5.008451e+00 2.875382e+00 3.742320e+00 1.730939e+00 1.787799e+00 4.849301e+00
<GCONST> 1.025989e+02
<STATE> 3
<MEAN> 25
 3.622886e+00 1.061546e+01 8.244660e+00 9.289918e+00 6.471770e+00 8.517297e-01 -2.870584e+00 -1.172192e+00 -1.927305e+00 -1.255163e+00 -5.435781e+00 -7.361476e+00 -2.005024e+00 -7.137301e-01 -1.183075e+00 -1.233645e+00 3.628576e-01 1.402322e-01 7.511051e-01 5.721288e-01 1.753267e-01 4.128485e-02 7.114031e-01 7.977353e-01 9.987594e-01
<VARIANCE> 25
 1.693174e+01 2.049105e+01 2.137498e+01 2.192002e+01 1.756257e+01 3.179929e+01 1.910860e+01 2.212131e+01 1.799017e+01 3.590403e+01 1.450396e+01 1.228282e+01 2.311962e+00 3.064043e+00 2.990432e+00 3.419632e+00 2.573577e+00 2.749453e+00 1.743022e+00 2.552147e+00 2.280578e+00 3.675076e+00 1.935537e+00 1.630808e+00 5.140842e+00
<GCONST> 9.461563e+01
<STATE> 4
<MEAN> 25
 -3.973180e+00 1.012927e+00 4.249933e-01 -1.460287e+00 3.715450e+00 -3.427871e+00 -2.801161e+00 1.965548e+00 3.750566e-01 -6.698363e-01 -1.234656e+00 -3.938187e+00 1.171195e-01 -1.865029e+00 -5.444207e-01 -1.453887e+00 -1.835451e+00 -1.898385e+00 -6.199993e-01 -2.079724e-01 1.343691e+00 5.783819e-01 4.340634e-01 -7.897267e-02 3.019813e+00
<VARIANCE> 25
 1.934672e+01 9.446065e+00 1.422235e+01 1.881110e+01 2.299658e+01 1.889038e+01 2.327994e+01 1.785462e+01 2.893458e+01 2.361895e+01 1.343057e+01 1.652297e+01 3.616879e+00 3.198065e+00 4.434568e+00 3.693707e+00 2.913173e+00 4.160146e+00 3.488594e+00 3.202252e+00 5.114513e+00 4.117761e+00 2.391102e+00 2.924008e+00 4.545698e+00
<GCONST> 9.743619e+01
<TRANSP> 5
 0.000000e+00 1.000000e+00 0.000000e+00 0.000000e+00 0.000000e+00
 0.000000e+00 7.162094e-01 2.837906e-01 0.000000e+00 0.000000e+00
 0.000000e+00 0.000000e+00 7.182186e-01 2.817814e-01 0.000000e+00
 0.000000e+00 0.000000e+00 0.000000e+00 6.110644e-01 3.889356e-01
 0.000000e+00 0.000000e+00 0.000000e+00 0.000000e+00 0.000000e+00
<ENDHMM>
~h "\340\262\270\340\263\215"
<BEGINHMM>
<NUMSTATES> 5
<STATE> 2
<MEAN> 25
 -2.800415e+00 2.623536e+00 3.089747e+00 -6.669461e-01 2.800317e+00 -7.297716e+00 -4.958466e+00 -9.211993e-02 -2.482083e+00 -2.496821e+00 -1.022689e+00 -3.144908e+00 -3.588948e+00 7.181332e-01 5.838545e-02 -1.033576e+00 2.365976e+00 2.012561e-02 -3.961320e-02 1.788254e+00 3.622390e-01 4.709806e-01 -1.785986e-02 1.269378e-01 7.786027e-01
<VARIANCE> 25
 8.350125e+01 4.480219e+01 3.733900e+01 2.837076e+01 6.002187e+01 6.484944e+01 4.789519e+01 6.499458e+01 6.149440e+01 4.600576e+01 2.408288e+01 2.637769e+01 9.499929e+00 5.217166e+00 4.131699e+00 3.484942e+00 7.520744e+00 4.267281e+00 5.726977e+00 6.964296e+00 5.078733e+00 3.265872e+00 2.114103e+00 2.564997e+00 3.055771e+00
<GCONST> 1.111925e+02
<STATE> 3
<MEAN> 25
 -2.237999e+01 3.566894e+00 1.050176e+00 -7.386621e+00 9.225411e+00 -4.682701e+00 -1.009383e+00 7.948482e+00 1.889311e-01 1.843870e+00 1.039384e+00 -4.367524e-01 -1.041073e+00 -4.425218e-01 -1.098751e-01 -5.331014e-01 -6.775097e-02 1.075761e-01 2.113730e-02 3.325064e-01 2.234946e-01 7.197119e-02 1.075853e-01 9.668162e-02 4.683352e-01
<VARIANCE> 25
 3.598983e+01 8.542858e+00 2.639672e+01 1.827020e+01 1.598456e+01 2.619146e+01 3.150693e+01 1.960655e+01 1.574664e+01 1.839061e+01 1.648122e+01 1.542100e+01 4.664452e+00 8.738310e-01 1.526272e+00 2.040762e+00 1.341896e+00 2.106922e+00 1.785632e+00 1.478276e+00 1.775577e+00 1.654844e+00 1.369336e+00 1.585438e+00 2.022248e+00
<GCONST> 8.863177e+01
<STATE> 4
<MEAN> 25
 -1.461019e+01 4.528284e-01 4.184127e+00 -5.917595e+00 5.083395e+00 -4.103205e+00 -6.653720e+00 3.668951e+00 4.980671e-01 -2.451116e-01 -9.814129e-02 -3.364750e+00 4.815151e+00 -2.146985e-01 1.250354e-03 8.646210e-01 -1.594398e+00 -8.232723e-01 -1.202290e+00 -2.574426e+00 -9.622139e-01 -2.393400e-01 -3.360538e-01 -8.257827e-01 2.886813e-01
<VARIANCE> 25
 1.119955e+02 1.825211e+01 3.383754e+01 2.657860e+01 2.912696e+01 7.214449e+01 5.324791e+01 5.353020e+01 4.273169e+01 3.165690e+01 2.239566e+01 2.506575e+01 9.734468e+00 2.397546e+00 3.573744e+00 2.336662e+00 3.208829e+00 3.074962e+00 4.195887e+00 3.745275e+00 4.560417e+00 3.667113e+00 2.182629e+00 2.896607e+00 1.502134e+00
<GCONST> 1.049012e+02
<TRANSP> 5
 0.000000e+00 1.000000e+00 0.000000e+00 0.000000e+00 0.000000e+00
 0.000000e+00 7.170042e-01 2.829958e-01 0.000000e+00 0.000000e+00
 0.000000e+00 0.000000e+00 8.633827e-01 1.366173e-01 0.000000e+00
 0.000000e+00 0.000000e+00 0.000000e+00 7.301456e-01 2.698543e-01
 0.000000e+00 0.000000e+00 0.000000e+00 0.000000e+00 0.000000e+00
<ENDHMM>
~h "\340\262\237\340\263\215"
<BEGINHMM>
<NUMSTATES> 5
<STATE> 2
<MEAN> 25
 6.715357e-01 -8.890011e-01 -5.696332e+00 1.573194e+00 3.523433e+00 -2.059178e+00 -2.130878e+00 1.899694e+00 2.266896e+00 4.246674e+00 2.298581e+00 1.292211e+00 -1.414286e+00 3.048466e-01 1.472149e-03 -4.020537e-01 1.308442e-01 1.205410e+00 9.838100e-01 1.050349e+00 3.483212e-01 6.116627e-01 1.188044e+00 5.812988e-01 -1.693042e+00
<VARIANCE> 25
 5.048464e+01 2.605406e+01 5.432259e+01 2.566495e+01 2.443914e+01 4.274056e+01 3.694189e+01 3.449412e+01 4.076143e+01 3.252167e+01 3.933928e+01 3.773449e+01 1.949947e+00 2.692834e+00 3.520198e+00 2.320722e+00 2.914515e+00 4.200631e+00 2.406109e+00 3.140670e+00 2.586276e+00 2.740098e+00 3.256787e+00 3.347424e+00 3.803630e+00
<GCONST> 1.029320e+02
<STATE> 3
<MEAN> 25
 -5.603913e+00 -2.215945e+00 -1.805511e+00 1.565707e+00 2.729650e+00 2.810276e-01 2.726572e+00 4.077365e+00 2.895950e+00 5.281743e+00 4.274673e+00 3.211833e+00 3.561415e-01 -1.667237e+00 1.250157e+00 2.095889e-01 -1.308362e+00 -9.267846e-01 -6.795721e-01 -5.160382e-01 -7.133651e-01 -1.400744e+00 -1.091971e+00 -8.761969e-01 3.205970e+00
<VARIANCE> 25
 3.263392e+01 4.825885e+01 6.032537e+01 2.742203e+01 2.112386e+01 3.158022e+01 2.781525e+01 1.776906e+01 2.096792e+01 2.779116e+01 2.263983e+01 2.247551e+01 2.114552e+00 3.693608e+00 5.079438e+00 4.214721e+00 5.288790e+00 6.116023e+00 3.646404e+00 2.733197e+00 4.004871e+00 3.545731e+00 2.015039e+00 3.107517e+00 7.022885e+00
<GCONST> 1.033576e+02
<STATE> 4
<MEAN> 25
 1.122950e-01 -6.812227e+00 6.550143e-01 2.997829e+00 -4.449195e+00 -5.523176e+00 -2.441586e+00 -1.070448e+00 -1.090459e+00 -1.581572e+00 -6.707636e-01 -3.522638e-01 2.113615e+00 -1.660812e-02 5.270461e-01 1.920930e-01 -2.512353e+00 -1.811009e+00 -1.353514e+00 -2.100521e+00 -7.697166e-01 -1.815687e+00 -1.012701e+00 -3.975294e-01 3.293290e+00
<VARIANCE> 25
 6.251819e+01 3.840545e+01 9.021985e+01 2.564851e+01 7.471300e+01 6.772356e+01 3.736103e+01 8.326305e+01 3.377462e+01 5.329210e+01 2.644063e+01 3.820398e+01 4.412320e+00 5.164060e+00 6.898983e+00 3.235582e+00 7.246367e+00 8.691040e+00 4.413720e+00 5.936284e+00 4.800377e+00 4.812215e+00 2.842407e+00 5.022839e+00 1.192690e+01
<GCONST> 1.143800e+02
<TRANSP> 5
 0.000000e+00 1.000000e+00 0.000000e+00 0.000000e+00 0.000000e+00
 0.000000e+00 7.708570e-01 2.291430e-01 0.000000e+00 0.000000e+00
 0.000000e+00 0.000000e+00 4.223783e-01 5.776218e-01 0.000000e+00
 0.000000e+00 0.000000e+00 0.000000e+00 4.911445e-01 5.088555e-01
 0.000000e+00 0.000000e+00 0.000000e+00 0.000000e+00 0.000000e+00
<ENDHMM>
~h "\340\262\260\340\263\215"
<BEGINHMM>
<NUMSTATES> 5
<STATE> 2
<MEAN> 25
 3.032073e+00 -5.140511e+00 -1.064718e+00 3.517969e+00 1.720702e+00 -8.146035e+00 -6.997742e+00 -9.731683e-01 -4.462614e-01 7.263047e-01 5.581720e-02 -4.484213e+00 8.793060e-01 1.452802e-01 9.001244e-02 1.573712e+00 -2.241842e-01 -9.778244e-01 -4.605280e-01 -6.009573e-01 -3.974776e-01 -3.518195e-02 -5.501269e-01 -3.012781e-01 -4.249422e-02
<VARIANCE> 25
 4.601448e+01 3.564409e+01 5.075661e+01 3.652871e+01 4.477615e+01 5.356004e+01 4.672452e+01 4.370723e+01 3.759436e+01 3.115046e+01 2.237271e+01 2.146376e+01 4.815450e+00 3.579134e+00 5.174136e+00 3.872621e+00 4.825212e+00 4.297909e+00 5.144589e+00 4.107610e+00 3.657662e+00 2.997573e+00 2.395810e+00 2.649399e+00 4.576938e+00
<GCONST> 1.072098e+02
<STATE> 3
<MEAN> 25
 1.054012e+01 -6.413435e+00 -7.500784e+00 6.911175e+00 -4.323349e+00 -1.367587e+01 -7.981769e+00 -7.907926e+00 -9.692102e-01 1.496729e+00 -1.616366e+00 -3.530677e+00 1.143972e+00 -3.829153e-01 -2.041944e+00 2.784492e-01 -1.859697e+00 -2.108938e-01 8.651356e-01 -1.687859e+00 7.202958e-01 3.264925e-01 -6.451540e-01 1.178655e+00 8.056424e-01
<VARIANCE> 25
 1.589008e+01 1.943381e+01 5.834304e+01 2.619899e+01 4.269546e+01 3.472644e+01 3.962369e+01 3.470500e+01 3.018629e+01 3.819892e+01 1.995441e+01 2.303263e+01 2.179092e+00 2.457125e+00 4.836418e+00 3.708302e+00 3.919272e+00 3.977337e+00 4.252424e+00 3.619452e+00 3.580139e+00 3.368460e+00 2.493240e+00 2.924139e+00 1.986836e+00
<GCONST> 1.019281e+02
<STATE> 4
<MEAN> 25
 1.152665e+01 -5.146289e+00 -8.351720e+00 -1.155856e+00 -9.694161e+00 -5.936050e+00 -2.576165e+00 -9.426619e+00 -2.107701e+00 -2.639889e+00 -4.177809e+00 1.795581e+00 -2.952989e-01 1.913196e-01 7.390016e-01 -1.604782e+00 -2.757685e-01 1.366812e+00 6.202094e-01 7.191007e-01 -2.767681e-01 -8.866963e-01 -2.505837e-01 2.220662e-01 2.440244e-02
<VARIANCE> 25
 1.695434e+01 5.284868e+01 5.423519e+01 7.737296e+01 5.848125e+01 5.674001e+01 5.440958e+01 4.322326e+01 6.067440e+01 7.073301e+01 2.928663e+01 5.473255e+01 5.198998e-01 2.319259e+00 2.107656e+00 3.123926e+00 3.821046e+00 3.692632e+00 2.933463e+00 2.826848e+00 3.304323e+00 3.412694e+00 2.659116e+00 3.608687e+00 1.341851e+00
<GCONST> 1.045131e+02
<TRANSP> 5
 0.000000e+00 1.000000e+00 0.000000e+00 0.000000e+00 0.000000e+00
 0.000000e+00 6.222990e-01 3.777010e-01 0.000000e+00 0.000000e+00
 0.000000e+00 0.000000e+00 6.112597e-01 3.887403e-01 0.000000e+00
 0.000000e+00 0.000000e+00 0.000000e+00 6.533133e-01 3.466866e-01
 0.000000e+00 0.000000e+00 0.000000e+00 0.000000e+00 0.000000e+00
<ENDHMM>
~h "\340\262\227\340\263\215"
<BEGINHMM>
<NUMSTATES> 5
<STATE> 2
<MEAN> 25
 6.862201e+00 -1.178023e+00 -4.631679e-01 -1.552028e+00 -4.763824e+00 -1.445997e+00 -6.948185e+00 -6.391850e+00 -2.573085e+00 -6.224909e+00 -8.147452e-01 1.827359e-01 3.119923e-01 1.573927e+00 1.057087e+00 1.249124e+00 4.109600e-01 -1.865067e-01 -5.775900e-01 -3.976522e-02 -1.127428e+00 -1.521579e+00 -3.002927e-01 1.389038e-01 -1.022061e+00
<VARIANCE> 25
 4.292879e+01 4.493449e+01 5.999904e+01 6.844897e+01 6.015937e+01 7.858177e+01 7.237717e+01 5.725333e+01 6.350872e+01 5.270781e+01 3.559175e+01 3.737133e+01 3.178069e+00 5.820900e+00 3.838650e+00 6.070040e+00 8.438496e+00 4.916602e+00 4.956965e+00 4.906381e+00 4.212541e+00 5.134192e+00 2.869719e+00 3.637799e+00 8.207768e+00
<GCONST> 1.144392e+02
<STATE> 3
<MEAN> 25
 8.120996e+00 3.597163e+00 3.756900e+00 3.342159e+00 -2.150357e+00 -3.743638e+00 -6.018226e+00 -4.590170e+00 -5.832040e+00 -8.454980e+00 -2.639681e+00 -1.988258e+00 -6.312536e-01 1.566621e+00 8.622744e-01 9.049661e-01 1.969731e+00 7.434242e-01 9.186748e-01 1.197226e+00 -1.250151e+00 4.032558e-01 -1.349396e-01 -1.045026e+00 -2.165126e+00
<VARIANCE> 25
 1.716905e+01 3.137608e+01 3.518971e+01 4.436946e+01 4.635383e+01 6.373550e+01 3.885750e+01 3.646798e+01 5.285837e+01 3.656169e+01 2.586164e+01 3.250555e+01 1.754914e+00 3.802063e+00 2.916555e+00 3.421639e+00 6.024601e+00 5.369334e+00 5.481524e+00 3.957460e+00 6.011755e+00 3.560192e+00 2.639743e+00 3.351034e+00 4.195662e+00
<GCONST> 1.065671e+02
<STATE> 4
<MEAN> 25
 8.576992e+00 5.515412e+00 4.373505e-01 -1.560699e-01 -4.942589e+00 4.513628e-01 -2.083527e+00 -4.212054e+00 -7.588731e+00 -1.028612e+01 -4.130678e+00 -6.942208e-01 -9.554470e-01 -6.973580e-01 -2.977684e-01 -5.202484e-01 5.425656e-01 3.888017e-01 -2.197341e-01 9.166259e-02 7.972285e-01 5.680687e-01 4.646625e-01 -2.279762e-01 3.048971e-01
<VARIANCE> 25
 2.268388e+01 3.359143e+01 5.338722e+01 5.275047e+01 1.094635e+02 4.794041e+01 3.540142e+01 4.982318e+01 3.380560e+01 5.712039e+01 2.870483e+01 5.143478e+01 2.774935e+00 3.615722e+00 3.403939e+00 2.855227e+00 6.892041e+00 3.937378e+00 3.685277e+00 3.676595e+00 3.744930e+00 3.065190e+00 3.218702e+00 2.789361e+00 3.107708e+00
<GCONST> 1.076863e+02
<TRANSP> 5
 0.000000e+00 1.000000e+00 0.000000e+00 0.000000e+00 0.000000e+00
 0.000000e+00 5.321818e-01 4.678182e-01 0.000000e+00 0.000000e+00
 0.000000e+00 0.000000e+00 4.808654e-01 5.191346e-01 0.000000e+00
 0.000000e+00 0.000000e+00 0.000000e+00 6.405702e-01 3.594298e-01
 0.000000e+00 0.000000e+00 0.000000e+00 0.000000e+00 0.000000e+00
<ENDHMM>
~h "\340\262\250\340\263\215"
<BEGINHMM>
<NUMSTATES> 5
<STATE> 2
<MEAN> 25
 8.298933e+00 -6.918955e-01 4.637321e+00 3.041617e+00 -2.035452e+00 -6.737630e+00 -6.291933e+00 -1.633644e+00 -1.859161e-02 -5.696928e+00 -6.196674e+00 -3.943215e+00 1.289918e+00 1.582723e+00 1.963167e+00 4.556920e-01 5.017174e-01 -3.320748e-01 -1.631339e+00 6.655741e-01 -1.438459e+00 -2.001310e+00 -1.907216e-01 2.542484e-01 -6.188408e-01
<VARIANCE> 25
 4.080512e+01 5.499134e+01 3.574783e+01 2.388732e+01 5.145982e+01 4.388432e+01 5.147055e+01 4.236568e+01 4.451446e+01 5.474797e+01 2.499811e+01 3.705935e+01 1.891945e+00 2.206710e+00 3.517323e+00 2.602022e+00 6.068556e+00 3.290730e+00 3.942768e+00 3.049572e+00 2.952767e+00 3.173820e+00 2.522834e+00 1.936791e+00 4.284046e+00
<GCONST> 1.048555e+02
<STATE> 3
<MEAN> 25
 1.255252e+01 3.178478e+00 8.359985e+00 2.276277e+00 -2.738665e+00 -8.169812e+00 -8.115635e+00 1.036955e+00 -4.823074e+00 -1.313227e+01 -7.104843e+00 -1.870889e+00 -1.265128e-01 -4.621771e-01 -3.325284e-01 1.430234e-01 -2.620074e-01 -2.643488e-01 4.105924e-02 -3.575091e-01 4.662101e-01 3.704065e-01 -2.304483e-01 -2.078895e-01 4.346633e-01
<VARIANCE> 25
 5.754005e+00 2.220157e+01 1.110243e+01 1.785605e+01 2.000026e+01 2.428803e+01 3.045475e+01 2.464752e+01 3.726527e+01 4.520296e+01 1.915794e+01 3.217023e+01 4.507494e-01 2.360192e+00 1.474813e+00 1.049251e+00 3.055446e+00 1.563457e+00 2.030586e+00 2.308928e+00 2.816728e+00 3.754310e+00 1.185490e+00 1.821999e+00 1.394893e+00
<GCONST> 8.981497e+01
<STATE> 4
<MEAN> 25
 9.121863e+00 -3.311716e+00 2.657725e+00 1.957286e+00 -5.625839e+00 -7.324552e+00 -6.427522e+00 -4.631539e+00 9.878857e-01 -4.513689e+00 -6.454868e+00 -3.865099e+00 -6.904671e-01 -1.464067e+00 -1.465381e+00 -9.682759e-01 -1.283893e+00 7.264869e-01 1.296096e+00 -7.718365e-01 4.689789e-01 1.172907e+00 4.016435e-01 2.092547e-01 1.116925e+00
<VARIANCE> 25
 2.498601e+01 4.029049e+01 4.049571e+01 2.776620e+01 7.278236e+01 4.578787e+01 3.663910e+01 4.309449e+01 4.292591e+01 5.137334e+01 2.930139e+01 2.824330e+01 8.726985e-01 3.630956e+00 3.720913e+00 3.024897e+00 5.184180e+00 4.964249e+00 4.311807e+00 3.666206e+00 4.699522e+00 4.664194e+00 2.631089e+00 2.889728e+00 2.497665e+00
<GCONST> 1.053933e+02
<TRANSP> 5
 0.000000e+00 1.000000e+00 0.000000e+00 0.000000e+00 0.000000e+00
 0.000000e+00 6.533847e-01 3.466153e-01 0.000000e+00 0.000000e+00
 0.000000e+00 0.000000e+00 7.407441e-01 2.592559e-01 0.000000e+00
 0.000000e+00 0.000000e+00 0.000000e+00 5.868583e-01 4.131417e-01
 0.000000e+00 0.000000e+00 0.000000e+00 0.000000e+00 0.000000e+00
<ENDHMM>
~h "\340\262\271\340\263\215"
<BEGINHMM>
<NUMSTATES> 5
<STATE> 2
<MEAN> 25
 -6.527578e+00 3.510849e+00 -1.370498e+00 1.480858e+00 5.298505e+00 4.805206e+00 3.404968e+00 6.626078e+00 3.481488e+00 4.845140e+00 3.602952e+00 2.474470e+00 -4.703408e-02 5.271699e-02 6.738877e-02 1.632086e-02 1.761978e-02 2.346132e-04 9.817333e-03 8.417154e-02 -2.617778e-02 -3.085942e-02 -5.626748e-02 -5.698990e-03 -3.846197e-02
<VARIANCE> 25
 1.356175e+01 9.838251e+00 9.443559e+00 1.302929e+01 1.307288e+01 1.388117e+01 1.543857e+01 1.697840e+01 1.453336e+01 1.501932e+01 1.780231e+01 1.674639e+01 5.335003e-01 5.226585e-01 8.320306e-01 9.381033e-01 1.037609e+00 9.816156e-01 1.184627e+00 1.365632e+00 1.367172e+00 1.284339e+00 1.342074e+00 1.534498e+00 5.032025e-01
<GCONST> 7.707932e+01
<STATE> 3
<MEAN> 25
 -5.361437e-01 -6.082599e-01 -1.076548e+00 -1.769081e+00 4.223285e+00 5.412782e+00 5.537116e+00 1.771071e+00 9.311881e-01 1.668381e+00 -1.667461e+00 -1.912421e+00 6.587313e-01 -2.692656e-01 -1.969533e-01 -4.363187e-01 -6.743663e-01 -5.337573e-01 -1.490805e-02 -4.347158e-01 -7.543991e-01 -4.691940e-01 -4.959736e-01 -3.768336e-01 7.139100e-01
<VARIANCE> 25
 3.154424e+01 2.761661e+01 1.883344e+01 3.117502e+01 2.459875e+01 4.021413e+01 3.352328e+01 4.641936e+01 2.850047e+01 2.011441e+01 2.506112e+01 2.781510e+01 1.031605e+00 1.419742e+00 2.227129e+00 1.856526e+00 2.294970e+00 2.815454e+00 2.735763e+00 3.137740e+00 1.626087e+00 1.654366e+00 2.052045e+00 2.156261e+00 8.030663e-01
<GCONST> 9.431136e+01
<STATE> 4
<MEAN> 25
 1.072252e+00 -2.076065e+00 -3.007010e+00 -3.484019e+00 -2.047827e-01 2.453367e+00 3.192913e+00 1.472557e+00 -3.390050e-01 5.428626e-01 -2.430129e+00 -3.223859e+00 1.510494e+00 -1.052197e+00 2.003080e-02 -1.060669e+00 -1.713999e+00 -8.564835e-01 -3.031451e-01 -1.107354e+00 -5.969143e-01 -7.270857e-01 -5.052992e-01 -6.399043e-01 2.537646e+00
<VARIANCE> 25
 2.605479e+01 3.229184e+01 3.234312e+01 3.417835e+01 3.551217e+01 4.837352e+01 2.981481e+01 4.112703e+01 2.817124e+01 1.977618e+01 2.529174e+01 2.830441e+01 1.238582e+00 3.818820e+00 2.807436e+00 2.554235e+00 2.845813e+00 3.249779e+00 3.241910e+00 2.894829e+00 2.564041e+00 1.874452e+00 2.523747e+00 2.542584e+00 2.005204e+00
<GCONST> 9.925874e+01
<TRANSP> 5
 0.000000e+00 1.000000e+00 0.000000e+00 0.000000e+00 0.000000e+00
 0.000000e+00 8.378929e-01 1.621071e-01 0.000000e+00 0.000000e+00
 0.000000e+00 0.000000e+00 4.802144e-01 5.197856e-01 0.000000e+00
 0.000000e+00 0.000000e+00 0.000000e+00 6.828174e-01 3.171826e-01
 0.000000e+00 0.000000e+00 0.000000e+00 0.000000e+00 0.000000e+00
<ENDHMM>
~h "\340\262\205"
<BEGINHMM>
<NUMSTATES> 5
<STATE> 2
<MEAN> 25
 5.104443e+00 -3.256455e+00 -2.484012e+00 -2.730519e+00 -2.219062e+00 -4.801113e+00 -6.609019e+00 -4.491042e+00 4.688488e-01 -2.368033e-01 -6.586462e-01 -3.738845e+00 1.551537e+00 -1.903090e+00 -1.565196e+00 -1.485503e+00 -1.815512e+00 -5.369248e-01 -4.606689e-01 -1.174455e+00 1.166783e+00 9.767837e-01 1.561376e-01 -2.727641e-01 2.330052e+00
<VARIANCE> 25
 3.810297e+01 4.353785e+01 3.652468e+01 4.366344e+01 5.714605e+01 6.255633e+01 5.803318e+01 5.117303e+01 4.052597e+01 3.724084e+01 3.482697e+01 3.213964e+01 4.745350e+00 4.499247e+00 3.900059e+00 3.765473e+00 6.304329e+00 4.980356e+00 6.005986e+00 4.526329e+00 4.678440e+00 3.997909e+00 3.879129e+00 3.574181e+00 4.193313e+00
<GCONST> 1.107420e+02
<STATE> 3
<MEAN> 25
 8.608106e+00 -1.024556e+01 -6.750370e+00 -7.054615e+00 -5.844729e+00 -4.926596e+00 -5.425617e+00 -5.967403e+00 4.014299e+00 2.048967e+00 -1.521731e+00 -6.227735e+00 2.398077e-01 -7.255816e-01 -4.084612e-01 -3.713750e-01 -3.007941e-03 4.401791e-01 5.045022e-01 -1.434195e-01 4.679739e-03 8.067040e-02 -1.421667e-01 -2.103958e-01 3.001584e-01
<VARIANCE> 25
 9.873593e+00 2.771193e+01 1.865217e+01 2.939850e+01 2.289468e+01 4.058615e+01 5.836135e+01 3.214676e+01 3.403208e+01 1.956036e+01 3.629014e+01 2.944989e+01 6.695128e-01 2.270385e+00 1.714005e+00 2.372057e+00 2.016125e+00 3.516199e+00 3.725746e+00 2.678275e+00 3.446849e+00 1.741799e+00 1.732628e+00 1.786340e+00 9.954377e-01
<GCONST> 9.470984e+01
<STATE> 4
<MEAN> 25
 5.951736e+00 -3.264251e+00 -4.949047e+00 -6.296700e+00 3.449149e-01 3.460992e+00 1.973756e+00 -6.411602e+00 -1.066471e+00 1.450617e+00 -4.348774e+00 -5.232166e+00 -5.618489e-01 9.088016e-01 4.737986e-01 7.410958e-01 6.318768e-01 1.891972e-01 -3.374521e-02 4.996900e-01 -3.381534e-02 1.257102e-02 1.649722e-01 3.243320e-01 -1.393041e+00
<VARIANCE> 25
 3.333583e+01 3.615298e+01 2.154413e+01 3.937047e+01 3.997651e+01 5.512002e+01 6.084610e+01 6.467513e+01 3.520433e+01 2.021996e+01 4.375086e+01 2.840948e+01 9.771525e-01 1.586347e+00 1.855174e+00 2.455985e+00 2.215371e+00 2.729042e+00 2.455396e+00 3.256415e+00 2.547072e+00 1.765165e+00 2.516714e+00 1.839954e+00 1.247630e+00
<GCONST> 9.854329e+01
<TRANSP> 5
 0.000000e+00 1.000000e+00 0.000000e+00 0.000000e+00 0.000000e+00
 0.000000e+00 5.008155e-01 4.991845e-01 0.000000e+00 0.000000e+00
 0.000000e+00 0.000000e+00 6.968818e-01 3.031182e-01 0.000000e+00
 0.000000e+00 0.000000e+00 0.000000e+00 8.290625e-01 1.709374e-01
 0.000000e+00 0.000000e+00 0.000000e+00 0.000000e+00 0.000000e+00
<ENDHMM>
~h "\340\262\206"
<BEGINHMM>
<NUMSTATES> 5
<STATE> 2
<MEAN> 25
 4.467155e+00 -7.579114e+00 -5.407735e+00 -7.472801e+00 -1.735942e+00 1.534381e+00 1.768059e+00 -1.461428e+00 -1.429177e+00 7.056065e-01 -1.873450e+00 -3.910322e+00 1.098860e+00 -1.677260e+00 -1.165971e+00 -1.419355e+00 -9.755481e-01 9.996803e-01 1.361072e+00 -6.135404e-01 -7.993500e-01 -7.852449e-02 -6.654777e-01 -6.221085e-02 1.609735e+00
<VARIANCE> 25
 5.770535e+01 5.261687e+01 3.297269e+01 4.572504e+01 4.703686e+01 5.663256e+01 6.168653e+01 4.842110e+01 4.008392e+01 3.055232e+01 3.961872e+01 3.191846e+01 3.404545e+00 4.382873e+00 2.905836e+00 2.826361e+00 4.528061e+00 3.844846e+00 4.696312e+00 3.590677e+00 4.138622e+00 3.117869e+00 3.115423e+00 2.631450e+00 4.790795e+00
<GCONST> 1.081448e+02
<STATE> 3
<MEAN> 25
 1.043852e+01 -1.349401e+01 -9.615010e+00 -1.266556e+01 -5.904106e+00 5.397935e+00 7.786581e+00 -6.868337e+00 -7.379435e+00 -5.832950e-01 -6.214847e+00 -2.347707e+00 2.071375e-02 -4.917338e-03 -5.001689e-02 -1.127786e-01 -1.353027e-02 2.441135e-01 1.361365e-01 -3.605622e-01 -1.888456e-01 3.282868e-02 3.286092e-02 9.379491e-03 8.499233e-02
<VARIANCE> 25
 7.130060e+00 2.209857e+01 1.595102e+01 2.156930e+01 2.515290e+01 2.787451e+01 3.108231e+01 5.301473e+01 2.333337e+01 2.289674e+01 3.420649e+01 2.368856e+01 1.995039e-01 9.208710e-01 6.394776e-01 7.791228e-01 1.047851e+00 1.461477e+00 1.530325e+00 9.944304e-01 1.568848e+00 7.261701e-01 8.189585e-01 8.534265e-01 2.388831e-01
<GCONST> 8.058116e+01
<STATE> 4
<MEAN> 25
 9.385338e+00 -9.311230e+00 -8.800673e+00 -9.474641e+00 -3.322567e+00 9.640286e-01 2.236325e+00 -7.755264e+00 -2.219944e+00 1.644371e+00 -4.288493e+00 -5.680342e+00 -2.135174e-01 1.259860e+00 7.127336e-01 1.294042e+00 5.012510e-01 -1.603414e+00 -1.769544e+00 3.282007e-01 1.177147e+00 2.569603e-01 4.796950e-01 -3.685605e-01 -8.810849e-01
<VARIANCE> 25
 9.513661e+00 3.173665e+01 1.876457e+01 3.263625e+01 3.180153e+01 4.636607e+01 4.004905e+01 4.757152e+01 3.529781e+01 2.135846e+01 3.819908e+01 2.574215e+01 4.732982e-01 1.516301e+00 1.653358e+00 1.938550e+00 2.072821e+00 2.754351e+00 3.257901e+00 2.946007e+00 2.738779e+00 1.894192e+00 1.732011e+00 1.961646e+00 1.038014e+00
<GCONST> 9.418246e+01
<TRANSP> 5
 0.000000e+00 1.000000e+00 0.000000e+00 0.000000e+00 0.000000e+00
 0.000000e+00 7.579426e-01 2.420574e-01 0.000000e+00 0.000000e+00
 0.000000e+00 0.000000e+00 8.785688e-01 1.214311e-01 0.000000e+00
 0.000000e+00 0.000000e+00 0.000000e+00 8.002092e-01 1.997908e-01
 0.000000e+00 0.000000e+00 0.000000e+00 0.000000e+00 0.000000e+00
<ENDHMM>
~h "\340\262\207"
<BEGINHMM>
<NUMSTATES> 5
<STATE> 2
<MEAN> 25
 5.773662e-01 -1.208207e+00 1.061442e+01 4.050691e+00 -8.202490e+00 -8.331955e+00 -4.010359e+00 -3.682127e+00 -5.699077e+00 -8.566220e+00 -1.967677e+00 -1.603189e+00 1.209623e+00 -4.641809e-01 1.294369e+00 5.874695e-01 -3.369212e+00 -1.662256e+00 -6.086070e-02 -1.608824e+00 -6.994145e-01 -1.925665e+00 9.092443e-02 7.995822e-01 1.799099e+00
<VARIANCE> 25
 3.752248e+01 3.477693e+01 3.866625e+01 3.198383e+01 7.812728e+01 6.352150e+01 4.095646e+01 3.187162e+01 3.507952e+01 4.195255e+01 2.518017e+01 2.939376e+01 6.090879e+00 4.000354e+00 5.016629e+00 3.235200e+00 5.153535e+00 4.531816e+00 4.631228e+00 3.691453e+00 4.074896e+00 4.018163e+00 2.898604e+00 2.890880e+00 3.669596e+00
<GCONST> 1.080172e+02
<STATE> 3
<MEAN> 25
 2.497875e+00 1.474911e+00 1.492967e+01 3.290379e+00 -1.664748e+01 -9.140265e+00 1.021126e+00 -1.054690e+01 -8.872354e+00 -1.076193e+01 -7.067825e-01 -2.442370e+00 7.102950e-02 5.117298e-01 -5.509370e-02 -3.750149e-03 3.723905e-01 1.462320e-01 5.196297e-01 2.098381e-01 -1.591255e-01 1.513004e-01 -6.366685e-02 -3.472294e-01 -5.229040e-01
<VARIANCE> 25
 8.385144e+00 4.126830e+01 2.154857e+01 2.723190e+01 2.901562e+01 4.018283e+01 5.085354e+01 2.738055e+01 3.010059e+01 2.241043e+01 1.869628e+01 3.407303e+01 5.608186e-01 1.362229e+00 1.670135e+00 1.420502e+00 3.220414e+00 2.263574e+00 2.703983e+00 2.977931e+00 1.980636e+00 1.383214e+00 1.333171e+00 1.398500e+00 8.325224e-01
<GCONST> 9.155371e+01
<STATE> 4
<MEAN> 25
 -8.126431e-01 1.007922e+00 7.371755e+00 5.029990e+00 -2.816328e+00 -5.287814e+00 3.271486e-01 9.223007e-01 -3.508375e+00 -4.912771e+00 -1.107303e+00 -8.124656e-01 -5.285261e-01 6.336683e-03 -1.004688e+00 1.536437e-02 1.853067e+00 7.775279e-01 -4.166593e-01 1.077807e+00 8.015829e-01 9.927267e-01 1.512765e-01 4.202126e-01 -1.431997e+00
<VARIANCE> 25
 3.686358e+01 3.208680e+01 4.048097e+01 3.399481e+01 7.996265e+01 6.378279e+01 6.565794e+01 4.484127e+01 4.481596e+01 5.083347e+01 2.893857e+01 3.264766e+01 2.118511e+00 3.656741e+00 3.204963e+00 2.838155e+00 7.003211e+00 3.502472e+00 4.587082e+00 3.989259e+00 2.813504e+00 2.824445e+00 2.783147e+00 2.779776e+00 2.781066e+00
<GCONST> 1.068597e+02
<TRANSP> 5
 0.000000e+00 1.000000e+00 0.000000e+00 0.000000e+00 0.000000e+00
 0.000000e+00 6.744503e-01 3.255497e-01 0.000000e+00 0.000000e+00
 0.000000e+00 0.000000e+00 8.263387e-01 1.736613e-01 0.000000e+00
 0.000000e+00 0.000000e+00 0.000000e+00 7.663177e-01 2.336823e-01
 0.000000e+00 0.000000e+00 0.000000e+00 0.000000e+00 0.000000e+00
<ENDHMM>
~h "\340\262\210"
<BEGINHMM>
<NUMSTATES> 5
<STATE> 2
<MEAN> 25
 -3.550565e+00 3.537703e-01 1.346029e+01 3.607703e+00 -7.370108e+00 -1.495290e+00 -1.348716e+00 -4.913248e+00 -4.551092e+00 -6.001252e+00 -6.310707e-01 -1.641818e+00 8.784570e-01 -1.927398e-01 2.906041e+00 5.316318e-01 -3.113481e+00 -2.541838e-01 -1.539283e-01 -2.075077e+00 -1.049204e+00 -1.693236e+00 -3.777526e-01 -6.351562e-01 1.767251e+00
<VARIANCE> 25
 4.358067e+01 3.295486e+01 8.099541e+01 3.351573e+01 8.750658e+01 5.518328e+01 2.700721e+01 5.021587e+01 3.901838e+01 4.462840e+01 2.060649e+01 2.728494e+01 3.770251e+00 3.738987e+00 6.896525e+00 3.331422e+00 7.147948e+00 2.788654e+00 3.712692e+00 4.557887e+00 3.793399e+00 4.926975e+00 2.865919e+00 2.355062e+00 5.425618e+00
<GCONST> 1.087422e+02
<STATE> 3
<MEAN> 25
 4.365183e-01 -1.005516e-01 2.123780e+01 4.060768e+00 -1.862535e+01 -2.099159e+00 1.838902e+00 -1.427095e+01 -9.009133e+00 -1.041671e+01 -1.551613e+00 -6.246522e+00 9.885329e-02 1.719407e-01 -3.351863e-01 -4.472150e-03 2.243187e-01 -1.808623e-01 1.636348e-01 1.126623e-01 -1.015107e-01 2.905965e-03 5.375551e-02 -1.448028e-01 -1.760377e-01
<VARIANCE> 25
 1.244451e+01 3.116326e+01 3.205735e+01 3.188408e+01 3.616352e+01 4.026246e+01 2.679957e+01 2.647775e+01 3.289442e+01 2.831237e+01 2.096224e+01 2.418402e+01 2.848606e-01 1.122681e+00 1.070994e+00 1.120478e+00 2.074669e+00 1.614993e+00 1.562577e+00 1.802307e+00 1.372992e+00 1.233564e+00 8.761731e-01 8.916126e-01 7.431304e-01
<GCONST> 8.702020e+01
<STATE> 4
<MEAN> 25
 -1.746829e+00 1.111946e+00 6.826447e+00 4.785329e+00 -2.175462e+00 -1.919794e+00 2.298469e+00 6.498278e-01 -3.693327e+00 -3.396337e+00 -5.275085e-01 -2.525225e+00 -6.018840e-01 -1.324219e-01 -9.508939e-01 -3.063835e-02 1.429761e+00 5.575057e-01 -3.009080e-01 1.047966e+00 7.597388e-01 9.389413e-01 2.399893e-01 6.022829e-01 -1.054324e+00
<VARIANCE> 25
 2.278559e+01 2.764388e+01 4.815160e+01 2.607155e+01 8.203367e+01 5.210828e+01 4.533241e+01 4.897017e+01 3.764170e+01 4.945925e+01 2.848197e+01 2.523169e+01 1.422495e+00 2.646792e+00 2.771821e+00 2.006225e+00 5.334270e+00 4.113720e+00 3.454527e+00 3.794743e+00 2.068329e+00 2.902961e+00 3.407300e+00 1.964198e+00 1.749749e+00
<GCONST> 1.026562e+02
<TRANSP> 5
 0.000000e+00 1.000000e+00 0.000000e+00 0.000000e+00 0.000000e+00
 0.000000e+00 7.934974e-01 2.065025e-01 0.000000e+00 0.000000e+00
 0.000000e+00 0.000000e+00 9.357918e-01 6.420821e-02 0.000000e+00
 0.000000e+00 0.000000e+00 0.000000e+00 7.904299e-01 2.095701e-01
 0.000000e+00 0.000000e+00 0.000000e+00 0.000000e+00 0.000000e+00
<ENDHMM>
~h "\340\262\211"
<BEGINHMM>
<NUMSTATES> 5
<STATE> 2
<MEAN> 25
 9.450710e+00 3.996865e+00 -2.437152e+00 -7.738420e+00 -6.202538e+00 2.756922e+00 2.211360e-01 -5.552874e+00 -6.309975e+00 -6.627996e+00 -5.692542e+00 -2.515106e-01 -6.865008e-01 3.893735e-01 1.763618e-01 2.188497e-01 8.201761e-01 4.722725e-01 5.929952e-01 9.286945e-01 2.386933e-01 2.309108e-01 -1.415547e-01 -1.918265e-01 -1.160491e+00
<VARIANCE> 25
 1.804306e+01 3.388718e+01 1.877964e+01 3.767025e+01 6.516675e+01 3.563688e+01 4.882558e+01 7.568562e+01 2.588603e+01 3.154774e+01 4.710143e+01 4.003095e+01 1.116333e+00 2.179867e+00 1.724567e+00 2.703758e+00 4.001342e+00 3.267286e+00 2.919359e+00 3.847835e+00 2.190158e+00 2.284877e+00 3.153317e+00 2.882522e+00 1.086571e+00
<GCONST> 1.004555e+02
<STATE> 3
<MEAN> 25
 -4.192472e+00 2.580951e+00 -1.571433e-01 -1.206528e+00 4.220327e+00 3.779729e+00 2.087254e+00 4.347157e+00 9.994341e-01 1.460523e+00 1.161198e+00 2.152418e+00 -8.962721e-01 1.160103e-02 3.812778e-02 5.969477e-01 3.777423e-01 -1.690147e-01 -5.337620e-02 4.081459e-01 6.443863e-01 7.370379e-01 9.084165e-01 4.973537e-01 -8.351671e-01
<VARIANCE> 25
 2.697784e+01 1.952505e+01 3.227573e+01 3.121597e+01 2.628812e+01 2.766007e+01 2.294247e+01 3.273596e+01 2.441032e+01 2.480460e+01 2.420894e+01 2.099396e+01 2.088008e+00 2.466454e+00 3.839228e+00 3.089644e+00 2.645377e+00 2.889097e+00 2.203064e+00 2.739382e+00 2.181079e+00 2.349835e+00 2.418811e+00 1.858730e+00 1.309464e+00
<GCONST> 9.632706e+01
<STATE> 4
<MEAN> 25
 -6.025064e+00 3.690778e+00 -7.429371e-01 2.828801e+00 5.372148e+00 4.337835e+00 2.739605e+00 5.041774e+00 3.183784e+00 4.171575e+00 3.602185e+00 2.923309e+00 -5.140981e-02 -6.135074e-03 3.369728e-02 9.383459e-02 4.680306e-02 -7.058104e-03 2.662494e-03 1.133018e-02 2.623790e-02 2.639808e-02 1.026202e-02 1.268775e-02 -3.680516e-02
<VARIANCE> 25
 6.669915e+00 4.832128e+00 5.988311e+00 7.394711e+00 9.161772e+00 9.327060e+00 1.139223e+01 1.449973e+01 1.242303e+01 1.296068e+01 1.206646e+01 1.103762e+01 1.962788e-01 3.718672e-01 4.934024e-01 6.069651e-01 7.760082e-01 8.600796e-01 9.409538e-01 1.067073e+00 1.130401e+00 1.175999e+00 1.162613e+00 1.025122e+00 3.928532e-01
<GCONST> 6.804106e+01
<TRANSP> 5
 0.000000e+00 1.000000e+00 0.000000e+00 0.000000e+00 0.000000e+00
 0.000000e+00 8.892516e-01 1.107484e-01 0.000000e+00 0.000000e+00
 0.000000e+00 0.000000e+00 8.162192e-01 1.837809e-01 0.000000e+00
 0.000000e+00 0.000000e+00 0.000000e+00 9.322950e-01 6.770498e-02
 0.000000e+00 0.000000e+00 0.000000e+00 0.000000e+00 0.000000e+00
<ENDHMM>
~h "\340\262\212"
<BEGINHMM>
<NUMSTATES> 5
<STATE> 2
<MEAN> 25
 4.566904e+00 1.371999e+00 2.699514e-01 4.316631e-01 -2.453209e+00 -1.405934e+00 -4.901691e+00 -4.094855e+00 -4.403072e+00 -5.329463e+00 -1.021219e+00 -7.979965e-02 1.588774e+00 3.745805e-01 -6.552865e-01 -9.508278e-01 -2.522457e+00 3.752978e-01 1.240927e-02 -1.568387e+00 -6.657797e-01 -1.711039e+00 -4.073212e-01 9.469104e-01 1.234630e+00
<VARIANCE> 25
 5.892344e+01 4.414724e+01 3.957547e+01 4.939772e+01 7.379590e+01 4.482703e+01 4.947773e+01 8.383447e+01 3.522568e+01 7.123136e+01 4.071970e+01 2.930933e+01 3.717928e+00 4.176715e+00 3.385689e+00 5.766758e+00 6.588876e+00 6.673760e+00 4.203362e+00 4.620000e+00 4.285995e+00 6.089801e+00 4.982103e+00 3.573814e+00 3.444535e+00
<GCONST> 1.125781e+02
<STATE> 3
<MEAN> 25
 1.212921e+01 4.017425e+00 -3.673852e+00 -5.617474e+00 -1.428248e+01 -3.262501e-01 -1.107163e+00 -9.149696e+00 -7.375099e+00 -1.226820e+01 -4.673071e+00 3.175893e+00 1.192234e-01 3.767223e-01 -1.149364e-01 -5.350643e-01 -6.603051e-01 2.884254e-01 6.332839e-01 9.196234e-02 -2.779651e-01 -3.763177e-01 -4.330449e-01 1.357968e-01 -7.222727e-02
<VARIANCE> 25
 5.623034e+00 2.853484e+01 1.621055e+01 2.606380e+01 6.729544e+01 2.942562e+01 2.479376e+01 4.364867e+01 5.579848e+01 5.022167e+01 5.475216e+01 2.814191e+01 2.373336e-01 9.359363e-01 7.820873e-01 1.034425e+00 1.887053e+00 1.566429e+00 1.485459e+00 1.834881e+00 1.739429e+00 1.432236e+00 1.287678e+00 1.669506e+00 3.687198e-01
<GCONST> 8.797765e+01
<STATE> 4
<MEAN> 25
 1.009346e+01 4.250046e+00 -3.236750e+00 -4.589426e+00 -7.925126e+00 -1.878875e+00 -1.251114e+00 -4.999465e+00 -9.527208e+00 -8.515818e+00 -2.403950e+00 4.643775e-01 -4.597183e-01 -4.561559e-01 -2.072287e-02 6.979060e-01 1.769938e+00 -2.113347e-01 -7.221150e-01 1.509854e-01 1.004846e-01 8.872989e-01 8.206862e-01 -3.267208e-01 -3.893992e-01
<VARIANCE> 25
 2.717144e+01 3.137885e+01 3.354272e+01 4.030774e+01 7.203937e+01 4.054206e+01 4.054459e+01 7.856765e+01 4.447430e+01 4.085677e+01 4.770443e+01 4.298170e+01 1.062869e+00 2.034066e+00 2.111572e+00 2.071326e+00 4.487376e+00 3.950759e+00 2.902636e+00 3.944220e+00 2.736136e+00 2.792066e+00 2.803775e+00 3.007605e+00 1.561726e+00
<GCONST> 1.032522e+02
<TRANSP> 5
 0.000000e+00 1.000000e+00 0.000000e+00 0.000000e+00 0.000000e+00
 0.000000e+00 7.088960e-01 2.911039e-01 0.000000e+00 0.000000e+00
 0.000000e+00 0.000000e+00 8.424552e-01 1.575449e-01 0.000000e+00
 0.000000e+00 0.000000e+00 0.000000e+00 8.612312e-01 1.387688e-01
 0.000000e+00 0.000000e+00 0.000000e+00 0.000000e+00 0.000000e+00
<ENDHMM>
~h "\340\262\213"
<BEGINHMM>
<NUMSTATES> 5
<STATE> 2
<MEAN> 25
 -1.482751e+00 2.283969e+00 3.671835e+00 9.127421e+00 5.407570e+00 -4.449022e+00 -4.241574e+00 2.077506e+00 -7.680973e-01 -1.586735e+00 -2.792729e+00 -4.634830e+00 1.824050e+00 -1.574316e-01 3.891554e-01 1.093099e+00 -9.478952e-01 -1.511189e+00 -1.622521e+00 -1.172091e+00 -5.483459e-01 -7.676326e-01 -7.405651e-01 -8.249296e-01 1.562066e+00
<VARIANCE> 25
 2.686948e+01 7.011871e+01 2.268965e+01 2.795512e+01 2.544507e+01 4.318637e+01 4.552136e+01 4.717475e+01 2.153902e+01 3.171309e+01 1.889885e+01 1.442224e+01 5.247905e+00 5.950228e+00 4.903447e+00 4.054019e+00 3.091634e+00 3.203758e+00 3.601490e+00 4.159524e+00 1.859758e+00 3.228097e+00 2.765167e+00 2.039926e+00 3.382147e+00
<GCONST> 1.029207e+02
<STATE> 3
<MEAN> 25
 1.043562e+01 -4.304142e+00 -3.048126e+00 1.263105e+01 -3.408447e+00 -1.234556e+01 -1.309972e+01 -9.859735e+00 1.792010e+00 -5.015564e+00 -3.451034e+00 -4.940184e+00 9.116337e-01 -6.068649e-01 -1.428831e+00 -1.822367e-01 -1.232530e+00 1.923144e-01 -5.197488e-01 -2.105232e+00 1.069610e+00 -2.243078e-01 2.393022e-01 4.605680e-01 1.531461e+00
<VARIANCE> 25
 6.898341e+00 1.845581e+01 3.416166e+01 3.682615e+01 5.163404e+01 3.129022e+01 4.697422e+01 6.201521e+01 2.701847e+01 4.065606e+01 3.247671e+01 1.585355e+01 3.122260e+00 2.615317e+00 3.410298e+00 1.387101e+00 2.752684e+00 2.856454e+00 3.005697e+00 3.807866e+00 1.630923e+00 2.879840e+00 1.345450e+00 1.039041e+00 2.797359e+00
<GCONST> 9.760523e+01
<STATE> 4
<MEAN> 25
 3.807151e+00 -2.329495e+00 1.735118e+00 9.162623e+00 -2.746432e+00 -6.261950e+00 -1.241709e+01 -1.008545e+01 4.498222e-01 -4.719015e+00 -3.545809e+00 -5.726480e+00 -1.728650e+00 8.679386e-01 1.581436e+00 -7.258890e-01 1.669129e+00 9.816385e-01 8.992541e-01 1.616807e+00 -1.009751e+00 2.377756e-01 -1.545893e-02 -8.780757e-02 -1.441987e+00
<VARIANCE> 25
 6.346394e+01 2.168032e+01 5.614507e+01 3.873237e+01 6.455557e+01 5.339939e+01 4.856023e+01 3.888388e+01 2.935065e+01 2.737191e+01 3.118849e+01 1.499676e+01 7.911469e+00 2.267742e+00 5.110425e+00 4.523551e+00 6.878552e+00 1.957149e+00 6.961075e+00 4.368449e+00 2.072237e+00 1.171912e+00 2.715896e+00 2.376926e+00 6.602039e+00
<GCONST> 1.060657e+02
<TRANSP> 5
 0.000000e+00 1.000000e+00 0.000000e+00 0.000000e+00 0.000000e+00
 0.000000e+00 8.281221e-01 1.718779e-01 0.000000e+00 0.000000e+00
 0.000000e+00 0.000000e+00 8.027802e-01 1.972197e-01 0.000000e+00
 0.000000e+00 0.000000e+00 0.000000e+00 8.129073e-01 1.870927e-01
 0.000000e+00 0.000000e+00 0.000000e+00 0.000000e+00 0.000000e+00
<ENDHMM>
~h "\340\262\216"
<BEGINHMM>
<NUMSTATES> 5
<STATE> 2
<MEAN> 25
 5.601984e+00 -8.762675e+00 2.637257e+00 -1.644710e-01 -1.290768e+01 -1.669921e+01 -3.011009e+00 3.105981e+00 3.977525e+00 -6.986553e+00 -3.623003e+00 1.155256e+00 -1.044390e-01 3.343365e-01 1.354942e-01 1.040429e-01 9.397394e-02 -6.016629e-02 6.175294e-01 4.915840e-01 -1.485009e-01 -1.738279e-01 -1.866312e-01 -9.645148e-02 -3.286925e-01
<VARIANCE> 25
 7.211957e+00 2.722715e+01 2.197179e+01 1.408601e+01 3.526864e+01 2.596639e+01 3.496647e+01 2.941355e+01 2.419538e+01 2.460919e+01 2.232783e+01 1.830083e+01 2.880154e-01 1.891304e+00 1.150872e+00 1.304274e+00 1.764421e+00 1.377623e+00 1.450825e+00 1.335694e+00 1.678694e+00 1.042298e+00 1.133286e+00 8.501483e-01 8.951066e-01
<GCONST> 8.487939e+01
<STATE> 3
<MEAN> 25
 -1.808463e-01 -2.103503e+00 1.492325e+00 3.750811e+00 -1.370602e+00 -6.778636e+00 3.033487e+00 9.021084e+00 3.425860e+00 -3.005369e+00 -4.680865e+00 -6.166665e-01 -8.179552e-01 3.941609e-01 -2.428931e-01 7.927725e-02 8.922720e-01 1.219558e+00 9.470150e-02 1.444530e-01 2.080431e-01 8.529237e-01 7.918915e-01 3.198984e-01 -1.474796e+00
<VARIANCE> 25
 2.583274e+01 2.071464e+01 2.729075e+01 2.472711e+01 5.698445e+01 5.772346e+01 3.658059e+01 5.109724e+01 2.983569e+01 4.575005e+01 4.207392e+01 2.287552e+01 1.010427e+00 2.156357e+00 2.293429e+00 2.672792e+00 3.271575e+00 2.573200e+00 3.663663e+00 2.819531e+00 2.458479e+00 2.478678e+00 2.739599e+00 1.837298e+00 1.191413e+00
<GCONST> 9.911988e+01
<STATE> 4
<MEAN> 25
 -6.357758e+00 2.659640e+00 5.537251e-01 2.602927e+00 4.380610e+00 2.641823e+00 2.595203e+00 6.157507e+00 3.264121e+00 3.540302e+00 3.109046e+00 3.071711e+00 -7.567215e-02 1.769976e-01 1.075217e-01 1.005272e-01 1.264122e-01 2.016442e-01 1.341909e-02 -1.808417e-01 -1.288314e-01 5.414615e-02 8.680476e-02 4.098794e-02 -1.593663e-01
<VARIANCE> 25
 1.508868e+01 1.207647e+01 1.432388e+01 1.259270e+01 3.676318e+01 3.641590e+01 1.526143e+01 1.945329e+01 1.718533e+01 2.401634e+01 1.501423e+01 1.393653e+01 5.651431e-01 6.920078e-01 1.100412e+00 1.265189e+00 1.496189e+00 1.448341e+00 1.317657e+00 1.418131e+00 1.475816e+00 1.471065e+00 1.286389e+00 1.308086e+00 6.075202e-01
<GCONST> 8.219418e+01
<TRANSP> 5
 0.000000e+00 1.000000e+00 0.000000e+00 0.000000e+00 0.000000e+00
 0.000000e+00 8.743124e-01 1.256876e-01 0.000000e+00 0.000000e+00
 0.000000e+00 0.000000e+00 8.338895e-01 1.661105e-01 0.000000e+00
 0.000000e+00 0.000000e+00 0.000000e+00 8.530033e-01 1.469967e-01
 0.000000e+00 0.000000e+00 0.000000e+00 0.000000e+00 0.000000e+00
<ENDHMM>
~h "\340\262\217"
<BEGINHMM>
<NUMSTATES> 5
<STATE> 2
<MEAN> 25
 1.266626e+00 -2.831287e+00 7.012207e+00 3.924214e+00 -7.433091e+00 -7.876362e+00 -3.626238e+00 -9.695139e-01 -7.307688e-01 -5.588204e+00 -4.459847e-01 8.666025e-01 7.297020e-01 -1.913349e+00 1.335324e+00 -2.738371e-01 -3.282259e+00 -1.939379e+00 -6.447241e-01 -8.454539e-01 -1.082977e-01 -1.629538e+00 2.437803e-01 7.029709e-01 2.681906e+00
<VARIANCE> 25
 3.615154e+01 5.994723e+01 4.115249e+01 2.107299e+01 1.056514e+02 6.583665e+01 4.230725e+01 3.589964e+01 2.947415e+01 4.889835e+01 2.885038e+01 2.402281e+01 3.011347e+00 5.416499e+00 3.006812e+00 2.509143e+00 6.630753e+00 4.739299e+00 4.204326e+00 3.516184e+00 2.566831e+00 3.452342e+00 2.498578e+00 2.609029e+00 4.646639e+00
<GCONST> 1.069271e+02
<STATE> 3
<MEAN> 25
 4.250350e+00 -1.064948e+01 1.164221e+01 1.922770e+00 -2.086179e+01 -1.389607e+01 -4.183578e+00 -5.202554e+00 -1.239226e+00 -1.256545e+01 7.693543e-01 3.278625e+00 -7.750846e-02 1.199378e-01 2.352153e-02 -2.748100e-03 -1.615936e-01 -7.628551e-02 1.471055e-01 -1.731472e-01 -1.588644e-01 -1.974274e-01 2.148599e-01 -2.752331e-02 1.287317e-01
<VARIANCE> 25
 6.471029e+00 2.453603e+01 2.773663e+01 1.621291e+01 2.362362e+01 2.407174e+01 3.434246e+01 3.675920e+01 2.594242e+01 1.833118e+01 1.903167e+01 1.147319e+01 2.032608e-01 9.149154e-01 7.798743e-01 6.956324e-01 1.378960e+00 9.731503e-01 9.664823e-01 8.265263e-01 9.042337e-01 6.386385e-01 6.426863e-01 5.829915e-01 4.543923e-01
<GCONST> 7.761382e+01
<STATE> 4
<MEAN> 25
 3.665108e+00 -3.382361e+00 8.285512e+00 3.150715e+00 -1.328987e+01 -1.284480e+01 -2.357350e+00 -2.216494e+00 -3.043755e+00 -1.118615e+01 -6.825577e-01 1.561908e-01 -5.003818e-01 1.459588e+00 -5.648910e-02 2.805184e-01 2.144997e+00 8.044754e-01 1.302659e-01 5.662993e-01 -4.599312e-01 1.102900e+00 -4.266002e-01 -6.878011e-01 -1.674108e+00
<VARIANCE> 25
 1.474688e+01 3.310694e+01 4.062877e+01 2.163657e+01 5.359704e+01 3.510262e+01 5.080481e+01 5.639944e+01 3.813914e+01 3.224843e+01 3.424070e+01 1.540421e+01 1.938264e+00 1.743643e+00 2.069906e+00 2.359637e+00 3.279819e+00 2.571041e+00 2.921770e+00 2.717646e+00 2.873767e+00 2.164015e+00 2.594980e+00 1.652289e+00 1.693677e+00
<GCONST> 9.861763e+01
<TRANSP> 5
 0.000000e+00 1.000000e+00 0.000000e+00 0.000000e+00 0.000000e+00
 0.000000e+00 7.879859e-01 2.120142e-01 0.000000e+00 0.000000e+00
 0.000000e+00 0.000000e+00 8.991782e-01 1.008218e-01 0.000000e+00
 0.000000e+00 0.000000e+00 0.000000e+00 7.950978e-01 2.049022e-01
 0.000000e+00 0.000000e+00 0.000000e+00 0.000000e+00 0.000000e+00
<ENDHMM>
~h "\340\262\220"
<BEGINHMM>
<NUMSTATES> 5
<STATE> 2
<MEAN> 25
 6.067059e+00 -1.284331e+01 1.759192e+00 -1.214345e+00 -1.115925e+01 -8.037060e+00 -5.402123e+00 -1.527030e+00 3.416897e+00 -6.759392e+00 -3.073376e+00 -1.892786e+00 5.138271e-02 8.321115e-02 1.111009e+00 5.158525e-01 -1.051195e+00 -8.299642e-01 -8.671582e-02 -5.578732e-01 -7.359577e-01 -1.087526e+00 -8.891001e-02 3.455451e-01 5.775871e-01
<VARIANCE> 25
 1.763060e+01 4.988916e+01 6.417713e+01 3.751391e+01 7.365289e+01 5.992580e+01 6.083024e+01 3.845699e+01 3.462398e+01 4.998681e+01 3.352241e+01 3.343429e+01 2.109299e+00 6.201684e+00 3.237558e+00 2.581791e+00 3.060235e+00 3.297959e+00 4.171719e+00 4.024924e+00 4.275848e+00 2.144032e+00 3.354187e+00 3.409482e+00 4.648837e+00
<GCONST> 1.071571e+02
<STATE> 3
<MEAN> 25
 2.677689e+00 -1.473663e+00 9.403149e+00 5.779326e+00 -1.061082e+01 -9.722271e+00 -1.817106e+00 -4.940615e+00 -5.478934e+00 -9.101066e+00 -1.691863e+00 -6.453293e-01 -3.262212e-01 5.235094e-01 -1.009862e+00 4.453956e-01 1.557820e+00 8.035750e-01 1.603254e-01 1.231343e+00 4.317310e-01 1.414463e+00 -1.529532e-01 1.279287e-01 -2.107248e+00
<VARIANCE> 25
 1.065618e+01 2.733792e+01 2.533489e+01 2.470084e+01 4.308743e+01 4.770380e+01 3.984414e+01 3.193628e+01 3.918378e+01 4.282063e+01 1.684937e+01 1.855705e+01 5.411186e-01 2.178201e+00 2.876051e+00 2.041128e+00 3.649521e+00 2.849474e+00 1.375548e+00 2.555115e+00 3.065827e+00 2.344391e+00 1.780680e+00 2.929394e+00 2.088832e+00
<GCONST> 9.590148e+01
<STATE> 4
<MEAN> 25
 -2.945366e+00 -9.157468e-01 4.108384e+00 4.072351e+00 -2.229646e+00 -2.578965e+00 7.019019e-01 2.053887e+00 4.310791e-01 -1.211026e+00 1.379796e+00 2.173167e+00 -3.513859e-01 5.983934e-01 -4.085722e-01 -7.898287e-02 9.647761e-01 1.413314e-01 6.800935e-02 4.607801e-01 3.121507e-02 6.091059e-01 1.250867e-01 8.381784e-02 -7.179691e-01
<VARIANCE> 25
 4.448833e+01 2.577213e+01 3.995911e+01 2.002379e+01 9.906345e+01 6.703809e+01 3.907755e+01 3.738824e+01 2.993037e+01 6.100515e+01 2.066149e+01 1.748740e+01 1.959460e+00 2.643381e+00 3.761652e+00 2.679042e+00 3.503372e+00 1.832860e+00 2.326467e+00 1.421674e+00 1.961837e+00 2.277922e+00 1.695266e+00 1.832518e+00 1.403210e+00
<GCONST> 9.914402e+01
<TRANSP> 5
 0.000000e+00 1.000000e+00 0.000000e+00 0.000000e+00 0.000000e+00
 0.000000e+00 9.154609e-01 8.453907e-02 0.000000e+00 0.000000e+00
 0.000000e+00 0.000000e+00 6.900374e-01 3.099626e-01 0.000000e+00
 0.000000e+00 0.000000e+00 0.000000e+00 5.566379e-01 4.433621e-01
 0.000000e+00 0.000000e+00 0.000000e+00 0.000000e+00 0.000000e+00
<ENDHMM>
~h "\340\262\222"
<BEGINHMM>
<NUMSTATES> 5
<STATE> 2
<MEAN> 25
 3.600099e+00 2.923136e+00 -7.450827e-01 -4.012033e+00 -4.033501e+00 3.050088e-01 1.320587e+00 2.335199e-01 -2.932251e+00 -2.903814e+00 -2.103309e+00 -8.939879e-01 2.478894e+00 -4.234420e-01 -4.105005e-01 -1.547760e+00 -3.064595e+00 -1.200037e+00 3.856177e-02 -1.014032e+00 -9.679983e-01 -8.233479e-01 -6.754957e-01 -1.966230e-01 2.310739e+00
<VARIANCE> 25
 7.769300e+01 3.928123e+01 3.443707e+01 5.811430e+01 9.995375e+01 5.513326e+01 3.823688e+01 4.540770e+01 3.994350e+01 4.107680e+01 3.555697e+01 2.501154e+01 4.429361e+00 5.049382e+00 3.827605e+00 4.792419e+00 7.066303e+00 4.763643e+00 3.552846e+00 3.372810e+00 4.134501e+00 3.897165e+00 3.229283e+00 3.011727e+00 4.275556e+00
<GCONST> 1.103632e+02
<STATE> 3
<MEAN> 25
 1.412622e+01 -3.471567e+00 -4.797026e+00 -1.320065e+01 -1.734545e+01 -2.220597e-01 2.709584e+00 -4.899290e+00 -6.308830e+00 -6.216809e+00 -3.410446e+00 -2.794222e-01 4.853714e-02 -1.111684e+00 -6.099364e-01 -2.304949e-01 2.103995e-01 5.571917e-01 7.043494e-02 -7.417196e-01 -3.225235e-02 1.455808e-02 5.186224e-01 5.784920e-01 9.363943e-01
<VARIANCE> 25
 6.379843e+00 2.773633e+01 3.173251e+01 2.858901e+01 5.698922e+01 4.863748e+01 2.985186e+01 3.220927e+01 2.688709e+01 2.061223e+01 2.706994e+01 3.605945e+01 5.520965e-01 2.915575e+00 1.703904e+00 1.848883e+00 5.042023e+00 2.197069e+00 2.906836e+00 2.616850e+00 1.961839e+00 2.065568e+00 2.452219e+00 1.662270e+00 1.691240e+00
<GCONST> 9.531747e+01
<STATE> 4
<MEAN> 25
 1.237773e+01 -6.836234e+00 -6.610188e+00 -8.942958e+00 -8.217015e+00 4.738154e-01 -3.093330e+00 -1.185080e+01 -3.712711e+00 -2.185090e+00 -2.979228e-01 1.418185e+00 -3.860535e-01 3.307216e-01 6.035556e-01 1.941249e+00 2.992341e+00 -8.404499e-01 -2.769049e+00 -7.366070e-01 1.036143e+00 7.457490e-01 -3.563770e-02 -7.829027e-01 -5.300100e-01
<VARIANCE> 25
 1.023359e+01 2.742088e+01 3.950658e+01 3.499682e+01 4.635166e+01 5.012121e+01 5.659391e+01 5.013974e+01 3.647282e+01 3.333570e+01 3.902922e+01 3.555378e+01 3.999020e-01 2.650000e+00 2.943027e+00 1.860706e+00 2.953563e+00 2.801894e+00 5.346286e+00 3.267118e+00 3.828436e+00 3.148732e+00 3.135420e+00 2.154250e+00 1.614046e+00
<GCONST> 1.004660e+02
<TRANSP> 5
 0.000000e+00 1.000000e+00 0.000000e+00 0.000000e+00 0.000000e+00
 0.000000e+00 7.765692e-01 2.234308e-01 0.000000e+00 0.000000e+00
 0.000000e+00 0.000000e+00 7.956623e-01 2.043377e-01 0.000000e+00
 0.000000e+00 0.000000e+00 0.000000e+00 6.421514e-01 3.578486e-01
 0.000000e+00 0.000000e+00 0.000000e+00 0.000000e+00 0.000000e+00
<ENDHMM>
~h "\340\262\223"
<BEGINHMM>
<NUMSTATES> 5
<STATE> 2
<MEAN> 25
 6.080797e+00 -5.672908e-01 -3.238439e+00 -5.562227e+00 -7.768309e+00 -2.491514e-01 1.965278e-01 -1.595047e+00 -3.340471e+00 -5.486855e+00 -1.545167e-01 2.477801e+00 2.020701e+00 -4.061950e-01 -3.342066e-01 -1.483326e+00 -3.338650e+00 -7.200440e-02 1.099937e-01 -2.886887e-01 -1.086105e+00 -1.195200e+00 -5.796885e-01 1.061704e-01 1.844621e+00
<VARIANCE> 25
 6.314770e+01 4.662026e+01 4.364026e+01 6.755045e+01 1.192672e+02 3.945799e+01 4.165593e+01 4.371596e+01 3.501889e+01 4.187263e+01 3.307742e+01 2.461656e+01 3.526243e+00 5.922005e+00 4.227296e+00 5.208848e+00 8.209712e+00 5.159763e+00 3.665448e+00 2.496990e+00 3.063375e+00 3.759981e+00 3.410555e+00 2.159657e+00 4.911898e+00
<GCONST> 1.100033e+02
<STATE> 3
<MEAN> 25
 1.440737e+01 -2.140445e+00 -4.335647e+00 -1.243645e+01 -2.493777e+01 5.924840e-02 2.593508e-01 -4.218510e+00 -7.387506e+00 -9.284923e+00 -2.242120e+00 1.551596e+00 4.074918e-03 7.764865e-02 -2.055205e-01 -2.458138e-01 9.066555e-02 2.922286e-01 3.943791e-02 -2.888496e-01 -1.270291e-01 -1.474509e-01 4.824246e-02 -2.290121e-02 1.611771e-01
<VARIANCE> 25
 4.953849e+00 1.730607e+01 2.403421e+01 1.552166e+01 5.144351e+01 3.117492e+01 2.400370e+01 2.324167e+01 2.120152e+01 2.269518e+01 2.862709e+01 4.651554e+01 2.247565e-01 1.404896e+00 9.553117e-01 8.234420e-01 3.459733e+00 1.103669e+00 1.837601e+00 1.624644e+00 1.124292e+00 1.240607e+00 1.761043e+00 1.295169e+00 5.235147e-01
<GCONST> 8.494543e+01
<STATE> 4
<MEAN> 25
 1.106266e+01 -3.181413e+00 -8.127514e+00 -8.012964e+00 -9.955531e+00 -3.213191e-02 -5.342775e+00 -8.505311e+00 -4.518339e+00 -4.389151e+00 1.689789e+00 1.847771e+00 -7.860427e-01 1.227821e-01 9.617429e-02 1.667577e+00 3.296164e+00 -4.498535e-01 -1.805024e+00 -5.611144e-01 9.100499e-01 1.579658e+00 5.005758e-02 -8.392972e-01 -7.846195e-01
<VARIANCE> 25
 3.240000e+01 4.221398e+01 3.910108e+01 3.361987e+01 7.829464e+01 4.501952e+01 1.070513e+02 8.194275e+01 4.294718e+01 6.367946e+01 4.192933e+01 5.022042e+01 7.994810e-01 2.898429e+00 2.931226e+00 2.241507e+00 4.316277e+00 4.421347e+00 5.242526e+00 4.955003e+00 2.390382e+00 3.898953e+00 4.003178e+00 4.628209e+00 2.275855e+00
<GCONST> 1.080650e+02
<TRANSP> 5
 0.000000e+00 1.000000e+00 0.000000e+00 0.000000e+00 0.000000e+00
 0.000000e+00 8.071361e-01 1.928639e-01 0.000000e+00 0.000000e+00
 0.000000e+00 0.000000e+00 8.849998e-01 1.150002e-01 0.000000e+00
 0.000000e+00 0.000000e+00 0.000000e+00 7.805811e-01 2.194189e-01
 0.000000e+00 0.000000e+00 0.000000e+00 0.000000e+00 0.000000e+00
<ENDHMM>
~h "\340\262\224"
<BEGINHMM>
<NUMSTATES> 5
<STATE> 2
<MEAN> 25
 -7.835478e+00 1.762979e+00 2.865895e+00 1.581023e+00 3.135273e+00 4.615727e+00 3.522385e+00 4.824859e+00 4.428333e+00 4.976995e+00 2.069763e+00 2.750046e+00 -1.225637e-01 1.125397e-01 2.860055e-02 2.903268e-01 8.944679e-03 -5.109921e-02 8.636252e-02 6.956264e-02 1.393750e-01 1.004223e-01 1.345733e-01 1.130088e-01 -2.417863e-01
<VARIANCE> 25
 7.394056e+00 7.701194e+00 2.014539e+01 2.532275e+01 3.705445e+01 2.112809e+01 1.998571e+01 3.945230e+01 1.728237e+01 1.774316e+01 1.752559e+01 1.397990e+01 7.216763e-01 6.932250e-01 1.743358e+00 1.966408e+00 1.594061e+00 1.490412e+00 1.737817e+00 2.691048e+00 1.733208e+00 1.553006e+00 2.047809e+00 1.196862e+00 9.666636e-01
<GCONST> 8.558380e+01
<STATE> 3
<MEAN> 25
 -5.763455e+00 3.962052e+00 -1.485222e-01 4.198885e+00 5.488205e+00 3.955004e+00 3.334246e+00 5.204609e+00 3.748850e+00 3.614669e+00 3.675565e+00 3.320549e+00 4.963334e-03 -1.037705e-02 -1.169857e-02 -3.895694e-03 1.469042e-02 -7.951980e-03 -1.919675e-02 8.932659e-03 -1.915418e-02 3.600926e-03 2.592034e-02 -6.806069e-03 2.289785e-02
<VARIANCE> 25
 2.187156e+00 1.958686e+00 2.833060e+00 4.060634e+00 5.400660e+00 5.942075e+00 7.379940e+00 1.058289e+01 9.043790e+00 8.913585e+00 9.162453e+00 9.089007e+00 8.456691e-02 1.911332e-01 2.902084e-01 4.454584e-01 5.065189e-01 5.696262e-01 8.036103e-01 8.418574e-01 9.724321e-01 8.425704e-01 1.000429e+00 9.455615e-01 1.733270e-01
<GCONST> 5.667098e+01
<STATE> 4
<MEAN> 25
 6.461779e+00 -3.992345e+00 -2.435474e+00 -6.505334e+00 -8.630917e+00 8.927104e-01 -7.939639e-01 -3.294012e+00 -5.172639e+00 -4.471105e+00 2.155728e+00 3.077997e+00 8.038195e-01 -2.266113e-01 -2.924295e-01 -1.900568e-01 -4.585880e-01 -3.129970e-01 -3.475111e-01 -9.158812e-01 -6.773468e-01 -2.653954e-01 -2.376745e-01 7.416498e-03 1.113636e+00
<VARIANCE> 25
 1.083918e+02 5.858991e+01 4.391668e+01 7.989436e+01 1.507025e+02 2.433647e+01 3.482290e+01 7.026471e+01 6.137432e+01 6.013623e+01 3.783841e+01 2.572288e+01 4.024667e+00 5.797914e+00 2.664193e+00 4.851600e+00 8.083110e+00 2.003540e+00 2.913365e+00 3.468033e+00 2.365594e+00 4.146168e+00 2.822355e+00 2.435518e+00 6.432784e+00
<GCONST> 1.108495e+02
<TRANSP> 5
 0.000000e+00 1.000000e+00 0.000000e+00 0.000000e+00 0.000000e+00
 0.000000e+00 9.122390e-01 8.776097e-02 0.000000e+00 0.000000e+00
 0.000000e+00 0.000000e+00 9.704254e-01 2.957459e-02 0.000000e+00
 0.000000e+00 0.000000e+00 0.000000e+00 9.487004e-01 5.129966e-02
 0.000000e+00 0.000000e+00 0.000000e+00 0.000000e+00 0.000000e+00
<ENDHMM>
~h "\340\263\240"
<BEGINHMM>
<NUMSTATES> 5
<STATE> 2
<MEAN> 25
 3.363246e-09 -5.073974e-09 -2.667070e-08 -7.742742e-09 -4.152962e-08 5.464628e-08 -2.856819e-08 -3.137197e-08 -1.315223e-08 -1.457514e-08 1.178106e-08 -4.705634e-08 -5.036812e-04 -4.192874e-04 1.220702e-04 -4.396494e-04 -3.006390e-04 7.270148e-05 1.006791e-04 -4.520885e-04 -6.791297e-04 -7.117605e-04 -2.317067e-04 -1.422502e-04 3.583877e-03
<VARIANCE> 25
 7.771582e+01 4.669402e+01 4.885701e+01 4.639305e+01 7.525224e+01 6.131878e+01 4.945510e+01 6.535645e+01 4.383388e+01 5.195151e+01 3.898161e+01 3.388782e+01 2.163800e+00 2.160548e+00 2.178321e+00 2.195785e+00 3.386122e+00 2.583580e+00 2.687976e+00 2.741140e+00 2.512795e+00 2.406658e+00 2.020564e+00 1.918339e+00 2.693773e+00
<GCONST> 1.047231e+02
<STATE> 3
<MEAN> 25
 3.363246e-09 -5.073974e-09 -2.667070e-08 -7.742742e-09 -4.152962e-08 5.464628e-08 -2.856819e-08 -3.137197e-08 -1.315223e-08 -1.457514e-08 1.178106e-08 -4.705634e-08 -5.036812e-04 -4.192874e-04 1.220702e-04 -4.396494e-04 -3.006390e-04 7.270148e-05 1.006791e-04 -4.520885e-04 -6.791297e-04 -7.117605e-04 -2.317067e-04 -1.422502e-04 3.583877e-03
<VARIANCE> 25
 7.771582e+01 4.669402e+01 4.885701e+01 4.639305e+01 7.525224e+01 6.131878e+01 4.945510e+01 6.535645e+01 4.383388e+01 5.195151e+01 3.898161e+01 3.388782e+01 2.163800e+00 2.160548e+00 2.178321e+00 2.195785e+00 3.386122e+00 2.583580e+00 2.687976e+00 2.741140e+00 2.512795e+00 2.406658e+00 2.020564e+00 1.918339e+00 2.693773e+00
<GCONST> 1.047231e+02
<STATE> 4
<MEAN> 25
 3.363246e-09 -5.073974e-09 -2.667070e-08 -7.742742e-09 -4.152962e-08 5.464628e-08 -2.856819e-08 -3.137197e-08 -1.315223e-08 -1.457514e-08 1.178106e-08 -4.705634e-08 -5.036812e-04 -4.192874e-04 1.220702e-04 -4.396494e-04 -3.006390e-04 7.270148e-05 1.006791e-04 -4.520885e-04 -6.791297e-04 -7.117605e-04 -2.317067e-04 -1.422502e-04 3.583877e-03
<VARIANCE> 25
 7.771582e+01 4.669402e+01 4.885701e+01 4.639305e+01 7.525224e+01 6.131878e+01 4.945510e+01 6.535645e+01 4.383388e+01 5.195151e+01 3.898161e+01 3.388782e+01 2.163800e+00 2.160548e+00 2.178321e+00 2.195785e+00 3.386122e+00 2.583580e+00 2.687976e+00 2.741140e+00 2.512795e+00 2.406658e+00 2.020564e+00 1.918339e+00 2.693773e+00
<GCONST> 1.047231e+02
<TRANSP> 5
 0.000000e+00 1.000000e+00 0.000000e+00 0.000000e+00 0.000000e+00
 0.000000e+00 6.000000e-01 4.000000e-01 0.000000e+00 0.000000e+00
 0.000000e+00 0.000000e+00 6.000000e-01 4.000000e-01 0.000000e+00
 0.000000e+00 0.000000e+00 0.000000e+00 7.000000e-01 3.000000e-01
 0.000000e+00 0.000000e+00 0.000000e+00 0.000000e+00 0.000000e+00
<ENDHMM>
~h "\340\262\240\340\263\215"
<BEGINHMM>
<NUMSTATES> 5
<STATE> 2
<MEAN> 25
 -6.613772e+00 -3.092315e+00 1.702981e+00 1.685373e+00 6.068697e+00 2.961320e+00 2.341123e+00 5.756076e+00 3.459926e+00 3.000493e+00 2.366933e+00 3.694665e+00 -5.386307e-01 1.777245e-01 -3.836593e-01 1.255097e+00 5.568337e-01 -3.823396e-01 -7.033911e-03 2.523063e-01 4.813532e-01 1.008541e+00 6.028032e-01 -2.894457e-02 -7.800648e-01
<VARIANCE> 25
 1.396107e+01 2.737906e+01 7.915604e+01 5.885080e+01 4.686377e+01 4.732537e+01 3.916623e+01 1.447571e+01 2.235575e+01 1.907362e+01 9.493215e+00 1.285520e+01 1.694385e+00 4.398603e+00 9.795955e+00 9.754373e+00 5.556153e+00 4.174600e+00 2.563898e+00 3.871293e+00 2.479835e+00 2.100368e+00 3.130255e+00 2.279648e+00 2.473461e+00
<GCONST> 1.017721e+02
<STATE> 3
<MEAN> 25
 -6.003278e+00 1.369055e+00 5.987012e-02 3.822078e+00 5.838601e+00 1.818212e+00 2.675907e+00 6.344449e+00 3.278856e+00 4.825754e+00 2.932730e+00 3.807523e+00 2.718104e-01 3.780338e-01 -5.573923e-01 4.254848e-01 7.044882e-02 -3.157861e-01 1.906769e-01 1.728668e-02 -1.600375e-01 -7.774381e-02 1.127232e-01 4.219981e-01 -5.264047e-01
<VARIANCE> 25
 3.129618e+00 4.901951e+00 7.186467e+00 9.668343e+00 2.337021e+01 5.816455e+00 6.570180e+00 7.045987e+00 1.671800e+01 5.744003e+00 4.716667e+00 5.554085e+00 8.243771e-01 9.061761e-01 1.761951e+00 1.013519e+00 2.409647e+00 8.830596e-01 1.038798e+00 1.419835e+00 1.732858e+00 4.256876e-01 5.215074e-01 4.157231e-01 8.790302e-01
<GCONST> 6.896589e+01
<STATE> 4
<MEAN> 25
 -5.200190e+00 3.367037e+00 -2.066772e+00 6.490123e+00 5.940313e+00 1.181148e+00 3.723096e+00 5.451533e+00 3.425090e+00 4.961507e+00 4.079057e+00 4.846772e+00 1.035487e-03 -3.247794e-03 -1.152406e-02 1.197644e-03 -4.530706e-02 -1.160014e-02 3.442002e-02 -5.090480e-02 1.003961e-02 2.776390e-02 1.760274e-02 2.263978e-02 2.681402e-02
<VARIANCE> 25
 7.771582e-01 2.394087e+00 2.868930e+00 3.890267e+00 5.872691e+00 6.017690e+00 5.668979e+00 8.069281e+00 8.012259e+00 8.114397e+00 7.866698e+00 7.512201e+00 9.311514e-02 2.372730e-01 3.283094e-01 4.949888e-01 4.962990e-01 7.417744e-01 6.691707e-01 9.163911e-01 8.980351e-01 1.048210e+00 8.497517e-01 5.970849e-01 2.419062e-01
<GCONST> 5.534614e+01
<TRANSP> 5
 0.000000e+00 1.000000e+00 0.000000e+00 0.000000e+00 0.000000e+00
 0.000000e+00 8.160496e-01 1.839504e-01 0.000000e+00 0.000000e+00
 0.000000e+00 0.000000e+00 8.003280e-01 1.996720e-01 0.000000e+00
 0.000000e+00 0.000000e+00 0.000000e+00 9.729763e-01 2.702361e-02
 0.000000e+00 0.000000e+00 0.000000e+00 0.000000e+00 0.000000e+00
<ENDHMM>
~h "\340\262\230\340\263\215"
<BEGINHMM>
<NUMSTATES> 5
<STATE> 2
<MEAN> 25
 -4.535352e+00 4.154849e+00 -5.146999e-01 2.733592e+00 4.497044e+00 4.253397e+00 1.794704e+00 2.744301e+00 3.054428e+00 3.581179e+00 4.111130e+00 3.104153e+00 -1.044189e-02 -6.211314e-03 1.285992e-02 4.076613e-02 -1.073101e-02 -2.243764e-03 -7.930997e-03 -2.139025e-02 6.550233e-03 1.328042e-02 1.686784e-02 -6.931662e-03 -6.049565e-03
<VARIANCE> 25
 8.327765e-01 1.895150e+00 2.380157e+00 4.229767e+00 4.227753e+00 6.383384e+00 6.434636e+00 7.733814e+00 7.419193e+00 7.813898e+00 7.538657e+00 8.266393e+00 6.893734e-02 1.808537e-01 2.313708e-01 3.578123e-01 4.967723e-01 6.503834e-01 7.458798e-01 8.827533e-01 8.212098e-01 7.930379e-01 8.777515e-01 9.095650e-01 1.924477e-01
<GCONST> 5.338164e+01
<STATE> 3
<MEAN> 25
 -4.640013e+00 3.450351e+00 -6.753382e-01 2.972326e+00 3.698750e+00 4.132155e+00 2.583276e+00 2.800838e+00 3.407383e+00 4.378012e+00 4.039650e+00 2.838840e+00 2.576044e-02 3.851867e-02 -1.712549e-02 -1.635509e-02 4.912267e-02 -2.019607e-02 -3.591299e-02 7.870555e-03 9.958588e-03 -7.213274e-02 -6.094009e-02 1.206657e-02 2.660800e-03
<VARIANCE> 25
 1.683795e+00 2.976185e+00 3.191057e+00 5.583241e+00 5.728144e+00 6.548264e+00 7.677120e+00 9.566728e+00 9.299501e+00 8.882332e+00 1.002004e+01 8.682021e+00 8.574862e-02 1.224990e-01 2.979468e-01 5.107717e-01 5.497530e-01 6.515911e-01 9.366068e-01 9.705881e-01 9.262310e-01 1.041403e+00 1.274833e+00 7.048896e-01 2.842885e-02
<GCONST> 5.597579e+01
<STATE> 4
<MEAN> 25
 -3.587731e+00 2.659658e+00 1.203834e+00 3.567216e+00 2.717088e+00 2.523342e+00 1.886921e+00 2.206337e+00 1.594944e+00 1.622308e+00 2.091846e+00 1.639445e+00 9.149397e-01 5.776666e-01 5.348716e-01 3.623597e-01 -4.153978e-01 -1.033382e+00 -4.324036e-01 -3.927528e-01 -1.162567e+00 -1.487830e+00 -9.510992e-01 -4.700634e-01 4.403279e-01
<VARIANCE> 25
 6.374044e+00 2.774254e+01 1.818651e+01 1.203101e+01 1.755375e+01 1.159723e+01 1.819394e+01 1.538181e+01 1.652024e+01 1.810744e+01 8.985988e+00 1.220401e+01 2.060122e+00 5.092878e+00 2.401707e+00 9.717559e-01 2.794022e+00 3.256736e+00 2.392614e+00 1.831190e+00 3.545258e+00 4.870526e+00 3.248912e+00 1.478110e+00 1.164365e+00
<GCONST> 8.931271e+01
<TRANSP> 5
 0.000000e+00 1.000000e+00 0.000000e+00 0.000000e+00 0.000000e+00
 0.000000e+00 9.797093e-01 2.029066e-02 0.000000e+00 0.000000e+00
 0.000000e+00 0.000000e+00 9.361439e-01 6.385612e-02 0.000000e+00
 0.000000e+00 0.000000e+00 0.000000e+00 7.827142e-01 2.172858e-01
 0.000000e+00 0.000000e+00 0.000000e+00 0.000000e+00 0.000000e+00
<ENDHMM>
~h "\340\262\241\340\263\215"
<BEGINHMM>
<NUMSTATES> 5
<STATE> 2
<MEAN> 25
 9.755188e+00 -4.609713e+00 -5.805194e+00 4.258734e+00 -1.260432e-01 -8.327413e+00 -9.953913e+00 -6.919891e+00 -2.260956e-01 -1.213920e+00 -4.654849e+00 -6.007480e-01 -2.164136e-01 6.312838e-02 5.399933e-01 6.006219e-01 3.999531e-01 5.933380e-02 -1.206808e+00 -2.256865e-01 3.781439e-01 -2.770836e-02 1.076682e-01 -2.891579e-01 -2.238719e-01
<VARIANCE> 25
 2.943262e+01 5.526350e+01 8.792877e+01 3.652209e+01 7.234206e+01 7.144984e+01 6.301373e+01 5.987363e+01 4.934343e+01 3.815910e+01 2.278198e+01 4.747454e+01 2.156074e+00 8.159317e+00 5.976918e+00 5.874393e+00 1.720119e+01 6.707320e+00 6.627011e+00 5.698473e+00 4.656607e+00 3.962902e+00 3.726628e+00 7.120218e+00 9.433117e+00
<GCONST> 1.159717e+02
<STATE> 3
<MEAN> 25
 8.864763e+00 -4.703690e+00 -2.265155e+00 6.014047e+00 -3.426527e+00 -9.379285e+00 -8.419548e+00 -5.332484e+00 1.701883e+00 -4.377071e+00 -3.779320e+00 -1.137162e+00 -6.512562e-01 9.233885e-01 9.887935e-01 -1.502648e-01 4.555837e-02 4.288286e-01 7.710717e-01 1.122579e-01 -6.335016e-01 -4.354356e-01 2.783819e-01 2.927896e-01 -6.598127e-01
<VARIANCE> 25
 1.956780e+01 4.992276e+01 6.392592e+01 7.503725e+01 1.078506e+02 8.342679e+01 5.239862e+01 6.310256e+01 5.727221e+01 3.637460e+01 3.299673e+01 5.070699e+01 1.847939e+00 5.331915e+00 4.969995e+00 4.466859e+00 1.104564e+01 6.275480e+00 3.244911e+00 5.529474e+00 4.582934e+00 3.872977e+00 2.640107e+00 4.839920e+00 6.165361e+00
<GCONST> 1.133363e+02
<STATE> 4
<MEAN> 25
 8.197887e+00 2.367274e+00 -1.632051e+00 -5.048625e-01 -4.926794e+00 -1.739421e+00 -2.815085e+00 -5.146853e+00 -5.010728e+00 -5.959431e+00 -3.009442e+00 1.725664e+00 -6.147511e-01 2.948154e-01 5.485548e-01 -4.593123e-01 -3.868083e-01 -1.915912e-02 9.740394e-01 2.750949e-01 -5.668151e-02 5.199867e-02 -2.305359e-03 -2.939004e-01 -1.382098e-01
<VARIANCE> 25
 3.939017e+01 3.828493e+01 6.028887e+01 1.373664e+02 1.682676e+02 5.862490e+01 3.918676e+01 5.919432e+01 3.532899e+01 3.590176e+01 3.591791e+01 5.809212e+01 7.515644e-01 2.189084e+00 2.230274e+00 1.839673e+00 4.022491e+00 3.100678e+00 2.483352e+00 3.495381e+00 2.536638e+00 1.867844e+00 3.371614e+00 2.864799e+00 1.528045e+00
<GCONST> 1.048636e+02
<TRANSP> 5
 0.000000e+00 1.000000e+00 0.000000e+00 0.000000e+00 0.000000e+00
 0.000000e+00 5.768080e-01 4.231921e-01 0.000000e+00 0.000000e+00
 0.000000e+00 0.000000e+00 5.908560e-01 4.091440e-01 0.000000e+00
 0.000000e+00 0.000000e+00 0.000000e+00 6.562960e-01 3.437040e-01
 0.000000e+00 0.000000e+00 0.000000e+00 0.000000e+00 0.000000e+00
<ENDHMM>
~h "\340\262\262\340\263\215"
<BEGINHMM>
<NUMSTATES> 5
<STATE> 2
<MEAN> 25
 6.470513e+00 -2.567643e+00 2.013997e+00 2.304273e+00 -3.559115e+00 -9.278237e+00 -1.056647e+01 -9.383665e+00 -1.556735e+00 7.139906e-01 -5.091688e+00 -5.720227e+00 -1.724985e-01 1.676000e+00 1.457994e+00 1.554202e+00 1.172055e+00 7.667985e-01 -6.878110e-01 -1.043942e+00 -1.383858e+00 -8.144685e-01 -9.096061e-01 -3.154478e-01 -1.543441e+00
<VARIANCE> 25
 1.009320e+01 3.318041e+01 3.876339e+01 3.258382e+01 3.937580e+01 3.729542e+01 3.889935e+01 3.831321e+01 4.020492e+01 3.529701e+01 4.804365e+01 2.478862e+01 5.121397e-01 1.928240e+00 1.630650e+00 2.480649e+00 3.202388e+00 2.781019e+00 3.466726e+00 3.691290e+00 3.801815e+00 2.930562e+00 2.575221e+00 2.296438e+00 1.090939e+00
<GCONST> 9.823698e+01
<STATE> 3
<MEAN> 25
 4.333084e+00 9.431544e-01 1.001341e+01 5.632226e+00 -3.416807e+00 -4.098905e+00 -1.213695e+01 -1.019763e+01 -3.152422e+00 -2.937691e+00 -1.012333e+01 -7.154263e+00 -1.733781e-01 -3.185822e-02 3.723357e-01 -7.334746e-02 -3.607947e-01 2.516404e-01 2.288247e-01 2.317360e-01 -1.702359e-01 -3.398337e-01 5.390469e-01 -5.331761e-02 -1.015445e-01
<VARIANCE> 25
 6.686817e+00 1.917680e+01 3.281741e+01 2.134812e+01 3.749655e+01 3.290447e+01 3.501220e+01 3.476091e+01 2.694856e+01 2.503091e+01 4.513769e+01 2.554301e+01 2.803892e-01 6.423274e-01 1.210001e+00 1.025181e+00 1.424653e+00 2.274523e+00 1.825576e+00 2.152741e+00 1.791156e+00 1.651187e+00 1.907030e+00 1.777195e+00 5.871227e-01
<GCONST> 8.795686e+01
<STATE> 4
<MEAN> 25
 4.252015e+00 -1.040190e+00 5.254019e+00 3.558748e+00 -3.925440e+00 -6.648488e+00 -9.824185e+00 -7.402784e+00 -2.709373e+00 -3.133749e+00 -3.629283e+00 -4.078381e+00 2.272646e-02 -9.573183e-01 -1.016370e+00 -1.040802e+00 -1.148398e+00 -1.133097e+00 4.859456e-01 1.056056e+00 5.678394e-01 -2.142823e-01 1.052872e+00 1.593322e+00 9.707460e-01
<VARIANCE> 25
 2.108226e+01 2.820864e+01 5.220583e+01 2.679141e+01 5.511813e+01 5.440095e+01 4.347305e+01 6.196032e+01 4.456785e+01 3.443992e+01 4.344830e+01 3.833728e+01 7.050112e-01 2.321277e+00 2.327805e+00 2.121672e+00 3.242186e+00 6.729012e+00 3.650557e+00 4.563615e+00 3.847533e+00 3.094119e+00 3.184740e+00 4.049515e+00 2.244404e+00
<GCONST> 1.040647e+02
<TRANSP> 5
 0.000000e+00 1.000000e+00 0.000000e+00 0.000000e+00 0.000000e+00
 0.000000e+00 6.174855e-01 3.825145e-01 0.000000e+00 0.000000e+00
 0.000000e+00 0.000000e+00 6.962422e-01 3.037578e-01 0.000000e+00
 0.000000e+00 0.000000e+00 0.000000e+00 4.085952e-01 5.914048e-01
 0.000000e+00 0.000000e+00 0.000000e+00 0.000000e+00 0.000000e+00
<ENDHMM>
~h "\340\262\252\340\263\215"
<BEGINHMM>
<NUMSTATES> 5
<STATE> 2
<MEAN> 25
 -4.379542e+00 1.768601e+00 -2.282337e+00 -1.029896e-01 2.724687e+00 2.988768e+00 1.979746e+00 5.131865e+00 2.086152e+00 4.932065e+00 5.150424e+00 3.074244e+00 -3.047164e-01 -5.017269e-01 1.090734e-01 -2.444476e-01 1.516626e-01 -3.356760e-01 -3.295379e-01 1.118989e-01 -1.240350e-03 -3.270306e-02 -3.649120e-02 -8.637708e-02 4.831148e-01
<VARIANCE> 25
 2.169018e+01 2.245487e+01 3.052332e+01 2.756021e+01 2.878594e+01 1.835187e+01 2.406837e+01 2.049348e+01 2.121655e+01 2.795885e+01 2.571835e+01 2.025643e+01 2.178697e+00 2.165545e+00 2.027708e+00 2.029187e+00 2.666843e+00 1.849456e+00 2.331060e+00 2.881997e+00 2.622372e+00 3.477527e+00 2.866268e+00 2.210777e+00 5.860787e+00
<GCONST> 9.627354e+01
<STATE> 3
<MEAN> 25
 -2.062319e+00 -6.360115e-01 5.817330e-01 -9.313382e-01 2.687775e+00 -2.092558e-01 -1.996039e+00 1.475178e+00 -1.691214e+00 -7.757983e-01 6.143413e-01 -3.557649e-02 3.217950e+00 -1.231085e+00 -4.133101e-01 -1.761209e+00 -2.311787e+00 -1.403374e+00 -1.255761e+00 -2.112427e+00 -1.972603e+00 -2.385655e+00 -1.588781e+00 -9.821939e-01 5.049256e+00
<VARIANCE> 25
 2.571354e+01 3.876748e+01 2.054933e+01 3.569926e+01 4.126889e+01 2.554456e+01 2.542529e+01 2.846450e+01 2.624714e+01 3.394182e+01 2.338879e+01 1.894858e+01 4.167429e+00 5.415103e+00 4.027293e+00 4.351464e+00 7.041001e+00 3.495637e+00 4.506935e+00 3.328510e+00 3.531527e+00 4.515826e+00 4.041811e+00 2.778016e+00 4.725372e+00
<GCONST> 1.045128e+02
<STATE> 4
<MEAN> 25
 7.408561e+00 4.329486e-01 -3.131161e+00 -4.180179e+00 -8.351460e+00 2.331849e-01 -3.380570e-01 -4.072383e+00 -5.593291e+00 -6.501327e+00 -2.460400e+00 2.587797e+00 5.167348e-01 -6.209990e-01 -4.801978e-01 -3.533716e-01 -4.114599e-01 -2.340896e-01 -1.430522e-01 -3.570434e-01 2.477986e-03 2.373851e-01 2.137906e-01 -8.479939e-02 1.034246e+00
<VARIANCE> 25
 4.802447e+01 6.262120e+01 3.622872e+01 4.460060e+01 1.098759e+02 3.310311e+01 3.798952e+01 6.158026e+01 3.179334e+01 6.152078e+01 4.823716e+01 3.419650e+01 6.068456e+00 4.997969e+00 3.834358e+00 3.726870e+00 1.301122e+01 3.930007e+00 3.876086e+00 6.209999e+00 3.294319e+00 4.866922e+00 3.975514e+00 4.214196e+00 1.049363e+01
<GCONST> 1.134181e+02
<TRANSP> 5
 0.000000e+00 1.000000e+00 0.000000e+00 0.000000e+00 0.000000e+00
 0.000000e+00 7.736942e-01 2.263058e-01 0.000000e+00 0.000000e+00
 0.000000e+00 0.000000e+00 4.914049e-01 5.085951e-01 0.000000e+00
 0.000000e+00 0.000000e+00 0.000000e+00 7.525282e-01 2.474718e-01
 0.000000e+00 0.000000e+00 0.000000e+00 0.000000e+00 0.000000e+00
<ENDHMM>
~h "sil"
<BEGINHMM>
<NUMSTATES> 5
<STATE> 2
<MEAN> 25
 -2.910644e+00 3.147753e+00 -9.065982e-01 1.722655e+00 3.701234e+00 1.730053e+00 3.553778e-01 3.848523e+00 1.358542e+00 2.536221e+00 1.883745e+00 1.664564e+00 -9.135115e-03 8.832566e-03 -4.198846e-02 2.385157e-03 2.423319e-03 1.555663e-02 1.450217e-02 -1.534677e-02 9.726095e-03 3.065916e-02 3.195187e-02 1.285162e-02 -7.149919e-03
<VARIANCE> 25
 2.874688e+01 5.426695e+00 7.105649e+00 6.751017e+00 7.813999e+00 1.168454e+01 1.098535e+01 1.303904e+01 1.296737e+01 1.234672e+01 1.411852e+01 1.058654e+01 1.061076e-01 1.939818e-01 2.750814e-01 3.859323e-01 4.917769e-01 5.424222e-01 6.208840e-01 7.015232e-01 6.860580e-01 7.756588e-01 7.071187e-01 6.207463e-01 8.097506e-02
<GCONST> 6.218249e+01
<STATE> 3
~s "silst"
<STATE> 4
<MEAN> 25
 -6.355874e+00 1.822995e+00 1.269641e+00 1.358603e+00 4.794950e+00 3.037746e+00 1.425077e+00 5.572258e+00 2.348798e+00 2.720642e+00 2.575341e+00 3.243802e+00 7.738112e-02 -1.691390e-01 2.276948e-01 -4.643279e-02 -2.199129e-01 -1.235927e-01 -1.943773e-01 -2.063386e-01 -1.396884e-01 -2.929338e-01 -1.930827e-01 -1.191366e-01 6.200135e-01
<VARIANCE> 25
 3.581107e+01 2.111913e+01 2.456577e+01 2.894523e+01 5.976584e+01 2.991247e+01 2.922379e+01 3.306447e+01 2.442420e+01 3.472161e+01 2.061706e+01 1.752647e+01 2.451798e+00 2.540447e+00 3.297328e+00 2.563539e+00 3.353179e+00 2.712025e+00 2.789346e+00 2.882817e+00 2.283762e+00 2.854708e+00 2.019297e+00 1.753445e+00 6.545713e+00
<GCONST> 9.941083e+01
<TRANSP> 5
 0.000000e+00 1.000000e+00 0.000000e+00 0.000000e+00 0.000000e+00
 0.000000e+00 8.362204e-01 1.199863e-01 4.379323e-02 0.000000e+00
 0.000000e+00 0.000000e+00 9.796312e-01 2.036878e-02 0.000000e+00
 0.000000e+00 1.534875e-01 0.000000e+00 7.067644e-01 1.397481e-01
 0.000000e+00 0.000000e+00 0.000000e+00 0.000000e+00 0.000000e+00
<ENDHMM>
~h "\340\262\242\340\263\215"
<BEGINHMM>
<NUMSTATES> 5
<STATE> 2
<MEAN> 25
 5.526293e+00 5.388317e+00 4.976041e+00 4.923789e+00 -2.012409e+00 -3.912572e+00 -3.087990e+00 -1.143495e+00 -4.924504e+00 -5.581173e+00 -5.379244e+00 -5.093209e+00 1.349530e+00 -4.034950e-01 -4.310297e-01 -4.774552e-01 -1.166652e+00 -1.528799e+00 -6.859691e-01 -1.299293e-01 1.910928e-01 -4.053676e-01 -4.386081e-01 -5.682991e-01 2.029466e+00
<VARIANCE> 25
 3.648912e+01 6.175858e+01 3.236546e+01 1.390612e+01 5.115714e+01 3.875299e+01 3.167429e+01 2.173457e+01 6.696770e+01 5.065323e+01 2.630302e+01 2.145532e+01 4.852587e+00 6.953167e+00 6.358246e+00 2.457000e+00 3.604193e+00 2.784340e+00 3.700166e+00 2.335430e+00 1.063537e+01 7.421979e+00 4.490497e+00 2.876547e+00 2.670088e+00
<GCONST> 1.070074e+02
<STATE> 3
<MEAN> 25
 9.053867e+00 -5.141611e+00 -7.195712e+00 -4.525425e+00 -3.681531e+00 -6.152501e+00 -8.017034e-02 -1.078567e+00 3.490807e+00 -4.929229e+00 -3.558648e+00 -5.727816e+00 4.823325e-01 -1.560309e-01 -1.377591e-01 -1.053094e+00 8.909197e-01 1.889013e+00 1.905080e+00 -4.851701e-01 -2.043961e+00 -2.056468e-01 -1.059875e-01 2.961462e-01 -3.700808e-02
<VARIANCE> 25
 5.974555e+00 4.671417e+01 1.307058e+01 1.926796e+01 1.368370e+01 4.487434e+01 6.299031e+01 1.742252e+01 7.302132e+01 7.054945e+00 2.666896e+00 1.816643e+01 1.495362e-01 5.301629e-01 1.161967e+00 1.319746e+00 1.570558e+00 1.592431e+00 1.185524e+00 2.991507e+00 2.033564e+00 2.735713e+00 1.192255e+00 1.167386e+00 7.166959e-01
<GCONST> 8.244220e+01
<STATE> 4
<MEAN> 25
 9.557172e+00 1.356956e+00 -2.051881e+00 -2.582377e+00 -4.716686e+00 -3.697014e+00 1.426184e+00 2.836496e+00 -2.955291e+00 -4.849967e+00 -5.208917e+00 -3.286557e+00 -6.557187e-02 5.825808e-01 1.656055e+00 4.995600e-01 1.552334e+00 2.651969e+00 5.360823e-01 3.625286e-02 -1.169528e+00 6.116079e-02 -2.419071e-01 -9.391576e-03 5.986899e-02
<VARIANCE> 25
 3.932353e+00 6.972076e+01 4.298963e+01 3.073578e+01 2.478708e+01 4.110656e+01 3.032104e+01 3.126017e+01 1.622424e+01 1.855670e+01 4.800329e+00 4.409218e+00 1.724083e+00 1.605379e+00 5.731868e+00 2.097716e+00 1.121247e+00 2.638279e+00 1.557361e+00 1.120836e+00 2.183150e+00 5.589504e-01 1.761067e+00 3.864679e+00 2.020987e+00
<GCONST> 8.925447e+01
<TRANSP> 5
 0.000000e+00 1.000000e+00 0.000000e+00 0.000000e+00 0.000000e+00
 0.000000e+00 8.862216e-01 1.137783e-01 0.000000e+00 0.000000e+00
 0.000000e+00 0.000000e+00 5.324293e-01 4.675708e-01 0.000000e+00
 0.000000e+00 0.000000e+00 0.000000e+00 2.562279e-01 7.437721e-01
 0.000000e+00 0.000000e+00 0.000000e+00 0.000000e+00 0.000000e+00
<ENDHMM>
~h "\340\262\263\340\263\215"
<BEGINHMM>
<NUMSTATES> 5
<STATE> 2
<MEAN> 25
 1.093135e+01 -7.593903e+00 -8.039640e+00 2.000423e+00 -4.965978e-01 -1.138329e+01 -1.468255e+01 -6.709364e+00 3.668665e+00 -1.041831e+00 -5.499972e+00 9.881549e-01 -3.859529e-01 1.106227e+00 1.843973e+00 1.008686e+00 1.735200e+00 4.205702e-01 -3.099010e+00 -9.748167e-01 9.051551e-02 -5.484041e-01 -1.734739e+00 -1.217151e-01 -9.019727e-01
<VARIANCE> 25
 1.026351e+01 3.167075e+01 4.410334e+01 2.175593e+01 4.923884e+01 4.654140e+01 8.640818e+01 4.865794e+01 4.779071e+01 4.059785e+01 4.644029e+01 3.154506e+01 3.875752e-01 1.625622e+00 2.565327e+00 1.587401e+00 2.466254e+00 3.837749e+00 5.603600e+00 3.663752e+00 5.097640e+00 3.242707e+00 4.078999e+00 3.509082e+00 4.765173e-01
<GCONST> 1.004752e+02
<STATE> 3
<MEAN> 25
 9.310493e+00 -3.000004e+00 -1.410892e+00 2.120704e+00 9.399758e-01 -6.907847e+00 -1.735602e+01 -1.259894e+01 -8.258110e-01 -6.433818e-01 -7.206107e+00 -1.356979e+00 -2.607451e-01 3.222298e-01 6.473367e-01 -4.983280e-01 -1.362676e+00 1.487713e-01 1.948208e+00 -2.439360e-01 -1.766911e+00 -1.136858e-01 1.462323e+00 2.057038e-03 6.709207e-02
<VARIANCE> 25
 9.434192e+00 2.089053e+01 4.365960e+01 3.801432e+01 4.977798e+01 5.399879e+01 6.003834e+01 5.121918e+01 3.917217e+01 4.312837e+01 8.278546e+01 3.469206e+01 6.416578e-01 1.068720e+00 2.660023e+00 3.132094e+00 2.528678e+00 4.855149e+00 3.277785e+00 4.280104e+00 2.919669e+00 3.690872e+00 6.395096e+00 4.672153e+00 8.923744e-01
<GCONST> 1.025198e+02
<STATE> 4
<MEAN> 25
 1.049970e+01 7.227728e-01 -1.075093e+00 -2.113513e+00 -6.255353e+00 -5.263480e+00 -6.231288e+00 -1.004297e+01 -1.008914e+01 -4.511793e+00 -3.796113e+00 1.268919e+00 -1.537356e-01 5.964853e-01 2.485604e-01 -5.441639e-01 -6.398509e-01 -1.442223e-01 1.470424e+00 1.315585e+00 -4.738824e-01 -2.682150e-01 -5.031451e-01 -5.837448e-01 -1.421143e-01
<VARIANCE> 25
 1.548066e+01 3.325742e+01 5.589284e+01 6.170226e+01 4.143853e+01 5.074774e+01 5.847964e+01 4.889721e+01 4.192569e+01 3.283984e+01 4.387362e+01 5.862333e+01 5.077621e-01 1.875226e+00 1.663798e+00 2.139866e+00 3.030273e+00 3.142344e+00 4.171783e+00 3.845574e+00 2.629961e+00 3.387319e+00 4.214819e+00 3.390138e+00 1.158930e+00
<GCONST> 1.022697e+02
<TRANSP> 5
 0.000000e+00 1.000000e+00 0.000000e+00 0.000000e+00 0.000000e+00
 0.000000e+00 7.130105e-01 2.869896e-01 0.000000e+00 0.000000e+00
 0.000000e+00 0.000000e+00 6.949568e-01 3.050432e-01 0.000000e+00
 0.000000e+00 0.000000e+00 0.000000e+00 5.863400e-01 4.136600e-01
 0.000000e+00 0.000000e+00 0.000000e+00 0.000000e+00 0.000000e+00
<ENDHMM>
~h "\340\262\232\340\263\215"
<BEGINHMM>
<NUMSTATES> 5
<STATE> 2
<MEAN> 25
 -6.440678e+00 -4.428552e-01 4.210818e+00 2.693295e+00 1.086617e+00 8.368673e-01 1.420648e+00 3.464436e+00 2.229926e+00 2.570167e+00 2.238972e+00 8.248721e-01 -5.934675e-01 -1.380269e-01 1.659672e-02 -2.417294e-01 1.953703e-01 6.577489e-01 3.229879e-01 1.391138e-01 4.187019e-02 4.224579e-01 2.782051e-01 3.800685e-01 -6.104022e-01
<VARIANCE> 25
 6.370156e+01 2.947969e+01 4.685533e+01 2.069472e+01 2.737093e+01 4.082861e+01 2.403060e+01 3.201463e+01 2.549111e+01 2.106949e+01 2.251748e+01 3.173334e+01 4.095466e+00 1.916830e+00 1.974306e+00 1.981309e+00 2.145818e+00 3.259777e+00 1.968886e+00 1.993815e+00 2.150356e+00 2.311213e+00 1.618031e+00 1.819150e+00 3.797694e+00
<GCONST> 9.763858e+01
<STATE> 3
<MEAN> 25
 -5.703509e+00 -6.007138e+00 3.021237e+00 -1.675163e+00 -1.771576e+00 8.535308e-01 -6.965681e-01 5.300479e-01 1.441440e+00 2.182364e+00 9.752166e-01 1.999531e+00 -3.746576e+00 -2.046376e+00 1.408642e+00 -2.392122e+00 -1.076784e+00 5.737953e-01 2.905740e-01 -9.445685e-01 3.239734e-01 -2.886105e-01 3.653792e-02 5.967879e-02 3.230180e+00
<VARIANCE> 25
 4.053644e+01 4.274725e+01 5.152369e+01 4.076204e+01 2.982543e+01 2.433203e+01 2.508499e+01 4.070169e+01 3.612384e+01 3.710194e+01 1.688279e+01 2.530202e+01 9.428331e+00 2.257318e+00 6.435948e+00 4.378323e+00 3.098735e+00 2.723379e+00 2.590020e+00 4.171213e+00 3.942293e+00 4.543975e+00 2.945182e+00 3.397036e+00 5.834582e+00
<GCONST> 1.056894e+02
<STATE> 4
<MEAN> 25
 -1.840605e+01 -8.048952e+00 1.148340e+01 -2.857885e+00 -3.323101e+00 -2.405480e+00 6.336860e-02 -2.760639e+00 2.154110e+00 -1.341975e+00 -7.061332e-01 -2.275784e+00 1.643701e+00 5.011595e-01 1.469120e-03 6.066063e-01 -3.659871e-01 -1.303147e+00 -9.463418e-01 -2.970089e-01 -2.837583e-01 -8.727817e-01 -5.840085e-01 -5.673631e-01 8.888544e-01
<VARIANCE> 25
 8.029437e+01 1.495611e+01 1.746097e+01 3.378558e+01 1.369101e+01 3.702824e+01 2.978636e+01 1.454887e+01 2.176377e+01 2.299652e+01 1.615200e+01 1.706157e+01 2.139371e+01 2.778204e+00 5.160631e+00 2.096022e+00 2.035562e+00 2.402742e+00 4.250544e+00 2.011357e+00 3.231549e+00 2.348623e+00 1.655812e+00 1.238325e+00 2.875439e+00
<GCONST> 9.755247e+01
<TRANSP> 5
 0.000000e+00 1.000000e+00 0.000000e+00 0.000000e+00 0.000000e+00
 0.000000e+00 7.079099e-01 2.920901e-01 0.000000e+00 0.000000e+00
 0.000000e+00 0.000000e+00 6.353166e-01 3.646833e-01 0.000000e+00
 0.000000e+00 0.000000e+00 0.000000e+00 8.357570e-01 1.642430e-01
 0.000000e+00 0.000000e+00 0.000000e+00 0.000000e+00 0.000000e+00
<ENDHMM>
~h "\340\262\253\340\263\215"
<BEGINHMM>
<NUMSTATES> 5
<STATE> 2
<MEAN> 25
 -6.837085e+00 3.810264e+00 -1.932047e+00 1.952207e+00 6.383000e+00 5.420248e+00 2.990671e+00 7.479198e+00 4.365073e+00 5.168646e+00 3.829169e+00 3.536285e+00 -1.469176e-01 1.167685e-01 7.337246e-02 2.247095e-01 6.119569e-02 -1.327929e-02 7.082957e-02 -2.685377e-02 1.129064e-01 -1.065180e-01 6.227485e-02 7.434957e-02 -9.998342e-02
<VARIANCE> 25
 7.054688e+00 4.149412e+00 7.991458e+00 1.826576e+01 1.145131e+01 7.537962e+00 1.254163e+01 1.126851e+01 8.654617e+00 9.981450e+00 7.840044e+00 1.140793e+01 8.769460e-01 2.769415e-01 5.704271e-01 4.922801e-01 8.619453e-01 1.316618e+00 1.178029e+00 8.949577e-01 7.567860e-01 9.622517e-01 5.471495e-01 1.130680e+00 6.428519e-01
<GCONST> 6.892330e+01
<STATE> 3
<MEAN> 25
 -5.470803e+00 5.015627e+00 5.334063e-01 3.565212e+00 3.552093e+00 2.043446e+00 1.475150e+00 4.143826e+00 3.253334e+00 1.449651e+00 1.328787e+00 3.090207e+00 5.685469e-01 -9.336435e-01 9.070563e-01 -1.143828e+00 -1.914337e+00 -2.892753e-01 -1.219390e+00 -7.623944e-02 -4.062705e-03 -1.420523e+00 -9.575499e-01 -9.191865e-02 1.408259e+00
<VARIANCE> 25
 1.140261e+01 1.672578e+01 4.746124e+00 1.688021e+01 4.295549e+01 7.858700e+00 6.862457e+00 9.970627e+00 1.769018e+01 2.674133e+01 1.560690e+01 2.114034e+01 5.079031e+00 1.965109e+00 3.727107e-01 8.168210e-01 3.434952e+00 1.235689e+00 1.696686e+00 9.855490e-01 1.806754e+00 1.518379e+00 1.408563e+00 1.433984e+00 7.801310e-01
<GCONST> 8.212184e+01
<STATE> 4
<MEAN> 25
 -1.117158e+01 -5.456085e+00 -3.045473e-01 -2.408435e+00 2.975216e+00 2.288679e+00 1.570221e-01 5.959501e+00 9.633859e-01 1.314540e+00 1.163860e+00 1.007332e+00 -3.003383e-01 -6.894841e-01 -8.537601e-02 -1.223097e-01 4.613428e-01 -1.930089e-01 -3.221333e-01 -3.585762e-01 -4.728007e-02 2.630430e-02 8.513594e-02 -2.567597e-01 9.321366e-01
<VARIANCE> 25
 1.887398e+01 1.111479e+01 6.881957e+00 5.752260e+00 1.286097e+01 1.091011e+01 1.100755e+01 7.657590e+00 1.663081e+01 1.697075e+01 1.031500e+01 1.416728e+01 3.164689e+00 1.236493e+00 7.391719e-01 1.326954e+00 1.461317e+00 1.187305e+00 1.272383e+00 1.169345e+00 1.618117e+00 2.442165e+00 1.523210e+00 1.489816e+00 5.523474e-01
<GCONST> 7.887032e+01
<TRANSP> 5
 0.000000e+00 1.000000e+00 0.000000e+00 0.000000e+00 0.000000e+00
 0.000000e+00 8.928699e-01 1.071301e-01 0.000000e+00 0.000000e+00
 0.000000e+00 0.000000e+00 5.702602e-01 4.297398e-01 0.000000e+00
 0.000000e+00 0.000000e+00 0.000000e+00 8.893194e-01 1.106806e-01
 0.000000e+00 0.000000e+00 0.000000e+00 0.000000e+00 0.000000e+00
<ENDHMM>
~h "\340\262\243\340\263\215"
<BEGINHMM>
<NUMSTATES> 5
<STATE> 2
<MEAN> 25
 1.227298e+01 -1.056884e+01 -6.848796e+00 -2.536642e-01 -4.021336e+00 -8.182455e+00 -4.676243e+00 -2.699773e+00 -1.570068e+00 -2.556695e+00 -6.986531e+00 -2.772548e+00 2.651438e-01 1.101404e-01 5.492488e-01 4.649897e-01 7.935684e-01 -9.874226e-01 -1.403993e+00 6.963940e-01 5.553100e-01 -1.517087e-01 -7.026333e-01 -8.071733e-01 -1.074434e-01
<VARIANCE> 25
 1.142625e+01 5.298500e+01 6.279948e+01 3.086912e+01 6.147279e+01 3.966864e+01 3.738816e+01 2.413274e+01 4.656849e+01 4.525749e+01 2.912206e+01 3.453025e+01 1.071196e+00 1.677580e+00 1.958843e+00 2.583002e+00 4.173030e+00 3.301091e+00 4.189956e+00 2.897941e+00 6.213771e+00 3.391968e+00 1.411790e+00 1.444999e+00 7.359062e-01
<GCONST> 9.987478e+01
<STATE> 3
<MEAN> 25
 1.333461e+01 -6.737153e+00 -2.144885e+00 4.307491e-01 4.927266e-01 -1.042133e+01 -1.169238e+01 -2.530989e+00 2.997835e-01 -3.452971e+00 -5.710615e+00 -6.783172e+00 2.840977e-01 1.900912e+00 2.538383e+00 -1.118822e-01 6.902673e-01 -2.328310e-01 -7.769222e-01 8.780172e-02 -1.168621e+00 -8.586626e-01 4.404248e-01 5.056927e-03 -1.157582e+00
<VARIANCE> 25
 9.057360e+00 3.909670e+01 5.306061e+01 3.044475e+01 5.303608e+01 3.730689e+01 4.467148e+01 3.595158e+01 4.310489e+01 4.786697e+01 3.523409e+01 3.568509e+01 5.719810e-01 1.615515e+00 3.224103e+00 1.489302e+00 2.330975e+00 2.284224e+00 3.496175e+00 2.280023e+00 2.185995e+00 3.364940e+00 1.844120e+00 2.076558e+00 6.718259e-01
<GCONST> 9.712292e+01
<STATE> 4
<MEAN> 25
 1.335354e+01 -2.193163e+00 5.823780e+00 4.982747e-01 -4.736876e+00 -1.090298e+01 -6.963220e+00 -2.078532e+00 -4.569764e+00 -8.685449e+00 -6.365244e+00 -2.715130e+00 -6.918300e-01 -5.486714e-01 -4.424216e-01 -3.459753e-01 -1.367656e+00 4.182290e-01 1.687838e+00 -1.187919e+00 2.719432e-01 5.575039e-01 5.258168e-02 7.504659e-02 8.175658e-01
<VARIANCE> 25
 8.184019e+00 2.331870e+01 1.950096e+01 2.681992e+01 6.754424e+01 3.839555e+01 5.768957e+01 3.530027e+01 5.698378e+01 4.122016e+01 3.162727e+01 2.913703e+01 9.672470e-01 2.617603e+00 4.736825e+00 2.067460e+00 9.896435e+00 2.646090e+00 7.801527e+00 3.146756e+00 2.906780e+00 3.867043e+00 1.850018e+00 2.452499e+00 1.184098e+00
<GCONST> 1.013028e+02
<TRANSP> 5
 0.000000e+00 1.000000e+00 0.000000e+00 0.000000e+00 0.000000e+00
 0.000000e+00 4.904206e-01 5.095794e-01 0.000000e+00 0.000000e+00
 0.000000e+00 0.000000e+00 6.579704e-01 3.420296e-01 0.000000e+00
 0.000000e+00 0.000000e+00 0.000000e+00 6.630068e-01 3.369931e-01
 0.000000e+00 0.000000e+00 0.000000e+00 0.000000e+00 0.000000e+00
<ENDHMM>
~h "\340\262\233\340\263\215"
<BEGINHMM>
<NUMSTATES> 5
<STATE> 2
<MEAN> 25
 1.904741e+00 -7.300335e+00 -3.725416e+00 -1.068103e+01 1.609399e+00 7.575928e-01 1.411896e+00 -1.056785e+00 -1.336015e+00 -7.743665e-01 -6.549822e-01 -6.828147e+00 -2.326125e-01 2.002011e-01 -6.126719e-01 1.930525e-01 -1.592384e-01 -2.155118e-01 2.787325e-01 -2.696458e-01 -6.853768e-01 -5.047712e-02 6.257996e-01 -3.305429e-01 -3.005766e-01
<VARIANCE> 25
 8.778024e+01 4.780909e+01 1.400964e+02 8.618214e+01 2.042390e+01 3.803209e+01 4.049443e+01 2.786081e+01 6.617379e+01 1.444606e+01 1.239922e+01 4.244074e+01 2.170164e+00 4.452274e+00 7.510917e+00 2.805302e+00 1.690482e+00 2.449782e+00 4.309608e+00 1.029406e+00 4.416081e+00 1.422822e+00 1.450085e+00 1.503873e+00 3.987204e+00
<GCONST> 1.027273e+02
<STATE> 3
<MEAN> 25
 1.483237e+00 2.221083e+00 -4.524504e+00 -3.509357e+00 3.451445e+00 5.336921e+00 3.888324e+00 -4.414697e-01 -3.178596e+00 1.188359e+00 -1.868960e+00 -5.408473e+00 -4.925260e-01 4.540392e-01 -3.297238e-01 1.408971e+00 2.510256e-01 9.623672e-02 3.655748e-01 1.085507e+00 1.040660e+00 3.658210e-01 3.305574e-01 1.155653e+00 -1.658890e+00
<VARIANCE> 25
 1.884355e+01 6.044531e+00 1.216466e+01 1.919843e+01 1.576851e+01 2.173490e+01 1.399034e+01 2.915817e+01 3.884600e+01 1.642475e+01 2.406128e+01 5.128670e+01 1.316296e+00 6.002070e-01 3.349072e+00 1.533914e+00 1.382012e+00 9.853516e-01 1.792395e+00 1.867567e+00 8.871791e-01 2.341468e+00 1.836711e+00 1.021862e+00 4.848686e-01
<GCONST> 8.511470e+01
<STATE> 4
<MEAN> 25
 -5.348242e+00 2.701727e+00 -5.428241e-01 4.436972e+00 5.313683e+00 3.433970e+00 3.233021e+00 4.462130e+00 3.461010e+00 4.600736e+00 2.616949e+00 4.043741e+00 -2.879257e-02 -3.314955e-02 7.276756e-02 1.169657e-01 3.034514e-02 -7.571205e-02 -7.152655e-02 -3.997413e-03 5.609953e-03 5.247136e-02 3.781163e-02 3.566266e-02 -2.228090e-02
<VARIANCE> 25
 3.589624e+00 4.561610e+00 9.274873e+00 1.184923e+01 9.219752e+00 1.367357e+01 8.826563e+00 1.381648e+01 1.227313e+01 9.515416e+00 1.004893e+01 1.018406e+01 4.214824e-01 4.212677e-01 1.233158e+00 1.007186e+00 7.744771e-01 1.048361e+00 1.241452e+00 1.383634e+00 1.221487e+00 1.008153e+00 9.526244e-01 9.786298e-01 4.583380e-01
<GCONST> 7.065009e+01
<TRANSP> 5
 0.000000e+00 1.000000e+00 0.000000e+00 0.000000e+00 0.000000e+00
 0.000000e+00 7.655194e-01 2.344806e-01 0.000000e+00 0.000000e+00
 0.000000e+00 0.000000e+00 8.303542e-01 1.696458e-01 0.000000e+00
 0.000000e+00 0.000000e+00 0.000000e+00 9.688683e-01 3.113180e-02
 0.000000e+00 0.000000e+00 0.000000e+00 0.000000e+00 0.000000e+00
<ENDHMM>
~h "\340\262\254\340\263\215"
<BEGINHMM>
<NUMSTATES> 5
<STATE> 2
<MEAN> 25
 2.874031e+00 6.221034e+00 4.910784e+00 7.831715e+00 6.778444e+00 2.797190e+00 -2.189064e+00 -2.352387e+00 -7.763996e+00 -6.010302e+00 -1.668191e+00 2.743999e-01 1.007674e+00 7.199674e-01 7.948676e-01 4.421057e-01 1.623456e-01 -8.301969e-02 -3.897591e-01 -5.428416e-01 -1.006212e+00 -1.189443e+00 -8.285329e-01 -5.324618e-01 6.613051e-01
<VARIANCE> 25
 4.354210e+01 3.551413e+01 2.719723e+01 2.891718e+01 3.016716e+01 2.193690e+01 3.726315e+01 3.878942e+01 6.698658e+01 5.056644e+01 2.239918e+01 1.789465e+01 4.887512e+00 4.054804e+00 3.097328e+00 2.843608e+00 2.303296e+00 3.065261e+00 5.256961e+00 3.467297e+00 4.102388e+00 4.026016e+00 2.188516e+00 1.586195e+00 3.907172e+00
<GCONST> 1.032818e+02
<STATE> 3
<MEAN> 25
 6.572664e+00 5.095082e+00 3.130134e+00 2.125122e+00 2.979424e+00 3.585016e+00 -1.127505e+00 -4.539080e+00 -1.054082e+01 -7.558120e+00 -2.856616e+00 -1.271564e+00 -2.112707e-01 -1.779421e+00 -6.420318e-01 -1.849979e+00 -1.432249e+00 -1.342602e+00 -1.198776e+00 5.972677e-02 1.607736e+00 2.043102e+00 1.230674e+00 -7.799594e-01 1.912520e+00
<VARIANCE> 25
 1.943486e+01 5.560197e+01 2.789288e+01 7.638254e+01 6.544102e+01 3.418212e+01 3.637523e+01 3.637926e+01 5.700107e+01 4.781916e+01 3.597591e+01 2.173331e+01 3.452765e+00 4.066962e+00 3.384353e+00 7.185758e+00 8.903348e+00 3.264934e+00 3.528685e+00 3.553733e+00 5.040758e+00 5.062343e+00 5.800223e+00 2.263914e+00 5.695670e+00
<GCONST> 1.093553e+02
<STATE> 4
<MEAN> 25
 4.942855e+00 3.388854e+00 5.362003e+00 5.679399e+00 4.340994e+00 -1.404170e+00 -5.935970e+00 -1.034712e+00 -3.516075e+00 -4.459021e+00 -2.682666e+00 -3.756974e+00 -2.699660e-01 -2.045877e+00 -7.410996e-01 -1.377821e+00 -1.432060e+00 -1.147498e+00 -2.496001e-01 -1.790846e-01 1.053897e+00 8.956953e-01 8.339734e-01 2.426236e-01 1.903120e+00
<VARIANCE> 25
 2.497451e+01 7.385758e+01 2.995498e+01 6.738607e+01 5.422887e+01 5.046885e+01 4.455469e+01 3.296133e+01 4.248106e+01 2.349867e+01 3.233601e+01 1.865666e+01 2.486812e+00 6.928447e+00 2.700356e+00 5.918081e+00 9.355070e+00 7.169107e+00 4.337526e+00 2.468062e+00 5.042193e+00 3.906945e+00 3.087615e+00 3.407054e+00 8.928200e+00
<GCONST> 1.093096e+02
<TRANSP> 5
 0.000000e+00 1.000000e+00 0.000000e+00 0.000000e+00 0.000000e+00
 0.000000e+00 7.363924e-01 2.636076e-01 0.000000e+00 0.000000e+00
 0.000000e+00 0.000000e+00 3.509441e-01 6.490560e-01 0.000000e+00
 0.000000e+00 0.000000e+00 0.000000e+00 5.932359e-01 4.067642e-01
 0.000000e+00 0.000000e+00 0.000000e+00 0.000000e+00 0.000000e+00
<ENDHMM>
~h "\340\262\244\340\263\215"
<BEGINHMM>
<NUMSTATES> 5
<STATE> 2
<MEAN> 25
 -1.762027e+00 1.024745e+00 -2.750532e+00 -8.383996e-01 3.338386e-01 -1.139346e-01 -2.189491e+00 2.577263e-02 2.376722e+00 6.829874e+00 5.347562e+00 1.722849e+00 -1.162778e+00 6.298324e-02 -5.641124e-01 -2.109366e-02 1.666786e-01 4.651821e-01 1.027158e+00 1.280514e+00 7.399640e-01 9.478676e-01 9.665887e-01 1.098215e+00 -1.639208e+00
<VARIANCE> 25
 1.885054e+01 1.930532e+01 2.689228e+01 3.014053e+01 2.670631e+01 3.346431e+01 3.540976e+01 3.790495e+01 3.766976e+01 3.978795e+01 2.627226e+01 3.635030e+01 1.268154e+00 1.781716e+00 2.076952e+00 1.987505e+00 2.467767e+00 1.958118e+00 2.674126e+00 2.728634e+00 2.188199e+00 2.669379e+00 2.335487e+00 2.483701e+00 4.271709e+00
<GCONST> 9.748370e+01
<STATE> 3
<MEAN> 25
 -6.809607e+00 2.758250e+00 -2.566238e+00 4.629719e-01 3.346008e+00 1.952962e+00 1.135205e+00 4.277884e+00 3.779936e+00 6.646716e+00 6.631114e+00 3.906292e+00 -4.747877e-01 -3.558330e-01 2.684415e-01 -5.284327e-01 3.543588e-01 -7.424887e-01 -5.859271e-01 -2.510133e-01 -7.833412e-01 -1.626735e+00 -1.013505e+00 -9.950686e-01 2.642104e+00
<VARIANCE> 25
 1.355958e+01 1.258938e+01 1.479234e+01 1.664711e+01 1.658422e+01 1.974835e+01 1.855282e+01 1.822383e+01 2.074384e+01 3.061878e+01 1.723760e+01 1.397941e+01 1.477113e+00 1.936067e+00 2.089782e+00 2.583557e+00 1.891516e+00 3.056454e+00 3.119665e+00 2.171990e+00 2.747574e+00 3.769039e+00 2.212245e+00 2.182538e+00 7.785388e+00
<GCONST> 9.251590e+01
<STATE> 4
<MEAN> 25
 -1.235004e+00 -1.825189e+00 -1.426790e+00 -3.914317e+00 -4.644776e-01 -3.993383e+00 -7.011347e+00 -3.010263e+00 -8.235490e-01 -9.214779e-01 1.393975e+00 -1.593368e+00 2.789289e+00 -7.266366e-01 -7.461132e-03 -8.300335e-01 -1.759511e+00 -1.216563e+00 -1.894945e+00 -2.570101e+00 -7.059661e-01 -7.859868e-01 -7.459127e-01 -1.208598e+00 3.529274e+00
<VARIANCE> 25
 6.412125e+01 2.859242e+01 1.934426e+01 2.292831e+01 4.590039e+01 3.829244e+01 5.194408e+01 6.754857e+01 2.881523e+01 3.597749e+01 2.226917e+01 2.825477e+01 4.676764e+00 3.402031e+00 3.046158e+00 3.276498e+00 5.717221e+00 5.757915e+00 6.318622e+00 5.360816e+00 4.042933e+00 5.258175e+00 3.063135e+00 5.543860e+00 9.870863e+00
<GCONST> 1.088414e+02
<TRANSP> 5
 0.000000e+00 1.000000e+00 0.000000e+00 0.000000e+00 0.000000e+00
 0.000000e+00 7.568731e-01 2.431269e-01 0.000000e+00 0.000000e+00
 0.000000e+00 0.000000e+00 5.962282e-01 4.037718e-01 0.000000e+00
 0.000000e+00 0.000000e+00 0.000000e+00 6.086534e-01 3.913466e-01
 0.000000e+00 0.000000e+00 0.000000e+00 0.000000e+00 0.000000e+00
<ENDHMM>
~h "\340\262\265\340\263\215"
<BEGINHMM>
<NUMSTATES> 5
<STATE> 2
<MEAN> 25
 9.820691e+00 -5.450348e-01 -3.779642e+00 -6.667108e+00 -6.308398e+00 7.087054e-01 -2.221174e+00 -5.634832e+00 -7.266274e+00 -6.018685e+00 1.039863e+00 2.488713e+00 5.220747e-01 8.728657e-01 3.397821e-01 -3.771814e-01 -4.787241e-01 3.829867e-01 7.991025e-01 3.444995e-01 -1.083432e+00 -8.959035e-01 -5.072410e-01 3.463486e-01 -5.482123e-01
<VARIANCE> 25
 4.086698e+01 2.986530e+01 2.563117e+01 5.331141e+01 7.150417e+01 2.345801e+01 4.011953e+01 3.665458e+01 3.340768e+01 3.654346e+01 3.358161e+01 2.768263e+01 2.745675e+00 3.563439e+00 2.819220e+00 4.186598e+00 6.127828e+00 3.401401e+00 3.617717e+00 3.883626e+00 3.554383e+00 3.232945e+00 3.841958e+00 2.724273e+00 3.950563e+00
<GCONST> 1.055267e+02
<STATE> 3
<MEAN> 25
 1.204942e+01 5.292699e+00 -2.227855e+00 -9.102965e+00 -1.213243e+01 -1.526523e+00 1.362383e+00 -3.374964e+00 -6.807185e+00 -6.225841e+00 -4.147309e+00 -6.447290e-01 -1.601354e-01 -1.483731e-01 -1.693696e-03 -2.370664e-01 1.733808e-01 -1.200590e-01 3.750236e-02 2.719821e-01 2.112190e-01 3.922857e-01 3.429344e-02 -3.730551e-01 1.151279e-01
<VARIANCE> 25
 2.873316e+01 3.886642e+01 1.684194e+01 3.498899e+01 8.210033e+01 3.358379e+01 2.622056e+01 2.765925e+01 3.433093e+01 2.655997e+01 3.750483e+01 2.793711e+01 5.498633e-01 1.921196e+00 1.548097e+00 1.688896e+00 3.063202e+00 1.756083e+00 1.604582e+00 2.313125e+00 1.600353e+00 1.585483e+00 1.948036e+00 1.539898e+00 1.265529e+00
<GCONST> 9.389750e+01
<STATE> 4
<MEAN> 25
 2.309914e+00 1.006233e+00 -8.945248e-01 -3.499380e+00 6.494645e-01 1.437512e+00 3.228220e-01 8.143408e-01 -4.155382e+00 -2.530757e+00 3.465890e-01 3.272564e-01 5.462476e-02 -7.845585e-01 -1.684823e-01 -7.775483e-02 -4.528236e-02 -2.610624e-01 -1.258852e-01 -1.479312e-01 3.041841e-01 1.887859e-01 -1.752932e-03 -3.008254e-01 7.542083e-01
<VARIANCE> 25
 1.037678e+02 3.505466e+01 3.695864e+01 6.785439e+01 8.224079e+01 4.537989e+01 4.289785e+01 4.915752e+01 3.883543e+01 3.522666e+01 3.573166e+01 2.317912e+01 2.365824e+00 2.527423e+00 2.308378e+00 2.670752e+00 3.846914e+00 3.548408e+00 2.843512e+00 2.736942e+00 2.569333e+00 2.663730e+00 2.208338e+00 2.227916e+00 1.788357e+00
<GCONST> 1.041630e+02
<TRANSP> 5
