~o
<STREAMINFO> 1 25
<VECSIZE> 25<NULLD><MFCC_D_N_Z_0><DIAGC>
~h "\340\262\236\340\263\215"
<BEGINHMM>
<NUMSTATES> 5
<STATE> 2
<MEAN> 25
 3.363246e-09 -5.073974e-09 -2.667070e-08 -7.742742e-09 -4.152962e-08 5.464628e-08 -2.856819e-08 -3.137197e-08 -1.315223e-08 -1.457514e-08 1.178106e-08 -4.705634e-08 -5.036812e-04 -4.192874e-04 1.220702e-04 -4.396494e-04 -3.006390e-04 7.270148e-05 1.006791e-04 -4.520885e-04 -6.791297e-04 -7.117605e-04 -2.317067e-04 -1.422502e-04 3.583877e-03
<VARIANCE> 25
 7.771582e+01 4.669402e+01 4.885701e+01 4.639305e+01 7.525224e+01 6.131878e+01 4.945510e+01 6.535645e+01 4.383388e+01 5.195151e+01 3.898161e+01 3.388782e+01 2.163800e+00 2.160548e+00 2.178321e+00 2.195785e+00 3.386122e+00 2.583580e+00 2.687976e+00 2.741140e+00 2.512795e+00 2.406658e+00 2.020564e+00 1.918339e+00 2.693773e+00
<GCONST> 1.047231e+02
<STATE> 3
<MEAN> 25
 3.363246e-09 -5.073974e-09 -2.667070e-08 -7.742742e-09 -4.152962e-08 5.464628e-08 -2.856819e-08 -3.137197e-08 -1.315223e-08 -1.457514e-08 1.178106e-08 -4.705634e-08 -5.036812e-04 -4.192874e-04 1.220702e-04 -4.396494e-04 -3.006390e-04 7.270148e-05 1.006791e-04 -4.520885e-04 -6.791297e-04 -7.117605e-04 -2.317067e-04 -1.422502e-04 3.583877e-03
<VARIANCE> 25
 7.771582e+01 4.669402e+01 4.885701e+01 4.639305e+01 7.525224e+01 6.131878e+01 4.945510e+01 6.535645e+01 4.383388e+01 5.195151e+01 3.898161e+01 3.388782e+01 2.163800e+00 2.160548e+00 2.178321e+00 2.195785e+00 3.386122e+00 2.583580e+00 2.687976e+00 2.741140e+00 2.512795e+00 2.406658e+00 2.020564e+00 1.918339e+00 2.693773e+00
<GCONST> 1.047231e+02
<STATE> 4
<MEAN> 25
 3.363246e-09 -5.073974e-09 -2.667070e-08 -7.742742e-09 -4.152962e-08 5.464628e-08 -2.856819e-08 -3.137197e-08 -1.315223e-08 -1.457514e-08 1.178106e-08 -4.705634e-08 -5.036812e-04 -4.192874e-04 1.220702e-04 -4.396494e-04 -3.006390e-04 7.270148e-05 1.006791e-04 -4.520885e-04 -6.791297e-04 -7.117605e-04 -2.317067e-04 -1.422502e-04 3.583877e-03
<VARIANCE> 25
 7.771582e+01 4.669402e+01 4.885701e+01 4.639305e+01 7.525224e+01 6.131878e+01 4.945510e+01 6.535645e+01 4.383388e+01 5.195151e+01 3.898161e+01 3.388782e+01 2.163800e+00 2.160548e+00 2.178321e+00 2.195785e+00 3.386122e+00 2.583580e+00 2.687976e+00 2.741140e+00 2.512795e+00 2.406658e+00 2.020564e+00 1.918339e+00 2.693773e+00
<GCONST> 1.047231e+02
<TRANSP> 5
 0.000000e+00 1.000000e+00 0.000000e+00 0.000000e+00 0.000000e+00
 0.000000e+00 6.000000e-01 4.000000e-01 0.000000e+00 0.000000e+00
 0.000000e+00 0.000000e+00 6.000000e-01 4.000000e-01 0.000000e+00
 0.000000e+00 0.000000e+00 0.000000e+00 7.000000e-01 3.000000e-01
 0.000000e+00 0.000000e+00 0.000000e+00 0.000000e+00 0.000000e+00
<ENDHMM>
~h "\340\262\257\340\263\215"
<BEGINHMM>
<NUMSTATES> 5
<STATE> 2
<MEAN> 25
 3.155740e+00 -2.830838e+00 4.911668e+00 1.187789e+00 -7.752707e+00 -6.337700e+00 -2.552478e+00 -3.213235e+00 -1.782874e+00 -5.528783e+00 -1.675678e+00 -2.396891e-01 8.373100e-01 -2.636614e-01 2.622232e-03 5.133435e-02 -7.804682e-01 -7.303153e-01 -3.681562e-01 -2.850905e-01 3.882716e-04 -5.473278e-01 -3.249296e-01 1.203070e-01 7.543458e-01
<VARIANCE> 25
 6.514668e+01 6.051811e+01 8.210667e+01 5.100507e+01 1.008783e+02 7.658308e+01 5.002365e+01 5.570449e+01 4.854363e+01 4.701620e+01 3.197354e+01 3.101419e+01 4.795012e+00 4.154827e+00 4.888429e+00 3.431015e+00 6.596181e+00 4.276845e+00 3.823194e+00 4.406483e+00 4.564019e+00 3.884163e+00 2.575763e+00 3.164262e+00 4.356739e+00
<GCONST> 1.125040e+02
<STATE> 3
<MEAN> 25
 5.037571e+00 -3.961314e+00 4.097913e+00 9.821622e-01 -9.125079e+00 -8.115360e+00 -3.676372e+00 -3.763739e+00 -1.293016e+00 -6.091841e+00 -2.436702e+00 -1.622817e-01 4.938563e-01 -3.497342e-01 -5.616159e-01 -1.899723e-01 -6.626125e-02 -3.015763e-01 -2.997261e-01 -4.051381e-02 2.614383e-01 1.102407e-01 -2.103278e-01 -1.043252e-01 4.762862e-01
<VARIANCE> 25
 4.797266e+01 5.754761e+01 7.936262e+01 5.097746e+01 8.782089e+01 7.820976e+01 5.770590e+01 5.367271e+01 5.404935e+01 4.703212e+01 3.204459e+01 3.181308e+01 3.569027e+00 3.666879e+00 4.853926e+00 3.296511e+00 6.568630e+00 4.563272e+00 4.025050e+00 4.306310e+00 4.631575e+00 3.834824e+00 2.610577e+00 2.944751e+00 3.560224e+00
<GCONST> 1.116000e+02
<STATE> 4
<MEAN> 25
 6.302862e+00 -4.449924e+00 2.847615e+00 3.849151e-01 -8.961691e+00 -8.813272e+00 -4.283003e+00 -3.911591e+00 -1.200912e+00 -5.696302e+00 -3.144412e+00 -1.208394e+00 1.589600e-01 -1.065784e-01 -5.899938e-01 -3.063963e-01 4.415247e-01 2.644825e-01 -3.437325e-02 1.836774e-02 5.746150e-02 3.737764e-01 -4.552073e-02 -2.699788e-01 1.533344e-02
<VARIANCE> 25
 3.759731e+01 5.483208e+01 7.772742e+01 5.413396e+01 7.756971e+01 7.346120e+01 5.977746e+01 5.311521e+01 5.993917e+01 4.803922e+01 3.228458e+01 3.408958e+01 2.159504e+00 2.763004e+00 4.161547e+00 3.149724e+00 5.284971e+00 4.414440e+00 3.862431e+00 3.910553e+00 4.285228e+00 3.537088e+00 2.420610e+00 2.758678e+00 2.465006e+00
<GCONST> 1.093463e+02
<TRANSP> 5
 0.000000e+00 1.000000e+00 0.000000e+00 0.000000e+00 0.000000e+00
 0.000000e+00 6.384236e-01 3.615763e-01 0.000000e+00 0.000000e+00
 0.000000e+00 0.000000e+00 6.530911e-01 3.469089e-01 0.000000e+00
 0.000000e+00 0.000000e+00 0.000000e+00 8.278525e-01 1.721475e-01
 0.000000e+00 0.000000e+00 0.000000e+00 0.000000e+00 0.000000e+00
<ENDHMM>
~h "\340\262\226\340\263\215"
<BEGINHMM>
<NUMSTATES> 5
<STATE> 2
<MEAN> 25
 -5.281717e+00 2.494883e+00 1.676073e-01 1.477704e+00 4.248987e+00 2.582602e+00 1.740996e+00 3.961036e+00 2.112106e+00 2.292155e+00 2.525471e+00 2.387525e+00 -3.333671e-01 -1.111021e-01 4.833280e-02 1.932137e-01 8.731834e-02 3.145143e-02 8.883531e-02 6.976711e-02 1.146622e-01 7.027924e-02 1.502807e-01 1.554821e-01 -7.442541e-02
<VARIANCE> 25
 3.932900e+01 2.264559e+01 2.825003e+01 2.969189e+01 2.732099e+01 2.219868e+01 2.211237e+01 2.211728e+01 2.332804e+01 1.453133e+01 1.542144e+01 2.343762e+01 1.666818e+00 1.490768e+00 2.471786e+00 2.468501e+00 1.739078e+00 1.260297e+00 1.591877e+00 2.030138e+00 1.448080e+00 1.296135e+00 1.582046e+00 1.308589e+00 1.240681e+00
<GCONST> 9.003650e+01
<STATE> 3
<MEAN> 25
 -5.671591e+00 2.091834e+00 4.287581e-01 1.416391e+00 3.973848e+00 2.375501e+00 1.670571e+00 4.048979e+00 2.237178e+00 2.433551e+00 2.693946e+00 2.173396e+00 -1.285404e-01 -6.396161e-02 1.369505e-02 2.756177e-02 7.609367e-03 3.462053e-02 3.830884e-02 1.565589e-02 2.655802e-02 8.842477e-02 4.090632e-03 3.753680e-02 2.612242e-02
<VARIANCE> 25
 4.696685e+01 2.712202e+01 3.009263e+01 3.425491e+01 2.697152e+01 2.173953e+01 2.265547e+01 2.300067e+01 2.465811e+01 1.462916e+01 1.608507e+01 2.457979e+01 1.449777e+00 1.493777e+00 2.283884e+00 2.387985e+00 1.684940e+00 1.269495e+00 1.677878e+00 1.848604e+00 1.387872e+00 1.178729e+00 1.364720e+00 1.202735e+00 1.188662e+00
<GCONST> 9.005454e+01
<STATE> 4
<MEAN> 25
 -5.979553e+00 3.505470e+00 -4.048973e-02 3.155233e+00 4.919947e+00 3.774491e+00 2.607851e+00 4.339074e+00 3.384787e+00 3.546703e+00 3.537477e+00 3.251547e+00 3.503316e-02 -7.381923e-02 4.824360e-02 -1.944226e-02 -4.925369e-02 -2.871012e-02 -2.999981e-02 -4.833827e-02 -4.462453e-02 -1.538764e-02 -1.943211e-02 -3.972986e-02 1.131563e-01
<VARIANCE> 25
 1.164788e+01 1.277873e+01 1.220132e+01 1.587652e+01 1.435062e+01 1.092166e+01 1.250998e+01 1.278504e+01 1.306305e+01 1.051996e+01 1.078366e+01 1.330360e+01 5.486078e-01 9.118578e-01 9.867020e-01 1.086927e+00 1.303379e+00 9.138793e-01 1.178358e+00 1.091649e+00 1.089572e+00 1.044245e+00 1.045620e+00 1.064382e+00 8.236246e-01
<GCONST> 7.608076e+01
<TRANSP> 5
 0.000000e+00 1.000000e+00 0.000000e+00 0.000000e+00 0.000000e+00
 0.000000e+00 6.981742e-01 3.018258e-01 0.000000e+00 0.000000e+00
 0.000000e+00 0.000000e+00 6.383855e-01 3.616146e-01 0.000000e+00
 0.000000e+00 0.000000e+00 0.000000e+00 9.271064e-01 7.289359e-02
 0.000000e+00 0.000000e+00 0.000000e+00 0.000000e+00 0.000000e+00
<ENDHMM>
~h "\340\262\247\340\263\215"
<BEGINHMM>
<NUMSTATES> 5
<STATE> 2
<MEAN> 25
 2.281599e+00 1.243013e+00 3.514286e+00 2.137249e+00 5.266991e-01 -1.806782e+00 -3.451299e+00 -3.724272e+00 -2.013331e+00 -1.239137e+00 -2.082496e+00 -4.160311e+00 -7.775326e-01 4.637369e-01 7.100467e-01 3.542825e-01 8.030786e-01 1.420295e-01 2.242313e-01 3.793966e-01 -9.815129e-02 1.540105e-01 -4.045620e-03 -3.921952e-01 -2.834761e-01
<VARIANCE> 25
 8.743869e+01 6.299200e+01 7.025095e+01 5.562003e+01 6.019382e+01 4.326117e+01 3.323648e+01 7.014664e+01 5.278139e+01 4.146809e+01 2.728980e+01 3.429623e+01 6.245391e+00 5.979597e+00 6.287514e+00 5.297972e+00 6.124012e+00 3.900325e+00 4.424434e+00 4.257367e+00 4.163398e+00 4.082525e+00 2.694230e+00 2.877649e+00 5.605174e+00
<GCONST> 1.128232e+02
<STATE> 3
<MEAN> 25
 1.773073e-01 1.652930e+00 4.455112e+00 1.989697e+00 1.707657e+00 -1.648599e+00 -2.700535e+00 -2.797893e+00 -1.527486e+00 -9.011068e-01 -1.950653e+00 -4.729817e+00 -4.828226e-01 -1.671844e-01 4.579083e-02 -2.205780e-01 -4.139028e-02 -1.269545e-01 2.922122e-01 2.145792e-01 7.971697e-02 -2.614133e-03 2.036805e-01 3.872735e-02 4.087966e-01
<VARIANCE> 25
 9.256776e+01 7.100838e+01 6.012679e+01 5.645574e+01 5.806961e+01 4.225610e+01 3.133460e+01 5.629060e+01 4.425179e+01 3.580643e+01 2.317643e+01 2.943525e+01 8.049467e+00 6.433188e+00 5.747634e+00 4.777345e+00 6.223743e+00 4.152565e+00 4.340940e+00 4.646997e+00 4.459644e+00 3.753997e+00 2.845531e+00 2.692500e+00 6.245039e+00
<GCONST> 1.122437e+02
<STATE> 4
<MEAN> 25
 1.094473e+00 -9.025066e-02 2.527878e+00 8.845416e-02 5.619271e-01 -2.042938e+00 -1.605020e+00 -2.469582e+00 -8.662360e-01 -3.902169e-01 -1.357078e+00 -4.832210e+00 2.684520e-01 -5.736905e-01 -3.131210e-01 -4.685898e-01 -7.086965e-01 -1.990804e-01 2.972383e-01 -6.368525e-02 -5.733751e-03 -1.768241e-01 1.833472e-01 1.560513e-01 7.217730e-01
<VARIANCE> 25
 7.434657e+01 6.629594e+01 6.680167e+01 5.230966e+01 6.144478e+01 3.735675e+01 4.184801e+01 5.361501e+01 4.674156e+01 3.722161e+01 2.471014e+01 2.743016e+01 6.434432e+00 5.418075e+00 4.475554e+00 4.113385e+00 5.301363e+00 4.407678e+00 4.428283e+00 4.074859e+00 4.922810e+00 3.090863e+00 2.695944e+00 2.355667e+00 5.656048e+00
<GCONST> 1.108557e+02
<TRANSP> 5
 0.000000e+00 1.000000e+00 0.000000e+00 0.000000e+00 0.000000e+00
 0.000000e+00 6.270350e-01 3.729650e-01 0.000000e+00 0.000000e+00
 0.000000e+00 0.000000e+00 6.406894e-01 3.593106e-01 0.000000e+00
 0.000000e+00 0.000000e+00 0.000000e+00 7.469413e-01 2.530587e-01
 0.000000e+00 0.000000e+00 0.000000e+00 0.000000e+00 0.000000e+00
<ENDHMM>
~h "\340\262\270\340\263\215"
<BEGINHMM>
<NUMSTATES> 5
<STATE> 2
<MEAN> 25
 -7.143050e+00 1.980264e+00 2.593285e+00 -1.832514e+00 2.679522e+00 -4.572078e+00 -2.747180e+00 1.263965e+00 -1.306960e+00 -1.141912e+00 -1.998073e-01 -1.741960e+00 -1.859682e+00 1.917579e-01 8.758472e-04 -5.429900e-01 9.522606e-01 -1.492947e-01 -1.787807e-01 7.224092e-01 1.359661e-01 1.934374e-01 -5.640080e-02 5.439922e-03 7.255039e-01
<VARIANCE> 25
 1.554748e+02 4.161185e+01 4.657420e+01 4.576249e+01 7.487706e+01 6.151407e+01 4.870526e+01 6.999363e+01 4.633152e+01 5.056549e+01 2.394161e+01 2.682929e+01 1.151902e+01 4.026403e+00 3.221330e+00 3.469384e+00 7.938964e+00 3.707469e+00 4.159041e+00 5.914011e+00 3.809089e+00 3.448771e+00 2.190425e+00 2.318290e+00 3.851013e+00
<GCONST> 1.115639e+02
<STATE> 3
<MEAN> 25
 -1.271524e+01 1.836384e+00 2.274851e+00 -4.035248e+00 4.449037e+00 -4.286688e+00 -3.014956e+00 3.094452e+00 -7.065662e-01 -4.437468e-01 9.037309e-02 -1.570770e+00 -4.283719e-01 -2.216757e-01 -1.120136e-01 -3.001636e-01 1.318833e-02 -4.124521e-02 -1.584022e-01 1.031448e-01 5.431141e-02 7.664320e-02 2.971718e-02 -2.194040e-02 4.149653e-01
<VARIANCE> 25
 1.754632e+02 3.476572e+01 4.144231e+01 3.928945e+01 6.342352e+01 5.162668e+01 5.083380e+01 6.625565e+01 3.699762e+01 4.135942e+01 2.132944e+01 2.301030e+01 1.440432e+01 2.915470e+00 2.633200e+00 3.077744e+00 5.187898e+00 3.209165e+00 3.587290e+00 5.279008e+00 3.537209e+00 3.131948e+00 1.958495e+00 2.272049e+00 2.830634e+00
<GCONST> 1.083251e+02
<STATE> 4
<MEAN> 25
 -1.128719e+01 1.450918e+00 1.801419e+00 -5.045992e+00 4.017169e+00 -4.411407e+00 -4.125846e+00 2.493358e+00 -9.249331e-01 -1.205194e-01 1.628307e-02 -1.873034e+00 1.643498e+00 -3.654057e-01 -1.117820e-01 1.680869e-01 -7.930932e-01 -1.465101e-01 -2.677795e-01 -7.036183e-01 -1.403451e-01 -1.080884e-01 -3.509890e-02 -1.338325e-01 1.236365e-01
<VARIANCE> 25
 1.934667e+02 2.937592e+01 3.911022e+01 4.059007e+01 5.980850e+01 5.549621e+01 5.252075e+01 6.641154e+01 3.544027e+01 4.149822e+01 2.208240e+01 2.421299e+01 1.305158e+01 2.718119e+00 2.820649e+00 2.796889e+00 4.705876e+00 3.144853e+00 3.536907e+00 5.164471e+00 3.113192e+00 2.719853e+00 1.887252e+00 2.295334e+00 2.183312e+00
<GCONST> 1.074188e+02
<TRANSP> 5
 0.000000e+00 1.000000e+00 0.000000e+00 0.000000e+00 0.000000e+00
 0.000000e+00 7.076129e-01 2.923871e-01 0.000000e+00 0.000000e+00
 0.000000e+00 0.000000e+00 7.052599e-01 2.947401e-01 0.000000e+00
 0.000000e+00 0.000000e+00 0.000000e+00 8.328380e-01 1.671620e-01
 0.000000e+00 0.000000e+00 0.000000e+00 0.000000e+00 0.000000e+00
<ENDHMM>
~h "\340\262\237\340\263\215"
<BEGINHMM>
<NUMSTATES> 5
<STATE> 2
<MEAN> 25
 -1.689890e+00 7.455804e-01 -2.598441e+00 1.293972e+00 2.725897e+00 6.224015e-01 -5.427293e-03 2.104820e+00 1.256960e+00 2.834602e+00 2.490715e+00 2.370848e+00 -2.870288e-01 5.665164e-02 2.819207e-02 1.852004e-02 4.572822e-02 1.469967e-01 1.835585e-01 2.644741e-01 2.462713e-02 1.832022e-01 1.305353e-01 9.194919e-02 -3.524633e-01
<VARIANCE> 25
 5.662832e+01 3.667616e+01 4.183340e+01 3.100251e+01 4.617873e+01 4.409567e+01 3.626260e+01 3.894582e+01 3.979640e+01 3.819791e+01 2.901463e+01 3.059060e+01 2.788238e+00 2.777293e+00 2.801228e+00 2.273981e+00 3.456591e+00 3.456248e+00 2.647315e+00 2.807285e+00 2.341863e+00 3.012246e+00 2.519109e+00 2.183285e+00 4.216079e+00
<GCONST> 1.032222e+02
<STATE> 3
<MEAN> 25
 -1.015424e+00 2.759665e-02 -2.619165e+00 1.200107e+00 1.690456e+00 -1.837113e-01 -6.048097e-02 1.610154e+00 6.339430e-01 2.297301e+00 2.141648e+00 2.187237e+00 6.284933e-02 -2.660865e-01 1.490043e-01 -3.889971e-02 -4.423155e-01 -1.561859e-01 4.898717e-02 -1.539123e-01 -1.524371e-01 -2.089337e-01 -2.041891e-01 -8.828906e-02 4.249142e-01
<VARIANCE> 25
 5.942719e+01 4.616307e+01 4.445144e+01 3.591899e+01 5.869832e+01 4.865670e+01 3.854104e+01 3.948397e+01 4.386768e+01 4.158170e+01 3.108794e+01 3.617728e+01 3.084252e+00 3.772329e+00 3.309651e+00 2.504394e+00 5.050569e+00 4.541472e+00 3.360456e+00 3.219418e+00 2.759733e+00 3.753286e+00 2.419904e+00 2.571204e+00 6.463994e+00
<GCONST> 1.071735e+02
<STATE> 4
<MEAN> 25
 -3.737107e-01 -1.317899e+00 -2.350740e+00 1.313258e+00 1.001986e-01 -1.183658e+00 -4.165052e-01 8.317798e-01 8.562146e-01 1.710266e+00 1.540630e+00 2.273336e+00 2.526652e-01 -1.736886e-01 2.761392e-01 -7.059520e-02 -5.904045e-01 -3.107110e-01 -1.226770e-01 -3.343013e-01 -2.139049e-01 -3.903091e-01 -2.668580e-01 -1.679209e-01 6.854418e-01
<VARIANCE> 25
 6.158195e+01 5.209570e+01 4.928082e+01 3.550834e+01 7.076813e+01 5.796142e+01 3.927874e+01 4.848324e+01 4.951684e+01 4.245706e+01 2.961646e+01 3.849384e+01 2.952258e+00 4.200868e+00 3.457125e+00 2.535812e+00 6.279770e+00 5.092748e+00 3.668079e+00 3.878754e+00 3.365846e+00 3.876553e+00 2.216531e+00 3.112765e+00 7.386796e+00
<GCONST> 1.093573e+02
<TRANSP> 5
 0.000000e+00 1.000000e+00 0.000000e+00 0.000000e+00 0.000000e+00
 0.000000e+00 5.724657e-01 4.275344e-01 0.000000e+00 0.000000e+00
 0.000000e+00 0.000000e+00 5.080016e-01 4.919984e-01 0.000000e+00
 0.000000e+00 0.000000e+00 0.000000e+00 6.064717e-01 3.935284e-01
 0.000000e+00 0.000000e+00 0.000000e+00 0.000000e+00 0.000000e+00
<ENDHMM>
~h "\340\262\260\340\263\215"
<BEGINHMM>
<NUMSTATES> 5
<STATE> 2
<MEAN> 25
 4.905400e+00 -3.726971e+00 -2.561710e+00 -5.548034e-01 -2.339455e+00 -3.908113e+00 -2.480144e+00 -3.178699e+00 -1.281686e+00 -4.851737e-01 -1.191492e+00 -2.166447e+00 2.008009e-01 -3.785509e-02 -1.172118e-01 2.978077e-01 -6.481177e-02 -2.776038e-01 -9.217089e-02 -1.709746e-01 -2.954519e-02 1.772788e-02 -1.402796e-01 -1.409276e-02 6.975573e-02
<VARIANCE> 25
 6.213467e+01 5.504156e+01 6.519098e+01 6.665746e+01 6.606707e+01 7.925624e+01 6.893829e+01 5.880317e+01 4.627267e+01 4.444007e+01 3.435661e+01 3.749613e+01 3.017650e+00 3.050436e+00 4.070505e+00 3.872508e+00 4.281299e+00 4.162416e+00 3.934795e+00 3.804598e+00 3.340176e+00 2.971250e+00 2.311167e+00 2.626998e+00 3.473854e+00
<GCONST> 1.100294e+02
<STATE> 3
<MEAN> 25
 5.403032e+00 -3.692086e+00 -2.912014e+00 -2.256757e-01 -2.674135e+00 -4.260273e+00 -2.481037e+00 -3.645439e+00 -1.429792e+00 -6.162319e-01 -1.541842e+00 -2.079628e+00 1.592336e-01 7.283046e-02 -7.844564e-02 1.121809e-01 -1.614681e-01 -4.723924e-02 4.457948e-02 -1.317305e-01 -4.329516e-02 -1.208571e-01 -1.345343e-01 9.591303e-02 7.851699e-03
<VARIANCE> 25
 6.177300e+01 5.418335e+01 6.939060e+01 6.847173e+01 6.800873e+01 7.997912e+01 6.949115e+01 5.910686e+01 4.531578e+01 4.597208e+01 3.356055e+01 3.836915e+01 2.930037e+00 2.996971e+00 4.098235e+00 4.214235e+00 4.348811e+00 4.225584e+00 3.768588e+00 3.767361e+00 3.333839e+00 3.136432e+00 2.341178e+00 2.684226e+00 3.299249e+00
<GCONST> 1.102179e+02
<STATE> 4
<MEAN> 25
 5.761881e+00 -3.155603e+00 -3.388559e+00 -1.009617e+00 -2.845427e+00 -3.402033e+00 -1.621353e+00 -3.679893e+00 -1.599813e+00 -8.939827e-01 -2.010297e+00 -1.968484e+00 -5.431804e-02 1.851500e-01 6.092453e-02 -4.981446e-02 -3.715881e-02 2.102916e-01 1.363392e-01 7.684923e-02 3.140140e-02 -1.143298e-01 -7.459048e-02 9.420504e-02 -2.082409e-01
<VARIANCE> 25
 5.812801e+01 5.228119e+01 6.666422e+01 6.966144e+01 7.164782e+01 8.111256e+01 6.829977e+01 6.062385e+01 4.572287e+01 4.803567e+01 3.555727e+01 4.325051e+01 2.227033e+00 2.579857e+00 3.582748e+00 3.878162e+00 4.030166e+00 3.784476e+00 3.346311e+00 3.587063e+00 3.142593e+00 2.992041e+00 2.341749e+00 2.494743e+00 2.811356e+00
<GCONST> 1.090680e+02
<TRANSP> 5
 0.000000e+00 1.000000e+00 0.000000e+00 0.000000e+00 0.000000e+00
 0.000000e+00 5.130156e-01 4.869845e-01 0.000000e+00 0.000000e+00
 0.000000e+00 0.000000e+00 5.190381e-01 4.809619e-01 0.000000e+00
 0.000000e+00 0.000000e+00 0.000000e+00 6.570839e-01 3.429161e-01
 0.000000e+00 0.000000e+00 0.000000e+00 0.000000e+00 0.000000e+00
<ENDHMM>
~h "\340\262\227\340\263\215"
<BEGINHMM>
<NUMSTATES> 5
<STATE> 2
<MEAN> 25
 6.197068e+00 -9.698058e-01 8.303170e-01 -7.293121e-01 -4.567726e+00 -2.631851e+00 -2.901004e+00 -4.782050e+00 -3.235939e+00 -5.487364e+00 -1.638774e+00 -9.780944e-01 7.629740e-02 4.758165e-01 3.240401e-01 3.402252e-01 1.899859e-01 -7.857108e-02 -2.732437e-01 -8.719040e-02 -2.792572e-01 -4.160240e-01 -9.329890e-02 -6.560908e-02 -2.575938e-01
<VARIANCE> 25
 4.414730e+01 5.613389e+01 6.715752e+01 6.543972e+01 8.105562e+01 8.022836e+01 6.271239e+01 5.867382e+01 5.890316e+01 5.574315e+01 3.602545e+01 3.873029e+01 2.720674e+00 4.614961e+00 3.851722e+00 4.219011e+00 7.492435e+00 4.589135e+00 4.847348e+00 4.586895e+00 4.813659e+00 4.212626e+00 2.985329e+00 2.946023e+00 5.271789e+00
<GCONST> 1.132820e+02
<STATE> 3
<MEAN> 25
 6.270731e+00 -3.572662e-01 1.186687e+00 -1.696357e-01 -4.299163e+00 -2.852983e+00 -3.270759e+00 -5.123604e+00 -3.573569e+00 -5.899736e+00 -1.915468e+00 -1.178306e+00 -1.043046e-01 2.160692e-01 1.264008e-01 1.413431e-01 1.824574e-01 2.719988e-02 -9.632240e-02 -2.781300e-02 -5.075328e-02 -1.503209e-03 2.766052e-02 -1.059981e-01 -1.888502e-01
<VARIANCE> 25
 4.000224e+01 5.695924e+01 7.265324e+01 6.335922e+01 8.187389e+01 7.732053e+01 6.539066e+01 6.143316e+01 6.008856e+01 5.438699e+01 3.676805e+01 4.113437e+01 2.412386e+00 4.290309e+00 3.931083e+00 3.961018e+00 7.379518e+00 4.639750e+00 4.765860e+00 4.575963e+00 4.618851e+00 3.713361e+00 2.978352e+00 3.066496e+00 4.577880e+00
<GCONST> 1.128509e+02
<STATE> 4
<MEAN> 25
 6.784686e+00 7.269865e-01 9.529719e-01 -5.145202e-01 -4.960390e+00 -2.959872e+00 -2.547151e+00 -4.899849e+00 -4.132239e+00 -6.413044e+00 -2.584907e+00 -8.016010e-01 -2.129314e-01 5.207057e-02 -2.214873e-02 -2.776760e-02 2.287663e-01 2.044101e-02 -1.585370e-02 1.935471e-01 1.340733e-01 2.346394e-01 1.194851e-01 -1.048256e-01 -2.083694e-01
<VARIANCE> 25
 4.088087e+01 5.952409e+01 7.493000e+01 6.227508e+01 8.563943e+01 7.396493e+01 6.403638e+01 6.857533e+01 5.650658e+01 5.554913e+01 3.845226e+01 4.167269e+01 1.980390e+00 3.562925e+00 3.411495e+00 3.364256e+00 6.592496e+00 4.171148e+00 4.110005e+00 4.273040e+00 3.795065e+00 3.221574e+00 2.812288e+00 2.899217e+00 3.569380e+00
<GCONST> 1.112126e+02
<TRANSP> 5
 0.000000e+00 1.000000e+00 0.000000e+00 0.000000e+00 0.000000e+00
 0.000000e+00 6.030555e-01 3.969445e-01 0.000000e+00 0.000000e+00
 0.000000e+00 0.000000e+00 6.050153e-01 3.949848e-01 0.000000e+00
 0.000000e+00 0.000000e+00 0.000000e+00 7.417687e-01 2.582313e-01
 0.000000e+00 0.000000e+00 0.000000e+00 0.000000e+00 0.000000e+00
<ENDHMM>
~h "\340\262\250\340\263\215"
<BEGINHMM>
<NUMSTATES> 5
<STATE> 2
<MEAN> 25
 8.517360e+00 -1.536365e+00 3.246562e+00 5.455652e-01 -4.304255e+00 -5.427628e+00 -5.080060e+00 -2.708155e+00 -1.375863e+00 -6.370612e+00 -5.737502e+00 -3.007656e+00 3.941344e-01 1.889784e-01 4.308481e-01 1.376524e-01 -1.048603e-01 -2.900811e-01 -4.119260e-01 1.218792e-01 -1.793727e-01 -5.798268e-01 -2.497521e-01 -1.822997e-02 1.529755e-01
<VARIANCE> 25
 3.512930e+01 5.779840e+01 5.452739e+01 4.032782e+01 6.833478e+01 5.962899e+01 5.446420e+01 4.872512e+01 5.438145e+01 6.310880e+01 3.352242e+01 3.648197e+01 2.088474e+00 3.717033e+00 4.055242e+00 2.753518e+00 5.091427e+00 3.642608e+00 4.211869e+00 3.301349e+00 3.812580e+00 4.414247e+00 2.532358e+00 2.238982e+00 3.738098e+00
<GCONST> 1.085965e+02
<STATE> 3
<MEAN> 25
 9.027386e+00 -1.671654e+00 3.653192e+00 4.641517e-01 -4.919059e+00 -5.861254e+00 -5.344985e+00 -2.890555e+00 -1.597582e+00 -7.131701e+00 -6.130768e+00 -3.053824e+00 2.106160e-02 -1.129512e-01 -1.256571e-02 -5.990051e-02 -1.911886e-01 -3.035817e-02 5.887641e-02 -7.101873e-02 8.688500e-03 -6.198764e-02 -5.874142e-02 -1.018904e-02 2.058521e-01
<VARIANCE> 25
 2.862048e+01 5.709230e+01 5.351604e+01 4.169761e+01 6.688457e+01 6.140015e+01 5.182033e+01 4.761674e+01 5.569909e+01 6.250041e+01 3.358662e+01 3.658678e+01 1.599133e+00 3.886568e+00 3.644070e+00 2.773120e+00 4.912912e+00 3.566917e+00 3.933045e+00 3.313223e+00 3.755910e+00 4.249415e+00 2.456816e+00 2.253449e+00 3.384768e+00
<GCONST> 1.077281e+02
<STATE> 4
<MEAN> 25
 8.542625e+00 -2.383301e+00 2.957308e+00 6.105006e-03 -5.711492e+00 -5.873392e+00 -3.889256e+00 -3.875237e+00 -1.734848e+00 -6.363925e+00 -6.246799e+00 -3.178241e+00 -2.343140e-01 -6.887410e-02 -2.603784e-01 -1.486070e-01 3.749478e-02 2.340788e-01 3.103707e-01 -6.900702e-02 3.141332e-02 2.766707e-01 8.801716e-02 -1.110603e-02 -9.049265e-02
<VARIANCE> 25
 2.672543e+01 5.996791e+01 5.991636e+01 4.880593e+01 7.306107e+01 7.551569e+01 5.442202e+01 5.235089e+01 5.348429e+01 5.478804e+01 3.455059e+01 3.411452e+01 1.247878e+00 3.504341e+00 3.076582e+00 2.901740e+00 4.796181e+00 3.431923e+00 3.497440e+00 3.306943e+00 3.503483e+00 3.334088e+00 2.445060e+00 2.060941e+00 2.986282e+00
<GCONST> 1.070153e+02
<TRANSP> 5
 0.000000e+00 1.000000e+00 0.000000e+00 0.000000e+00 0.000000e+00
 0.000000e+00 6.477132e-01 3.522868e-01 0.000000e+00 0.000000e+00
 0.000000e+00 0.000000e+00 6.658328e-01 3.341672e-01 0.000000e+00
 0.000000e+00 0.000000e+00 0.000000e+00 8.464394e-01 1.535606e-01
 0.000000e+00 0.000000e+00 0.000000e+00 0.000000e+00 0.000000e+00
<ENDHMM>
~h "\340\262\271\340\263\215"
<BEGINHMM>
<NUMSTATES> 5
<STATE> 2
<MEAN> 25
 -2.078956e+00 2.092740e+00 -1.375202e+00 3.652562e-01 3.226723e+00 4.224932e+00 3.258080e+00 2.569374e+00 1.076382e+00 1.801617e+00 1.079851e+00 8.127624e-01 -1.087868e-01 -1.450464e-02 9.304782e-03 1.353240e-02 1.536246e-01 6.151899e-02 8.176679e-02 2.224913e-01 1.130074e-01 4.795609e-02 -1.583459e-02 7.155186e-02 -8.755250e-02
<VARIANCE> 25
 5.159398e+01 2.615489e+01 2.005626e+01 2.915225e+01 4.485803e+01 2.882332e+01 2.559892e+01 5.074187e+01 2.984350e+01 4.330621e+01 2.926531e+01 2.788733e+01 9.784081e-01 1.322514e+00 1.016467e+00 1.488616e+00 2.021587e+00 1.594342e+00 1.631920e+00 2.054285e+00 1.537654e+00 1.432595e+00 1.531308e+00 1.615443e+00 1.522226e+00
<GCONST> 9.289583e+01
<STATE> 3
<MEAN> 25
 -1.246125e+00 1.278491e+00 -1.481448e+00 -3.284735e-01 2.674675e+00 4.088341e+00 3.421604e+00 2.150837e+00 6.777372e-01 1.376086e+00 3.308558e-01 5.441601e-01 -2.637266e-02 -1.234632e-01 -4.865007e-03 -8.552125e-02 5.597549e-02 -4.697409e-03 -8.802731e-03 9.002186e-02 -5.393992e-03 -5.224144e-03 -9.516347e-02 -3.667064e-02 6.377323e-02
<VARIANCE> 25
 5.705568e+01 3.359249e+01 2.282782e+01 3.448368e+01 5.147631e+01 3.343325e+01 2.814560e+01 5.249979e+01 3.480239e+01 5.190891e+01 3.331692e+01 2.879218e+01 1.225436e+00 1.668920e+00 9.444027e-01 1.753110e+00 2.209346e+00 1.701658e+00 1.669011e+00 2.190291e+00 1.593702e+00 1.602817e+00 1.510145e+00 1.547155e+00 1.762590e+00
<GCONST> 9.548141e+01
<STATE> 4
<MEAN> 25
 -1.282250e+00 1.036360e+00 -1.326760e+00 -3.884396e-01 2.560267e+00 4.035239e+00 3.556304e+00 2.111277e+00 1.840497e-01 1.333280e+00 2.853608e-01 5.625601e-01 3.999721e-02 -1.009051e-01 5.255527e-02 -9.020323e-02 -1.564087e-01 -1.254041e-01 -6.988071e-02 -1.594098e-01 -1.390532e-01 -3.621136e-02 -1.050664e-01 -1.659496e-01 1.767307e-01
<VARIANCE> 25
 5.499386e+01 4.173860e+01 2.256198e+01 3.993151e+01 5.528678e+01 3.145182e+01 2.654617e+01 5.056071e+01 3.588342e+01 4.877824e+01 3.207536e+01 2.672036e+01 1.289522e+00 1.833056e+00 9.420469e-01 1.736985e+00 2.447401e+00 1.985768e+00 1.756124e+00 2.364685e+00 1.666578e+00 1.723817e+00 1.545883e+00 1.600973e+00 1.648769e+00
<GCONST> 9.619217e+01
<TRANSP> 5
 0.000000e+00 1.000000e+00 0.000000e+00 0.000000e+00 0.000000e+00
 0.000000e+00 6.211374e-01 3.788627e-01 0.000000e+00 0.000000e+00
 0.000000e+00 0.000000e+00 5.290688e-01 4.709313e-01 0.000000e+00
 0.000000e+00 0.000000e+00 0.000000e+00 6.338772e-01 3.661228e-01
 0.000000e+00 0.000000e+00 0.000000e+00 0.000000e+00 0.000000e+00
<ENDHMM>
~h "\340\262\205"
<BEGINHMM>
<NUMSTATES> 5
<STATE> 2
<MEAN> 25
 4.957148e+00 -2.881556e+00 -2.082908e+00 -2.661768e+00 -1.912570e+00 -2.419652e+00 -3.251938e+00 -3.920355e+00 -4.649747e-01 -3.931047e-01 -1.564029e+00 -3.743784e+00 3.926918e-01 -3.318710e-01 -2.889190e-01 -2.694537e-01 -1.908413e-01 -1.825053e-02 -1.599884e-01 -2.905282e-01 1.199353e-01 1.098050e-01 -4.644972e-02 -1.942324e-01 4.390452e-01
<VARIANCE> 25
 5.077333e+01 5.643412e+01 4.973046e+01 5.707835e+01 5.793897e+01 6.632126e+01 6.697002e+01 5.843619e+01 4.799765e+01 4.339401e+01 3.875498e+01 3.725620e+01 3.631192e+00 4.208932e+00 3.608290e+00 3.858480e+00 5.114363e+00 4.023633e+00 4.309884e+00 4.066514e+00 3.996746e+00 3.419255e+00 2.799201e+00 2.676676e+00 5.340370e+00
<GCONST> 1.108534e+02
<STATE> 3
<MEAN> 25
 5.581237e+00 -3.507075e+00 -2.487153e+00 -3.076336e+00 -2.183049e+00 -2.252230e+00 -3.321563e+00 -4.394747e+00 -3.221484e-01 -2.372149e-01 -1.677821e+00 -3.940674e+00 1.842809e-01 -1.272622e-01 -4.173028e-02 -3.079532e-02 -4.575649e-02 4.757489e-02 -1.767915e-02 -5.873806e-02 2.422806e-03 5.989172e-03 -4.790287e-02 7.847315e-03 4.312370e-02
<VARIANCE> 25
 4.561851e+01 5.573557e+01 4.884537e+01 5.649521e+01 5.609455e+01 6.729216e+01 7.044560e+01 5.905978e+01 4.758323e+01 4.159730e+01 3.935173e+01 3.825595e+01 3.172044e+00 4.140887e+00 3.437304e+00 3.818354e+00 4.874671e+00 3.972708e+00 4.239059e+00 4.142162e+00 3.980438e+00 3.335615e+00 2.820466e+00 2.678259e+00 5.162454e+00
<GCONST> 1.104159e+02
<STATE> 4
<MEAN> 25
 5.661736e+00 -3.345393e+00 -2.632710e+00 -3.079009e+00 -1.650364e+00 -1.476006e+00 -2.572193e+00 -4.198493e+00 -4.852536e-01 3.317956e-03 -1.917224e+00 -3.965918e+00 -1.235396e-01 2.466044e-01 1.735845e-01 2.668666e-01 1.712547e-01 1.013559e-01 1.288733e-01 1.996615e-01 -8.136865e-02 -4.826223e-02 -3.933620e-03 1.966451e-01 -4.812922e-01
<VARIANCE> 25
 4.436523e+01 5.407158e+01 4.736084e+01 5.533881e+01 5.512027e+01 6.954890e+01 7.218722e+01 6.087423e+01 4.647176e+01 4.073006e+01 4.062852e+01 3.897327e+01 2.330310e+00 3.449971e+00 3.064699e+00 3.427508e+00 4.055613e+00 3.561136e+00 3.710128e+00 3.853481e+00 3.607302e+00 2.959825e+00 2.760702e+00 2.469770e+00 4.031020e+00
<GCONST> 1.086018e+02
<TRANSP> 5
 0.000000e+00 1.000000e+00 0.000000e+00 0.000000e+00 0.000000e+00
 0.000000e+00 5.394560e-01 4.605441e-01 0.000000e+00 0.000000e+00
 0.000000e+00 0.000000e+00 5.400427e-01 4.599573e-01 0.000000e+00
 0.000000e+00 0.000000e+00 0.000000e+00 6.529240e-01 3.470760e-01
 0.000000e+00 0.000000e+00 0.000000e+00 0.000000e+00 0.000000e+00
<ENDHMM>
~h "\340\262\206"
<BEGINHMM>
<NUMSTATES> 5
<STATE> 2
<MEAN> 25
 7.221606e+00 -8.405149e+00 -6.313701e+00 -6.980381e+00 -2.882471e+00 5.302787e-01 2.284617e+00 -3.955578e+00 -2.775355e+00 2.665694e-01 -3.662135e+00 -2.985038e+00 4.449098e-01 -9.667793e-01 -6.272843e-01 -9.153727e-01 -4.550057e-01 7.264144e-01 8.511837e-01 -4.044940e-01 -4.173151e-01 1.752808e-02 -3.323659e-01 -4.506471e-02 8.994170e-01
<VARIANCE> 25
 4.123759e+01 6.387753e+01 4.176524e+01 6.149417e+01 4.697408e+01 5.790232e+01 5.886316e+01 5.305289e+01 4.326735e+01 3.084772e+01 3.719787e+01 3.102318e+01 2.281283e+00 3.898083e+00 2.757670e+00 2.966960e+00 3.727316e+00 3.498420e+00 3.928329e+00 2.878184e+00 3.676796e+00 2.679149e+00 2.287299e+00 2.110660e+00 3.698262e+00
<GCONST> 1.063268e+02
<STATE> 3
<MEAN> 25
 8.164538e+00 -9.864672e+00 -7.340723e+00 -8.812758e+00 -3.795814e+00 2.379434e+00 4.149881e+00 -5.130775e+00 -4.191984e+00 1.618262e-02 -4.440051e+00 -2.872396e+00 1.671429e-01 -1.645119e-01 -1.408633e-01 -3.057954e-01 -1.579506e-01 3.367630e-01 2.858440e-01 -2.743242e-01 -2.471330e-01 -3.760719e-02 -1.261818e-01 -1.088855e-02 2.431243e-01
<VARIANCE> 25
 3.159259e+01 5.458781e+01 3.535537e+01 5.057013e+01 3.994828e+01 5.138585e+01 5.688580e+01 5.650433e+01 4.094038e+01 2.712379e+01 3.669206e+01 2.959169e+01 1.517360e+00 2.990072e+00 2.000848e+00 2.485286e+00 2.831249e+00 3.006351e+00 3.313696e+00 2.402835e+00 2.960090e+00 1.859040e+00 1.842814e+00 1.664803e+00 2.586891e+00
<GCONST> 1.017025e+02
<STATE> 4
<MEAN> 25
 8.444175e+00 -7.978862e+00 -7.315077e+00 -8.838847e+00 -3.395283e+00 2.361541e+00 3.334886e+00 -6.064312e+00 -3.975550e+00 2.110602e-01 -4.032647e+00 -4.032969e+00 -1.096633e-01 4.823088e-01 2.824113e-01 4.049165e-01 1.537841e-01 -2.852618e-01 -4.351568e-01 -8.018135e-03 2.673824e-01 2.453999e-02 1.254287e-01 -1.283734e-01 -3.692526e-01
<VARIANCE> 25
 2.751499e+01 5.618560e+01 3.248359e+01 4.711726e+01 4.024902e+01 5.175191e+01 5.620997e+01 5.335219e+01 4.287734e+01 2.504339e+01 3.665955e+01 2.945584e+01 1.231424e+00 2.409352e+00 1.975527e+00 2.617771e+00 2.497090e+00 3.275872e+00 3.591699e+00 2.637128e+00 3.072620e+00 1.848575e+00 1.832801e+00 1.757656e+00 2.194312e+00
<GCONST> 1.010081e+02
<TRANSP> 5
 0.000000e+00 1.000000e+00 0.000000e+00 0.000000e+00 0.000000e+00
 0.000000e+00 6.788672e-01 3.211328e-01 0.000000e+00 0.000000e+00
 0.000000e+00 0.000000e+00 6.850979e-01 3.149022e-01 0.000000e+00
 0.000000e+00 0.000000e+00 0.000000e+00 8.799763e-01 1.200236e-01
 0.000000e+00 0.000000e+00 0.000000e+00 0.000000e+00 0.000000e+00
<ENDHMM>
~h "\340\262\207"
<BEGINHMM>
<NUMSTATES> 5
<STATE> 2
<MEAN> 25
 6.989716e-01 9.828471e-01 6.593523e+00 2.504997e+00 -5.015681e+00 -3.861181e+00 -6.310619e-01 -2.562549e+00 -3.923415e+00 -4.973235e+00 -5.816086e-01 -8.700271e-01 9.430376e-02 9.430589e-02 3.311336e-01 1.840874e-01 -5.362141e-01 -1.519650e-01 1.374661e-01 -2.101683e-01 -1.281181e-01 -3.089048e-01 6.896561e-02 1.196930e-01 3.938771e-02
<VARIANCE> 25
 5.579815e+01 3.760878e+01 7.512552e+01 4.301582e+01 1.077109e+02 7.106866e+01 4.502763e+01 5.968163e+01 4.934316e+01 6.125554e+01 3.013877e+01 3.070999e+01 3.064043e+00 2.671769e+00 3.402365e+00 2.439903e+00 6.953117e+00 3.638071e+00 3.243526e+00 3.836494e+00 3.035515e+00 3.474962e+00 2.090702e+00 2.103757e+00 3.067448e+00
<GCONST> 1.082891e+02
<STATE> 3
<MEAN> 25
 6.328529e-01 1.137778e+00 6.743962e+00 2.732494e+00 -5.327132e+00 -3.792646e+00 -3.357253e-01 -2.482248e+00 -3.835989e+00 -5.145496e+00 -4.781682e-01 -5.419096e-01 -8.395425e-03 7.649078e-02 -3.385511e-02 8.061425e-02 8.964925e-02 1.376370e-02 3.944033e-02 1.299097e-01 3.029035e-02 -1.576730e-02 1.594224e-02 8.185156e-02 -1.876797e-01
<VARIANCE> 25
 5.759241e+01 3.801804e+01 7.758133e+01 4.378160e+01 1.142677e+02 7.070947e+01 4.516865e+01 6.279554e+01 5.106980e+01 6.563571e+01 2.877841e+01 2.983502e+01 2.244784e+00 2.359802e+00 2.851394e+00 2.274209e+00 6.193379e+00 3.233534e+00 2.929195e+00 3.377296e+00 2.724831e+00 2.939151e+00 1.907228e+00 1.864245e+00 2.761898e+00
<GCONST> 1.067794e+02
<STATE> 4
<MEAN> 25
 -4.895677e-01 1.735430e+00 5.946031e+00 3.155128e+00 -3.153129e+00 -2.760606e+00 -1.885328e-02 -4.682301e-01 -2.653808e+00 -3.971748e+00 -1.220611e-01 1.381297e-01 -3.881036e-02 5.342121e-02 -3.388161e-01 -1.063880e-02 5.657200e-01 8.072805e-02 -1.261224e-01 3.302652e-01 1.788697e-01 2.195962e-01 -6.451912e-02 3.670553e-03 -2.705373e-01
<VARIANCE> 25
 6.143637e+01 3.401935e+01 6.866387e+01 3.921944e+01 1.086071e+02 7.040079e+01 4.176395e+01 6.519477e+01 5.401486e+01 7.040884e+01 2.851099e+01 2.927113e+01 1.974221e+00 2.232335e+00 2.616371e+00 2.182889e+00 5.418847e+00 2.936592e+00 2.663418e+00 3.077543e+00 2.464112e+00 2.680664e+00 1.874275e+00 1.814632e+00 2.532720e+00
<GCONST> 1.054499e+02
<TRANSP> 5
 0.000000e+00 1.000000e+00 0.000000e+00 0.000000e+00 0.000000e+00
 0.000000e+00 5.274528e-01 4.725471e-01 0.000000e+00 0.000000e+00
 0.000000e+00 0.000000e+00 5.241575e-01 4.758425e-01 0.000000e+00
 0.000000e+00 0.000000e+00 0.000000e+00 7.035518e-01 2.964482e-01
 0.000000e+00 0.000000e+00 0.000000e+00 0.000000e+00 0.000000e+00
<ENDHMM>
~h "\340\262\210"
<BEGINHMM>
<NUMSTATES> 5
<STATE> 2
<MEAN> 25
 -4.300004e+00 2.509412e+00 3.859938e+00 2.126729e+00 -2.760475e-01 2.116897e+00 2.807142e+00 1.415560e+00 2.794929e-01 9.838287e-01 2.259684e+00 1.408458e+00 3.167070e-02 1.086464e-01 1.913151e-01 3.938382e-02 -3.076027e-01 1.051287e-01 1.404796e-01 -1.904335e-01 -2.984704e-02 1.065885e-02 1.635951e-01 1.809628e-02 -5.706722e-02
<VARIANCE> 25
 2.708911e+01 1.600890e+01 8.129835e+01 1.577838e+01 1.266381e+02 3.580787e+01 1.887945e+01 6.110793e+01 4.080235e+01 5.427326e+01 1.591730e+01 1.857458e+01 9.058227e-01 9.843974e-01 1.649315e+00 1.340371e+00 2.660175e+00 1.516327e+00 1.494736e+00 2.029562e+00 1.568209e+00 1.430504e+00 1.258630e+00 1.130318e+00 1.166026e+00
<GCONST> 9.253536e+01
<STATE> 3
<MEAN> 25
 -4.171381e+00 2.732077e+00 4.279243e+00 2.458441e+00 -7.833093e-01 2.267239e+00 2.969551e+00 1.176450e+00 4.432708e-03 7.507356e-01 2.268635e+00 1.114265e+00 3.026403e-02 2.674125e-02 3.276331e-02 2.049171e-02 -5.417770e-02 3.225474e-02 5.842704e-02 -4.843412e-03 -4.054408e-02 7.052028e-03 2.681520e-03 -6.037090e-02 -6.015569e-02
<VARIANCE> 25
 2.758686e+01 1.493719e+01 8.396815e+01 1.632576e+01 1.372607e+02 3.211424e+01 1.710957e+01 6.649442e+01 4.225666e+01 5.543510e+01 1.850359e+01 2.139267e+01 4.367745e-01 7.404062e-01 1.071197e+00 1.032543e+00 1.843506e+00 1.177482e+00 1.387613e+00 1.712826e+00 1.362109e+00 1.299130e+00 1.136759e+00 1.022909e+00 9.510319e-01
<GCONST> 8.964326e+01
<STATE> 4
<MEAN> 25
 -4.661694e+00 2.596780e+00 3.699347e+00 3.209311e+00 5.662134e-01 2.968467e+00 2.897640e+00 1.143023e+00 5.975468e-01 1.199551e+00 2.015552e+00 1.027257e+00 1.194865e-02 3.504134e-03 1.048875e-02 2.594666e-02 1.888519e-02 -1.793144e-02 -1.053287e-02 3.905256e-03 -2.718430e-02 -2.359178e-02 -1.857419e-02 -1.051530e-02 -2.210449e-03
<VARIANCE> 25
 1.964064e+01 1.466755e+01 8.295592e+01 1.430388e+01 1.118659e+02 2.305650e+01 1.597982e+01 7.068282e+01 3.751585e+01 4.522345e+01 1.950704e+01 2.483183e+01 5.422495e-01 7.777739e-01 1.348703e+00 9.421024e-01 2.159319e+00 1.278483e+00 1.327428e+00 1.676306e+00 1.315407e+00 1.559497e+00 1.246632e+00 1.051375e+00 9.992465e-01
<GCONST> 8.937281e+01
<TRANSP> 5
 0.000000e+00 1.000000e+00 0.000000e+00 0.000000e+00 0.000000e+00
 0.000000e+00 7.921539e-01 2.078461e-01 0.000000e+00 0.000000e+00
 0.000000e+00 0.000000e+00 7.864599e-01 2.135400e-01 0.000000e+00
 0.000000e+00 0.000000e+00 0.000000e+00 9.716951e-01 2.830488e-02
 0.000000e+00 0.000000e+00 0.000000e+00 0.000000e+00 0.000000e+00
<ENDHMM>
~h "\340\262\211"
<BEGINHMM>
<NUMSTATES> 5
<STATE> 2
<MEAN> 25
 -1.038426e-01 3.199119e+00 -1.307840e+00 -1.082208e+00 5.177031e-01 3.254798e+00 1.530484e+00 1.064899e+00 -5.881871e-01 -3.532420e-01 5.455601e-01 2.307891e+00 -4.034307e-01 2.003626e-01 1.345914e-02 1.391681e-01 1.759839e-01 1.982864e-01 2.492715e-01 3.587579e-01 1.794711e-01 1.647332e-01 2.358679e-01 2.036642e-01 -5.340589e-01
<VARIANCE> 25
 7.040988e+01 2.036785e+01 2.338042e+01 3.989637e+01 6.673828e+01 3.059566e+01 3.374359e+01 6.459751e+01 3.905373e+01 5.179663e+01 3.486205e+01 2.504526e+01 1.134035e+00 1.364879e+00 1.586534e+00 1.852082e+00 2.295540e+00 1.908283e+00 1.917479e+00 2.438647e+00 1.821200e+00 2.086922e+00 2.346949e+00 2.018994e+00 1.392394e+00
<GCONST> 9.750262e+01
<STATE> 3
<MEAN> 25
 -1.844473e+00 3.510915e+00 -9.589462e-01 -9.593530e-02 1.843963e+00 3.649172e+00 2.099527e+00 2.474861e+00 2.858148e-01 5.989600e-01 1.174147e+00 2.559244e+00 -3.556826e-01 4.029967e-02 9.235684e-02 2.150533e-01 2.597307e-01 7.744920e-02 9.454266e-02 2.489152e-01 1.815159e-01 1.811503e-01 1.385039e-01 4.613598e-02 -3.575127e-01
<VARIANCE> 25
 6.365680e+01 1.659690e+01 2.075674e+01 3.514806e+01 5.893818e+01 2.739486e+01 2.750666e+01 5.104866e+01 3.569975e+01 5.030712e+01 3.327869e+01 2.169638e+01 8.980967e-01 1.144007e+00 1.390380e+00 1.512824e+00 2.016891e+00 1.723635e+00 1.621287e+00 2.100818e+00 1.602433e+00 1.820681e+00 1.936872e+00 1.616036e+00 1.205011e+00
<GCONST> 9.385191e+01
<STATE> 4
<MEAN> 25
 -5.480038e+00 3.848609e+00 -5.720701e-01 2.381457e+00 4.887405e+00 4.315209e+00 2.731396e+00 5.001205e+00 2.562779e+00 3.324756e+00 3.031843e+00 3.090399e+00 -8.826891e-02 -5.771447e-03 5.879138e-02 1.181400e-01 9.099966e-02 -3.145035e-02 -2.593009e-02 3.841311e-02 1.697684e-02 3.370306e-02 2.738855e-02 -2.891365e-02 -6.643981e-02
<VARIANCE> 25
 2.599217e+01 8.629504e+00 1.090575e+01 1.694898e+01 2.660916e+01 1.485016e+01 1.501348e+01 2.321436e+01 2.026449e+01 2.654523e+01 1.993762e+01 1.370594e+01 5.898834e-01 6.869935e-01 9.105043e-01 9.651003e-01 1.328880e+00 1.227975e+00 1.163286e+00 1.422067e+00 1.328792e+00 1.467870e+00 1.397229e+00 1.190659e+00 7.564811e-01
<GCONST> 8.116907e+01
<TRANSP> 5
 0.000000e+00 1.000000e+00 0.000000e+00 0.000000e+00 0.000000e+00
 0.000000e+00 6.469631e-01 3.530369e-01 0.000000e+00 0.000000e+00
 0.000000e+00 0.000000e+00 6.585637e-01 3.414364e-01 0.000000e+00
 0.000000e+00 0.000000e+00 0.000000e+00 9.097326e-01 9.026743e-02
 0.000000e+00 0.000000e+00 0.000000e+00 0.000000e+00 0.000000e+00
<ENDHMM>
~h "\340\262\212"
<BEGINHMM>
<NUMSTATES> 5
<STATE> 2
<MEAN> 25
 7.774864e+00 1.987817e+00 -7.381285e-01 -2.814175e+00 -6.232484e+00 -9.120197e-01 -2.611727e+00 -5.777684e+00 -8.281346e+00 -6.941297e+00 -1.564460e+00 3.963091e-01 4.650289e-01 3.469191e-01 -2.587321e-01 -4.964367e-01 -1.065380e+00 2.093238e-01 3.757143e-01 -3.876743e-01 -5.305558e-01 -6.903498e-01 -1.272790e-01 3.545994e-01 2.362684e-01
<VARIANCE> 25
 5.103217e+01 3.492562e+01 4.258033e+01 5.106629e+01 9.783031e+01 4.563003e+01 4.586670e+01 6.670773e+01 5.132565e+01 5.664908e+01 4.799125e+01 3.381256e+01 2.384084e+00 2.180993e+00 1.992640e+00 2.741720e+00 6.250820e+00 3.536237e+00 3.236482e+00 4.251982e+00 3.022910e+00 3.937897e+00 3.310185e+00 2.690419e+00 2.429064e+00
<GCONST> 1.075292e+02
<STATE> 3
<MEAN> 25
 8.483417e+00 2.568162e+00 -1.570467e+00 -3.819437e+00 -7.746660e+00 -7.907673e-01 -1.774340e+00 -6.169115e+00 -8.719338e+00 -8.116575e+00 -2.030025e+00 8.863399e-01 1.606541e-01 2.177921e-01 -1.852572e-01 -2.155249e-01 -2.732548e-01 -1.656394e-02 1.890150e-01 -4.025184e-02 -3.692214e-02 -2.361780e-01 -1.117573e-01 7.622197e-02 5.423542e-03
<VARIANCE> 25
 4.463505e+01 3.100739e+01 4.140322e+01 4.824686e+01 9.793630e+01 4.651255e+01 3.839933e+01 6.543454e+01 5.128304e+01 5.610839e+01 4.786052e+01 3.550441e+01 2.058090e+00 1.928505e+00 1.860535e+00 2.353025e+00 5.886439e+00 2.922503e+00 3.028622e+00 3.707422e+00 2.684361e+00 3.547367e+00 3.103503e+00 2.413325e+00 2.195980e+00
<GCONST> 1.056075e+02
<STATE> 4
<MEAN> 25
 9.911136e+00 3.583334e+00 -3.038464e+00 -4.767382e+00 -7.880013e+00 -1.438839e+00 -1.375676e+00 -6.210752e+00 -9.363255e+00 -8.221303e+00 -2.793347e+00 3.379552e-01 -1.605777e-01 1.353195e-02 9.626913e-03 3.723103e-02 3.170757e-01 -1.447184e-02 -1.824494e-02 1.887754e-01 2.285077e-01 2.373228e-01 4.656955e-02 -1.379095e-01 -1.971371e-01
<VARIANCE> 25
 2.842043e+01 3.096046e+01 4.230674e+01 4.393535e+01 9.449377e+01 4.149142e+01 4.094252e+01 7.171162e+01 4.955201e+01 5.386790e+01 4.451591e+01 4.502630e+01 1.556590e+00 1.784870e+00 2.204496e+00 2.515908e+00 6.748969e+00 3.088903e+00 3.196973e+00 4.173973e+00 2.626166e+00 3.379486e+00 3.137977e+00 3.333998e+00 1.637667e+00
<GCONST> 1.053934e+02
<TRANSP> 5
 0.000000e+00 1.000000e+00 0.000000e+00 0.000000e+00 0.000000e+00
 0.000000e+00 6.530448e-01 3.469552e-01 0.000000e+00 0.000000e+00
 0.000000e+00 0.000000e+00 6.613257e-01 3.386743e-01 0.000000e+00
 0.000000e+00 0.000000e+00 0.000000e+00 8.905367e-01 1.094633e-01
 0.000000e+00 0.000000e+00 0.000000e+00 0.000000e+00 0.000000e+00
<ENDHMM>
~h "\340\262\213"
<BEGINHMM>
<NUMSTATES> 5
<STATE> 2
<MEAN> 25
 3.231740e+00 1.414578e+00 4.407862e-01 6.497147e+00 1.552594e+00 -3.002353e+00 -5.477032e+00 -3.677734e+00 -9.147865e-01 -1.459629e+00 -3.797048e+00 -3.369003e+00 7.238796e-01 -9.972751e-04 -4.755490e-01 3.798141e-02 -7.711772e-01 -7.618464e-01 -2.515348e-01 -1.027521e-01 -9.674338e-02 -3.506487e-01 -2.586825e-01 -1.965234e-01 3.557271e-01
<VARIANCE> 25
 5.697731e+01 4.115405e+01 3.796840e+01 4.422242e+01 5.438030e+01 7.449020e+01 6.382774e+01 5.771072e+01 2.087668e+01 4.169792e+01 1.562584e+01 2.766948e+01 5.628487e+00 3.777977e+00 4.457010e+00 2.907192e+00 4.933995e+00 2.948447e+00 4.589467e+00 4.351015e+00 1.886049e+00 2.016816e+00 2.202606e+00 1.982516e+00 3.657914e+00
<GCONST> 1.058867e+02
<STATE> 3
<MEAN> 25
 4.241128e+00 2.406976e-01 -9.041133e-01 6.385717e+00 1.562154e-02 -4.791964e+00 -5.895779e+00 -4.802135e+00 -4.999406e-01 -2.395467e+00 -3.886579e+00 -3.769393e+00 -2.824555e-01 -2.868491e-01 -4.127970e-02 -2.590446e-01 -2.980647e-01 -5.979745e-01 1.614781e-01 1.587649e-01 7.002666e-02 -2.135341e-01 2.429235e-01 -7.768779e-02 4.244854e-01
<VARIANCE> 25
 4.922216e+01 3.099817e+01 3.353566e+01 5.122083e+01 5.617553e+01 7.997638e+01 6.561539e+01 6.485917e+01 2.214079e+01 3.210847e+01 1.939323e+01 2.249310e+01 5.706706e+00 3.067461e+00 4.638851e+00 3.326888e+00 5.496217e+00 3.642144e+00 4.179708e+00 4.591379e+00 1.960353e+00 1.484610e+00 1.923085e+00 1.949590e+00 5.035982e+00
<GCONST> 1.056933e+02
<STATE> 4
<MEAN> 25
 2.170926e+00 -1.474663e+00 7.322299e-01 9.033644e+00 -1.165863e+00 -8.782281e+00 -7.287985e+00 -6.452785e+00 5.291003e-01 -3.382762e+00 -4.340369e+00 -2.594157e+00 -1.197235e+00 -3.415585e-01 6.022549e-01 -4.238317e-01 2.963905e-02 -1.701189e-01 1.274964e-01 4.032772e-01 -4.109626e-02 -3.193672e-02 5.579913e-01 3.677889e-01 5.443482e-01
<VARIANCE> 25
 5.857041e+01 2.776202e+01 4.008327e+01 7.165067e+01 4.596762e+01 7.828513e+01 5.076661e+01 8.524130e+01 2.903069e+01 2.682782e+01 2.754346e+01 2.255184e+01 8.872073e+00 2.768013e+00 6.463467e+00 3.130941e+00 5.291708e+00 4.696817e+00 5.355000e+00 8.994130e+00 2.631748e+00 1.586692e+00 2.016611e+00 2.318948e+00 7.209230e+00
<GCONST> 1.091973e+02
<TRANSP> 5
 0.000000e+00 1.000000e+00 0.000000e+00 0.000000e+00 0.000000e+00
 0.000000e+00 5.184880e-01 4.815120e-01 0.000000e+00 0.000000e+00
 0.000000e+00 0.000000e+00 5.109960e-01 4.890040e-01 0.000000e+00
 0.000000e+00 0.000000e+00 0.000000e+00 7.561672e-01 2.438328e-01
 0.000000e+00 0.000000e+00 0.000000e+00 0.000000e+00 0.000000e+00
<ENDHMM>
~h "\340\262\216"
<BEGINHMM>
<NUMSTATES> 5
<STATE> 2
<MEAN> 25
 -9.001256e-01 -1.999054e+00 3.209641e-01 1.640374e+00 -1.924397e+00 -4.709127e+00 4.925923e-01 5.199032e+00 3.753764e+00 -3.193727e-01 -2.251753e-02 1.627047e+00 -2.531318e-01 1.248068e-01 3.377277e-02 1.094417e-01 7.995228e-02 8.321775e-02 3.076938e-01 3.482950e-01 1.218730e-01 9.769047e-02 1.399305e-01 1.641443e-01 -3.396687e-01
<VARIANCE> 25
 4.178696e+01 5.129219e+01 2.155326e+01 1.625793e+01 8.498103e+01 1.184553e+02 3.461086e+01 3.234914e+01 2.192430e+01 4.674767e+01 3.073355e+01 1.717161e+01 6.412785e-01 1.427772e+00 1.179712e+00 1.257270e+00 1.851672e+00 1.542945e+00 1.685808e+00 1.603842e+00 1.573324e+00 1.470607e+00 1.564713e+00 1.177788e+00 1.009658e+00
<GCONST> 9.272513e+01
<STATE> 3
<MEAN> 25
 -2.176485e+00 -6.040143e-01 5.641139e-01 2.310629e+00 -5.683853e-01 -3.286746e+00 1.670562e+00 6.151212e+00 3.635728e+00 1.234504e-01 3.474950e-01 1.916092e+00 -2.413984e-01 2.635649e-01 7.888521e-02 1.362687e-01 2.533575e-01 2.451033e-01 1.655524e-01 1.172185e-01 -3.509024e-02 9.777615e-02 1.158165e-01 8.165802e-02 -4.468528e-01
<VARIANCE> 25
 3.989053e+01 4.011370e+01 2.233213e+01 1.548324e+01 8.224292e+01 1.014237e+02 2.823573e+01 3.623840e+01 2.262397e+01 4.875694e+01 3.371485e+01 1.696959e+01 5.965428e-01 1.260529e+00 1.209781e+00 1.211011e+00 1.749049e+00 1.598856e+00 1.812613e+00 1.628527e+00 1.491328e+00 1.528392e+00 1.504883e+00 1.122689e+00 9.391491e-01
<GCONST> 9.197866e+01
<STATE> 4
<MEAN> 25
 -5.519067e+00 2.652834e+00 1.958490e-01 3.056746e+00 3.863490e+00 2.009710e+00 2.832232e+00 6.220488e+00 3.604775e+00 3.212361e+00 2.739794e+00 2.937866e+00 -7.665155e-02 1.113138e-01 2.862751e-02 4.328258e-02 1.270114e-01 1.460794e-01 5.334723e-03 -4.328765e-02 -5.187840e-02 5.176125e-02 5.220936e-02 6.198980e-03 -1.624261e-01
<VARIANCE> 25
 1.773577e+01 1.642747e+01 1.236410e+01 1.023223e+01 3.913814e+01 4.484324e+01 1.453951e+01 2.152749e+01 1.553007e+01 2.780091e+01 2.213577e+01 1.257879e+01 4.580230e-01 8.422812e-01 9.332967e-01 9.142403e-01 1.373149e+00 1.277827e+00 1.274935e+00 1.352994e+00 1.340739e+00 1.382412e+00 1.346379e+00 1.073265e+00 7.272292e-01
<GCONST> 8.203831e+01
<TRANSP> 5
 0.000000e+00 1.000000e+00 0.000000e+00 0.000000e+00 0.000000e+00
 0.000000e+00 7.473443e-01 2.526557e-01 0.000000e+00 0.000000e+00
 0.000000e+00 0.000000e+00 7.399738e-01 2.600262e-01 0.000000e+00
 0.000000e+00 0.000000e+00 0.000000e+00 9.425678e-01 5.743221e-02
 0.000000e+00 0.000000e+00 0.000000e+00 0.000000e+00 0.000000e+00
<ENDHMM>
~h "\340\262\217"
<BEGINHMM>
<NUMSTATES> 5
<STATE> 2
<MEAN> 25
 3.591244e+00 -5.083688e+00 6.917646e+00 2.631020e+00 -1.071066e+01 -1.006740e+01 -3.122486e+00 -1.812243e+00 -1.123578e-01 -7.146985e+00 -1.881878e+00 1.027772e+00 8.861892e-02 -8.948151e-01 4.971853e-01 -1.977677e-01 -1.457923e+00 -6.874709e-01 1.251266e-01 -2.040270e-01 -3.767886e-02 -5.197448e-01 3.563760e-01 3.741421e-01 1.017133e+00
<VARIANCE> 25
 2.952940e+01 6.358567e+01 5.456096e+01 2.316818e+01 1.098551e+02 6.845661e+01 3.506910e+01 3.757893e+01 3.300961e+01 4.705735e+01 2.686527e+01 2.330250e+01 2.048809e+00 3.807441e+00 2.228344e+00 1.684903e+00 5.816051e+00 3.404735e+00 2.712732e+00 2.322147e+00 1.970630e+00 1.756256e+00 1.517329e+00 1.637386e+00 3.480795e+00
<GCONST> 1.021258e+02
<STATE> 3
<MEAN> 25
 3.600654e+00 -7.070559e+00 8.681795e+00 2.162983e+00 -1.433507e+01 -1.154145e+01 -3.133909e+00 -2.800865e+00 -8.200486e-01 -9.100041e+00 -4.610521e-01 1.884960e+00 -5.141482e-02 -1.195516e-01 1.487570e-01 -4.312525e-02 -3.319753e-01 -1.866505e-01 8.587245e-03 -5.753614e-02 -1.663474e-01 -2.474935e-01 2.621262e-01 1.953261e-02 2.165013e-01
<VARIANCE> 25
 2.095647e+01 5.777794e+01 5.344704e+01 2.250755e+01 9.903592e+01 5.804118e+01 3.596759e+01 3.712295e+01 3.344300e+01 4.350391e+01 2.591511e+01 2.091652e+01 1.023418e+00 2.912165e+00 1.582209e+00 1.482292e+00 4.158463e+00 2.381985e+00 1.891205e+00 1.805493e+00 1.589334e+00 1.471192e+00 1.085732e+00 1.288776e+00 2.520234e+00
<GCONST> 9.714535e+01
<STATE> 4
<MEAN> 25
 2.738722e+00 -4.965158e+00 8.370136e+00 2.158756e+00 -1.314459e+01 -1.142185e+01 -2.234506e+00 -1.829902e+00 -1.613509e+00 -8.852811e+00 5.691718e-02 1.455377e+00 -2.108250e-01 5.129089e-01 -6.161342e-02 1.307308e-01 7.078885e-01 2.188468e-01 2.573116e-02 1.728059e-01 -1.567857e-01 2.593387e-01 -9.267205e-02 -2.884969e-01 -4.871368e-01
<VARIANCE> 25
 2.172658e+01 5.179922e+01 4.353823e+01 2.137581e+01 8.971494e+01 6.491318e+01 3.689414e+01 4.012607e+01 3.667886e+01 4.367207e+01 2.931229e+01 1.992219e+01 1.170424e+00 2.142946e+00 1.558268e+00 1.622302e+00 3.611893e+00 2.258242e+00 1.936327e+00 2.007649e+00 1.897881e+00 1.845531e+00 1.479978e+00 1.333466e+00 1.784266e+00
<GCONST> 9.734313e+01
<TRANSP> 5
 0.000000e+00 1.000000e+00 0.000000e+00 0.000000e+00 0.000000e+00
 0.000000e+00 7.045622e-01 2.954378e-01 0.000000e+00 0.000000e+00
 0.000000e+00 0.000000e+00 7.317165e-01 2.682835e-01 0.000000e+00
 0.000000e+00 0.000000e+00 0.000000e+00 8.370820e-01 1.629180e-01
 0.000000e+00 0.000000e+00 0.000000e+00 0.000000e+00 0.000000e+00
<ENDHMM>
~h "\340\262\220"
<BEGINHMM>
<NUMSTATES> 5
<STATE> 2
<MEAN> 25
 7.049185e-02 -1.721579e+00 1.188951e+00 2.408583e+00 -1.627363e+00 -1.013692e+00 7.168312e-01 4.598521e-01 2.417568e+00 3.822048e-01 -4.099736e-01 7.930453e-02 -2.450630e-01 -1.860446e-01 1.466060e-01 2.690855e-01 -3.908998e-03 7.734711e-02 1.890817e-01 3.494563e-01 6.922807e-02 2.944313e-02 -7.332278e-02 1.908929e-01 -2.115558e-01
<VARIANCE> 25
 3.739346e+01 6.556858e+01 3.679309e+01 3.041434e+01 6.724458e+01 7.276525e+01 2.400608e+01 3.361982e+01 3.288560e+01 4.735568e+01 4.543772e+01 2.964606e+01 5.469967e-01 3.677661e+00 2.277556e+00 1.640792e+00 1.735126e+00 2.745413e+00 1.510423e+00 2.001220e+00 2.544785e+00 1.913299e+00 1.789252e+00 1.516892e+00 2.362848e+00
<GCONST> 9.864275e+01
<STATE> 3
<MEAN> 25
 -6.265805e-01 -1.697799e+00 1.528423e+00 2.969960e+00 -1.672871e+00 -1.259197e+00 8.011144e-01 1.205418e+00 2.372091e+00 4.292610e-01 -4.783446e-01 5.447105e-01 -2.896438e-01 -8.063268e-02 1.982030e-01 1.070204e-01 -2.715740e-03 -1.191526e-01 5.129845e-02 4.079861e-01 5.771017e-03 -9.425093e-02 -1.101055e-01 2.096183e-01 -1.705514e-01
<VARIANCE> 25
 3.547165e+01 8.051207e+01 3.592143e+01 2.818536e+01 6.873138e+01 6.381215e+01 2.128319e+01 3.052588e+01 3.191748e+01 4.617491e+01 4.739605e+01 2.746899e+01 4.767065e-01 2.815219e+00 1.788933e+00 1.762351e+00 1.822895e+00 2.439528e+00 1.577348e+00 1.778082e+00 2.384945e+00 1.782925e+00 1.992889e+00 1.478344e+00 1.695140e+00
<GCONST> 9.717570e+01
<STATE> 4
<MEAN> 25
 -4.899246e+00 8.856967e-01 -1.524751e-01 2.304578e+00 1.866364e+00 1.098125e+00 2.851243e+00 3.412055e+00 3.443522e+00 2.764700e+00 8.637953e-01 2.476046e+00 -2.543578e-01 5.746896e-02 1.048100e-01 -1.663254e-01 -2.325998e-03 -2.670725e-01 -7.300588e-02 1.877519e-01 -3.051261e-02 -1.241738e-01 -1.075366e-01 1.579589e-02 2.356998e-01
<VARIANCE> 25
 4.532705e+01 5.466062e+01 2.515071e+01 2.600056e+01 4.713520e+01 4.620271e+01 1.804322e+01 2.065556e+01 2.324116e+01 3.314019e+01 2.970578e+01 2.054297e+01 1.046229e+00 1.528552e+00 1.129429e+00 1.762952e+00 1.569794e+00 1.966337e+00 1.419691e+00 1.438227e+00 1.582746e+00 1.756175e+00 1.574570e+00 1.564633e+00 1.820278e+00
<GCONST> 9.243444e+01
<TRANSP> 5
 0.000000e+00 1.000000e+00 0.000000e+00 0.000000e+00 0.000000e+00
 0.000000e+00 4.240907e-01 5.759093e-01 0.000000e+00 0.000000e+00
 0.000000e+00 0.000000e+00 4.141573e-01 5.858427e-01 0.000000e+00
 0.000000e+00 0.000000e+00 0.000000e+00 7.275999e-01 2.724001e-01
 0.000000e+00 0.000000e+00 0.000000e+00 0.000000e+00 0.000000e+00
<ENDHMM>
~h "\340\262\222"
<BEGINHMM>
<NUMSTATES> 5
<STATE> 2
<MEAN> 25
 4.092525e+00 6.605172e-01 -2.072994e+00 -4.459448e+00 -2.928214e+00 2.018111e+00 1.254390e+00 -9.742819e-01 -2.458109e+00 -1.943498e+00 -1.028250e+00 -6.367813e-01 2.163014e-01 -1.529836e-02 -6.013910e-02 -2.426688e-01 -2.852127e-01 3.531237e-02 1.142193e-01 -1.314021e-02 6.978339e-02 2.202906e-02 -9.207890e-02 -3.957318e-02 1.266042e-01
<VARIANCE> 25
 6.987352e+01 3.294791e+01 3.300043e+01 6.866632e+01 1.001760e+02 4.383913e+01 3.861198e+01 5.582048e+01 4.269513e+01 5.007217e+01 4.251224e+01 3.345087e+01 2.283700e+00 2.218451e+00 2.003108e+00 2.607250e+00 5.402450e+00 2.802161e+00 2.600017e+00 2.573966e+00 2.680655e+00 2.301442e+00 2.928892e+00 2.325380e+00 2.506764e+00
<GCONST> 1.049558e+02
<STATE> 3
<MEAN> 25
 4.274036e+00 4.545704e-01 -2.212043e+00 -4.701677e+00 -3.292137e+00 2.198115e+00 1.358106e+00 -9.911944e-01 -2.279004e+00 -1.796826e+00 -9.790604e-01 -5.662672e-01 1.076310e-01 -1.006878e-01 -4.510398e-02 -3.483319e-02 -7.940547e-02 -4.540837e-02 -2.756952e-02 -4.403470e-02 3.057032e-02 5.529676e-02 -1.672348e-02 3.930879e-02 1.208925e-01
<VARIANCE> 25
 7.374507e+01 3.343557e+01 3.365885e+01 6.947987e+01 1.008750e+02 4.379433e+01 3.869439e+01 5.602574e+01 4.448622e+01 4.885728e+01 4.203609e+01 3.232971e+01 1.893348e+00 2.069613e+00 1.991681e+00 2.410203e+00 5.240278e+00 2.557006e+00 2.506520e+00 2.368011e+00 2.392029e+00 1.924611e+00 2.635674e+00 2.184594e+00 2.272160e+00
<GCONST> 1.038967e+02
<STATE> 4
<MEAN> 25
 1.034932e+00 1.285473e+00 -1.660702e+00 -2.346133e+00 -3.307423e-01 3.064899e+00 1.971994e+00 9.123751e-01 -6.342967e-01 3.504112e-03 3.475842e-01 8.822109e-01 -1.016960e-02 7.671892e-03 9.763318e-02 2.055716e-01 1.740823e-01 -1.574918e-01 -1.370167e-01 -3.080948e-02 -1.896154e-02 2.123671e-02 -1.176617e-02 4.490620e-02 2.502242e-02
<VARIANCE> 25
 8.617780e+01 2.872789e+01 2.749179e+01 6.766920e+01 9.273863e+01 3.626210e+01 3.223454e+01 5.613219e+01 4.492350e+01 4.723071e+01 4.108628e+01 3.092180e+01 1.165734e+00 1.528384e+00 1.638335e+00 1.974025e+00 4.052161e+00 1.990449e+00 2.231507e+00 2.024672e+00 1.850215e+00 1.622534e+00 2.117187e+00 1.786804e+00 1.673514e+00
<GCONST> 1.000099e+02
<TRANSP> 5
 0.000000e+00 1.000000e+00 0.000000e+00 0.000000e+00 0.000000e+00
 0.000000e+00 4.037473e-01 5.962527e-01 0.000000e+00 0.000000e+00
 0.000000e+00 0.000000e+00 4.016222e-01 5.983778e-01 0.000000e+00
 0.000000e+00 0.000000e+00 0.000000e+00 6.134375e-01 3.865625e-01
 0.000000e+00 0.000000e+00 0.000000e+00 0.000000e+00 0.000000e+00
<ENDHMM>
~h "\340\262\223"
<BEGINHMM>
<NUMSTATES> 5
<STATE> 2
<MEAN> 25
 7.080583e+00 -2.544085e+00 -2.703306e+00 -6.080764e+00 -1.017503e+01 2.022878e+00 -2.110063e-02 -3.460759e+00 -3.546507e+00 -4.955232e+00 -7.063097e-01 1.478478e+00 3.755571e-01 2.226631e-01 -7.812404e-02 -5.347054e-01 -6.369020e-01 2.017603e-01 3.614571e-01 -1.802337e-03 -4.655748e-01 -1.903042e-01 -2.177495e-01 2.196699e-01 1.389532e-01
<VARIANCE> 25
 6.988607e+01 3.533720e+01 4.869250e+01 6.213688e+01 1.936482e+02 3.297146e+01 3.830917e+01 4.749978e+01 3.262025e+01 5.035133e+01 3.523739e+01 4.333115e+01 2.234585e+00 1.517922e+00 1.268605e+00 2.508533e+00 6.510347e+00 2.025288e+00 2.909199e+00 2.519355e+00 1.736019e+00 1.951726e+00 2.273741e+00 1.576994e+00 1.858692e+00
<GCONST> 1.028438e+02
<STATE> 3
<MEAN> 25
 6.989577e+00 -2.073846e+00 -2.627276e+00 -6.133727e+00 -9.854781e+00 2.384231e+00 5.685121e-01 -3.583905e+00 -4.023610e+00 -4.141243e+00 -8.729314e-01 1.579175e+00 2.247169e-02 2.387136e-01 -7.777809e-02 -4.985762e-02 8.592974e-02 2.014469e-03 1.267467e-01 -1.273084e-01 -1.131380e-01 2.597612e-01 6.572467e-02 1.100861e-01 -1.851467e-01
<VARIANCE> 25
 8.138551e+01 2.980325e+01 4.986293e+01 7.577811e+01 1.946541e+02 3.317265e+01 3.251249e+01 4.559112e+01 3.651617e+01 5.544916e+01 3.356426e+01 4.184811e+01 1.189106e+00 1.220655e+00 1.302734e+00 1.780035e+00 4.600135e+00 1.571521e+00 3.010927e+00 2.210830e+00 1.503690e+00 1.736665e+00 2.406412e+00 1.312830e+00 1.017091e+00
<GCONST> 1.001274e+02
<STATE> 4
<MEAN> 25
 -1.156152e+00 1.611437e+00 -1.353274e+00 -1.352241e-01 1.921780e-01 3.635600e+00 2.402376e+00 1.538302e+00 8.437723e-03 1.344941e+00 1.479935e+00 2.818832e+00 -5.631149e-02 8.026722e-02 2.080852e-02 1.096078e-01 2.863119e-01 -1.007726e-01 -1.652157e-01 -1.004193e-01 -1.207994e-02 9.245084e-02 1.207430e-01 1.697651e-02 -6.787104e-02
<VARIANCE> 25
 8.392876e+01 1.918345e+01 2.069428e+01 6.601991e+01 1.529913e+02 2.035629e+01 2.028105e+01 5.240854e+01 3.924763e+01 3.774191e+01 2.210205e+01 2.254970e+01 6.383687e-01 7.848364e-01 8.899133e-01 1.149272e+00 2.543015e+00 1.351351e+00 1.829919e+00 1.499341e+00 1.311834e+00 1.352401e+00 1.600933e+00 1.146259e+00 7.729867e-01
<GCONST> 9.157338e+01
<TRANSP> 5
 0.000000e+00 1.000000e+00 0.000000e+00 0.000000e+00 0.000000e+00
 0.000000e+00 6.154732e-01 3.845268e-01 0.000000e+00 0.000000e+00
 0.000000e+00 0.000000e+00 5.654983e-01 4.345017e-01 0.000000e+00
 0.000000e+00 0.000000e+00 0.000000e+00 8.461939e-01 1.538060e-01
 0.000000e+00 0.000000e+00 0.000000e+00 0.000000e+00 0.000000e+00
<ENDHMM>
~h "\340\262\224"
<BEGINHMM>
<NUMSTATES> 5
<STATE> 2
<MEAN> 25
 -6.999894e+00 3.293084e+00 -3.418735e-01 1.645988e+00 5.008939e+00 4.084128e+00 3.829427e+00 6.819672e+00 4.075829e+00 4.209949e+00 3.247737e+00 3.209820e+00 -3.150974e-01 5.666640e-02 1.087662e-01 2.581545e-01 1.041725e-01 -1.119157e-01 1.045485e-02 2.394439e-01 1.497932e-01 7.345459e-02 2.604524e-01 2.353772e-01 -2.796352e-01
<VARIANCE> 25
 1.493879e+01 5.741072e+00 1.217826e+01 2.575586e+01 1.356094e+01 1.294774e+01 1.460674e+01 2.086798e+01 1.448986e+01 1.343464e+01 1.846038e+01 1.773661e+01 8.147944e-01 6.583437e-01 8.654694e-01 1.134060e+00 1.008413e+00 9.443824e-01 1.487251e+00 1.937874e+00 1.393380e+00 1.300733e+00 1.702507e+00 1.141585e+00 9.630933e-01
<GCONST> 7.968692e+01
<STATE> 3
<MEAN> 25
 -7.994772e+00 3.147282e+00 2.061009e-01 3.084828e+00 5.958796e+00 3.364773e+00 3.467862e+00 6.854178e+00 3.919020e+00 4.472736e+00 3.833047e+00 3.782452e+00 -7.718729e-02 -1.163477e-01 3.711248e-02 -3.886127e-03 3.055578e-02 -5.942807e-02 -7.154243e-02 -6.506456e-02 -1.475909e-02 2.057463e-02 4.441578e-02 -1.102933e-02 1.484933e-01
<VARIANCE> 25
 1.666596e+01 8.700150e+00 9.024270e+00 1.928880e+01 1.529009e+01 1.260108e+01 1.324672e+01 1.561166e+01 1.205631e+01 1.170530e+01 1.283676e+01 1.407788e+01 7.566710e-01 8.204937e-01 8.381458e-01 1.095471e+00 1.190241e+00 1.035014e+00 1.459538e+00 1.361183e+00 1.257688e+00 1.150011e+00 1.318369e+00 1.102740e+00 1.320245e+00
<GCONST> 7.817646e+01
<STATE> 4
<MEAN> 25
 -5.049202e+00 5.876018e-01 -1.281780e+00 1.527097e-01 2.080230e+00 2.375809e+00 2.149219e+00 4.323501e+00 1.308782e+00 3.027260e+00 3.640109e+00 2.604116e+00 5.099736e-01 -1.956962e-01 -1.593645e-01 -1.988829e-01 -3.402902e-01 -1.285737e-01 -1.617602e-01 -4.047693e-01 -3.260653e-01 -1.993071e-01 -8.578003e-02 -1.553742e-01 6.494824e-01
<VARIANCE> 25
 1.003876e+02 2.887037e+01 2.176987e+01 4.454270e+01 1.225557e+02 2.122938e+01 2.092775e+01 3.632315e+01 4.750177e+01 3.118607e+01 2.102202e+01 1.879008e+01 2.872110e+00 1.967925e+00 1.142124e+00 2.128061e+00 4.254971e+00 1.714546e+00 2.096239e+00 2.761572e+00 2.068375e+00 1.828849e+00 2.101236e+00 1.399542e+00 3.240147e+00
<GCONST> 9.852091e+01
<TRANSP> 5
 0.000000e+00 1.000000e+00 0.000000e+00 0.000000e+00 0.000000e+00
 0.000000e+00 8.927001e-01 1.072999e-01 0.000000e+00 0.000000e+00
 0.000000e+00 0.000000e+00 8.625112e-01 1.374888e-01 0.000000e+00
 0.000000e+00 0.000000e+00 0.000000e+00 8.318012e-01 1.681987e-01
 0.000000e+00 0.000000e+00 0.000000e+00 0.000000e+00 0.000000e+00
<ENDHMM>
~h "\340\263\240"
<BEGINHMM>
<NUMSTATES> 5
<STATE> 2
<MEAN> 25
 3.363246e-09 -5.073974e-09 -2.667070e-08 -7.742742e-09 -4.152962e-08 5.464628e-08 -2.856819e-08 -3.137197e-08 -1.315223e-08 -1.457514e-08 1.178106e-08 -4.705634e-08 -5.036812e-04 -4.192874e-04 1.220702e-04 -4.396494e-04 -3.006390e-04 7.270148e-05 1.006791e-04 -4.520885e-04 -6.791297e-04 -7.117605e-04 -2.317067e-04 -1.422502e-04 3.583877e-03
<VARIANCE> 25
 7.771582e+01 4.669402e+01 4.885701e+01 4.639305e+01 7.525224e+01 6.131878e+01 4.945510e+01 6.535645e+01 4.383388e+01 5.195151e+01 3.898161e+01 3.388782e+01 2.163800e+00 2.160548e+00 2.178321e+00 2.195785e+00 3.386122e+00 2.583580e+00 2.687976e+00 2.741140e+00 2.512795e+00 2.406658e+00 2.020564e+00 1.918339e+00 2.693773e+00
<GCONST> 1.047231e+02
<STATE> 3
<MEAN> 25
 3.363246e-09 -5.073974e-09 -2.667070e-08 -7.742742e-09 -4.152962e-08 5.464628e-08 -2.856819e-08 -3.137197e-08 -1.315223e-08 -1.457514e-08 1.178106e-08 -4.705634e-08 -5.036812e-04 -4.192874e-04 1.220702e-04 -4.396494e-04 -3.006390e-04 7.270148e-05 1.006791e-04 -4.520885e-04 -6.791297e-04 -7.117605e-04 -2.317067e-04 -1.422502e-04 3.583877e-03
<VARIANCE> 25
 7.771582e+01 4.669402e+01 4.885701e+01 4.639305e+01 7.525224e+01 6.131878e+01 4.945510e+01 6.535645e+01 4.383388e+01 5.195151e+01 3.898161e+01 3.388782e+01 2.163800e+00 2.160548e+00 2.178321e+00 2.195785e+00 3.386122e+00 2.583580e+00 2.687976e+00 2.741140e+00 2.512795e+00 2.406658e+00 2.020564e+00 1.918339e+00 2.693773e+00
<GCONST> 1.047231e+02
<STATE> 4
<MEAN> 25
 3.363246e-09 -5.073974e-09 -2.667070e-08 -7.742742e-09 -4.152962e-08 5.464628e-08 -2.856819e-08 -3.137197e-08 -1.315223e-08 -1.457514e-08 1.178106e-08 -4.705634e-08 -5.036812e-04 -4.192874e-04 1.220702e-04 -4.396494e-04 -3.006390e-04 7.270148e-05 1.006791e-04 -4.520885e-04 -6.791297e-04 -7.117605e-04 -2.317067e-04 -1.422502e-04 3.583877e-03
<VARIANCE> 25
 7.771582e+01 4.669402e+01 4.885701e+01 4.639305e+01 7.525224e+01 6.131878e+01 4.945510e+01 6.535645e+01 4.383388e+01 5.195151e+01 3.898161e+01 3.388782e+01 2.163800e+00 2.160548e+00 2.178321e+00 2.195785e+00 3.386122e+00 2.583580e+00 2.687976e+00 2.741140e+00 2.512795e+00 2.406658e+00 2.020564e+00 1.918339e+00 2.693773e+00
<GCONST> 1.047231e+02
<TRANSP> 5
 0.000000e+00 1.000000e+00 0.000000e+00 0.000000e+00 0.000000e+00
 0.000000e+00 6.000000e-01 4.000000e-01 0.000000e+00 0.000000e+00
 0.000000e+00 0.000000e+00 6.000000e-01 4.000000e-01 0.000000e+00
 0.000000e+00 0.000000e+00 0.000000e+00 7.000000e-01 3.000000e-01
 0.000000e+00 0.000000e+00 0.000000e+00 0.000000e+00 0.000000e+00
<ENDHMM>
~h "\340\262\240\340\263\215"
<BEGINHMM>
<NUMSTATES> 5
<STATE> 2
<MEAN> 25
 -5.296455e+00 1.018020e+00 -1.779155e-01 2.208188e+00 3.514891e+00 2.945578e+00 4.142878e+00 5.044967e+00 4.940467e+00 3.322370e+00 1.922659e+00 3.192073e+00 -5.323977e-02 6.627560e-01 -2.986216e-01 1.834783e-01 -2.285606e-02 2.861896e-02 2.496365e-01 -1.146261e-01 2.375299e-01 5.628367e-01 5.343619e-01 -2.308429e-01 -5.334926e-01
<VARIANCE> 25
 1.377430e+01 1.569039e+01 3.547656e+01 2.568109e+01 2.506360e+01 3.523534e+01 2.139961e+01 1.210399e+01 1.790375e+01 1.828351e+01 1.085347e+01 1.360139e+01 1.714008e+00 1.937620e+00 5.329570e+00 4.124593e+00 3.513386e+00 3.840491e+00 1.519159e+00 1.567056e+00 2.046491e+00 1.681970e+00 1.540289e+00 1.602857e+00 1.152756e+00
<GCONST> 9.130550e+01
<STATE> 3
<MEAN> 25
 -5.519337e+00 2.057092e+00 -6.460261e-02 2.732811e+00 4.350245e+00 2.040329e+00 3.436671e+00 5.903991e+00 3.995869e+00 3.950588e+00 2.198178e+00 2.337355e+00 1.571632e-01 3.501062e-01 -1.165570e-01 1.317633e-01 1.864625e-01 -1.512942e-01 -1.707280e-01 6.068057e-02 -7.074423e-01 8.098540e-02 1.292199e-01 1.459495e-01 -3.893650e-01
<VARIANCE> 25
 8.456166e+00 9.937985e+00 1.872844e+01 1.323145e+01 1.526167e+01 1.633143e+01 1.271961e+01 1.096589e+01 1.772113e+01 1.281886e+01 9.390364e+00 8.313083e+00 1.458820e+00 1.265298e+00 4.096193e+00 2.730967e+00 2.573854e+00 2.196521e+00 1.475817e+00 1.119569e+00 1.827950e+00 2.286092e+00 7.650573e-01 1.172966e+00 9.588484e-01
<GCONST> 8.267220e+01
<STATE> 4
<MEAN> 25
 -5.255280e+00 3.141686e+00 -1.511642e+00 5.822125e+00 5.547078e+00 1.062212e+00 3.379221e+00 5.475456e+00 3.343752e+00 5.018272e+00 3.964872e+00 4.835444e+00 4.769714e-03 -6.480702e-02 6.609538e-02 -2.782098e-02 -9.993941e-02 -5.649886e-03 -3.130137e-03 -6.468522e-02 -3.497567e-02 4.012849e-03 6.477544e-03 4.575295e-02 7.694592e-02
<VARIANCE> 25
 1.500647e+00 3.258828e+00 6.583961e+00 8.420732e+00 1.195012e+01 6.590518e+00 6.910728e+00 8.581115e+00 9.260233e+00 9.572071e+00 8.632490e+00 7.661705e+00 2.452012e-01 4.384534e-01 7.346520e-01 7.246221e-01 9.818130e-01 8.560935e-01 8.093355e-01 9.304849e-01 1.031767e+00 1.183104e+00 9.112830e-01 5.862297e-01 6.307807e-01
<GCONST> 6.446858e+01
<TRANSP> 5
 0.000000e+00 1.000000e+00 0.000000e+00 0.000000e+00 0.000000e+00
 0.000000e+00 5.397898e-01 4.602102e-01 0.000000e+00 0.000000e+00
 0.000000e+00 0.000000e+00 6.024381e-01 3.975619e-01 0.000000e+00
 0.000000e+00 0.000000e+00 0.000000e+00 9.772174e-01 2.278258e-02
 0.000000e+00 0.000000e+00 0.000000e+00 0.000000e+00 0.000000e+00
<ENDHMM>
~h "\340\262\230\340\263\215"
<BEGINHMM>
<NUMSTATES> 5
<STATE> 2
<MEAN> 25
 -4.859058e+00 4.289609e+00 -1.902746e-01 3.402581e+00 4.699641e+00 3.480665e+00 2.234537e+00 3.782095e+00 3.106919e+00 3.783504e+00 3.601177e+00 2.774632e+00 -6.206397e-02 8.578755e-03 -1.126861e-02 2.060239e-02 4.453809e-03 7.466801e-03 2.526277e-02 2.476043e-02 2.464706e-02 6.611030e-02 9.402014e-02 7.047581e-02 -4.430915e-02
<VARIANCE> 25
 3.651560e+00 4.568989e+00 4.340498e+00 6.864989e+00 7.804358e+00 1.096210e+01 9.973291e+00 9.788572e+00 9.476978e+00 1.039942e+01 1.377390e+01 1.058743e+01 2.404492e-01 2.711503e-01 5.459406e-01 5.832704e-01 6.658954e-01 1.033561e+00 1.057190e+00 1.043234e+00 1.071947e+00 9.855247e-01 1.312152e+00 9.462625e-01 5.144174e-01
<GCONST> 6.621535e+01
<STATE> 3
<MEAN> 25
 -4.886791e+00 3.832272e+00 -4.337638e-01 3.270829e+00 4.207686e+00 3.301197e+00 2.194946e+00 3.970188e+00 3.481075e+00 4.100273e+00 4.102066e+00 3.071168e+00 3.538477e-02 -4.804561e-03 1.475305e-02 4.854443e-03 -2.124058e-02 -1.177480e-02 -2.375477e-03 -4.319043e-02 -7.820805e-02 -6.535586e-02 -9.667218e-04 -4.402184e-02 6.413925e-02
<VARIANCE> 25
 4.187553e+00 9.629084e+00 4.134892e+00 6.227449e+00 1.140747e+01 1.274436e+01 8.441813e+00 9.667541e+00 8.429862e+00 1.076318e+01 1.231580e+01 1.015271e+01 2.404845e-01 3.200175e-01 5.060940e-01 6.045399e-01 5.380780e-01 9.204228e-01 1.034448e+00 9.181347e-01 1.060680e+00 1.200417e+00 1.354881e+00 9.264202e-01 3.923563e-01
<GCONST> 6.664038e+01
<STATE> 4
<MEAN> 25
 -4.270273e+00 2.926602e+00 -2.118069e-01 3.070376e+00 3.629862e+00 2.559337e+00 1.863207e+00 3.346159e+00 2.544804e+00 3.241273e+00 3.407578e+00 2.086305e+00 2.431459e-01 -4.580085e-02 1.199902e-01 -2.250788e-01 -1.342290e-01 -1.767442e-01 -4.039836e-02 -1.499423e-01 -3.786953e-01 -2.854324e-01 -2.466018e-01 -2.489161e-01 3.179234e-01
<VARIANCE> 25
 1.135396e+01 2.574555e+01 1.043613e+01 1.354108e+01 2.363225e+01 2.155117e+01 1.570835e+01 1.099161e+01 1.414914e+01 1.811550e+01 1.582426e+01 1.632224e+01 8.306639e-01 1.467599e+00 8.709456e-01 1.116895e+00 1.217448e+00 1.788790e+00 1.393409e+00 9.387820e-01 1.686913e+00 1.972264e+00 1.577314e+00 9.902076e-01 1.019774e+00
<GCONST> 8.194552e+01
<TRANSP> 5
 0.000000e+00 1.000000e+00 0.000000e+00 0.000000e+00 0.000000e+00
 0.000000e+00 9.739869e-01 2.601309e-02 0.000000e+00 0.000000e+00
 0.000000e+00 0.000000e+00 8.977192e-01 1.022808e-01 0.000000e+00
 0.000000e+00 0.000000e+00 0.000000e+00 7.670048e-01 2.329951e-01
 0.000000e+00 0.000000e+00 0.000000e+00 0.000000e+00 0.000000e+00
<ENDHMM>
~h "\340\262\241\340\263\215"
<BEGINHMM>
<NUMSTATES> 5
<STATE> 2
<MEAN> 25
 5.296658e+00 1.580243e-01 1.746637e+00 1.507687e+00 -5.049771e+00 -3.984049e+00 -2.551717e+00 -3.531034e+00 -4.130847e+00 -5.756397e+00 -2.412559e+00 4.429535e-01 1.410009e-01 -7.698380e-02 2.830264e-01 7.125464e-02 -4.078898e-01 -1.529434e-01 -5.108739e-02 -2.693049e-01 -2.078791e-01 -3.477368e-01 8.046622e-02 -3.914553e-02 3.824223e-01
<VARIANCE> 25
 5.878445e+01 4.347385e+01 9.917369e+01 5.155044e+01 1.090703e+02 7.133339e+01 4.952721e+01 5.077809e+01 5.316030e+01 6.865643e+01 3.746779e+01 4.248755e+01 2.928513e+00 3.801548e+00 5.264132e+00 3.386572e+00 1.160971e+01 4.570140e+00 4.081200e+00 4.855193e+00 4.196208e+00 5.471422e+00 2.958246e+00 3.530212e+00 7.225003e+00
<GCONST> 1.144026e+02
<STATE> 3
<MEAN> 25
 4.945247e+00 -3.562149e-01 2.687213e+00 1.329916e+00 -5.499953e+00 -3.920738e+00 -2.116000e+00 -4.021005e+00 -4.111797e+00 -5.548740e+00 -1.435493e+00 -1.832582e-01 -4.382232e-02 -7.092067e-02 1.055580e-01 -1.147348e-01 -1.832327e-01 1.108005e-01 6.804883e-02 -7.501458e-02 6.534469e-02 1.195925e-02 1.790938e-01 -2.805262e-02 9.150685e-02
<VARIANCE> 25
 5.354175e+01 4.228840e+01 9.165228e+01 6.073238e+01 1.102309e+02 7.636676e+01 4.968636e+01 4.828692e+01 5.521735e+01 6.495882e+01 3.499746e+01 4.130664e+01 1.981627e+00 3.427313e+00 4.149371e+00 3.319201e+00 7.920817e+00 4.678802e+00 3.562862e+00 4.189242e+00 3.812376e+00 4.345009e+00 2.578683e+00 3.346928e+00 4.929300e+00
<GCONST> 1.119905e+02
<STATE> 4
<MEAN> 25
 5.188468e+00 2.688351e-01 3.097601e+00 -3.488639e-01 -6.311963e+00 -3.138398e+00 -3.710218e-01 -3.541813e+00 -4.621335e+00 -5.447124e+00 -1.882265e+00 -7.111295e-01 -2.697120e-01 2.359178e-02 -4.072335e-02 -1.113982e-01 3.513801e-01 2.218084e-01 9.111858e-02 1.318625e-01 2.602736e-01 3.767748e-01 5.166207e-02 -4.196906e-02 -2.989625e-01
<VARIANCE> 25
 5.261631e+01 4.585502e+01 8.067670e+01 6.277441e+01 1.015579e+02 6.609950e+01 4.448131e+01 5.241109e+01 6.077477e+01 5.455873e+01 3.855999e+01 3.676431e+01 1.229334e+00 2.575330e+00 2.807566e+00 2.744827e+00 5.269120e+00 3.203975e+00 2.659875e+00 3.171583e+00 2.859460e+00 2.864153e+00 2.419736e+00 2.590680e+00 2.462396e+00
<GCONST> 1.071875e+02
<TRANSP> 5
 0.000000e+00 1.000000e+00 0.000000e+00 0.000000e+00 0.000000e+00
 0.000000e+00 6.316766e-01 3.683234e-01 0.000000e+00 0.000000e+00
 0.000000e+00 0.000000e+00 5.733965e-01 4.266035e-01 0.000000e+00
 0.000000e+00 0.000000e+00 0.000000e+00 7.010208e-01 2.989792e-01
 0.000000e+00 0.000000e+00 0.000000e+00 0.000000e+00 0.000000e+00
<ENDHMM>
~h "\340\262\262\340\263\215"
<BEGINHMM>
<NUMSTATES> 5
<STATE> 2
<MEAN> 25
 4.076674e+00 -9.697678e-01 6.072260e+00 2.282981e+00 -5.868524e+00 -6.191561e+00 -6.246300e+00 -7.308456e+00 -3.280592e+00 -3.227694e+00 -3.348701e+00 -4.353221e+00 -5.232680e-02 3.207634e-01 3.793270e-01 2.528560e-01 -2.443942e-02 -4.763732e-02 -2.122948e-02 -1.280798e-01 -3.093641e-01 -3.022555e-01 -2.298751e-02 8.580754e-02 -2.284406e-01
<VARIANCE> 25
 2.862502e+01 4.516413e+01 7.950957e+01 3.979419e+01 7.245932e+01 5.971195e+01 7.621715e+01 5.628690e+01 4.965373e+01 4.693760e+01 5.549203e+01 3.603538e+01 1.155556e+00 3.174957e+00 2.510121e+00 2.773708e+00 4.511314e+00 4.091197e+00 3.553627e+00 3.914639e+00 3.457559e+00 2.873476e+00 2.658730e+00 2.960692e+00 3.191852e+00
<GCONST> 1.075708e+02
<STATE> 3
<MEAN> 25
 3.852094e+00 -3.532315e-01 6.649544e+00 2.378857e+00 -6.035081e+00 -6.168955e+00 -5.657257e+00 -7.115909e+00 -3.971021e+00 -3.836496e+00 -3.152203e+00 -3.920641e+00 -1.151813e-01 1.372409e-01 2.701602e-02 3.986551e-03 -1.888497e-03 3.684134e-02 2.270536e-01 1.986563e-01 -7.550213e-02 -1.112008e-01 1.311080e-01 2.295277e-01 -2.417751e-01
<VARIANCE> 25
 2.945790e+01 4.389298e+01 7.631934e+01 3.609081e+01 7.715353e+01 6.121414e+01 8.524506e+01 6.044030e+01 4.983945e+01 4.351818e+01 5.319795e+01 3.974066e+01 1.096041e+00 2.963819e+00 2.502193e+00 2.564258e+00 4.751161e+00 4.012843e+00 3.681735e+00 4.272233e+00 3.431603e+00 2.765060e+00 2.538549e+00 3.143506e+00 2.834540e+00
<GCONST> 1.074877e+02
<STATE> 4
<MEAN> 25
 3.522020e+00 2.497967e-01 7.059874e+00 2.161736e+00 -6.942425e+00 -6.725443e+00 -4.170392e+00 -6.283038e+00 -4.467427e+00 -4.416817e+00 -2.681779e+00 -3.062800e+00 -1.726441e-01 9.663972e-02 -2.067644e-01 -1.241179e-01 8.060276e-02 1.720574e-01 4.242980e-01 3.956226e-01 3.201871e-02 8.375203e-02 2.359257e-01 2.062452e-01 -3.477407e-01
<VARIANCE> 25
 2.872458e+01 4.552494e+01 7.261858e+01 3.528843e+01 8.499835e+01 6.545319e+01 8.854371e+01 5.989822e+01 4.798157e+01 4.064499e+01 4.659791e+01 4.103867e+01 9.738118e-01 2.812496e+00 2.358892e+00 2.225479e+00 4.682147e+00 3.734399e+00 3.747565e+00 4.181998e+00 3.163562e+00 2.548088e+00 2.437467e+00 3.038045e+00 2.414377e+00
<GCONST> 1.065532e+02
<TRANSP> 5
 0.000000e+00 1.000000e+00 0.000000e+00 0.000000e+00 0.000000e+00
 0.000000e+00 6.469685e-01 3.530316e-01 0.000000e+00 0.000000e+00
 0.000000e+00 0.000000e+00 6.434997e-01 3.565003e-01 0.000000e+00
 0.000000e+00 0.000000e+00 0.000000e+00 7.753885e-01 2.246115e-01
 0.000000e+00 0.000000e+00 0.000000e+00 0.000000e+00 0.000000e+00
<ENDHMM>
~h "\340\262\252\340\263\215"
<BEGINHMM>
<NUMSTATES> 5
<STATE> 2
<MEAN> 25
 8.695971e-01 1.050183e+00 -1.349407e-01 -7.256057e-03 -2.574056e-01 5.696594e-01 -4.581331e-01 -4.005592e-01 -1.446589e+00 -3.947692e-01 -1.435016e-01 -3.313442e-01 3.747968e-01 -3.010741e-01 6.016976e-02 -1.182141e-01 -4.600647e-01 -2.957164e-01 -2.993469e-01 -2.999929e-01 -2.680593e-01 -3.416097e-01 -3.668387e-01 -7.380233e-02 7.626829e-01
<VARIANCE> 25
 6.131536e+01 4.957628e+01 4.843689e+01 5.020232e+01 8.135709e+01 4.605683e+01 4.401887e+01 5.108347e+01 4.431385e+01 6.303352e+01 4.222534e+01 3.271790e+01 5.274219e+00 4.116062e+00 3.249203e+00 3.347337e+00 7.690316e+00 3.594847e+00 3.811147e+00 5.214465e+00 3.879429e+00 5.591338e+00 3.421409e+00 2.724031e+00 9.193524e+00
<GCONST> 1.121762e+02
<STATE> 3
<MEAN> 25
 1.721535e+00 1.209445e-01 -2.296832e-01 -5.383398e-01 -1.512591e+00 -2.186249e-01 -8.599853e-01 -8.729681e-01 -1.850774e+00 -1.166057e+00 -6.514527e-01 -2.695859e-01 4.653840e-01 -5.669158e-01 -2.121903e-01 -2.980839e-01 -5.315424e-01 -3.879859e-01 -2.393400e-01 -3.007716e-01 -1.016282e-01 -2.117722e-01 -1.424863e-01 -3.259855e-02 1.091362e+00
<VARIANCE> 25
 6.175034e+01 5.607744e+01 5.376957e+01 5.116108e+01 9.405891e+01 4.487214e+01 4.477144e+01 5.052409e+01 4.167908e+01 6.942360e+01 4.442257e+01 3.269918e+01 5.775356e+00 4.678700e+00 3.938767e+00 3.522828e+00 8.402003e+00 3.968869e+00 3.897405e+00 5.046278e+00 3.966112e+00 5.169874e+00 3.449115e+00 2.891389e+00 9.717092e+00
<GCONST> 1.133466e+02
<STATE> 4
<MEAN> 25
 2.396906e+00 -4.857140e-01 -9.072340e-01 -1.451061e+00 -2.536299e+00 -6.518975e-01 -6.169484e-01 -9.319277e-01 -1.979429e+00 -1.101788e+00 -1.948450e-01 9.964481e-02 6.401783e-01 -6.025403e-01 -4.848906e-01 -3.471281e-01 -5.386136e-01 -3.271499e-01 -2.404895e-01 -4.445066e-01 -3.660006e-02 -5.504045e-02 4.375509e-02 -5.483116e-02 1.102632e+00
<VARIANCE> 25
 6.470876e+01 5.801719e+01 5.134497e+01 5.114598e+01 1.002786e+02 4.327222e+01 4.469434e+01 5.126329e+01 3.933780e+01 6.075486e+01 4.259663e+01 3.139767e+01 5.716124e+00 4.585826e+00 3.914323e+00 3.297239e+00 8.377540e+00 3.780384e+00 3.722088e+00 4.544271e+00 3.818986e+00 4.106421e+00 3.233672e+00 2.959379e+00 8.852120e+00
<GCONST> 1.124400e+02
<TRANSP> 5
 0.000000e+00 1.000000e+00 0.000000e+00 0.000000e+00 0.000000e+00
 0.000000e+00 5.090154e-01 4.909846e-01 0.000000e+00 0.000000e+00
 0.000000e+00 0.000000e+00 5.173491e-01 4.826509e-01 0.000000e+00
 0.000000e+00 0.000000e+00 0.000000e+00 6.607876e-01 3.392124e-01
 0.000000e+00 0.000000e+00 0.000000e+00 0.000000e+00 0.000000e+00
<ENDHMM>
~h "sil"
<BEGINHMM>
<NUMSTATES> 5
<STATE> 2
<MEAN> 25
 -6.320105e+00 4.052974e+00 -3.159524e-01 2.940264e+00 5.895904e+00 4.376886e+00 2.594699e+00 5.858106e+00 3.260350e+00 4.279073e+00 3.756605e+00 3.322127e+00 -1.838711e-02 -8.690581e-04 -3.211718e-03 5.568400e-03 -9.244561e-03 5.025424e-03 1.074160e-03 -2.070034e-02 -9.932434e-04 1.057223e-02 1.729934e-02 1.531692e-02 -1.164429e-03
<VARIANCE> 25
 1.747008e+01 4.018266e+00 5.683006e+00 7.243098e+00 9.586451e+00 1.120371e+01 1.167788e+01 1.386150e+01 1.317253e+01 1.275059e+01 1.321085e+01 1.116183e+01 1.275269e-01 2.449968e-01 3.962767e-01 4.766547e-01 6.267772e-01 7.319239e-01 8.699188e-01 9.803021e-01 9.671385e-01 9.872261e-01 9.369974e-01 8.583996e-01 8.831768e-02
<GCONST> 6.503456e+01
<STATE> 3
<MEAN> 25
 -7.024368e+00 3.917733e+00 -8.979940e-01 3.273255e+00 5.960957e+00 4.664587e+00 3.104493e+00 6.027617e+00 3.876442e+00 4.906137e+00 4.345316e+00 3.822996e+00 -7.469929e-04 2.817187e-03 9.111757e-04 6.127904e-03 7.825786e-03 2.241403e-03 -1.295989e-03 -1.198728e-03 -3.800509e-03 -2.147199e-03 -4.427584e-04 -5.354015e-04 -1.846179e-03
<VARIANCE> 25
 4.135740e+00 2.570886e+00 3.829862e+00 4.686160e+00 6.634014e+00 7.295741e+00 8.554866e+00 1.048774e+01 9.497950e+00 9.766027e+00 9.568467e+00 8.803175e+00 7.916012e-02 1.665429e-01 2.697019e-01 3.839596e-01 5.300933e-01 6.447204e-01 7.540138e-01 8.589812e-01 9.060808e-01 9.657644e-01 9.012989e-01 8.440186e-01 4.749732e-02
<GCONST> 5.697959e+01
<STATE> 4
<MEAN> 25
 -4.241467e-02 -2.120373e-01 1.234394e-01 -2.204502e-01 -2.248483e-01 6.105042e-02 1.216555e-02 -3.934560e-01 1.220727e-02 -1.927681e-01 -1.611345e-01 -1.011782e-01 1.108553e-03 3.040237e-04 1.379889e-03 -4.694592e-04 1.110057e-04 -1.270473e-04 -4.441929e-04 -2.181210e-03 -3.780607e-03 -3.096696e-03 -2.162747e-03 -2.742823e-03 9.507075e-03
<VARIANCE> 25
 7.615246e+01 4.565465e+01 4.937534e+01 4.707515e+01 8.009938e+01 5.914936e+01 4.966553e+01 6.597433e+01 4.153349e+01 5.358895e+01 3.969807e+01 3.350557e+01 2.039812e+00 2.073952e+00 2.163044e+00 2.170929e+00 3.412714e+00 2.510342e+00 2.672157e+00 2.699022e+00 2.458406e+00 2.371481e+00 2.036120e+00 1.931667e+00 2.809811e+00
<GCONST> 1.045890e+02
<TRANSP> 5
 0.000000e+00 1.000000e+00 0.000000e+00 0.000000e+00 0.000000e+00
 0.000000e+00 9.690269e-01 3.097317e-02 0.000000e+00 0.000000e+00
 0.000000e+00 0.000000e+00 9.824740e-01 1.752606e-02 0.000000e+00
 0.000000e+00 0.000000e+00 0.000000e+00 9.957970e-01 4.203040e-03
 0.000000e+00 0.000000e+00 0.000000e+00 0.000000e+00 0.000000e+00
<ENDHMM>
~h "\340\262\242\340\263\215"
<BEGINHMM>
<NUMSTATES> 5
<STATE> 2
<MEAN> 25
 1.306246e+01 -1.010774e+00 -5.567519e+00 -3.866684e+00 -4.212499e-03 -5.376034e+00 -4.737195e+00 -8.250762e+00 -9.095136e+00 -4.678888e+00 -4.847867e+00 -2.260400e+00 6.102532e-02 -2.967644e-02 3.472022e-01 -8.217154e-01 -5.758880e-01 5.455182e-01 1.290264e+00 -5.792323e-04 -9.113203e-01 -5.100886e-01 -5.702094e-01 1.848497e-01 2.054038e-01
<VARIANCE> 25
 2.226685e+01 4.921510e+01 1.086640e+02 3.712099e+01 9.059805e+01 4.988773e+01 7.815836e+01 5.302105e+01 1.372516e+02 8.178716e+01 2.476298e+01 1.720025e+01 1.020353e+00 3.246763e+00 6.808737e+00 4.274375e+00 7.018455e+00 2.925325e+00 3.592255e+00 4.322123e+00 5.292322e+00 5.010336e+00 2.489044e+00 1.365223e+00 2.533794e+00
<GCONST> 1.091383e+02
<STATE> 3
<MEAN> 25
 1.290316e+01 -2.436894e+00 -5.048351e+00 -8.186900e+00 -3.905901e+00 -2.338850e+00 1.656681e+00 -7.044316e+00 -1.238289e+01 -5.504658e+00 -6.235059e+00 -2.027019e-01 -1.109043e-02 -3.668557e-02 2.841825e-01 -6.359427e-01 -6.327342e-01 6.020878e-01 6.639342e-01 2.911489e-01 -2.735799e-01 -2.036578e-01 2.994986e-02 8.449710e-02 -1.952708e-03
<VARIANCE> 25
 1.659145e+01 8.035696e+01 1.268573e+02 5.131831e+01 1.067348e+02 4.121912e+01 6.208230e+01 6.699233e+01 7.956840e+01 9.029640e+01 2.285260e+01 2.466495e+01 6.012509e-01 1.979861e+00 3.163100e+00 2.258150e+00 5.677021e+00 2.144339e+00 2.707391e+00 4.409684e+00 5.267706e+00 3.617689e+00 1.854088e+00 1.863538e+00 1.334743e+00
<GCONST> 1.054553e+02
<STATE> 4
<MEAN> 25
 1.216208e+01 -1.257213e+00 -3.270345e+00 -1.052645e+01 -5.483599e+00 4.078876e-01 3.129378e+00 -5.602369e+00 -1.096394e+01 -4.798692e+00 -5.746313e+00 -6.377234e-01 -3.339697e-01 3.533180e-01 3.170325e-01 3.310608e-01 4.541902e-01 4.126542e-01 -2.212831e-01 3.424389e-01 7.185342e-01 2.839620e-01 2.847414e-01 -3.646782e-01 -7.888772e-01
<VARIANCE> 25
 1.595332e+01 9.005319e+01 1.125986e+02 7.445321e+01 6.819554e+01 2.980284e+01 2.654292e+01 6.948984e+01 3.789133e+01 6.496875e+01 1.639623e+01 2.508779e+01 6.625669e-01 1.798272e+00 1.987758e+00 2.635343e+00 6.149445e+00 2.602545e+00 2.368095e+00 5.530244e+00 2.818275e+00 2.668105e+00 1.747516e+00 2.269420e+00 1.681674e+00
<GCONST> 1.023074e+02
<TRANSP> 5
 0.000000e+00 1.000000e+00 0.000000e+00 0.000000e+00 0.000000e+00
 0.000000e+00 8.432223e-01 1.567776e-01 0.000000e+00 0.000000e+00
 0.000000e+00 0.000000e+00 8.372972e-01 1.627028e-01 0.000000e+00
 0.000000e+00 0.000000e+00 0.000000e+00 8.361319e-01 1.638682e-01
 0.000000e+00 0.000000e+00 0.000000e+00 0.000000e+00 0.000000e+00
<ENDHMM>
~h "\340\262\263\340\263\215"
<BEGINHMM>
<NUMSTATES> 5
<STATE> 2
<MEAN> 25
 8.572221e+00 -3.761956e+00 -3.133621e+00 1.181719e+00 -2.829863e+00 -8.055828e+00 -9.415971e+00 -7.105904e+00 -6.029293e-01 -2.173192e+00 -4.625708e+00 -2.488852e-01 5.769068e-02 1.474298e-01 3.477463e-01 2.697095e-01 2.321952e-01 -1.271563e-01 -5.261902e-01 -2.629348e-01 -2.498516e-01 -1.922906e-01 -2.700860e-01 3.817753e-02 -4.976049e-02
<VARIANCE> 25
 2.881528e+01 4.555567e+01 7.205594e+01 4.925915e+01 7.164297e+01 6.478957e+01 1.063216e+02 5.902858e+01 6.519693e+01 5.350015e+01 5.164088e+01 4.108205e+01 1.404650e+00 2.638289e+00 3.502422e+00 2.957724e+00 5.645037e+00 5.057536e+00 8.317374e+00 4.366554e+00 4.889993e+00 3.927260e+00 5.429937e+00 3.837093e+00 2.406748e+00
<GCONST> 1.117674e+02
<STATE> 3
<MEAN> 25
 8.089819e+00 -2.686548e+00 -1.106230e+00 9.299848e-01 -3.270627e+00 -7.588960e+00 -8.693511e+00 -7.422312e+00 -2.817492e+00 -3.135135e+00 -4.713389e+00 -2.067997e-01 -1.354761e-01 2.601006e-01 3.273094e-01 -1.336821e-01 -1.973754e-01 1.033470e-01 3.756998e-01 9.134988e-02 -3.727815e-01 -1.883142e-01 8.283622e-02 1.047511e-02 -1.599111e-01
<VARIANCE> 25
 2.451290e+01 4.408971e+01 6.748808e+01 5.713115e+01 7.353111e+01 7.312749e+01 1.059853e+02 6.523976e+01 6.379504e+01 5.297369e+01 5.238330e+01 4.256724e+01 8.991252e-01 2.220670e+00 2.979935e+00 3.204571e+00 5.107135e+00 4.793357e+00 6.631567e+00 4.764709e+00 4.038766e+00 3.833335e+00 4.789807e+00 3.888829e+00 1.923142e+00
<GCONST> 1.103732e+02
<STATE> 4
<MEAN> 25
 7.009719e+00 -1.091488e+00 1.531203e-01 -6.115913e-01 -4.520918e+00 -6.164179e+00 -4.169897e+00 -5.192375e+00 -3.924129e+00 -3.677852e+00 -4.366178e+00 -6.425835e-01 -3.179871e-01 2.193595e-01 1.700831e-01 -1.814889e-01 -7.570534e-02 3.363405e-01 6.486868e-01 3.358431e-01 -2.647297e-02 2.236101e-02 1.068496e-01 -1.636846e-01 -3.682227e-01
<VARIANCE> 25
 2.604336e+01 4.668996e+01 6.197403e+01 5.931371e+01 7.100597e+01 8.103725e+01 9.295164e+01 6.255574e+01 5.772529e+01 4.935486e+01 4.657855e+01 3.863179e+01 8.691582e-01 1.885511e+00 2.467218e+00 2.953600e+00 3.791023e+00 3.671886e+00 4.136102e+00 3.969805e+00 2.990202e+00 2.922793e+00 3.088912e+00 3.182385e+00 1.696617e+00
<GCONST> 1.069294e+02
<TRANSP> 5
 0.000000e+00 1.000000e+00 0.000000e+00 0.000000e+00 0.000000e+00
 0.000000e+00 8.027472e-01 1.972528e-01 0.000000e+00 0.000000e+00
 0.000000e+00 0.000000e+00 7.692288e-01 2.307712e-01 0.000000e+00
 0.000000e+00 0.000000e+00 0.000000e+00 7.676378e-01 2.323622e-01
 0.000000e+00 0.000000e+00 0.000000e+00 0.000000e+00 0.000000e+00
<ENDHMM>
~h "\340\262\232\340\263\215"
<BEGINHMM>
<NUMSTATES> 5
<STATE> 2
<MEAN> 25
 -6.559051e+00 2.687571e+00 2.340621e-01 2.590916e+00 5.300652e+00 3.574785e+00 2.596317e+00 5.120380e+00 2.552984e+00 3.878744e+00 3.599493e+00 3.008519e+00 -5.266877e-01 6.210204e-03 1.428126e-01 -9.481885e-02 6.682968e-02 6.227047e-02 1.132314e-01 7.712997e-03 4.709566e-02 6.260049e-02 1.565332e-01 1.816528e-01 -6.571194e-02
<VARIANCE> 25
 3.028870e+01 1.805298e+01 2.634123e+01 2.035864e+01 2.220617e+01 2.200242e+01 1.791832e+01 2.562654e+01 2.195849e+01 1.972458e+01 1.587759e+01 1.575266e+01 2.930154e+00 1.377053e+00 1.809384e+00 2.090016e+00 1.621667e+00 1.472297e+00 1.652980e+00 1.562406e+00 1.473615e+00 1.388493e+00 1.329738e+00 1.388416e+00 2.090694e+00
<GCONST> 8.906039e+01
<STATE> 3
<MEAN> 25
 -8.086240e+00 1.404044e+00 1.665179e+00 1.780252e+00 4.185146e+00 2.619618e+00 2.021878e+00 3.799072e+00 2.234477e+00 3.129897e+00 3.149093e+00 2.557900e+00 -6.096315e-01 -2.412730e-01 3.052901e-01 -1.740655e-01 -1.272599e-01 -5.782885e-02 7.167909e-02 -7.924881e-03 1.251648e-01 -1.085544e-01 -3.875034e-02 -2.536714e-02 3.944916e-01
<VARIANCE> 25
 4.835300e+01 3.114117e+01 3.492274e+01 2.622213e+01 2.953875e+01 2.210276e+01 1.868169e+01 3.327738e+01 2.257274e+01 2.163716e+01 1.833282e+01 1.950046e+01 6.118994e+00 1.657228e+00 2.376788e+00 2.265321e+00 2.053706e+00 1.606444e+00 1.692140e+00 1.942171e+00 2.029015e+00 1.685171e+00 1.364707e+00 1.498188e+00 3.011451e+00
<GCONST> 9.449835e+01
<STATE> 4
<MEAN> 25
 -1.051720e+01 -2.348225e+00 5.364721e+00 -4.155457e-01 6.986412e-01 2.988239e-01 7.831461e-01 1.476606e+00 2.326399e+00 1.026502e+00 1.671604e+00 7.158943e-01 9.501746e-01 -3.970687e-02 1.230790e-02 1.004943e-01 -5.356750e-01 -5.715694e-01 -4.808471e-01 -1.979167e-01 -1.141949e-01 -3.567766e-01 -2.309988e-01 -3.874562e-01 7.056495e-01
<VARIANCE> 25
 9.293792e+01 4.584642e+01 5.426873e+01 3.442570e+01 3.825905e+01 3.364642e+01 2.931867e+01 3.754283e+01 2.490003e+01 2.663428e+01 1.988865e+01 2.630701e+01 1.386650e+01 3.039042e+00 4.856569e+00 2.793015e+00 3.081667e+00 2.346835e+00 3.428528e+00 2.233605e+00 2.889520e+00 2.406775e+00 1.374864e+00 1.692355e+00 4.069758e+00
<GCONST> 1.033082e+02
<TRANSP> 5
 0.000000e+00 1.000000e+00 0.000000e+00 0.000000e+00 0.000000e+00
 0.000000e+00 7.820546e-01 2.179454e-01 0.000000e+00 0.000000e+00
 0.000000e+00 0.000000e+00 6.735120e-01 3.264880e-01 0.000000e+00
 0.000000e+00 0.000000e+00 0.000000e+00 7.910335e-01 2.089665e-01
 0.000000e+00 0.000000e+00 0.000000e+00 0.000000e+00 0.000000e+00
<ENDHMM>
~h "\340\262\253\340\263\215"
<BEGINHMM>
<NUMSTATES> 5
<STATE> 2
<MEAN> 25
 -5.995654e+00 4.316149e+00 -1.393684e+00 3.964924e+00 5.818020e+00 3.908898e+00 3.508254e+00 6.629139e+00 3.680063e+00 4.073836e+00 2.327064e+00 3.846722e+00 -1.676852e-01 -1.804768e-01 3.467973e-01 7.196318e-02 -7.287088e-02 6.754425e-03 -2.335810e-02 2.099989e-01 1.616135e-03 -3.213890e-01 6.800197e-02 1.129931e-01 1.670685e-02
<VARIANCE> 25
 2.917286e+01 1.102722e+01 2.156482e+01 2.084087e+01 2.049351e+01 1.490301e+01 1.162920e+01 1.936564e+01 2.043939e+01 3.476649e+01 1.171996e+01 1.381422e+01 6.575239e-01 1.442694e+00 1.648935e+00 8.164460e-01 1.408009e+00 1.011120e+00 1.839896e+00 1.234798e+00 1.339291e+00 2.217019e+00 1.052245e+00 1.244222e+00 1.324205e+00
<GCONST> 8.367730e+01
<STATE> 3
<MEAN> 25
 -5.390532e+00 3.007833e+00 9.550824e-01 3.943969e+00 4.676422e+00 3.466496e+00 2.521384e+00 5.857085e+00 2.793360e+00 1.962167e+00 1.438317e+00 3.368300e+00 -1.951125e-01 -2.399329e-01 1.850815e-01 -3.158415e-01 -5.444083e-02 1.172602e-01 -2.502710e-01 -5.962798e-02 2.031152e-01 -2.739493e-02 -1.284516e-01 -1.287561e-01 3.858160e-01
<VARIANCE> 25
 4.468481e+01 3.062503e+01 2.429393e+01 3.290634e+01 3.111670e+01 1.372222e+01 1.806963e+01 2.716770e+01 1.928310e+01 3.963995e+01 1.770670e+01 1.959410e+01 1.445701e+00 2.284450e+00 1.842452e+00 1.012793e+00 1.472205e+00 1.009383e+00 1.615192e+00 1.885074e+00 1.752378e+00 3.289837e+00 1.115920e+00 1.131712e+00 1.784081e+00
<GCONST> 9.048570e+01
<STATE> 4
<MEAN> 25
 -7.373454e+00 -3.299975e-02 1.856646e+00 1.404995e+00 3.314131e+00 2.978056e+00 1.364830e+00 4.460441e+00 2.365727e+00 1.278691e+00 6.672759e-01 2.464598e+00 -3.299454e-01 -2.084002e-01 -1.184593e-01 -5.932468e-01 -1.215581e-01 -9.747665e-02 -5.374113e-02 -3.062025e-01 1.177195e-01 5.100986e-02 -9.183025e-02 -2.470200e-01 8.133903e-01
<VARIANCE> 25
 7.198000e+01 5.303364e+01 2.287413e+01 3.896626e+01 3.134741e+01 1.435441e+01 2.242219e+01 3.181554e+01 1.508187e+01 3.646690e+01 1.832355e+01 1.584369e+01 4.589160e+00 2.617307e+00 1.686734e+00 1.160844e+00 1.287048e+00 1.497954e+00 1.908652e+00 2.364519e+00 1.659492e+00 3.795651e+00 1.885091e+00 1.208711e+00 1.945523e+00
<GCONST> 9.429762e+01
<TRANSP> 5
 0.000000e+00 1.000000e+00 0.000000e+00 0.000000e+00 0.000000e+00
 0.000000e+00 7.961642e-01 2.038358e-01 0.000000e+00 0.000000e+00
 0.000000e+00 0.000000e+00 7.078932e-01 2.921068e-01 0.000000e+00
 0.000000e+00 0.000000e+00 0.000000e+00 7.590434e-01 2.409566e-01
 0.000000e+00 0.000000e+00 0.000000e+00 0.000000e+00 0.000000e+00
<ENDHMM>
~h "\340\262\243\340\263\215"
<BEGINHMM>
<NUMSTATES> 5
<STATE> 2
<MEAN> 25
 6.850501e+00 -6.024577e+00 -1.259108e+00 5.672396e-01 -3.292851e+00 -6.134066e+00 -2.989436e+00 -3.096178e+00 1.982636e-01 -2.771090e+00 -5.272763e+00 -2.504494e+00 1.151363e-01 9.514543e-02 -9.218721e-02 1.320316e-01 1.601789e-01 -2.785690e-01 -2.065671e-01 1.867088e-01 4.219591e-01 -4.518370e-02 -2.358958e-01 -8.344802e-02 -2.228436e-01
<VARIANCE> 25
 5.229082e+01 7.938013e+01 7.154514e+01 4.314547e+01 6.227008e+01 7.636000e+01 6.256313e+01 5.764634e+01 3.778714e+01 4.504301e+01 5.448732e+01 3.091050e+01 1.165931e+00 3.065700e+00 3.171537e+00 1.698779e+00 3.183857e+00 2.824040e+00 3.774766e+00 2.476538e+00 3.382054e+00 2.470575e+00 1.640554e+00 1.487988e+00 2.204759e+00
<GCONST> 1.050344e+02
<STATE> 3
<MEAN> 25
 7.037399e+00 -5.491299e+00 -8.296651e-01 6.451379e-01 -3.137292e+00 -6.372298e+00 -3.221859e+00 -3.012247e+00 5.988822e-01 -3.316422e+00 -5.636000e+00 -2.681350e+00 -4.501074e-02 4.131894e-01 2.495068e-01 2.914360e-03 8.995052e-02 8.208288e-02 -4.966284e-02 1.174406e-01 4.872546e-02 -2.036659e-01 9.553321e-02 4.305866e-02 -4.161898e-01
<VARIANCE> 25
 5.193954e+01 7.539593e+01 7.023885e+01 4.105256e+01 6.792211e+01 7.227631e+01 6.605255e+01 6.467200e+01 3.631695e+01 4.400360e+01 5.313810e+01 3.043991e+01 1.105216e+00 2.918868e+00 3.561530e+00 1.649816e+00 3.787859e+00 2.684780e+00 3.892422e+00 2.331086e+00 3.244251e+00 2.555012e+00 1.680843e+00 1.525815e+00 2.017596e+00
<GCONST> 1.050359e+02
<STATE> 4
<MEAN> 25
 7.142119e+00 -3.958053e+00 6.769374e-02 -3.807843e-03 -3.247771e+00 -5.958632e+00 -2.800253e+00 -3.155927e+00 1.002690e-02 -4.073824e+00 -5.429125e+00 -2.836685e+00 -2.661436e-01 5.937242e-01 3.642266e-01 -1.434211e-02 1.602253e-03 3.305579e-01 2.381867e-01 7.236682e-02 -2.007450e-01 -1.286580e-01 2.901880e-01 1.022519e-01 -5.018232e-01
<VARIANCE> 25
 5.071465e+01 6.581660e+01 6.626539e+01 3.710857e+01 8.148306e+01 7.263309e+01 6.777978e+01 7.399837e+01 3.507782e+01 4.363352e+01 4.650340e+01 3.073994e+01 1.187892e+00 2.318833e+00 3.047079e+00 1.943863e+00 4.845940e+00 2.399962e+00 4.258719e+00 2.265169e+00 2.942333e+00 2.095086e+00 1.933483e+00 1.553772e+00 1.956280e+00
<GCONST> 1.047743e+02
<TRANSP> 5
 0.000000e+00 1.000000e+00 0.000000e+00 0.000000e+00 0.000000e+00
 0.000000e+00 4.776138e-01 5.223862e-01 0.000000e+00 0.000000e+00
 0.000000e+00 0.000000e+00 5.046570e-01 4.953430e-01 0.000000e+00
 0.000000e+00 0.000000e+00 0.000000e+00 6.112448e-01 3.887552e-01
 0.000000e+00 0.000000e+00 0.000000e+00 0.000000e+00 0.000000e+00
<ENDHMM>
~h "\340\262\233\340\263\215"
<BEGINHMM>
<NUMSTATES> 5
<STATE> 2
<MEAN> 25
 5.390852e-01 -4.102499e+00 -3.392279e+00 -5.413878e+00 4.300018e-01 -6.298072e-01 1.306037e+00 -1.685764e+00 -1.386514e+00 -1.458593e+00 5.587026e-01 -5.168917e+00 -5.796171e-02 2.475430e-01 1.961085e-01 -1.070777e-01 9.820557e-02 2.594612e-01 6.880460e-02 -2.693911e-01 -3.575104e-01 1.077343e-02 1.913648e-02 -5.404316e-01 1.384692e-01
<VARIANCE> 25
 1.031045e+02 4.820404e+01 9.797439e+01 9.806699e+01 1.696659e+01 2.591730e+01 3.492521e+01 2.538979e+01 5.805253e+01 1.690420e+01 1.281667e+01 8.023340e+01 5.530405e+00 2.854486e+00 4.174380e+00 3.410553e+00 1.585233e+00 2.133637e+00 3.756136e+00 2.301748e+00 2.529803e+00 2.223222e+00 7.361165e-01 1.220002e+00 5.676520e+00
<GCONST> 1.024733e+02
<STATE> 3
<MEAN> 25
 -6.279351e-01 -4.326455e-03 3.088197e-01 1.951526e-01 8.623323e-01 1.610979e+00 1.695878e+00 -9.431598e-01 -2.811069e+00 -1.161998e+00 2.191167e-01 -3.906419e+00 -5.340824e-01 1.420410e-02 5.125837e-01 3.691542e-01 2.243942e-01 2.540345e-01 2.402646e-01 8.649617e-02 7.176241e-02 2.749193e-01 3.459949e-02 1.936414e-01 -2.910541e-01
<VARIANCE> 25
 1.040016e+02 3.443551e+01 8.948823e+01 7.137998e+01 2.772641e+01 3.603082e+01 2.710118e+01 2.630968e+01 4.550865e+01 2.398006e+01 1.211287e+01 6.552590e+01 2.503593e+00 1.561262e+00 2.809135e+00 1.585906e+00 1.300081e+00 1.487182e+00 2.579231e+00 2.017506e+00 2.068509e+00 2.303941e+00 1.045307e+00 1.705767e+00 3.313916e+00
<GCONST> 9.854446e+01
<STATE> 4
<MEAN> 25
 -6.270576e+00 2.300145e+00 8.290197e-01 3.950686e+00 5.476313e+00 4.438255e+00 2.911417e+00 4.015355e+00 2.309877e+00 3.438122e+00 1.848017e+00 2.918935e+00 -1.683123e-02 8.220354e-02 1.919005e-01 1.064278e-01 9.111745e-03 -1.313727e-01 -3.249230e-02 2.060069e-02 -4.931517e-02 -1.066869e-01 8.229099e-03 -6.876523e-04 1.783420e-02
<VARIANCE> 25
 2.899367e+01 2.089378e+01 2.970807e+01 2.401676e+01 2.743107e+01 2.460174e+01 1.251741e+01 2.661329e+01 2.006938e+01 2.459202e+01 1.418027e+01 1.977275e+01 1.167188e+00 8.392311e-01 1.288854e+00 1.194143e+00 9.788033e-01 1.186999e+00 1.063235e+00 2.185767e+00 1.380709e+00 1.377999e+00 1.124966e+00 1.430192e+00 1.267497e+00
<GCONST> 8.584406e+01
<TRANSP> 5
 0.000000e+00 1.000000e+00 0.000000e+00 0.000000e+00 0.000000e+00
 0.000000e+00 8.179146e-01 1.820854e-01 0.000000e+00 0.000000e+00
 0.000000e+00 0.000000e+00 6.357127e-01 3.642873e-01 0.000000e+00
 0.000000e+00 0.000000e+00 0.000000e+00 9.309390e-01 6.906096e-02
 0.000000e+00 0.000000e+00 0.000000e+00 0.000000e+00 0.000000e+00
<ENDHMM>
~h "\340\262\254\340\263\215"
<BEGINHMM>
<NUMSTATES> 5
<STATE> 2
<MEAN> 25
 6.329788e+00 2.828465e-01 2.049126e+00 -3.080829e-01 -2.847465e+00 -4.930240e-01 -1.453578e+00 -4.929760e+00 -4.842606e+00 -5.172774e+00 -2.958773e+00 -1.293444e+00 1.997077e-01 -9.235330e-02 3.202239e-02 5.764192e-02 -1.520695e-01 -9.487166e-02 6.093751e-02 -4.680717e-02 -7.143579e-02 2.847452e-02 -1.189357e-01 -9.792340e-02 2.199501e-01
<VARIANCE> 25
 3.724712e+01 5.062247e+01 6.868416e+01 7.327732e+01 8.289338e+01 6.284088e+01 6.102486e+01 6.452340e+01 6.587402e+01 5.809000e+01 4.651238e+01 3.852879e+01 2.385086e+00 4.214321e+00 3.751986e+00 5.124743e+00 7.195188e+00 4.492276e+00 3.222553e+00 4.754240e+00 4.172572e+00 4.040606e+00 3.740644e+00 2.714045e+00 5.733172e+00
<GCONST> 1.129480e+02
<STATE> 3
<MEAN> 25
 6.112996e+00 3.101753e-01 1.629962e+00 -2.981698e-01 -2.566487e+00 -1.010299e+00 -1.166030e+00 -5.171004e+00 -4.435577e+00 -3.908796e+00 -2.712582e+00 -1.887454e+00 -1.130996e-01 -1.573859e-01 -7.286679e-02 2.460949e-02 -2.012225e-02 -2.211580e-01 -9.247160e-02 1.528039e-01 2.715965e-01 3.403308e-01 1.052763e-01 -7.236727e-02 4.394662e-02
<VARIANCE> 25
 3.463107e+01 4.568243e+01 6.188544e+01 7.106722e+01 7.462188e+01 7.191529e+01 6.057048e+01 6.950328e+01 5.884971e+01 5.765841e+01 4.398004e+01 3.581190e+01 2.370690e+00 4.094635e+00 3.700960e+00 4.486441e+00 7.520266e+00 4.736189e+00 3.383708e+00 5.329831e+00 3.754108e+00 3.743812e+00 3.889874e+00 2.698312e+00 5.368048e+00
<GCONST> 1.123490e+02
<STATE> 4
<MEAN> 25
 5.630962e+00 3.902949e-01 1.768040e+00 8.858317e-01 -2.579524e+00 -3.136555e+00 -1.813010e+00 -4.806325e+00 -2.728164e+00 -3.348146e+00 -3.050805e+00 -2.088389e+00 -2.459604e-01 -1.781079e-01 -1.104502e-01 -1.276272e-01 2.181826e-02 -9.231552e-02 -1.477636e-01 2.330058e-01 2.543876e-01 3.338935e-01 2.460191e-01 3.313288e-03 -3.612328e-02
<VARIANCE> 25
 3.533994e+01 4.169286e+01 5.330648e+01 6.824034e+01 7.923096e+01 9.503922e+01 5.627772e+01 6.663168e+01 5.942028e+01 5.538057e+01 4.001917e+01 3.101681e+01 2.433392e+00 3.650102e+00 3.010887e+00 3.673360e+00 6.483479e+00 4.299021e+00 3.097754e+00 5.090159e+00 3.233613e+00 3.140556e+00 3.162281e+00 2.587752e+00 4.791572e+00
<GCONST> 1.104802e+02
<TRANSP> 5
 0.000000e+00 1.000000e+00 0.000000e+00 0.000000e+00 0.000000e+00
 0.000000e+00 6.673911e-01 3.326088e-01 0.000000e+00 0.000000e+00
 0.000000e+00 0.000000e+00 6.348107e-01 3.651893e-01 0.000000e+00
 0.000000e+00 0.000000e+00 0.000000e+00 7.184563e-01 2.815437e-01
 0.000000e+00 0.000000e+00 0.000000e+00 0.000000e+00 0.000000e+00
<ENDHMM>
~h "\340\262\244\340\263\215"
<BEGINHMM>
<NUMSTATES> 5
<STATE> 2
<MEAN> 25
 -1.909158e+00 1.412955e+00 -1.577439e+00 -3.211488e-01 1.552498e+00 9.748904e-01 -1.072982e+00 6.806540e-01 1.702699e+00 3.595154e+00 2.865838e+00 8.845510e-01 -3.966442e-01 -4.577192e-02 -2.268132e-01 -1.300967e-01 1.181691e-01 1.189437e-01 1.484843e-01 3.380080e-01 1.990190e-01 2.976500e-01 3.015890e-01 3.233875e-01 -4.123782e-01
<VARIANCE> 25
 4.489036e+01 2.438647e+01 2.645855e+01 3.586475e+01 4.011868e+01 4.219321e+01 4.272444e+01 6.164342e+01 3.542219e+01 4.908924e+01 3.536839e+01 3.474091e+01 2.527061e+00 2.185900e+00 2.167607e+00 2.856082e+00 3.362308e+00 2.974363e+00 3.540069e+00 4.115808e+00 2.819288e+00 3.670823e+00 2.726173e+00 2.964205e+00 7.236018e+00
<GCONST> 1.046047e+02
<STATE> 3
<MEAN> 25
 -2.134522e+00 1.002608e+00 -1.939247e+00 -9.863335e-01 1.261815e+00 7.241907e-01 -1.421457e+00 5.763984e-01 1.761154e+00 3.666889e+00 3.317814e+00 1.279045e+00 7.281094e-02 -1.768913e-01 -1.484202e-01 -2.812355e-01 -1.303639e-01 -1.572997e-01 -1.708833e-01 -1.828927e-01 -3.328454e-02 -1.106883e-01 3.140889e-02 -2.757497e-03 5.457948e-01
<VARIANCE> 25
 4.807672e+01 2.456465e+01 2.472533e+01 3.458210e+01 4.085540e+01 4.000237e+01 4.346038e+01 6.365882e+01 3.666999e+01 5.135092e+01 3.372580e+01 3.272314e+01 3.470670e+00 2.225336e+00 2.175548e+00 2.899627e+00 3.532013e+00 3.203244e+00 3.964342e+00 4.714709e+00 3.111194e+00 4.284452e+00 2.833885e+00 3.391460e+00 8.358414e+00
<GCONST> 1.058599e+02
<STATE> 4
<MEAN> 25
 -2.108764e+00 7.571091e-01 -2.055574e+00 -1.295933e+00 1.260601e+00 6.970481e-01 -1.555109e+00 1.802319e-02 1.592747e+00 3.282821e+00 3.381271e+00 1.448052e+00 4.332193e-01 -1.982966e-01 -8.066637e-03 -2.540393e-01 -2.974139e-01 -2.892632e-01 -2.470231e-01 -4.417963e-01 -1.924996e-01 -3.971364e-01 -2.307280e-01 -2.510120e-01 9.740677e-01
<VARIANCE> 25
 5.339950e+01 2.505173e+01 2.114548e+01 3.493746e+01 4.156067e+01 3.927458e+01 4.601420e+01 7.172877e+01 3.395272e+01 4.695685e+01 3.051826e+01 3.357063e+01 3.634830e+00 2.271423e+00 2.126310e+00 2.611485e+00 3.654743e+00 3.152375e+00 4.017858e+00 4.565521e+00 3.148031e+00 4.132411e+00 2.553774e+00 3.464090e+00 8.108545e+00
<GCONST> 1.055737e+02
<TRANSP> 5
 0.000000e+00 1.000000e+00 0.000000e+00 0.000000e+00 0.000000e+00
 0.000000e+00 5.803497e-01 4.196503e-01 0.000000e+00 0.000000e+00
 0.000000e+00 0.000000e+00 5.807477e-01 4.192522e-01 0.000000e+00
 0.000000e+00 0.000000e+00 0.000000e+00 7.296652e-01 2.703348e-01
 0.000000e+00 0.000000e+00 0.000000e+00 0.000000e+00 0.000000e+00
<ENDHMM>
~h "\340\262\265\340\263\215"
<BEGINHMM>
<NUMSTATES> 5
<STATE> 2
<MEAN> 25
 5.014237e+00 1.012366e-01 -1.933459e+00 -4.742222e+00 -3.998278e+00 3.568523e-01 4.340047e-01 -1.857916e+00 -3.290134e+00 -2.508135e+00 -5.537847e-02 -2.492011e-01 -1.381170e-01 1.214455e-01 9.652963e-02 -7.497933e-02 1.139870e-01 8.722471e-02 1.993308e-01 2.342795e-01 -4.140079e-03 2.886474e-02 -2.917158e-02 5.824871e-03 -2.601771e-01
<VARIANCE> 25
 8.885977e+01 4.632498e+01 3.691937e+01 7.502199e+01 1.008530e+02 4.664590e+01 4.145572e+01 5.121998e+01 4.519760e+01 4.665662e+01 3.529059e+01 3.135732e+01 1.523131e+00 2.066359e+00 2.019488e+00 2.293868e+00 3.452014e+00 2.496247e+00 2.268268e+00 2.415280e+00 2.430084e+00 2.252134e+00 2.380463e+00 2.256871e+00 1.972956e+00
<GCONST> 1.035709e+02
<STATE> 3
<MEAN> 25
 4.384355e+00 3.055466e-01 -1.635545e+00 -4.607424e+00 -3.376160e+00 4.925371e-01 7.908656e-01 -1.323482e+00 -3.057682e+00 -2.198707e+00 -1.761418e-01 -3.967742e-01 -1.688743e-01 -6.685305e-03 1.052098e-01 2.028185e-02 2.310359e-01 1.958573e-02 8.396374e-02 1.424231e-01 5.792812e-02 1.317859e-01 -8.448318e-02 -1.113446e-01 -1.208201e-01
<VARIANCE> 25
 9.349649e+01 4.712397e+01 3.572064e+01 7.751986e+01 1.008877e+02 4.682201e+01 4.094534e+01 5.181944e+01 4.543301e+01 4.444107e+01 3.344073e+01 3.015122e+01 1.323372e+00 1.916968e+00 1.805987e+00 2.055929e+00 3.039142e+00 2.263607e+00 2.033823e+00 2.233497e+00 2.126535e+00 2.066256e+00 2.110628e+00 1.906907e+00 1.776388e+00
<GCONST> 1.020427e+02
<STATE> 4
<MEAN> 25
 2.270133e+00 1.258382e+00 -1.361732e+00 -3.733569e+00 -1.633424e+00 1.582129e+00 1.427635e+00 3.354952e-01 -1.841298e+00 -9.206837e-01 2.326480e-01 -2.015586e-01 -7.968783e-02 -7.263878e-02 6.551050e-02 1.222740e-01 2.430859e-01 -5.661185e-02 -5.990484e-02 2.208026e-02 2.818515e-02 1.136255e-01 -7.881499e-02 -1.366080e-01 2.034799e-02
<VARIANCE> 25
 9.820100e+01 4.290159e+01 2.948423e+01 7.454128e+01 9.815000e+01 4.424094e+01 3.632518e+01 5.444319e+01 4.275687e+01 4.187791e+01 3.180625e+01 2.922201e+01 1.220090e+00 1.588778e+00 1.567597e+00 1.777984e+00 2.569935e+00 1.971878e+00 1.809544e+00 2.009836e+00 1.793300e+00 1.840951e+00 1.773771e+00 1.603951e+00 1.482838e+00
<GCONST> 9.951353e+01
<TRANSP> 5
 0.000000e+00 1.000000e+00 0.000000e+00 0.000000e+00 0.000000e+00
 0.000000e+00 4.903381e-01 5.096620e-01 0.000000e+00 0.000000e+00
 0.000000e+00 0.000000e+00 4.888445e-01 5.111555e-01 0.000000e+00
 0.000000e+00 0.000000e+00 0.000000e+00 6.901170e-01 3.098830e-01
