~o
<STREAMINFO> 1 25
<VECSIZE> 25<NULLD><MFCC_D_N_Z_0><DIAGC>
~h "proto"
<BEGINHMM>
<NUMSTATES> 5
<STATE> 2
<MEAN> 25
 4.925858e-08 -1.233895e-08 2.920008e-08 1.226765e-08 -5.222096e-08 1.835772e-08 3.730370e-08 -3.084009e-08 5.284326e-08 -7.177465e-09 3.337222e-08 1.065681e-08 -5.941017e-04 -3.072851e-04 5.426822e-05 -6.761555e-04 -2.272289e-05 -6.928663e-06 -4.446488e-04 -1.001891e-03 -5.636913e-04 -2.278803e-04 9.030614e-05 -4.183001e-04 3.126871e-03
<VARIANCE> 25
 6.337364e+01 4.811290e+01 5.212138e+01 6.297672e+01 6.965734e+01 5.789758e+01 6.618909e+01 5.280534e+01 5.847340e+01 4.740644e+01 4.464558e+01 3.826577e+01 2.126088e+00 2.240220e+00 2.076481e+00 2.780402e+00 2.979447e+00 3.084975e+00 3.029560e+00 2.887547e+00 2.790046e+00 2.530517e+00 2.348650e+00 2.055844e+00 2.977529e+00
<GCONST> 1.062192e+02
<STATE> 3
<MEAN> 25
 4.925858e-08 -1.233895e-08 2.920008e-08 1.226765e-08 -5.222096e-08 1.835772e-08 3.730370e-08 -3.084009e-08 5.284326e-08 -7.177465e-09 3.337222e-08 1.065681e-08 -5.941017e-04 -3.072851e-04 5.426822e-05 -6.761555e-04 -2.272289e-05 -6.928663e-06 -4.446488e-04 -1.001891e-03 -5.636913e-04 -2.278803e-04 9.030614e-05 -4.183001e-04 3.126871e-03
<VARIANCE> 25
 6.337364e+01 4.811290e+01 5.212138e+01 6.297672e+01 6.965734e+01 5.789758e+01 6.618909e+01 5.280534e+01 5.847340e+01 4.740644e+01 4.464558e+01 3.826577e+01 2.126088e+00 2.240220e+00 2.076481e+00 2.780402e+00 2.979447e+00 3.084975e+00 3.029560e+00 2.887547e+00 2.790046e+00 2.530517e+00 2.348650e+00 2.055844e+00 2.977529e+00
<GCONST> 1.062192e+02
<STATE> 4
<MEAN> 25
 4.925858e-08 -1.233895e-08 2.920008e-08 1.226765e-08 -5.222096e-08 1.835772e-08 3.730370e-08 -3.084009e-08 5.284326e-08 -7.177465e-09 3.337222e-08 1.065681e-08 -5.941017e-04 -3.072851e-04 5.426822e-05 -6.761555e-04 -2.272289e-05 -6.928663e-06 -4.446488e-04 -1.001891e-03 -5.636913e-04 -2.278803e-04 9.030614e-05 -4.183001e-04 3.126871e-03
<VARIANCE> 25
 6.337364e+01 4.811290e+01 5.212138e+01 6.297672e+01 6.965734e+01 5.789758e+01 6.618909e+01 5.280534e+01 5.847340e+01 4.740644e+01 4.464558e+01 3.826577e+01 2.126088e+00 2.240220e+00 2.076481e+00 2.780402e+00 2.979447e+00 3.084975e+00 3.029560e+00 2.887547e+00 2.790046e+00 2.530517e+00 2.348650e+00 2.055844e+00 2.977529e+00
<GCONST> 1.062192e+02
<TRANSP> 5
 0.000000e+00 1.000000e+00 0.000000e+00 0.000000e+00 0.000000e+00
 0.000000e+00 6.000000e-01 4.000000e-01 0.000000e+00 0.000000e+00
 0.000000e+00 0.000000e+00 6.000000e-01 4.000000e-01 0.000000e+00
 0.000000e+00 0.000000e+00 0.000000e+00 7.000000e-01 3.000000e-01
 0.000000e+00 0.000000e+00 0.000000e+00 0.000000e+00 0.000000e+00
<ENDHMM>
