~o
<STREAMINFO> 1 25
<VECSIZE> 25<NULLD><MFCC_D_N_Z_0><DIAGC>
~s "silst"
<MEAN> 25
 -6.947715e+00 4.003026e+00 -7.595819e-01 3.378594e+00 6.002322e+00 4.716807e+00 3.312885e+00 5.862309e+00 3.697555e+00 4.829244e+00 4.166125e+00 3.683878e+00 -8.018793e-03 8.647094e-03 1.828221e-02 2.454446e-02 1.148195e-02 -6.332415e-03 -1.204408e-02 -4.769986e-03 -7.250716e-03 -1.017212e-02 1.631920e-03 5.299651e-03 -4.052891e-03
<VARIANCE> 25
 2.965687e+00 2.818969e+00 3.959380e+00 5.208231e+00 6.872035e+00 7.369060e+00 8.566228e+00 1.066610e+01 9.511310e+00 9.962200e+00 9.865833e+00 9.032176e+00 9.817632e-02 1.885954e-01 3.199716e-01 4.470720e-01 5.808687e-01 7.052165e-01 8.187879e-01 9.254628e-01 9.709522e-01 1.006679e+00 9.823448e-01 9.023890e-01 1.049945e-01
<GCONST> 5.907676e+01
~h "sp"
<BEGINHMM>
<NUMSTATES> 3
<STATE> 2
~s "silst"
<TRANSP> 3
 0.000000e+00 6.339512e-01 3.660488e-01
 0.000000e+00 9.713431e-01 2.865685e-02
 0.000000e+00 0.000000e+00 0.000000e+00
<ENDHMM>
~h "\340\262\236\340\263\215"
<BEGINHMM>
<NUMSTATES> 5
<STATE> 2
<MEAN> 25
 3.363246e-09 -5.073974e-09 -2.667070e-08 -7.742742e-09 -4.152962e-08 5.464628e-08 -2.856819e-08 -3.137197e-08 -1.315223e-08 -1.457514e-08 1.178106e-08 -4.705634e-08 -5.036812e-04 -4.192874e-04 1.220702e-04 -4.396494e-04 -3.006390e-04 7.270148e-05 1.006791e-04 -4.520885e-04 -6.791297e-04 -7.117605e-04 -2.317067e-04 -1.422502e-04 3.583877e-03
<VARIANCE> 25
 7.771582e+01 4.669402e+01 4.885701e+01 4.639305e+01 7.525224e+01 6.131878e+01 4.945510e+01 6.535645e+01 4.383388e+01 5.195151e+01 3.898161e+01 3.388782e+01 2.163800e+00 2.160548e+00 2.178321e+00 2.195785e+00 3.386122e+00 2.583580e+00 2.687976e+00 2.741140e+00 2.512795e+00 2.406658e+00 2.020564e+00 1.918339e+00 2.693773e+00
<GCONST> 1.047231e+02
<STATE> 3
<MEAN> 25
 3.363246e-09 -5.073974e-09 -2.667070e-08 -7.742742e-09 -4.152962e-08 5.464628e-08 -2.856819e-08 -3.137197e-08 -1.315223e-08 -1.457514e-08 1.178106e-08 -4.705634e-08 -5.036812e-04 -4.192874e-04 1.220702e-04 -4.396494e-04 -3.006390e-04 7.270148e-05 1.006791e-04 -4.520885e-04 -6.791297e-04 -7.117605e-04 -2.317067e-04 -1.422502e-04 3.583877e-03
<VARIANCE> 25
 7.771582e+01 4.669402e+01 4.885701e+01 4.639305e+01 7.525224e+01 6.131878e+01 4.945510e+01 6.535645e+01 4.383388e+01 5.195151e+01 3.898161e+01 3.388782e+01 2.163800e+00 2.160548e+00 2.178321e+00 2.195785e+00 3.386122e+00 2.583580e+00 2.687976e+00 2.741140e+00 2.512795e+00 2.406658e+00 2.020564e+00 1.918339e+00 2.693773e+00
<GCONST> 1.047231e+02
<STATE> 4
<MEAN> 25
 3.363246e-09 -5.073974e-09 -2.667070e-08 -7.742742e-09 -4.152962e-08 5.464628e-08 -2.856819e-08 -3.137197e-08 -1.315223e-08 -1.457514e-08 1.178106e-08 -4.705634e-08 -5.036812e-04 -4.192874e-04 1.220702e-04 -4.396494e-04 -3.006390e-04 7.270148e-05 1.006791e-04 -4.520885e-04 -6.791297e-04 -7.117605e-04 -2.317067e-04 -1.422502e-04 3.583877e-03
<VARIANCE> 25
 7.771582e+01 4.669402e+01 4.885701e+01 4.639305e+01 7.525224e+01 6.131878e+01 4.945510e+01 6.535645e+01 4.383388e+01 5.195151e+01 3.898161e+01 3.388782e+01 2.163800e+00 2.160548e+00 2.178321e+00 2.195785e+00 3.386122e+00 2.583580e+00 2.687976e+00 2.741140e+00 2.512795e+00 2.406658e+00 2.020564e+00 1.918339e+00 2.693773e+00
<GCONST> 1.047231e+02
<TRANSP> 5
 0.000000e+00 1.000000e+00 0.000000e+00 0.000000e+00 0.000000e+00
 0.000000e+00 6.000000e-01 4.000000e-01 0.000000e+00 0.000000e+00
 0.000000e+00 0.000000e+00 6.000000e-01 4.000000e-01 0.000000e+00
 0.000000e+00 0.000000e+00 0.000000e+00 7.000000e-01 3.000000e-01
 0.000000e+00 0.000000e+00 0.000000e+00 0.000000e+00 0.000000e+00
<ENDHMM>
~h "\340\262\257\340\263\215"
<BEGINHMM>
<NUMSTATES> 5
<STATE> 2
<MEAN> 25
 5.475372e-03 -5.367316e-01 1.002099e+01 1.439571e+00 -7.511630e+00 -5.964225e+00 -2.590974e+00 -3.515711e+00 -4.647854e+00 -6.331896e+00 -2.020877e+00 -2.362325e+00 9.110590e-01 -2.106950e-01 7.167329e-01 5.188931e-01 -1.730097e+00 -1.207088e+00 -4.033541e-01 -5.510033e-01 -2.237078e-01 -1.118219e+00 -2.184667e-02 5.516776e-01 9.258809e-01
<VARIANCE> 25
 5.891291e+01 4.560937e+01 5.513525e+01 5.511395e+01 8.641692e+01 5.090481e+01 3.342812e+01 4.217623e+01 3.898357e+01 3.624888e+01 3.030711e+01 2.241287e+01 6.209364e+00 3.713154e+00 4.948881e+00 4.380733e+00 5.546578e+00 4.696979e+00 3.190945e+00 3.491807e+00 3.111402e+00 3.190815e+00 2.318222e+00 2.954741e+00 3.290875e+00
<GCONST> 1.085731e+02
<STATE> 3
<MEAN> 25
 5.122898e+00 -4.730124e+00 9.955825e+00 4.082481e+00 -1.678477e+01 -1.397183e+01 -4.354183e+00 -6.191087e+00 -1.871240e+00 -1.095045e+01 -6.975810e-01 2.638492e+00 6.658979e-01 -1.497140e+00 -2.010595e+00 -3.300826e-01 4.456034e-01 -1.299854e+00 -1.183798e+00 1.223384e+00 2.011622e+00 4.755043e-01 -8.138886e-02 3.999566e-01 8.060632e-01
<VARIANCE> 25
 6.239594e+00 2.513856e+01 2.697080e+01 2.547332e+01 2.892708e+01 3.376647e+01 3.637168e+01 2.887632e+01 3.233764e+01 2.290092e+01 2.227267e+01 1.485722e+01 7.367929e-01 1.815535e+00 3.290809e+00 1.836900e+00 3.274249e+00 3.366214e+00 2.548522e+00 3.686929e+00 3.536932e+00 2.586737e+00 1.886156e+00 2.087105e+00 6.020982e-01
<GCONST> 9.359193e+01
<STATE> 4
<MEAN> 25
 7.169471e+00 -9.848966e+00 4.424015e-01 -5.879343e-02 -1.087078e+01 -1.493349e+01 -7.900414e+00 -1.397609e+00 5.098917e+00 -5.185168e+00 -3.235734e+00 7.460988e-02 3.082817e-01 -3.378653e-01 -1.524981e+00 -1.030881e+00 1.537568e+00 1.196646e+00 3.522752e-02 2.123982e-01 2.745754e-01 1.314008e+00 -6.502460e-01 -1.254732e+00 1.232853e-02
<VARIANCE> 25
 8.180154e+00 2.526672e+01 2.951691e+01 2.319369e+01 3.728902e+01 3.651094e+01 4.321267e+01 3.722873e+01 2.854646e+01 2.616945e+01 2.405610e+01 2.458412e+01 4.744970e-01 2.083918e+00 4.234288e+00 2.722544e+00 3.629542e+00 3.874216e+00 2.412957e+00 3.118847e+00 3.237643e+00 3.064320e+00 3.192945e+00 3.225528e+00 1.085973e+00
<GCONST> 9.720959e+01
<TRANSP> 5
 0.000000e+00 1.000000e+00 0.000000e+00 0.000000e+00 0.000000e+00
 0.000000e+00 6.298681e-01 3.701319e-01 0.000000e+00 0.000000e+00
 0.000000e+00 0.000000e+00 7.203569e-01 2.796431e-01 0.000000e+00
 0.000000e+00 0.000000e+00 0.000000e+00 7.255892e-01 2.744109e-01
 0.000000e+00 0.000000e+00 0.000000e+00 0.000000e+00 0.000000e+00
<ENDHMM>
~h "\340\262\226\340\263\215"
<BEGINHMM>
<NUMSTATES> 5
<STATE> 2
<MEAN> 25
 -6.134795e+00 2.656173e+00 1.494442e-01 2.131287e+00 5.426944e+00 3.363997e+00 2.793481e+00 5.079902e+00 2.312631e+00 2.985740e+00 3.096387e+00 2.606248e+00 -9.338318e-01 -3.950632e-01 1.013909e+00 -5.158898e-01 3.794991e-01 -2.687073e-01 -3.402211e-01 7.861674e-01 8.406831e-02 -3.813191e-02 4.542219e-01 3.259136e-01 1.737058e-01
<VARIANCE> 25
 1.220576e+01 1.056505e+01 2.347823e+01 2.612375e+01 2.291178e+01 1.707210e+01 1.446346e+01 1.751620e+01 1.493722e+01 1.331419e+01 1.881353e+01 1.924165e+01 1.518029e+00 1.656341e+00 3.311120e+00 3.138085e+00 2.767790e+00 1.696019e+00 1.990383e+00 2.736610e+00 1.448820e+00 1.582513e+00 1.781534e+00 1.491953e+00 1.342200e+00
<GCONST> 8.851944e+01
<STATE> 3
<MEAN> 25
 -8.722214e+00 1.394077e+00 4.602643e+00 -3.400843e-01 6.034664e+00 2.087114e+00 4.974314e-01 7.494830e+00 2.412741e+00 1.955330e+00 3.520104e+00 2.558062e+00 6.570183e-01 8.462688e-01 -1.424680e+00 8.955325e-01 -2.373442e-01 3.558764e-01 5.313575e-01 -7.743144e-01 6.809780e-02 3.385785e-01 3.753585e-02 -2.024502e-03 -8.624198e-01
<VARIANCE> 25
 2.226374e+01 2.120440e+01 4.561213e+01 4.440042e+01 2.775532e+01 2.294536e+01 1.570019e+01 2.760202e+01 2.142066e+01 1.698443e+01 1.223285e+01 1.671262e+01 1.436054e+00 1.448225e+00 3.535807e+00 3.699222e+00 2.336594e+00 2.185516e+00 1.686659e+00 2.491034e+00 1.915691e+00 1.767979e+00 1.478303e+00 1.220832e+00 9.274352e-01
<GCONST> 9.156686e+01
<STATE> 4
<MEAN> 25
 -5.578456e+00 4.372706e+00 -8.948877e-02 3.689401e+00 5.202520e+00 3.636698e+00 2.460126e+00 4.022620e+00 3.591072e+00 3.480850e+00 3.471983e+00 3.388543e+00 1.461239e-02 -1.656746e-02 1.109160e-02 1.544101e-02 -1.628337e-02 -1.474431e-02 -1.409226e-02 -2.415250e-04 -7.229070e-03 -3.275839e-03 8.722359e-03 -1.247453e-02 1.588250e-02
<VARIANCE> 25
 1.843307e+00 4.148304e+00 5.430843e+00 5.717043e+00 7.677886e+00 6.989429e+00 8.346422e+00 9.008321e+00 8.592798e+00 8.982666e+00 8.757182e+00 8.997391e+00 1.268497e-01 3.613730e-01 4.828117e-01 5.403121e-01 8.407719e-01 7.384702e-01 8.686921e-01 9.479921e-01 9.059655e-01 9.542831e-01 9.186978e-01 9.291589e-01 2.290866e-01
<GCONST> 6.155790e+01
<TRANSP> 5
 0.000000e+00 1.000000e+00 0.000000e+00 0.000000e+00 0.000000e+00
 0.000000e+00 7.642892e-01 2.357108e-01 0.000000e+00 0.000000e+00
 0.000000e+00 0.000000e+00 6.424887e-01 3.575114e-01 0.000000e+00
 0.000000e+00 0.000000e+00 0.000000e+00 9.709809e-01 2.901908e-02
 0.000000e+00 0.000000e+00 0.000000e+00 0.000000e+00 0.000000e+00
<ENDHMM>
~h "\340\262\247\340\263\215"
<BEGINHMM>
<NUMSTATES> 5
<STATE> 2
<MEAN> 25
 6.079843e+00 3.690033e+00 4.972576e+00 4.759166e+00 3.063597e+00 -2.786505e+00 -8.566607e+00 -4.984294e+00 -8.708285e-01 -1.110951e+00 -3.892819e+00 -7.758523e+00 -4.017052e-02 2.209955e+00 1.672269e+00 1.970379e+00 1.463673e+00 1.061112e+00 1.229709e+00 1.244642e+00 -7.038355e-01 -1.815441e-01 -1.046269e+00 -5.644244e-01 -2.311829e+00
<VARIANCE> 25
 2.421819e+01 3.679001e+01 3.139810e+01 3.162894e+01 2.715031e+01 4.491328e+01 4.273233e+01 7.125733e+01 3.320372e+01 3.509207e+01 2.420578e+01 2.304778e+01 2.591403e+00 1.558751e+00 2.693820e+00 3.039995e+00 3.529254e+00 4.702390e+00 4.915092e+00 5.297421e+00 2.802286e+00 3.699894e+00 1.819781e+00 1.887890e+00 4.869181e+00
<GCONST> 1.028757e+02
<STATE> 3
<MEAN> 25
 3.315733e+00 1.048474e+01 8.094411e+00 9.050219e+00 6.744267e+00 8.805122e-01 -2.614067e+00 -7.724745e-01 -2.002537e+00 -1.472489e+00 -5.412493e+00 -7.212573e+00 -1.965987e+00 -7.475151e-01 -1.219777e+00 -1.271427e+00 2.960919e-01 7.579195e-02 7.020234e-01 5.581637e-01 2.061513e-01 7.458396e-02 6.856074e-01 7.960602e-01 1.085976e+00
<VARIANCE> 25
 1.940506e+01 2.218260e+01 2.204726e+01 2.483203e+01 1.667697e+01 3.227721e+01 1.937854e+01 2.184904e+01 1.808574e+01 3.544384e+01 1.457888e+01 1.321856e+01 2.514167e+00 3.210042e+00 3.171101e+00 3.543211e+00 2.551936e+00 2.749901e+00 1.790676e+00 2.596869e+00 2.314041e+00 3.670374e+00 2.038322e+00 1.666077e+00 5.212644e+00
<GCONST> 9.538371e+01
<STATE> 4
<MEAN> 25
 -3.949043e+00 7.888288e-01 1.086596e+00 -1.503362e+00 3.419332e+00 -3.523793e+00 -2.525595e+00 2.038142e+00 2.624889e-01 -6.679814e-01 -1.358603e+00 -3.889406e+00 2.566154e-01 -1.674382e+00 -2.907146e-01 -1.219068e+00 -1.809421e+00 -1.732563e+00 -5.133826e-01 -3.309620e-01 1.116250e+00 5.517241e-01 3.777760e-01 -7.329753e-02 2.759822e+00
<VARIANCE> 25
 2.153744e+01 1.075613e+01 2.339981e+01 1.888949e+01 2.227627e+01 1.846734e+01 2.449138e+01 1.922090e+01 3.000114e+01 2.274358e+01 1.331369e+01 1.842357e+01 3.325366e+00 3.267726e+00 4.715396e+00 3.706112e+00 2.815684e+00 4.530450e+00 3.590867e+00 3.050884e+00 5.276609e+00 3.805820e+00 2.420475e+00 2.732345e+00 4.924797e+00
<GCONST> 9.835488e+01
<TRANSP> 5
 0.000000e+00 1.000000e+00 0.000000e+00 0.000000e+00 0.000000e+00
 0.000000e+00 7.192547e-01 2.807453e-01 0.000000e+00 0.000000e+00
 0.000000e+00 0.000000e+00 7.146982e-01 2.853018e-01 0.000000e+00
 0.000000e+00 0.000000e+00 0.000000e+00 6.222267e-01 3.777733e-01
 0.000000e+00 0.000000e+00 0.000000e+00 0.000000e+00 0.000000e+00
<ENDHMM>
~h "\340\262\270\340\263\215"
<BEGINHMM>
<NUMSTATES> 5
<STATE> 2
<MEAN> 25
 -3.354314e-01 1.631759e+00 2.567619e+00 -9.334819e-01 1.003426e+00 -6.558444e+00 -5.437452e+00 -1.500222e+00 -3.186881e+00 -3.250793e+00 -1.077287e+00 -2.942963e+00 -2.687757e+00 5.971904e-01 3.432500e-02 -8.082979e-01 1.811947e+00 -6.795888e-02 -1.726589e-01 1.331607e+00 2.290321e-01 3.360476e-01 -1.488712e-02 5.004160e-02 7.118060e-01
<VARIANCE> 25
 9.475723e+01 4.757397e+01 4.125806e+01 3.731447e+01 7.381819e+01 6.656143e+01 5.327950e+01 6.935241e+01 6.376108e+01 4.540047e+01 2.902405e+01 2.865250e+01 1.144627e+01 5.160903e+00 3.846792e+00 3.445468e+00 9.066369e+00 4.088738e+00 5.695632e+00 7.701930e+00 4.754998e+00 3.485038e+00 2.295965e+00 2.677416e+00 3.537571e+00
<GCONST> 1.130525e+02
<STATE> 3
<MEAN> 25
 -2.175629e+01 3.712179e+00 1.021625e+00 -6.997679e+00 9.223538e+00 -4.482026e+00 -9.198408e-01 7.857216e+00 2.556213e-01 1.901960e+00 1.102321e+00 -4.044752e-01 -1.199317e+00 -4.258319e-01 -1.163058e-01 -6.095475e-01 -2.386464e-02 1.105544e-01 6.150397e-02 3.759114e-01 2.486450e-01 9.915802e-02 1.091775e-01 1.320857e-01 5.180879e-01
<VARIANCE> 25
 4.244542e+01 8.632025e+00 2.594824e+01 2.151601e+01 1.608729e+01 2.758123e+01 3.112568e+01 1.950010e+01 1.616815e+01 1.881566e+01 1.704784e+01 1.595260e+01 4.714417e+00 8.772880e-01 1.609005e+00 2.150528e+00 1.401768e+00 2.160300e+00 1.833876e+00 1.569692e+00 1.797293e+00 1.723957e+00 1.382815e+00 1.571558e+00 2.062095e+00
<GCONST> 8.945968e+01
<STATE> 4
<MEAN> 25
 -1.502147e+01 4.389151e-01 4.159116e+00 -6.010907e+00 5.208153e+00 -4.045921e+00 -6.529991e+00 3.845720e+00 5.320345e-01 -1.713963e-01 -8.391000e-02 -3.207287e+00 4.690999e+00 -2.099223e-01 4.234852e-03 8.466754e-01 -1.517763e+00 -8.206155e-01 -1.178585e+00 -2.429928e+00 -9.360062e-01 -2.676030e-01 -3.186234e-01 -8.176773e-01 2.479304e-01
<VARIANCE> 25
 1.117876e+02 1.770597e+01 3.391317e+01 2.588340e+01 2.883410e+01 7.105392e+01 5.365323e+01 5.407418e+01 4.168739e+01 3.093275e+01 2.209968e+01 2.506340e+01 9.710114e+00 2.345873e+00 3.454094e+00 2.274105e+00 3.123331e+00 3.017046e+00 4.151262e+00 4.008768e+00 4.438541e+00 3.565871e+00 2.145462e+00 2.893782e+00 1.439447e+00
<GCONST> 1.045857e+02
<TRANSP> 5
 0.000000e+00 1.000000e+00 0.000000e+00 0.000000e+00 0.000000e+00
 0.000000e+00 7.666639e-01 2.333361e-01 0.000000e+00 0.000000e+00
 0.000000e+00 0.000000e+00 8.675368e-01 1.324631e-01 0.000000e+00
 0.000000e+00 0.000000e+00 0.000000e+00 7.408980e-01 2.591020e-01
 0.000000e+00 0.000000e+00 0.000000e+00 0.000000e+00 0.000000e+00
<ENDHMM>
~h "\340\262\237\340\263\215"
<BEGINHMM>
<NUMSTATES> 5
<STATE> 2
<MEAN> 25
 2.219365e-01 -7.785829e-01 -5.643402e+00 1.406850e+00 3.431390e+00 -1.729382e+00 -1.867919e+00 2.388911e+00 2.239016e+00 4.161636e+00 2.762418e+00 1.954663e+00 -1.313181e+00 1.993890e-01 -4.461947e-02 -3.976011e-01 5.206254e-02 1.045285e+00 9.210498e-01 8.932245e-01 3.580498e-01 6.210043e-01 1.048131e+00 6.147130e-01 -1.465070e+00
<VARIANCE> 25
 4.272656e+01 2.696134e+01 4.834819e+01 2.527854e+01 2.471721e+01 3.756931e+01 3.130164e+01 3.395442e+01 3.883410e+01 3.335477e+01 3.398366e+01 3.565095e+01 2.005849e+00 2.456216e+00 3.249031e+00 2.310544e+00 2.701755e+00 3.979408e+00 2.539375e+00 3.153911e+00 2.393349e+00 2.700830e+00 3.312091e+00 3.059586e+00 3.586704e+00
<GCONST> 1.016986e+02
<STATE> 3
<MEAN> 25
 -5.127823e+00 -1.973723e+00 -2.277846e+00 1.557703e+00 2.810113e+00 -5.786030e-02 2.446455e+00 3.849507e+00 2.574763e+00 5.027972e+00 4.063895e+00 3.524231e+00 3.375091e-01 -1.730033e+00 1.057336e+00 2.817939e-01 -1.186337e+00 -8.862474e-01 -6.561010e-01 -4.727786e-01 -5.929351e-01 -1.317472e+00 -1.110600e+00 -8.073348e-01 3.068207e+00
<VARIANCE> 25
 3.880940e+01 5.071549e+01 6.340254e+01 2.776931e+01 2.319578e+01 3.239426e+01 2.949545e+01 2.063869e+01 2.328815e+01 2.988421e+01 2.387181e+01 2.332830e+01 2.059288e+00 3.606528e+00 5.314150e+00 4.489064e+00 5.810083e+00 6.016757e+00 3.909440e+00 2.747086e+00 4.583809e+00 3.746582e+00 2.070322e+00 3.053631e+00 6.448308e+00
<GCONST> 1.045627e+02
<STATE> 4
<MEAN> 25
 1.006325e+00 -6.617121e+00 -9.969462e-01 2.843108e+00 -3.953265e+00 -5.213347e+00 -2.383238e+00 -2.000442e+00 -5.376188e-01 -1.236269e+00 -1.169884e+00 3.423933e-01 1.838266e+00 -1.875350e-02 6.841625e-01 1.790464e-01 -2.042546e+00 -1.486978e+00 -1.346319e+00 -1.811841e+00 -7.854917e-01 -1.615220e+00 -9.083080e-01 -5.907726e-01 2.955798e+00
<VARIANCE> 25
 7.344354e+01 3.867073e+01 9.917680e+01 2.539820e+01 7.085690e+01 6.307896e+01 4.366460e+01 8.957188e+01 4.100564e+01 5.032946e+01 2.628500e+01 3.818080e+01 4.626581e+00 5.843936e+00 6.484200e+00 3.593814e+00 9.692266e+00 9.003201e+00 4.719910e+00 6.739867e+00 5.351688e+00 5.055227e+00 2.976855e+00 5.007830e+00 1.408221e+01
<GCONST> 1.159695e+02
<TRANSP> 5
 0.000000e+00 1.000000e+00 0.000000e+00 0.000000e+00 0.000000e+00
 0.000000e+00 7.786432e-01 2.213569e-01 0.000000e+00 0.000000e+00
 0.000000e+00 0.000000e+00 3.716741e-01 6.283259e-01 0.000000e+00
 0.000000e+00 0.000000e+00 0.000000e+00 5.635293e-01 4.364707e-01
 0.000000e+00 0.000000e+00 0.000000e+00 0.000000e+00 0.000000e+00
<ENDHMM>
~h "\340\262\260\340\263\215"
<BEGINHMM>
<NUMSTATES> 5
<STATE> 2
<MEAN> 25
 2.957103e+00 -4.897979e+00 -1.224871e+00 3.069187e+00 1.710762e+00 -7.699128e+00 -7.048197e+00 -9.951351e-01 -5.166034e-01 6.783152e-01 1.874591e-01 -4.367029e+00 8.767986e-01 7.149589e-02 1.322910e-02 1.490076e+00 -2.342374e-01 -1.137289e+00 -5.538221e-01 -5.986008e-01 -2.813270e-01 3.022483e-02 -5.609099e-01 -2.936696e-01 8.118832e-02
<VARIANCE> 25
 4.784619e+01 3.748778e+01 5.182162e+01 4.022838e+01 4.466526e+01 5.282399e+01 4.816061e+01 4.267928e+01 3.660600e+01 2.992451e+01 2.374303e+01 2.279038e+01 5.115947e+00 3.618689e+00 5.330276e+00 4.002697e+00 4.713383e+00 4.164940e+00 5.186047e+00 4.236483e+00 3.678419e+00 3.036873e+00 2.447712e+00 2.782467e+00 4.698139e+00
<GCONST> 1.076929e+02
<STATE> 3
<MEAN> 25
 1.033880e+01 -6.357283e+00 -7.319167e+00 6.885471e+00 -4.301245e+00 -1.356270e+01 -8.036604e+00 -7.823790e+00 -8.002408e-01 1.428111e+00 -1.797332e+00 -3.263915e+00 1.033068e+00 -3.109186e-01 -1.807713e+00 2.742610e-01 -1.737943e+00 -1.460775e-01 8.956878e-01 -1.580495e+00 6.432919e-01 2.814234e-01 -6.282983e-01 1.170523e+00 6.761249e-01
<VARIANCE> 25
 1.805426e+01 2.091582e+01 6.306242e+01 2.746638e+01 4.545846e+01 3.600170e+01 4.124912e+01 3.682100e+01 3.109397e+01 3.807114e+01 1.909190e+01 2.368062e+01 2.349216e+00 2.606591e+00 5.280733e+00 4.038350e+00 4.515738e+00 4.172750e+00 4.348617e+00 3.865778e+00 3.574998e+00 3.523511e+00 2.433589e+00 2.994939e+00 2.342821e+00
<GCONST> 1.032556e+02
<STATE> 4
<MEAN> 25
 1.115081e+01 -3.927168e+00 -7.154869e+00 -2.468500e+00 -9.412395e+00 -4.955781e+00 -1.908038e+00 -9.091420e+00 -2.780772e+00 -2.991411e+00 -4.171454e+00 1.310214e+00 -3.217473e-01 2.794050e-01 6.781882e-01 -1.256025e+00 -8.332471e-02 1.136945e+00 6.063482e-01 6.580280e-01 -2.391767e-01 -6.521398e-01 -2.263982e-01 2.631754e-02 -1.046723e-01
<VARIANCE> 25
 1.933733e+01 5.319751e+01 5.603168e+01 8.303471e+01 6.786330e+01 5.815224e+01 5.991729e+01 4.642167e+01 5.608049e+01 6.962791e+01 3.137867e+01 5.689712e+01 6.110674e-01 2.471999e+00 2.149197e+00 3.583856e+00 3.958347e+00 3.535403e+00 2.943188e+00 3.033365e+00 3.100830e+00 3.427469e+00 2.639744e+00 3.391839e+00 1.570302e+00
<GCONST> 1.055854e+02
<TRANSP> 5
 0.000000e+00 1.000000e+00 0.000000e+00 0.000000e+00 0.000000e+00
 0.000000e+00 6.146900e-01 3.853100e-01 0.000000e+00 0.000000e+00
 0.000000e+00 0.000000e+00 6.167198e-01 3.832802e-01 0.000000e+00
 0.000000e+00 0.000000e+00 0.000000e+00 6.866607e-01 3.133393e-01
 0.000000e+00 0.000000e+00 0.000000e+00 0.000000e+00 0.000000e+00
<ENDHMM>
~h "\340\262\227\340\263\215"
<BEGINHMM>
<NUMSTATES> 5
<STATE> 2
<MEAN> 25
 6.774064e+00 -8.585827e-01 -6.863866e-01 -1.798933e+00 -4.039927e+00 -1.091800e+00 -7.047408e+00 -6.306209e+00 -2.373144e+00 -5.767486e+00 -4.670659e-01 -8.345029e-02 3.267024e-01 1.714977e+00 1.065974e+00 1.262284e+00 5.455185e-01 -1.198874e-01 -5.652892e-01 -3.925949e-02 -1.194382e+00 -1.610369e+00 -3.041779e-01 1.160792e-01 -1.104509e+00
<VARIANCE> 25
 4.258414e+01 4.411492e+01 5.045362e+01 6.431740e+01 5.419028e+01 7.902028e+01 7.509265e+01 5.804641e+01 6.429418e+01 4.927695e+01 3.613274e+01 3.579908e+01 3.446262e+00 5.514477e+00 4.043804e+00 6.628842e+00 8.003606e+00 5.101565e+00 5.075388e+00 4.888749e+00 4.606073e+00 4.736459e+00 3.052771e+00 3.600095e+00 7.957151e+00
<GCONST> 1.142461e+02
<STATE> 3
<MEAN> 25
 7.802228e+00 3.182074e+00 4.002964e+00 3.292014e+00 -2.428436e+00 -3.236514e+00 -5.934780e+00 -5.024364e+00 -5.723782e+00 -8.838468e+00 -2.480708e+00 -1.895530e+00 -4.980631e-01 1.226689e+00 6.818339e-01 7.388495e-01 1.587674e+00 6.214559e-01 7.369332e-01 1.020206e+00 -1.018936e+00 2.156180e-01 -6.454337e-02 -7.879056e-01 -1.740581e+00
<VARIANCE> 25
 1.907644e+01 3.599385e+01 4.082841e+01 4.872118e+01 5.257536e+01 6.856889e+01 3.843015e+01 3.891280e+01 4.974044e+01 3.966977e+01 2.542731e+01 3.532555e+01 2.070038e+00 4.910702e+00 3.315113e+00 4.166129e+00 7.943212e+00 6.108587e+00 5.634943e+00 4.390410e+00 6.389630e+00 3.821120e+00 2.808167e+00 4.292439e+00 6.047501e+00
<GCONST> 1.094814e+02
<STATE> 4
<MEAN> 25
 9.248112e+00 5.398041e+00 3.958797e-02 -5.300564e-01 -5.942173e+00 -2.794009e-02 -2.035472e+00 -4.278231e+00 -7.411121e+00 -1.041806e+01 -4.514425e+00 -4.166949e-01 -8.637695e-01 -3.996886e-01 -1.981785e-01 -3.515151e-01 7.260169e-01 3.463241e-01 -7.488470e-02 2.697206e-01 6.357802e-01 6.367406e-01 3.372472e-01 -3.720660e-01 -1.777565e-02
<VARIANCE> 25
 2.145512e+01 3.441307e+01 5.280669e+01 5.405478e+01 1.158203e+02 4.524545e+01 3.787087e+01 4.872512e+01 3.391552e+01 5.338129e+01 2.929147e+01 5.161787e+01 2.101843e+00 3.396566e+00 2.945582e+00 2.655595e+00 6.376659e+00 3.523376e+00 3.670275e+00 3.388979e+00 3.567270e+00 2.715008e+00 2.925678e+00 2.428358e+00 2.828651e+00
<GCONST> 1.063415e+02
<TRANSP> 5
 0.000000e+00 1.000000e+00 0.000000e+00 0.000000e+00 0.000000e+00
 0.000000e+00 5.241952e-01 4.758049e-01 0.000000e+00 0.000000e+00
 0.000000e+00 0.000000e+00 4.913584e-01 5.086416e-01 0.000000e+00
 0.000000e+00 0.000000e+00 0.000000e+00 6.556616e-01 3.443383e-01
 0.000000e+00 0.000000e+00 0.000000e+00 0.000000e+00 0.000000e+00
<ENDHMM>
~h "\340\262\250\340\263\215"
<BEGINHMM>
<NUMSTATES> 5
<STATE> 2
<MEAN> 25
 8.589134e+00 -9.524394e-01 4.490439e+00 2.925796e+00 -2.092971e+00 -6.738252e+00 -6.497217e+00 -2.172948e+00 1.311525e-01 -5.645802e+00 -6.309566e+00 -4.019513e+00 1.249627e+00 1.595623e+00 1.997778e+00 4.943437e-01 5.388601e-01 -3.183545e-01 -1.678464e+00 6.575848e-01 -1.431542e+00 -1.980463e+00 -1.453940e-01 2.668439e-01 -6.565453e-01
<VARIANCE> 25
 3.696183e+01 5.409839e+01 3.692188e+01 2.475428e+01 5.234494e+01 4.460734e+01 5.304544e+01 4.404740e+01 4.463448e+01 5.339553e+01 2.423535e+01 3.631937e+01 1.877329e+00 2.178013e+00 3.570901e+00 2.628873e+00 5.987072e+00 3.327265e+00 3.909213e+00 3.084983e+00 3.002463e+00 3.199018e+00 2.578057e+00 2.011396e+00 4.181739e+00
<GCONST> 1.049021e+02
<STATE> 3
<MEAN> 25
 1.239824e+01 2.716053e+00 8.163768e+00 2.428561e+00 -2.830049e+00 -8.272070e+00 -8.387465e+00 5.309278e-01 -4.223012e+00 -1.271664e+01 -7.289947e+00 -2.036523e+00 -1.748519e-01 -6.215699e-01 -4.782121e-01 1.122514e-01 -4.213406e-01 -2.980286e-01 1.317631e-01 -4.464417e-01 5.715237e-01 5.107676e-01 -2.024402e-01 -2.415965e-01 5.700561e-01
<VARIANCE> 25
 6.312075e+00 2.280715e+01 1.223880e+01 1.856131e+01 2.188152e+01 2.540541e+01 3.131774e+01 2.790314e+01 3.810022e+01 4.752165e+01 1.945324e+01 3.218224e+01 5.170535e-01 2.789793e+00 1.828122e+00 1.152811e+00 3.386915e+00 1.697348e+00 2.347450e+00 2.579102e+00 3.170729e+00 4.322775e+00 1.326394e+00 1.958520e+00 1.603276e+00
<GCONST> 9.208269e+01
<STATE> 4
<MEAN> 25
 8.958153e+00 -3.819026e+00 1.532241e+00 8.620597e-01 -5.967962e+00 -6.666707e+00 -5.907995e+00 -5.190518e+00 7.827382e-01 -3.800054e+00 -5.847217e+00 -3.492407e+00 -5.273311e-01 -8.479414e-01 -1.056842e+00 -9.013785e-01 -8.956803e-01 7.859898e-01 1.029057e+00 -4.727864e-01 1.305001e-01 6.932185e-01 3.712613e-01 2.612598e-01 6.513786e-01
<VARIANCE> 25
 2.434880e+01 3.955591e+01 4.685437e+01 3.979070e+01 7.729569e+01 5.637460e+01 4.040396e+01 4.744227e+01 4.499104e+01 4.829444e+01 2.871413e+01 3.019544e+01 8.518772e-01 3.708993e+00 3.571331e+00 3.177573e+00 4.835970e+00 4.253494e+00 3.845882e+00 3.253944e+00 3.983972e+00 4.032428e+00 2.358074e+00 2.567826e+00 2.461879e+00
<GCONST> 1.053434e+02
<TRANSP> 5
 0.000000e+00 1.000000e+00 0.000000e+00 0.000000e+00 0.000000e+00
 0.000000e+00 6.484322e-01 3.515678e-01 0.000000e+00 0.000000e+00
 0.000000e+00 0.000000e+00 7.579988e-01 2.420012e-01 0.000000e+00
 0.000000e+00 0.000000e+00 0.000000e+00 6.062152e-01 3.937848e-01
 0.000000e+00 0.000000e+00 0.000000e+00 0.000000e+00 0.000000e+00
<ENDHMM>
~h "\340\262\271\340\263\215"
<BEGINHMM>
<NUMSTATES> 5
<STATE> 2
<MEAN> 25
 -6.279986e+00 3.799076e+00 -1.411824e+00 1.910022e+00 5.397703e+00 4.738860e+00 3.218545e+00 6.313312e+00 3.449422e+00 4.630956e+00 3.708778e+00 2.557017e+00 -4.838851e-02 3.030643e-02 6.226227e-02 1.570025e-02 3.489441e-02 1.194017e-02 -1.490097e-02 4.193791e-02 -6.627977e-03 -1.360161e-02 -6.366038e-02 -3.159361e-02 -3.598225e-02
<VARIANCE> 25
 1.236972e+01 7.901427e+00 9.781542e+00 1.261654e+01 1.211035e+01 1.270762e+01 1.470440e+01 1.560978e+01 1.307199e+01 1.431334e+01 1.684036e+01 1.518105e+01 4.803042e-01 4.929452e-01 7.774299e-01 8.737496e-01 1.002051e+00 9.686435e-01 1.145527e+00 1.235327e+00 1.273029e+00 1.337385e+00 1.310646e+00 1.440938e+00 5.085359e-01
<GCONST> 7.557421e+01
<STATE> 3
<MEAN> 25
 -3.560317e-01 -4.376853e-01 -1.093808e+00 -1.698636e+00 4.154789e+00 5.423424e+00 5.372957e+00 1.789468e+00 8.446856e-01 1.688146e+00 -1.648296e+00 -2.133626e+00 5.765752e-01 -4.142069e-01 -2.260764e-01 -4.571545e-01 -5.038163e-01 -4.368500e-01 -6.378593e-02 -4.624491e-01 -6.373101e-01 -4.209848e-01 -4.803646e-01 -3.608240e-01 7.122320e-01
<VARIANCE> 25
 3.201246e+01 2.766579e+01 2.032991e+01 3.022710e+01 1.981868e+01 3.862167e+01 3.414799e+01 4.656051e+01 2.815642e+01 1.969968e+01 2.381529e+01 2.718110e+01 1.161803e+00 1.480403e+00 2.137006e+00 1.997238e+00 2.166896e+00 2.453170e+00 2.893603e+00 3.140290e+00 1.776213e+00 1.731983e+00 2.247081e+00 2.175048e+00 8.580489e-01
<GCONST> 9.438549e+01
<STATE> 4
<MEAN> 25
 3.366547e-01 -1.669858e+00 -2.585063e+00 -3.308279e+00 9.661008e-01 3.376117e+00 3.301352e+00 1.062605e+00 -3.025097e-01 9.409496e-01 -2.137999e+00 -3.165819e+00 1.338175e+00 -9.000753e-01 -8.952975e-03 -1.045286e+00 -1.451561e+00 -7.373452e-01 -2.253748e-01 -9.976260e-01 -6.623051e-01 -6.576639e-01 -5.036743e-01 -6.778778e-01 2.264773e+00
<VARIANCE> 25
 2.918217e+01 2.672263e+01 3.779050e+01 3.839616e+01 3.494066e+01 4.209856e+01 2.872949e+01 3.697077e+01 2.655163e+01 1.950748e+01 2.305720e+01 2.757980e+01 1.501516e+00 3.759873e+00 3.023019e+00 2.667467e+00 2.908833e+00 3.334296e+00 3.112143e+00 2.916278e+00 2.348962e+00 1.914986e+00 2.296256e+00 2.588089e+00 2.403194e+00
<GCONST> 9.931125e+01
<TRANSP> 5
 0.000000e+00 1.000000e+00 0.000000e+00 0.000000e+00 0.000000e+00
 0.000000e+00 8.612951e-01 1.387049e-01 0.000000e+00 0.000000e+00
 0.000000e+00 0.000000e+00 4.081303e-01 5.918697e-01 0.000000e+00
 0.000000e+00 0.000000e+00 0.000000e+00 6.739622e-01 3.260378e-01
 0.000000e+00 0.000000e+00 0.000000e+00 0.000000e+00 0.000000e+00
<ENDHMM>
~h "\340\262\205"
<BEGINHMM>
<NUMSTATES> 5
<STATE> 2
<MEAN> 25
 4.478599e+00 -2.410138e+00 -1.784272e+00 -2.111478e+00 -1.449699e+00 -4.303524e+00 -6.306190e+00 -3.966369e+00 1.249777e-01 -4.964130e-01 -7.879722e-01 -3.681373e+00 1.440781e+00 -1.761100e+00 -1.480323e+00 -1.425717e+00 -1.721702e+00 -5.706671e-01 -5.384884e-01 -1.170458e+00 1.083865e+00 8.887602e-01 1.517204e-01 -2.522267e-01 2.272724e+00
<VARIANCE> 25
 4.281922e+01 4.775118e+01 3.912796e+01 4.551656e+01 5.980536e+01 6.447514e+01 5.747153e+01 5.352956e+01 4.050383e+01 3.816076e+01 3.377586e+01 3.222952e+01 5.152102e+00 4.652756e+00 3.995974e+00 3.907615e+00 6.488285e+00 4.986018e+00 5.716717e+00 4.570896e+00 4.587083e+00 4.165288e+00 3.888819e+00 3.538927e+00 4.472152e+00
<GCONST> 1.114142e+02
<STATE> 3
<MEAN> 25
 8.467113e+00 -9.645554e+00 -6.429604e+00 -6.145177e+00 -5.905468e+00 -5.535208e+00 -6.247106e+00 -5.876278e+00 4.266751e+00 2.089744e+00 -1.446820e+00 -5.803611e+00 3.061562e-01 -9.432699e-01 -5.383589e-01 -4.858353e-01 -1.039906e-01 4.786627e-01 5.354277e-01 -1.041454e-01 1.732233e-01 1.488964e-01 -1.238237e-01 -2.497399e-01 4.328958e-01
<VARIANCE> 25
 1.234409e+01 3.136893e+01 2.071848e+01 3.288951e+01 2.571565e+01 4.114553e+01 5.464431e+01 3.416075e+01 3.382016e+01 2.108549e+01 3.593195e+01 3.090452e+01 8.639790e-01 2.504179e+00 2.043423e+00 2.669075e+00 2.463858e+00 3.673467e+00 4.028298e+00 2.914844e+00 3.629360e+00 1.962103e+00 1.930354e+00 1.991408e+00 1.374128e+00
<GCONST> 9.726997e+01
<STATE> 4
<MEAN> 25
 6.550819e+00 -4.218534e+00 -5.226571e+00 -6.583817e+00 -5.046439e-01 2.511615e+00 1.079019e+00 -6.790885e+00 -7.505806e-01 1.402366e+00 -4.093380e+00 -5.471272e+00 -4.686343e-01 9.134944e-01 4.683284e-01 7.052442e-01 6.379079e-01 2.187746e-01 2.903854e-02 3.799714e-01 -1.689783e-01 -3.795193e-02 1.001827e-01 2.722404e-01 -1.305092e+00
<VARIANCE> 25
 2.950994e+01 4.052665e+01 2.162690e+01 3.881541e+01 3.975654e+01 5.616763e+01 6.652179e+01 5.975904e+01 3.712810e+01 2.008844e+01 4.377671e+01 2.846796e+01 9.164235e-01 1.598738e+00 1.763397e+00 2.437070e+00 2.180863e+00 2.738655e+00 2.515471e+00 3.160943e+00 2.670306e+00 1.707785e+00 2.389906e+00 1.767071e+00 1.424152e+00
<GCONST> 9.851977e+01
<TRANSP> 5
 0.000000e+00 1.000000e+00 0.000000e+00 0.000000e+00 0.000000e+00
 0.000000e+00 5.139694e-01 4.860306e-01 0.000000e+00 0.000000e+00
 0.000000e+00 0.000000e+00 6.534662e-01 3.465338e-01 0.000000e+00
 0.000000e+00 0.000000e+00 0.000000e+00 8.343939e-01 1.656061e-01
 0.000000e+00 0.000000e+00 0.000000e+00 0.000000e+00 0.000000e+00
<ENDHMM>
~h "\340\262\206"
<BEGINHMM>
<NUMSTATES> 5
<STATE> 2
<MEAN> 25
 4.531368e+00 -7.270784e+00 -4.922160e+00 -6.946050e+00 -1.721854e+00 1.140948e+00 9.421077e-01 -1.728822e+00 -1.195538e+00 4.014717e-01 -1.832759e+00 -3.876548e+00 1.099034e+00 -1.747409e+00 -1.248242e+00 -1.507278e+00 -9.995242e-01 9.832641e-01 1.397493e+00 -6.245021e-01 -6.988237e-01 1.095664e-02 -6.615106e-01 -1.522364e-01 1.709358e+00
<VARIANCE> 25
 5.845278e+01 5.590986e+01 3.491457e+01 4.608965e+01 4.776064e+01 5.857005e+01 6.145318e+01 5.080602e+01 4.034710e+01 3.451434e+01 3.966780e+01 3.265781e+01 3.552721e+00 4.527794e+00 3.211234e+00 3.005180e+00 4.865753e+00 4.263837e+00 4.918641e+00 3.814751e+00 4.392047e+00 3.593817e+00 3.194253e+00 2.674513e+00 4.875597e+00
<GCONST> 1.093082e+02
<STATE> 3
<MEAN> 25
 1.035232e+01 -1.342342e+01 -9.573338e+00 -1.260241e+01 -5.873564e+00 5.330554e+00 7.883101e+00 -6.689715e+00 -7.358075e+00 -5.135193e-01 -6.290982e+00 -2.314623e+00 3.801862e-02 -7.565764e-02 -7.820547e-02 -1.582591e-01 -5.721014e-02 3.367971e-01 2.515012e-01 -3.765799e-01 -2.981904e-01 -3.704727e-04 -1.696053e-02 7.177254e-02 1.096458e-01
<VARIANCE> 25
 7.627031e+00 2.300079e+01 1.613051e+01 2.081084e+01 2.510723e+01 2.838586e+01 3.145769e+01 5.291046e+01 2.352086e+01 2.257841e+01 3.385574e+01 2.377827e+01 2.226248e-01 1.028070e+00 6.954496e-01 7.999847e-01 1.094137e+00 1.441583e+00 1.542140e+00 1.009983e+00 1.578491e+00 7.446193e-01 8.546635e-01 8.647036e-01 2.889404e-01
<GCONST> 8.133790e+01
<STATE> 4
<MEAN> 25
 9.586108e+00 -9.642935e+00 -8.947409e+00 -9.966923e+00 -3.558798e+00 1.297793e+00 2.585192e+00 -7.934842e+00 -2.672335e+00 1.432504e+00 -4.297164e+00 -5.552511e+00 -1.907816e-01 1.186988e+00 6.446928e-01 1.172804e+00 5.034251e-01 -1.536261e+00 -1.708978e+00 2.753058e-01 1.161928e+00 2.882858e-01 4.636099e-01 -4.274723e-01 -7.718102e-01
<VARIANCE> 25
 8.581669e+00 3.067614e+01 1.855707e+01 3.321174e+01 3.063998e+01 4.513310e+01 4.022206e+01 4.859426e+01 3.556530e+01 2.213507e+01 3.787346e+01 2.599789e+01 4.207788e-01 1.530825e+00 1.585362e+00 1.949843e+00 1.958585e+00 2.726254e+00 3.082629e+00 2.785468e+00 2.662444e+00 1.764570e+00 1.616153e+00 1.833212e+00 1.047982e+00
<GCONST> 9.350864e+01
<TRANSP> 5
 0.000000e+00 1.000000e+00 0.000000e+00 0.000000e+00 0.000000e+00
 0.000000e+00 7.548170e-01 2.451830e-01 0.000000e+00 0.000000e+00
 0.000000e+00 0.000000e+00 8.771299e-01 1.228701e-01 0.000000e+00
 0.000000e+00 0.000000e+00 0.000000e+00 8.131561e-01 1.868439e-01
 0.000000e+00 0.000000e+00 0.000000e+00 0.000000e+00 0.000000e+00
<ENDHMM>
~h "\340\262\207"
<BEGINHMM>
<NUMSTATES> 5
<STATE> 2
<MEAN> 25
 6.017448e-01 -9.667095e-01 1.052385e+01 4.130777e+00 -7.871459e+00 -8.289124e+00 -3.879939e+00 -3.554502e+00 -5.769234e+00 -8.506271e+00 -1.919751e+00 -1.693981e+00 1.127030e+00 -4.571324e-01 1.337238e+00 5.960405e-01 -3.371349e+00 -1.611759e+00 -3.626209e-02 -1.613212e+00 -6.995003e-01 -1.915595e+00 1.088141e-01 7.789499e-01 1.779387e+00
<VARIANCE> 25
 3.781809e+01 3.612576e+01 3.878452e+01 3.249908e+01 8.098586e+01 6.404059e+01 3.994368e+01 3.168638e+01 3.416081e+01 4.084920e+01 2.465174e+01 2.875466e+01 6.319247e+00 4.068402e+00 5.021360e+00 3.237374e+00 5.416492e+00 4.729993e+00 4.701176e+00 3.741606e+00 4.096929e+00 4.067205e+00 2.899444e+00 2.926371e+00 3.794597e+00
<GCONST> 1.082388e+02
<STATE> 3
<MEAN> 25
 2.631451e+00 1.460623e+00 1.475507e+01 3.407565e+00 -1.652372e+01 -9.194947e+00 1.028267e+00 -1.035049e+01 -8.832171e+00 -1.081499e+01 -7.789541e-01 -2.419128e+00 8.929323e-02 4.772635e-01 -1.002049e-01 3.133187e-02 4.540188e-01 1.401591e-01 4.756058e-01 2.729042e-01 -1.272021e-01 1.596839e-01 -8.960602e-02 -3.362199e-01 -5.572137e-01
<VARIANCE> 25
 9.081209e+00 4.117250e+01 2.245199e+01 2.746635e+01 3.018755e+01 4.156177e+01 5.274400e+01 2.843333e+01 3.014446e+01 2.322946e+01 1.893969e+01 3.405031e+01 5.964784e-01 1.441862e+00 1.713886e+00 1.442691e+00 3.502982e+00 2.298284e+00 2.818292e+00 3.056863e+00 2.032915e+00 1.423225e+00 1.372163e+00 1.468046e+00 9.583336e-01
<GCONST> 9.247735e+01
<STATE> 4
<MEAN> 25
 -1.023250e+00 9.947593e-01 6.981362e+00 5.010843e+00 -2.186480e+00 -5.056703e+00 2.022620e-01 1.269867e+00 -3.172383e+00 -4.608471e+00 -1.096117e+00 -6.910268e-01 -5.319093e-01 -8.322481e-03 -9.743186e-01 -1.054849e-02 1.770213e+00 7.710547e-01 -4.193713e-01 1.008693e+00 7.981160e-01 9.748770e-01 1.594789e-01 4.103939e-01 -1.358327e+00
<VARIANCE> 25
 3.752373e+01 3.088549e+01 4.068316e+01 3.347130e+01 7.621330e+01 6.429659e+01 6.388574e+01 4.343718e+01 4.469538e+01 5.069723e+01 2.913576e+01 3.185151e+01 2.115943e+00 3.671858e+00 3.148020e+00 2.761067e+00 7.042039e+00 3.620330e+00 4.550444e+00 3.962947e+00 2.899966e+00 2.802930e+00 2.748405e+00 2.741835e+00 2.814418e+00
<GCONST> 1.066960e+02
<TRANSP> 5
 0.000000e+00 1.000000e+00 0.000000e+00 0.000000e+00 0.000000e+00
 0.000000e+00 6.790527e-01 3.209473e-01 0.000000e+00 0.000000e+00
 0.000000e+00 0.000000e+00 8.345281e-01 1.654719e-01 0.000000e+00
 0.000000e+00 0.000000e+00 0.000000e+00 7.623338e-01 2.376663e-01
 0.000000e+00 0.000000e+00 0.000000e+00 0.000000e+00 0.000000e+00
<ENDHMM>
~h "\340\262\210"
<BEGINHMM>
<NUMSTATES> 5
<STATE> 2
<MEAN> 25
 -3.622844e+00 4.840436e-01 1.298629e+01 3.928797e+00 -7.053267e+00 -1.150424e+00 -1.212980e+00 -4.760734e+00 -4.218027e+00 -5.644538e+00 -3.945617e-01 -1.299000e+00 8.624145e-01 -1.891222e-01 2.896345e+00 5.090214e-01 -3.076025e+00 -2.308190e-01 -2.476104e-01 -2.035482e+00 -1.026800e+00 -1.663238e+00 -4.128340e-01 -6.784640e-01 1.760032e+00
<VARIANCE> 25
 3.825710e+01 3.314748e+01 8.728063e+01 3.007327e+01 9.255671e+01 5.669270e+01 2.746109e+01 5.324823e+01 3.771946e+01 4.757166e+01 2.036996e+01 2.732204e+01 3.620731e+00 3.680630e+00 7.333177e+00 3.142367e+00 7.138871e+00 2.860407e+00 3.516295e+00 4.833240e+00 3.970884e+00 4.869351e+00 2.863663e+00 2.389719e+00 5.573217e+00
<GCONST> 1.088121e+02
<STATE> 3
<MEAN> 25
 4.025027e-01 -3.997280e-02 2.071700e+01 4.180412e+00 -1.785446e+01 -2.025653e+00 1.691973e+00 -1.363300e+01 -8.693624e+00 -1.005146e+01 -1.586253e+00 -6.234558e+00 6.712659e-02 1.423996e-01 -3.843651e-01 -1.030461e-02 2.706505e-01 -8.336407e-02 1.500462e-01 1.896861e-01 -3.081290e-02 8.739450e-02 5.506451e-02 -9.490339e-02 -2.664542e-01
<VARIANCE> 25
 1.138155e+01 3.100127e+01 3.793061e+01 3.298606e+01 4.552774e+01 4.046507e+01 2.854093e+01 3.489961e+01 3.168371e+01 2.808154e+01 2.180021e+01 2.424982e+01 3.412661e-01 1.210199e+00 1.299070e+00 1.162054e+00 2.342421e+00 1.801787e+00 1.710928e+00 1.967477e+00 1.479844e+00 1.425508e+00 9.905013e-01 1.061225e+00 9.151174e-01
<GCONST> 8.931754e+01
<STATE> 4
<MEAN> 25
 -3.665860e+00 1.566341e+00 4.138871e+00 4.112838e+00 1.556923e-01 4.842081e-01 2.676827e+00 1.754677e+00 -1.962273e+00 -4.887593e-01 1.494534e+00 -2.384918e-01 -4.203158e-01 8.829609e-02 -5.562240e-01 1.213707e-02 1.038385e+00 3.141657e-01 -1.243355e-01 6.073481e-01 5.386562e-01 5.192373e-01 2.475511e-01 4.470319e-01 -6.651408e-01
<VARIANCE> 25
 1.899723e+01 2.227916e+01 4.897961e+01 1.840202e+01 8.381383e+01 4.083733e+01 2.870933e+01 5.387984e+01 3.380951e+01 4.495395e+01 2.387115e+01 2.464901e+01 1.092842e+00 2.225050e+00 1.904503e+00 1.622658e+00 3.590922e+00 3.056191e+00 2.792925e+00 2.859285e+00 1.983379e+00 2.330239e+00 2.834692e+00 1.631528e+00 1.377677e+00
<GCONST> 9.785741e+01
<TRANSP> 5
 0.000000e+00 1.000000e+00 0.000000e+00 0.000000e+00 0.000000e+00
 0.000000e+00 7.827311e-01 2.172690e-01 0.000000e+00 0.000000e+00
 0.000000e+00 0.000000e+00 9.356476e-01 6.435242e-02 0.000000e+00
 0.000000e+00 0.000000e+00 0.000000e+00 7.383835e-01 2.616165e-01
 0.000000e+00 0.000000e+00 0.000000e+00 0.000000e+00 0.000000e+00
<ENDHMM>
~h "\340\262\211"
<BEGINHMM>
<NUMSTATES> 5
<STATE> 2
<MEAN> 25
 8.523861e+00 4.362218e+00 -2.240449e+00 -7.299610e+00 -4.870075e+00 3.166915e+00 8.946333e-01 -4.238161e+00 -5.886646e+00 -6.123898e+00 -6.146360e+00 -7.260171e-01 -8.366826e-01 2.690966e-01 1.648572e-01 3.159231e-01 8.261808e-01 4.051630e-01 4.910139e-01 9.614814e-01 3.574788e-01 3.377792e-01 2.996266e-02 -1.057886e-01 -1.236325e+00
<VARIANCE> 25
 2.401805e+01 2.974746e+01 1.997031e+01 3.936324e+01 6.633308e+01 3.620177e+01 4.526176e+01 7.531850e+01 2.577584e+01 3.307497e+01 4.345559e+01 3.968230e+01 1.185143e+00 2.222964e+00 1.832113e+00 2.683092e+00 3.906273e+00 3.484251e+00 2.837695e+00 3.853471e+00 2.107605e+00 2.143926e+00 3.319271e+00 2.832784e+00 9.713699e-01
<GCONST> 1.005885e+02
<STATE> 3
<MEAN> 25
 -4.870123e+00 2.538352e+00 -4.966100e-02 -9.206305e-01 4.530497e+00 3.704459e+00 2.248435e+00 4.740533e+00 1.458369e+00 1.970573e+00 1.748112e+00 2.506052e+00 -7.559234e-01 9.872525e-02 4.759812e-02 6.479194e-01 3.320117e-01 -1.271309e-01 -1.743049e-02 3.555768e-01 6.109679e-01 6.704180e-01 8.013211e-01 4.479791e-01 -7.840391e-01
<VARIANCE> 25
 2.370099e+01 1.872636e+01 3.177182e+01 2.894929e+01 2.564041e+01 2.617827e+01 2.157964e+01 2.882735e+01 2.245333e+01 2.300321e+01 2.201461e+01 1.955746e+01 2.000124e+00 2.334923e+00 3.869553e+00 2.990885e+00 2.549076e+00 2.694834e+00 2.023523e+00 2.443510e+00 2.121755e+00 2.276654e+00 2.320900e+00 1.830950e+00 1.222162e+00
<GCONST> 9.485841e+01
<STATE> 4
<MEAN> 25
 -6.158048e+00 3.698103e+00 -7.241462e-01 2.954300e+00 5.490419e+00 4.370571e+00 2.878473e+00 5.146418e+00 3.296555e+00 4.327789e+00 3.684607e+00 3.007232e+00 -4.286554e-02 -8.522337e-03 3.254988e-02 8.760182e-02 4.129909e-02 -5.432239e-03 2.330615e-03 4.353304e-03 1.891785e-02 1.260052e-02 4.843839e-03 7.595287e-03 -2.519123e-02
<VARIANCE> 25
 5.411324e+00 4.612981e+00 5.627357e+00 6.950062e+00 8.538164e+00 8.933125e+00 1.064053e+01 1.318741e+01 1.163170e+01 1.233445e+01 1.161434e+01 1.084341e+01 1.829245e-01 3.472365e-01 4.667537e-01 5.899720e-01 7.591352e-01 8.284864e-01 9.085140e-01 1.039994e+00 1.112642e+00 1.146681e+00 1.134371e+00 1.014289e+00 3.837585e-01
<GCONST> 6.677046e+01
<TRANSP> 5
 0.000000e+00 1.000000e+00 0.000000e+00 0.000000e+00 0.000000e+00
 0.000000e+00 8.751896e-01 1.248104e-01 0.000000e+00 0.000000e+00
 0.000000e+00 0.000000e+00 7.977048e-01 2.022952e-01 0.000000e+00
 0.000000e+00 0.000000e+00 0.000000e+00 9.387087e-01 6.129127e-02
 0.000000e+00 0.000000e+00 0.000000e+00 0.000000e+00 0.000000e+00
<ENDHMM>
~h "\340\262\212"
<BEGINHMM>
<NUMSTATES> 5
<STATE> 2
<MEAN> 25
 4.552671e+00 1.841694e+00 7.087460e-01 7.853220e-01 -1.139297e+00 -1.590328e+00 -5.242318e+00 -4.434060e+00 -4.556015e+00 -4.581021e+00 -8.392915e-01 -4.182081e-01 1.254667e+00 1.617973e-01 -6.740743e-01 -9.508487e-01 -2.162381e+00 3.514220e-01 1.456385e-01 -1.373155e+00 -6.582769e-01 -1.511176e+00 -1.794367e-01 9.969257e-01 1.110957e+00
<VARIANCE> 25
 6.172947e+01 4.753198e+01 4.745825e+01 5.050743e+01 6.671803e+01 4.146480e+01 4.868230e+01 9.115277e+01 3.320755e+01 6.027918e+01 3.507101e+01 2.649840e+01 4.747043e+00 4.775262e+00 3.602301e+00 5.400113e+00 7.255973e+00 5.826969e+00 4.306197e+00 5.701149e+00 3.753462e+00 6.189559e+00 4.833599e+00 3.607582e+00 4.008202e+00
<GCONST> 1.128990e+02
<STATE> 3
<MEAN> 25
 1.158358e+01 3.378411e+00 -4.061812e+00 -4.685800e+00 -1.419478e+01 2.419731e-01 -1.343626e+00 -1.000545e+01 -7.175385e+00 -1.267725e+01 -4.205910e+00 3.895760e+00 2.088021e-01 4.603913e-01 -1.065548e-01 -5.418491e-01 -1.019210e+00 2.665417e-01 8.783876e-01 1.961414e-01 -2.779312e-01 -5.165426e-01 -5.708410e-01 1.644429e-01 -2.018543e-02
<VARIANCE> 25
 1.004777e+01 2.838086e+01 1.659294e+01 2.473448e+01 7.679205e+01 2.811965e+01 2.645343e+01 4.568538e+01 5.523333e+01 5.328534e+01 5.929007e+01 2.486230e+01 3.698192e-01 1.013263e+00 8.918110e-01 1.144516e+00 2.411564e+00 1.686925e+00 1.436835e+00 1.844750e+00 1.991842e+00 1.645238e+00 1.420506e+00 1.814693e+00 6.375538e-01
<GCONST> 9.077556e+01
<STATE> 4
<MEAN> 25
 1.107488e+01 4.932074e+00 -2.801529e+00 -5.244389e+00 -8.905737e+00 -2.359802e+00 -1.062242e+00 -5.410714e+00 -1.076127e+01 -9.340040e+00 -2.722681e+00 2.497643e-02 -2.792397e-01 -3.001867e-01 -6.886702e-03 4.567074e-01 1.397233e+00 -1.312450e-01 -6.138616e-01 8.891100e-02 9.912659e-03 6.611828e-01 6.389482e-01 -3.029346e-01 -2.658148e-01
<VARIANCE> 25
 1.614968e+01 2.894401e+01 3.536207e+01 3.762939e+01 6.397789e+01 3.821052e+01 3.603796e+01 6.670930e+01 4.359270e+01 3.571881e+01 4.708260e+01 4.637534e+01 6.728645e-01 1.732792e+00 1.881947e+00 2.014634e+00 4.483894e+00 3.333512e+00 2.756435e+00 3.422639e+00 2.507660e+00 2.411233e+00 2.564529e+00 2.677125e+00 1.206954e+00
<GCONST> 1.002627e+02
<TRANSP> 5
 0.000000e+00 1.000000e+00 0.000000e+00 0.000000e+00 0.000000e+00
 0.000000e+00 7.406381e-01 2.593619e-01 0.000000e+00 0.000000e+00
 0.000000e+00 0.000000e+00 8.134567e-01 1.865433e-01 0.000000e+00
 0.000000e+00 0.000000e+00 0.000000e+00 8.816891e-01 1.183110e-01
 0.000000e+00 0.000000e+00 0.000000e+00 0.000000e+00 0.000000e+00
<ENDHMM>
~h "\340\262\213"
<BEGINHMM>
<NUMSTATES> 5
<STATE> 2
<MEAN> 25
 -1.177458e+00 2.727844e+00 3.979365e+00 8.442273e+00 5.117888e+00 -3.848445e+00 -3.917744e+00 1.869952e+00 -1.282521e+00 -2.014780e+00 -2.821395e+00 -4.645380e+00 1.673969e+00 -2.597543e-02 5.546847e-01 9.443548e-01 -9.168722e-01 -1.446099e+00 -1.570819e+00 -9.881950e-01 -5.312278e-01 -7.879829e-01 -7.996327e-01 -8.554326e-01 1.442613e+00
<VARIANCE> 25
 2.601710e+01 7.063083e+01 2.343730e+01 2.713624e+01 2.566239e+01 5.272784e+01 4.891169e+01 4.718691e+01 2.051368e+01 3.089995e+01 1.725174e+01 1.513713e+01 5.564077e+00 6.022236e+00 5.048596e+00 3.920950e+00 2.964296e+00 3.306268e+00 3.797190e+00 4.179524e+00 1.754114e+00 3.510152e+00 2.132011e+00 2.077780e+00 3.442482e+00
<GCONST> 1.029759e+02
<STATE> 3
<MEAN> 25
 1.007197e+01 -3.897456e+00 -2.192421e+00 1.153836e+01 -2.581254e+00 -1.177631e+01 -1.290827e+01 -8.476036e+00 1.464773e+00 -5.339701e+00 -3.574120e+00 -5.667972e+00 9.456709e-01 -5.415751e-01 -1.553546e+00 -4.056418e-02 -1.149412e+00 -7.176381e-02 -3.070947e-01 -2.175686e+00 1.076064e+00 -2.351344e-02 1.803735e-01 4.200301e-01 1.309016e+00
<VARIANCE> 25
 6.844652e+00 2.023008e+01 3.360179e+01 4.361576e+01 5.454515e+01 4.244894e+01 4.962019e+01 5.819268e+01 2.526263e+01 4.650393e+01 2.810014e+01 1.307005e+01 3.062219e+00 3.077995e+00 3.276352e+00 1.227205e+00 2.863994e+00 2.498402e+00 2.565966e+00 4.205759e+00 1.698570e+00 2.891653e+00 1.413270e+00 1.144008e+00 2.751065e+00
<GCONST> 9.792359e+01
<STATE> 4
<MEAN> 25
 3.687236e+00 -2.459327e+00 1.276012e+00 1.008031e+01 -3.081220e+00 -7.834169e+00 -1.128064e+01 -1.046332e+01 1.663391e+00 -4.260548e+00 -4.949352e+00 -5.286000e+00 -1.642712e+00 6.535524e-01 1.391679e+00 -7.612190e-01 1.301135e+00 1.001348e+00 4.574277e-01 1.492617e+00 -8.808253e-01 1.054534e-01 1.847528e-01 7.347763e-05 -1.012151e+00
<VARIANCE> 25
 6.602422e+01 1.885806e+01 6.124973e+01 5.244106e+01 6.035062e+01 5.815792e+01 5.008490e+01 5.186333e+01 2.661525e+01 2.658850e+01 2.390131e+01 1.937462e+01 8.470940e+00 2.140739e+00 5.915767e+00 3.927633e+00 6.490989e+00 1.853438e+00 6.916296e+00 4.812526e+00 2.366951e+00 1.202064e+00 2.311982e+00 2.486237e+00 5.427479e+00
<GCONST> 1.063961e+02
<TRANSP> 5
 0.000000e+00 1.000000e+00 0.000000e+00 0.000000e+00 0.000000e+00
 0.000000e+00 8.110957e-01 1.889043e-01 0.000000e+00 0.000000e+00
 0.000000e+00 0.000000e+00 7.789655e-01 2.210345e-01 0.000000e+00
 0.000000e+00 0.000000e+00 0.000000e+00 8.032728e-01 1.967273e-01
 0.000000e+00 0.000000e+00 0.000000e+00 0.000000e+00 0.000000e+00
<ENDHMM>
~h "\340\262\216"
<BEGINHMM>
<NUMSTATES> 5
<STATE> 2
<MEAN> 25
 5.561598e+00 -8.632132e+00 2.501427e+00 -7.204999e-02 -1.254736e+01 -1.652585e+01 -2.990251e+00 3.301154e+00 4.005921e+00 -6.802661e+00 -3.689005e+00 9.580716e-01 -1.060968e-01 3.343820e-01 1.293241e-01 1.112608e-01 1.138438e-01 -6.044376e-02 6.465482e-01 5.109701e-01 -1.400346e-01 -1.665358e-01 -1.993241e-01 -9.979847e-02 -3.409764e-01
<VARIANCE> 25
 7.546559e+00 2.823318e+01 2.199865e+01 1.465676e+01 3.771523e+01 2.900363e+01 3.470896e+01 2.904295e+01 2.351300e+01 2.472547e+01 2.235406e+01 1.854395e+01 3.085726e-01 1.995994e+00 1.118100e+00 1.388834e+00 1.915467e+00 1.482090e+00 1.418460e+00 1.316076e+00 1.639778e+00 1.035358e+00 1.135394e+00 8.693801e-01 1.064174e+00
<GCONST> 8.559178e+01
<STATE> 3
<MEAN> 25
 -8.353197e-01 -1.664536e+00 1.487025e+00 3.728550e+00 -6.495693e-01 -6.073153e+00 3.139890e+00 9.320734e+00 3.513885e+00 -2.527558e+00 -4.107637e+00 -4.505085e-01 -8.128127e-01 3.802313e-01 -2.335712e-01 3.511594e-02 8.744078e-01 1.160090e+00 5.340897e-02 1.367252e-01 2.087829e-01 8.650550e-01 8.079119e-01 3.595725e-01 -1.418836e+00
<VARIANCE> 25
 2.750689e+01 2.086671e+01 2.736977e+01 2.323941e+01 5.688076e+01 5.930082e+01 3.434582e+01 4.233975e+01 2.936023e+01 4.741080e+01 4.451183e+01 2.318262e+01 1.127930e+00 2.109295e+00 2.443017e+00 2.676938e+00 3.309733e+00 2.597454e+00 3.485888e+00 2.803857e+00 2.366538e+00 2.511385e+00 2.696269e+00 1.804360e+00 1.184739e+00
<GCONST> 9.904787e+01
<STATE> 4
<MEAN> 25
 -6.481468e+00 3.154674e+00 2.275961e-01 2.845224e+00 4.941320e+00 3.373162e+00 2.705565e+00 5.941517e+00 3.237100e+00 3.949761e+00 3.414935e+00 3.050279e+00 -4.181871e-02 1.016202e-01 6.663250e-02 8.409540e-02 7.081340e-02 1.138588e-01 7.931026e-03 -1.184880e-01 -7.444222e-02 2.351507e-02 5.366529e-02 3.028920e-02 -9.252808e-02
<VARIANCE> 25
 1.036637e+01 9.224018e+00 1.096260e+01 1.015048e+01 2.505267e+01 2.601678e+01 1.299302e+01 1.569074e+01 1.455993e+01 1.900596e+01 1.335512e+01 1.204935e+01 3.700250e-01 5.336784e-01 8.237271e-01 9.760574e-01 1.205162e+00 1.219820e+00 1.146617e+00 1.260053e+00 1.343240e+00 1.327635e+00 1.180518e+00 1.180647e+00 4.748130e-01
<GCONST> 7.679913e+01
<TRANSP> 5
 0.000000e+00 1.000000e+00 0.000000e+00 0.000000e+00 0.000000e+00
 0.000000e+00 8.737394e-01 1.262606e-01 0.000000e+00 0.000000e+00
 0.000000e+00 0.000000e+00 8.404320e-01 1.595680e-01 0.000000e+00
 0.000000e+00 0.000000e+00 0.000000e+00 8.985102e-01 1.014899e-01
 0.000000e+00 0.000000e+00 0.000000e+00 0.000000e+00 0.000000e+00
<ENDHMM>
~h "\340\262\217"
<BEGINHMM>
<NUMSTATES> 5
<STATE> 2
<MEAN> 25
 1.375902e+00 -1.331000e+00 6.807248e+00 4.270105e+00 -5.698350e+00 -7.140683e+00 -3.718740e+00 -7.706691e-01 -1.048161e+00 -4.976290e+00 -1.164882e+00 1.283353e-01 6.392807e-01 -1.817113e+00 1.108461e+00 -3.248930e-01 -2.970361e+00 -1.823021e+00 -6.136966e-01 -7.459323e-01 -1.278564e-01 -1.528336e+00 2.236240e-01 7.010170e-01 2.543799e+00
<VARIANCE> 25
 3.835564e+01 7.026267e+01 3.883757e+01 2.260098e+01 1.132332e+02 6.524895e+01 4.124370e+01 3.575042e+01 2.957104e+01 4.768280e+01 3.328003e+01 2.606799e+01 3.255722e+00 5.506176e+00 3.511741e+00 2.628572e+00 7.280264e+00 4.811739e+00 4.179319e+00 3.632175e+00 2.784186e+00 3.461567e+00 2.577748e+00 2.718277e+00 4.817481e+00
<GCONST> 1.080141e+02
<STATE> 3
<MEAN> 25
 4.248898e+00 -1.069848e+01 1.165420e+01 1.895843e+00 -2.080488e+01 -1.385659e+01 -4.226960e+00 -5.237374e+00 -1.157969e+00 -1.256266e+01 7.742115e-01 3.323201e+00 -8.071210e-02 6.006142e-02 5.031116e-02 -2.233511e-02 -2.130021e-01 -6.869911e-02 1.437382e-01 -1.679212e-01 -1.544045e-01 -2.030885e-01 2.332128e-01 -1.026454e-02 1.666266e-01
<VARIANCE> 25
 6.204494e+00 2.423084e+01 2.838331e+01 1.623234e+01 2.410910e+01 2.424596e+01 3.452640e+01 3.633620e+01 2.616837e+01 1.873734e+01 1.896791e+01 1.146807e+01 2.037455e-01 9.417850e-01 7.918504e-01 6.957328e-01 1.381429e+00 9.693668e-01 9.691228e-01 8.323917e-01 9.001992e-01 6.342706e-01 6.465993e-01 5.815445e-01 4.983220e-01
<GCONST> 7.777054e+01
<STATE> 4
<MEAN> 25
 3.610166e+00 -3.538120e+00 8.600695e+00 3.135510e+00 -1.361310e+01 -1.294322e+01 -2.301158e+00 -2.464782e+00 -3.318317e+00 -1.116391e+01 -5.452386e-01 1.384696e-01 -4.533852e-01 1.442026e+00 -9.678674e-02 2.605134e-01 2.045363e+00 7.092992e-01 1.407239e-01 5.281519e-01 -4.694528e-01 1.035706e+00 -3.959662e-01 -6.956658e-01 -1.565854e+00
<VARIANCE> 25
 1.483214e+01 3.349940e+01 3.963242e+01 2.354428e+01 5.313443e+01 3.331498e+01 4.966344e+01 5.669787e+01 4.014359e+01 3.189306e+01 3.398261e+01 1.531283e+01 1.728308e+00 1.714651e+00 2.033125e+00 2.376672e+00 3.257456e+00 2.664125e+00 2.781116e+00 2.765249e+00 2.925087e+00 2.124820e+00 2.484527e+00 1.553442e+00 1.743091e+00
<GCONST> 9.842065e+01
<TRANSP> 5
 0.000000e+00 1.000000e+00 0.000000e+00 0.000000e+00 0.000000e+00
 0.000000e+00 8.106299e-01 1.893701e-01 0.000000e+00 0.000000e+00
 0.000000e+00 0.000000e+00 8.989407e-01 1.010593e-01 0.000000e+00
 0.000000e+00 0.000000e+00 0.000000e+00 8.088247e-01 1.911753e-01
 0.000000e+00 0.000000e+00 0.000000e+00 0.000000e+00 0.000000e+00
<ENDHMM>
~h "\340\262\220"
<BEGINHMM>
<NUMSTATES> 5
<STATE> 2
<MEAN> 25
 5.040644e+00 -1.049512e+01 3.981964e+00 5.229515e-01 -1.146369e+01 -9.764246e+00 -5.046370e+00 -1.531822e+00 2.246445e+00 -8.125305e+00 -2.417602e+00 -1.718404e+00 -9.738989e-02 4.916257e-01 8.434117e-01 6.126108e-01 -4.885848e-01 -3.721031e-01 3.776649e-01 -2.282648e-01 -7.158914e-01 -6.479090e-01 1.044704e-01 3.348741e-01 -2.588345e-01
<VARIANCE> 25
 1.473149e+01 5.931333e+01 5.085680e+01 4.644329e+01 6.726524e+01 5.313424e+01 5.677281e+01 4.495456e+01 4.823241e+01 4.961287e+01 3.443304e+01 3.200365e+01 1.010890e+00 4.126233e+00 2.981602e+00 2.117868e+00 3.540710e+00 3.730916e+00 3.640255e+00 4.472236e+00 3.789555e+00 3.218529e+00 2.861944e+00 2.994332e+00 3.661061e+00
<GCONST> 1.058874e+02
<STATE> 3
<MEAN> 25
 1.151648e+00 1.244450e-01 6.267969e+00 4.411024e+00 -6.778066e+00 -4.849744e+00 4.654168e-01 -1.566838e+00 -3.370042e+00 -4.824160e+00 -2.768403e-01 2.192518e-01 -2.929777e-01 2.693040e-01 -9.991695e-01 1.070023e-01 1.019456e+00 8.323458e-01 4.578306e-02 8.204067e-01 3.623007e-01 8.171252e-01 -1.803184e-01 2.540505e-01 -1.539679e+00
<VARIANCE> 25
 1.732122e+01 2.251461e+01 2.637084e+01 2.775484e+01 8.346585e+01 6.542613e+01 4.710090e+01 3.453116e+01 4.939397e+01 3.735847e+01 1.155030e+01 1.899803e+01 6.631650e-01 1.311621e+00 2.560237e+00 2.678974e+00 2.997481e+00 2.315567e+00 1.538680e+00 1.994019e+00 2.509604e+00 2.467336e+00 1.871557e+00 2.596524e+00 2.222749e+00
<GCONST> 9.646716e+01
<STATE> 4
<MEAN> 25
 -4.514042e+00 1.386753e+00 1.552026e+00 3.409095e+00 2.040201e+00 1.537087e+00 2.571932e+00 4.100946e+00 1.924182e+00 1.510415e+00 2.889533e+00 2.580176e+00 6.084143e-02 3.560095e-02 -3.582461e-01 -8.382040e-02 2.436095e-01 1.458274e-01 -4.341820e-02 -1.561582e-03 -5.854482e-02 2.498140e-01 -8.151857e-02 -7.257567e-02 -3.561835e-02
<VARIANCE> 25
 2.794734e+01 2.092275e+01 3.346481e+01 1.558886e+01 7.454290e+01 4.381379e+01 2.428458e+01 2.941883e+01 2.120561e+01 3.693608e+01 1.686332e+01 1.629950e+01 1.978513e+00 2.390274e+00 2.941719e+00 1.873870e+00 2.520928e+00 1.089863e+00 1.736787e+00 1.531682e+00 1.479372e+00 1.661950e+00 1.287372e+00 1.674406e+00 1.860217e+00
<GCONST> 9.305587e+01
<TRANSP> 5
 0.000000e+00 1.000000e+00 0.000000e+00 0.000000e+00 0.000000e+00
 0.000000e+00 8.940402e-01 1.059598e-01 0.000000e+00 0.000000e+00
 0.000000e+00 0.000000e+00 4.089709e-01 5.910291e-01 0.000000e+00
 0.000000e+00 0.000000e+00 0.000000e+00 7.065740e-01 2.934260e-01
 0.000000e+00 0.000000e+00 0.000000e+00 0.000000e+00 0.000000e+00
<ENDHMM>
~h "\340\262\222"
<BEGINHMM>
<NUMSTATES> 5
<STATE> 2
<MEAN> 25
 4.182732e+00 2.976301e+00 -9.409356e-01 -3.948547e+00 -4.369956e+00 3.949429e-01 1.479124e+00 1.124322e-01 -2.813501e+00 -2.884743e+00 -1.827391e+00 -9.814186e-01 2.361165e+00 -5.182067e-01 -4.293330e-01 -1.506492e+00 -2.982059e+00 -1.176101e+00 1.101460e-03 -9.800582e-01 -9.200319e-01 -7.928625e-01 -6.052132e-01 -1.501454e-01 2.348168e+00
<VARIANCE> 25
 6.799082e+01 3.998580e+01 3.523170e+01 6.216409e+01 1.036184e+02 5.069645e+01 3.699009e+01 4.447414e+01 3.711259e+01 3.907351e+01 3.443495e+01 2.632296e+01 4.370296e+00 4.881863e+00 3.830375e+00 4.754198e+00 7.492501e+00 4.914228e+00 3.578957e+00 3.238404e+00 4.270547e+00 3.892033e+00 3.008866e+00 3.063219e+00 4.222858e+00
<GCONST> 1.100983e+02
<STATE> 3
<MEAN> 25
 1.390258e+01 -3.988374e+00 -4.954902e+00 -1.302970e+01 -1.693163e+01 -5.455810e-02 2.797224e+00 -5.293875e+00 -6.202062e+00 -6.121125e+00 -3.127601e+00 -2.459514e-01 -2.378057e-02 -9.257429e-01 -4.958490e-01 -1.596610e-01 3.517847e-01 4.875497e-01 5.995303e-03 -6.729953e-01 -4.905283e-03 4.698236e-02 4.014160e-01 4.914106e-01 7.577167e-01
<VARIANCE> 25
 7.701878e+00 3.013657e+01 3.040975e+01 2.865704e+01 5.910130e+01 4.780142e+01 3.217950e+01 3.310408e+01 2.594613e+01 2.157094e+01 2.708173e+01 3.503825e+01 5.681785e-01 3.080775e+00 1.676001e+00 1.833856e+00 4.935018e+00 2.269054e+00 3.059567e+00 2.647628e+00 1.907831e+00 2.071768e+00 2.370364e+00 1.653568e+00 1.798020e+00
<GCONST> 9.578165e+01
<STATE> 4
<MEAN> 25
 1.169212e+01 -6.102908e+00 -5.969162e+00 -9.714241e+00 -8.598159e+00 1.303399e+00 -1.330975e+00 -1.073539e+01 -3.926754e+00 -2.489337e+00 -7.815189e-01 1.286303e+00 -4.157882e-01 3.048475e-01 4.547679e-01 1.780639e+00 2.773420e+00 -6.662383e-01 -2.407740e+00 -6.891910e-01 8.569480e-01 7.025265e-01 1.231279e-01 -5.242329e-01 -4.720812e-01
<VARIANCE> 25
 1.503680e+01 3.080671e+01 3.303538e+01 3.046685e+01 5.164306e+01 4.583000e+01 4.253056e+01 6.063387e+01 3.509933e+01 3.807507e+01 3.850471e+01 3.650843e+01 3.696885e-01 2.478774e+00 2.411192e+00 1.572330e+00 2.811526e+00 2.463882e+00 5.265725e+00 2.789231e+00 3.001839e+00 3.042758e+00 3.020967e+00 2.111137e+00 1.333470e+00
<GCONST> 9.929017e+01
<TRANSP> 5
 0.000000e+00 1.000000e+00 0.000000e+00 0.000000e+00 0.000000e+00
 0.000000e+00 7.748588e-01 2.251413e-01 0.000000e+00 0.000000e+00
 0.000000e+00 0.000000e+00 8.092504e-01 1.907496e-01 0.000000e+00
 0.000000e+00 0.000000e+00 0.000000e+00 4.964179e-01 5.035821e-01
 0.000000e+00 0.000000e+00 0.000000e+00 0.000000e+00 0.000000e+00
<ENDHMM>
~h "\340\262\223"
<BEGINHMM>
<NUMSTATES> 5
<STATE> 2
<MEAN> 25
 6.255764e+00 -6.032471e-01 -3.246487e+00 -5.744348e+00 -8.157148e+00 -1.748537e-01 2.857415e-01 -1.590339e+00 -3.435567e+00 -5.644212e+00 -1.077680e-01 2.609630e+00 1.968046e+00 -4.582442e-01 -2.753762e-01 -1.443060e+00 -3.341157e+00 -6.960978e-02 9.520669e-02 -2.432924e-01 -1.058147e+00 -1.213996e+00 -5.896505e-01 8.429693e-02 1.858070e+00
<VARIANCE> 25
 6.394851e+01 4.623891e+01 4.327161e+01 6.605857e+01 1.234692e+02 3.693537e+01 3.978663e+01 4.363324e+01 3.440051e+01 4.111666e+01 3.266849e+01 2.660756e+01 3.519825e+00 5.912263e+00 4.103728e+00 5.185054e+00 8.064540e+00 5.079818e+00 3.621746e+00 2.349984e+00 2.932548e+00 3.648180e+00 3.327704e+00 2.043155e+00 4.846941e+00
<GCONST> 1.096159e+02
<STATE> 3
<MEAN> 25
 1.434252e+01 -2.114001e+00 -4.560136e+00 -1.240614e+01 -2.456615e+01 -1.124007e-02 3.480068e-01 -4.391781e+00 -7.500247e+00 -9.142397e+00 -2.110018e+00 1.439171e+00 -2.680029e-02 7.171497e-02 -2.481947e-01 -1.535871e-01 3.472516e-01 2.593924e-01 -6.777042e-02 -3.499405e-01 -9.986649e-02 -5.877304e-02 1.160792e-01 -2.509300e-02 1.325940e-01
<VARIANCE> 25
 5.015809e+00 1.850523e+01 2.563781e+01 1.608899e+01 5.352110e+01 3.194759e+01 2.458010e+01 2.356705e+01 2.156690e+01 2.365621e+01 2.941909e+01 4.793242e+01 2.225378e-01 1.325012e+00 1.007578e+00 9.766479e-01 3.995981e+00 1.206587e+00 2.229662e+00 1.830229e+00 1.142673e+00 1.392069e+00 2.008923e+00 1.352979e+00 5.037943e-01
<GCONST> 8.631252e+01
<STATE> 4
<MEAN> 25
 1.051781e+01 -3.169971e+00 -8.059883e+00 -8.111407e+00 -9.957495e+00 5.257118e-01 -4.589203e+00 -7.996870e+00 -4.097924e+00 -4.357145e+00 2.179011e+00 2.530227e+00 -8.046807e-01 9.057465e-02 7.853994e-02 1.564762e+00 3.205701e+00 -3.889357e-01 -2.016385e+00 -6.927497e-01 1.048111e+00 1.757432e+00 9.117840e-02 -7.970566e-01 -7.414690e-01
<VARIANCE> 25
 3.963285e+01 4.145449e+01 3.995472e+01 3.118624e+01 6.532955e+01 3.979573e+01 8.888145e+01 9.318996e+01 4.532891e+01 6.715554e+01 4.122702e+01 4.568308e+01 7.959114e-01 3.280957e+00 2.819683e+00 2.114437e+00 4.753290e+00 4.509975e+00 4.536082e+00 4.552296e+00 2.429847e+00 4.023950e+00 3.588628e+00 4.616742e+00 2.132169e+00
<GCONST> 1.076086e+02
<TRANSP> 5
 0.000000e+00 1.000000e+00 0.000000e+00 0.000000e+00 0.000000e+00
 0.000000e+00 8.110325e-01 1.889674e-01 0.000000e+00 0.000000e+00
 0.000000e+00 0.000000e+00 8.901373e-01 1.098626e-01 0.000000e+00
 0.000000e+00 0.000000e+00 0.000000e+00 7.131660e-01 2.868340e-01
 0.000000e+00 0.000000e+00 0.000000e+00 0.000000e+00 0.000000e+00
<ENDHMM>
~h "\340\262\224"
<BEGINHMM>
<NUMSTATES> 5
<STATE> 2
<MEAN> 25
 -7.516100e+00 1.827429e+00 2.372533e+00 1.541256e+00 2.992638e+00 4.620566e+00 3.847575e+00 4.957572e+00 4.475995e+00 4.895784e+00 2.211329e+00 2.630247e+00 -1.646863e-01 9.190276e-02 5.413221e-02 3.411662e-01 4.135494e-02 -3.579593e-02 5.991321e-02 9.917112e-02 1.621192e-01 1.378690e-01 1.843304e-01 1.473459e-01 -2.927815e-01
<VARIANCE> 25
 8.102535e+00 6.712520e+00 2.173102e+01 2.416052e+01 3.468714e+01 1.944947e+01 1.914838e+01 3.758266e+01 1.564631e+01 1.753230e+01 1.687700e+01 1.318555e+01 6.693953e-01 5.747464e-01 1.509963e+00 1.967461e+00 1.480706e+00 1.322974e+00 1.596986e+00 2.617040e+00 1.643938e+00 1.510588e+00 1.977847e+00 1.151839e+00 8.306482e-01
<GCONST> 8.410243e+01
<STATE> 3
<MEAN> 25
 -5.820045e+00 3.868082e+00 -1.825143e-01 4.300744e+00 5.534578e+00 3.952705e+00 3.367057e+00 5.351984e+00 3.864553e+00 3.698991e+00 3.698102e+00 3.326559e+00 8.319354e-03 -1.616950e-02 -1.829401e-02 -2.215540e-02 1.147912e-02 -8.618958e-03 -2.223622e-02 1.095862e-02 -2.169267e-02 -9.024031e-04 3.599033e-02 -1.116468e-02 3.648829e-02
<VARIANCE> 25
 2.370197e+00 2.002829e+00 2.871027e+00 4.121715e+00 5.658765e+00 5.911605e+00 7.549151e+00 1.084262e+01 8.966290e+00 8.755264e+00 9.066946e+00 9.118067e+00 9.891142e-02 2.106247e-01 3.017789e-01 4.937199e-01 5.274722e-01 5.914580e-01 8.369324e-01 8.689904e-01 9.944234e-01 8.214909e-01 9.903027e-01 9.596407e-01 2.150945e-01
<GCONST> 5.762030e+01
<STATE> 4
<MEAN> 25
 7.240460e+00 -4.725046e+00 -2.957715e+00 -6.642145e+00 -9.360240e+00 1.065269e+00 -6.559596e-01 -3.324736e+00 -5.401553e+00 -5.074413e+00 2.218534e+00 3.347086e+00 8.232050e-01 -2.315230e-01 -2.919314e-01 -1.386719e-01 -4.842648e-01 -4.100876e-01 -3.659728e-01 -9.397904e-01 -7.354400e-01 -3.116463e-01 -2.496960e-01 4.221907e-02 1.171795e+00
<VARIANCE> 25
 9.862427e+01 5.656670e+01 3.878902e+01 7.743863e+01 1.430522e+02 2.321949e+01 3.171739e+01 6.372050e+01 6.585182e+01 6.048579e+01 3.878259e+01 2.547772e+01 3.608735e+00 6.138441e+00 2.522403e+00 5.189189e+00 8.117685e+00 1.729854e+00 2.696104e+00 3.098525e+00 2.456142e+00 4.276855e+00 2.743970e+00 2.470281e+00 6.906187e+00
<GCONST> 1.101189e+02
<TRANSP> 5
 0.000000e+00 1.000000e+00 0.000000e+00 0.000000e+00 0.000000e+00
 0.000000e+00 9.155145e-01 8.448548e-02 0.000000e+00 0.000000e+00
 0.000000e+00 0.000000e+00 9.680548e-01 3.194526e-02 0.000000e+00
 0.000000e+00 0.000000e+00 0.000000e+00 9.399545e-01 6.004560e-02
 0.000000e+00 0.000000e+00 0.000000e+00 0.000000e+00 0.000000e+00
<ENDHMM>
~h "\340\263\240"
<BEGINHMM>
<NUMSTATES> 5
<STATE> 2
<MEAN> 25
 3.363246e-09 -5.073974e-09 -2.667070e-08 -7.742742e-09 -4.152962e-08 5.464628e-08 -2.856819e-08 -3.137197e-08 -1.315223e-08 -1.457514e-08 1.178106e-08 -4.705634e-08 -5.036812e-04 -4.192874e-04 1.220702e-04 -4.396494e-04 -3.006390e-04 7.270148e-05 1.006791e-04 -4.520885e-04 -6.791297e-04 -7.117605e-04 -2.317067e-04 -1.422502e-04 3.583877e-03
<VARIANCE> 25
 7.771582e+01 4.669402e+01 4.885701e+01 4.639305e+01 7.525224e+01 6.131878e+01 4.945510e+01 6.535645e+01 4.383388e+01 5.195151e+01 3.898161e+01 3.388782e+01 2.163800e+00 2.160548e+00 2.178321e+00 2.195785e+00 3.386122e+00 2.583580e+00 2.687976e+00 2.741140e+00 2.512795e+00 2.406658e+00 2.020564e+00 1.918339e+00 2.693773e+00
<GCONST> 1.047231e+02
<STATE> 3
<MEAN> 25
 3.363246e-09 -5.073974e-09 -2.667070e-08 -7.742742e-09 -4.152962e-08 5.464628e-08 -2.856819e-08 -3.137197e-08 -1.315223e-08 -1.457514e-08 1.178106e-08 -4.705634e-08 -5.036812e-04 -4.192874e-04 1.220702e-04 -4.396494e-04 -3.006390e-04 7.270148e-05 1.006791e-04 -4.520885e-04 -6.791297e-04 -7.117605e-04 -2.317067e-04 -1.422502e-04 3.583877e-03
<VARIANCE> 25
 7.771582e+01 4.669402e+01 4.885701e+01 4.639305e+01 7.525224e+01 6.131878e+01 4.945510e+01 6.535645e+01 4.383388e+01 5.195151e+01 3.898161e+01 3.388782e+01 2.163800e+00 2.160548e+00 2.178321e+00 2.195785e+00 3.386122e+00 2.583580e+00 2.687976e+00 2.741140e+00 2.512795e+00 2.406658e+00 2.020564e+00 1.918339e+00 2.693773e+00
<GCONST> 1.047231e+02
<STATE> 4
<MEAN> 25
 3.363246e-09 -5.073974e-09 -2.667070e-08 -7.742742e-09 -4.152962e-08 5.464628e-08 -2.856819e-08 -3.137197e-08 -1.315223e-08 -1.457514e-08 1.178106e-08 -4.705634e-08 -5.036812e-04 -4.192874e-04 1.220702e-04 -4.396494e-04 -3.006390e-04 7.270148e-05 1.006791e-04 -4.520885e-04 -6.791297e-04 -7.117605e-04 -2.317067e-04 -1.422502e-04 3.583877e-03
<VARIANCE> 25
 7.771582e+01 4.669402e+01 4.885701e+01 4.639305e+01 7.525224e+01 6.131878e+01 4.945510e+01 6.535645e+01 4.383388e+01 5.195151e+01 3.898161e+01 3.388782e+01 2.163800e+00 2.160548e+00 2.178321e+00 2.195785e+00 3.386122e+00 2.583580e+00 2.687976e+00 2.741140e+00 2.512795e+00 2.406658e+00 2.020564e+00 1.918339e+00 2.693773e+00
<GCONST> 1.047231e+02
<TRANSP> 5
 0.000000e+00 1.000000e+00 0.000000e+00 0.000000e+00 0.000000e+00
 0.000000e+00 6.000000e-01 4.000000e-01 0.000000e+00 0.000000e+00
 0.000000e+00 0.000000e+00 6.000000e-01 4.000000e-01 0.000000e+00
 0.000000e+00 0.000000e+00 0.000000e+00 7.000000e-01 3.000000e-01
 0.000000e+00 0.000000e+00 0.000000e+00 0.000000e+00 0.000000e+00
<ENDHMM>
~h "\340\262\240\340\263\215"
<BEGINHMM>
<NUMSTATES> 5
<STATE> 2
<MEAN> 25
 -6.571358e+00 -3.100220e+00 1.662862e+00 1.667554e+00 5.936909e+00 2.955520e+00 2.384008e+00 5.752282e+00 3.473831e+00 2.959037e+00 2.399449e+00 3.744595e+00 -5.499300e-01 1.796887e-01 -3.399156e-01 1.222594e+00 5.803379e-01 -3.500084e-01 -2.358352e-02 2.776889e-01 4.844596e-01 1.018083e+00 5.847217e-01 -4.283872e-02 -7.723746e-01
<VARIANCE> 25
 1.395112e+01 2.713245e+01 7.830887e+01 5.834319e+01 4.802526e+01 4.705503e+01 3.883187e+01 1.455932e+01 2.218736e+01 1.835654e+01 9.644442e+00 1.281153e+01 1.675681e+00 4.361472e+00 9.792058e+00 9.694457e+00 5.505957e+00 4.188692e+00 2.586133e+00 3.817512e+00 2.464068e+00 2.087158e+00 3.115842e+00 2.276483e+00 2.465622e+00
<GCONST> 1.016663e+02
<STATE> 3
<MEAN> 25
 -6.024623e+00 1.453945e+00 1.392861e-01 3.756991e+00 5.927945e+00 1.819469e+00 2.632332e+00 6.399071e+00 3.278409e+00 4.898888e+00 2.882839e+00 3.738723e+00 2.611648e-01 3.685205e-01 -5.361814e-01 4.381870e-01 8.041182e-02 -3.008858e-01 1.696062e-01 1.566730e-02 -1.665077e-01 -6.778179e-02 1.464421e-01 4.212147e-01 -5.240531e-01
<VARIANCE> 25
 3.107154e+00 5.136241e+00 7.336578e+00 9.456346e+00 2.313098e+01 5.814980e+00 6.664711e+00 7.121861e+00 1.645581e+01 5.974705e+00 4.659640e+00 5.607132e+00 8.163925e-01 8.974367e-01 1.759026e+00 1.013620e+00 2.385125e+00 8.814319e-01 1.049891e+00 1.399468e+00 1.699378e+00 4.262556e-01 5.537950e-01 4.114707e-01 8.639101e-01
<GCONST> 6.901665e+01
<STATE> 4
<MEAN> 25
 -5.201279e+00 3.366571e+00 -2.065672e+00 6.491325e+00 5.940106e+00 1.181120e+00 3.722720e+00 5.451186e+00 3.423151e+00 4.960709e+00 4.081874e+00 4.846849e+00 1.395161e-03 -4.090887e-03 -1.254346e-02 2.597649e-03 -4.673465e-02 -1.243361e-02 3.409945e-02 -5.260522e-02 1.092380e-02 2.717057e-02 1.735530e-02 2.300340e-02 2.670476e-02
<VARIANCE> 25
 7.771582e-01 2.392573e+00 2.869323e+00 3.890517e+00 5.869026e+00 6.012889e+00 5.664842e+00 8.065485e+00 8.004489e+00 8.109432e+00 7.860156e+00 7.510997e+00 9.321659e-02 2.371183e-01 3.292551e-01 4.967467e-01 4.978713e-01 7.418920e-01 6.688156e-01 9.190180e-01 8.976289e-01 1.047785e+00 8.491192e-01 5.969406e-01 2.416436e-01
<GCONST> 5.535007e+01
<TRANSP> 5
 0.000000e+00 1.000000e+00 0.000000e+00 0.000000e+00 0.000000e+00
 0.000000e+00 8.174652e-01 1.825348e-01 0.000000e+00 0.000000e+00
 0.000000e+00 0.000000e+00 8.038102e-01 1.961898e-01 0.000000e+00
 0.000000e+00 0.000000e+00 0.000000e+00 9.729969e-01 2.700310e-02
 0.000000e+00 0.000000e+00 0.000000e+00 0.000000e+00 0.000000e+00
<ENDHMM>
~h "\340\262\230\340\263\215"
<BEGINHMM>
<NUMSTATES> 5
<STATE> 2
<MEAN> 25
 -4.559058e+00 4.135499e+00 -4.692445e-01 2.825385e+00 4.460564e+00 4.152050e+00 1.882887e+00 2.807642e+00 3.096213e+00 3.622026e+00 4.090012e+00 3.103769e+00 -1.411063e-02 -1.847117e-03 1.412858e-02 4.337416e-02 9.762836e-04 -3.244214e-03 -1.784617e-02 -8.734211e-03 9.243136e-03 6.676367e-03 1.799086e-02 8.964998e-03 -1.081418e-02
<VARIANCE> 25
 8.427364e-01 1.744875e+00 2.515868e+00 4.473353e+00 4.317878e+00 6.551906e+00 6.737565e+00 7.870153e+00 7.654402e+00 7.821634e+00 7.882717e+00 8.206983e+00 6.821828e-02 1.755477e-01 2.293027e-01 3.690244e-01 4.850697e-01 6.603242e-01 7.434824e-01 8.736960e-01 8.460803e-01 8.173077e-01 9.130638e-01 8.825315e-01 1.817976e-01
<GCONST> 5.357434e+01
<STATE> 3
<MEAN> 25
 -4.615322e+00 3.438149e+00 -8.852976e-01 2.716628e+00 3.650137e+00 4.519613e+00 2.418621e+00 2.695247e+00 3.356869e+00 4.404937e+00 4.209688e+00 2.801627e+00 3.537869e-02 4.435218e-02 2.835797e-03 -3.766943e-02 1.140169e-02 -3.065690e-02 -3.358380e-02 -2.032874e-02 2.565452e-02 -6.084288e-02 -1.089531e-01 -3.916200e-02 1.859278e-02
<VARIANCE> 25
 1.975380e+00 3.067403e+00 3.318966e+00 5.375958e+00 6.209236e+00 5.788759e+00 7.345408e+00 9.633986e+00 9.170038e+00 9.236645e+00 9.577336e+00 9.031093e+00 8.850256e-02 1.341182e-01 3.371325e-01 4.947663e-01 5.885460e-01 5.859273e-01 9.113065e-01 9.909984e-01 8.551531e-01 9.792035e-01 1.219668e+00 7.504486e-01 3.122380e-02
<GCONST> 5.624677e+01
<STATE> 4
<MEAN> 25
 -3.914738e+00 2.203391e+00 1.496838e+00 3.689968e+00 2.761282e+00 2.834430e+00 2.352311e+00 3.007463e+00 2.193820e+00 1.638686e+00 2.061713e+00 2.000052e+00 9.834715e-01 6.144540e-01 6.203828e-01 3.381522e-01 -6.343260e-01 -1.070303e+00 -3.977075e-01 -4.787001e-01 -1.207881e+00 -1.614588e+00 -1.030647e+00 -4.825224e-01 4.893228e-01
<VARIANCE> 25
 4.846371e+00 2.651382e+01 2.189013e+01 1.129244e+01 1.738757e+01 1.215819e+01 1.577666e+01 1.203220e+01 1.239432e+01 1.551728e+01 6.753505e+00 1.030091e+01 1.835468e+00 5.512617e+00 2.277918e+00 7.588066e-01 2.748811e+00 3.130115e+00 2.238826e+00 1.556597e+00 3.041008e+00 3.969358e+00 2.355294e+00 1.132667e+00 1.178407e+00
<GCONST> 8.631284e+01
<TRANSP> 5
 0.000000e+00 1.000000e+00 0.000000e+00 0.000000e+00 0.000000e+00
 0.000000e+00 9.810550e-01 1.894506e-02 0.000000e+00 0.000000e+00
 0.000000e+00 0.000000e+00 9.207707e-01 7.922935e-02 0.000000e+00
 0.000000e+00 0.000000e+00 0.000000e+00 7.561093e-01 2.438907e-01
 0.000000e+00 0.000000e+00 0.000000e+00 0.000000e+00 0.000000e+00
<ENDHMM>
~h "\340\262\241\340\263\215"
<BEGINHMM>
<NUMSTATES> 5
<STATE> 2
<MEAN> 25
 9.669621e+00 -3.830920e+00 -5.431814e+00 3.183675e+00 -6.520900e-01 -6.152961e+00 -1.012711e+01 -7.834634e+00 -9.330885e-01 -2.434746e+00 -4.616425e+00 -4.911917e-01 -1.869595e-01 -7.347500e-02 3.016547e-01 6.076370e-01 3.191355e-01 -3.927238e-02 -9.789861e-01 -2.969357e-01 3.402123e-01 7.182189e-02 2.137116e-01 -2.535595e-01 -1.099832e-01
<VARIANCE> 25
 3.123296e+01 5.230077e+01 8.310954e+01 5.035808e+01 7.775138e+01 8.375706e+01 7.904630e+01 6.224498e+01 4.605814e+01 4.309201e+01 2.990723e+01 5.156876e+01 2.207358e+00 7.850887e+00 6.058074e+00 6.044526e+00 1.593541e+01 6.930175e+00 7.325175e+00 6.001148e+00 5.390450e+00 5.140931e+00 4.280682e+00 6.620067e+00 8.829158e+00
<GCONST> 1.176863e+02
<STATE> 3
<MEAN> 25
 8.815406e+00 -5.124789e+00 -2.006376e+00 5.025748e+00 -5.424758e+00 -9.366699e+00 -8.273131e+00 -6.333641e+00 7.779359e-01 -4.862119e+00 -2.416231e+00 2.795013e-01 -4.365314e-01 8.758252e-01 6.760644e-01 -3.136469e-01 -5.393595e-03 4.620585e-01 7.745449e-01 1.232858e-01 -5.689279e-01 -3.997138e-01 2.126805e-01 3.239750e-01 -5.469763e-01
<VARIANCE> 25
 2.176509e+01 4.708149e+01 6.389419e+01 6.810970e+01 9.749902e+01 8.592020e+01 4.903519e+01 7.215071e+01 6.157711e+01 3.584703e+01 3.487916e+01 5.555814e+01 1.991250e+00 4.910093e+00 4.476339e+00 4.816818e+00 1.081605e+01 5.610058e+00 3.867712e+00 5.515721e+00 4.453975e+00 3.793084e+00 2.750006e+00 5.258146e+00 5.837369e+00
<GCONST> 1.135104e+02
<STATE> 4
<MEAN> 25
 9.524314e+00 3.145015e+00 -6.166515e-01 -1.962003e+00 -5.579830e+00 -1.607011e+00 -2.307697e+00 -5.396334e+00 -6.582079e+00 -6.367949e+00 -4.088549e+00 1.392714e-01 -5.054965e-01 4.926799e-01 5.427308e-01 -1.949216e-01 9.185451e-02 -3.458017e-02 6.896471e-01 4.282103e-01 4.945103e-02 1.762772e-01 -2.995006e-01 -5.091913e-01 -3.974265e-01
<VARIANCE> 25
 3.003630e+01 3.960220e+01 5.561865e+01 1.218282e+02 1.479189e+02 5.195116e+01 4.089522e+01 6.644872e+01 4.352935e+01 4.036897e+01 3.857122e+01 4.899984e+01 7.978963e-01 1.825979e+00 2.132910e+00 2.088674e+00 4.065117e+00 2.642483e+00 2.870751e+00 4.421514e+00 2.098098e+00 1.799900e+00 3.310447e+00 2.537459e+00 1.512573e+00
<GCONST> 1.043760e+02
<TRANSP> 5
 0.000000e+00 1.000000e+00 0.000000e+00 0.000000e+00 0.000000e+00
 0.000000e+00 6.520359e-01 3.479641e-01 0.000000e+00 0.000000e+00
 0.000000e+00 0.000000e+00 6.021799e-01 3.978201e-01 0.000000e+00
 0.000000e+00 0.000000e+00 0.000000e+00 7.076972e-01 2.923027e-01
 0.000000e+00 0.000000e+00 0.000000e+00 0.000000e+00 0.000000e+00
<ENDHMM>
~h "\340\262\262\340\263\215"
<BEGINHMM>
<NUMSTATES> 5
<STATE> 2
<MEAN> 25
 6.192785e+00 -2.201272e+00 2.671197e+00 2.806440e+00 -3.284068e+00 -9.170602e+00 -1.075310e+01 -9.148518e+00 -1.620227e+00 3.042634e-01 -6.015493e+00 -5.701538e+00 -1.501984e-01 1.402187e+00 1.394914e+00 1.335263e+00 9.125785e-01 7.556300e-01 -6.558579e-01 -9.386991e-01 -1.139844e+00 -7.447494e-01 -8.712744e-01 -3.093302e-01 -1.298266e+00
<VARIANCE> 25
 1.125048e+01 3.727729e+01 4.138412e+01 3.151330e+01 4.282071e+01 3.796227e+01 3.899873e+01 3.752483e+01 3.635045e+01 3.370023e+01 4.757922e+01 2.585148e+01 6.949745e-01 2.323715e+00 1.651380e+00 2.668151e+00 3.425107e+00 2.710920e+00 3.331697e+00 3.636721e+00 3.637700e+00 2.811611e+00 2.604885e+00 2.237727e+00 1.626524e+00
<GCONST> 9.932632e+01
<STATE> 3
<MEAN> 25
 4.252592e+00 7.358437e-01 9.784721e+00 5.553128e+00 -3.782715e+00 -4.006941e+00 -1.196015e+01 -9.840109e+00 -2.951418e+00 -3.068997e+00 -9.566238e+00 -6.942413e+00 -1.394663e-01 -2.281885e-01 1.355401e-01 -2.808357e-01 -5.156277e-01 -1.080212e-01 2.000301e-01 4.638557e-01 -8.094047e-02 -4.734534e-01 8.213123e-01 3.165639e-01 1.312977e-01
<VARIANCE> 25
 7.940337e+00 1.930066e+01 3.696483e+01 2.102186e+01 3.687128e+01 3.331096e+01 3.424458e+01 3.794361e+01 2.873539e+01 2.522019e+01 4.740121e+01 2.748173e+01 3.342932e-01 9.625288e-01 1.665030e+00 1.305678e+00 1.565678e+00 3.692216e+00 2.136163e+00 2.591628e+00 1.993616e+00 1.869868e+00 2.245763e+00 2.731897e+00 1.015166e+00
<GCONST> 9.192885e+01
<STATE> 4
<MEAN> 25
 4.096066e+00 -1.159055e+00 5.856231e+00 3.153801e+00 -4.654662e+00 -6.869734e+00 -9.391676e+00 -7.005875e+00 -3.335157e+00 -3.774239e+00 -3.357049e+00 -3.397567e+00 -5.657230e-02 -5.735630e-01 -7.054129e-01 -8.144259e-01 -9.268090e-01 -7.907820e-01 7.720317e-01 7.365689e-01 1.923581e-01 -7.381877e-02 7.613539e-01 1.107619e+00 6.882284e-01
<VARIANCE> 25
 2.392155e+01 3.116177e+01 5.442064e+01 2.349413e+01 6.169851e+01 5.694372e+01 5.065065e+01 6.442269e+01 4.405468e+01 3.358145e+01 4.595327e+01 4.131636e+01 6.040775e-01 2.354077e+00 2.115702e+00 1.773453e+00 3.545059e+00 5.553964e+00 2.933692e+00 4.133284e+00 3.502597e+00 2.599312e+00 2.680873e+00 3.861206e+00 2.257412e+00
<GCONST> 1.033273e+02
<TRANSP> 5
 0.000000e+00 1.000000e+00 0.000000e+00 0.000000e+00 0.000000e+00
 0.000000e+00 6.595930e-01 3.404070e-01 0.000000e+00 0.000000e+00
 0.000000e+00 0.000000e+00 7.039915e-01 2.960085e-01 0.000000e+00
 0.000000e+00 0.000000e+00 0.000000e+00 2.651527e-01 7.348474e-01
 0.000000e+00 0.000000e+00 0.000000e+00 0.000000e+00 0.000000e+00
<ENDHMM>
~h "\340\262\252\340\263\215"
<BEGINHMM>
<NUMSTATES> 5
<STATE> 2
<MEAN> 25
 -4.363082e+00 1.857906e+00 -2.224740e+00 -1.855693e-01 3.096531e+00 3.160471e+00 2.000272e+00 4.985681e+00 1.931298e+00 4.765387e+00 5.008512e+00 2.853500e+00 -2.342314e-01 -5.680726e-01 1.354426e-01 -3.085874e-01 1.312442e-01 -3.761759e-01 -4.215253e-01 4.849931e-02 -7.526261e-02 -1.235426e-01 -9.122044e-02 -1.343517e-01 6.385785e-01
<VARIANCE> 25
 2.233707e+01 2.355298e+01 2.874294e+01 2.642607e+01 2.811527e+01 1.902891e+01 2.520138e+01 2.250117e+01 2.190357e+01 2.863501e+01 2.656969e+01 2.037976e+01 2.510566e+00 2.338658e+00 2.113369e+00 2.230846e+00 2.855870e+00 2.020581e+00 2.506783e+00 3.210432e+00 2.867923e+00 3.874173e+00 3.045991e+00 2.246416e+00 6.831048e+00
<GCONST> 9.761496e+01
<STATE> 3
<MEAN> 25
 -1.262606e+00 -5.673859e-01 6.739002e-01 -1.219137e+00 2.111447e+00 -3.716696e-01 -2.299914e+00 4.827563e-01 -2.522483e+00 -2.012420e+00 -1.859916e-01 -2.344681e-01 3.241023e+00 -1.259230e+00 -5.140623e-01 -1.700745e+00 -2.453266e+00 -1.360696e+00 -1.221067e+00 -2.119447e+00 -1.853429e+00 -2.374011e+00 -1.541243e+00 -7.893115e-01 4.970896e+00
<VARIANCE> 25
 3.118943e+01 4.319021e+01 2.275958e+01 3.598362e+01 5.082748e+01 2.650498e+01 2.619251e+01 3.247686e+01 2.941982e+01 3.830973e+01 2.515411e+01 1.951124e+01 4.507762e+00 5.521872e+00 4.069848e+00 4.409691e+00 7.471148e+00 3.590166e+00 4.686432e+00 4.110722e+00 3.829062e+00 4.847320e+00 4.292865e+00 3.030465e+00 5.253892e+00
<GCONST> 1.065309e+02
<STATE> 4
<MEAN> 25
 7.201474e+00 2.335032e-01 -3.158392e+00 -4.437112e+00 -7.797002e+00 1.254683e-01 -5.306783e-01 -3.998932e+00 -5.412907e+00 -5.878294e+00 -2.194354e+00 2.049879e+00 5.508623e-01 -6.304218e-01 -4.610130e-01 -3.610947e-01 -4.005273e-01 -2.214098e-01 -1.335796e-01 -3.355361e-01 -7.955424e-03 2.846344e-01 2.196945e-01 -1.093668e-01 1.009276e+00
<VARIANCE> 25
 4.907823e+01 6.180919e+01 3.625138e+01 4.497889e+01 1.111870e+02 3.232238e+01 3.936131e+01 6.036944e+01 3.182362e+01 6.254622e+01 4.843553e+01 3.767122e+01 5.942126e+00 4.888742e+00 3.826857e+00 3.864971e+00 1.219373e+01 3.824664e+00 3.932804e+00 5.926704e+00 3.415144e+00 4.419018e+00 3.869489e+00 4.136107e+00 1.086303e+01
<GCONST> 1.133531e+02
<TRANSP> 5
 0.000000e+00 1.000000e+00 0.000000e+00 0.000000e+00 0.000000e+00
 0.000000e+00 7.897893e-01 2.102107e-01 0.000000e+00 0.000000e+00
 0.000000e+00 0.000000e+00 4.271310e-01 5.728690e-01 0.000000e+00
 0.000000e+00 0.000000e+00 0.000000e+00 7.511119e-01 2.488881e-01
 0.000000e+00 0.000000e+00 0.000000e+00 0.000000e+00 0.000000e+00
<ENDHMM>
~h "sil"
<BEGINHMM>
<NUMSTATES> 5
<STATE> 2
<MEAN> 25
 -3.379736e+00 3.106930e+00 -7.844993e-01 1.824190e+00 3.840669e+00 2.116431e+00 6.973486e-01 4.015238e+00 1.670161e+00 2.782983e+00 2.051649e+00 1.849824e+00 -1.317897e-02 6.914288e-03 -4.081451e-02 5.460260e-03 -4.961566e-03 1.577157e-02 1.772762e-02 -9.805044e-03 1.266349e-02 2.746289e-02 2.887342e-02 2.293477e-02 -6.518213e-03
<VARIANCE> 25
 2.725508e+01 5.446371e+00 7.388412e+00 6.936215e+00 8.765974e+00 1.232013e+01 1.186089e+01 1.372068e+01 1.332810e+01 1.288964e+01 1.425606e+01 1.085973e+01 1.264694e-01 2.363876e-01 3.292398e-01 4.325078e-01 5.452377e-01 6.080132e-01 6.896873e-01 7.737072e-01 7.391339e-01 8.476796e-01 7.793812e-01 6.811991e-01 1.000732e-01
<GCONST> 6.425272e+01
<STATE> 3
~s "silst"
<STATE> 4
<MEAN> 25
 -5.267563e+00 1.330742e+00 9.966037e-01 7.572813e-01 4.059032e+00 2.524058e+00 1.288411e+00 4.603718e+00 1.969255e+00 2.170792e+00 2.075801e+00 2.962174e+00 3.881935e-02 -1.966348e-01 2.248945e-01 -8.675901e-02 -2.111706e-01 -1.204735e-01 -1.791762e-01 -1.942632e-01 -1.217333e-01 -2.437467e-01 -1.666972e-01 -1.132231e-01 6.244803e-01
<VARIANCE> 25
 4.810869e+01 2.740991e+01 2.805864e+01 3.774983e+01 6.838390e+01 3.562806e+01 3.317725e+01 4.599520e+01 2.820037e+01 4.045614e+01 2.296766e+01 1.964189e+01 2.468237e+00 2.846349e+00 3.303572e+00 2.757008e+00 3.433142e+00 2.861101e+00 3.079821e+00 2.943280e+00 2.491989e+00 2.821309e+00 2.233831e+00 1.857540e+00 7.108581e+00
<GCONST> 1.023589e+02
<TRANSP> 5
 0.000000e+00 1.000000e+00 0.000000e+00 0.000000e+00 0.000000e+00
 0.000000e+00 8.585219e-01 9.878498e-02 4.269312e-02 0.000000e+00
 0.000000e+00 0.000000e+00 9.804817e-01 1.951827e-02 0.000000e+00
 0.000000e+00 1.521312e-01 0.000000e+00 7.087365e-01 1.391322e-01
 0.000000e+00 0.000000e+00 0.000000e+00 0.000000e+00 0.000000e+00
<ENDHMM>
~h "\340\262\242\340\263\215"
<BEGINHMM>
<NUMSTATES> 5
<STATE> 2
<MEAN> 25
 5.678442e+00 4.673691e+00 4.220233e+00 4.345231e+00 -2.087373e+00 -3.992699e+00 -3.183192e+00 -1.073944e+00 -4.037192e+00 -5.417904e+00 -5.247188e+00 -5.279332e+00 1.297890e+00 -4.171486e-01 -4.901161e-01 -5.923307e-01 -9.750313e-01 -1.323437e+00 -5.326883e-01 -1.685338e-01 1.209179e-01 -4.351218e-01 -4.479335e-01 -5.865656e-01 1.923255e+00
<VARIANCE> 25
 3.518483e+01 6.783234e+01 4.103710e+01 1.918931e+01 4.871263e+01 4.029909e+01 3.118403e+01 2.119806e+01 7.921614e+01 4.887616e+01 2.531100e+01 2.099757e+01 4.654692e+00 6.616747e+00 6.102071e+00 2.573881e+00 4.148448e+00 3.422874e+00 3.952614e+00 2.247925e+00 1.017801e+01 7.301911e+00 4.275849e+00 2.732835e+00 2.735747e+00
<GCONST> 1.077988e+02
<STATE> 3
<MEAN> 25
 9.474350e+00 -4.006287e+00 -6.664201e+00 -4.495302e+00 -3.754143e+00 -7.076195e+00 -2.017760e-02 -6.730519e-01 9.140599e-01 -5.097364e+00 -4.207222e+00 -4.969289e+00 4.879237e-01 2.504650e-02 3.712143e-01 -4.192832e-01 3.083562e-01 1.770171e+00 1.846190e+00 -2.825888e-01 -2.259405e+00 5.412998e-03 8.613411e-02 8.562890e-01 -1.579804e-01
<VARIANCE> 25
 6.808520e+00 5.424982e+01 1.509764e+01 2.522653e+01 1.675037e+01 2.854983e+01 6.267315e+01 1.550224e+01 5.843976e+01 7.421901e+00 2.144868e+00 1.987505e+01 1.459787e-01 5.018996e-01 6.375680e-01 6.954600e-01 6.417606e-01 1.804719e+00 1.199563e+00 3.585057e+00 2.187279e+00 1.859018e+00 1.322571e+00 1.402297e+00 1.113689e+00
<GCONST> 8.098184e+01
<STATE> 4
<MEAN> 25
 9.817369e+00 -6.422955e-01 -3.962239e+00 -2.670726e+00 -4.289289e+00 -3.672989e+00 9.783478e-01 1.221174e+00 -2.564730e+00 -4.080866e+00 -4.610185e+00 -2.894069e+00 -1.764596e-01 9.545144e-01 1.526432e+00 5.147463e-01 1.191798e+00 2.346859e+00 3.839479e-01 -5.386916e-01 -1.643091e+00 1.577697e-01 2.412054e-01 3.705001e-01 -4.921531e-01
<VARIANCE> 25
 4.578805e+00 7.514609e+01 2.826235e+01 3.002068e+01 2.904533e+01 4.431834e+01 4.198104e+01 4.932856e+01 1.822538e+01 2.136303e+01 5.942148e+00 4.109684e+00 1.885534e+00 7.292337e-01 3.402333e+00 1.819032e+00 9.716765e-01 1.469774e+00 2.687546e+00 2.398606e+00 2.006377e+00 7.593262e-01 1.861424e+00 2.657133e+00 2.089154e+00
<GCONST> 8.960456e+01
<TRANSP> 5
 0.000000e+00 1.000000e+00 0.000000e+00 0.000000e+00 0.000000e+00
 0.000000e+00 8.922206e-01 1.077795e-01 0.000000e+00 0.000000e+00
 0.000000e+00 0.000000e+00 3.938785e-01 6.061215e-01 0.000000e+00
 0.000000e+00 0.000000e+00 0.000000e+00 1.038897e-01 8.961102e-01
 0.000000e+00 0.000000e+00 0.000000e+00 0.000000e+00 0.000000e+00
<ENDHMM>
~h "\340\262\263\340\263\215"
<BEGINHMM>
<NUMSTATES> 5
<STATE> 2
<MEAN> 25
 1.094069e+01 -7.326344e+00 -8.301311e+00 1.608961e+00 -1.108613e+00 -1.097166e+01 -1.350170e+01 -6.612608e+00 2.938504e+00 -1.365798e+00 -5.202606e+00 1.248056e+00 -3.105696e-01 8.980497e-01 1.601622e+00 1.056445e+00 1.720260e+00 2.221099e-01 -3.044515e+00 -9.658939e-01 1.949316e-01 -4.141314e-01 -1.629060e+00 -1.218450e-01 -7.463377e-01
<VARIANCE> 25
 1.154786e+01 3.690207e+01 4.370317e+01 2.304022e+01 5.005861e+01 4.514973e+01 9.444276e+01 4.828399e+01 5.601394e+01 4.396658e+01 4.904614e+01 3.297717e+01 5.865279e-01 2.089796e+00 3.049648e+00 1.693369e+00 3.038453e+00 3.901249e+00 5.953962e+00 3.852248e+00 5.585123e+00 3.895244e+00 4.254067e+00 3.589018e+00 7.648882e-01
<GCONST> 1.032505e+02
<STATE> 3
<MEAN> 25
 9.315221e+00 -3.096123e+00 -1.582155e+00 1.909557e+00 3.913141e-01 -7.145109e+00 -1.643683e+01 -1.264471e+01 -1.310305e+00 -6.874691e-01 -6.596949e+00 -9.613746e-01 -2.376899e-01 3.651101e-01 5.679151e-01 -5.615216e-01 -1.352731e+00 1.643114e-01 2.016173e+00 -1.283690e-01 -1.729598e+00 -1.888741e-01 1.362039e+00 9.780364e-02 4.371508e-02
<VARIANCE> 25
 9.428176e+00 2.117028e+01 4.036014e+01 4.223264e+01 5.075815e+01 5.287236e+01 6.343548e+01 5.111502e+01 4.078692e+01 4.212804e+01 8.691309e+01 3.433964e+01 6.077227e-01 1.150004e+00 2.494054e+00 3.175785e+00 2.705920e+00 4.880805e+00 3.431742e+00 4.533111e+00 2.821155e+00 3.831482e+00 6.607313e+00 4.406232e+00 9.488492e-01
<GCONST> 1.028491e+02
<STATE> 4
<MEAN> 25
 1.050250e+01 9.149061e-01 -1.205814e+00 -3.314590e+00 -6.898890e+00 -5.053384e+00 -4.409647e+00 -8.636595e+00 -1.022971e+01 -4.435799e+00 -4.125937e+00 6.870357e-01 -2.529486e-01 5.390976e-01 3.447528e-01 -4.697551e-01 -3.219925e-01 -5.173187e-02 1.324418e+00 1.421151e+00 -2.205955e-01 -1.340147e-01 -5.826389e-01 -8.024573e-01 -2.392142e-01
<VARIANCE> 25
 1.565727e+01 4.116297e+01 4.913214e+01 7.110185e+01 4.549137e+01 5.588707e+01 6.722578e+01 4.632115e+01 4.271586e+01 3.218785e+01 3.590225e+01 4.909641e+01 4.432818e-01 1.765569e+00 1.658764e+00 2.287967e+00 3.198482e+00 2.769597e+00 3.699599e+00 3.359210e+00 2.505422e+00 2.895575e+00 3.703509e+00 2.792164e+00 1.156762e+00
<GCONST> 1.014126e+02
<TRANSP> 5
 0.000000e+00 1.000000e+00 0.000000e+00 0.000000e+00 0.000000e+00
 0.000000e+00 7.365778e-01 2.634222e-01 0.000000e+00 0.000000e+00
 0.000000e+00 0.000000e+00 7.149634e-01 2.850366e-01 0.000000e+00
 0.000000e+00 0.000000e+00 0.000000e+00 6.038519e-01 3.961481e-01
 0.000000e+00 0.000000e+00 0.000000e+00 0.000000e+00 0.000000e+00
<ENDHMM>
~h "\340\262\232\340\263\215"
<BEGINHMM>
<NUMSTATES> 5
<STATE> 2
<MEAN> 25
 -4.748723e+00 1.406058e+00 2.449347e+00 3.138298e+00 2.400248e+00 1.729551e+00 1.213322e+00 4.699353e+00 2.496322e+00 2.991439e+00 2.570196e+00 1.927339e+00 -7.681956e-01 -1.245428e-01 9.964956e-02 -4.246942e-01 1.714137e-01 6.810862e-01 2.577040e-01 5.396872e-02 1.133756e-01 3.308125e-01 2.477739e-01 4.112872e-01 -3.565795e-01
<VARIANCE> 25
 3.397832e+01 1.576466e+01 3.480966e+01 1.643803e+01 2.302926e+01 3.229503e+01 2.454696e+01 2.375251e+01 2.602553e+01 2.109035e+01 2.144333e+01 2.475826e+01 3.761786e+00 1.408072e+00 1.904279e+00 2.067381e+00 1.876230e+00 2.918121e+00 1.980864e+00 1.811137e+00 1.792737e+00 2.601266e+00 1.560386e+00 1.901062e+00 2.334038e+00
<GCONST> 9.363221e+01
<STATE> 3
<MEAN> 25
 -4.713617e+00 -4.845415e+00 2.393533e+00 -6.828642e-01 -1.528728e+00 6.651426e-01 -2.019171e-01 1.646348e+00 1.497572e+00 2.708368e+00 1.513478e+00 2.312860e+00 -3.036660e+00 -2.187386e+00 1.017551e+00 -2.200881e+00 -1.099339e+00 5.476503e-01 1.786748e-01 -8.970002e-01 2.233259e-01 -1.716727e-01 8.472953e-03 7.911362e-02 2.824527e+00
<VARIANCE> 25
 3.009272e+01 4.433668e+01 5.116372e+01 3.132940e+01 3.207344e+01 2.721246e+01 2.380084e+01 4.505811e+01 3.739899e+01 3.495666e+01 1.860295e+01 2.624202e+01 9.936880e+00 2.109705e+00 5.649228e+00 4.295534e+00 3.568702e+00 3.271520e+00 2.658770e+00 4.136975e+00 4.106529e+00 4.275150e+00 2.889323e+00 3.118514e+00 6.185599e+00
<GCONST> 1.056116e+02
<STATE> 4
<MEAN> 25
 -1.711704e+01 -8.008286e+00 1.087448e+01 -2.992685e+00 -3.586510e+00 -2.372352e+00 -1.635174e-01 -2.596359e+00 2.365019e+00 -1.159793e+00 -6.600808e-01 -1.835632e+00 1.121636e+00 4.040040e-01 1.360907e-01 4.691811e-01 -3.382157e-01 -1.096695e+00 -7.997572e-01 -3.300029e-01 -2.211314e-01 -8.026876e-01 -5.040140e-01 -5.411476e-01 1.020298e+00
<VARIANCE> 25
 9.440804e+01 1.571517e+01 2.149094e+01 3.476955e+01 1.524760e+01 3.718055e+01 3.190673e+01 1.868422e+01 2.215591e+01 2.558195e+01 1.509118e+01 1.775279e+01 2.214817e+01 2.768069e+00 5.638434e+00 2.441833e+00 2.229280e+00 2.768474e+00 4.493641e+00 2.328007e+00 3.320956e+00 2.580238e+00 1.714742e+00 1.375293e+00 4.022622e+00
<GCONST> 9.983081e+01
<TRANSP> 5
 0.000000e+00 1.000000e+00 0.000000e+00 0.000000e+00 0.000000e+00
 0.000000e+00 6.305779e-01 3.694221e-01 0.000000e+00 0.000000e+00
 0.000000e+00 0.000000e+00 6.263518e-01 3.736482e-01 0.000000e+00
 0.000000e+00 0.000000e+00 0.000000e+00 8.521317e-01 1.478683e-01
 0.000000e+00 0.000000e+00 0.000000e+00 0.000000e+00 0.000000e+00
<ENDHMM>
~h "\340\262\253\340\263\215"
<BEGINHMM>
<NUMSTATES> 5
<STATE> 2
<MEAN> 25
 -6.835197e+00 3.835048e+00 -2.034129e+00 2.074789e+00 6.372835e+00 5.343919e+00 3.079217e+00 7.401942e+00 4.375613e+00 5.248948e+00 3.829673e+00 3.620822e+00 -1.539357e-01 1.375854e-01 8.857699e-02 2.358480e-01 6.642862e-02 -2.641737e-02 8.084442e-02 -2.967098e-02 1.161548e-01 -1.176218e-01 5.152294e-02 5.188799e-02 -9.535570e-02
<VARIANCE> 25
 7.207736e+00 4.113177e+00 7.867349e+00 1.816823e+01 1.153497e+01 7.448837e+00 1.230303e+01 1.207668e+01 8.451688e+00 9.860740e+00 7.953701e+00 1.145805e+01 8.978785e-01 2.860453e-01 5.812323e-01 4.957175e-01 8.994732e-01 1.273023e+00 1.187848e+00 9.175929e-01 7.575193e-01 9.738227e-01 5.479105e-01 1.187884e+00 6.667413e-01
<GCONST> 6.916734e+01
<STATE> 3
<MEAN> 25
 -6.536178e+00 5.377359e+00 5.717596e-01 4.021149e+00 5.401779e+00 2.173460e+00 1.754426e+00 5.060195e+00 3.518907e+00 2.073905e+00 2.230738e+00 3.280178e+00 4.835291e-01 -5.392033e-01 8.524866e-01 -8.864277e-01 -1.844051e+00 -5.450829e-01 -1.308975e+00 -1.241475e-01 6.863177e-02 -1.431997e+00 -8.065680e-01 -6.152868e-02 1.237671e+00
<VARIANCE> 25
 7.333928e+00 1.813779e+01 4.890010e+00 1.893994e+01 4.025481e+01 8.789244e+00 6.776757e+00 6.874053e+00 1.599511e+01 1.914705e+01 1.176659e+01 2.573642e+01 5.971394e+00 1.141507e+00 4.804707e-01 5.069974e-01 2.804841e+00 1.236423e+00 1.824768e+00 8.140138e-01 2.231099e+00 1.766685e+00 1.425149e+00 1.041885e+00 8.366179e-01
<GCONST> 8.024837e+01
<STATE> 4
<MEAN> 25
 -1.054608e+01 -4.978769e+00 -1.845223e-01 -2.299649e+00 2.567380e+00 2.255354e+00 4.986921e-02 5.672929e+00 1.153072e+00 1.087390e+00 9.458975e-01 1.122672e+00 -2.153234e-01 -7.924621e-01 -3.315236e-02 -2.355254e-01 2.807610e-01 -1.363902e-01 -3.163696e-01 -3.312708e-01 -7.892457e-02 -1.652930e-03 2.248892e-02 -2.700875e-01 9.952896e-01
<VARIANCE> 25
 2.308886e+01 1.513352e+01 6.604499e+00 6.977565e+00 1.508828e+01 1.031903e+01 1.065592e+01 8.837196e+00 1.745117e+01 1.891032e+01 1.121123e+01 1.363029e+01 3.537477e+00 1.495083e+00 7.676560e-01 1.534818e+00 2.073246e+00 1.174753e+00 1.496134e+00 1.338821e+00 1.553507e+00 2.505715e+00 1.672207e+00 1.540583e+00 6.033483e-01
<GCONST> 8.126952e+01
<TRANSP> 5
 0.000000e+00 1.000000e+00 0.000000e+00 0.000000e+00 0.000000e+00
 0.000000e+00 8.904884e-01 1.095116e-01 0.000000e+00 0.000000e+00
 0.000000e+00 0.000000e+00 4.443232e-01 5.556768e-01 0.000000e+00
 0.000000e+00 0.000000e+00 0.000000e+00 8.979871e-01 1.020129e-01
 0.000000e+00 0.000000e+00 0.000000e+00 0.000000e+00 0.000000e+00
<ENDHMM>
~h "\340\262\243\340\263\215"
<BEGINHMM>
<NUMSTATES> 5
<STATE> 2
<MEAN> 25
 1.155046e+01 -9.593428e+00 -6.504056e+00 2.097690e-02 -3.009376e+00 -7.816662e+00 -5.114377e+00 -2.069250e+00 -6.184028e-01 -2.693719e+00 -6.308825e+00 -2.741971e+00 3.508117e-01 2.213613e-01 4.680531e-01 2.913471e-01 6.379299e-01 -7.687006e-01 -1.460837e+00 4.611987e-01 5.719126e-01 -8.324763e-02 -7.819176e-01 -7.985928e-01 4.940364e-02
<VARIANCE> 25
 2.330237e+01 6.533759e+01 6.623920e+01 3.047040e+01 6.297155e+01 4.253932e+01 4.108241e+01 2.454176e+01 3.687951e+01 5.152800e+01 3.107696e+01 4.037570e+01 1.683585e+00 1.630357e+00 1.866502e+00 2.349440e+00 4.621918e+00 3.080243e+00 4.754783e+00 2.877393e+00 5.768785e+00 3.776776e+00 1.337674e+00 1.349128e+00 1.006209e+00
<GCONST> 1.018164e+02
<STATE> 3
<MEAN> 25
 1.272006e+01 -7.111543e+00 -2.725546e+00 7.964680e-01 2.652146e-01 -1.016514e+01 -1.143525e+01 -2.081887e+00 1.301806e+00 -3.366960e+00 -6.011167e+00 -6.378109e+00 2.419657e-01 1.728220e+00 2.388988e+00 -4.909715e-02 5.575827e-01 -2.171729e-01 -7.171912e-01 -3.108345e-04 -1.111681e+00 -8.200688e-01 5.043235e-01 3.388247e-02 -1.049158e+00
<VARIANCE> 25
 1.632008e+01 4.277616e+01 5.307459e+01 2.979560e+01 5.713292e+01 4.002679e+01 4.391497e+01 3.438160e+01 3.317547e+01 4.795711e+01 3.465601e+01 3.843047e+01 6.420469e-01 2.082858e+00 3.553867e+00 1.455280e+00 2.197185e+00 2.222928e+00 3.266182e+00 2.111754e+00 2.251917e+00 3.638172e+00 1.704216e+00 2.031429e+00 8.382636e-01
<GCONST> 9.810223e+01
<STATE> 4
<MEAN> 25
 1.284424e+01 -2.098643e+00 5.510034e+00 7.886327e-01 -4.921301e+00 -1.098628e+01 -7.171530e+00 -1.089716e+00 -3.422254e+00 -9.535362e+00 -5.846666e+00 -2.147454e+00 -5.636899e-01 -2.514361e-01 4.707757e-02 -4.676878e-01 -1.029189e+00 4.983983e-01 1.328815e+00 -8.782459e-01 -1.250979e-01 3.099799e-01 2.329472e-01 5.466856e-02 5.854158e-01
<VARIANCE> 25
 1.679366e+01 2.808217e+01 2.340907e+01 2.994428e+01 8.035072e+01 4.728661e+01 6.084662e+01 3.533667e+01 3.945849e+01 4.856378e+01 3.681634e+01 3.079724e+01 1.114377e+00 2.826162e+00 3.916030e+00 2.190404e+00 1.064239e+01 2.656587e+00 7.924979e+00 2.700655e+00 3.296680e+00 3.281348e+00 1.892362e+00 2.266545e+00 1.322974e+00
<GCONST> 1.029818e+02
<TRANSP> 5
 0.000000e+00 1.000000e+00 0.000000e+00 0.000000e+00 0.000000e+00
 0.000000e+00 4.465659e-01 5.534341e-01 0.000000e+00 0.000000e+00
 0.000000e+00 0.000000e+00 6.505386e-01 3.494613e-01 0.000000e+00
 0.000000e+00 0.000000e+00 0.000000e+00 5.773693e-01 4.226307e-01
 0.000000e+00 0.000000e+00 0.000000e+00 0.000000e+00 0.000000e+00
<ENDHMM>
~h "\340\262\233\340\263\215"
<BEGINHMM>
<NUMSTATES> 5
<STATE> 2
<MEAN> 25
 3.016278e+00 -7.482393e+00 -5.373387e+00 -1.047596e+01 1.513672e+00 3.018160e-01 1.589078e+00 -1.461838e+00 -1.235826e+00 -5.022660e-01 -5.234545e-01 -6.869477e+00 -3.372878e-01 8.896245e-02 -4.119926e-01 2.636226e-01 -8.858211e-02 -1.371469e-01 4.895412e-01 -3.778331e-01 -9.404763e-01 -1.143262e-01 4.880553e-01 -4.085799e-01 -1.813398e-01
<VARIANCE> 25
 7.657103e+01 4.780968e+01 1.294938e+02 7.517391e+01 1.338275e+01 3.535153e+01 4.146663e+01 2.570411e+01 6.783167e+01 1.665922e+01 1.266293e+01 5.012993e+01 1.783648e+00 4.339126e+00 7.464374e+00 3.318517e+00 1.441982e+00 2.480807e+00 4.145472e+00 9.740475e-01 3.908477e+00 1.239246e+00 1.174929e+00 1.258089e+00 3.856102e+00
<GCONST> 1.011944e+02
<STATE> 3
<MEAN> 25
 1.303748e+00 2.266880e+00 -4.268952e+00 -3.188662e+00 3.394485e+00 5.448064e+00 3.927517e+00 -1.951436e-01 -3.179199e+00 1.122941e+00 -1.501356e+00 -5.184506e+00 -4.950486e-01 5.437355e-01 -3.483504e-01 1.298653e+00 2.784132e-01 1.306254e-01 3.643574e-01 1.148238e+00 1.078779e+00 4.153676e-01 3.502986e-01 1.166941e+00 -1.657509e+00
<VARIANCE> 25
 1.935560e+01 5.960152e+00 1.484191e+01 1.986220e+01 1.542962e+01 2.027987e+01 1.394974e+01 2.805684e+01 3.948336e+01 1.586189e+01 2.335497e+01 5.169514e+01 1.430831e+00 8.679337e-01 3.591188e+00 1.288702e+00 1.352185e+00 9.732245e-01 1.707806e+00 1.688912e+00 9.963034e-01 2.502284e+00 1.813779e+00 1.006972e+00 6.195081e-01
<GCONST> 8.575251e+01
<STATE> 4
<MEAN> 25
 -5.350546e+00 2.721581e+00 -5.398537e-01 4.466606e+00 5.372392e+00 3.462007e+00 3.195218e+00 4.449853e+00 3.443304e+00 4.646184e+00 2.576285e+00 3.975660e+00 -3.714823e-02 -2.532159e-02 7.517383e-02 1.176431e-01 2.463339e-02 -7.645168e-02 -6.769870e-02 1.881052e-03 3.597802e-04 4.877713e-02 5.395570e-02 5.835342e-02 -3.695353e-02
<VARIANCE> 25
 3.550366e+00 4.460801e+00 9.271933e+00 1.200857e+01 9.274293e+00 1.342465e+01 9.128537e+00 1.373351e+01 1.225010e+01 9.552844e+00 1.010146e+01 1.058211e+01 3.999451e-01 4.300449e-01 1.224858e+00 9.995427e-01 7.681964e-01 1.034417e+00 1.234012e+00 1.374866e+00 1.207272e+00 1.004819e+00 9.691536e-01 1.032533e+00 4.884635e-01
<GCONST> 7.072990e+01
<TRANSP> 5
 0.000000e+00 1.000000e+00 0.000000e+00 0.000000e+00 0.000000e+00
 0.000000e+00 7.443795e-01 2.556204e-01 0.000000e+00 0.000000e+00
 0.000000e+00 0.000000e+00 8.261890e-01 1.738111e-01 0.000000e+00
 0.000000e+00 0.000000e+00 0.000000e+00 9.692242e-01 3.077587e-02
 0.000000e+00 0.000000e+00 0.000000e+00 0.000000e+00 0.000000e+00
<ENDHMM>
~h "\340\262\254\340\263\215"
<BEGINHMM>
<NUMSTATES> 5
<STATE> 2
<MEAN> 25
 2.390188e+00 4.938585e+00 7.025323e+00 6.580606e+00 2.539959e+00 1.425861e+00 -1.444400e+00 -3.695339e+00 -7.935236e+00 -8.082747e+00 -2.252444e+00 -3.886423e-01 9.575169e-01 5.647138e-01 6.255234e-01 4.062230e-01 1.298621e-01 -1.351248e-01 -3.931195e-01 -4.730020e-01 -8.590717e-01 -1.008808e+00 -6.980283e-01 -4.307957e-01 5.797121e-01
<VARIANCE> 25
 4.703868e+01 4.399308e+01 6.327623e+01 3.595138e+01 9.629492e+01 3.461716e+01 3.537322e+01 4.684773e+01 6.365874e+01 6.691974e+01 2.342331e+01 2.321702e+01 4.518620e+00 3.811032e+00 2.968098e+00 3.119155e+00 3.138900e+00 3.613768e+00 4.814197e+00 3.503290e+00 4.309334e+00 4.443308e+00 2.569529e+00 1.595789e+00 3.751709e+00
<GCONST> 1.075029e+02
<STATE> 3
<MEAN> 25
 7.741423e+00 1.314322e+00 6.647468e-01 -2.425601e+00 -1.355258e+00 2.394619e+00 -1.017817e+00 -6.766863e+00 -8.192750e+00 -4.644279e+00 -1.122702e+00 -9.258787e-01 -7.904194e-02 -1.283958e+00 -5.240996e-01 -9.966348e-01 -7.830243e-01 -9.869456e-01 -1.076001e+00 -2.604226e-01 1.494429e+00 1.757618e+00 8.075060e-01 -7.292063e-01 1.338012e+00
<VARIANCE> 25
 1.873706e+01 6.226739e+01 3.407094e+01 8.637125e+01 7.305030e+01 3.456211e+01 3.970203e+01 5.594128e+01 6.737164e+01 4.962690e+01 3.927662e+01 2.568052e+01 2.400719e+00 4.930969e+00 4.385072e+00 8.991661e+00 1.029775e+01 3.349916e+00 4.417239e+00 4.954886e+00 5.220848e+00 5.426245e+00 6.315248e+00 2.594881e+00 6.518286e+00
<GCONST> 1.123543e+02
<STATE> 4
<MEAN> 25
 6.723554e+00 2.966284e+00 5.439443e+00 5.917499e+00 4.095965e+00 -2.816805e+00 -8.056025e+00 -2.067120e+00 -2.368603e+00 -3.910484e+00 -2.602502e+00 -5.447845e+00 -3.905864e-01 -7.205664e-01 -3.824584e-01 -4.884237e-01 -4.217676e-01 -6.191585e-01 4.833386e-02 3.002350e-01 6.919422e-01 4.706043e-01 2.014319e-01 7.538445e-03 5.876272e-01
<VARIANCE> 25
 2.318748e+01 6.763757e+01 4.019127e+01 6.066400e+01 4.734988e+01 5.908559e+01 6.901177e+01 3.184866e+01 4.350875e+01 2.637354e+01 3.110948e+01 3.293777e+01 2.378299e+00 6.371862e+00 2.510566e+00 5.470578e+00 6.615100e+00 4.999880e+00 3.873106e+00 2.628541e+00 4.068642e+00 2.955228e+00 2.497868e+00 2.808949e+00 6.633783e+00
<GCONST> 1.081977e+02
<TRANSP> 5
 0.000000e+00 1.000000e+00 0.000000e+00 0.000000e+00 0.000000e+00
 0.000000e+00 7.360283e-01 2.639718e-01 0.000000e+00 0.000000e+00
 0.000000e+00 0.000000e+00 6.028745e-01 3.971255e-01 0.000000e+00
 0.000000e+00 0.000000e+00 0.000000e+00 6.723877e-01 3.276123e-01
 0.000000e+00 0.000000e+00 0.000000e+00 0.000000e+00 0.000000e+00
<ENDHMM>
~h "\340\262\244\340\263\215"
<BEGINHMM>
<NUMSTATES> 5
<STATE> 2
<MEAN> 25
 -2.094810e+00 1.155518e+00 -2.616047e+00 -6.101713e-01 5.842063e-01 9.187543e-02 -1.824684e+00 4.698676e-01 2.559357e+00 6.878375e+00 5.291670e+00 1.776863e+00 -1.108943e+00 5.642889e-02 -5.356573e-01 -2.621043e-02 1.685963e-01 4.694979e-01 9.692916e-01 1.230882e+00 7.322781e-01 9.039240e-01 9.178853e-01 1.034477e+00 -1.546006e+00
<VARIANCE> 25
 1.958064e+01 1.883825e+01 2.640497e+01 2.888862e+01 2.676717e+01 3.347318e+01 3.491129e+01 3.775953e+01 3.597579e+01 3.880313e+01 2.561994e+01 3.504581e+01 1.258354e+00 1.686086e+00 1.989987e+00 1.885027e+00 2.361312e+00 1.905613e+00 2.579222e+00 2.705496e+00 2.111995e+00 2.625223e+00 2.334929e+00 2.496318e+00 4.076190e+00
<GCONST> 9.691953e+01
<STATE> 3
<MEAN> 25
 -6.567811e+00 2.586753e+00 -2.641654e+00 2.979560e-01 3.125412e+00 1.769759e+00 8.403881e-01 4.065721e+00 3.917164e+00 6.709930e+00 6.520605e+00 3.787722e+00 -5.675579e-01 -4.084848e-01 2.159116e-01 -6.383530e-01 3.545956e-01 -8.150058e-01 -6.405302e-01 -2.801903e-01 -8.229521e-01 -1.753582e+00 -1.023536e+00 -1.026818e+00 2.877523e+00
<VARIANCE> 25
 1.507730e+01 1.359449e+01 1.683319e+01 1.799377e+01 1.778684e+01 2.024925e+01 1.964200e+01 1.832769e+01 2.083116e+01 3.307286e+01 1.980613e+01 1.509876e+01 1.612263e+00 2.086925e+00 2.317387e+00 2.670568e+00 2.013717e+00 3.029037e+00 3.162515e+00 2.151206e+00 2.714539e+00 3.881199e+00 2.352117e+00 2.278022e+00 7.326827e+00
<GCONST> 9.377822e+01
<STATE> 4
<MEAN> 25
 -1.057619e+00 -1.774268e+00 -1.522505e+00 -3.749342e+00 -5.161781e-01 -3.628942e+00 -6.916891e+00 -3.216848e+00 -7.655917e-01 -1.005889e+00 1.528058e+00 -1.285081e+00 2.573214e+00 -6.554208e-01 -2.211050e-02 -8.561938e-01 -1.634381e+00 -1.189165e+00 -1.699659e+00 -2.426800e+00 -8.051301e-01 -8.781675e-01 -7.527500e-01 -1.077245e+00 3.424759e+00
<VARIANCE> 25
 6.941286e+01 2.908950e+01 2.000879e+01 2.345020e+01 4.832952e+01 4.045695e+01 5.282135e+01 7.522571e+01 2.973558e+01 3.717771e+01 2.283284e+01 2.907741e+01 4.898394e+00 3.413388e+00 3.084212e+00 3.215789e+00 5.708777e+00 5.818241e+00 6.807781e+00 5.515944e+00 3.958262e+00 5.246954e+00 3.028577e+00 5.983392e+00 1.040247e+01
<GCONST> 1.095926e+02
<TRANSP> 5
 0.000000e+00 1.000000e+00 0.000000e+00 0.000000e+00 0.000000e+00
 0.000000e+00 7.640951e-01 2.359049e-01 0.000000e+00 0.000000e+00
 0.000000e+00 0.000000e+00 5.246210e-01 4.753790e-01 0.000000e+00
 0.000000e+00 0.000000e+00 0.000000e+00 6.242229e-01 3.757772e-01
 0.000000e+00 0.000000e+00 0.000000e+00 0.000000e+00 0.000000e+00
<ENDHMM>
~h "\340\262\265\340\263\215"
<BEGINHMM>
<NUMSTATES> 5
<STATE> 2
<MEAN> 25
 1.009138e+01 -3.972473e-01 -3.719640e+00 -6.932999e+00 -6.765218e+00 8.502007e-01 -1.976097e+00 -5.658879e+00 -7.381435e+00 -6.081703e+00 1.071113e+00 2.625971e+00 3.830708e-01 6.943240e-01 2.792495e-01 -4.347183e-01 -4.358414e-01 2.908306e-01 7.293618e-01 3.510388e-01 -8.812652e-01 -6.607327e-01 -3.356135e-01 2.529818e-01 -4.623913e-01
<VARIANCE> 25
 3.908646e+01 3.139590e+01 2.715137e+01 5.385062e+01 7.211632e+01 2.325300e+01 3.793546e+01 3.588893e+01 3.407045e+01 3.571107e+01 3.401156e+01 2.775750e+01 2.457990e+00 4.379806e+00 2.985907e+00 4.169585e+00 6.255029e+00 3.255949e+00 3.412762e+00 3.841479e+00 3.645625e+00 3.499154e+00 3.954861e+00 2.791084e+00 4.276729e+00
<GCONST> 1.058281e+02
<STATE> 3
<MEAN> 25
 1.142003e+01 5.203813e+00 -2.282107e+00 -9.062640e+00 -1.150805e+01 -1.348760e+00 1.553243e+00 -3.399220e+00 -6.118605e+00 -5.732381e+00 -3.996458e+00 -1.290192e+00 -2.344553e-01 -8.599868e-02 9.135735e-02 -1.184997e-01 3.488984e-01 -2.490775e-02 1.274328e-02 3.129695e-01 2.156565e-01 3.347963e-01 -7.736495e-02 -4.196756e-01 3.496682e-02
<VARIANCE> 25
 3.028979e+01 4.476295e+01 1.776346e+01 3.691896e+01 9.046195e+01 3.682235e+01 2.767534e+01 3.039624e+01 3.500235e+01 2.581866e+01 3.812522e+01 2.857681e+01 5.797077e-01 1.735008e+00 1.406078e+00 1.643069e+00 3.143351e+00 1.841292e+00 1.638748e+00 2.298160e+00 1.648164e+00 1.526541e+00 1.781153e+00 1.457252e+00 1.256591e+00
<GCONST> 9.432069e+01
<STATE> 4
<MEAN> 25
 1.139280e+00 1.481759e+00 -8.516303e-01 -2.961371e+00 1.616909e+00 2.369365e+00 7.766250e-01 1.315426e+00 -3.558130e+00 -1.690246e+00 5.430555e-01 3.479195e-02 -6.590144e-02 -5.481539e-01 -7.414556e-02 4.806663e-02 -8.565193e-03 -2.352136e-01 -1.737433e-01 3.006341e-03 2.873321e-01 1.123954e-01 -4.660029e-02 -2.315287e-01 4.585222e-01
<VARIANCE> 25
 9.613264e+01 3.353993e+01 3.095354e+01 6.316761e+01 6.953098e+01 4.193716e+01 3.725342e+01 4.520015e+01 3.861371e+01 3.459578e+01 3.602424e+01 2.484923e+01 2.040173e+00 1.958189e+00 1.972417e+00 2.410445e+00 3.015350e+00 2.907842e+00 2.343979e+00 2.430028e+00 2.325525e+00 2.349212e+00 2.045506e+00 2.071346e+00 1.812135e+00
<GCONST> 1.015962e+02
<TRANSP> 5
