~o
<STREAMINFO> 1 25
<VECSIZE> 25<NULLD><MFCC_D_N_Z_0><DIAGC>
~s "silst"
<MEAN> 25
 -5.504391e+00 3.529591e+00 -6.998797e-01 5.762203e+00 5.231331e+00 3.549418e+00 5.461127e+00 4.381501e+00 4.940584e+00 4.555326e+00 4.270765e+00 4.359622e+00 -8.502349e-03 1.303555e-02 2.736206e-02 2.616300e-02 -4.662966e-03 -1.560204e-02 -5.462720e-03 -7.158255e-03 -7.464113e-03 7.952173e-03 6.460653e-03 2.308414e-03 -8.374995e-03
<VARIANCE> 25
 3.041013e+00 3.215118e+00 4.946011e+00 6.897418e+00 7.948449e+00 9.659051e+00 1.156381e+01 1.130554e+01 1.204980e+01 1.240434e+01 1.176990e+01 1.093936e+01 1.493812e-01 2.499294e-01 4.108395e-01 5.776642e-01 7.357708e-01 9.350952e-01 1.073146e+00 1.158752e+00 1.248705e+00 1.266014e+00 1.224989e+00 1.114097e+00 1.583777e-01
<GCONST> 6.487981e+01
~h "sp"
<BEGINHMM>
<NUMSTATES> 3
<STATE> 2
~s "silst"
<TRANSP> 3
 0.000000e+00 7.207347e-01 2.792653e-01
 0.000000e+00 9.736829e-01 2.631705e-02
 0.000000e+00 0.000000e+00 0.000000e+00
<ENDHMM>
~h "\340\262\236\340\263\215"
<BEGINHMM>
<NUMSTATES> 5
<STATE> 2
<MEAN> 25
 4.925858e-08 -1.233895e-08 2.920008e-08 1.226765e-08 -5.222096e-08 1.835772e-08 3.730370e-08 -3.084009e-08 5.284326e-08 -7.177465e-09 3.337222e-08 1.065681e-08 -5.941017e-04 -3.072851e-04 5.426822e-05 -6.761555e-04 -2.272289e-05 -6.928663e-06 -4.446488e-04 -1.001891e-03 -5.636913e-04 -2.278803e-04 9.030614e-05 -4.183001e-04 3.126871e-03
<VARIANCE> 25
 6.337364e+01 4.811290e+01 5.212138e+01 6.297672e+01 6.965734e+01 5.789758e+01 6.618909e+01 5.280534e+01 5.847340e+01 4.740644e+01 4.464558e+01 3.826577e+01 2.126088e+00 2.240220e+00 2.076481e+00 2.780402e+00 2.979447e+00 3.084975e+00 3.029560e+00 2.887547e+00 2.790046e+00 2.530517e+00 2.348650e+00 2.055844e+00 2.977529e+00
<GCONST> 1.062192e+02
<STATE> 3
<MEAN> 25
 4.925858e-08 -1.233895e-08 2.920008e-08 1.226765e-08 -5.222096e-08 1.835772e-08 3.730370e-08 -3.084009e-08 5.284326e-08 -7.177465e-09 3.337222e-08 1.065681e-08 -5.941017e-04 -3.072851e-04 5.426822e-05 -6.761555e-04 -2.272289e-05 -6.928663e-06 -4.446488e-04 -1.001891e-03 -5.636913e-04 -2.278803e-04 9.030614e-05 -4.183001e-04 3.126871e-03
<VARIANCE> 25
 6.337364e+01 4.811290e+01 5.212138e+01 6.297672e+01 6.965734e+01 5.789758e+01 6.618909e+01 5.280534e+01 5.847340e+01 4.740644e+01 4.464558e+01 3.826577e+01 2.126088e+00 2.240220e+00 2.076481e+00 2.780402e+00 2.979447e+00 3.084975e+00 3.029560e+00 2.887547e+00 2.790046e+00 2.530517e+00 2.348650e+00 2.055844e+00 2.977529e+00
<GCONST> 1.062192e+02
<STATE> 4
<MEAN> 25
 4.925858e-08 -1.233895e-08 2.920008e-08 1.226765e-08 -5.222096e-08 1.835772e-08 3.730370e-08 -3.084009e-08 5.284326e-08 -7.177465e-09 3.337222e-08 1.065681e-08 -5.941017e-04 -3.072851e-04 5.426822e-05 -6.761555e-04 -2.272289e-05 -6.928663e-06 -4.446488e-04 -1.001891e-03 -5.636913e-04 -2.278803e-04 9.030614e-05 -4.183001e-04 3.126871e-03
<VARIANCE> 25
 6.337364e+01 4.811290e+01 5.212138e+01 6.297672e+01 6.965734e+01 5.789758e+01 6.618909e+01 5.280534e+01 5.847340e+01 4.740644e+01 4.464558e+01 3.826577e+01 2.126088e+00 2.240220e+00 2.076481e+00 2.780402e+00 2.979447e+00 3.084975e+00 3.029560e+00 2.887547e+00 2.790046e+00 2.530517e+00 2.348650e+00 2.055844e+00 2.977529e+00
<GCONST> 1.062192e+02
<TRANSP> 5
 0.000000e+00 1.000000e+00 0.000000e+00 0.000000e+00 0.000000e+00
 0.000000e+00 6.000000e-01 4.000000e-01 0.000000e+00 0.000000e+00
 0.000000e+00 0.000000e+00 6.000000e-01 4.000000e-01 0.000000e+00
 0.000000e+00 0.000000e+00 0.000000e+00 7.000000e-01 3.000000e-01
 0.000000e+00 0.000000e+00 0.000000e+00 0.000000e+00 0.000000e+00
<ENDHMM>
~h "\340\262\257\340\263\215"
<BEGINHMM>
<NUMSTATES> 5
<STATE> 2
<MEAN> 25
 -1.332793e-01 1.454874e+00 1.119877e+01 -6.387352e+00 -9.558234e+00 -4.197338e+00 -3.770607e+00 -5.019310e+00 -6.880253e+00 -2.509327e+00 -1.739725e+00 -2.799904e+00 8.905195e-01 -3.424700e-02 1.190874e+00 -6.318038e-01 -1.933686e+00 -2.229878e-01 -5.905332e-01 -3.198487e-01 -1.194234e+00 5.666255e-01 5.071210e-01 -6.106598e-01 5.975469e-01
<VARIANCE> 25
 3.704227e+01 5.269551e+01 4.376112e+01 4.333530e+01 7.709435e+01 3.586463e+01 4.389433e+01 5.527068e+01 3.894288e+01 3.145577e+01 2.221436e+01 2.585741e+01 4.963071e+00 3.741511e+00 4.278220e+00 3.328820e+00 6.809352e+00 3.287995e+00 4.095076e+00 3.692041e+00 3.592667e+00 3.003870e+00 2.769514e+00 2.105305e+00 2.685324e+00
<GCONST> 1.067860e+02
<STATE> 3
<MEAN> 25
 3.296092e+00 -1.909526e+00 1.367338e+01 -9.027379e+00 -1.863967e+01 -4.759181e+00 -5.924526e+00 -4.215003e+00 -1.079336e+01 1.453484e+00 6.913447e-01 -5.761596e+00 3.676251e-01 -1.575969e+00 -1.300036e+00 4.739273e-01 -5.809429e-01 -1.463820e+00 9.506295e-01 1.763250e+00 2.226978e-01 1.248076e-01 5.732675e-01 4.577339e-02 6.995127e-01
<VARIANCE> 25
 4.925450e+00 2.726364e+01 2.591193e+01 3.026677e+01 1.754704e+01 4.185286e+01 3.049877e+01 3.199279e+01 2.266208e+01 2.432530e+01 1.650236e+01 1.250028e+01 5.158035e-01 2.721260e+00 2.544219e+00 1.572180e+00 2.008018e+00 3.079523e+00 3.259256e+00 4.563476e+00 1.683344e+00 1.995659e+00 1.299890e+00 1.279963e+00 6.986271e-01
<GCONST> 9.024444e+01
<STATE> 4
<MEAN> 25
 4.707091e+00 -9.873313e+00 3.136186e+00 -5.898343e+00 -1.589298e+01 -1.109778e+01 -1.806572e-01 6.128709e+00 -6.297019e+00 -2.924277e+00 -1.007761e+00 -5.130046e+00 3.951710e-01 -1.354182e+00 -2.738745e+00 5.538753e-01 2.290667e+00 1.003173e-01 2.625309e-01 1.087682e+00 1.680148e+00 -1.691452e+00 -1.937176e+00 1.078650e-01 4.514413e-01
<VARIANCE> 25
 4.952919e+00 2.114737e+01 2.895877e+01 2.054741e+01 3.126773e+01 2.909380e+01 3.208185e+01 2.623859e+01 2.037571e+01 3.207943e+01 2.865084e+01 2.023665e+01 3.153394e-01 1.834092e+00 2.722933e+00 1.642309e+00 3.513246e+00 2.718383e+00 3.364006e+00 4.730644e+00 2.432291e+00 3.609846e+00 2.737598e+00 1.658159e+00 4.131415e-01
<GCONST> 9.215625e+01
<TRANSP> 5
 0.000000e+00 1.000000e+00 0.000000e+00 0.000000e+00 0.000000e+00
 0.000000e+00 6.138209e-01 3.861791e-01 0.000000e+00 0.000000e+00
 0.000000e+00 0.000000e+00 7.253484e-01 2.746516e-01 0.000000e+00
 0.000000e+00 0.000000e+00 0.000000e+00 6.890445e-01 3.109554e-01
 0.000000e+00 0.000000e+00 0.000000e+00 0.000000e+00 0.000000e+00
<ENDHMM>
~h "\340\262\226\340\263\215"
<BEGINHMM>
<NUMSTATES> 5
<STATE> 2
<MEAN> 25
 -5.388707e+00 2.515104e+00 2.675661e-01 3.836410e+00 3.801309e+00 1.985412e+00 5.575832e+00 2.540473e+00 2.728138e+00 4.069769e+00 3.375030e+00 3.201056e+00 -8.706992e-01 2.995013e-02 5.613999e-01 -5.267865e-01 1.840955e-01 -5.032025e-01 4.728757e-01 4.929206e-02 -1.889455e-02 1.862914e-01 1.569033e-01 5.154166e-02 3.726704e-01
<VARIANCE> 25
 1.133977e+01 9.899991e+00 1.816560e+01 4.243859e+01 1.916867e+01 2.774754e+01 2.174295e+01 1.678682e+01 1.984747e+01 2.601242e+01 2.360945e+01 1.573965e+01 2.473153e+00 1.433185e+00 2.686006e+00 3.844602e+00 2.019004e+00 3.332685e+00 3.371605e+00 1.838521e+00 2.239212e+00 2.303328e+00 2.340071e+00 1.772111e+00 1.446564e+00
<GCONST> 9.241904e+01
<STATE> 3
<MEAN> 25
 -9.290143e+00 3.634959e+00 2.686230e+00 -6.645344e-01 5.017684e+00 -7.064068e-01 6.500777e+00 2.210960e+00 2.072734e+00 2.073108e+00 2.741081e+00 2.199730e+00 5.640787e-01 2.545851e-01 -8.896806e-01 8.361934e-01 -1.006143e-01 6.106741e-01 -6.561521e-01 1.069069e-01 4.888077e-01 9.207384e-02 -1.610225e-01 4.850955e-01 -6.696485e-01
<VARIANCE> 25
 3.749901e+01 2.067210e+01 2.973752e+01 4.404934e+01 1.678636e+01 3.100696e+01 2.785082e+01 2.061153e+01 1.765420e+01 2.024075e+01 1.892505e+01 1.645885e+01 3.299442e+00 1.458389e+00 2.564698e+00 2.162596e+00 1.801964e+00 3.666627e+00 3.044680e+00 2.109673e+00 1.823251e+00 1.582737e+00 1.664450e+00 1.672433e+00 2.351329e+00
<GCONST> 9.397610e+01
<STATE> 4
<MEAN> 25
 -3.903080e+00 4.184576e+00 2.093229e-01 5.327900e+00 3.948145e+00 2.740784e+00 3.081236e+00 4.059940e+00 3.592092e+00 3.446933e+00 4.142321e+00 3.692841e+00 5.357882e-03 -1.236236e-02 3.139524e-02 4.836411e-03 -1.848808e-02 4.853252e-04 -8.434439e-04 3.214560e-03 2.222309e-02 7.128316e-03 -1.069710e-02 -1.104060e-02 9.810070e-03
<VARIANCE> 25
 2.256558e+00 3.407625e+00 4.633021e+00 8.296376e+00 7.015912e+00 1.014468e+01 9.668059e+00 9.653710e+00 1.146417e+01 1.248289e+01 1.200061e+01 9.860525e+00 1.495988e-01 2.764429e-01 4.058702e-01 6.556779e-01 7.324084e-01 9.163914e-01 1.002143e+00 1.012086e+00 1.160247e+00 1.229179e+00 1.237029e+00 1.069360e+00 1.734626e-01
<GCONST> 6.416323e+01
<TRANSP> 5
 0.000000e+00 1.000000e+00 0.000000e+00 0.000000e+00 0.000000e+00
 0.000000e+00 7.812311e-01 2.187689e-01 0.000000e+00 0.000000e+00
 0.000000e+00 0.000000e+00 6.147048e-01 3.852952e-01 0.000000e+00
 0.000000e+00 0.000000e+00 0.000000e+00 9.720003e-01 2.799965e-02
 0.000000e+00 0.000000e+00 0.000000e+00 0.000000e+00 0.000000e+00
<ENDHMM>
~h "\340\262\247\340\263\215"
<BEGINHMM>
<NUMSTATES> 5
<STATE> 2
<MEAN> 25
 5.976794e+00 3.643692e+00 5.234819e+00 3.940807e+00 -2.640077e-01 -8.105865e+00 -6.323935e+00 -8.952025e-01 -1.543191e+00 -5.695673e+00 -8.288828e+00 -2.126678e+00 4.786093e-01 2.432532e+00 1.718618e+00 2.134815e+00 1.238360e+00 1.236098e+00 1.028623e+00 -6.759274e-01 -2.032366e-01 -1.284366e+00 -2.853267e-01 -8.190349e-01 -2.523286e+00
<VARIANCE> 25
 1.863749e+01 3.772068e+01 3.257547e+01 3.459759e+01 3.381098e+01 5.518558e+01 7.866573e+01 3.779417e+01 4.869569e+01 2.808209e+01 2.627825e+01 2.777466e+01 2.505693e+00 1.343945e+00 3.085404e+00 2.492955e+00 3.909804e+00 5.973887e+00 5.173615e+00 3.559600e+00 4.856963e+00 1.974267e+00 2.108889e+00 2.281736e+00 5.458884e+00
<GCONST> 1.037195e+02
<STATE> 3
<MEAN> 25
 5.128802e+00 1.131062e+01 9.220872e+00 9.429826e+00 3.070567e+00 -2.202946e+00 -2.376055e+00 -2.060342e+00 -1.955379e+00 -7.297314e+00 -7.334907e+00 -3.473215e+00 -1.901521e+00 -6.468686e-01 -1.466222e+00 -3.654943e-01 4.976719e-01 4.337216e-01 8.845838e-01 -2.667576e-02 3.041599e-01 7.161722e-01 1.188368e+00 1.709695e-01 9.150161e-01
<VARIANCE> 25
 1.455893e+01 1.685743e+01 2.313478e+01 1.699908e+01 2.542851e+01 2.416242e+01 2.800926e+01 2.305559e+01 4.365423e+01 1.567051e+01 1.963365e+01 1.907542e+01 2.760679e+00 3.116010e+00 4.409037e+00 2.320437e+00 2.178172e+00 2.093815e+00 3.138736e+00 2.327522e+00 4.432957e+00 2.261381e+00 2.161447e+00 1.650689e+00 4.964703e+00
<GCONST> 9.593217e+01
<STATE> 4
<MEAN> 25
 -2.747252e+00 1.626380e+00 -1.146128e+00 1.367591e+00 7.637733e-01 -4.721635e+00 2.981871e+00 1.632999e+00 1.084750e+00 -3.898651e+00 -2.873845e+00 2.063732e+00 -2.569329e-01 -1.806839e+00 -8.184629e-01 -1.572883e+00 -1.528581e+00 -7.526723e-01 1.069219e-01 1.270465e+00 6.834193e-01 1.700266e-01 -1.728943e-01 1.270999e+00 2.888466e+00
<VARIANCE> 25
 1.766508e+01 1.389174e+01 1.366720e+01 1.792381e+01 2.188517e+01 2.837871e+01 1.909247e+01 4.154287e+01 2.537705e+01 1.957710e+01 2.829618e+01 2.989657e+01 3.647861e+00 2.593091e+00 3.911158e+00 3.634959e+00 4.744524e+00 5.547646e+00 4.017051e+00 6.139495e+00 4.330904e+00 2.922493e+00 5.630345e+00 3.605252e+00 4.339918e+00
<GCONST> 1.014008e+02
<TRANSP> 5
 0.000000e+00 1.000000e+00 0.000000e+00 0.000000e+00 0.000000e+00
 0.000000e+00 7.196119e-01 2.803881e-01 0.000000e+00 0.000000e+00
 0.000000e+00 0.000000e+00 7.125021e-01 2.874979e-01 0.000000e+00
 0.000000e+00 0.000000e+00 0.000000e+00 6.815331e-01 3.184670e-01
 0.000000e+00 0.000000e+00 0.000000e+00 0.000000e+00 0.000000e+00
<ENDHMM>
~h "\340\262\270\340\263\215"
<BEGINHMM>
<NUMSTATES> 5
<STATE> 2
<MEAN> 25
 -5.835053e+00 6.422574e+00 7.570662e-01 2.740578e+00 -1.618203e+00 -8.572973e+00 2.900613e+00 -3.711304e+00 -1.101425e+00 -1.990541e+00 -1.926042e+00 3.950196e-01 -4.052500e+00 1.332846e+00 -1.434337e+00 7.571641e-01 1.909791e+00 -5.199643e-01 2.436852e+00 5.854387e-01 7.230581e-01 -2.393359e-01 1.015551e+00 8.514512e-01 4.954767e-01
<VARIANCE> 25
 6.742227e+01 3.953605e+01 3.110121e+01 3.790778e+01 5.943959e+01 4.326099e+01 6.485481e+01 6.573270e+01 4.816463e+01 2.859987e+01 3.134399e+01 2.688063e+01 5.608539e+00 5.181573e+00 3.140279e+00 6.560446e+00 4.120855e+00 6.286948e+00 5.968419e+00 6.386176e+00 3.237998e+00 2.711369e+00 2.870629e+00 2.550102e+00 3.387736e+00
<GCONST> 1.097551e+02
<STATE> 3
<MEAN> 25
 -2.137121e+01 7.444934e+00 -6.020488e+00 1.791991e+00 3.625917e+00 -5.887444e+00 9.904967e+00 -2.244144e-01 3.367321e+00 -5.718466e-01 2.935992e+00 3.689034e+00 -7.154397e-01 -2.441683e-01 -1.352956e-01 -3.257370e-01 8.997212e-02 -3.622518e-02 1.393411e-01 2.019698e-01 6.302416e-02 4.170904e-02 9.104122e-02 1.838409e-01 2.897300e-01
<VARIANCE> 25
 2.741082e+01 1.110676e+01 1.865715e+01 2.136767e+01 3.158308e+01 3.158201e+01 1.751772e+01 1.979950e+01 2.157975e+01 1.837097e+01 1.846217e+01 1.725000e+01 3.743315e+00 1.133650e+00 1.637675e+00 1.403378e+00 1.471971e+00 2.195211e+00 1.601543e+00 2.063422e+00 1.819629e+00 1.749669e+00 1.980007e+00 1.544026e+00 2.031106e+00
<GCONST> 8.978358e+01
<STATE> 4
<MEAN> 25
 -1.317083e+01 4.710752e+00 -7.639354e-01 -9.339289e-01 1.917325e+00 -1.033260e+01 3.418093e+00 -7.369315e-01 8.658913e-01 -2.369543e+00 -1.674824e+00 1.457723e+00 4.964053e+00 -1.037899e+00 9.086267e-01 -5.753547e-01 -1.748624e+00 -8.786421e-01 -2.978720e+00 -1.202692e+00 -3.559775e-01 -3.612348e-01 -1.465763e+00 -1.377979e+00 9.131674e-01
<VARIANCE> 25
 1.039100e+02 1.864946e+01 3.788721e+01 3.529292e+01 4.572041e+01 5.053717e+01 6.710696e+01 5.422989e+01 4.061737e+01 2.772679e+01 3.145719e+01 2.086674e+01 7.906991e+00 2.905754e+00 3.748253e+00 2.675377e+00 2.842676e+00 4.541619e+00 4.184617e+00 5.460033e+00 3.966142e+00 3.033283e+00 3.416407e+00 2.291833e+00 1.454887e+00
<GCONST> 1.062197e+02
<TRANSP> 5
 0.000000e+00 1.000000e+00 0.000000e+00 0.000000e+00 0.000000e+00
 0.000000e+00 7.082335e-01 2.917665e-01 0.000000e+00 0.000000e+00
 0.000000e+00 0.000000e+00 8.697376e-01 1.302624e-01 0.000000e+00
 0.000000e+00 0.000000e+00 0.000000e+00 7.224613e-01 2.775387e-01
 0.000000e+00 0.000000e+00 0.000000e+00 0.000000e+00 0.000000e+00
<ENDHMM>
~h "\340\262\237\340\263\215"
<BEGINHMM>
<NUMSTATES> 5
<STATE> 2
<MEAN> 25
 6.989353e-01 -2.849732e+00 -3.818191e+00 4.171123e+00 -4.423800e-01 -2.833650e+00 2.038408e+00 2.774372e+00 4.244167e+00 2.533448e+00 1.582532e+00 1.651676e-01 -1.228700e+00 3.049643e-01 -3.640244e-01 -4.133499e-01 8.191015e-01 1.040725e+00 1.058007e+00 3.208604e-01 8.603593e-01 1.210581e+00 9.988151e-01 8.744345e-01 -1.780222e+00
<VARIANCE> 25
 4.353873e+01 3.069619e+01 5.030751e+01 2.416792e+01 3.881622e+01 3.989878e+01 3.720255e+01 4.889240e+01 3.971817e+01 4.772535e+01 4.443921e+01 3.112117e+01 1.880900e+00 3.377774e+00 2.541686e+00 2.546436e+00 4.160646e+00 2.859619e+00 3.860408e+00 2.835113e+00 3.222306e+00 3.856487e+00 3.458947e+00 2.530329e+00 4.508064e+00
<GCONST> 1.046591e+02
<STATE> 3
<MEAN> 25
 -5.678008e+00 -1.839810e+00 -1.270038e+00 3.019259e+00 1.590363e+00 1.827016e+00 4.718328e+00 2.844912e+00 6.331791e+00 5.015490e+00 4.536550e+00 3.260061e+00 -6.962757e-03 -1.038705e+00 1.546626e+00 -7.931282e-01 -9.726493e-01 -7.904505e-01 -2.468239e-01 -6.509576e-01 -1.331067e+00 -1.297688e+00 -6.955546e-01 -2.550766e-01 2.973105e+00
<VARIANCE> 25
 3.486031e+01 3.739770e+01 5.391930e+01 1.886847e+01 2.396567e+01 2.992895e+01 1.995142e+01 2.498078e+01 2.807405e+01 2.556263e+01 2.670513e+01 1.863256e+01 1.594300e+00 3.310471e+00 3.998520e+00 5.101895e+00 4.419138e+00 4.605611e+00 3.042936e+00 4.098621e+00 3.970074e+00 2.764024e+00 2.844344e+00 1.920357e+00 8.587400e+00
<GCONST> 1.020769e+02
<STATE> 4
<MEAN> 25
 -2.319993e+00 -6.228959e+00 2.734097e+00 -4.630787e-01 -4.693261e+00 -3.258272e+00 9.372239e-01 -2.618048e-01 2.832609e-02 -7.114910e-01 1.125580e+00 7.518256e-01 2.234271e+00 -3.857085e-01 1.067025e+00 -1.244403e+00 -2.929386e+00 -1.379912e+00 -2.487755e+00 -7.489230e-01 -2.014931e+00 -1.067976e+00 -1.453807e+00 -1.594912e+00 4.126791e+00
<VARIANCE> 25
 6.468032e+01 3.659658e+01 5.752339e+01 4.878764e+01 7.017596e+01 4.708077e+01 7.245831e+01 3.156748e+01 4.104206e+01 3.516380e+01 3.954560e+01 3.082198e+01 3.753374e+00 5.439082e+00 5.792028e+00 4.484372e+00 8.379116e+00 6.308119e+00 6.358463e+00 5.882502e+00 4.778403e+00 3.806754e+00 4.823372e+00 4.043183e+00 1.207331e+01
<GCONST> 1.140994e+02
<TRANSP> 5
 0.000000e+00 1.000000e+00 0.000000e+00 0.000000e+00 0.000000e+00
 0.000000e+00 7.795315e-01 2.204686e-01 0.000000e+00 0.000000e+00
 0.000000e+00 0.000000e+00 4.731921e-01 5.268079e-01 0.000000e+00
 0.000000e+00 0.000000e+00 0.000000e+00 4.548552e-01 5.451447e-01
 0.000000e+00 0.000000e+00 0.000000e+00 0.000000e+00 0.000000e+00
<ENDHMM>
~h "\340\262\260\340\263\215"
<BEGINHMM>
<NUMSTATES> 5
<STATE> 2
<MEAN> 25
 1.968885e+00 -5.155052e+00 2.256052e+00 4.130132e+00 -4.888721e+00 -9.842690e+00 -1.016092e+00 -8.817375e-01 1.215721e+00 -2.228315e+00 -4.261844e+00 2.929890e-01 1.174661e+00 -3.369944e-01 6.457925e-01 8.127818e-01 -1.364432e+00 -4.630684e-01 -9.376493e-01 -4.132097e-01 -1.538688e-01 -5.810534e-01 -9.724993e-03 2.578220e-01 2.995752e-01
<VARIANCE> 25
 4.096671e+01 3.543069e+01 4.731310e+01 3.746223e+01 6.026754e+01 4.777070e+01 4.163974e+01 4.017451e+01 3.620740e+01 2.538585e+01 2.872869e+01 2.501565e+01 5.244023e+00 3.235906e+00 5.293810e+00 4.086803e+00 5.401625e+00 4.741562e+00 4.976952e+00 4.276608e+00 3.605373e+00 2.883126e+00 3.211889e+00 3.139663e+00 5.078852e+00
<GCONST> 1.079798e+02
<STATE> 3
<MEAN> 25
 1.015137e+01 -1.036594e+01 -1.946928e+00 4.916953e+00 -1.392341e+01 -8.931790e+00 -8.757372e+00 -8.097001e-01 2.015744e+00 -2.424674e+00 -4.432160e+00 -2.357795e+00 1.149172e+00 -1.248994e+00 -1.266924e+00 -5.617297e-01 -1.651811e+00 1.771655e+00 -1.757530e+00 9.259474e-01 -1.655067e-01 -8.198655e-02 8.800749e-01 -1.426204e+00 8.906972e-01
<VARIANCE> 25
 1.454913e+01 2.585384e+01 4.720871e+01 2.280260e+01 5.193677e+01 3.652817e+01 3.725100e+01 3.465173e+01 3.997710e+01 2.170055e+01 2.727158e+01 2.900065e+01 2.506854e+00 2.660932e+00 4.127174e+00 3.173013e+00 5.116837e+00 4.228189e+00 4.185383e+00 4.202691e+00 3.851552e+00 3.352957e+00 3.614906e+00 3.275444e+00 2.046802e+00
<GCONST> 1.031660e+02
<STATE> 4
<MEAN> 25
 1.056648e+01 -8.391709e+00 -3.360986e+00 -3.294713e+00 -1.095048e+01 -1.595301e+00 -1.082223e+01 -2.131111e+00 -4.694822e+00 -2.195354e+00 1.067304e+00 -6.615067e+00 -2.866757e-01 5.854574e-01 -1.131415e-01 -1.767001e+00 1.108855e+00 9.587864e-01 6.289830e-01 -1.173247e-01 -1.221609e+00 -6.325317e-02 3.781907e-01 -4.574704e-01 6.297313e-02
<VARIANCE> 25
 2.452042e+01 5.128153e+01 7.628642e+01 6.642859e+01 4.863202e+01 5.094909e+01 4.970360e+01 6.880071e+01 8.976286e+01 3.688767e+01 7.303258e+01 3.239011e+01 7.898639e-01 2.417116e+00 2.133712e+00 4.329216e+00 3.292387e+00 3.823176e+00 3.141265e+00 3.771150e+00 4.463317e+00 3.204133e+00 3.927890e+00 2.931447e+00 1.531096e+00
<GCONST> 1.068451e+02
<TRANSP> 5
 0.000000e+00 1.000000e+00 0.000000e+00 0.000000e+00 0.000000e+00
 0.000000e+00 6.315163e-01 3.684837e-01 0.000000e+00 0.000000e+00
 0.000000e+00 0.000000e+00 5.721033e-01 4.278967e-01 0.000000e+00
 0.000000e+00 0.000000e+00 0.000000e+00 5.562623e-01 4.437377e-01
 0.000000e+00 0.000000e+00 0.000000e+00 0.000000e+00 0.000000e+00
<ENDHMM>
~h "\340\262\227\340\263\215"
<BEGINHMM>
<NUMSTATES> 5
<STATE> 2
<MEAN> 25
 6.295690e+00 -1.003952e+00 6.463195e-01 -4.119746e+00 -2.659710e+00 -4.202212e+00 -6.713399e+00 -3.800268e+00 -7.419698e+00 6.474358e-01 -7.414321e-01 -4.291472e+00 7.398589e-01 1.211849e+00 1.023813e+00 7.585635e-01 -2.696978e-01 -6.737871e-01 -3.902171e-01 -1.074098e+00 -1.478484e+00 -1.717975e-01 4.659443e-01 -1.468691e-01 -6.627429e-01
<VARIANCE> 25
 3.689113e+01 5.377417e+01 6.891573e+01 6.097013e+01 7.810443e+01 5.815817e+01 6.906879e+01 8.062071e+01 5.957852e+01 4.048791e+01 4.760145e+01 3.592040e+01 2.571549e+00 6.262649e+00 4.598000e+00 7.743377e+00 7.318144e+00 4.136485e+00 5.503654e+00 5.005018e+00 5.480334e+00 2.927165e+00 3.732767e+00 3.689030e+00 9.432983e+00
<GCONST> 1.148810e+02
<STATE> 3
<MEAN> 25
 8.877056e+00 2.133053e+00 3.970448e+00 -1.146000e-01 -3.181193e+00 -5.816854e+00 -6.621417e+00 -5.093873e+00 -8.405424e+00 -1.949067e+00 -3.025150e+00 -6.467875e+00 -2.027864e-01 2.107074e+00 7.489527e-01 1.980088e+00 1.443926e+00 7.122777e-01 1.529225e+00 -1.556223e+00 4.090523e-01 -9.003515e-01 -6.192672e-01 -9.285424e-02 -2.676929e+00
<VARIANCE> 25
 1.593228e+01 3.542155e+01 3.383181e+01 4.420448e+01 5.070544e+01 4.827785e+01 5.947647e+01 6.746060e+01 4.101814e+01 3.752715e+01 4.057522e+01 2.771752e+01 1.237998e+00 3.843617e+00 2.460091e+00 3.471406e+00 5.372886e+00 5.045122e+00 4.606288e+00 6.798903e+00 3.533911e+00 3.007383e+00 3.469263e+00 2.466181e+00 3.622835e+00
<GCONST> 1.063032e+02
<STATE> 4
<MEAN> 25
 7.795033e+00 5.504600e+00 2.864113e+00 8.281900e-01 -1.712167e-02 -2.161926e+00 -2.896926e+00 -7.640844e+00 -8.061247e+00 -3.605201e+00 -2.772570e+00 -5.416865e+00 -1.578750e+00 -9.441981e-01 -6.236835e-01 -2.011187e-01 1.205675e+00 -4.822338e-01 1.240902e-01 9.639971e-01 9.641361e-01 5.806137e-01 -3.862423e-02 7.685541e-01 5.241235e-01
<VARIANCE> 25
 2.165554e+01 3.114980e+01 4.257484e+01 4.720806e+01 5.896205e+01 5.290393e+01 4.123155e+01 4.139576e+01 5.726057e+01 3.068479e+01 5.824261e+01 1.985085e+01 3.563285e+00 4.047825e+00 4.065208e+00 3.990727e+00 7.390602e+00 4.585887e+00 5.489527e+00 4.593318e+00 3.956064e+00 3.427858e+00 3.464768e+00 3.380680e+00 4.170113e+00
<GCONST> 1.087806e+02
<TRANSP> 5
 0.000000e+00 1.000000e+00 0.000000e+00 0.000000e+00 0.000000e+00
 0.000000e+00 4.214029e-01 5.785971e-01 0.000000e+00 0.000000e+00
 0.000000e+00 0.000000e+00 5.009841e-01 4.990160e-01 0.000000e+00
 0.000000e+00 0.000000e+00 0.000000e+00 5.726671e-01 4.273329e-01
 0.000000e+00 0.000000e+00 0.000000e+00 0.000000e+00 0.000000e+00
<ENDHMM>
~h "\340\262\250\340\263\215"
<BEGINHMM>
<NUMSTATES> 5
<STATE> 2
<MEAN> 25
 7.274830e+00 -7.313856e-02 5.388059e+00 7.426803e-01 -5.038383e+00 -7.801310e+00 -2.110125e+00 2.696657e-01 -6.523584e+00 -5.982648e+00 -4.803957e+00 3.956043e-01 1.342295e+00 1.905736e+00 1.588098e+00 2.087251e-01 2.517888e-01 -1.736239e+00 3.393768e-01 -1.364995e+00 -2.154254e+00 2.441489e-01 6.625822e-02 2.665917e-01 -5.254959e-01
<VARIANCE> 25
 3.083602e+01 5.670348e+01 2.578404e+01 3.056011e+01 4.750577e+01 5.645091e+01 4.317065e+01 4.732069e+01 6.223021e+01 3.103706e+01 4.557016e+01 2.401036e+01 1.677673e+00 2.571903e+00 3.231128e+00 2.881775e+00 4.810752e+00 3.749669e+00 2.915684e+00 3.075677e+00 3.850914e+00 3.017000e+00 2.249799e+00 2.585292e+00 4.499033e+00
<GCONST> 1.046596e+02
<STATE> 3
<MEAN> 25
 1.173312e+01 4.583899e+00 7.676146e+00 -1.037818e+00 -5.988595e+00 -1.017035e+01 5.791367e-01 -5.093355e+00 -1.514646e+01 -5.021449e+00 -2.574780e+00 4.671341e-01 -6.148074e-02 -3.517765e-01 -7.892346e-02 1.037195e-01 -2.600407e-01 -9.523547e-02 -2.107485e-01 2.957036e-01 2.115961e-01 -3.946980e-01 3.106441e-02 -1.281669e-01 3.128079e-01
<VARIANCE> 25
 5.078763e+00 1.852987e+01 1.397445e+01 1.622929e+01 1.922681e+01 3.037026e+01 2.827380e+01 4.197105e+01 5.585926e+01 2.669770e+01 3.709211e+01 3.009070e+01 3.913366e-01 2.110390e+00 9.182047e-01 1.451181e+00 1.840564e+00 1.818392e+00 2.158296e+00 2.578844e+00 3.878749e+00 1.766918e+00 1.621681e+00 1.438676e+00 1.309324e+00
<GCONST> 8.975099e+01
<STATE> 4
<MEAN> 25
 8.354909e+00 -2.808361e+00 5.207782e+00 -1.552385e+00 -7.577462e+00 -7.883219e+00 -4.908629e+00 9.050789e-01 -6.590169e+00 -7.905763e+00 -3.925883e+00 -1.578319e+00 -9.463608e-01 -2.183274e+00 -1.279598e+00 -1.278023e+00 -6.292078e-01 1.860004e+00 -8.311841e-01 8.285961e-01 1.750693e+00 -6.880955e-02 7.808976e-02 -7.609253e-01 1.448373e+00
<VARIANCE> 25
 1.683421e+01 4.668505e+01 3.205248e+01 3.478330e+01 5.706786e+01 3.788143e+01 3.850767e+01 4.213584e+01 6.354346e+01 2.890821e+01 3.234972e+01 2.808960e+01 9.644726e-01 3.736650e+00 3.457615e+00 3.055869e+00 6.016915e+00 3.727886e+00 4.363637e+00 4.874425e+00 5.819222e+00 3.831881e+00 3.161896e+00 2.613368e+00 2.140658e+00
<GCONST> 1.048134e+02
<TRANSP> 5
 0.000000e+00 1.000000e+00 0.000000e+00 0.000000e+00 0.000000e+00
 0.000000e+00 6.520109e-01 3.479891e-01 0.000000e+00 0.000000e+00
 0.000000e+00 0.000000e+00 7.143793e-01 2.856207e-01 0.000000e+00
 0.000000e+00 0.000000e+00 0.000000e+00 6.188978e-01 3.811022e-01
 0.000000e+00 0.000000e+00 0.000000e+00 0.000000e+00 0.000000e+00
<ENDHMM>
~h "\340\262\271\340\263\215"
<BEGINHMM>
<NUMSTATES> 5
<STATE> 2
<MEAN> 25
 -5.511569e+00 2.778060e+00 -1.833200e+00 4.439826e+00 5.349511e+00 4.182151e+00 5.931561e+00 4.682916e+00 5.231591e+00 3.525996e+00 3.938468e+00 4.395864e+00 -3.250371e-03 7.253540e-02 5.361510e-02 2.828478e-04 -2.527600e-02 -1.678374e-02 5.010745e-02 -2.247140e-02 -4.900655e-02 -4.827695e-02 3.653741e-02 2.592627e-02 -1.855409e-02
<VARIANCE> 25
 1.130113e+01 1.023584e+01 8.933168e+00 1.541714e+01 1.289154e+01 1.747022e+01 1.714964e+01 1.739758e+01 1.702706e+01 2.260369e+01 1.920173e+01 1.544562e+01 5.415134e-01 6.580541e-01 7.918506e-01 1.038555e+00 9.837196e-01 1.204028e+00 1.464352e+00 1.606785e+00 1.469462e+00 1.679092e+00 1.774390e+00 1.485897e+00 4.412256e-01
<GCONST> 7.923553e+01
<STATE> 3
<MEAN> 25
 -7.770754e-01 -2.770137e-01 -2.165980e+00 6.353886e-01 5.514259e+00 5.578954e+00 3.205132e+00 5.919787e-01 1.578680e+00 -2.542027e+00 2.544962e-01 2.076276e+00 5.367799e-01 -3.074399e-01 -8.742934e-02 -5.997550e-01 -7.773647e-01 1.009669e-01 -3.235470e-01 -8.830901e-01 -4.961071e-01 -4.175412e-01 -3.881643e-01 -2.418787e-01 7.823932e-01
<VARIANCE> 25
 2.178584e+01 2.365698e+01 2.244743e+01 3.772660e+01 3.160013e+01 3.549341e+01 4.177607e+01 3.222311e+01 2.587691e+01 3.305776e+01 3.145364e+01 1.839638e+01 1.009676e+00 1.390262e+00 1.841070e+00 2.094363e+00 2.623845e+00 3.182972e+00 3.030451e+00 2.036079e+00 1.968591e+00 2.806109e+00 2.376304e+00 1.988862e+00 9.008068e-01
<GCONST> 9.506184e+01
<STATE> 4
<MEAN> 25
 1.003853e+00 -2.759490e+00 -3.213811e+00 -2.170376e+00 5.982758e-01 2.914833e+00 2.644823e+00 -1.091460e-01 5.276620e-02 -3.882296e+00 -2.191488e+00 9.126943e-01 1.216943e+00 -8.818433e-01 -9.638373e-02 -1.559897e+00 -1.213119e+00 -4.617018e-01 -1.017590e+00 -6.880765e-01 -6.118178e-01 -5.272774e-01 -8.696752e-01 -8.503749e-01 2.639987e+00
<VARIANCE> 25
 2.247628e+01 2.914754e+01 2.990795e+01 3.378078e+01 6.414693e+01 4.158641e+01 4.575076e+01 4.058051e+01 2.605866e+01 3.093224e+01 3.768392e+01 2.242266e+01 1.364052e+00 3.522945e+00 2.189626e+00 2.657214e+00 3.398846e+00 3.193769e+00 3.617979e+00 2.734173e+00 2.118920e+00 2.662287e+00 2.845218e+00 2.302097e+00 2.214079e+00
<GCONST> 1.006082e+02
<TRANSP> 5
 0.000000e+00 1.000000e+00 0.000000e+00 0.000000e+00 0.000000e+00
 0.000000e+00 8.435554e-01 1.564446e-01 0.000000e+00 0.000000e+00
 0.000000e+00 0.000000e+00 4.989392e-01 5.010608e-01 0.000000e+00
 0.000000e+00 0.000000e+00 0.000000e+00 7.147107e-01 2.852894e-01
 0.000000e+00 0.000000e+00 0.000000e+00 0.000000e+00 0.000000e+00
<ENDHMM>
~h "\340\262\205"
<BEGINHMM>
<NUMSTATES> 5
<STATE> 2
<MEAN> 25
 4.952775e+00 -5.357078e+00 -3.210681e+00 -3.594175e+00 -4.012288e+00 -6.929246e+00 -5.718027e+00 1.166294e+00 7.010752e-01 -1.579987e+00 -4.983027e+00 -2.777451e+00 1.133584e+00 -2.311755e+00 -1.339527e+00 -1.884815e+00 -1.066616e+00 1.325275e-01 -1.241605e+00 1.370918e+00 8.210831e-01 2.126985e-01 -1.144364e+00 -9.716029e-01 2.460251e+00
<VARIANCE> 25
 2.636029e+01 4.140059e+01 3.251151e+01 4.465855e+01 6.848483e+01 6.790255e+01 5.224617e+01 4.676748e+01 3.873701e+01 4.213143e+01 3.494198e+01 3.362081e+01 3.778835e+00 3.902293e+00 3.427926e+00 4.473994e+00 6.424335e+00 6.113362e+00 5.170734e+00 4.926975e+00 4.242614e+00 3.905275e+00 4.039373e+00 3.719875e+00 3.944738e+00
<GCONST> 1.101542e+02
<STATE> 3
<MEAN> 25
 6.436214e+00 -1.158169e+01 -6.848366e+00 -7.776169e+00 -3.986951e+00 -3.054004e+00 -6.641852e+00 2.725585e+00 1.635641e+00 -2.564774e+00 -1.002839e+01 -5.554388e+00 3.321498e-02 -3.195113e-01 -2.493043e-01 -1.181119e-01 3.786546e-01 4.666889e-01 -1.457653e-01 -2.350115e-01 -4.697302e-02 -1.624190e-01 -2.831293e-01 -7.289165e-02 1.425158e-01
<VARIANCE> 25
 8.000879e+00 2.231957e+01 2.260198e+01 2.786457e+01 3.189642e+01 7.062901e+01 3.354461e+01 4.342589e+01 2.174567e+01 3.862830e+01 2.969054e+01 3.066127e+01 4.872650e-01 2.097388e+00 1.400127e+00 2.013997e+00 2.626862e+00 4.010384e+00 2.467711e+00 3.665753e+00 1.698389e+00 1.874038e+00 2.048664e+00 1.854170e+00 8.074480e-01
<GCONST> 9.402238e+01
<STATE> 4
<MEAN> 25
 4.752752e+00 -3.098021e+00 -5.734193e+00 -2.834620e+00 3.688538e+00 2.935444e+00 -5.343025e+00 -1.900986e+00 1.378807e+00 -6.622921e+00 -4.639142e+00 -3.335954e+00 -4.612993e-01 9.437292e-01 5.527508e-01 9.202476e-01 3.695856e-01 -1.281794e-01 6.181471e-01 1.344626e-01 6.015857e-02 2.747276e-01 5.966879e-01 4.645946e-01 -1.673751e+00
<VARIANCE> 25
 2.543608e+01 3.095054e+01 2.313437e+01 4.062976e+01 5.430764e+01 6.844478e+01 6.359318e+01 4.497406e+01 2.435342e+01 5.839844e+01 3.731149e+01 3.325546e+01 1.233100e+00 1.704856e+00 1.787970e+00 2.559773e+00 2.564963e+00 3.096169e+00 3.406863e+00 3.085320e+00 2.131993e+00 3.733303e+00 2.461683e+00 2.296521e+00 1.343193e+00
<GCONST> 1.008143e+02
<TRANSP> 5
 0.000000e+00 1.000000e+00 0.000000e+00 0.000000e+00 0.000000e+00
 0.000000e+00 5.080382e-01 4.919619e-01 0.000000e+00 0.000000e+00
 0.000000e+00 0.000000e+00 7.341804e-01 2.658196e-01 0.000000e+00
 0.000000e+00 0.000000e+00 0.000000e+00 8.199131e-01 1.800869e-01
 0.000000e+00 0.000000e+00 0.000000e+00 0.000000e+00 0.000000e+00
<ENDHMM>
~h "\340\262\206"
<BEGINHMM>
<NUMSTATES> 5
<STATE> 2
<MEAN> 25
 3.648457e+00 -9.239195e+00 -6.932924e+00 -6.635655e+00 1.367874e+00 3.172289e+00 -9.849606e-01 -2.223027e+00 4.008436e-01 -3.209960e+00 -5.863541e+00 -4.493370e+00 7.211438e-01 -1.853022e+00 -1.042440e+00 -1.493394e+00 3.385444e-01 1.945857e+00 -4.514834e-01 -1.013729e+00 -4.075370e-01 -6.273764e-01 -2.487471e-01 -1.016979e+00 1.700279e+00
<VARIANCE> 25
 3.764868e+01 4.612486e+01 3.090890e+01 4.782453e+01 4.302693e+01 7.594470e+01 5.118754e+01 4.399343e+01 3.184764e+01 4.239446e+01 4.041471e+01 3.825320e+01 2.737567e+00 3.580491e+00 2.547209e+00 3.420234e+00 3.748953e+00 4.530456e+00 3.611528e+00 3.955576e+00 3.306775e+00 3.077097e+00 3.594728e+00 2.807624e+00 4.857874e+00
<GCONST> 1.072191e+02
<STATE> 3
<MEAN> 25
 7.254331e+00 -1.442452e+01 -1.005268e+01 -1.122491e+01 1.790583e+00 9.584856e+00 -5.404380e+00 -7.679664e+00 -1.601737e+00 -5.902407e+00 -4.624572e+00 -7.204752e+00 1.460773e-02 7.643481e-02 -6.897324e-02 -1.466412e-02 9.815516e-02 8.710323e-02 -3.272852e-01 -9.242646e-02 1.118777e-01 7.963187e-02 -1.015676e-01 4.460447e-02 4.181756e-02
<VARIANCE> 25
 7.912137e+00 1.920026e+01 1.603121e+01 2.784419e+01 2.151797e+01 3.264754e+01 5.066481e+01 2.387026e+01 2.612476e+01 3.936472e+01 4.009423e+01 3.453363e+01 2.412055e-01 6.470995e-01 5.702088e-01 1.086224e+00 1.010171e+00 1.742576e+00 9.526704e-01 1.715394e+00 8.191950e-01 8.293899e-01 1.206993e+00 7.247565e-01 1.956979e-01
<GCONST> 8.146162e+01
<STATE> 4
<MEAN> 25
 7.051594e+00 -1.007575e+01 -8.905728e+00 -6.502996e+00 -6.149549e-01 2.598429e+00 -6.438570e+00 -2.217995e+00 1.506899e+00 -5.112140e+00 -8.156321e+00 -6.323458e+00 1.939163e-02 1.358250e+00 9.788985e-01 1.339350e+00 -8.570806e-01 -2.140726e+00 1.275938e-01 1.137686e+00 2.952508e-01 3.428213e-01 -1.406407e-01 5.310794e-01 -1.189632e+00
<VARIANCE> 25
 9.112204e+00 3.376397e+01 1.854252e+01 3.902435e+01 3.922556e+01 5.288667e+01 4.321060e+01 3.868541e+01 2.373820e+01 4.699533e+01 3.454869e+01 3.290091e+01 6.862393e-01 1.782659e+00 2.076613e+00 1.973513e+00 2.749918e+00 3.839889e+00 3.169713e+00 3.305296e+00 2.490025e+00 2.328359e+00 2.926104e+00 2.298436e+00 1.381276e+00
<GCONST> 9.767690e+01
<TRANSP> 5
 0.000000e+00 1.000000e+00 0.000000e+00 0.000000e+00 0.000000e+00
 0.000000e+00 7.437484e-01 2.562516e-01 0.000000e+00 0.000000e+00
 0.000000e+00 0.000000e+00 8.811566e-01 1.188435e-01 0.000000e+00
 0.000000e+00 0.000000e+00 0.000000e+00 7.917293e-01 2.082707e-01
 0.000000e+00 0.000000e+00 0.000000e+00 0.000000e+00 0.000000e+00
<ENDHMM>
~h "\340\262\207"
<BEGINHMM>
<NUMSTATES> 5
<STATE> 2
<MEAN> 25
 1.171115e-01 1.607750e+00 1.212303e+01 -3.938518e+00 -1.009755e+01 -5.262722e+00 -3.324929e+00 -7.146206e+00 -8.511890e+00 -1.688390e+00 -1.242136e+00 -3.227058e+00 9.659953e-01 -3.376293e-01 1.915935e+00 -1.849360e+00 -3.104736e+00 2.678112e-01 -1.686778e+00 -8.603442e-01 -1.951439e+00 7.258947e-01 5.966586e-02 -1.086246e+00 1.918733e+00
<VARIANCE> 25
 3.079611e+01 3.585118e+01 3.723267e+01 4.329246e+01 7.560614e+01 5.310249e+01 3.272453e+01 3.954115e+01 4.854973e+01 2.646515e+01 2.915520e+01 2.399874e+01 6.081672e+00 3.708134e+00 4.266410e+00 3.756363e+00 5.077714e+00 5.257965e+00 3.830102e+00 4.465065e+00 4.917247e+00 3.181343e+00 3.625155e+00 2.641270e+00 3.707099e+00
<GCONST> 1.078444e+02
<STATE> 3
<MEAN> 25
 1.811827e+00 4.762717e+00 1.501815e+01 -9.291882e+00 -1.543964e+01 4.346573e-01 -8.993211e+00 -1.095325e+01 -9.957118e+00 -2.883639e-01 -5.087095e+00 -4.911510e+00 1.689642e-01 4.511756e-01 -2.536517e-01 3.440056e-01 2.480678e-01 3.497858e-01 3.835005e-01 -1.910754e-01 1.828584e-01 -2.601244e-01 -2.948809e-01 9.271440e-02 -5.487403e-01
<VARIANCE> 25
 8.429291e+00 4.506788e+01 2.197282e+01 3.161099e+01 2.585868e+01 5.842371e+01 2.924282e+01 3.573651e+01 2.748500e+01 2.498558e+01 4.644964e+01 2.230386e+01 5.428670e-01 1.801776e+00 1.283380e+00 2.530301e+00 2.347683e+00 3.038524e+00 3.091716e+00 2.439775e+00 1.696945e+00 1.643513e+00 1.863403e+00 1.453116e+00 9.194813e-01
<GCONST> 9.325635e+01
<STATE> 4
<MEAN> 25
 -9.769911e-01 2.667057e+00 8.105385e+00 1.033224e+00 -5.594722e+00 -1.834361e+00 1.937108e+00 -4.460688e+00 -4.685404e+00 -1.405740e+00 -5.580773e-01 -1.109461e+00 -4.556653e-01 -2.267222e-01 -1.078987e+00 1.225215e+00 1.625667e+00 -4.541119e-01 8.807733e-01 1.052639e+00 9.296668e-01 1.873079e-01 7.724510e-01 7.624688e-01 -1.511428e+00
<VARIANCE> 25
 3.582917e+01 3.611332e+01 3.729852e+01 4.658397e+01 7.622533e+01 7.903703e+01 4.771970e+01 5.720008e+01 5.319484e+01 3.426590e+01 4.627899e+01 3.244866e+01 2.533658e+00 3.693834e+00 2.461352e+00 4.483377e+00 4.583952e+00 6.565759e+00 4.400918e+00 3.387943e+00 3.256388e+00 3.713704e+00 3.507315e+00 2.466932e+00 2.876097e+00
<GCONST> 1.084613e+02
<TRANSP> 5
 0.000000e+00 1.000000e+00 0.000000e+00 0.000000e+00 0.000000e+00
 0.000000e+00 6.651948e-01 3.348053e-01 0.000000e+00 0.000000e+00
 0.000000e+00 0.000000e+00 8.268428e-01 1.731572e-01 0.000000e+00
 0.000000e+00 0.000000e+00 0.000000e+00 7.540444e-01 2.459556e-01
 0.000000e+00 0.000000e+00 0.000000e+00 0.000000e+00 0.000000e+00
<ENDHMM>
~h "\340\262\210"
<BEGINHMM>
<NUMSTATES> 5
<STATE> 2
<MEAN> 25
 -3.842713e+00 4.308360e+00 1.332877e+01 -4.713625e+00 -4.606936e+00 -6.565274e-01 -4.293439e+00 -5.862647e+00 -5.198278e+00 -6.832690e-01 -2.017968e+00 -2.286465e+00 5.733804e-01 4.108981e-01 2.934428e+00 -2.083232e+00 -1.621031e+00 5.095281e-01 -2.022272e+00 -1.212260e+00 -1.577866e+00 -2.051441e-01 -1.312753e+00 -1.177589e+00 1.748602e+00
<VARIANCE> 25
 4.263637e+01 3.393715e+01 7.564920e+01 5.580901e+01 6.788051e+01 2.809836e+01 5.512098e+01 5.169743e+01 4.995819e+01 2.603975e+01 3.251488e+01 3.204739e+01 3.935982e+00 3.132933e+00 6.807020e+00 5.265774e+00 4.194622e+00 3.206851e+00 5.160761e+00 3.973003e+00 5.433006e+00 3.533545e+00 2.971886e+00 2.977598e+00 5.612473e+00
<GCONST> 1.097714e+02
<STATE> 3
<MEAN> 25
 -9.212182e-01 5.121416e+00 2.190986e+01 -1.291629e+01 -1.075863e+01 4.788682e+00 -1.391307e+01 -1.091040e+01 -9.652230e+00 -2.092542e+00 -9.230321e+00 -5.550415e+00 1.246928e-01 7.287550e-02 -2.950286e-01 1.965882e-01 -1.178517e-01 4.190055e-02 6.676729e-02 -2.024921e-01 2.833171e-02 -2.120234e-03 -1.789326e-01 1.781243e-01 -1.103992e-01
<VARIANCE> 25
 1.662364e+01 2.452020e+01 3.891526e+01 3.677485e+01 2.581710e+01 2.515325e+01 2.695978e+01 3.709666e+01 3.274020e+01 3.205093e+01 2.781428e+01 2.770000e+01 3.045850e-01 1.043873e+00 1.135089e+00 1.315233e+00 1.135803e+00 1.513594e+00 1.708112e+00 1.453378e+00 1.256469e+00 1.123964e+00 9.383541e-01 1.146987e+00 6.607587e-01
<GCONST> 8.692053e+01
<STATE> 4
<MEAN> 25
 -1.101396e+00 3.235066e+00 9.204961e+00 1.241071e-01 -4.706985e+00 1.203569e+00 4.877533e-01 -6.067022e+00 -4.363299e+00 -1.431063e+00 -3.642541e+00 -6.618752e-01 -3.871855e-01 -3.719074e-01 -1.144518e+00 1.170167e+00 1.345685e+00 -4.520550e-01 1.132457e+00 1.078790e+00 8.208841e-01 1.421724e-01 9.636327e-01 4.743691e-01 -1.248643e+00
<VARIANCE> 25
 2.383042e+01 3.573947e+01 5.353595e+01 4.686038e+01 8.379256e+01 6.371716e+01 5.115845e+01 5.710690e+01 5.154788e+01 3.450528e+01 4.266066e+01 3.151659e+01 1.710057e+00 2.723254e+00 2.428689e+00 3.148584e+00 4.704835e+00 6.295348e+00 4.406555e+00 2.531703e+00 3.640731e+00 3.841649e+00 3.010404e+00 2.491325e+00 2.180944e+00
<GCONST> 1.065775e+02
<TRANSP> 5
 0.000000e+00 1.000000e+00 0.000000e+00 0.000000e+00 0.000000e+00
 0.000000e+00 8.068039e-01 1.931961e-01 0.000000e+00 0.000000e+00
 0.000000e+00 0.000000e+00 9.285720e-01 7.142805e-02 0.000000e+00
 0.000000e+00 0.000000e+00 0.000000e+00 8.328733e-01 1.671267e-01
 0.000000e+00 0.000000e+00 0.000000e+00 0.000000e+00 0.000000e+00
<ENDHMM>
~h "\340\262\211"
<BEGINHMM>
<NUMSTATES> 5
<STATE> 2
<MEAN> 25
 1.041959e+01 1.897239e+00 -4.542132e+00 -9.694366e+00 -1.362680e+00 1.483514e+00 -7.043758e+00 -7.069356e+00 -8.178083e+00 -4.531188e+00 4.593565e-01 -5.091643e+00 -4.130788e-01 5.872507e-01 7.441789e-03 4.698606e-01 7.350867e-01 6.297422e-01 1.004101e+00 1.334913e-01 5.249680e-02 -4.359066e-01 -1.659970e-02 2.842247e-01 -1.135414e+00
<VARIANCE> 25
 1.412865e+01 3.585824e+01 2.100020e+01 5.126808e+01 4.190897e+01 5.171058e+01 8.395374e+01 2.793325e+01 3.971245e+01 8.314612e+01 3.332301e+01 2.528443e+01 1.334682e+00 1.967809e+00 1.679700e+00 4.034894e+00 2.778919e+00 4.074096e+00 4.036174e+00 2.544659e+00 3.109963e+00 4.593820e+00 3.038480e+00 2.390160e+00 1.209399e+00
<GCONST> 1.019036e+02
<STATE> 3
<MEAN> 25
 -2.386117e+00 2.880789e+00 -1.926478e+00 9.209093e-01 4.709004e+00 1.955973e+00 4.038338e+00 5.660004e-01 3.396162e-01 4.292707e-01 3.072444e+00 1.952440e+00 -1.038295e+00 -4.696703e-02 1.593194e-01 6.915914e-01 -9.763792e-03 -2.358355e-01 3.557543e-01 7.288985e-01 9.502091e-01 1.156375e+00 4.849563e-01 7.381051e-01 -1.032252e+00
<VARIANCE> 25
 3.749702e+01 1.643239e+01 2.939534e+01 3.176970e+01 2.515385e+01 3.926930e+01 4.195716e+01 2.879301e+01 3.255704e+01 3.458432e+01 2.603127e+01 2.076504e+01 3.070970e+00 1.846849e+00 2.932993e+00 2.568040e+00 2.348790e+00 4.096745e+00 3.761987e+00 2.395491e+00 2.835366e+00 3.042452e+00 2.479843e+00 2.179281e+00 1.532597e+00
<GCONST> 9.900724e+01
<STATE> 4
<MEAN> 25
 -4.831631e+00 3.269797e+00 -9.240176e-01 4.980423e+00 4.975258e+00 2.937133e+00 4.718729e+00 3.675282e+00 4.279301e+00 3.794309e+00 3.663486e+00 4.148789e+00 -5.769810e-02 -3.496632e-03 6.648502e-02 1.106435e-01 1.098865e-02 1.478403e-02 2.319826e-02 3.810132e-02 3.986136e-02 3.194481e-03 1.538579e-02 2.658566e-02 -6.049692e-02
<VARIANCE> 25
 9.440024e+00 5.554248e+00 7.161466e+00 1.096633e+01 1.120315e+01 1.416490e+01 1.771017e+01 1.666121e+01 1.765823e+01 1.637661e+01 1.471121e+01 1.366719e+01 3.601870e-01 4.379752e-01 5.996726e-01 7.891279e-01 1.008972e+00 1.205602e+00 1.293561e+00 1.403772e+00 1.508239e+00 1.488444e+00 1.348756e+00 1.233896e+00 4.877450e-01
<GCONST> 7.479245e+01
<TRANSP> 5
 0.000000e+00 1.000000e+00 0.000000e+00 0.000000e+00 0.000000e+00
 0.000000e+00 8.898503e-01 1.101497e-01 0.000000e+00 0.000000e+00
 0.000000e+00 0.000000e+00 8.135886e-01 1.864114e-01 0.000000e+00
 0.000000e+00 0.000000e+00 0.000000e+00 9.139666e-01 8.603339e-02
 0.000000e+00 0.000000e+00 0.000000e+00 0.000000e+00 0.000000e+00
<ENDHMM>
~h "\340\262\212"
<BEGINHMM>
<NUMSTATES> 5
<STATE> 2
<MEAN> 25
 5.683781e+00 -7.668862e-02 8.591143e-01 -2.639812e+00 -2.452691e+00 -3.882015e+00 -5.403902e+00 -4.942899e+00 -6.269692e+00 -8.224858e-01 8.158475e-01 -3.917620e+00 1.729279e+00 -3.056970e-02 -5.205283e-01 -1.977036e+00 -1.071769e+00 9.186332e-01 -1.563257e+00 -7.206176e-01 -1.967249e+00 1.263209e-01 7.990593e-01 -1.316625e+00 1.121881e+00
<VARIANCE> 25
 6.346993e+01 3.693240e+01 4.071274e+01 5.943032e+01 6.222954e+01 4.529485e+01 9.340394e+01 4.213717e+01 9.274182e+01 4.824292e+01 3.349629e+01 3.518225e+01 4.277486e+00 3.089926e+00 4.596244e+00 4.442104e+00 9.249635e+00 4.819417e+00 5.438159e+00 5.036285e+00 6.773673e+00 5.896657e+00 3.630788e+00 3.681431e+00 3.278599e+00
<GCONST> 1.133707e+02
<STATE> 3
<MEAN> 25
 1.297563e+01 1.478561e+00 -3.655926e+00 -1.177178e+01 -7.639503e+00 1.660232e+00 -8.343896e+00 -8.660495e+00 -1.286727e+01 -2.831692e+00 2.641333e+00 -5.669571e+00 6.097670e-02 2.160317e-01 -2.716512e-01 -4.663382e-01 1.717475e-02 4.509714e-01 1.079461e-01 -2.063521e-01 -2.612936e-01 -9.456987e-02 3.457601e-02 3.711297e-01 -5.885172e-02
<VARIANCE> 25
 6.964059e+00 2.735508e+01 1.720786e+01 3.127231e+01 4.645761e+01 2.681104e+01 5.021853e+01 5.280484e+01 5.881269e+01 4.977493e+01 4.152105e+01 3.900993e+01 2.056104e-01 9.026095e-01 7.309399e-01 1.371834e+00 1.286412e+00 1.601387e+00 1.875355e+00 1.547973e+00 1.686493e+00 1.604399e+00 1.741899e+00 1.224561e+00 3.053554e-01
<GCONST> 8.854056e+01
<STATE> 4
<MEAN> 25
 9.506964e+00 7.134557e-01 -3.931598e+00 -5.183358e+00 -3.064763e+00 -3.977527e-01 -6.253877e+00 -8.786276e+00 -8.120291e+00 -4.654637e-02 8.436320e-01 -3.733552e+00 -9.030429e-01 -3.706046e-01 2.057048e-01 2.068824e+00 9.690248e-01 -1.254688e+00 3.640359e-01 2.974973e-01 1.510258e+00 4.569700e-01 -6.066587e-01 1.461127e-01 -7.598522e-01
<VARIANCE> 25
 3.440402e+01 3.416570e+01 2.206550e+01 6.274268e+01 5.152510e+01 5.008158e+01 9.535660e+01 5.105626e+01 5.909868e+01 5.940430e+01 3.819513e+01 3.030017e+01 2.036205e+00 2.194269e+00 1.897203e+00 3.727566e+00 4.101166e+00 4.444503e+00 5.816324e+00 3.742565e+00 3.884291e+00 5.374937e+00 4.310298e+00 3.195980e+00 2.349140e+00
<GCONST> 1.077652e+02
<TRANSP> 5
 0.000000e+00 1.000000e+00 0.000000e+00 0.000000e+00 0.000000e+00
 0.000000e+00 7.186534e-01 2.813466e-01 0.000000e+00 0.000000e+00
 0.000000e+00 0.000000e+00 8.643563e-01 1.356438e-01 0.000000e+00
 0.000000e+00 0.000000e+00 0.000000e+00 8.241012e-01 1.758989e-01
 0.000000e+00 0.000000e+00 0.000000e+00 0.000000e+00 0.000000e+00
<ENDHMM>
~h "\340\262\213"
<BEGINHMM>
<NUMSTATES> 5
<STATE> 2
<MEAN> 25
 -1.130962e+00 -1.285777e+00 5.185140e+00 9.167343e+00 -3.307749e+00 -8.093235e+00 9.108883e-01 4.168267e-01 -6.513447e-01 -3.361742e+00 -4.448875e+00 1.044008e+00 2.554485e+00 -4.896566e-01 1.310583e+00 2.064959e-01 -2.207911e+00 -1.980063e+00 -2.048659e+00 -6.993431e-01 -1.272579e+00 -1.129323e+00 -1.219628e+00 -3.126576e-01 2.118848e+00
<VARIANCE> 25
 3.409426e+01 4.137357e+01 3.190991e+01 2.535925e+01 3.710424e+01 3.594800e+01 7.165717e+01 2.219563e+01 3.611868e+01 2.518027e+01 2.400900e+01 1.492370e+01 5.634618e+00 5.092107e+00 7.578485e+00 1.874066e+00 3.487000e+00 2.763147e+00 5.868900e+00 1.659185e+00 4.419750e+00 3.626054e+00 2.545880e+00 2.153646e+00 3.115335e+00
<GCONST> 1.033203e+02
<STATE> 3
<MEAN> 25
 1.000438e+01 -8.099936e+00 4.733589e+00 7.718010e+00 -1.303934e+01 -1.264031e+01 -1.265131e+01 2.326492e+00 -5.814348e+00 -4.071682e+00 -5.288577e+00 7.418491e-01 5.917137e-01 -9.491430e-01 -8.346781e-01 -5.668062e-01 -3.109705e-01 7.942837e-02 -1.943312e+00 9.580304e-01 -2.096936e-01 4.319150e-01 1.431820e-01 1.929443e-01 1.296475e+00
<VARIANCE> 25
 9.855470e+00 1.121212e+01 4.675657e+01 1.905763e+01 5.947747e+01 4.050424e+01 6.870567e+01 2.697797e+01 3.308882e+01 3.846818e+01 3.333789e+01 1.878730e+01 2.821405e+00 1.941023e+00 1.689492e+00 2.096064e+00 3.692865e+00 2.847100e+00 4.149566e+00 1.403355e+00 1.846283e+00 1.147080e+00 1.572706e+00 7.872625e-01 2.623204e+00
<GCONST> 9.535304e+01
<STATE> 4
<MEAN> 25
 5.853128e+00 -2.818937e+00 5.345472e+00 4.525530e+00 -4.348438e+00 -1.146296e+01 -1.210254e+01 -3.886773e-01 -5.758634e+00 -2.925946e+00 -6.036418e+00 -2.483758e-01 -2.408105e+00 2.042349e+00 7.864501e-01 4.363245e-01 2.248142e+00 8.833947e-01 2.573755e+00 -1.111208e+00 4.719776e-01 -1.390277e-01 3.097753e-01 -5.022156e-01 -2.054163e+00
<VARIANCE> 25
 2.190430e+01 4.036020e+01 3.078565e+01 4.578141e+01 7.951067e+01 3.355407e+01 3.527591e+01 3.072545e+01 3.339095e+01 4.286927e+01 1.504019e+01 5.330503e+01 3.343035e+00 3.376483e+00 2.690926e+00 5.894134e+00 3.362212e+00 4.089122e+00 2.620751e+00 2.622177e+00 9.887141e-01 2.684128e+00 2.408921e+00 2.801647e+00 6.014883e+00
<GCONST> 1.032285e+02
<TRANSP> 5
 0.000000e+00 1.000000e+00 0.000000e+00 0.000000e+00 0.000000e+00
 0.000000e+00 7.854936e-01 2.145064e-01 0.000000e+00 0.000000e+00
 0.000000e+00 0.000000e+00 8.060923e-01 1.939077e-01 0.000000e+00
 0.000000e+00 0.000000e+00 0.000000e+00 7.483447e-01 2.516553e-01
 0.000000e+00 0.000000e+00 0.000000e+00 0.000000e+00 0.000000e+00
<ENDHMM>
~h "\340\262\216"
<BEGINHMM>
<NUMSTATES> 5
<STATE> 2
<MEAN> 25
 3.294768e+00 -6.798080e+00 4.822763e+00 -6.092980e+00 -1.775264e+01 -6.755534e+00 4.426744e+00 3.254849e+00 -7.963959e+00 -2.589269e+00 -4.155304e-01 -6.415490e+00 -7.266770e-02 3.308848e-01 7.241944e-02 3.240200e-01 6.096929e-02 5.407920e-01 6.444767e-01 -1.455155e-01 -2.263416e-01 -2.193933e-01 -1.316647e-01 -1.590701e-01 -4.785735e-01
<VARIANCE> 25
 6.057552e+00 2.866716e+01 2.516834e+01 2.850241e+01 2.588863e+01 3.440897e+01 3.338887e+01 3.137622e+01 2.473968e+01 3.273893e+01 1.957154e+01 1.878212e+01 3.497562e-01 1.822473e+00 1.253626e+00 1.931179e+00 1.917372e+00 1.580190e+00 1.457803e+00 2.196408e+00 1.187716e+00 1.543060e+00 9.862832e-01 1.020725e+00 1.272412e+00
<GCONST> 8.758942e+01
<STATE> 3
<MEAN> 25
 -9.793965e-01 -1.844598e+00 2.877427e+00 2.670523e+00 -5.727361e+00 -6.785526e-01 1.033213e+01 3.884778e+00 -3.782068e+00 -4.283482e+00 9.211687e-01 -2.429287e-01 -7.580520e-01 2.772471e-01 -4.531716e-01 2.500488e-01 1.249649e+00 1.516335e-01 -1.417961e-01 3.846612e-01 1.176611e+00 1.075958e+00 6.011627e-01 9.325421e-01 -1.564846e+00
<VARIANCE> 25
 2.067706e+01 2.105466e+01 2.574453e+01 3.443881e+01 6.378904e+01 4.019871e+01 5.117398e+01 3.956606e+01 4.999064e+01 4.933448e+01 2.559434e+01 3.335061e+01 1.444363e+00 1.998840e+00 1.939749e+00 2.615462e+00 3.094979e+00 4.458007e+00 3.229167e+00 3.055969e+00 3.272554e+00 3.003372e+00 2.435355e+00 2.342568e+00 1.325688e+00
<GCONST> 1.007396e+02
<STATE> 4
<MEAN> 25
 -5.050994e+00 2.497787e+00 2.900215e-01 3.756804e+00 2.644569e+00 1.729533e+00 6.142102e+00 3.899422e+00 3.451313e+00 3.221299e+00 3.957923e+00 3.488819e+00 -5.820000e-02 2.158882e-01 8.539425e-02 1.312214e-01 2.387079e-01 1.111477e-01 -2.308626e-01 -1.508044e-01 1.126901e-01 1.212031e-01 5.713959e-02 7.473100e-02 -2.197459e-01
<VARIANCE> 25
 1.446169e+01 1.313460e+01 1.656713e+01 2.272609e+01 5.355832e+01 2.351851e+01 2.331272e+01 2.349528e+01 2.893967e+01 2.049567e+01 1.688336e+01 2.139931e+01 8.715245e-01 9.088172e-01 9.808092e-01 1.353381e+00 1.607904e+00 1.763399e+00 1.830878e+00 1.918052e+00 1.788076e+00 1.788185e+00 1.477562e+00 1.525128e+00 7.476459e-01
<GCONST> 8.687646e+01
<TRANSP> 5
 0.000000e+00 1.000000e+00 0.000000e+00 0.000000e+00 0.000000e+00
 0.000000e+00 8.848709e-01 1.151291e-01 0.000000e+00 0.000000e+00
 0.000000e+00 0.000000e+00 7.904822e-01 2.095179e-01 0.000000e+00
 0.000000e+00 0.000000e+00 0.000000e+00 8.201140e-01 1.798860e-01
 0.000000e+00 0.000000e+00 0.000000e+00 0.000000e+00 0.000000e+00
<ENDHMM>
~h "\340\262\217"
<BEGINHMM>
<NUMSTATES> 5
<STATE> 2
<MEAN> 25
 3.549101e-01 -2.205966e+00 9.379766e+00 -4.027962e+00 -1.038266e+01 -5.413008e+00 -1.331269e+00 -1.030162e+00 -5.757541e+00 8.821673e-01 1.351170e+00 -2.024297e+00 2.225814e-01 -1.526554e+00 1.763245e+00 -2.389917e+00 -2.885421e+00 -7.043199e-01 -7.933509e-01 -2.720284e-01 -1.512600e+00 7.091382e-01 3.053021e-01 -9.875468e-01 2.863189e+00
<VARIANCE> 25
 2.490528e+01 4.154969e+01 4.899477e+01 6.306653e+01 8.202204e+01 5.533611e+01 3.546956e+01 3.391015e+01 5.325834e+01 3.136410e+01 2.204595e+01 2.481554e+01 2.658617e+00 3.410033e+00 3.165169e+00 4.469112e+00 5.670829e+00 4.745466e+00 3.936579e+00 2.482556e+00 3.639086e+00 3.100424e+00 2.446618e+00 2.890880e+00 5.021381e+00
<GCONST> 1.065823e+02
<STATE> 3
<MEAN> 25
 1.144874e+00 -7.635952e+00 1.536024e+01 -1.345072e+01 -1.938496e+01 -5.578892e+00 -5.214334e+00 -2.624857e+00 -1.219470e+01 3.357605e+00 6.807472e-01 -7.442964e+00 -4.830428e-02 1.008602e-01 1.660897e-02 -1.057187e-01 -1.562497e-01 1.709419e-01 -1.550300e-01 -1.951307e-01 -1.597419e-01 2.690055e-01 -2.342281e-01 -7.109264e-02 1.222749e-01
<VARIANCE> 25
 8.349125e+00 1.660882e+01 2.801044e+01 2.359507e+01 1.352151e+01 3.794020e+01 3.273838e+01 2.948190e+01 1.722196e+01 2.418358e+01 1.467754e+01 1.155248e+01 2.901872e-01 4.801703e-01 7.664658e-01 1.022326e+00 6.667705e-01 6.710482e-01 6.898562e-01 7.814034e-01 5.900463e-01 7.227834e-01 5.774035e-01 7.085544e-01 3.794773e-01
<GCONST> 7.529852e+01
<STATE> 4
<MEAN> 25
 2.430135e+00 -1.972030e+00 1.013035e+01 -7.188315e+00 -1.691576e+01 -5.200542e+00 -1.230124e+00 -4.151600e+00 -1.083984e+01 1.001847e+00 -7.833359e-01 -3.969304e+00 -1.247517e-01 1.276890e+00 -4.773972e-01 1.336384e+00 1.280717e+00 -6.833205e-03 5.256877e-01 -4.815320e-01 8.612340e-01 -7.140396e-01 -1.574397e-01 6.287352e-01 -1.498161e+00
<VARIANCE> 25
 1.147960e+01 3.248985e+01 3.247724e+01 3.538854e+01 3.547663e+01 4.309197e+01 5.464919e+01 4.359848e+01 2.306870e+01 4.374048e+01 2.012846e+01 1.823799e+01 1.687725e+00 1.678445e+00 2.100790e+00 2.487999e+00 3.232485e+00 2.425722e+00 2.828201e+00 2.964795e+00 2.195539e+00 3.131829e+00 1.682763e+00 1.327368e+00 1.797146e+00
<GCONST> 9.704467e+01
<TRANSP> 5
 0.000000e+00 1.000000e+00 0.000000e+00 0.000000e+00 0.000000e+00
 0.000000e+00 7.847745e-01 2.152255e-01 0.000000e+00 0.000000e+00
 0.000000e+00 0.000000e+00 8.840172e-01 1.159829e-01 0.000000e+00
 0.000000e+00 0.000000e+00 0.000000e+00 8.297610e-01 1.702390e-01
 0.000000e+00 0.000000e+00 0.000000e+00 0.000000e+00 0.000000e+00
<ENDHMM>
~h "\340\262\220"
<BEGINHMM>
<NUMSTATES> 5
<STATE> 2
<MEAN> 25
 3.237353e+00 -9.643154e+00 5.691586e+00 -7.412069e+00 -1.025568e+01 -4.929874e+00 -2.784524e+00 1.602998e+00 -7.734677e+00 -2.023650e+00 -4.330421e+00 -4.962687e+00 4.561184e-02 2.481352e-01 8.918473e-01 -4.471424e-02 -7.018144e-01 -2.153627e-01 -1.798996e-01 -5.314129e-01 -7.636651e-01 2.155069e-02 1.905560e-01 -3.197964e-01 2.455275e-01
<VARIANCE> 25
 1.225818e+01 6.215942e+01 8.206205e+01 3.890264e+01 8.685538e+01 6.543475e+01 3.550428e+01 6.154485e+01 5.077008e+01 3.341573e+01 4.207076e+01 2.002712e+01 1.537624e+00 5.926079e+00 3.277353e+00 3.272896e+00 4.572251e+00 4.442494e+00 3.917483e+00 5.520345e+00 2.780295e+00 3.941270e+00 4.396385e+00 1.472028e+00 6.479656e+00
<GCONST> 1.079564e+02
<STATE> 3
<MEAN> 25
 -2.835422e+00 2.649380e-01 6.605969e+00 4.166524e-01 -3.461977e+00 -1.391366e+00 1.926224e+00 1.392012e-01 -2.579443e+00 2.353484e+00 1.341027e+00 -7.209264e-01 -4.500804e-01 7.885784e-03 -9.066619e-01 2.608646e-01 4.253608e-01 -1.449956e-01 5.113177e-01 3.861072e-01 7.944691e-01 4.446662e-01 6.396844e-01 6.025310e-01 -1.074276e+00
<VARIANCE> 25
 4.116846e+01 2.626124e+01 4.309837e+01 4.423918e+01 7.924478e+01 5.495588e+01 3.213663e+01 3.462310e+01 6.559878e+01 1.788377e+01 2.188836e+01 3.383584e+01 2.640371e+00 2.767167e+00 3.065640e+00 1.915304e+00 3.133894e+00 2.685502e+00 1.878015e+00 2.530942e+00 2.500730e+00 2.383949e+00 3.079769e+00 1.859034e+00 2.200882e+00
<GCONST> 1.013212e+02
<STATE> 4
<MEAN> 25
 1.196321e+00 -5.420933e-01 7.886299e+00 -2.543477e+00 -9.816092e+00 -4.008620e+00 -1.136871e+00 -2.997572e+00 -6.957795e+00 1.038659e+00 5.864000e-01 -3.646846e+00 -2.349304e-01 9.059479e-01 -9.730263e-01 1.076816e+00 1.124321e+00 -5.229952e-02 8.415219e-01 -9.403349e-02 7.771213e-01 -3.012905e-01 -1.859619e-01 4.221708e-01 -1.043252e+00
<VARIANCE> 25
 3.446950e+01 1.501718e+01 4.950893e+01 4.628695e+01 4.027812e+01 4.948126e+01 2.352094e+01 3.815718e+01 8.305754e+01 2.747913e+01 2.863354e+01 3.894300e+01 9.714543e-01 1.358982e+00 1.430292e+00 1.420180e+00 2.330107e+00 2.808073e+00 1.460523e+00 2.270119e+00 1.900681e+00 1.844334e+00 1.937146e+00 1.735122e+00 9.713218e-01
<GCONST> 9.558086e+01
<TRANSP> 5
 0.000000e+00 1.000000e+00 0.000000e+00 0.000000e+00 0.000000e+00
 0.000000e+00 9.301074e-01 6.989259e-02 0.000000e+00 0.000000e+00
 0.000000e+00 0.000000e+00 6.316471e-01 3.683530e-01 0.000000e+00
 0.000000e+00 0.000000e+00 0.000000e+00 6.428768e-02 9.357123e-01
 0.000000e+00 0.000000e+00 0.000000e+00 0.000000e+00 0.000000e+00
<ENDHMM>
~h "\340\262\222"
<BEGINHMM>
<NUMSTATES> 5
<STATE> 2
<MEAN> 25
 4.363908e+00 1.882215e+00 -2.520646e+00 -5.565857e+00 -1.130755e+00 2.166305e+00 5.905181e-01 -2.420893e+00 -3.132885e+00 -1.871556e+00 5.268310e-01 2.067898e-01 2.492283e+00 -5.564756e-01 -4.118900e-01 -2.807291e+00 -2.518007e+00 2.328739e-02 -9.822550e-01 -1.049956e+00 -1.076017e+00 -6.141312e-01 -3.759565e-01 -5.772385e-01 2.715624e+00
<VARIANCE> 25
 6.394595e+01 3.323471e+01 4.354845e+01 8.431585e+01 6.853883e+01 4.180600e+01 4.828847e+01 4.373618e+01 5.269793e+01 4.154155e+01 3.098930e+01 2.388409e+01 3.725155e+00 4.167799e+00 4.397402e+00 6.835161e+00 5.494950e+00 3.760357e+00 3.466539e+00 4.667941e+00 4.265841e+00 4.035228e+00 3.642646e+00 2.208284e+00 4.572060e+00
<GCONST> 1.101393e+02
<STATE> 3
<MEAN> 25
 1.296237e+01 -4.413952e+00 -5.539794e+00 -1.933209e+01 -8.479418e+00 4.851815e+00 -4.039011e+00 -5.838295e+00 -7.441026e+00 -2.851025e+00 -1.929219e-01 -5.483271e-01 -9.091769e-02 -1.265448e+00 -4.081954e-01 -2.766299e-01 3.673128e-01 4.659678e-01 -6.479051e-01 -1.727137e-01 -8.354276e-02 7.641598e-01 3.300002e-01 -2.625564e-01 1.167464e+00
<VARIANCE> 25
 8.126085e+00 1.997496e+01 2.251529e+01 4.133978e+01 5.534579e+01 2.587712e+01 3.235813e+01 2.958441e+01 2.314465e+01 3.322010e+01 3.614792e+01 2.700381e+01 6.163718e-01 2.805334e+00 1.208314e+00 3.610571e+00 2.885260e+00 2.445772e+00 2.603925e+00 1.958495e+00 2.309218e+00 3.105698e+00 1.624580e+00 1.701192e+00 1.832826e+00
<GCONST> 9.472855e+01
<STATE> 4
<MEAN> 25
 1.079722e+01 -8.550418e+00 -6.787970e+00 -1.018301e+01 -3.094792e+00 -3.428161e-01 -1.144323e+01 -4.298905e+00 -3.127416e+00 1.431480e+00 -5.234311e-01 -6.450724e+00 -4.080570e-01 2.515861e-01 6.533999e-01 2.991387e+00 1.226277e+00 -2.826385e+00 -1.367327e+00 1.053922e+00 9.479283e-01 -1.621606e-01 -1.232619e+00 -7.164633e-01 -4.766932e-01
<VARIANCE> 25
 1.219115e+01 3.225011e+01 2.403296e+01 6.377927e+01 4.419241e+01 6.253219e+01 6.183337e+01 4.005097e+01 3.743333e+01 5.198597e+01 3.928942e+01 2.607540e+01 5.724291e-01 3.028417e+00 2.616395e+00 2.309539e+00 3.140395e+00 4.973293e+00 5.435380e+00 4.579751e+00 3.357120e+00 4.239445e+00 3.529141e+00 4.089226e+00 2.109499e+00
<GCONST> 1.038837e+02
<TRANSP> 5
 0.000000e+00 1.000000e+00 0.000000e+00 0.000000e+00 0.000000e+00
 0.000000e+00 7.619939e-01 2.380061e-01 0.000000e+00 0.000000e+00
 0.000000e+00 0.000000e+00 7.705771e-01 2.294229e-01 0.000000e+00
 0.000000e+00 0.000000e+00 0.000000e+00 7.024525e-01 2.975475e-01
 0.000000e+00 0.000000e+00 0.000000e+00 0.000000e+00 0.000000e+00
<ENDHMM>
~h "\340\262\223"
<BEGINHMM>
<NUMSTATES> 5
<STATE> 2
<MEAN> 25
 5.713591e+00 -2.019956e+00 -3.616005e+00 -7.600301e+00 -3.106879e+00 9.031823e-01 -2.241195e+00 -3.244313e+00 -4.944344e+00 2.427995e+00 2.095822e+00 -2.036896e+00 1.727219e+00 -6.048749e-01 -4.232644e-01 -2.878927e+00 -1.278135e+00 6.749914e-01 -4.410669e-01 -9.653111e-01 -1.266092e+00 -2.133024e-01 -1.075333e-02 -5.461891e-01 1.749889e+00
<VARIANCE> 25
 5.374701e+01 4.117416e+01 5.114887e+01 9.984503e+01 6.506936e+01 3.597477e+01 5.392310e+01 4.078760e+01 4.655267e+01 4.736725e+01 3.701538e+01 3.391632e+01 3.470534e+00 4.236893e+00 5.641593e+00 6.158445e+00 7.071848e+00 3.658798e+00 2.865411e+00 3.477555e+00 3.735372e+00 4.340889e+00 3.314568e+00 2.700065e+00 5.309375e+00
<GCONST> 1.109108e+02
<STATE> 3
<MEAN> 25
 1.381925e+01 -4.765792e+00 -3.697319e+00 -2.388917e+01 -1.098088e+01 4.307134e+00 -5.304202e+00 -6.316435e+00 -1.065885e+01 -3.621488e-01 -3.615896e-02 -2.624409e+00 4.385139e-02 9.453464e-02 -1.931027e-01 -2.257034e-01 1.948913e-01 2.113996e-01 -2.188233e-01 -1.291963e-01 -1.673524e-01 -1.213041e-01 4.757718e-02 2.094604e-01 1.369231e-01
<VARIANCE> 25
 3.639472e+00 1.670467e+01 2.355212e+01 4.242365e+01 3.462546e+01 1.723928e+01 2.654810e+01 2.401810e+01 2.835250e+01 4.211973e+01 3.689087e+01 1.248334e+01 2.967028e-01 1.366471e+00 9.209079e-01 2.385710e+00 1.468720e+00 1.330580e+00 1.418611e+00 1.217036e+00 1.447288e+00 1.993859e+00 1.359416e+00 8.790641e-01 7.025456e-01
<GCONST> 8.501379e+01
<STATE> 4
<MEAN> 25
 1.109332e+01 -6.787811e+00 -7.509614e+00 -1.207265e+01 -3.927916e+00 -9.542660e-01 -1.121890e+01 -4.924032e+00 -5.543324e+00 3.602482e+00 -5.395472e-01 -5.233363e+00 -7.249407e-01 2.212611e-01 2.498756e-01 3.201185e+00 1.394145e+00 -2.170886e+00 -7.555114e-01 8.405068e-01 1.612886e+00 -1.037915e-01 -8.389207e-01 -6.744582e-01 -7.882276e-01
<VARIANCE> 25
 2.064312e+01 3.956416e+01 2.462692e+01 7.412771e+01 4.401739e+01 7.379683e+01 7.752862e+01 4.524093e+01 7.438763e+01 6.644709e+01 4.062495e+01 2.403557e+01 1.037815e+00 3.100652e+00 2.572368e+00 3.587445e+00 3.472829e+00 5.804202e+00 6.686209e+00 2.777327e+00 3.997164e+00 6.815678e+00 3.096676e+00 2.731411e+00 2.812715e+00
<GCONST> 1.075902e+02
<TRANSP> 5
 0.000000e+00 1.000000e+00 0.000000e+00 0.000000e+00 0.000000e+00
 0.000000e+00 8.289807e-01 1.710193e-01 0.000000e+00 0.000000e+00
 0.000000e+00 0.000000e+00 8.885902e-01 1.114097e-01 0.000000e+00
 0.000000e+00 0.000000e+00 0.000000e+00 7.804773e-01 2.195227e-01
 0.000000e+00 0.000000e+00 0.000000e+00 0.000000e+00 0.000000e+00
<ENDHMM>
~h "\340\262\224"
<BEGINHMM>
<NUMSTATES> 5
<STATE> 2
<MEAN> 25
 -7.395875e+00 2.864283e+00 2.389217e+00 1.317335e+00 4.768757e+00 4.226927e+00 4.486745e+00 4.708617e+00 5.296984e+00 2.272179e+00 3.906058e+00 3.929140e+00 -1.246183e-01 1.823323e-02 6.195308e-02 1.320630e-01 -7.676415e-03 1.678976e-01 1.285765e-01 2.182201e-01 1.489168e-01 1.818829e-01 9.703612e-02 1.305212e-01 -2.556419e-01
<VARIANCE> 25
 1.601689e+01 7.949027e+00 2.809035e+01 2.666656e+01 1.651959e+01 4.294153e+01 5.026501e+01 2.232039e+01 1.816872e+01 2.382100e+01 2.271989e+01 1.587012e+01 1.477514e+00 8.078995e-01 1.084141e+00 1.468823e+00 1.688392e+00 3.581253e+00 3.202372e+00 2.027775e+00 1.626902e+00 3.099923e+00 1.586051e+00 1.704841e+00 1.302270e+00
<GCONST> 9.014709e+01
<STATE> 3
<MEAN> 25
 -4.237966e+00 3.300300e+00 2.772272e-01 5.941442e+00 4.306854e+00 3.305254e+00 4.736793e+00 4.167085e+00 3.534786e+00 3.749357e+00 3.185648e+00 3.385434e+00 3.193595e-02 -3.813498e-02 -6.163373e-04 -1.901591e-03 -1.664210e-02 -1.621709e-02 -2.033384e-02 -2.311955e-02 -1.572603e-02 3.292928e-02 -5.193225e-02 -7.116581e-02 5.039476e-02
<VARIANCE> 25
 3.048216e+00 2.822150e+00 4.362310e+00 6.944068e+00 6.154020e+00 9.690837e+00 1.193392e+01 1.063520e+01 1.032366e+01 1.335031e+01 1.199308e+01 1.086765e+01 1.603606e-01 2.771039e-01 4.249508e-01 5.940713e-01 6.566960e-01 9.433161e-01 1.090629e+00 1.218583e+00 1.030646e+00 1.354124e+00 1.309384e+00 1.221749e+00 2.977638e-01
<GCONST> 6.514485e+01
<STATE> 4
<MEAN> 25
 8.159488e+00 -6.756559e+00 -2.985209e+00 -1.255642e+01 -3.895523e+00 1.544102e+00 -5.764297e+00 -5.916941e+00 -5.639850e+00 4.288783e+00 1.905722e+00 -5.317055e+00 7.766168e-01 -2.997960e-01 -1.247689e-01 -2.356978e-01 -3.985563e-01 -2.579078e-01 -1.020546e+00 -8.006771e-01 -2.850033e-01 -1.667780e-01 1.584380e-01 -3.442747e-01 1.008384e+00
<VARIANCE> 25
 3.901075e+01 4.640064e+01 2.659187e+01 1.205360e+02 3.579898e+01 3.987249e+01 5.423014e+01 5.668622e+01 5.076450e+01 3.870277e+01 4.388222e+01 3.864233e+01 2.512889e+00 4.809648e+00 2.179424e+00 1.144618e+01 2.340482e+00 3.771829e+00 3.450040e+00 2.229019e+00 4.567460e+00 3.163998e+00 3.954192e+00 4.498683e+00 8.779032e+00
<GCONST> 1.094823e+02
<TRANSP> 5
 0.000000e+00 1.000000e+00 0.000000e+00 0.000000e+00 0.000000e+00
 0.000000e+00 8.893657e-01 1.106343e-01 0.000000e+00 0.000000e+00
 0.000000e+00 0.000000e+00 9.655694e-01 3.443059e-02 0.000000e+00
 0.000000e+00 0.000000e+00 0.000000e+00 9.401785e-01 5.982161e-02
 0.000000e+00 0.000000e+00 0.000000e+00 0.000000e+00 0.000000e+00
<ENDHMM>
~h "\340\263\240"
<BEGINHMM>
<NUMSTATES> 5
<STATE> 2
<MEAN> 25
 4.925858e-08 -1.233895e-08 2.920008e-08 1.226765e-08 -5.222096e-08 1.835772e-08 3.730370e-08 -3.084009e-08 5.284326e-08 -7.177465e-09 3.337222e-08 1.065681e-08 -5.941017e-04 -3.072851e-04 5.426822e-05 -6.761555e-04 -2.272289e-05 -6.928663e-06 -4.446488e-04 -1.001891e-03 -5.636913e-04 -2.278803e-04 9.030614e-05 -4.183001e-04 3.126871e-03
<VARIANCE> 25
 6.337364e+01 4.811290e+01 5.212138e+01 6.297672e+01 6.965734e+01 5.789758e+01 6.618909e+01 5.280534e+01 5.847340e+01 4.740644e+01 4.464558e+01 3.826577e+01 2.126088e+00 2.240220e+00 2.076481e+00 2.780402e+00 2.979447e+00 3.084975e+00 3.029560e+00 2.887547e+00 2.790046e+00 2.530517e+00 2.348650e+00 2.055844e+00 2.977529e+00
<GCONST> 1.062192e+02
<STATE> 3
<MEAN> 25
 4.925858e-08 -1.233895e-08 2.920008e-08 1.226765e-08 -5.222096e-08 1.835772e-08 3.730370e-08 -3.084009e-08 5.284326e-08 -7.177465e-09 3.337222e-08 1.065681e-08 -5.941017e-04 -3.072851e-04 5.426822e-05 -6.761555e-04 -2.272289e-05 -6.928663e-06 -4.446488e-04 -1.001891e-03 -5.636913e-04 -2.278803e-04 9.030614e-05 -4.183001e-04 3.126871e-03
<VARIANCE> 25
 6.337364e+01 4.811290e+01 5.212138e+01 6.297672e+01 6.965734e+01 5.789758e+01 6.618909e+01 5.280534e+01 5.847340e+01 4.740644e+01 4.464558e+01 3.826577e+01 2.126088e+00 2.240220e+00 2.076481e+00 2.780402e+00 2.979447e+00 3.084975e+00 3.029560e+00 2.887547e+00 2.790046e+00 2.530517e+00 2.348650e+00 2.055844e+00 2.977529e+00
<GCONST> 1.062192e+02
<STATE> 4
<MEAN> 25
 4.925858e-08 -1.233895e-08 2.920008e-08 1.226765e-08 -5.222096e-08 1.835772e-08 3.730370e-08 -3.084009e-08 5.284326e-08 -7.177465e-09 3.337222e-08 1.065681e-08 -5.941017e-04 -3.072851e-04 5.426822e-05 -6.761555e-04 -2.272289e-05 -6.928663e-06 -4.446488e-04 -1.001891e-03 -5.636913e-04 -2.278803e-04 9.030614e-05 -4.183001e-04 3.126871e-03
<VARIANCE> 25
 6.337364e+01 4.811290e+01 5.212138e+01 6.297672e+01 6.965734e+01 5.789758e+01 6.618909e+01 5.280534e+01 5.847340e+01 4.740644e+01 4.464558e+01 3.826577e+01 2.126088e+00 2.240220e+00 2.076481e+00 2.780402e+00 2.979447e+00 3.084975e+00 3.029560e+00 2.887547e+00 2.790046e+00 2.530517e+00 2.348650e+00 2.055844e+00 2.977529e+00
<GCONST> 1.062192e+02
<TRANSP> 5
 0.000000e+00 1.000000e+00 0.000000e+00 0.000000e+00 0.000000e+00
 0.000000e+00 6.000000e-01 4.000000e-01 0.000000e+00 0.000000e+00
 0.000000e+00 0.000000e+00 6.000000e-01 4.000000e-01 0.000000e+00
 0.000000e+00 0.000000e+00 0.000000e+00 7.000000e-01 3.000000e-01
 0.000000e+00 0.000000e+00 0.000000e+00 0.000000e+00 0.000000e+00
<ENDHMM>
~h "\340\262\240\340\263\215"
<BEGINHMM>
<NUMSTATES> 5
<STATE> 2
<MEAN> 25
 -4.721816e+00 -1.014130e+00 1.821350e-01 6.185034e-01 1.976209e+00 4.226756e+00 4.701093e+00 3.587892e+00 4.869118e+00 4.308906e+00 5.824829e+00 3.583212e+00 -7.619904e-01 2.186851e-01 8.941003e-01 -5.041704e-01 3.647448e-01 -2.925175e-01 8.984279e-02 5.293605e-01 4.357816e-01 -1.050891e-01 -5.014944e-01 3.474132e-01 6.158385e-03
<VARIANCE> 25
 2.123393e+01 3.931035e+00 3.997429e+01 4.549137e+01 3.532417e+01 2.948130e+01 1.006400e+01 1.538899e+01 8.150588e+00 1.879447e+01 1.194666e+01 1.244245e+01 2.355411e+00 7.505942e-01 3.484536e+00 6.812481e+00 4.504791e+00 1.873899e+00 2.822860e+00 8.713647e-01 1.503181e+00 2.378494e+00 1.331688e+00 6.591251e-01 2.218363e+00
<GCONST> 8.861192e+01
<STATE> 3
<MEAN> 25
 -6.284204e+00 2.298358e+00 8.702039e-01 3.635278e+00 5.039862e+00 9.926450e-01 6.195858e+00 5.036870e+00 6.267283e+00 1.408098e+00 2.468250e+00 3.912499e+00 7.204778e-01 1.037971e-01 -5.035732e-01 7.754123e-01 1.296140e-01 5.009767e-01 -1.348497e-01 -7.295757e-01 3.413479e-01 3.074848e-01 2.071210e-01 -4.844219e-01 -9.314325e-01
<VARIANCE> 25
 5.189137e+00 9.428385e+00 3.141605e+00 2.466991e+01 8.364369e+00 1.115306e+01 9.591036e+00 7.539963e+00 7.269213e+00 4.905701e+00 1.084497e+01 3.132724e+01 1.149376e+00 4.744783e-01 9.922639e-01 1.555914e+00 2.214471e+00 9.839962e-01 2.798894e+00 1.104038e+00 5.038735e-01 1.952861e+00 1.127854e+00 1.344925e+00 3.509623e-01
<GCONST> 7.349503e+01
<STATE> 4
<MEAN> 25
 -3.934807e+00 2.117171e+00 -3.447735e-01 8.700137e+00 1.781239e+00 2.942354e+00 5.529697e+00 4.014119e+00 4.950387e+00 4.785425e+00 5.194604e+00 3.600769e+00 1.529629e-02 -1.521855e-02 -5.244643e-03 -1.324509e-02 -7.163307e-02 1.324540e-02 -3.633355e-02 2.723065e-02 1.837218e-02 3.440663e-02 4.578753e-02 1.011068e-02 1.413626e-02
<VARIANCE> 25
 1.772547e+00 2.465556e+00 3.712679e+00 5.507338e+00 6.331110e+00 7.688648e+00 9.097310e+00 1.156492e+01 1.031947e+01 8.730766e+00 9.251133e+00 9.269457e+00 2.307146e-01 2.941043e-01 4.394568e-01 5.313838e-01 6.502323e-01 9.803576e-01 9.957151e-01 1.322598e+00 1.316509e+00 8.619045e-01 8.276530e-01 1.038701e+00 3.689071e-01
<GCONST> 6.259125e+01
<TRANSP> 5
 0.000000e+00 1.000000e+00 0.000000e+00 0.000000e+00 0.000000e+00
 0.000000e+00 7.848826e-01 2.151173e-01 0.000000e+00 0.000000e+00
 0.000000e+00 0.000000e+00 5.682384e-01 4.317616e-01 0.000000e+00
 0.000000e+00 0.000000e+00 0.000000e+00 9.754587e-01 2.454134e-02
 0.000000e+00 0.000000e+00 0.000000e+00 0.000000e+00 0.000000e+00
<ENDHMM>
~h "\340\262\230\340\263\215"
<BEGINHMM>
<NUMSTATES> 5
<STATE> 2
<MEAN> 25
 -4.510002e+00 3.907247e+00 -4.781056e-01 3.380381e+00 4.594569e+00 1.932870e+00 3.697505e+00 6.445141e-01 4.617682e+00 1.809477e+00 3.315008e+00 2.045612e+00 -1.374920e-01 8.136561e-03 -2.372201e-02 4.623068e-02 1.167289e-01 2.400832e-01 -6.487348e-02 1.226931e-01 3.432899e-01 1.490158e-01 2.043353e-01 6.081481e-02 -1.187424e-01
<VARIANCE> 25
 2.102307e+01 9.471619e+00 9.103031e+00 6.357771e+00 1.403767e+01 2.528650e+01 3.225132e+01 1.501020e+01 1.895110e+01 1.700289e+01 2.520610e+01 1.358386e+01 2.883803e+00 1.383252e+00 4.963813e-01 7.474411e-01 1.464458e+00 3.755622e+00 4.779191e+00 1.619997e+00 1.855229e+00 2.557431e+00 2.616109e+00 1.745285e+00 1.105461e+00
<GCONST> 8.628401e+01
<STATE> 3
<MEAN> 25
 -3.314098e+00 3.387954e+00 -4.365023e-01 4.368528e+00 4.262003e+00 2.764137e+00 2.384031e+00 3.712782e+00 4.112049e+00 4.494389e+00 3.370071e+00 3.499772e+00 -1.071401e-04 1.464146e-02 1.123690e-02 1.894620e-02 -8.121859e-04 -2.108544e-02 -4.301997e-03 1.117432e-02 -8.776987e-03 1.986322e-03 -5.071645e-03 1.594641e-02 -7.083435e-03
<VARIANCE> 25
 9.215258e-01 2.281633e+00 3.401759e+00 4.871392e+00 6.139596e+00 7.373922e+00 9.171465e+00 9.077165e+00 1.048125e+01 1.054583e+01 1.045511e+01 1.031817e+01 8.546613e-02 1.914000e-01 3.281357e-01 4.445366e-01 6.404295e-01 7.800795e-01 1.054042e+00 9.968327e-01 1.149405e+00 1.176785e+00 1.117997e+00 1.221340e+00 1.406332e-01
<GCONST> 5.908797e+01
<STATE> 4
<MEAN> 25
 -2.527290e+00 3.119709e+00 1.887038e+00 3.993482e+00 2.519749e+00 1.997333e+00 1.622677e+00 1.479650e+00 1.045694e+00 1.943515e+00 1.390472e+00 1.588469e+00 9.710653e-01 5.498934e-01 6.465693e-01 7.409991e-02 -9.962845e-01 -5.397328e-01 -2.033850e-01 -1.223717e+00 -1.743592e+00 -9.769672e-01 -7.842003e-01 -1.106840e+00 5.837542e-01
<VARIANCE> 25
 9.207795e+00 1.678392e+01 2.753488e+01 1.058614e+01 1.567077e+01 1.644326e+01 2.226564e+01 2.342164e+01 2.462739e+01 1.612010e+01 2.195621e+01 2.126197e+01 2.817287e+00 2.840698e+00 3.459343e+00 1.730452e+00 3.886200e+00 3.298869e+00 2.242915e+00 3.826419e+00 6.612704e+00 3.531548e+00 2.073273e+00 2.836465e+00 1.461028e+00
<GCONST> 9.447227e+01
<TRANSP> 5
 0.000000e+00 1.000000e+00 0.000000e+00 0.000000e+00 0.000000e+00
 0.000000e+00 8.420445e-01 1.579555e-01 0.000000e+00 0.000000e+00
 0.000000e+00 0.000000e+00 9.840115e-01 1.598849e-02 0.000000e+00
 0.000000e+00 0.000000e+00 0.000000e+00 8.106239e-01 1.893760e-01
 0.000000e+00 0.000000e+00 0.000000e+00 0.000000e+00 0.000000e+00
<ENDHMM>
~h "\340\262\241\340\263\215"
<BEGINHMM>
<NUMSTATES> 5
<STATE> 2
<MEAN> 25
 9.153137e+00 -7.836166e+00 -3.040416e-01 6.235774e+00 -8.934903e+00 -9.768557e+00 -7.368396e+00 1.457257e+00 -3.659802e+00 -4.271722e+00 -2.797951e+00 -2.251319e+00 -2.021003e-01 5.930523e-01 7.424334e-01 1.146349e-01 4.229919e-01 -5.838449e-01 -1.188549e-01 1.811022e-02 -1.867533e-01 9.803570e-02 8.299347e-03 3.900931e-02 -4.237440e-01
<VARIANCE> 25
 2.549931e+01 7.078880e+01 5.919883e+01 5.959071e+01 8.221696e+01 5.685575e+01 7.013322e+01 6.368888e+01 4.217966e+01 2.766369e+01 3.577480e+01 3.427471e+01 1.949820e+00 1.024074e+01 4.877424e+00 1.286131e+01 1.099799e+01 5.452766e+00 7.885602e+00 5.526504e+00 4.357914e+00 6.426600e+00 6.008051e+00 5.813628e+00 1.143902e+01
<GCONST> 1.169658e+02
<STATE> 3
<MEAN> 25
 7.689087e+00 -6.178964e+00 1.690841e+00 -2.001627e+00 -6.164056e+00 -5.348567e+00 -6.415579e+00 -1.586233e+00 -7.160303e+00 7.993186e-01 -2.653488e+00 -5.343815e+00 -2.710198e-01 7.940049e-01 3.358557e-01 -2.324435e-01 2.288786e-01 3.574219e-01 3.133951e-01 -2.988642e-01 -1.501424e-01 8.476200e-02 2.500468e-01 -2.381292e-01 -4.018195e-01
<VARIANCE> 25
 2.589580e+01 5.922935e+01 7.542262e+01 1.382914e+02 1.257848e+02 8.101389e+01 8.490063e+01 6.433713e+01 5.111916e+01 6.977274e+01 7.097215e+01 3.164776e+01 2.113886e+00 6.193330e+00 3.335424e+00 7.273699e+00 6.951756e+00 5.539712e+00 4.527664e+00 5.194314e+00 5.755125e+00 4.779523e+00 3.041701e+00 2.511488e+00 5.886321e+00
<GCONST> 1.159560e+02
<STATE> 4
<MEAN> 25
 7.496042e+00 7.090061e-01 1.767627e+00 2.136655e+00 -4.051718e+00 -4.209350e+00 -3.945382e+00 -3.790474e+00 -5.833860e+00 -2.185268e+00 -5.895725e-01 -5.359849e+00 -7.639158e-01 5.612617e-01 3.084680e-01 -5.842817e-01 1.944063e-01 4.217171e-01 5.127579e-01 -1.402708e-01 1.538792e-01 1.009551e-01 -1.304581e-01 7.282329e-02 -2.217432e-01
<VARIANCE> 25
 4.112113e+01 5.191769e+01 8.722812e+01 1.586107e+02 6.949646e+01 5.112258e+01 6.415182e+01 5.701154e+01 4.518184e+01 5.224791e+01 5.550819e+01 3.204394e+01 9.401381e-01 2.192932e+00 3.098635e+00 2.300912e+00 3.767628e+00 2.849346e+00 3.193751e+00 3.676199e+00 1.997924e+00 3.991828e+00 2.588951e+00 2.395690e+00 1.438425e+00
<GCONST> 1.065676e+02
<TRANSP> 5
 0.000000e+00 1.000000e+00 0.000000e+00 0.000000e+00 0.000000e+00
 0.000000e+00 6.038290e-01 3.961710e-01 0.000000e+00 0.000000e+00
 0.000000e+00 0.000000e+00 5.400797e-01 4.599203e-01 0.000000e+00
 0.000000e+00 0.000000e+00 0.000000e+00 5.376865e-01 4.623134e-01
 0.000000e+00 0.000000e+00 0.000000e+00 0.000000e+00 0.000000e+00
<ENDHMM>
~h "\340\262\262\340\263\215"
<BEGINHMM>
<NUMSTATES> 5
<STATE> 2
<MEAN> 25
 5.349341e+00 -3.244766e+00 3.046331e+00 -8.506560e-01 -8.298537e+00 -1.081851e+01 -9.792994e+00 -1.012698e+00 8.707384e-01 -6.485145e+00 -5.793051e+00 -7.602979e-01 2.037341e-01 1.839453e+00 1.685076e+00 1.452360e+00 9.115245e-01 -4.977626e-01 -1.378117e+00 -1.664372e+00 -8.999609e-01 -1.052731e+00 3.525454e-01 3.621353e-01 -1.650014e+00
<VARIANCE> 25
 9.287803e+00 3.591353e+01 5.022904e+01 3.506832e+01 3.232684e+01 3.351655e+01 4.302618e+01 4.822430e+01 4.444050e+01 4.255112e+01 3.115920e+01 2.192051e+01 5.145096e-01 1.945809e+00 1.774563e+00 2.767625e+00 3.553146e+00 3.222666e+00 3.369967e+00 4.176991e+00 2.877776e+00 3.028113e+00 2.631896e+00 1.870926e+00 1.190729e+00
<GCONST> 9.853652e+01
<STATE> 3
<MEAN> 25
 4.030434e+00 2.588715e+00 1.075845e+01 -3.807709e-01 -3.560566e+00 -1.127579e+01 -1.216406e+01 -2.992610e+00 -3.611025e+00 -1.254458e+01 -3.805111e+00 1.322448e+00 -1.646328e-01 2.789517e-01 5.496740e-01 -3.206419e-01 2.660199e-01 3.907317e-01 1.884206e-02 -3.165869e-01 -1.375625e-01 2.163955e-01 -3.786175e-01 9.436132e-02 -2.713600e-01
<VARIANCE> 25
 6.536819e+00 1.932436e+01 3.835579e+01 3.708195e+01 2.060854e+01 3.659703e+01 3.552069e+01 3.080138e+01 3.003942e+01 4.255937e+01 3.738457e+01 2.303534e+01 2.698063e-01 5.260153e-01 1.040537e+00 1.184850e+00 1.296225e+00 1.567589e+00 2.010981e+00 1.777444e+00 1.701014e+00 1.818265e+00 1.615568e+00 1.413512e+00 3.932432e-01
<GCONST> 8.684203e+01
<STATE> 4
<MEAN> 25
 3.931477e+00 2.934038e-01 8.045397e+00 -9.362330e-01 -5.860286e+00 -9.680676e+00 -9.619493e+00 -3.607015e+00 -3.191855e+00 -5.662935e+00 -5.069349e+00 -9.394286e-01 -1.428275e-01 -1.136138e+00 -1.119964e+00 -1.013045e+00 -1.536694e+00 -2.176781e-01 1.499294e+00 7.284143e-01 -3.281695e-01 1.864238e+00 1.111881e+00 -8.137296e-01 1.157651e+00
<VARIANCE> 25
 1.211074e+01 3.413305e+01 5.566546e+01 3.957486e+01 4.842166e+01 3.538560e+01 5.851212e+01 5.137149e+01 3.632925e+01 4.991105e+01 4.163776e+01 2.548087e+01 8.312443e-01 2.239813e+00 2.572851e+00 2.590042e+00 5.705635e+00 3.634860e+00 5.803644e+00 4.728473e+00 4.091218e+00 4.817919e+00 3.357190e+00 2.254943e+00 2.676958e+00
<GCONST> 1.044457e+02
<TRANSP> 5
 0.000000e+00 1.000000e+00 0.000000e+00 0.000000e+00 0.000000e+00
 0.000000e+00 5.963132e-01 4.036869e-01 0.000000e+00 0.000000e+00
 0.000000e+00 0.000000e+00 6.880257e-01 3.119743e-01 0.000000e+00
 0.000000e+00 0.000000e+00 0.000000e+00 5.132950e-01 4.867050e-01
 0.000000e+00 0.000000e+00 0.000000e+00 0.000000e+00 0.000000e+00
<ENDHMM>
~h "\340\262\252\340\263\215"
<BEGINHMM>
<NUMSTATES> 5
<STATE> 2
<MEAN> 25
 -4.360774e+00 9.324936e-01 -2.266489e+00 2.329311e+00 2.724421e+00 1.066118e+00 4.861258e+00 4.055815e+00 6.459753e+00 5.748852e+00 4.510143e+00 3.529841e+00 -3.072032e-01 -2.619962e-01 7.711734e-02 -1.748808e-01 6.103104e-02 -5.607241e-01 9.848608e-02 -1.760935e-01 -1.585308e-01 -2.008789e-01 -1.172765e-01 2.040583e-02 8.069088e-01
<VARIANCE> 25
 1.261561e+01 2.228216e+01 2.947098e+01 2.706147e+01 2.542914e+01 2.935481e+01 2.079935e+01 2.640430e+01 3.221769e+01 2.794406e+01 2.356804e+01 2.195782e+01 1.492748e+00 1.778236e+00 2.000763e+00 2.077648e+00 1.781500e+00 2.959543e+00 2.567060e+00 3.177930e+00 3.536847e+00 3.551572e+00 2.626178e+00 2.270110e+00 5.503304e+00
<GCONST> 9.642654e+01
<STATE> 3
<MEAN> 25
 -2.002142e+00 1.698432e-01 -6.103342e-01 4.624042e-01 2.582909e+00 -2.666368e+00 2.203919e+00 -1.923021e+00 -1.614215e-01 3.020392e-01 5.584101e-01 1.477029e-01 2.943768e+00 -1.415468e+00 -5.498872e-01 -2.638927e+00 -1.686663e+00 -1.045777e+00 -2.067527e+00 -2.259825e+00 -2.484923e+00 -1.569478e+00 -1.130917e+00 -1.935401e+00 5.540043e+00
<VARIANCE> 25
 3.068351e+01 2.625403e+01 2.974349e+01 3.502209e+01 3.032014e+01 3.490837e+01 2.680305e+01 2.996599e+01 3.650744e+01 2.507244e+01 2.356946e+01 1.796472e+01 4.225616e+00 4.016903e+00 4.740067e+00 5.503143e+00 3.745642e+00 6.542363e+00 3.616301e+00 3.905852e+00 5.193923e+00 3.856395e+00 3.691022e+00 3.059211e+00 5.110112e+00
<GCONST> 1.051002e+02
<STATE> 4
<MEAN> 25
 7.145554e+00 -1.509366e+00 -1.881056e+00 -6.886126e+00 -4.095244e+00 6.998336e-01 -4.044797e+00 -4.877320e+00 -6.942969e+00 -9.925841e-01 3.047333e+00 -3.748480e+00 3.440036e-01 -7.849757e-01 -4.418862e-01 -3.100151e-01 -3.490375e-01 -1.177275e-01 -3.231311e-01 1.068527e-01 3.928951e-01 2.846536e-01 -2.688099e-01 -4.066266e-01 1.022454e+00
<VARIANCE> 25
 5.191137e+01 5.320128e+01 4.276981e+01 7.448067e+01 5.909520e+01 4.798775e+01 7.113776e+01 4.344889e+01 7.921432e+01 4.876993e+01 4.241859e+01 3.660993e+01 5.842781e+00 5.562367e+00 3.379585e+00 7.811217e+00 6.393112e+00 4.799794e+00 7.153192e+00 3.926507e+00 6.024362e+00 4.197386e+00 4.972566e+00 4.604812e+00 1.197876e+01
<GCONST> 1.158885e+02
<TRANSP> 5
 0.000000e+00 1.000000e+00 0.000000e+00 0.000000e+00 0.000000e+00
 0.000000e+00 7.642244e-01 2.357756e-01 0.000000e+00 0.000000e+00
 0.000000e+00 0.000000e+00 5.249658e-01 4.750342e-01 0.000000e+00
 0.000000e+00 0.000000e+00 0.000000e+00 7.238647e-01 2.761353e-01
 0.000000e+00 0.000000e+00 0.000000e+00 0.000000e+00 0.000000e+00
<ENDHMM>
~h "sil"
<BEGINHMM>
<NUMSTATES> 5
<STATE> 2
<MEAN> 25
 -2.105959e+00 2.969799e+00 -9.014618e-01 3.999886e+00 2.845330e+00 6.994750e-01 3.536035e+00 2.279983e+00 2.477314e+00 2.318737e+00 2.201509e+00 2.853187e+00 -4.672166e-05 -1.538195e-03 -3.190584e-02 1.055795e-02 -4.176251e-03 1.856586e-02 -2.242783e-02 1.138633e-02 4.302533e-02 2.801908e-02 -1.574209e-03 -7.238060e-03 -1.317064e-02
<VARIANCE> 25
 2.684523e+01 4.837294e+00 7.520760e+00 7.639552e+00 1.086265e+01 1.220667e+01 1.373957e+01 1.346843e+01 1.472739e+01 1.388801e+01 1.503080e+01 1.469735e+01 1.298622e-01 2.050944e-01 2.856212e-01 4.460965e-01 6.006463e-01 6.596504e-01 8.225644e-01 8.101728e-01 9.481223e-01 8.492705e-01 7.998449e-01 7.867302e-01 9.037776e-02
<GCONST> 6.558971e+01
<STATE> 3
~s "silst"
<STATE> 4
<MEAN> 25
 -5.136755e+00 1.955898e+00 5.520535e-01 3.116302e+00 3.646106e+00 9.851786e-01 5.090448e+00 3.028943e+00 2.747108e+00 2.663098e+00 3.761414e+00 2.749555e+00 -6.593529e-03 -5.821590e-02 1.769847e-01 -1.373632e-01 -9.945861e-02 -1.516613e-01 -1.311658e-01 -1.715275e-01 -2.059141e-01 -1.718321e-01 -8.842041e-02 -1.237103e-01 4.619327e-01
<VARIANCE> 25
 4.346726e+01 2.518277e+01 2.013959e+01 4.638768e+01 4.658466e+01 3.548363e+01 4.033926e+01 3.063541e+01 3.994720e+01 2.625103e+01 2.648611e+01 2.342515e+01 2.790354e+00 2.182499e+00 2.140839e+00 2.836199e+00 2.646441e+00 3.708667e+00 3.001276e+00 2.612804e+00 2.940235e+00 2.515480e+00 2.075452e+00 2.188966e+00 5.495779e+00
<GCONST> 1.008725e+02
<TRANSP> 5
 0.000000e+00 1.000000e+00 0.000000e+00 0.000000e+00 0.000000e+00
 0.000000e+00 8.287001e-01 1.259176e-01 4.538228e-02 0.000000e+00
 0.000000e+00 0.000000e+00 9.795237e-01 2.047626e-02 0.000000e+00
 0.000000e+00 1.397903e-01 0.000000e+00 7.365371e-01 1.236726e-01
 0.000000e+00 0.000000e+00 0.000000e+00 0.000000e+00 0.000000e+00
<ENDHMM>
~h "\340\262\242\340\263\215"
<BEGINHMM>
<NUMSTATES> 5
<STATE> 2
<MEAN> 25
 5.902006e+00 5.471252e+00 6.896135e+00 2.295885e+00 -3.080432e+00 -3.005097e+00 -1.657345e+00 -6.222736e+00 -6.318258e+00 -6.552112e+00 -4.340197e+00 -6.526508e-01 1.174491e+00 -5.948429e-01 -1.935438e-01 -8.233624e-01 -1.619688e+00 -9.679123e-01 -2.206112e-01 2.567250e-01 -3.881727e-01 -5.006906e-01 -6.256065e-01 1.920594e-01 2.230996e+00
<VARIANCE> 25
 3.816946e+01 5.050335e+01 3.010364e+01 3.804817e+01 5.789068e+01 2.800949e+01 2.128844e+01 7.449618e+01 6.262856e+01 3.361181e+01 2.224403e+01 2.352177e+01 6.270157e+00 6.481991e+00 7.047144e+00 2.933547e+00 2.607848e+00 3.502870e+00 2.430327e+00 1.402704e+01 9.912331e+00 6.620263e+00 4.399315e+00 2.293652e+00 2.985060e+00
<GCONST> 1.092905e+02
<STATE> 3
<MEAN> 25
 8.266413e+00 -5.978338e+00 -5.688036e+00 -2.448323e+00 -7.834454e+00 -6.878615e+00 3.868620e-01 5.963892e+00 -3.344283e+00 -4.156820e+00 -6.021727e+00 -6.795173e-01 7.721184e-01 -6.353133e-01 -2.050667e+00 -4.956253e-01 1.025222e+00 1.107251e+00 3.682381e-01 -1.226042e+00 -1.033493e-01 -1.856404e-01 -6.349229e-01 -2.138198e+00 7.746330e-01
<VARIANCE> 25
 9.515280e+00 5.128300e+01 1.160660e+01 9.930961e+00 2.214057e+01 4.593935e+01 1.039366e+01 4.826936e+01 3.023988e+00 5.715026e+00 2.509236e+01 1.853063e+01 1.125634e+00 1.046966e+00 2.461641e+00 1.609003e+00 8.088978e+00 3.503774e+00 7.691283e-01 2.639301e+00 2.455370e+00 8.802612e-01 6.867103e-01 1.900986e+00 1.317512e+00
<GCONST> 8.592488e+01
<STATE> 4
<MEAN> 25
 7.885843e+00 -5.825392e+00 -5.506810e+00 -3.340745e+00 -4.045819e+00 1.911720e+00 -1.017960e+00 -1.201293e+00 -5.282264e+00 -3.145361e+00 -6.071750e+00 -5.420723e+00 3.755991e-01 8.656187e-01 -1.300225e-02 -9.123422e-03 1.075624e+00 1.619070e+00 -5.956395e-01 -1.911295e+00 -4.677535e-01 7.587989e-01 -5.072471e-01 -1.466953e+00 -3.367508e-01
<VARIANCE> 25
 7.704824e+00 4.929938e+01 1.178487e+01 1.877810e+01 2.376373e+01 9.565838e+01 1.900040e+01 3.687300e+01 7.290369e+00 1.105084e+01 3.097228e+01 9.891556e+00 8.933094e-01 4.896182e-01 2.520571e+00 7.611032e-01 5.748836e-01 1.016056e+00 4.118858e+00 1.138434e+00 1.100266e+00 1.570193e+00 1.311936e+00 1.393272e+00 7.754350e-01
<GCONST> 8.340860e+01
<TRANSP> 5
 0.000000e+00 1.000000e+00 0.000000e+00 0.000000e+00 0.000000e+00
 0.000000e+00 8.750938e-01 1.249062e-01 0.000000e+00 0.000000e+00
 0.000000e+00 0.000000e+00 4.247072e-01 5.752928e-01 0.000000e+00
 0.000000e+00 0.000000e+00 0.000000e+00 4.159293e-01 5.840707e-01
 0.000000e+00 0.000000e+00 0.000000e+00 0.000000e+00 0.000000e+00
<ENDHMM>
~h "\340\262\263\340\263\215"
<BEGINHMM>
<NUMSTATES> 5
<STATE> 2
<MEAN> 25
 9.271843e+00 -9.592470e+00 -3.400630e+00 3.520446e+00 -7.671887e+00 -1.601786e+01 -9.661798e+00 4.925924e+00 -3.090355e+00 -3.881727e+00 -2.054244e+00 -5.269912e+00 -2.520511e-01 1.761755e+00 1.741313e+00 1.087216e+00 1.823338e+00 -2.669960e+00 -1.880148e+00 1.121673e-02 -8.838189e-01 -1.952304e+00 7.206843e-01 1.018295e+00 -1.079211e+00
<VARIANCE> 25
 1.174360e+01 3.487428e+01 4.251019e+01 2.632705e+01 6.268455e+01 5.178164e+01 7.042285e+01 5.736264e+01 4.489337e+01 5.038806e+01 4.135092e+01 2.874165e+01 4.750803e-01 1.592271e+00 2.102524e+00 1.836947e+00 3.451682e+00 5.042011e+00 3.610090e+00 5.964524e+00 3.778185e+00 5.961844e+00 3.733501e+00 2.679870e+00 4.510761e-01
<GCONST> 1.017959e+02
<STATE> 3
<MEAN> 25
 8.453238e+00 -4.219670e+00 6.396306e-01 2.530679e+00 -2.652422e+00 -1.677394e+01 -1.568301e+01 -8.242792e-02 -2.192124e+00 -7.353564e+00 -1.733672e+00 -3.701010e+00 -2.995628e-01 4.603887e-01 4.660091e-01 -1.111990e+00 -7.532719e-01 1.708847e+00 3.507079e-01 -2.021896e+00 3.546551e-01 1.335643e+00 -1.550743e-01 -4.361300e-01 8.550338e-02
<VARIANCE> 25
 1.111945e+01 2.272556e+01 5.222125e+01 3.879440e+01 5.363404e+01 5.233591e+01 6.275029e+01 4.637906e+01 5.513427e+01 9.209725e+01 3.227220e+01 2.353247e+01 7.682025e-01 1.124143e+00 3.397570e+00 2.967402e+00 3.697965e+00 2.964752e+00 5.261450e+00 3.716326e+00 4.491796e+00 8.869207e+00 3.883780e+00 1.960967e+00 9.222410e-01
<GCONST> 1.033399e+02
<STATE> 4
<MEAN> 25
 1.012001e+01 -1.253559e+00 -1.262016e+00 -4.770920e+00 -6.378210e+00 -5.682732e+00 -1.127210e+01 -1.003995e+01 -5.533446e+00 -1.712052e+00 2.357645e+00 -4.503591e+00 -3.952928e-02 6.515700e-01 -1.566440e-01 -8.671659e-01 -5.953633e-01 1.175525e+00 1.794451e+00 -6.715875e-01 -3.232689e-01 -7.027446e-01 -7.088935e-02 4.717985e-01 -1.097685e-01
<VARIANCE> 25
 2.009668e+01 2.693097e+01 6.430119e+01 6.678954e+01 2.923405e+01 7.404180e+01 5.218783e+01 4.409148e+01 4.227664e+01 6.758584e+01 5.171593e+01 2.751157e+01 8.045237e-01 2.002265e+00 1.838113e+00 2.636257e+00 2.961778e+00 5.255663e+00 4.266565e+00 3.183104e+00 5.179428e+00 4.902736e+00 4.842010e+00 1.740384e+00 1.370576e+00
<GCONST> 1.043348e+02
<TRANSP> 5
 0.000000e+00 1.000000e+00 0.000000e+00 0.000000e+00 0.000000e+00
 0.000000e+00 6.753279e-01 3.246721e-01 0.000000e+00 0.000000e+00
 0.000000e+00 0.000000e+00 6.937248e-01 3.062752e-01 0.000000e+00
 0.000000e+00 0.000000e+00 0.000000e+00 5.618233e-01 4.381766e-01
 0.000000e+00 0.000000e+00 0.000000e+00 0.000000e+00 0.000000e+00
<ENDHMM>
~h "\340\262\232\340\263\215"
<BEGINHMM>
<NUMSTATES> 5
<STATE> 2
<MEAN> 25
 -7.311919e+00 4.810825e-01 5.526351e+00 9.678315e-01 8.474296e-01 1.192424e+00 2.127905e+00 1.527483e+00 2.667235e+00 6.648097e-01 8.466525e-01 2.548066e+00 -7.630263e-01 -1.963224e-01 -1.292614e-01 -3.655755e-01 5.698688e-01 4.353606e-01 1.173330e-01 2.407252e-01 5.322329e-01 3.646658e-01 4.902417e-01 1.500852e-01 -4.894838e-01
<VARIANCE> 25
 8.203552e+01 1.902594e+01 5.118245e+01 3.265265e+01 3.171830e+01 3.002506e+01 3.003849e+01 4.571213e+01 2.619247e+01 3.816175e+01 3.743906e+01 2.406382e+01 7.181559e+00 1.858841e+00 2.306842e+00 3.248150e+00 3.611037e+00 3.039483e+00 2.037965e+00 2.525697e+00 2.944072e+00 2.275262e+00 2.232206e+00 1.448393e+00 5.458619e+00
<GCONST> 1.019278e+02
<STATE> 3
<MEAN> 25
 -1.060821e+01 -3.592546e+00 3.559105e+00 -5.593412e+00 1.186236e+00 -6.167936e-01 -6.922144e-02 1.661845e+00 2.436107e+00 6.528297e-01 3.664827e+00 2.117564e+00 -4.239885e+00 -3.393596e-01 6.651093e-01 -2.494103e+00 1.402921e-01 8.901586e-02 -5.971754e-01 -6.368257e-02 -1.788817e-01 -4.328552e-01 4.510909e-01 2.281360e-01 3.638648e+00
<VARIANCE> 25
 6.414262e+01 3.232209e+01 3.671755e+01 4.480860e+01 2.418403e+01 2.657785e+01 3.193664e+01 3.477339e+01 3.958251e+01 1.953995e+01 2.196503e+01 1.646937e+01 8.936747e+00 4.460506e+00 5.059478e+00 4.457772e+00 2.977566e+00 3.191020e+00 3.006084e+00 3.551483e+00 4.748409e+00 3.219625e+00 3.030633e+00 2.314930e+00 3.874981e+00
<GCONST> 1.044602e+02
<STATE> 4
<MEAN> 25
 -2.013649e+01 -9.572483e-01 9.224403e+00 -5.944315e+00 -1.323768e+00 -1.880813e+00 -6.773831e-01 2.348450e-01 2.154767e-01 -3.304763e+00 7.232634e-01 1.383342e+00 2.387162e+00 1.110428e-01 2.689187e-01 5.629094e-01 -1.320450e+00 -1.387572e+00 -3.221992e-01 -3.173388e-01 -1.063936e+00 -6.010691e-01 -8.569095e-01 -5.498871e-01 6.949623e-01
<VARIANCE> 25
 7.603614e+01 1.503286e+01 1.581097e+01 2.308591e+01 2.980533e+01 3.373026e+01 1.637558e+01 2.322246e+01 2.342681e+01 1.774169e+01 2.043247e+01 1.388154e+01 1.856852e+01 3.133571e+00 3.163007e+00 1.396611e+00 2.397674e+00 3.619363e+00 2.815172e+00 3.768559e+00 2.771382e+00 1.539518e+00 1.947230e+00 1.643772e+00 1.240984e+00
<GCONST> 9.632163e+01
<TRANSP> 5
 0.000000e+00 1.000000e+00 0.000000e+00 0.000000e+00 0.000000e+00
 0.000000e+00 7.111646e-01 2.888355e-01 0.000000e+00 0.000000e+00
 0.000000e+00 0.000000e+00 6.552581e-01 3.447419e-01 0.000000e+00
 0.000000e+00 0.000000e+00 0.000000e+00 8.106892e-01 1.893108e-01
 0.000000e+00 0.000000e+00 0.000000e+00 0.000000e+00 0.000000e+00
<ENDHMM>
~h "\340\262\253\340\263\215"
<BEGINHMM>
<NUMSTATES> 5
<STATE> 2
<MEAN> 25
 -5.437266e+00 3.055722e+00 -2.000421e+00 6.531532e+00 5.247230e+00 5.311233e+00 5.817667e+00 5.133636e+00 5.585004e+00 3.976354e+00 4.873269e+00 2.603215e+00 -3.488087e-02 1.950905e-02 4.451284e-02 8.973471e-02 -6.085736e-02 1.627231e-02 -1.401328e-02 -3.488519e-02 -5.595859e-03 8.379645e-02 5.592743e-02 2.156190e-02 -3.475944e-02
<VARIANCE> 25
 2.733910e+00 1.966031e+00 4.317560e+00 1.151515e+01 6.638852e+00 9.735098e+00 1.180447e+01 1.064155e+01 7.667234e+00 8.989861e+00 1.290047e+01 1.009286e+01 4.531793e-01 1.736046e-01 3.721573e-01 5.808601e-01 5.994791e-01 9.356263e-01 1.280513e+00 1.036761e+00 8.892848e-01 1.167366e+00 1.095827e+00 1.191463e+00 3.076321e-01
<GCONST> 6.439536e+01
<STATE> 3
<MEAN> 25
 -5.642715e+00 4.769187e+00 -5.152810e-01 8.889064e+00 5.454945e+00 3.282350e+00 5.216582e+00 2.833353e+00 2.554185e+00 3.896525e+00 4.622631e+00 2.521378e+00 2.794019e-01 3.483745e-01 6.169544e-01 -8.383811e-01 -7.826222e-01 -1.607520e+00 -5.823170e-01 -1.580644e-01 -1.716198e+00 -5.630079e-01 -1.684843e-01 -2.790657e-01 9.463266e-01
<VARIANCE> 25
 6.452691e+00 1.201147e+01 6.595999e+00 2.443365e+01 8.152164e+00 7.629829e+00 2.092160e+01 1.089760e+01 1.477568e+01 2.718386e+01 2.474465e+01 1.327164e+01 3.998100e+00 9.387053e-01 5.852854e-01 2.446040e+00 1.615659e+00 9.372175e-01 1.484233e+00 1.171913e+00 1.177277e+00 1.834550e+00 1.204200e+00 1.978875e+00 8.970402e-01
<GCONST> 8.090873e+01
<STATE> 4
<MEAN> 25
 -1.047014e+01 -2.730379e+00 -6.878563e-01 -6.404543e-01 3.681484e+00 -6.601232e-01 5.287131e+00 1.587581e+00 1.240220e+00 1.050947e+00 2.843382e+00 2.549081e+00 -4.733733e-01 -6.646782e-01 2.351117e-02 -2.369054e-01 8.243122e-02 -3.852842e-01 -1.571291e-01 -7.588974e-02 7.436273e-02 -1.761531e-01 -1.386670e-01 -3.359791e-02 1.030519e+00
<VARIANCE> 25
 2.868463e+01 1.208146e+01 8.697639e+00 1.271145e+01 1.039761e+01 1.205642e+01 1.152544e+01 2.226928e+01 2.420314e+01 1.304498e+01 1.776899e+01 1.439621e+01 2.743750e+00 9.819112e-01 1.044891e+00 3.053445e+00 1.170792e+00 1.455644e+00 1.146555e+00 1.894765e+00 3.380523e+00 1.619677e+00 1.991545e+00 1.395832e+00 7.295420e-01
<GCONST> 8.404632e+01
<TRANSP> 5
 0.000000e+00 1.000000e+00 0.000000e+00 0.000000e+00 0.000000e+00
 0.000000e+00 9.548698e-01 4.513020e-02 0.000000e+00 0.000000e+00
 0.000000e+00 0.000000e+00 5.371778e-01 4.628222e-01 0.000000e+00
 0.000000e+00 0.000000e+00 0.000000e+00 9.017546e-01 9.824544e-02
 0.000000e+00 0.000000e+00 0.000000e+00 0.000000e+00 0.000000e+00
<ENDHMM>
~h "\340\262\243\340\263\215"
<BEGINHMM>
<NUMSTATES> 5
<STATE> 2
<MEAN> 25
 1.004754e+01 -1.265530e+01 -2.657480e+00 -1.092069e-01 -7.952477e+00 -7.288953e+00 -3.942514e+00 8.759174e-01 -5.170168e+00 -5.942822e+00 -5.901314e+00 -3.113899e+00 2.799931e-01 7.151355e-01 5.131937e-01 6.694951e-01 1.594329e-01 -1.858001e+00 5.510853e-01 6.122324e-01 -1.880803e-01 -7.008009e-01 -7.935014e-01 1.249669e+00 -3.818772e-01
<VARIANCE> 25
 1.095252e+01 4.510180e+01 6.534129e+01 3.716247e+01 6.460668e+01 4.750331e+01 3.801196e+01 4.397041e+01 3.777824e+01 2.929525e+01 7.041553e+01 3.804033e+01 3.497254e-01 1.439689e+00 2.393918e+00 1.234128e+00 2.708116e+00 3.667232e+00 2.399313e+00 5.069320e+00 2.684339e+00 1.581811e+00 2.165695e+00 2.057208e+00 3.345909e-01
<GCONST> 9.733355e+01
<STATE> 3
<MEAN> 25
 1.121666e+01 -5.758672e+00 8.863945e-01 1.078502e+00 -5.341209e+00 -1.430910e+01 -3.560724e+00 -2.773226e-01 -5.186708e+00 -5.952301e+00 -8.366679e+00 -3.806664e-01 3.864061e-01 2.957965e+00 1.702395e+00 -2.064730e-01 7.915581e-01 -1.202945e+00 2.076499e-01 -1.745488e+00 -9.294793e-01 6.611556e-01 -4.835939e-02 -8.162054e-02 -1.279471e+00
<VARIANCE> 25
 9.154427e+00 4.490157e+01 4.124770e+01 2.752055e+01 5.423140e+01 5.453966e+01 5.684445e+01 5.220776e+01 6.765127e+01 3.616631e+01 5.392479e+01 3.799249e+01 6.880829e-01 1.713344e+00 2.277199e+00 1.441122e+00 2.993685e+00 3.526259e+00 2.242152e+00 2.578512e+00 3.825422e+00 2.190976e+00 2.952948e+00 2.448937e+00 5.838499e-01
<GCONST> 9.944609e+01
<STATE> 4
<MEAN> 25
 1.180349e+01 -6.085656e-01 4.325015e+00 -1.961576e+00 -6.562264e+00 -1.075075e+01 -4.211463e+00 -6.324447e+00 -8.349798e+00 -4.955876e+00 -4.495153e+00 -3.319256e+00 -5.553858e-01 -1.083568e+00 -4.975443e-01 -8.097413e-01 -9.882627e-01 1.836176e+00 -8.377919e-01 3.216890e-01 6.395758e-01 -2.193399e-01 2.686656e-01 -8.176647e-01 1.027748e+00
<VARIANCE> 25
 5.911351e+00 3.078789e+01 2.672951e+01 2.551596e+01 5.151202e+01 5.804845e+01 4.443638e+01 5.548565e+01 5.969370e+01 3.260874e+01 6.286457e+01 3.277122e+01 1.115537e+00 3.259997e+00 4.506740e+00 2.840625e+00 5.234995e+00 6.878028e+00 3.776802e+00 3.842340e+00 4.669685e+00 2.364743e+00 5.139781e+00 2.924628e+00 9.813309e-01
<GCONST> 1.038860e+02
<TRANSP> 5
 0.000000e+00 1.000000e+00 0.000000e+00 0.000000e+00 0.000000e+00
 0.000000e+00 5.257014e-01 4.742985e-01 0.000000e+00 0.000000e+00
 0.000000e+00 0.000000e+00 6.133875e-01 3.866124e-01 0.000000e+00
 0.000000e+00 0.000000e+00 0.000000e+00 6.925176e-01 3.074824e-01
 0.000000e+00 0.000000e+00 0.000000e+00 0.000000e+00 0.000000e+00
<ENDHMM>
~h "\340\262\233\340\263\215"
<BEGINHMM>
<NUMSTATES> 5
<STATE> 2
<MEAN> 25
 4.495798e+00 -5.273273e+00 -1.121717e+01 -3.600093e+00 1.251090e+00 5.853630e-01 -1.784887e+00 -5.516792e+00 -5.059462e-01 -2.357960e+00 -1.527960e+01 -3.633611e+00 5.894572e-03 3.428299e-01 1.182724e-01 5.100172e-01 1.710189e-01 1.084798e+00 1.275964e-01 -6.269357e-01 2.761679e-01 1.181180e-03 -2.207976e-01 -5.198722e-02 -9.167339e-01
<VARIANCE> 25
 3.550004e+01 6.107308e+01 5.622273e+01 2.697191e+01 1.162605e+01 3.180767e+01 1.356768e+01 9.426701e+01 1.104951e+01 1.411245e+01 6.277435e+01 2.481369e+01 8.266017e-01 2.738393e+00 3.627717e+00 2.268697e+00 1.865661e+00 3.200878e+00 2.592963e+00 3.279342e+00 1.867420e+00 8.540296e-01 2.158478e+00 2.854348e+00 1.333366e+00
<GCONST> 9.584477e+01
<STATE> 3
<MEAN> 25
 -4.210845e+00 7.798706e-01 -5.912566e-01 9.803885e-01 6.292944e+00 7.239285e+00 3.463503e+00 1.891585e+00 3.705599e+00 -9.259503e-01 2.017892e+00 1.209288e+00 -6.045872e-01 1.494205e-01 2.914889e-01 1.438016e-01 5.925100e-02 -4.064838e-01 9.352575e-01 8.726222e-01 5.521078e-02 8.124121e-01 8.504723e-01 7.651937e-01 -5.786580e-01
<VARIANCE> 25
 3.657956e+01 4.523945e+00 5.583242e+01 1.635518e+01 2.039826e+01 1.499708e+01 3.518781e+01 4.527695e+01 1.868168e+01 2.166583e+01 3.079096e+01 1.633237e+01 2.821467e+00 3.657880e-01 3.665729e+00 1.507445e+00 8.322188e-01 1.472650e+00 2.613548e+00 3.119907e+00 1.753187e+00 2.420344e+00 2.484540e+00 1.637736e+00 2.880233e+00
<GCONST> 9.114268e+01
<STATE> 4
<MEAN> 25
 -4.298234e+00 2.227789e+00 2.719027e-01 6.502681e+00 3.432559e+00 3.132212e+00 4.471270e+00 4.064477e+00 4.519986e+00 3.399494e+00 5.083968e+00 3.851860e+00 3.738834e-02 -4.142025e-02 4.788200e-02 1.661961e-01 -7.653563e-02 -8.482629e-02 -5.858510e-02 -3.663688e-02 3.975300e-02 -1.977825e-02 1.723647e-02 -7.237335e-02 -5.940730e-03
<VARIANCE> 25
 4.691569e+00 4.077898e+00 7.459886e+00 9.840580e+00 1.117561e+01 1.329443e+01 1.317132e+01 1.488227e+01 1.281492e+01 1.298782e+01 1.425678e+01 1.242490e+01 5.606956e-01 6.259254e-01 7.366117e-01 9.397504e-01 1.029208e+00 1.643745e+00 1.339065e+00 1.687455e+00 1.283443e+00 1.221966e+00 1.476561e+00 1.202530e+00 5.897198e-01
<GCONST> 7.418726e+01
<TRANSP> 5
 0.000000e+00 1.000000e+00 0.000000e+00 0.000000e+00 0.000000e+00
 0.000000e+00 7.847430e-01 2.152570e-01 0.000000e+00 0.000000e+00
 0.000000e+00 0.000000e+00 8.254703e-01 1.745297e-01 0.000000e+00
 0.000000e+00 0.000000e+00 0.000000e+00 9.638738e-01 3.612620e-02
 0.000000e+00 0.000000e+00 0.000000e+00 0.000000e+00 0.000000e+00
<ENDHMM>
~h "\340\262\254\340\263\215"
<BEGINHMM>
<NUMSTATES> 5
<STATE> 2
<MEAN> 25
 2.831581e+00 8.595133e-02 6.404756e+00 3.489546e+00 -1.935029e+00 -4.276715e+00 -1.471552e+00 -7.162578e-01 -4.195762e+00 -3.078858e+00 -2.116009e+00 -3.924901e+00 1.632296e+00 6.687610e-01 1.007816e+00 8.080325e-01 3.696065e-01 -9.183403e-01 -1.339464e+00 -1.253233e+00 -1.244289e+00 -5.805972e-01 -6.988140e-01 -1.446570e+00 1.057315e+00
<VARIANCE> 25
 3.893027e+01 9.067677e+01 4.380652e+01 6.908783e+01 8.221289e+01 4.549056e+01 3.768168e+01 5.888661e+01 3.735585e+01 4.458705e+01 2.382205e+01 2.728142e+01 3.092376e+00 4.398975e+00 4.764708e+00 3.471631e+00 4.777317e+00 4.448987e+00 4.153112e+00 4.595661e+00 4.367529e+00 4.106368e+00 1.955994e+00 2.237575e+00 5.556377e+00
<GCONST> 1.094572e+02
<STATE> 3
<MEAN> 25
 9.756144e+00 2.555480e+00 7.614762e+00 7.255616e+00 5.252470e+00 -3.276479e+00 -1.065915e+01 -1.244673e+01 -1.121926e+01 -3.685243e-01 -5.350039e-01 -1.012038e+01 -8.971103e-02 9.354888e-01 -2.004471e-01 5.369673e-01 7.232125e-01 9.787136e-01 5.291484e-01 -1.312673e+00 -6.581113e-01 -1.797582e-01 1.670434e-01 7.502060e-02 -8.779449e-01
<VARIANCE> 25
 6.845932e+00 4.406094e+01 2.181940e+01 2.618178e+01 2.642396e+01 4.873591e+01 5.772206e+01 7.350311e+01 3.746677e+01 3.118176e+01 2.824813e+01 3.501696e+01 8.966007e-01 1.369288e+00 2.040332e+00 1.926050e+00 2.064859e+00 2.490542e+00 3.449593e+00 2.757629e+00 2.906732e+00 2.330369e+00 1.573009e+00 1.815091e+00 1.741922e+00
<GCONST> 9.645891e+01
<STATE> 4
<MEAN> 25
 5.621273e+00 7.009460e+00 6.203581e+00 6.887507e+00 5.286488e+00 -5.213528e-01 -1.575622e+00 -1.051273e+01 -8.809364e+00 -5.082312e+00 -2.323818e+00 -5.559743e+00 -1.084709e+00 -1.901803e+00 -1.007236e+00 -2.205353e+00 -1.418062e+00 -8.812979e-01 4.462924e-01 1.674233e+00 1.859396e+00 5.092041e-01 7.980376e-03 8.072769e-01 1.891186e+00
<VARIANCE> 25
 1.640585e+01 4.064622e+01 2.764710e+01 3.796010e+01 3.521526e+01 4.427718e+01 2.670235e+01 9.101865e+01 5.486404e+01 2.823301e+01 2.780849e+01 2.566499e+01 1.908951e+00 5.161209e+00 3.341350e+00 6.845955e+00 5.583074e+00 4.576898e+00 3.659851e+00 4.602704e+00 5.571657e+00 3.458055e+00 3.479130e+00 2.190224e+00 7.438466e+00
<GCONST> 1.069475e+02
<TRANSP> 5
 0.000000e+00 1.000000e+00 0.000000e+00 0.000000e+00 0.000000e+00
 0.000000e+00 7.406025e-01 2.593975e-01 0.000000e+00 0.000000e+00
 0.000000e+00 0.000000e+00 7.249464e-01 2.750536e-01 0.000000e+00
 0.000000e+00 0.000000e+00 0.000000e+00 6.828634e-01 3.171366e-01
 0.000000e+00 0.000000e+00 0.000000e+00 0.000000e+00 0.000000e+00
<ENDHMM>
~h "\340\262\244\340\263\215"
<BEGINHMM>
<NUMSTATES> 5
<STATE> 2
<MEAN> 25
 -1.583415e+00 2.783745e-01 -3.043016e+00 5.212185e-02 5.576043e-01 -1.120789e+00 -1.806539e-01 3.011212e+00 7.961481e+00 5.679134e+00 1.911990e+00 1.185620e+00 -9.917183e-01 -1.074088e-01 -5.466760e-01 1.508032e-01 1.775042e-01 8.096175e-01 1.183052e+00 8.175732e-01 8.383241e-01 1.020874e+00 1.176082e+00 7.469100e-01 -1.501230e+00
<VARIANCE> 25
 1.436464e+01 1.981533e+01 3.396724e+01 2.481336e+01 2.748062e+01 3.835733e+01 3.534602e+01 4.286810e+01 4.700055e+01 3.403588e+01 4.193940e+01 2.853860e+01 1.146974e+00 1.766126e+00 2.298541e+00 1.997991e+00 1.758701e+00 3.021536e+00 2.719143e+00 2.552381e+00 3.242869e+00 3.107238e+00 2.936180e+00 2.320101e+00 4.384624e+00
<GCONST> 9.862876e+01
<STATE> 3
<MEAN> 25
 -6.368947e+00 1.981105e+00 -2.825845e+00 2.833771e+00 2.690110e+00 3.709532e-01 4.120436e+00 3.630041e+00 6.172726e+00 5.991733e+00 4.329577e+00 3.789224e+00 -3.784564e-01 -1.484447e-01 -5.166709e-02 -3.632465e-01 -1.816812e-01 -1.306323e+00 -2.141800e-01 -1.164849e+00 -1.559054e+00 -1.510553e+00 -8.520995e-01 -3.330684e-01 3.283370e+00
<VARIANCE> 25
 1.285385e+01 1.381888e+01 1.710015e+01 1.499720e+01 1.746637e+01 2.680254e+01 1.984292e+01 2.379416e+01 3.107961e+01 2.060898e+01 1.630841e+01 1.438331e+01 1.675488e+00 1.518475e+00 2.658553e+00 2.143017e+00 2.397278e+00 4.752846e+00 2.644640e+00 3.548081e+00 4.676175e+00 3.019107e+00 2.656038e+00 2.147742e+00 8.619340e+00
<GCONST> 9.478819e+01
<STATE> 4
<MEAN> 25
 -1.288594e+00 -8.473209e-01 -1.918339e+00 -2.496724e+00 -1.570832e+00 -8.154294e+00 -3.240407e+00 -1.533799e+00 -3.185638e-01 -1.447772e-01 -1.215906e+00 -4.011205e-01 2.681680e+00 -9.608267e-01 1.475516e-01 -1.666556e+00 -1.511407e+00 -1.612796e+00 -2.940099e+00 -7.380545e-01 -6.268240e-01 -7.609389e-01 -1.910063e+00 -1.454513e+00 3.808112e+00
<VARIANCE> 25
 4.831441e+01 2.690707e+01 2.489488e+01 3.102176e+01 3.147512e+01 5.185878e+01 7.802740e+01 3.387525e+01 5.237132e+01 3.042064e+01 3.327984e+01 3.078804e+01 4.187400e+00 3.908539e+00 3.300724e+00 4.693454e+00 4.196955e+00 7.350094e+00 6.861138e+00 4.779891e+00 6.507594e+00 5.261336e+00 4.781621e+00 2.922638e+00 1.048396e+01
<GCONST> 1.103248e+02
<TRANSP> 5
 0.000000e+00 1.000000e+00 0.000000e+00 0.000000e+00 0.000000e+00
 0.000000e+00 7.613938e-01 2.386062e-01 0.000000e+00 0.000000e+00
 0.000000e+00 0.000000e+00 5.772945e-01 4.227055e-01 0.000000e+00
 0.000000e+00 0.000000e+00 0.000000e+00 5.780094e-01 4.219906e-01
 0.000000e+00 0.000000e+00 0.000000e+00 0.000000e+00 0.000000e+00
<ENDHMM>
~h "\340\262\265\340\263\215"
<BEGINHMM>
<NUMSTATES> 5
<STATE> 2
<MEAN> 25
 9.722417e+00 -1.668797e+00 -4.598505e+00 -8.147484e+00 -1.197227e+00 -6.273882e-01 -5.865804e+00 -7.911125e+00 -5.890172e+00 2.588659e+00 1.874153e+00 -3.512998e+00 6.786882e-01 1.335088e+00 2.805309e-01 -4.355087e-01 6.204847e-02 8.552217e-01 7.540441e-01 -1.390757e+00 -1.337677e+00 -7.628958e-01 9.685273e-01 6.768451e-01 -9.403908e-01
<VARIANCE> 25
 3.014535e+01 3.052237e+01 3.097461e+01 7.678691e+01 2.782638e+01 4.247728e+01 3.969154e+01 3.196848e+01 3.775499e+01 4.158448e+01 2.838243e+01 2.460480e+01 2.645642e+00 2.527468e+00 2.894146e+00 5.592326e+00 4.583619e+00 3.837452e+00 4.376740e+00 3.204778e+00 3.196799e+00 4.602307e+00 3.402630e+00 2.394288e+00 3.176697e+00
<GCONST> 1.048087e+02
<STATE> 3
<MEAN> 25
 1.274157e+01 3.221172e+00 -4.567493e+00 -1.294605e+01 -6.291055e+00 2.618252e+00 -3.211689e+00 -7.139030e+00 -7.310613e+00 -4.264462e+00 2.821056e-01 -1.079620e+00 -1.307787e-01 -2.028983e-01 -1.863408e-01 -2.201178e-01 -4.162313e-02 4.493782e-02 1.961795e-01 2.104702e-01 4.052362e-01 -1.557788e-02 -3.278463e-01 -1.048275e-01 2.254651e-01
<VARIANCE> 25
 2.302107e+01 2.968146e+01 1.856058e+01 6.101915e+01 5.175657e+01 2.744910e+01 2.802880e+01 3.738894e+01 3.400093e+01 3.745708e+01 2.534518e+01 1.999150e+01 6.073477e-01 2.099954e+00 1.363103e+00 2.491171e+00 2.150071e+00 1.930876e+00 2.275432e+00 1.795451e+00 1.887297e+00 2.455163e+00 1.499961e+00 1.243135e+00 1.408392e+00
<GCONST> 9.389259e+01
<STATE> 4
<MEAN> 25
 5.836649e+00 -4.027493e-01 -3.162560e+00 -5.109303e+00 5.985863e-01 7.599792e-01 -5.689567e-01 -5.760803e+00 -4.076466e+00 4.356223e-01 1.305245e+00 -1.644051e+00 -2.363323e-01 -1.286552e+00 -3.703391e-01 -2.209069e-01 -2.415194e-01 -1.236507e-01 -1.002413e-01 4.302542e-01 7.262522e-01 6.484358e-01 -5.901934e-01 -6.791086e-01 1.030842e+00
<VARIANCE> 25
 6.243039e+01 3.557080e+01 4.435851e+01 1.006682e+02 4.620868e+01 5.634967e+01 5.229093e+01 4.108339e+01 4.194330e+01 4.518419e+01 2.709943e+01 2.251284e+01 2.490873e+00 2.694922e+00 2.586100e+00 4.376131e+00 4.083817e+00 3.356295e+00 4.036259e+00 2.669521e+00 3.489087e+00 3.748950e+00 3.178806e+00 2.292799e+00 2.475248e+00
<GCONST> 1.063436e+02
<TRANSP> 5
