~o
<STREAMINFO> 1 25
<VECSIZE> 25<NULLD><MFCC_D_N_Z_0><DIAGC>
~s "silst"
<MEAN> 25
 -5.473747e+00 3.524374e+00 -6.978031e-01 5.771696e+00 5.194033e+00 3.535671e+00 5.407385e+00 4.391700e+00 4.942179e+00 4.552211e+00 4.278711e+00 4.350758e+00 -7.731213e-03 1.229298e-02 2.534967e-02 2.374910e-02 -2.854261e-03 -1.596854e-02 -5.773806e-03 -6.455834e-03 -8.145464e-03 6.609417e-03 5.350193e-03 1.272368e-03 -6.814186e-03
<VARIANCE> 25
 2.974851e+00 3.120508e+00 4.796677e+00 6.759332e+00 7.799284e+00 9.517789e+00 1.143644e+01 1.117330e+01 1.197200e+01 1.232759e+01 1.163045e+01 1.088055e+01 1.378774e-01 2.373145e-01 3.965163e-01 5.590020e-01 7.144889e-01 9.168090e-01 1.056062e+00 1.143168e+00 1.237286e+00 1.253001e+00 1.211535e+00 1.107947e+00 1.384805e-01
<GCONST> 6.424124e+01
~h "sp"
<BEGINHMM>
<NUMSTATES> 3
<STATE> 2
~s "silst"
<TRANSP> 3
 0.000000e+00 6.694656e-01 3.305344e-01
 0.000000e+00 9.736262e-01 2.637382e-02
 0.000000e+00 0.000000e+00 0.000000e+00
<ENDHMM>
~h "\340\262\236\340\263\215"
<BEGINHMM>
<NUMSTATES> 5
<STATE> 2
<MEAN> 25
 4.925858e-08 -1.233895e-08 2.920008e-08 1.226765e-08 -5.222096e-08 1.835772e-08 3.730370e-08 -3.084009e-08 5.284326e-08 -7.177465e-09 3.337222e-08 1.065681e-08 -5.941017e-04 -3.072851e-04 5.426822e-05 -6.761555e-04 -2.272289e-05 -6.928663e-06 -4.446488e-04 -1.001891e-03 -5.636913e-04 -2.278803e-04 9.030614e-05 -4.183001e-04 3.126871e-03
<VARIANCE> 25
 6.337364e+01 4.811290e+01 5.212138e+01 6.297672e+01 6.965734e+01 5.789758e+01 6.618909e+01 5.280534e+01 5.847340e+01 4.740644e+01 4.464558e+01 3.826577e+01 2.126088e+00 2.240220e+00 2.076481e+00 2.780402e+00 2.979447e+00 3.084975e+00 3.029560e+00 2.887547e+00 2.790046e+00 2.530517e+00 2.348650e+00 2.055844e+00 2.977529e+00
<GCONST> 1.062192e+02
<STATE> 3
<MEAN> 25
 4.925858e-08 -1.233895e-08 2.920008e-08 1.226765e-08 -5.222096e-08 1.835772e-08 3.730370e-08 -3.084009e-08 5.284326e-08 -7.177465e-09 3.337222e-08 1.065681e-08 -5.941017e-04 -3.072851e-04 5.426822e-05 -6.761555e-04 -2.272289e-05 -6.928663e-06 -4.446488e-04 -1.001891e-03 -5.636913e-04 -2.278803e-04 9.030614e-05 -4.183001e-04 3.126871e-03
<VARIANCE> 25
 6.337364e+01 4.811290e+01 5.212138e+01 6.297672e+01 6.965734e+01 5.789758e+01 6.618909e+01 5.280534e+01 5.847340e+01 4.740644e+01 4.464558e+01 3.826577e+01 2.126088e+00 2.240220e+00 2.076481e+00 2.780402e+00 2.979447e+00 3.084975e+00 3.029560e+00 2.887547e+00 2.790046e+00 2.530517e+00 2.348650e+00 2.055844e+00 2.977529e+00
<GCONST> 1.062192e+02
<STATE> 4
<MEAN> 25
 4.925858e-08 -1.233895e-08 2.920008e-08 1.226765e-08 -5.222096e-08 1.835772e-08 3.730370e-08 -3.084009e-08 5.284326e-08 -7.177465e-09 3.337222e-08 1.065681e-08 -5.941017e-04 -3.072851e-04 5.426822e-05 -6.761555e-04 -2.272289e-05 -6.928663e-06 -4.446488e-04 -1.001891e-03 -5.636913e-04 -2.278803e-04 9.030614e-05 -4.183001e-04 3.126871e-03
<VARIANCE> 25
 6.337364e+01 4.811290e+01 5.212138e+01 6.297672e+01 6.965734e+01 5.789758e+01 6.618909e+01 5.280534e+01 5.847340e+01 4.740644e+01 4.464558e+01 3.826577e+01 2.126088e+00 2.240220e+00 2.076481e+00 2.780402e+00 2.979447e+00 3.084975e+00 3.029560e+00 2.887547e+00 2.790046e+00 2.530517e+00 2.348650e+00 2.055844e+00 2.977529e+00
<GCONST> 1.062192e+02
<TRANSP> 5
 0.000000e+00 1.000000e+00 0.000000e+00 0.000000e+00 0.000000e+00
 0.000000e+00 6.000000e-01 4.000000e-01 0.000000e+00 0.000000e+00
 0.000000e+00 0.000000e+00 6.000000e-01 4.000000e-01 0.000000e+00
 0.000000e+00 0.000000e+00 0.000000e+00 7.000000e-01 3.000000e-01
 0.000000e+00 0.000000e+00 0.000000e+00 0.000000e+00 0.000000e+00
<ENDHMM>
~h "\340\262\257\340\263\215"
<BEGINHMM>
<NUMSTATES> 5
<STATE> 2
<MEAN> 25
 -5.724921e-01 1.958384e+00 1.082943e+01 -5.829491e+00 -8.456161e+00 -4.231658e+00 -3.384573e+00 -5.277442e+00 -6.279644e+00 -2.762430e+00 -1.788645e+00 -2.269570e+00 9.256639e-01 -2.423984e-02 1.256456e+00 -6.842216e-01 -1.930979e+00 -3.072699e-01 -6.046468e-01 -3.268036e-01 -1.250737e+00 4.334596e-01 4.334270e-01 -6.032523e-01 7.318317e-01
<VARIANCE> 25
 4.237906e+01 5.094767e+01 4.486638e+01 5.063335e+01 7.966251e+01 3.464652e+01 4.450232e+01 5.331538e+01 4.090636e+01 3.230473e+01 2.398643e+01 2.680732e+01 5.282539e+00 3.775007e+00 4.330993e+00 3.443563e+00 6.978738e+00 3.427539e+00 4.148439e+00 3.639313e+00 3.877023e+00 3.203658e+00 2.928647e+00 2.279549e+00 2.978780e+00
<GCONST> 1.077938e+02
<STATE> 3
<MEAN> 25
 3.292542e+00 -2.006801e+00 1.365358e+01 -8.898853e+00 -1.833041e+01 -5.019310e+00 -6.009800e+00 -4.069519e+00 -1.074471e+01 1.402521e+00 7.009189e-01 -5.709962e+00 4.005146e-01 -1.657208e+00 -1.329756e+00 4.439681e-01 -6.546937e-01 -1.476791e+00 9.324865e-01 1.851731e+00 1.779255e-01 1.696586e-01 6.128832e-01 1.684770e-03 7.512635e-01
<VARIANCE> 25
 5.050917e+00 2.972300e+01 2.702817e+01 3.154931e+01 1.935971e+01 4.317196e+01 3.080720e+01 3.412571e+01 2.296110e+01 2.493082e+01 1.748344e+01 1.261912e+01 6.283836e-01 2.794431e+00 2.694459e+00 1.673092e+00 2.406737e+00 3.173673e+00 3.536043e+00 4.520462e+00 1.869346e+00 2.171870e+00 1.416927e+00 1.378926e+00 7.175940e-01
<GCONST> 9.175220e+01
<STATE> 4
<MEAN> 25
 4.646489e+00 -9.776208e+00 3.521658e+00 -6.022734e+00 -1.601621e+01 -1.108826e+01 -4.564718e-01 5.722839e+00 -6.511469e+00 -2.338980e+00 -6.956233e-01 -5.294532e+00 3.514678e-01 -1.069461e+00 -2.370601e+00 4.937159e-01 1.989934e+00 1.007100e-01 2.501155e-01 8.360815e-01 1.474677e+00 -1.398067e+00 -1.682244e+00 6.574442e-02 3.236647e-01
<VARIANCE> 25
 5.499359e+00 2.132800e+01 2.899073e+01 2.242340e+01 3.358324e+01 2.989545e+01 3.297068e+01 2.779111e+01 2.106804e+01 3.213651e+01 2.905812e+01 2.070857e+01 3.155282e-01 2.176443e+00 3.403469e+00 1.673114e+00 4.092859e+00 2.458212e+00 3.065312e+00 4.615504e+00 2.552762e+00 3.990076e+00 2.989587e+00 1.618779e+00 5.505301e-01
<GCONST> 9.346118e+01
<TRANSP> 5
 0.000000e+00 1.000000e+00 0.000000e+00 0.000000e+00 0.000000e+00
 0.000000e+00 6.134557e-01 3.865443e-01 0.000000e+00 0.000000e+00
 0.000000e+00 0.000000e+00 7.292117e-01 2.707883e-01 0.000000e+00
 0.000000e+00 0.000000e+00 0.000000e+00 7.194456e-01 2.805544e-01
 0.000000e+00 0.000000e+00 0.000000e+00 0.000000e+00 0.000000e+00
<ENDHMM>
~h "\340\262\226\340\263\215"
<BEGINHMM>
<NUMSTATES> 5
<STATE> 2
<MEAN> 25
 -5.518039e+00 2.624946e+00 1.789079e-01 4.337266e+00 3.924613e+00 2.217134e+00 5.532607e+00 2.730397e+00 2.849984e+00 4.001218e+00 3.256389e+00 3.473758e+00 -8.049318e-01 1.183793e-02 5.001898e-01 -5.329534e-01 1.381739e-01 -4.074610e-01 4.185427e-01 6.286552e-02 1.035306e-02 1.961667e-01 1.737044e-01 1.106612e-01 3.259904e-01
<VARIANCE> 25
 1.161265e+01 8.535099e+00 1.602208e+01 4.054182e+01 1.522476e+01 2.625656e+01 2.039278e+01 1.683820e+01 1.840569e+01 2.591265e+01 2.231737e+01 1.569290e+01 2.465387e+00 1.344291e+00 2.473547e+00 3.594099e+00 1.884800e+00 3.049017e+00 2.997372e+00 1.731537e+00 2.074728e+00 2.280536e+00 2.126822e+00 1.709702e+00 1.328179e+00
<GCONST> 9.078269e+01
<STATE> 3
<MEAN> 25
 -9.055005e+00 3.649749e+00 3.219813e+00 -1.273321e-01 4.919612e+00 -3.388425e-01 6.620584e+00 2.326838e+00 2.154783e+00 2.052485e+00 2.684367e+00 2.115864e+00 6.456848e-01 2.420341e-01 -8.805879e-01 8.924533e-01 -9.810399e-02 7.096196e-01 -5.563628e-01 1.873825e-01 5.080543e-01 1.508648e-01 -1.751612e-01 4.330848e-01 -9.178458e-01
<VARIANCE> 25
 3.701445e+01 1.842929e+01 3.503218e+01 3.965187e+01 1.782638e+01 2.987468e+01 2.598381e+01 1.996621e+01 1.620138e+01 2.002502e+01 1.804068e+01 1.640422e+01 3.079964e+00 1.201881e+00 2.609445e+00 2.129761e+00 1.623183e+00 3.492198e+00 2.672915e+00 1.924645e+00 1.777825e+00 1.465730e+00 1.667734e+00 1.523897e+00 1.365909e+00
<GCONST> 9.230914e+01
<STATE> 4
<MEAN> 25
 -4.041794e+00 4.145658e+00 1.850369e-01 5.541467e+00 4.200044e+00 2.595847e+00 3.369176e+00 3.905303e+00 3.493472e+00 3.698730e+00 3.988552e+00 3.545724e+00 1.795476e-02 -1.431857e-02 2.002434e-02 1.038353e-02 -2.180678e-02 -1.473499e-02 -1.001167e-02 -5.750448e-03 2.140161e-02 6.986616e-03 -1.470131e-02 -1.532286e-02 1.089243e-02
<VARIANCE> 25
 2.440195e+00 3.513920e+00 4.586489e+00 8.284070e+00 6.898739e+00 9.697154e+00 9.116120e+00 9.760232e+00 1.081913e+01 1.093636e+01 1.225937e+01 9.575236e+00 1.683489e-01 2.917949e-01 4.792303e-01 6.882617e-01 8.017874e-01 9.804259e-01 1.011024e+00 1.025805e+00 1.113360e+00 1.207782e+00 1.223441e+00 1.025015e+00 2.110754e-01
<GCONST> 6.460378e+01
<TRANSP> 5
 0.000000e+00 1.000000e+00 0.000000e+00 0.000000e+00 0.000000e+00
 0.000000e+00 8.091679e-01 1.908321e-01 0.000000e+00 0.000000e+00
 0.000000e+00 0.000000e+00 5.906543e-01 4.093457e-01 0.000000e+00
 0.000000e+00 0.000000e+00 0.000000e+00 9.654844e-01 3.451553e-02
 0.000000e+00 0.000000e+00 0.000000e+00 0.000000e+00 0.000000e+00
<ENDHMM>
~h "\340\262\247\340\263\215"
<BEGINHMM>
<NUMSTATES> 5
<STATE> 2
<MEAN> 25
 6.163499e+00 3.900819e+00 5.412344e+00 4.195559e+00 -1.232624e-01 -8.074329e+00 -6.277097e+00 -9.504723e-01 -1.376916e+00 -5.762800e+00 -8.339216e+00 -2.337220e+00 3.574817e-01 2.331435e+00 1.577208e+00 2.051929e+00 1.301841e+00 1.409522e+00 1.050867e+00 -6.231488e-01 -8.219378e-02 -1.177657e+00 -2.804082e-01 -7.842151e-01 -2.544876e+00
<VARIANCE> 25
 1.820931e+01 3.630223e+01 3.201609e+01 3.289952e+01 3.334936e+01 5.235792e+01 7.461267e+01 3.456198e+01 4.777443e+01 2.772342e+01 2.624877e+01 2.802875e+01 2.412361e+00 1.454914e+00 3.133909e+00 2.548307e+00 3.730279e+00 5.320310e+00 4.945264e+00 3.453525e+00 4.468796e+00 2.036474e+00 2.129280e+00 2.182170e+00 4.972678e+00
<GCONST> 1.030178e+02
<STATE> 3
<MEAN> 25
 4.846436e+00 1.117611e+01 8.835441e+00 9.440322e+00 3.069728e+00 -2.059898e+00 -1.923605e+00 -1.953763e+00 -1.908358e+00 -7.030262e+00 -7.268611e+00 -3.224848e+00 -1.983938e+00 -7.166265e-01 -1.607906e+00 -4.611774e-01 3.646272e-01 3.306142e-01 9.415983e-01 1.809850e-02 2.497295e-01 8.257228e-01 1.294613e+00 2.515975e-01 1.049859e+00
<VARIANCE> 25
 1.551369e+01 1.883606e+01 2.368694e+01 1.760872e+01 2.490418e+01 2.408822e+01 3.022630e+01 2.237676e+01 4.470094e+01 1.601808e+01 2.003950e+01 1.964223e+01 2.844986e+00 3.123511e+00 4.102752e+00 2.456518e+00 2.215462e+00 2.073825e+00 3.091272e+00 2.453565e+00 4.649128e+00 2.269473e+00 2.115216e+00 1.737069e+00 5.024941e+00
<GCONST> 9.643823e+01
<STATE> 4
<MEAN> 25
 -2.803975e+00 1.655799e+00 -1.206962e+00 1.247254e+00 5.556433e-01 -4.826780e+00 2.960907e+00 1.610958e+00 1.092142e+00 -3.756725e+00 -2.792787e+00 2.266426e+00 -2.799838e-01 -1.763520e+00 -7.093306e-01 -1.585549e+00 -1.474652e+00 -7.352507e-01 1.005722e-01 1.352000e+00 7.360286e-01 1.223419e-01 -2.033727e-01 1.311445e+00 2.849390e+00
<VARIANCE> 25
 1.769754e+01 1.339808e+01 1.378255e+01 1.723177e+01 2.017557e+01 2.807643e+01 1.873544e+01 4.030542e+01 2.550251e+01 1.946313e+01 2.653493e+01 2.965793e+01 3.520119e+00 2.713358e+00 3.737642e+00 3.626915e+00 4.876362e+00 5.448876e+00 3.939548e+00 6.161197e+00 4.420608e+00 2.861016e+00 5.500215e+00 3.645040e+00 4.348261e+00
<GCONST> 1.010655e+02
<TRANSP> 5
 0.000000e+00 1.000000e+00 0.000000e+00 0.000000e+00 0.000000e+00
 0.000000e+00 7.283410e-01 2.716590e-01 0.000000e+00 0.000000e+00
 0.000000e+00 0.000000e+00 6.930688e-01 3.069312e-01 0.000000e+00
 0.000000e+00 0.000000e+00 0.000000e+00 6.648134e-01 3.351866e-01
 0.000000e+00 0.000000e+00 0.000000e+00 0.000000e+00 0.000000e+00
<ENDHMM>
~h "\340\262\270\340\263\215"
<BEGINHMM>
<NUMSTATES> 5
<STATE> 2
<MEAN> 25
 -4.223995e+00 4.760401e+00 1.717937e+00 2.153411e+00 -2.730661e+00 -8.039618e+00 1.658487e+00 -3.544487e+00 -2.062439e+00 -2.198642e+00 -2.142064e+00 -2.226285e-01 -3.378383e+00 1.076506e+00 -1.161703e+00 6.166418e-01 1.561126e+00 -5.529277e-01 1.925909e+00 5.068040e-01 5.844792e-01 -1.649014e-01 8.466220e-01 7.321140e-01 5.261829e-01
<VARIANCE> 25
 7.305048e+01 5.714833e+01 3.644690e+01 4.149086e+01 6.757097e+01 5.131755e+01 7.096172e+01 7.034695e+01 5.059645e+01 2.966120e+01 3.130300e+01 2.815772e+01 8.034925e+00 5.747725e+00 3.357378e+00 6.496350e+00 4.839346e+00 6.022267e+00 7.420794e+00 6.055498e+00 3.567433e+00 2.717732e+00 3.205316e+00 2.764655e+00 4.084887e+00
<GCONST> 1.123203e+02
<STATE> 3
<MEAN> 25
 -2.095080e+01 7.404323e+00 -5.891878e+00 1.899384e+00 3.686652e+00 -5.725393e+00 9.830306e+00 -1.137889e-01 3.411502e+00 -4.421169e-01 2.953976e+00 3.713461e+00 -7.465274e-01 -2.275285e-01 -1.494901e-01 -3.319772e-01 9.536553e-02 -4.539699e-02 1.588447e-01 1.986871e-01 6.912138e-02 3.564609e-02 1.042345e-01 1.835924e-01 3.075575e-01
<VARIANCE> 25
 3.270578e+01 1.110886e+01 1.891061e+01 2.173270e+01 3.145501e+01 3.248255e+01 1.765400e+01 2.023128e+01 2.177508e+01 1.901327e+01 1.842133e+01 1.719873e+01 3.782542e+00 1.141048e+00 1.641793e+00 1.425372e+00 1.492970e+00 2.246234e+00 1.618801e+00 2.079096e+00 1.839787e+00 1.779331e+00 1.964328e+00 1.535033e+00 2.099187e+00
<GCONST> 9.021981e+01
<STATE> 4
<MEAN> 25
 -1.328609e+01 4.722527e+00 -7.308221e-01 -9.747282e-01 1.981819e+00 -1.031832e+01 3.471408e+00 -7.374467e-01 8.210315e-01 -2.341748e+00 -1.640108e+00 1.470503e+00 4.939939e+00 -1.015334e+00 9.174004e-01 -5.670289e-01 -1.736814e+00 -8.879308e-01 -2.956670e+00 -1.218311e+00 -3.662980e-01 -3.605130e-01 -1.468403e+00 -1.363846e+00 9.020777e-01
<VARIANCE> 25
 1.035463e+02 1.878367e+01 3.808328e+01 3.566132e+01 4.525949e+01 5.040447e+01 6.711517e+01 5.417019e+01 4.058735e+01 2.766524e+01 3.145870e+01 2.093214e+01 7.955048e+00 2.891789e+00 3.731987e+00 2.693299e+00 2.831408e+00 4.504711e+00 4.236714e+00 5.398241e+00 3.955642e+00 3.021869e+00 3.406432e+00 2.284819e+00 1.479258e+00
<GCONST> 1.062221e+02
<TRANSP> 5
 0.000000e+00 1.000000e+00 0.000000e+00 0.000000e+00 0.000000e+00
 0.000000e+00 7.467613e-01 2.532388e-01 0.000000e+00 0.000000e+00
 0.000000e+00 0.000000e+00 8.737825e-01 1.262175e-01 0.000000e+00
 0.000000e+00 0.000000e+00 0.000000e+00 7.233177e-01 2.766823e-01
 0.000000e+00 0.000000e+00 0.000000e+00 0.000000e+00 0.000000e+00
<ENDHMM>
~h "\340\262\237\340\263\215"
<BEGINHMM>
<NUMSTATES> 5
<STATE> 2
<MEAN> 25
 3.926693e-01 -2.559327e+00 -3.875427e+00 4.019082e+00 -1.593985e-01 -2.463984e+00 2.263273e+00 2.765474e+00 4.428571e+00 2.958492e+00 1.920035e+00 3.217113e-01 -1.224049e+00 2.338185e-01 -3.378119e-01 -4.436201e-01 7.446261e-01 1.018764e+00 9.923661e-01 3.372484e-01 8.590980e-01 1.171617e+00 9.712865e-01 8.521866e-01 -1.622794e+00
<VARIANCE> 25
 3.915607e+01 2.975677e+01 4.842597e+01 2.331285e+01 3.728292e+01 3.700723e+01 3.506980e+01 4.758804e+01 3.873969e+01 4.444199e+01 4.309755e+01 3.115789e+01 1.784667e+00 3.078846e+00 2.465474e+00 2.470580e+00 3.904726e+00 2.807683e+00 3.737117e+00 2.721066e+00 3.203503e+00 3.817326e+00 3.414456e+00 2.480932e+00 4.281861e+00
<GCONST> 1.036591e+02
<STATE> 3
<MEAN> 25
 -5.432125e+00 -2.079888e+00 -1.131691e+00 2.901938e+00 1.304328e+00 1.690063e+00 4.626297e+00 2.601568e+00 6.167294e+00 4.833183e+00 4.306009e+00 3.130029e+00 1.373488e-02 -1.171696e+00 1.604030e+00 -8.236973e-01 -1.101038e+00 -9.117392e-01 -2.496105e-01 -7.198914e-01 -1.523493e+00 -1.464300e+00 -7.574231e-01 -3.141808e-01 3.375736e+00
<VARIANCE> 25
 3.381783e+01 3.941517e+01 5.456257e+01 2.076214e+01 2.453296e+01 3.088142e+01 2.009534e+01 2.544536e+01 2.954068e+01 2.615245e+01 2.692634e+01 1.783353e+01 1.757197e+00 3.294790e+00 4.422161e+00 5.759247e+00 4.680445e+00 4.805278e+00 3.249674e+00 4.183270e+00 4.023331e+00 2.763625e+00 2.976164e+00 2.042289e+00 7.923419e+00
<GCONST> 1.028651e+02
<STATE> 4
<MEAN> 25
 -1.619183e+00 -6.199400e+00 2.508102e+00 -6.735914e-01 -5.129286e+00 -3.461759e+00 2.801630e-01 -3.976777e-01 -2.856920e-01 -7.720374e-01 9.946821e-01 3.438389e-01 2.203306e+00 -2.949906e-01 9.763336e-01 -1.355705e+00 -2.722333e+00 -1.290273e+00 -2.439312e+00 -7.700127e-01 -2.029723e+00 -8.887608e-01 -1.317658e+00 -1.593618e+00 3.892353e+00
<VARIANCE> 25
 7.078777e+01 3.639774e+01 5.704390e+01 4.639383e+01 7.390450e+01 4.556233e+01 8.320177e+01 3.391280e+01 4.115512e+01 3.518956e+01 3.877447e+01 3.384752e+01 3.848944e+00 5.457664e+00 5.746041e+00 4.722973e+00 9.091389e+00 6.443902e+00 6.329287e+00 5.851832e+00 4.751511e+00 4.167812e+00 5.148609e+00 4.072841e+00 1.298421e+01
<GCONST> 1.148276e+02
<TRANSP> 5
 0.000000e+00 1.000000e+00 0.000000e+00 0.000000e+00 0.000000e+00
 0.000000e+00 7.814534e-01 2.185466e-01 0.000000e+00 0.000000e+00
 0.000000e+00 0.000000e+00 4.422542e-01 5.577458e-01 0.000000e+00
 0.000000e+00 0.000000e+00 0.000000e+00 4.723875e-01 5.276126e-01
 0.000000e+00 0.000000e+00 0.000000e+00 0.000000e+00 0.000000e+00
<ENDHMM>
~h "\340\262\260\340\263\215"
<BEGINHMM>
<NUMSTATES> 5
<STATE> 2
<MEAN> 25
 1.908136e+00 -4.995139e+00 2.109418e+00 4.171122e+00 -4.553744e+00 -9.582501e+00 -9.612601e-01 -9.882144e-01 1.258818e+00 -2.044710e+00 -4.244362e+00 1.332415e-01 1.131030e+00 -3.628426e-01 5.654528e-01 8.322524e-01 -1.332774e+00 -5.499569e-01 -8.844888e-01 -2.994817e-01 -8.332720e-02 -6.069089e-01 -4.274733e-02 2.807838e-01 3.164349e-01
<VARIANCE> 25
 4.193591e+01 3.551528e+01 4.828832e+01 3.629977e+01 6.160841e+01 4.987253e+01 4.178749e+01 4.221508e+01 3.490788e+01 2.651743e+01 2.952101e+01 2.613618e+01 5.554302e+00 3.284223e+00 5.399777e+00 4.076382e+00 5.656915e+00 4.783778e+00 5.172664e+00 4.309915e+00 3.613468e+00 3.045768e+00 3.199981e+00 3.230632e+00 5.089604e+00
<GCONST> 1.084657e+02
<STATE> 3
<MEAN> 25
 1.008575e+01 -1.033569e+01 -1.996915e+00 4.824102e+00 -1.378311e+01 -8.928782e+00 -8.840482e+00 -7.598394e-01 1.811990e+00 -2.409304e+00 -4.123028e+00 -2.454075e+00 1.052764e+00 -1.091729e+00 -1.093960e+00 -5.775459e-01 -1.509041e+00 1.744073e+00 -1.647648e+00 7.841939e-01 -2.471618e-01 -6.593981e-02 9.681213e-01 -1.370962e+00 7.578628e-01
<VARIANCE> 25
 1.578898e+01 2.649674e+01 4.736644e+01 2.435523e+01 5.368198e+01 3.804679e+01 3.944357e+01 3.618878e+01 4.014796e+01 2.189360e+01 2.825715e+01 2.993216e+01 2.497222e+00 2.806922e+00 4.288846e+00 3.544495e+00 5.505461e+00 4.285292e+00 4.323995e+00 4.262778e+00 3.832050e+00 3.384505e+00 3.635054e+00 3.378261e+00 2.215712e+00
<GCONST> 1.040484e+02
<STATE> 4
<MEAN> 25
 1.080610e+01 -6.955669e+00 -4.381113e+00 -4.977133e+00 -9.717094e+00 -7.696384e-01 -9.879542e+00 -3.086658e+00 -4.757489e+00 -2.110661e+00 9.245756e-01 -5.993120e+00 -3.281020e-01 6.083266e-01 -2.468201e-02 -1.374365e+00 1.028204e+00 7.281852e-01 6.768056e-01 -1.320295e-01 -8.784422e-01 -1.624331e-01 9.024177e-02 -2.502953e-01 -2.291080e-02
<VARIANCE> 25
 2.261462e+01 5.139410e+01 6.075101e+01 8.111137e+01 5.438951e+01 5.941321e+01 4.756437e+01 6.389096e+01 8.604644e+01 3.572274e+01 7.273396e+01 3.002073e+01 7.722543e-01 2.567041e+00 2.041649e+00 4.624239e+00 3.039144e+00 3.534318e+00 3.034764e+00 3.486424e+00 4.589058e+00 3.245254e+00 3.683491e+00 2.580049e+00 1.692361e+00
<GCONST> 1.064681e+02
<TRANSP> 5
 0.000000e+00 1.000000e+00 0.000000e+00 0.000000e+00 0.000000e+00
 0.000000e+00 6.238222e-01 3.761778e-01 0.000000e+00 0.000000e+00
 0.000000e+00 0.000000e+00 5.892643e-01 4.107357e-01 0.000000e+00
 0.000000e+00 0.000000e+00 0.000000e+00 6.029872e-01 3.970128e-01
 0.000000e+00 0.000000e+00 0.000000e+00 0.000000e+00 0.000000e+00
<ENDHMM>
~h "\340\262\227\340\263\215"
<BEGINHMM>
<NUMSTATES> 5
<STATE> 2
<MEAN> 25
 6.162912e+00 -4.617997e-01 2.142568e-01 -4.389437e+00 -1.430880e+00 -3.850410e+00 -6.605346e+00 -3.639675e+00 -7.083537e+00 7.176692e-01 -1.350770e+00 -4.493663e+00 7.787974e-01 1.214473e+00 9.717994e-01 6.738675e-01 -2.813111e-01 -6.142440e-01 -4.060985e-01 -1.104695e+00 -1.545698e+00 -1.877629e-01 5.237852e-01 -1.368124e-01 -6.370385e-01
<VARIANCE> 25
 3.852406e+01 4.939885e+01 6.587735e+01 6.017630e+01 7.975311e+01 6.097673e+01 6.681972e+01 7.550800e+01 5.401867e+01 4.149645e+01 4.471717e+01 3.978789e+01 3.104181e+00 6.764119e+00 4.948385e+00 8.103363e+00 7.793708e+00 3.998613e+00 6.300430e+00 5.247012e+00 5.184285e+00 3.275273e+00 4.004391e+00 4.116493e+00 1.009281e+01
<GCONST> 1.156172e+02
<STATE> 3
<MEAN> 25
 8.505727e+00 1.232021e+00 3.920008e+00 -4.640509e-01 -3.709368e+00 -5.691282e+00 -7.063407e+00 -5.060133e+00 -8.752647e+00 -1.531437e+00 -2.276926e+00 -6.250482e+00 -1.124038e-01 1.865449e+00 6.714938e-01 1.770571e+00 1.246790e+00 7.271773e-01 1.346935e+00 -1.418941e+00 3.653503e-01 -7.905762e-01 -5.803825e-01 -9.222579e-02 -2.384294e+00
<VARIANCE> 25
 1.749477e+01 4.300836e+01 4.016373e+01 4.644955e+01 5.813815e+01 4.656535e+01 6.459148e+01 6.522330e+01 4.564635e+01 3.758519e+01 4.445488e+01 2.703643e+01 1.468884e+00 4.359951e+00 2.555008e+00 4.496437e+00 6.409498e+00 5.245392e+00 4.878815e+00 7.006125e+00 3.978213e+00 3.337064e+00 3.939411e+00 2.441558e+00 4.596426e+00
<GCONST> 1.086103e+02
<STATE> 4
<MEAN> 25
 9.278153e+00 4.824033e+00 2.115778e+00 -1.766066e+00 -1.908234e+00 -1.277406e+00 -3.641021e+00 -7.580022e+00 -9.897829e+00 -3.869111e+00 -1.490176e+00 -5.577228e+00 -1.260223e+00 -4.635125e-01 -4.052366e-01 1.408680e-01 1.115839e+00 -3.569885e-01 3.749504e-01 6.685544e-01 9.694412e-01 2.900059e-01 -2.852642e-01 5.822049e-01 5.593206e-02
<VARIANCE> 25
 2.282890e+01 3.337894e+01 4.281072e+01 7.508653e+01 6.031548e+01 5.324703e+01 4.490786e+01 4.050968e+01 6.588326e+01 3.123813e+01 6.248074e+01 1.853946e+01 3.023634e+00 4.007502e+00 3.057559e+00 3.544362e+00 5.880362e+00 4.033636e+00 4.806930e+00 4.518205e+00 3.292227e+00 3.093539e+00 2.690375e+00 2.576335e+00 3.513637e+00
<GCONST> 1.075589e+02
<TRANSP> 5
 0.000000e+00 1.000000e+00 0.000000e+00 0.000000e+00 0.000000e+00
 0.000000e+00 4.716177e-01 5.283824e-01 0.000000e+00 0.000000e+00
 0.000000e+00 0.000000e+00 4.722474e-01 5.277526e-01 0.000000e+00
 0.000000e+00 0.000000e+00 0.000000e+00 6.175866e-01 3.824134e-01
 0.000000e+00 0.000000e+00 0.000000e+00 0.000000e+00 0.000000e+00
<ENDHMM>
~h "\340\262\250\340\263\215"
<BEGINHMM>
<NUMSTATES> 5
<STATE> 2
<MEAN> 25
 7.407581e+00 -3.913592e-01 5.265472e+00 4.617894e-01 -5.132764e+00 -7.907976e+00 -2.246100e+00 5.262596e-01 -6.434775e+00 -6.193571e+00 -4.932586e+00 3.342515e-01 1.301336e+00 1.936617e+00 1.590419e+00 2.231137e-01 2.580684e-01 -1.692166e+00 3.735497e-01 -1.381139e+00 -2.140279e+00 2.745728e-01 8.561318e-02 2.943465e-01 -5.818748e-01
<VARIANCE> 25
 2.921706e+01 5.752394e+01 2.796096e+01 3.194221e+01 4.775203e+01 5.681801e+01 4.396352e+01 4.815121e+01 5.935551e+01 3.095002e+01 4.456090e+01 2.387744e+01 1.688567e+00 2.475882e+00 3.348531e+00 2.916149e+00 4.655132e+00 3.840267e+00 2.902150e+00 3.077105e+00 3.798778e+00 2.945935e+00 2.150625e+00 2.566919e+00 4.380200e+00
<GCONST> 1.046008e+02
<STATE> 3
<MEAN> 25
 1.161703e+01 4.427113e+00 7.719065e+00 -9.190277e-01 -6.028213e+00 -1.034388e+01 4.880725e-01 -4.766365e+00 -1.497004e+01 -5.183584e+00 -2.609804e+00 5.581225e-01 -1.456198e-01 -5.732226e-01 -1.419966e-01 2.534317e-02 -3.939455e-01 1.952942e-02 -3.489745e-01 4.374842e-01 4.281728e-01 -4.154488e-01 -5.530950e-03 -1.735766e-01 4.663831e-01
<VARIANCE> 25
 5.943248e+00 1.896380e+01 1.487576e+01 1.678155e+01 1.977105e+01 3.007678e+01 2.841699e+01 4.236354e+01 5.604433e+01 2.722814e+01 3.649572e+01 2.903691e+01 4.797929e-01 2.663928e+00 1.070251e+00 1.571678e+00 2.156451e+00 2.081019e+00 2.521693e+00 3.042704e+00 4.765617e+00 1.885758e+00 1.777909e+00 1.558312e+00 1.524200e+00
<GCONST> 9.190984e+01
<STATE> 4
<MEAN> 25
 7.853159e+00 -3.481565e+00 5.024433e+00 -2.552601e+00 -7.881608e+00 -6.677112e+00 -5.234785e+00 7.368888e-01 -5.919914e+00 -6.921148e+00 -3.414561e+00 -2.408370e+00 -7.988197e-01 -1.638176e+00 -1.123188e+00 -1.257468e+00 -3.033060e-01 1.684439e+00 -5.735798e-01 4.187027e-01 1.263145e+00 2.152647e-01 2.380036e-01 -7.050233e-01 1.076172e+00
<VARIANCE> 25
 1.978124e+01 4.673468e+01 4.015914e+01 4.344545e+01 6.324962e+01 4.109834e+01 4.032430e+01 4.584024e+01 6.078366e+01 3.542293e+01 3.355540e+01 3.267079e+01 1.106781e+00 4.197771e+00 3.415442e+00 3.244399e+00 6.206805e+00 3.713042e+00 4.200604e+00 4.768071e+00 5.596536e+00 3.519210e+00 3.101279e+00 2.579400e+00 2.576885e+00
<GCONST> 1.063823e+02
<TRANSP> 5
 0.000000e+00 1.000000e+00 0.000000e+00 0.000000e+00 0.000000e+00
 0.000000e+00 6.537986e-01 3.462014e-01 0.000000e+00 0.000000e+00
 0.000000e+00 0.000000e+00 7.302232e-01 2.697767e-01 0.000000e+00
 0.000000e+00 0.000000e+00 0.000000e+00 5.914414e-01 4.085586e-01
 0.000000e+00 0.000000e+00 0.000000e+00 0.000000e+00 0.000000e+00
<ENDHMM>
~h "\340\262\271\340\263\215"
<BEGINHMM>
<NUMSTATES> 5
<STATE> 2
<MEAN> 25
 -5.464660e+00 3.010269e+00 -1.830256e+00 4.468561e+00 5.421506e+00 4.075152e+00 6.015945e+00 4.589353e+00 5.188699e+00 3.681585e+00 3.888083e+00 4.379990e+00 -1.240091e-02 5.493376e-02 4.601786e-02 6.020991e-03 -1.833823e-02 -4.004258e-03 5.940246e-02 -2.049214e-02 -4.013963e-02 -3.934619e-02 4.135516e-02 3.126009e-02 -2.265545e-02
<VARIANCE> 25
 9.978903e+00 9.484620e+00 8.661368e+00 1.441750e+01 1.264818e+01 1.691378e+01 1.640649e+01 1.635746e+01 1.595356e+01 2.180154e+01 1.823640e+01 1.525499e+01 5.300082e-01 6.379420e-01 7.439483e-01 9.670222e-01 9.660124e-01 1.182268e+00 1.460102e+00 1.500120e+00 1.384268e+00 1.641604e+00 1.680004e+00 1.492966e+00 4.494120e-01
<GCONST> 7.820620e+01
<STATE> 3
<MEAN> 25
 -8.980330e-01 -2.962582e-01 -1.947230e+00 6.766462e-01 5.715362e+00 5.479188e+00 3.228463e+00 6.816086e-01 1.715833e+00 -2.481408e+00 2.424765e-01 2.087299e+00 4.795528e-01 -3.284869e-01 -6.990298e-02 -5.550702e-01 -6.739912e-01 7.927020e-02 -3.121626e-01 -8.228115e-01 -4.800079e-01 -4.015068e-01 -3.881163e-01 -2.011720e-01 7.406463e-01
<VARIANCE> 25
 2.213918e+01 2.338541e+01 2.287799e+01 3.766178e+01 3.215450e+01 3.581408e+01 4.224312e+01 3.346537e+01 2.587392e+01 3.364384e+01 3.108410e+01 1.810301e+01 1.022784e+00 1.417338e+00 1.815534e+00 2.066320e+00 2.539552e+00 3.161444e+00 3.127598e+00 2.012951e+00 1.950123e+00 2.996219e+00 2.463885e+00 1.987397e+00 9.315927e-01
<GCONST> 9.525919e+01
<STATE> 4
<MEAN> 25
 8.000957e-01 -2.616474e+00 -3.620121e+00 -2.010602e+00 1.857988e+00 3.686392e+00 2.173626e+00 -7.254107e-01 6.391072e-01 -3.918400e+00 -2.046586e+00 1.272014e+00 1.216265e+00 -8.710608e-01 -1.186861e-01 -1.533869e+00 -1.216659e+00 -2.878982e-01 -9.112642e-01 -8.552353e-01 -5.845353e-01 -6.575509e-01 -8.182780e-01 -8.441107e-01 2.563596e+00
<VARIANCE> 25
 2.114906e+01 2.921998e+01 2.972729e+01 3.444049e+01 5.446510e+01 3.773884e+01 4.158810e+01 3.687452e+01 2.495634e+01 3.092558e+01 3.737709e+01 2.106106e+01 1.318299e+00 3.456720e+00 2.271770e+00 2.751686e+00 3.319762e+00 3.088827e+00 3.441171e+00 2.637582e+00 2.270135e+00 2.642532e+00 2.894028e+00 2.220962e+00 2.293699e+00
<GCONST> 9.995058e+01
<TRANSP> 5
 0.000000e+00 1.000000e+00 0.000000e+00 0.000000e+00 0.000000e+00
 0.000000e+00 8.599467e-01 1.400533e-01 0.000000e+00 0.000000e+00
 0.000000e+00 0.000000e+00 4.628905e-01 5.371096e-01 0.000000e+00
 0.000000e+00 0.000000e+00 0.000000e+00 7.006751e-01 2.993250e-01
 0.000000e+00 0.000000e+00 0.000000e+00 0.000000e+00 0.000000e+00
<ENDHMM>
~h "\340\262\205"
<BEGINHMM>
<NUMSTATES> 5
<STATE> 2
<MEAN> 25
 4.647256e+00 -4.204997e+00 -2.517118e+00 -2.790309e+00 -3.519824e+00 -6.904854e+00 -5.142624e+00 3.783070e-01 1.712167e-01 -1.666299e+00 -4.624411e+00 -2.407958e+00 1.107511e+00 -2.272401e+00 -1.373490e+00 -1.896937e+00 -1.131191e+00 9.267330e-03 -1.318788e+00 1.310397e+00 8.788747e-01 2.488028e-01 -1.049284e+00 -9.015213e-01 2.544516e+00
<VARIANCE> 25
 2.962613e+01 4.741397e+01 3.565406e+01 4.810337e+01 6.950875e+01 6.778609e+01 5.351829e+01 4.761857e+01 4.153187e+01 4.159358e+01 3.520279e+01 3.243950e+01 4.246477e+00 4.051541e+00 3.685740e+00 4.646360e+00 6.525983e+00 6.187733e+00 5.109417e+00 4.991555e+00 4.668403e+00 4.082424e+00 4.155398e+00 3.867085e+00 4.269446e+00
<GCONST> 1.112365e+02
<STATE> 3
<MEAN> 25
 6.349813e+00 -1.148070e+01 -6.397470e+00 -7.403399e+00 -4.569499e+00 -4.024512e+00 -6.548394e+00 3.493622e+00 1.708924e+00 -2.360658e+00 -9.814871e+00 -5.453277e+00 3.331979e-02 -5.777404e-01 -3.228774e-01 -2.042376e-01 3.423256e-01 5.172909e-01 -1.036611e-01 -6.586736e-02 -1.071288e-02 -1.140144e-01 -4.219598e-01 -2.157918e-01 2.865122e-01
<VARIANCE> 25
 9.111027e+00 2.441166e+01 2.241218e+01 2.992782e+01 3.315480e+01 6.436163e+01 3.469455e+01 3.983145e+01 2.269987e+01 3.908352e+01 3.186359e+01 3.207391e+01 5.714093e-01 2.196423e+00 1.539754e+00 2.193495e+00 2.866487e+00 4.191713e+00 2.645797e+00 3.876709e+00 1.832451e+00 1.942479e+00 2.158581e+00 1.916844e+00 9.752942e-01
<GCONST> 9.539756e+01
<STATE> 4
<MEAN> 25
 5.153766e+00 -3.898703e+00 -5.930905e+00 -3.415636e+00 3.074614e+00 2.679619e+00 -5.831941e+00 -2.020931e+00 1.379477e+00 -6.465727e+00 -5.093547e+00 -3.584845e+00 -3.857308e-01 9.970204e-01 5.298538e-01 9.011994e-01 4.089794e-01 -8.318476e-02 5.261978e-01 5.979612e-03 2.400920e-02 1.775282e-01 5.773849e-01 4.651659e-01 -1.622218e+00
<VARIANCE> 25
 2.297726e+01 3.448085e+01 2.438234e+01 4.146930e+01 5.456498e+01 7.241720e+01 5.969293e+01 4.456870e+01 2.375445e+01 5.695537e+01 3.782221e+01 3.306261e+01 1.140308e+00 1.703387e+00 1.759582e+00 2.626269e+00 2.520325e+00 3.122466e+00 3.300557e+00 3.180597e+00 2.037735e+00 3.603155e+00 2.382473e+00 2.230948e+00 1.472378e+00
<GCONST> 1.007099e+02
<TRANSP> 5
 0.000000e+00 1.000000e+00 0.000000e+00 0.000000e+00 0.000000e+00
 0.000000e+00 5.196164e-01 4.803836e-01 0.000000e+00 0.000000e+00
 0.000000e+00 0.000000e+00 7.152241e-01 2.847758e-01 0.000000e+00
 0.000000e+00 0.000000e+00 0.000000e+00 8.236769e-01 1.763231e-01
 0.000000e+00 0.000000e+00 0.000000e+00 0.000000e+00 0.000000e+00
<ENDHMM>
~h "\340\262\206"
<BEGINHMM>
<NUMSTATES> 5
<STATE> 2
<MEAN> 25
 3.590053e+00 -8.633820e+00 -6.425042e+00 -6.294459e+00 1.149516e+00 2.451437e+00 -1.194437e+00 -1.889558e+00 2.370968e-01 -2.998854e+00 -5.812580e+00 -4.274946e+00 7.292570e-01 -1.929670e+00 -1.147090e+00 -1.566951e+00 2.962649e-01 1.941224e+00 -4.554854e-01 -8.946490e-01 -3.379325e-01 -6.071366e-01 -3.612013e-01 -1.039656e+00 1.819430e+00
<VARIANCE> 25
 3.884969e+01 5.068470e+01 3.273137e+01 4.919701e+01 4.513549e+01 7.696042e+01 5.391477e+01 4.287947e+01 3.562718e+01 4.414976e+01 4.067872e+01 3.757964e+01 2.898588e+00 3.780196e+00 2.743924e+00 3.754499e+00 3.987805e+00 4.865042e+00 3.830582e+00 4.260219e+00 3.779950e+00 3.201919e+00 3.618439e+00 2.899952e+00 5.199574e+00
<GCONST> 1.084848e+02
<STATE> 3
<MEAN> 25
 7.223320e+00 -1.442575e+01 -1.003399e+01 -1.126904e+01 1.778799e+00 9.628951e+00 -5.241153e+00 -7.694438e+00 -1.619902e+00 -5.872190e+00 -4.602492e+00 -7.250167e+00 1.568235e-02 2.504626e-02 -7.523465e-02 -5.316743e-02 1.171386e-01 1.625185e-01 -3.263478e-01 -1.597986e-01 8.556302e-02 6.348208e-02 -5.585570e-02 3.454117e-02 6.801997e-02
<VARIANCE> 25
 7.977997e+00 1.967274e+01 1.597829e+01 2.781392e+01 2.159508e+01 3.274315e+01 5.073739e+01 2.418093e+01 2.627649e+01 3.943517e+01 3.984188e+01 3.458248e+01 2.493009e-01 7.186671e-01 5.874341e-01 1.099023e+00 1.014665e+00 1.727688e+00 9.541818e-01 1.727085e+00 8.148662e-01 8.514584e-01 1.209620e+00 7.303892e-01 2.285815e-01
<GCONST> 8.188319e+01
<STATE> 4
<MEAN> 25
 7.132723e+00 -1.022370e+01 -9.028407e+00 -6.677804e+00 -6.029729e-01 2.754307e+00 -6.499644e+00 -2.428214e+00 1.453676e+00 -5.079938e+00 -8.203309e+00 -6.366729e+00 2.589108e-02 1.324957e+00 9.200954e-01 1.309544e+00 -8.322637e-01 -2.107033e+00 1.100584e-01 1.139544e+00 3.106275e-01 3.076412e-01 -1.888421e-01 4.938446e-01 -1.133639e+00
<VARIANCE> 25
 8.796068e+00 3.335655e+01 1.866308e+01 3.966536e+01 3.739823e+01 5.205750e+01 4.326296e+01 3.885463e+01 2.368217e+01 4.587920e+01 3.472228e+01 3.261951e+01 6.485402e-01 1.773231e+00 2.003600e+00 1.961740e+00 2.729126e+00 3.825100e+00 3.090154e+00 3.272615e+00 2.422724e+00 2.227318e+00 2.866355e+00 2.234941e+00 1.437762e+00
<GCONST> 9.733360e+01
<TRANSP> 5
 0.000000e+00 1.000000e+00 0.000000e+00 0.000000e+00 0.000000e+00
 0.000000e+00 7.426696e-01 2.573304e-01 0.000000e+00 0.000000e+00
 0.000000e+00 0.000000e+00 8.808392e-01 1.191607e-01 0.000000e+00
 0.000000e+00 0.000000e+00 0.000000e+00 7.980505e-01 2.019495e-01
 0.000000e+00 0.000000e+00 0.000000e+00 0.000000e+00 0.000000e+00
<ENDHMM>
~h "\340\262\207"
<BEGINHMM>
<NUMSTATES> 5
<STATE> 2
<MEAN> 25
 2.245139e-01 1.458395e+00 1.176147e+01 -3.774484e+00 -9.643216e+00 -5.235718e+00 -3.232752e+00 -6.707675e+00 -8.242924e+00 -1.860082e+00 -1.427883e+00 -3.210653e+00 8.884617e-01 -3.645904e-01 1.871194e+00 -1.820357e+00 -3.050894e+00 2.328474e-01 -1.614935e+00 -8.408996e-01 -1.910981e+00 7.296887e-01 1.076574e-01 -1.032580e+00 1.922089e+00
<VARIANCE> 25
 3.169570e+01 3.958947e+01 4.006076e+01 4.537663e+01 7.817429e+01 5.203304e+01 3.323589e+01 4.384966e+01 4.901859e+01 2.742003e+01 3.017567e+01 2.360708e+01 6.210109e+00 3.872587e+00 4.298012e+00 3.884008e+00 5.249791e+00 5.260311e+00 4.017988e+00 4.460865e+00 4.964393e+00 3.266558e+00 3.745422e+00 2.774858e+00 3.916451e+00
<GCONST> 1.086463e+02
<STATE> 3
<MEAN> 25
 1.917826e+00 4.574022e+00 1.497912e+01 -9.076509e+00 -1.536284e+01 3.084049e-01 -8.737452e+00 -1.079934e+01 -1.007951e+01 -3.185599e-01 -4.979206e+00 -4.986316e+00 1.749350e-01 4.319648e-01 -2.809873e-01 4.112594e-01 3.023341e-01 2.939419e-01 4.319122e-01 -1.544525e-01 2.008955e-01 -2.840334e-01 -2.742297e-01 1.006095e-01 -5.926086e-01
<VARIANCE> 25
 8.755152e+00 4.557409e+01 2.265277e+01 3.306198e+01 2.654598e+01 5.984917e+01 3.045389e+01 3.632938e+01 2.765022e+01 2.536797e+01 4.690977e+01 2.235815e+01 5.748079e-01 1.862833e+00 1.339425e+00 2.681620e+00 2.498298e+00 3.139746e+00 3.148347e+00 2.525141e+00 1.735576e+00 1.699637e+00 1.904562e+00 1.481511e+00 1.078365e+00
<GCONST> 9.411715e+01
<STATE> 4
<MEAN> 25
 -1.152105e+00 2.652856e+00 7.915370e+00 1.404918e+00 -5.158289e+00 -1.974416e+00 2.112070e+00 -4.160701e+00 -4.371780e+00 -1.356741e+00 -3.160402e-01 -8.859355e-01 -4.926927e-01 -2.012986e-01 -1.063787e+00 1.181967e+00 1.590631e+00 -4.005933e-01 8.228195e-01 1.026653e+00 9.712089e-01 2.377125e-01 7.771657e-01 7.782947e-01 -1.491034e+00
<VARIANCE> 25
 3.552839e+01 3.406945e+01 3.630342e+01 4.587078e+01 7.327187e+01 7.703918e+01 4.656414e+01 5.533634e+01 5.230143e+01 3.469572e+01 4.444771e+01 3.150836e+01 2.506483e+00 3.695577e+00 2.481920e+00 4.481574e+00 4.737234e+00 6.591411e+00 4.366075e+00 3.365343e+00 3.278864e+00 3.662179e+00 3.567209e+00 2.433527e+00 2.981945e+00
<GCONST> 1.082072e+02
<TRANSP> 5
 0.000000e+00 1.000000e+00 0.000000e+00 0.000000e+00 0.000000e+00
 0.000000e+00 6.809036e-01 3.190965e-01 0.000000e+00 0.000000e+00
 0.000000e+00 0.000000e+00 8.355479e-01 1.644522e-01 0.000000e+00
 0.000000e+00 0.000000e+00 0.000000e+00 7.458346e-01 2.541654e-01
 0.000000e+00 0.000000e+00 0.000000e+00 0.000000e+00 0.000000e+00
<ENDHMM>
~h "\340\262\210"
<BEGINHMM>
<NUMSTATES> 5
<STATE> 2
<MEAN> 25
 -3.717494e+00 4.317674e+00 1.347571e+01 -4.740623e+00 -4.621268e+00 -6.210592e-01 -4.578693e+00 -5.916361e+00 -5.359058e+00 -7.290193e-01 -2.120518e+00 -2.429420e+00 5.709487e-01 3.996575e-01 2.969187e+00 -2.120871e+00 -1.653573e+00 4.929625e-01 -2.079223e+00 -1.224531e+00 -1.597419e+00 -2.312745e-01 -1.338591e+00 -1.202527e+00 1.810741e+00
<VARIANCE> 25
 4.121390e+01 3.361192e+01 7.716782e+01 5.684554e+01 6.787196e+01 2.761926e+01 5.701640e+01 5.030709e+01 4.865811e+01 2.570063e+01 3.292177e+01 3.105664e+01 3.831839e+00 2.971259e+00 6.772552e+00 5.264023e+00 4.053646e+00 3.294390e+00 5.136330e+00 4.025634e+00 5.365430e+00 3.529080e+00 2.953521e+00 2.957513e+00 5.593525e+00
<GCONST> 1.095828e+02
<STATE> 3
<MEAN> 25
 -8.468539e-01 5.216748e+00 2.169654e+01 -1.272701e+01 -1.076888e+01 4.785193e+00 -1.366560e+01 -1.108320e+01 -9.552175e+00 -2.302314e+00 -9.407192e+00 -5.505549e+00 1.350044e-01 5.560496e-02 -3.542051e-01 2.711773e-01 -8.233176e-02 5.983733e-03 2.131475e-01 -1.503347e-01 3.094194e-02 -5.631644e-03 -1.279828e-01 1.569612e-01 -1.676766e-01
<VARIANCE> 25
 1.633578e+01 2.467312e+01 3.993468e+01 3.709557e+01 2.608858e+01 2.758225e+01 2.956129e+01 3.624064e+01 3.209651e+01 3.331237e+01 2.756789e+01 2.834586e+01 3.228020e-01 1.098077e+00 1.253213e+00 1.451793e+00 1.230002e+00 1.660944e+00 2.202309e+00 1.559502e+00 1.372787e+00 1.201083e+00 1.056326e+00 1.292081e+00 7.524589e-01
<GCONST> 8.847420e+01
<STATE> 4
<MEAN> 25
 -1.849359e+00 3.127792e+00 7.633721e+00 6.688478e-01 -3.036977e+00 8.808607e-01 1.730128e+00 -4.700969e+00 -3.032237e+00 -1.405659e+00 -2.351267e+00 2.050898e-01 -4.720370e-01 -3.281215e-01 -9.966172e-01 1.026386e+00 1.185868e+00 -3.898057e-01 8.836203e-01 1.053276e+00 8.129286e-01 3.178291e-01 9.830877e-01 5.176337e-01 -1.104158e+00
<VARIANCE> 25
 2.332165e+01 2.867270e+01 5.110885e+01 4.202385e+01 7.056982e+01 5.882985e+01 5.051528e+01 5.325476e+01 5.371918e+01 3.448585e+01 3.500000e+01 3.079698e+01 1.984791e+00 2.652289e+00 2.202506e+00 3.054341e+00 3.940656e+00 6.540343e+00 4.130020e+00 2.480786e+00 3.412842e+00 3.741885e+00 3.008500e+00 2.327754e+00 2.015285e+00
<GCONST> 1.051977e+02
<TRANSP> 5
 0.000000e+00 1.000000e+00 0.000000e+00 0.000000e+00 0.000000e+00
 0.000000e+00 8.087046e-01 1.912955e-01 0.000000e+00 0.000000e+00
 0.000000e+00 0.000000e+00 9.331946e-01 6.680537e-02 0.000000e+00
 0.000000e+00 0.000000e+00 0.000000e+00 8.011998e-01 1.988002e-01
 0.000000e+00 0.000000e+00 0.000000e+00 0.000000e+00 0.000000e+00
<ENDHMM>
~h "\340\262\211"
<BEGINHMM>
<NUMSTATES> 5
<STATE> 2
<MEAN> 25
 9.640004e+00 2.242610e+00 -4.420218e+00 -8.604125e+00 -2.516647e-01 1.766902e+00 -5.962790e+00 -6.729742e+00 -7.594638e+00 -5.001126e+00 2.042389e-01 -4.713699e+00 -5.535529e-01 4.824075e-01 3.556912e-02 5.654459e-01 6.986604e-01 5.252578e-01 9.910385e-01 2.587678e-01 1.656352e-01 -2.403400e-01 6.630944e-02 3.805197e-01 -1.241902e+00
<VARIANCE> 25
 1.813081e+01 3.273362e+01 2.116124e+01 5.492323e+01 4.252828e+01 5.350265e+01 8.849182e+01 2.867044e+01 3.921101e+01 8.094597e+01 3.264710e+01 2.568222e+01 1.513561e+00 2.048599e+00 1.736301e+00 3.977214e+00 2.802517e+00 4.339675e+00 4.317878e+00 2.574425e+00 3.100903e+00 4.806857e+00 2.994773e+00 2.523162e+00 1.162888e+00
<GCONST> 1.025997e+02
<STATE> 3
<MEAN> 25
 -3.373650e+00 2.870877e+00 -1.841267e+00 1.486784e+00 4.801312e+00 1.844081e+00 4.416283e+00 1.165447e+00 1.280008e+00 1.267725e+00 3.372598e+00 2.549482e+00 -8.803570e-01 4.421956e-02 1.993406e-01 6.698145e-01 -4.446776e-02 -1.666597e-01 3.387336e-01 6.951518e-01 8.308356e-01 1.001381e+00 4.139420e-01 6.067164e-01 -9.327414e-01
<VARIANCE> 25
 3.369858e+01 1.570461e+01 2.757322e+01 2.717773e+01 2.338653e+01 3.459466e+01 3.637680e+01 2.725477e+01 2.989705e+01 3.087859e+01 2.509133e+01 1.888002e+01 3.085734e+00 1.714720e+00 2.876200e+00 2.399484e+00 2.216971e+00 3.678205e+00 3.286386e+00 2.332887e+00 2.767666e+00 2.993026e+00 2.328663e+00 2.007353e+00 1.483845e+00
<GCONST> 9.720531e+01
<STATE> 4
<MEAN> 25
 -4.887516e+00 3.344610e+00 -8.762170e-01 5.195070e+00 4.967203e+00 3.057349e+00 4.830734e+00 3.793888e+00 4.392010e+00 3.933120e+00 3.679340e+00 4.165004e+00 -4.574820e-02 -6.220824e-03 5.832140e-02 9.134622e-02 8.648061e-03 1.803481e-02 1.841830e-02 2.416302e-02 2.414505e-02 3.134501e-04 1.590138e-02 2.195347e-02 -4.622255e-02
<VARIANCE> 25
 7.318161e+00 4.977347e+00 6.761914e+00 9.562728e+00 1.023193e+01 1.299391e+01 1.536648e+01 1.540664e+01 1.592871e+01 1.554159e+01 1.417955e+01 1.299111e+01 3.007154e-01 4.089229e-01 5.586419e-01 7.420644e-01 9.579859e-01 1.130301e+00 1.212331e+00 1.359954e+00 1.438023e+00 1.440377e+00 1.319053e+00 1.219114e+00 4.554560e-01
<GCONST> 7.281599e+01
<TRANSP> 5
 0.000000e+00 1.000000e+00 0.000000e+00 0.000000e+00 0.000000e+00
 0.000000e+00 8.860787e-01 1.139212e-01 0.000000e+00 0.000000e+00
 0.000000e+00 0.000000e+00 8.064445e-01 1.935555e-01 0.000000e+00
 0.000000e+00 0.000000e+00 0.000000e+00 9.245951e-01 7.540493e-02
 0.000000e+00 0.000000e+00 0.000000e+00 0.000000e+00 0.000000e+00
<ENDHMM>
~h "\340\262\212"
<BEGINHMM>
<NUMSTATES> 5
<STATE> 2
<MEAN> 25
 5.334571e+00 3.831041e-02 9.880804e-01 -2.005071e+00 -2.230518e+00 -4.198867e+00 -5.041991e+00 -4.842827e+00 -5.883517e+00 -9.488615e-01 4.709811e-01 -3.628381e+00 1.708375e+00 -1.182521e-01 -5.791134e-01 -1.983371e+00 -1.067862e+00 7.989759e-01 -1.629440e+00 -6.747613e-01 -1.885640e+00 1.706473e-01 7.995577e-01 -1.310807e+00 1.231643e+00
<VARIANCE> 25
 6.381161e+01 3.892807e+01 4.191968e+01 6.280847e+01 6.139961e+01 4.603811e+01 9.442703e+01 4.124166e+01 9.175269e+01 4.589732e+01 3.294133e+01 3.337576e+01 4.430884e+00 3.415237e+00 4.722909e+00 4.569687e+00 9.056745e+00 5.102628e+00 5.586596e+00 4.970387e+00 7.054466e+00 5.865758e+00 3.700185e+00 3.646420e+00 3.582592e+00
<GCONST> 1.137495e+02
<STATE> 3
<MEAN> 25
 1.287771e+01 1.094483e+00 -3.413300e+00 -1.147573e+01 -7.628661e+00 1.701070e+00 -8.891088e+00 -8.611128e+00 -1.287650e+01 -2.697992e+00 2.919293e+00 -6.071439e+00 1.016787e-01 2.266949e-01 -3.065627e-01 -6.305857e-01 -4.556681e-02 6.433899e-01 6.692125e-02 -2.160678e-01 -3.906677e-01 -1.964299e-01 1.486930e-01 3.661698e-01 -4.760344e-02
<VARIANCE> 25
 7.199041e+00 2.768276e+01 1.740602e+01 3.084501e+01 4.782283e+01 2.784964e+01 5.092828e+01 5.367569e+01 6.258802e+01 5.273444e+01 4.145098e+01 3.850521e+01 2.113208e-01 8.671066e-01 7.093048e-01 1.355338e+00 1.356066e+00 1.582076e+00 1.828273e+00 1.627550e+00 1.705276e+00 1.557118e+00 1.808626e+00 1.276781e+00 3.091784e-01
<GCONST> 8.886935e+01
<STATE> 4
<MEAN> 25
 1.015026e+01 1.330091e+00 -4.044849e+00 -6.342609e+00 -4.144252e+00 -2.943695e-03 -5.300956e+00 -9.082359e+00 -8.844001e+00 -5.271214e-01 3.224618e-01 -3.170565e+00 -6.978597e-01 -3.023848e-01 1.199644e-01 1.757267e+00 8.382806e-01 -1.146722e+00 2.997164e-01 1.266555e-01 1.265190e+00 5.887902e-01 -5.876773e-01 8.260818e-02 -5.868027e-01
<VARIANCE> 25
 3.245438e+01 3.242468e+01 2.133740e+01 6.191589e+01 5.213680e+01 4.149570e+01 9.135902e+01 4.953952e+01 5.251550e+01 5.632403e+01 4.334222e+01 3.204320e+01 1.736554e+00 2.045113e+00 1.702025e+00 3.695754e+00 3.911156e+00 3.976820e+00 5.041224e+00 3.238745e+00 3.550299e+00 4.477821e+00 3.810534e+00 2.837774e+00 2.041837e+00
<GCONST> 1.059217e+02
<TRANSP> 5
 0.000000e+00 1.000000e+00 0.000000e+00 0.000000e+00 0.000000e+00
 0.000000e+00 7.203230e-01 2.796771e-01 0.000000e+00 0.000000e+00
 0.000000e+00 0.000000e+00 8.539207e-01 1.460793e-01 0.000000e+00
 0.000000e+00 0.000000e+00 0.000000e+00 8.454294e-01 1.545706e-01
 0.000000e+00 0.000000e+00 0.000000e+00 0.000000e+00 0.000000e+00
<ENDHMM>
~h "\340\262\213"
<BEGINHMM>
<NUMSTATES> 5
<STATE> 2
<MEAN> 25
 3.481701e-02 1.964832e+00 5.734698e+00 9.175917e+00 -1.572170e+00 -6.474175e+00 7.481337e-01 -7.985244e-01 -2.052773e+00 -3.576676e+00 -4.714467e+00 5.069372e-01 1.876451e+00 -4.301321e-01 9.819211e-01 6.032269e-02 -1.702773e+00 -1.634468e+00 -1.635059e+00 -5.575182e-01 -1.003844e+00 -8.581237e-01 -8.510875e-01 -3.106447e-01 1.941366e+00
<VARIANCE> 25
 3.715503e+01 7.301054e+01 2.912011e+01 2.332486e+01 4.553236e+01 4.627637e+01 5.688707e+01 2.479326e+01 3.801158e+01 2.335735e+01 2.432480e+01 1.472306e+01 6.425308e+00 5.545296e+00 6.708983e+00 2.423046e+00 3.788555e+00 3.668407e+00 5.531387e+00 1.958791e+00 4.682498e+00 3.579341e+00 3.044401e+00 1.729393e+00 3.954710e+00
<GCONST> 1.051792e+02
<STATE> 3
<MEAN> 25
 9.824230e+00 -7.899894e+00 5.066308e+00 7.706727e+00 -1.325885e+01 -1.233696e+01 -1.268838e+01 2.112633e+00 -5.633741e+00 -4.629564e+00 -4.867006e+00 7.748407e-01 5.690521e-01 -9.216881e-01 -8.582601e-01 -5.099849e-01 -3.276540e-01 3.436124e-02 -1.974254e+00 9.854956e-01 -1.682998e-01 4.060327e-01 1.410775e-01 2.563488e-01 1.215815e+00
<VARIANCE> 25
 9.642535e+00 1.028074e+01 4.276144e+01 1.978608e+01 6.021486e+01 4.132518e+01 6.493077e+01 2.396459e+01 3.388416e+01 3.512546e+01 3.146207e+01 2.038329e+01 2.979315e+00 2.105823e+00 1.783063e+00 2.051929e+00 3.953218e+00 2.912844e+00 4.288030e+00 1.450096e+00 1.848774e+00 1.221775e+00 1.673342e+00 9.099105e-01 2.416709e+00
<GCONST> 9.552094e+01
<STATE> 4
<MEAN> 25
 3.302244e+00 -2.599836e+00 7.002907e+00 4.010937e+00 -4.664576e+00 -1.104023e+01 -1.119236e+01 -8.678277e-01 -5.485968e+00 -3.915201e+00 -6.326138e+00 6.917727e-01 -2.030024e+00 1.635694e+00 6.235747e-01 1.466713e-01 1.837650e+00 7.844599e-01 2.007932e+00 -9.660262e-01 4.082934e-01 4.158551e-02 2.978075e-01 -3.817568e-01 -1.640013e+00
<VARIANCE> 25
 6.244549e+01 3.707598e+01 3.903284e+01 4.358074e+01 7.239258e+01 3.569327e+01 4.544587e+01 2.797799e+01 2.973230e+01 4.143637e+01 1.613815e+01 4.594788e+01 8.277825e+00 4.274672e+00 3.076501e+00 6.323079e+00 4.765142e+00 4.768312e+00 5.089519e+00 2.706892e+00 1.483233e+00 2.992597e+00 2.502306e+00 2.672792e+00 7.290110e+00
<GCONST> 1.075211e+02
<TRANSP> 5
 0.000000e+00 1.000000e+00 0.000000e+00 0.000000e+00 0.000000e+00
 0.000000e+00 8.388613e-01 1.611387e-01 0.000000e+00 0.000000e+00
 0.000000e+00 0.000000e+00 7.990338e-01 2.009662e-01 0.000000e+00
 0.000000e+00 0.000000e+00 0.000000e+00 8.005595e-01 1.994405e-01
 0.000000e+00 0.000000e+00 0.000000e+00 0.000000e+00 0.000000e+00
<ENDHMM>
~h "\340\262\216"
<BEGINHMM>
<NUMSTATES> 5
<STATE> 2
<MEAN> 25
 3.261871e+00 -6.410249e+00 4.741894e+00 -5.511783e+00 -1.735287e+01 -6.345904e+00 4.829644e+00 3.093147e+00 -7.992724e+00 -3.035558e+00 -5.389953e-01 -6.285469e+00 -8.343024e-02 3.116891e-01 5.601259e-02 3.591486e-01 1.549532e-01 5.684218e-01 6.615977e-01 -1.176538e-01 -1.891846e-01 -2.493018e-01 -1.096650e-01 -1.118134e-01 -5.455546e-01
<VARIANCE> 25
 6.249152e+00 2.898192e+01 2.511529e+01 3.149148e+01 2.919865e+01 3.721970e+01 3.594223e+01 3.152775e+01 2.568532e+01 3.495623e+01 1.963947e+01 1.978737e+01 3.675075e-01 1.831802e+00 1.279020e+00 2.088611e+00 2.182278e+00 1.685100e+00 1.469557e+00 2.233866e+00 1.229225e+00 1.598770e+00 1.022852e+00 1.126012e+00 1.458057e+00
<GCONST> 8.887737e+01
<STATE> 3
<MEAN> 25
 -1.602247e+00 -1.571399e+00 1.997430e+00 2.709159e+00 -3.791134e+00 -2.438368e-01 9.656199e+00 4.102995e+00 -2.292317e+00 -3.456126e+00 1.206625e+00 5.182363e-01 -7.508461e-01 3.531992e-01 -4.317861e-01 1.923721e-01 1.142344e+00 1.059247e-01 -2.129458e-01 3.457027e-01 1.174550e+00 1.155019e+00 5.812110e-01 8.516914e-01 -1.449469e+00
<VARIANCE> 25
 2.454675e+01 2.106975e+01 2.687536e+01 3.341758e+01 6.794634e+01 3.821165e+01 6.137180e+01 3.790926e+01 5.064357e+01 4.979342e+01 2.579076e+01 3.067446e+01 1.608175e+00 1.973860e+00 2.008472e+00 2.485806e+00 3.069841e+00 4.178995e+00 3.403148e+00 2.992710e+00 3.227900e+00 2.860280e+00 2.394322e+00 2.367723e+00 1.410117e+00
<GCONST> 1.010529e+02
<STATE> 4
<MEAN> 25
 -5.105946e+00 2.984692e+00 1.242141e-01 4.422160e+00 3.629752e+00 2.267756e+00 5.733846e+00 3.690536e+00 3.742924e+00 3.498765e+00 3.857930e+00 3.680617e+00 -2.988012e-02 1.514827e-01 9.184189e-02 1.058073e-01 1.419519e-01 5.067313e-02 -1.620420e-01 -1.011344e-01 4.619481e-02 5.769119e-02 2.041485e-02 3.826846e-02 -1.361447e-01
<VARIANCE> 25
 1.078679e+01 9.842381e+00 1.351194e+01 1.910528e+01 4.013676e+01 1.946196e+01 1.898814e+01 2.049546e+01 2.422046e+01 1.863396e+01 1.608732e+01 1.849650e+01 6.372419e-01 7.037028e-01 8.026372e-01 1.158775e+00 1.368765e+00 1.538522e+00 1.594371e+00 1.789463e+00 1.683075e+00 1.614595e+00 1.532675e+00 1.425243e+00 6.441368e-01
<GCONST> 8.285789e+01
<TRANSP> 5
 0.000000e+00 1.000000e+00 0.000000e+00 0.000000e+00 0.000000e+00
 0.000000e+00 8.894504e-01 1.105497e-01 0.000000e+00 0.000000e+00
 0.000000e+00 0.000000e+00 8.010216e-01 1.989784e-01 0.000000e+00
 0.000000e+00 0.000000e+00 0.000000e+00 8.612534e-01 1.387465e-01
 0.000000e+00 0.000000e+00 0.000000e+00 0.000000e+00 0.000000e+00
<ENDHMM>
~h "\340\262\217"
<BEGINHMM>
<NUMSTATES> 5
<STATE> 2
<MEAN> 25
 5.421641e-01 -1.432413e+00 8.947344e+00 -3.138514e+00 -9.548555e+00 -5.370478e+00 -8.542290e-01 -1.098600e+00 -5.589520e+00 3.981527e-01 1.206831e+00 -1.811930e+00 2.175190e-01 -1.482201e+00 1.683626e+00 -2.325490e+00 -2.775885e+00 -6.949406e-01 -7.542158e-01 -2.814687e-01 -1.478905e+00 6.806812e-01 3.167884e-01 -9.186153e-01 2.813202e+00
<VARIANCE> 25
 2.755369e+01 4.719908e+01 4.798414e+01 6.505537e+01 8.359848e+01 5.323372e+01 3.710915e+01 3.452663e+01 5.207358e+01 3.309883e+01 2.293763e+01 2.422622e+01 3.035793e+00 3.734344e+00 3.396748e+00 4.632481e+00 5.979770e+00 4.709668e+00 3.979775e+00 2.597242e+00 3.758243e+00 3.153494e+00 2.548905e+00 2.986164e+00 5.051590e+00
<GCONST> 1.074717e+02
<STATE> 3
<MEAN> 25
 1.171951e+00 -7.621365e+00 1.535951e+01 -1.337200e+01 -1.934476e+01 -5.505810e+00 -5.176326e+00 -2.596043e+00 -1.215215e+01 3.389695e+00 6.644759e-01 -7.450874e+00 -5.412488e-02 7.621230e-02 3.275299e-02 -1.269897e-01 -1.761577e-01 1.818312e-01 -1.684941e-01 -1.757780e-01 -1.717257e-01 2.792285e-01 -2.128153e-01 -8.711767e-02 1.562718e-01
<VARIANCE> 25
 8.601938e+00 1.671422e+01 2.841224e+01 2.395060e+01 1.424835e+01 3.810085e+01 3.318999e+01 2.974129e+01 1.772535e+01 2.405114e+01 1.459316e+01 1.169004e+01 2.833800e-01 4.964582e-01 7.507635e-01 1.009041e+00 6.953301e-01 6.934718e-01 7.092496e-01 7.826169e-01 5.949314e-01 7.396721e-01 5.793697e-01 7.112944e-01 4.297816e-01
<GCONST> 7.571536e+01
<STATE> 4
<MEAN> 25
 2.420759e+00 -2.198750e+00 1.005849e+01 -7.055850e+00 -1.683118e+01 -5.319342e+00 -1.158046e+00 -3.906423e+00 -1.079468e+01 9.220421e-01 -6.742713e-01 -3.907228e+00 -9.220223e-02 1.292460e+00 -4.801250e-01 1.346793e+00 1.256600e+00 -3.243307e-02 4.996531e-01 -4.942162e-01 8.377500e-01 -7.305666e-01 -1.831892e-01 6.334416e-01 -1.467086e+00
<VARIANCE> 25
 1.224949e+01 3.165223e+01 3.256901e+01 3.583353e+01 3.795226e+01 4.479647e+01 5.587096e+01 4.354337e+01 2.424787e+01 4.398056e+01 2.017100e+01 1.925953e+01 1.597266e+00 1.621042e+00 2.024318e+00 2.513338e+00 3.162140e+00 2.451763e+00 2.745277e+00 2.947479e+00 2.166101e+00 3.118271e+00 1.620070e+00 1.327555e+00 1.729085e+00
<GCONST> 9.707976e+01
<TRANSP> 5
 0.000000e+00 1.000000e+00 0.000000e+00 0.000000e+00 0.000000e+00
 0.000000e+00 7.955111e-01 2.044889e-01 0.000000e+00 0.000000e+00
 0.000000e+00 0.000000e+00 8.832319e-01 1.167680e-01 0.000000e+00
 0.000000e+00 0.000000e+00 0.000000e+00 8.286068e-01 1.713932e-01
 0.000000e+00 0.000000e+00 0.000000e+00 0.000000e+00 0.000000e+00
<ENDHMM>
~h "\340\262\220"
<BEGINHMM>
<NUMSTATES> 5
<STATE> 2
<MEAN> 25
 3.238678e+00 -7.974270e+00 4.994779e+00 -6.696489e+00 -8.738791e+00 -4.250503e+00 -3.598248e+00 4.616630e-01 -7.532426e+00 -1.801009e+00 -4.373996e+00 -4.456619e+00 -4.672021e-02 2.530774e-01 5.635422e-01 3.171236e-01 -3.708478e-01 -8.604410e-02 -2.969220e-02 -2.788153e-01 -4.321447e-01 5.511628e-03 1.399151e-01 -1.730945e-01 -2.060450e-01
<VARIANCE> 25
 1.366891e+01 6.691933e+01 7.162194e+01 4.396727e+01 9.656367e+01 6.955312e+01 3.591552e+01 6.280927e+01 5.765023e+01 3.596816e+01 4.181227e+01 2.275418e+01 1.073672e+00 4.521660e+00 3.436785e+00 3.097409e+00 4.669094e+00 5.253206e+00 3.674683e+00 5.494799e+00 3.657176e+00 3.512944e+00 4.155090e+00 1.314023e+00 5.491947e+00
<GCONST> 1.079529e+02
<STATE> 3
<MEAN> 25
 -3.502938e+00 2.477467e-04 3.173694e+00 2.421809e+00 -8.744786e-01 4.822156e-01 3.121139e+00 2.462811e+00 1.552078e-01 2.650372e+00 1.187727e+00 1.568698e+00 -3.261679e-01 -5.340144e-02 -4.684465e-01 4.828577e-02 2.358710e-01 5.460564e-02 3.467456e-01 2.052826e-01 5.135612e-01 2.813010e-01 5.045899e-01 4.361318e-01 -7.554752e-01
<VARIANCE> 25
 3.306173e+01 3.138586e+01 4.502844e+01 3.363239e+01 8.799885e+01 5.425774e+01 2.783538e+01 3.112015e+01 4.937389e+01 1.869641e+01 2.530032e+01 2.795899e+01 2.228806e+00 2.686429e+00 3.013054e+00 1.631190e+00 2.536477e+00 2.708756e+00 1.431056e+00 2.365695e+00 1.779399e+00 2.448769e+00 3.117670e+00 2.148436e+00 2.065811e+00
<GCONST> 9.946690e+01
<STATE> 4
<MEAN> 25
 -2.671311e+00 6.991220e-02 2.632174e-01 3.879693e+00 1.669830e+00 2.099866e-01 2.759155e+00 3.372006e+00 1.035305e+00 9.131187e-01 1.681397e+00 3.133336e+00 3.463518e-02 1.315295e-01 -8.107081e-02 1.974095e-01 2.627591e-01 -3.595681e-02 3.548253e-01 -1.159306e-01 5.508080e-03 -3.810001e-01 -3.416516e-01 -4.028464e-01 -1.237390e-01
<VARIANCE> 25
 1.683828e+01 2.547465e+01 3.699774e+01 3.212060e+01 7.844330e+01 3.860059e+01 1.974382e+01 3.302528e+01 3.821572e+01 2.913111e+01 2.264286e+01 3.802211e+01 5.903284e-01 1.088891e+00 1.259089e+00 8.192640e-01 1.750853e+00 1.607438e+00 2.005187e+00 1.433447e+00 1.495266e+00 1.553845e+00 2.542902e+00 1.787563e+00 1.141531e+00
<GCONST> 9.152670e+01
<TRANSP> 5
 0.000000e+00 1.000000e+00 0.000000e+00 0.000000e+00 0.000000e+00
 0.000000e+00 9.076803e-01 9.231976e-02 0.000000e+00 0.000000e+00
 0.000000e+00 0.000000e+00 6.242609e-01 3.757390e-01 0.000000e+00
 0.000000e+00 0.000000e+00 0.000000e+00 5.736809e-01 4.263192e-01
 0.000000e+00 0.000000e+00 0.000000e+00 0.000000e+00 0.000000e+00
<ENDHMM>
~h "\340\262\222"
<BEGINHMM>
<NUMSTATES> 5
<STATE> 2
<MEAN> 25
 4.555664e+00 2.034881e+00 -2.611462e+00 -5.611042e+00 -1.257924e+00 2.103657e+00 5.218931e-01 -2.635058e+00 -3.315561e+00 -1.990490e+00 5.710311e-01 8.671303e-02 2.467396e+00 -5.838124e-01 -4.220672e-01 -2.822457e+00 -2.524728e+00 -1.955324e-02 -1.008762e+00 -1.034810e+00 -1.045794e+00 -6.517507e-01 -3.368526e-01 -5.185375e-01 2.749811e+00
<VARIANCE> 25
 6.442067e+01 3.320842e+01 4.296700e+01 8.639635e+01 6.928242e+01 4.052324e+01 4.891218e+01 4.315195e+01 5.196232e+01 4.063678e+01 3.144017e+01 2.423406e+01 3.803086e+00 4.338047e+00 4.491190e+00 6.411925e+00 5.525326e+00 3.904020e+00 3.494122e+00 4.677693e+00 3.995507e+00 3.972139e+00 3.701368e+00 2.156190e+00 4.565454e+00
<GCONST> 1.101092e+02
<STATE> 3
<MEAN> 25
 1.295238e+01 -4.516867e+00 -5.626790e+00 -1.918684e+01 -8.299409e+00 4.906844e+00 -4.181780e+00 -5.806294e+00 -7.438688e+00 -2.912806e+00 -1.094334e-01 -7.021948e-01 -1.171241e-01 -1.280104e+00 -4.009942e-01 -2.359260e-01 4.005180e-01 4.385841e-01 -6.831408e-01 -1.318715e-01 -4.058228e-02 7.717801e-01 3.275170e-01 -3.187785e-01 1.141985e+00
<VARIANCE> 25
 8.144576e+00 1.982197e+01 2.253160e+01 4.272338e+01 5.548122e+01 2.720494e+01 3.287757e+01 2.902456e+01 2.361622e+01 3.342977e+01 3.572366e+01 2.638681e+01 6.211541e-01 2.784842e+00 1.142328e+00 3.647287e+00 2.920795e+00 2.535787e+00 2.709562e+00 1.957707e+00 2.435633e+00 3.102835e+00 1.582988e+00 1.761489e+00 1.757458e+00
<GCONST> 9.485902e+01
<STATE> 4
<MEAN> 25
 1.055318e+01 -8.280263e+00 -6.637501e+00 -1.083075e+01 -2.781677e+00 1.721797e-01 -1.138888e+01 -4.376859e+00 -3.083560e+00 1.136223e+00 -5.687438e-01 -6.424148e+00 -4.303888e-01 2.984345e-01 5.881797e-01 2.979872e+00 1.196537e+00 -2.731414e+00 -1.246221e+00 1.001764e+00 9.092945e-01 -8.250479e-02 -1.136382e+00 -7.936164e-01 -5.226315e-01
<VARIANCE> 25
 1.216454e+01 3.248646e+01 2.269306e+01 6.008021e+01 4.319616e+01 5.741438e+01 6.231915e+01 3.879842e+01 3.785981e+01 5.642570e+01 3.902421e+01 2.745930e+01 5.609788e-01 2.942755e+00 2.403226e+00 2.360641e+00 2.874950e+00 5.336024e+00 4.927636e+00 4.393317e+00 3.185658e+00 4.037344e+00 3.490238e+00 3.917632e+00 2.266710e+00
<GCONST> 1.034249e+02
<TRANSP> 5
 0.000000e+00 1.000000e+00 0.000000e+00 0.000000e+00 0.000000e+00
 0.000000e+00 7.557821e-01 2.442179e-01 0.000000e+00 0.000000e+00
 0.000000e+00 0.000000e+00 7.702242e-01 2.297758e-01 0.000000e+00
 0.000000e+00 0.000000e+00 0.000000e+00 6.768435e-01 3.231565e-01
 0.000000e+00 0.000000e+00 0.000000e+00 0.000000e+00 0.000000e+00
<ENDHMM>
~h "\340\262\223"
<BEGINHMM>
<NUMSTATES> 5
<STATE> 2
<MEAN> 25
 5.642311e+00 -1.791824e+00 -3.599556e+00 -7.500152e+00 -3.079397e+00 1.068428e+00 -1.977352e+00 -3.266896e+00 -4.929340e+00 2.246671e+00 2.175774e+00 -1.885005e+00 1.750877e+00 -6.269541e-01 -3.755154e-01 -2.911545e+00 -1.354263e+00 6.500735e-01 -4.424038e-01 -9.657130e-01 -1.304541e+00 -2.260883e-01 -3.795065e-02 -5.450485e-01 1.806113e+00
<VARIANCE> 25
 5.453172e+01 4.039475e+01 5.211811e+01 1.009343e+02 6.540353e+01 3.315970e+01 5.269641e+01 4.092229e+01 4.659304e+01 4.634041e+01 3.643924e+01 3.338496e+01 3.530143e+00 4.289182e+00 5.681149e+00 6.301814e+00 7.036193e+00 3.629861e+00 2.708871e+00 3.386527e+00 3.710730e+00 4.351604e+00 3.311899e+00 2.640833e+00 5.360494e+00
<GCONST> 1.107332e+02
<STATE> 3
<MEAN> 25
 1.374693e+01 -4.667552e+00 -3.776670e+00 -2.361417e+01 -1.090901e+01 4.397350e+00 -5.307247e+00 -6.329622e+00 -1.053454e+01 -4.282607e-01 -8.395879e-02 -2.559592e+00 3.771014e-02 8.750165e-02 -2.054651e-01 -1.235042e-01 2.478599e-01 2.240117e-01 -2.066439e-01 -1.571597e-01 -1.766750e-01 -1.189059e-01 6.317219e-02 1.896285e-01 9.870236e-02
<VARIANCE> 25
 3.783639e+00 1.828602e+01 2.311602e+01 4.408209e+01 3.453664e+01 1.879903e+01 2.738099e+01 2.390215e+01 2.959630e+01 4.519228e+01 3.692423e+01 1.393027e+01 3.033044e-01 1.378235e+00 9.398561e-01 2.900683e+00 1.588695e+00 1.547378e+00 1.564012e+00 1.261779e+00 1.501759e+00 2.168548e+00 1.452384e+00 9.447914e-01 7.699078e-01
<GCONST> 8.645706e+01
<STATE> 4
<MEAN> 25
 1.104644e+01 -7.272778e+00 -7.725393e+00 -1.173770e+01 -3.534819e+00 -1.569286e+00 -1.199128e+01 -4.872995e+00 -5.499701e+00 4.463209e+00 -2.853282e-01 -5.794665e+00 -7.428275e-01 2.620468e-01 3.069976e-01 3.189872e+00 1.353683e+00 -2.373383e+00 -8.319550e-01 9.855641e-01 1.758375e+00 -9.458578e-02 -9.737455e-01 -7.156878e-01 -7.737941e-01
<VARIANCE> 25
 2.200315e+01 3.655060e+01 2.507848e+01 7.102558e+01 4.124108e+01 6.802995e+01 7.328387e+01 4.703493e+01 7.584988e+01 5.797078e+01 4.104557e+01 2.047270e+01 1.048059e+00 3.140918e+00 2.580807e+00 3.687113e+00 3.535068e+00 5.219612e+00 6.731061e+00 2.641069e+00 3.882070e+00 6.764699e+00 2.888021e+00 2.739458e+00 2.849036e+00
<GCONST> 1.069498e+02
<TRANSP> 5
 0.000000e+00 1.000000e+00 0.000000e+00 0.000000e+00 0.000000e+00
 0.000000e+00 8.230675e-01 1.769324e-01 0.000000e+00 0.000000e+00
 0.000000e+00 0.000000e+00 8.936875e-01 1.063125e-01 0.000000e+00
 0.000000e+00 0.000000e+00 0.000000e+00 7.594163e-01 2.405837e-01
 0.000000e+00 0.000000e+00 0.000000e+00 0.000000e+00 0.000000e+00
<ENDHMM>
~h "\340\262\224"
<BEGINHMM>
<NUMSTATES> 5
<STATE> 2
<MEAN> 25
 -6.775329e+00 2.835324e+00 1.735291e+00 1.125763e+00 4.563879e+00 4.655435e+00 4.718544e+00 4.506630e+00 5.040093e+00 2.127169e+00 3.630501e+00 3.885788e+00 -1.598028e-01 7.910459e-02 1.518296e-01 3.199958e-01 -8.361697e-02 1.616846e-01 1.305365e-01 2.525050e-01 1.815389e-01 2.003444e-01 2.319897e-01 2.040437e-01 -3.695753e-01
<VARIANCE> 25
 1.681273e+01 7.048809e+00 3.040010e+01 2.468930e+01 1.615090e+01 4.127914e+01 4.734042e+01 2.190571e+01 1.684449e+01 2.259824e+01 2.245549e+01 1.560180e+01 1.369138e+00 6.816946e-01 1.065606e+00 1.530244e+00 1.819991e+00 3.449147e+00 2.935197e+00 2.094008e+00 1.634818e+00 3.078610e+00 1.496076e+00 1.675983e+00 1.119752e+00
<GCONST> 8.931116e+01
<STATE> 3
<MEAN> 25
 -4.500378e+00 3.321545e+00 3.562502e-01 6.012696e+00 4.358414e+00 3.349792e+00 5.008022e+00 4.260748e+00 3.546953e+00 3.831493e+00 3.387317e+00 3.421256e+00 2.244747e-02 -3.773588e-02 -2.308592e-03 -8.833092e-04 -8.987260e-03 -3.534696e-02 -1.401681e-02 -1.158526e-02 -2.736825e-03 3.149353e-02 -6.950792e-02 -7.348473e-02 5.217876e-02
<VARIANCE> 25
 3.617253e+00 2.945600e+00 4.911991e+00 7.109570e+00 6.587429e+00 9.933129e+00 1.310282e+01 1.041346e+01 1.029016e+01 1.314506e+01 1.205959e+01 1.098055e+01 1.756410e-01 3.076637e-01 4.522682e-01 5.890748e-01 6.892496e-01 9.597203e-01 1.139759e+00 1.242385e+00 1.052545e+00 1.353752e+00 1.295998e+00 1.212662e+00 3.664980e-01
<GCONST> 6.625252e+01
<STATE> 4
<MEAN> 25
 7.927341e+00 -6.722411e+00 -2.862086e+00 -1.246614e+01 -3.800650e+00 1.516300e+00 -5.442066e+00 -5.784689e+00 -5.493428e+00 4.377841e+00 1.760548e+00 -5.266202e+00 7.839440e-01 -3.182825e-01 -1.293301e-01 -2.870336e-01 -4.372079e-01 -2.270341e-01 -9.873053e-01 -8.050776e-01 -3.347918e-01 -1.327769e-01 1.719569e-01 -3.585641e-01 1.020291e+00
<VARIANCE> 25
 4.128705e+01 4.664201e+01 2.571523e+01 1.220011e+02 3.642598e+01 3.987435e+01 5.455624e+01 5.879110e+01 5.365658e+01 3.831493e+01 4.339971e+01 3.884730e+01 2.516778e+00 4.829775e+00 2.191970e+00 1.140765e+01 2.230275e+00 3.791102e+00 3.439757e+00 2.240846e+00 4.321374e+00 3.061042e+00 3.875410e+00 4.524440e+00 8.797780e+00
<GCONST> 1.094887e+02
<TRANSP> 5
 0.000000e+00 1.000000e+00 0.000000e+00 0.000000e+00 0.000000e+00
 0.000000e+00 8.949452e-01 1.050548e-01 0.000000e+00 0.000000e+00
 0.000000e+00 0.000000e+00 9.648861e-01 3.511397e-02 0.000000e+00
 0.000000e+00 0.000000e+00 0.000000e+00 9.402990e-01 5.970090e-02
 0.000000e+00 0.000000e+00 0.000000e+00 0.000000e+00 0.000000e+00
<ENDHMM>
~h "\340\263\240"
<BEGINHMM>
<NUMSTATES> 5
<STATE> 2
<MEAN> 25
 4.925858e-08 -1.233895e-08 2.920008e-08 1.226765e-08 -5.222096e-08 1.835772e-08 3.730370e-08 -3.084009e-08 5.284326e-08 -7.177465e-09 3.337222e-08 1.065681e-08 -5.941017e-04 -3.072851e-04 5.426822e-05 -6.761555e-04 -2.272289e-05 -6.928663e-06 -4.446488e-04 -1.001891e-03 -5.636913e-04 -2.278803e-04 9.030614e-05 -4.183001e-04 3.126871e-03
<VARIANCE> 25
 6.337364e+01 4.811290e+01 5.212138e+01 6.297672e+01 6.965734e+01 5.789758e+01 6.618909e+01 5.280534e+01 5.847340e+01 4.740644e+01 4.464558e+01 3.826577e+01 2.126088e+00 2.240220e+00 2.076481e+00 2.780402e+00 2.979447e+00 3.084975e+00 3.029560e+00 2.887547e+00 2.790046e+00 2.530517e+00 2.348650e+00 2.055844e+00 2.977529e+00
<GCONST> 1.062192e+02
<STATE> 3
<MEAN> 25
 4.925858e-08 -1.233895e-08 2.920008e-08 1.226765e-08 -5.222096e-08 1.835772e-08 3.730370e-08 -3.084009e-08 5.284326e-08 -7.177465e-09 3.337222e-08 1.065681e-08 -5.941017e-04 -3.072851e-04 5.426822e-05 -6.761555e-04 -2.272289e-05 -6.928663e-06 -4.446488e-04 -1.001891e-03 -5.636913e-04 -2.278803e-04 9.030614e-05 -4.183001e-04 3.126871e-03
<VARIANCE> 25
 6.337364e+01 4.811290e+01 5.212138e+01 6.297672e+01 6.965734e+01 5.789758e+01 6.618909e+01 5.280534e+01 5.847340e+01 4.740644e+01 4.464558e+01 3.826577e+01 2.126088e+00 2.240220e+00 2.076481e+00 2.780402e+00 2.979447e+00 3.084975e+00 3.029560e+00 2.887547e+00 2.790046e+00 2.530517e+00 2.348650e+00 2.055844e+00 2.977529e+00
<GCONST> 1.062192e+02
<STATE> 4
<MEAN> 25
 4.925858e-08 -1.233895e-08 2.920008e-08 1.226765e-08 -5.222096e-08 1.835772e-08 3.730370e-08 -3.084009e-08 5.284326e-08 -7.177465e-09 3.337222e-08 1.065681e-08 -5.941017e-04 -3.072851e-04 5.426822e-05 -6.761555e-04 -2.272289e-05 -6.928663e-06 -4.446488e-04 -1.001891e-03 -5.636913e-04 -2.278803e-04 9.030614e-05 -4.183001e-04 3.126871e-03
<VARIANCE> 25
 6.337364e+01 4.811290e+01 5.212138e+01 6.297672e+01 6.965734e+01 5.789758e+01 6.618909e+01 5.280534e+01 5.847340e+01 4.740644e+01 4.464558e+01 3.826577e+01 2.126088e+00 2.240220e+00 2.076481e+00 2.780402e+00 2.979447e+00 3.084975e+00 3.029560e+00 2.887547e+00 2.790046e+00 2.530517e+00 2.348650e+00 2.055844e+00 2.977529e+00
<GCONST> 1.062192e+02
<TRANSP> 5
 0.000000e+00 1.000000e+00 0.000000e+00 0.000000e+00 0.000000e+00
 0.000000e+00 6.000000e-01 4.000000e-01 0.000000e+00 0.000000e+00
 0.000000e+00 0.000000e+00 6.000000e-01 4.000000e-01 0.000000e+00
 0.000000e+00 0.000000e+00 0.000000e+00 7.000000e-01 3.000000e-01
 0.000000e+00 0.000000e+00 0.000000e+00 0.000000e+00 0.000000e+00
<ENDHMM>
~h "\340\262\240\340\263\215"
<BEGINHMM>
<NUMSTATES> 5
<STATE> 2
<MEAN> 25
 -4.726673e+00 -1.027996e+00 2.102143e-01 5.503405e-01 1.998475e+00 4.242555e+00 4.753235e+00 3.645588e+00 4.890646e+00 4.291023e+00 5.777740e+00 3.579608e+00 -7.562678e-01 2.148550e-01 8.697093e-01 -4.845206e-01 3.640535e-01 -2.810065e-01 9.547508e-02 5.310082e-01 4.441871e-01 -1.151065e-01 -4.953898e-01 3.454821e-01 -4.721288e-03
<VARIANCE> 25
 2.105557e+01 3.954599e+00 3.998069e+01 4.552169e+01 3.503040e+01 2.939118e+01 1.022596e+01 1.556543e+01 8.130891e+00 1.861139e+01 1.203922e+01 1.231849e+01 2.332435e+00 7.454467e-01 3.503100e+00 6.813897e+00 4.470680e+00 1.865476e+00 2.821783e+00 8.623812e-01 1.491974e+00 2.409007e+00 1.319736e+00 6.566905e-01 2.216232e+00
<GCONST> 8.856931e+01
<STATE> 3
<MEAN> 25
 -6.289474e+00 2.492106e+00 8.271639e-01 3.983824e+00 5.147000e+00 8.357738e-01 6.205227e+00 4.868488e+00 6.167475e+00 1.428690e+00 2.338232e+00 3.793104e+00 7.513446e-01 8.832392e-02 -4.797596e-01 7.514980e-01 1.051594e-01 4.955834e-01 -6.810532e-02 -7.182856e-01 3.510614e-01 3.397335e-01 1.783720e-01 -5.100522e-01 -9.357530e-01
<VARIANCE> 25
 5.415198e+00 8.918752e+00 2.734288e+00 2.253922e+01 8.399726e+00 1.107902e+01 9.394611e+00 7.144842e+00 7.239726e+00 5.053159e+00 1.023662e+01 3.219993e+01 1.175670e+00 4.855177e-01 1.008449e+00 1.612777e+00 2.291747e+00 1.023441e+00 2.728865e+00 1.066774e+00 4.920075e-01 1.927064e+00 1.141943e+00 1.385345e+00 3.658184e-01
<GCONST> 7.332920e+01
<STATE> 4
<MEAN> 25
 -3.933766e+00 2.115949e+00 -3.497863e-01 8.699409e+00 1.781419e+00 2.941863e+00 5.532530e+00 4.022244e+00 4.959384e+00 4.784251e+00 5.199995e+00 3.608558e+00 1.469932e-02 -1.158770e-02 -7.641418e-03 -1.040914e-02 -7.005265e-02 1.241024e-02 -3.767316e-02 2.529440e-02 1.765625e-02 3.388858e-02 4.770619e-02 1.267456e-02 1.001838e-02
<VARIANCE> 25
 1.767470e+00 2.474553e+00 3.700511e+00 5.523305e+00 6.330492e+00 7.686150e+00 9.076524e+00 1.158353e+01 1.034619e+01 8.739217e+00 9.267647e+00 9.300090e+00 2.302116e-01 2.899499e-01 4.382788e-01 5.334780e-01 6.499536e-01 9.789481e-01 1.002087e+00 1.328368e+00 1.316998e+00 8.609770e-01 8.301262e-01 1.034989e+00 3.633576e-01
<GCONST> 6.257644e+01
<TRANSP> 5
 0.000000e+00 1.000000e+00 0.000000e+00 0.000000e+00 0.000000e+00
 0.000000e+00 7.873682e-01 2.126318e-01 0.000000e+00 0.000000e+00
 0.000000e+00 0.000000e+00 5.489229e-01 4.510771e-01 0.000000e+00
 0.000000e+00 0.000000e+00 0.000000e+00 9.754588e-01 2.454117e-02
 0.000000e+00 0.000000e+00 0.000000e+00 0.000000e+00 0.000000e+00
<ENDHMM>
~h "\340\262\230\340\263\215"
<BEGINHMM>
<NUMSTATES> 5
<STATE> 2
<MEAN> 25
 -4.311871e+00 3.939051e+00 -1.585725e-01 3.648066e+00 4.470621e+00 2.048547e+00 3.361292e+00 1.325541e+00 4.572578e+00 2.371895e+00 3.187351e+00 2.469428e+00 -1.284407e-01 -1.879464e-02 7.473648e-02 2.168092e-02 -2.663810e-03 1.763414e-01 -1.125906e-01 6.722958e-02 3.686290e-01 5.077219e-02 1.774634e-01 7.767272e-02 -6.094950e-02
<VARIANCE> 25
 1.640850e+01 6.617909e+00 7.189546e+00 6.470835e+00 1.234377e+01 2.650821e+01 2.773287e+01 1.426096e+01 1.639203e+01 1.544403e+01 1.960197e+01 1.164028e+01 2.221806e+00 1.151641e+00 3.937812e-01 7.591811e-01 1.359038e+00 2.940918e+00 3.939416e+00 1.517239e+00 1.822822e+00 2.138360e+00 2.111587e+00 1.470816e+00 9.972908e-01
<GCONST> 8.260573e+01
<STATE> 3
<MEAN> 25
 -3.310422e+00 3.305831e+00 -4.481314e-01 4.270363e+00 4.273921e+00 2.717253e+00 2.304508e+00 3.722152e+00 4.234372e+00 4.509974e+00 3.381956e+00 3.574262e+00 8.103694e-04 1.612733e-02 5.238612e-03 2.173004e-02 1.036613e-02 -1.752885e-02 -2.207987e-03 1.810145e-02 -7.186042e-03 -4.822388e-06 -7.802472e-03 7.335803e-03 -7.514741e-03
<VARIANCE> 25
 9.187608e-01 2.119663e+00 3.291769e+00 4.915009e+00 6.197842e+00 7.847228e+00 9.302518e+00 9.112018e+00 1.024138e+01 1.014364e+01 1.015583e+01 1.039643e+01 8.230262e-02 1.862605e-01 3.336762e-01 4.457349e-01 6.354550e-01 7.630762e-01 1.035488e+00 9.613898e-01 1.189823e+00 1.114975e+00 1.131544e+00 1.260335e+00 1.264838e-01
<GCONST> 5.878227e+01
<STATE> 4
<MEAN> 25
 -2.808083e+00 2.806512e+00 1.704341e+00 3.726577e+00 2.551233e+00 1.958336e+00 2.013912e+00 2.015822e+00 1.583001e+00 2.426317e+00 1.960815e+00 2.144061e+00 9.567338e-01 4.741330e-01 5.837198e-01 1.323188e-01 -1.004464e+00 -5.818992e-01 -3.559579e-01 -1.169742e+00 -1.616122e+00 -9.824736e-01 -6.667663e-01 -9.851247e-01 5.799503e-01
<VARIANCE> 25
 8.850937e+00 1.538467e+01 2.628756e+01 9.762362e+00 1.550002e+01 1.526460e+01 2.048296e+01 1.880824e+01 2.310272e+01 1.337737e+01 1.733274e+01 1.999765e+01 2.760810e+00 2.948932e+00 3.313957e+00 1.622388e+00 3.798321e+00 3.667581e+00 2.188381e+00 3.727340e+00 7.013468e+00 3.443916e+00 1.939666e+00 2.856612e+00 1.418100e+00
<GCONST> 9.316833e+01
<TRANSP> 5
 0.000000e+00 1.000000e+00 0.000000e+00 0.000000e+00 0.000000e+00
 0.000000e+00 8.792337e-01 1.207663e-01 0.000000e+00 0.000000e+00
 0.000000e+00 0.000000e+00 9.822688e-01 1.773129e-02 0.000000e+00
 0.000000e+00 0.000000e+00 0.000000e+00 8.051717e-01 1.948283e-01
 0.000000e+00 0.000000e+00 0.000000e+00 0.000000e+00 0.000000e+00
<ENDHMM>
~h "\340\262\241\340\263\215"
<BEGINHMM>
<NUMSTATES> 5
<STATE> 2
<MEAN> 25
 8.696466e+00 -7.565809e+00 -8.370862e-01 5.007493e+00 -7.589832e+00 -9.638724e+00 -7.682463e+00 1.158453e+00 -3.081605e+00 -3.455473e+00 -2.962887e+00 -2.851563e+00 -1.643339e-01 3.944973e-01 6.329973e-01 4.472701e-02 3.867893e-01 -4.672934e-01 -2.482423e-01 8.696829e-02 -1.938020e-01 1.381479e-01 -1.202181e-02 3.558362e-02 -2.760985e-01
<VARIANCE> 25
 3.053497e+01 6.841454e+01 5.946066e+01 7.079337e+01 8.673168e+01 6.092058e+01 7.789583e+01 6.068516e+01 4.585588e+01 3.207928e+01 4.201910e+01 3.444920e+01 2.071608e+00 1.024431e+01 4.606276e+00 1.301610e+01 1.076817e+01 6.015666e+00 8.326000e+00 5.637052e+00 4.742246e+00 6.585842e+00 6.254813e+00 5.743466e+00 1.132863e+01
<GCONST> 1.181598e+02
<STATE> 3
<MEAN> 25
 7.812876e+00 -6.080368e+00 2.483352e-01 -2.358899e+00 -5.716572e+00 -5.879384e+00 -7.680675e+00 -1.106513e+00 -6.369911e+00 8.458567e-01 -2.306069e+00 -4.911835e+00 -1.738712e-01 9.645735e-01 3.243712e-01 -8.954448e-02 1.978679e-01 4.572636e-01 3.815328e-01 -5.798860e-01 -2.256230e-01 -3.623552e-02 3.511137e-01 -2.085114e-01 -6.413198e-01
<VARIANCE> 25
 2.478561e+01 5.236650e+01 7.602089e+01 1.320699e+02 1.124479e+02 7.738091e+01 8.190130e+01 7.042563e+01 5.326853e+01 6.245160e+01 7.888655e+01 3.357444e+01 1.719170e+00 5.127964e+00 3.185902e+00 7.416412e+00 6.473554e+00 4.949247e+00 3.932785e+00 4.755058e+00 5.001320e+00 4.206067e+00 2.827145e+00 2.174558e+00 4.861026e+00
<GCONST> 1.142307e+02
<STATE> 4
<MEAN> 25
 8.833503e+00 9.598007e-01 -6.516898e-02 -1.831020e+00 -4.409727e+00 -2.248805e+00 -4.810678e+00 -5.364827e+00 -6.650217e+00 -3.191571e+00 -6.575962e-01 -5.545768e+00 -6.196488e-01 7.301485e-01 2.752685e-01 -2.249430e-01 1.986186e-01 4.345400e-01 5.582874e-01 -1.861222e-01 3.425528e-01 -4.004360e-01 -3.004650e-01 8.205144e-02 -4.261263e-01
<VARIANCE> 25
 3.408068e+01 4.506098e+01 8.877090e+01 1.985501e+02 5.573644e+01 5.493026e+01 5.989886e+01 5.482343e+01 4.010419e+01 5.047151e+01 4.696440e+01 2.681694e+01 8.109084e-01 2.028268e+00 2.585312e+00 2.442472e+00 3.017082e+00 2.513764e+00 2.876410e+00 3.228494e+00 1.811248e+00 4.533317e+00 2.406408e+00 2.471576e+00 1.339963e+00
<GCONST> 1.047117e+02
<TRANSP> 5
 0.000000e+00 1.000000e+00 0.000000e+00 0.000000e+00 0.000000e+00
 0.000000e+00 6.343625e-01 3.656374e-01 0.000000e+00 0.000000e+00
 0.000000e+00 0.000000e+00 6.108205e-01 3.891795e-01 0.000000e+00
 0.000000e+00 0.000000e+00 0.000000e+00 6.351647e-01 3.648353e-01
 0.000000e+00 0.000000e+00 0.000000e+00 0.000000e+00 0.000000e+00
<ENDHMM>
~h "\340\262\262\340\263\215"
<BEGINHMM>
<NUMSTATES> 5
<STATE> 2
<MEAN> 25
 5.449656e+00 -3.629798e+00 2.763588e+00 -1.131543e+00 -8.256049e+00 -1.053352e+01 -9.459663e+00 -9.693450e-01 6.879554e-01 -6.187701e+00 -5.770700e+00 -1.011698e+00 1.937656e-01 1.735847e+00 1.596615e+00 1.384262e+00 8.216469e-01 -5.144214e-01 -1.302894e+00 -1.581416e+00 -8.553569e-01 -9.651029e-01 3.564309e-01 3.382310e-01 -1.534298e+00
<VARIANCE> 25
 9.525387e+00 3.982814e+01 5.010364e+01 3.726208e+01 3.667127e+01 3.772309e+01 4.263466e+01 4.845251e+01 4.668134e+01 4.298729e+01 3.241195e+01 2.250425e+01 6.072806e-01 2.277969e+00 1.778052e+00 2.879759e+00 3.835527e+00 3.216040e+00 3.380247e+00 4.317585e+00 2.815332e+00 3.036066e+00 2.629934e+00 1.847834e+00 1.669950e+00
<GCONST> 9.986980e+01
<STATE> 3
<MEAN> 25
 4.019712e+00 2.644412e+00 1.065350e+01 -3.061212e-01 -3.418493e+00 -1.113013e+01 -1.208527e+01 -3.032260e+00 -3.622192e+00 -1.239456e+01 -3.914626e+00 1.356954e+00 -1.758657e-01 2.498030e-01 5.025497e-01 -3.246284e-01 2.404338e-01 3.861344e-01 5.666612e-02 -2.708322e-01 -1.524849e-01 2.832268e-01 -3.172407e-01 6.952006e-02 -2.699668e-01
<VARIANCE> 25
 6.745924e+00 1.869375e+01 3.933050e+01 3.742502e+01 2.086324e+01 3.795061e+01 3.680464e+01 3.175137e+01 3.085294e+01 4.330804e+01 3.707199e+01 2.347864e+01 2.894357e-01 5.759264e-01 1.135122e+00 1.192001e+00 1.404459e+00 1.605400e+00 2.147981e+00 1.876801e+00 1.745061e+00 1.921775e+00 1.638044e+00 1.472185e+00 4.466059e-01
<GCONST> 8.778487e+01
<STATE> 4
<MEAN> 25
 3.911862e+00 1.717189e-01 7.717599e+00 -9.160662e-01 -5.778107e+00 -9.472120e+00 -9.641314e+00 -3.516642e+00 -3.183076e+00 -5.535580e+00 -4.880980e+00 -1.022526e+00 -1.337365e-01 -1.084334e+00 -1.093942e+00 -9.654956e-01 -1.430194e+00 -1.972662e-01 1.477303e+00 6.948569e-01 -2.455482e-01 1.750524e+00 1.083552e+00 -7.665049e-01 1.069863e+00
<VARIANCE> 25
 1.357717e+01 3.387497e+01 5.627745e+01 4.031989e+01 5.235493e+01 3.830702e+01 5.969637e+01 5.057998e+01 3.540361e+01 5.108566e+01 4.271960e+01 2.409950e+01 9.312317e-01 2.387904e+00 2.769140e+00 2.770926e+00 5.590998e+00 3.656658e+00 6.231659e+00 4.562395e+00 3.877220e+00 4.995582e+00 3.288220e+00 2.199088e+00 2.831655e+00
<GCONST> 1.050438e+02
<TRANSP> 5
 0.000000e+00 1.000000e+00 0.000000e+00 0.000000e+00 0.000000e+00
 0.000000e+00 6.198368e-01 3.801631e-01 0.000000e+00 0.000000e+00
 0.000000e+00 0.000000e+00 6.967687e-01 3.032314e-01 0.000000e+00
 0.000000e+00 0.000000e+00 0.000000e+00 4.601916e-01 5.398084e-01
 0.000000e+00 0.000000e+00 0.000000e+00 0.000000e+00 0.000000e+00
<ENDHMM>
~h "\340\262\252\340\263\215"
<BEGINHMM>
<NUMSTATES> 5
<STATE> 2
<MEAN> 25
 -4.244444e+00 1.194913e+00 -2.371542e+00 2.308833e+00 3.241035e+00 1.505595e+00 4.930647e+00 3.538632e+00 6.002449e+00 5.475916e+00 4.149879e+00 3.491691e+00 -3.019629e-01 -3.659195e-01 4.900487e-02 -2.137232e-01 -1.419183e-02 -6.641679e-01 9.448126e-03 -1.911739e-01 -1.690132e-01 -1.898008e-01 -1.198769e-01 -1.034099e-02 9.110546e-01
<VARIANCE> 25
 1.381773e+01 2.184951e+01 3.120830e+01 2.814369e+01 2.278511e+01 2.943044e+01 2.057581e+01 2.427687e+01 3.306419e+01 2.918981e+01 2.481118e+01 2.317226e+01 1.794323e+00 1.974244e+00 2.231892e+00 2.239522e+00 1.887187e+00 3.184868e+00 2.780187e+00 3.383658e+00 3.804648e+00 3.751010e+00 2.847234e+00 2.518300e+00 6.472692e+00
<GCONST> 9.778802e+01
<STATE> 3
<MEAN> 25
 -1.344819e+00 1.879458e-01 -4.716543e-01 3.870440e-02 2.142635e+00 -2.886722e+00 1.523232e+00 -2.470544e+00 -9.435356e-01 -1.991522e-02 5.129345e-01 -6.366503e-02 3.016816e+00 -1.461586e+00 -5.535584e-01 -2.671616e+00 -1.809262e+00 -9.522364e-01 -2.109318e+00 -2.174996e+00 -2.529512e+00 -1.492608e+00 -9.497337e-01 -1.934739e+00 5.474646e+00
<VARIANCE> 25
 3.437288e+01 2.800108e+01 3.539678e+01 3.752451e+01 3.406033e+01 3.387842e+01 3.104601e+01 3.143905e+01 4.201276e+01 2.631748e+01 2.373399e+01 1.753412e+01 4.268589e+00 3.990194e+00 4.701179e+00 5.627367e+00 3.875667e+00 6.588963e+00 3.954675e+00 4.036579e+00 5.202078e+00 4.150560e+00 4.049713e+00 3.143216e+00 5.328686e+00
<GCONST> 1.063921e+02
<STATE> 4
<MEAN> 25
 7.324311e+00 -1.380347e+00 -2.359802e+00 -6.622501e+00 -3.878428e+00 1.034580e+00 -4.245233e+00 -5.003362e+00 -6.927395e+00 -8.537678e-01 2.903159e+00 -3.886728e+00 2.192823e-01 -7.375290e-01 -3.870089e-01 -2.443987e-01 -2.729404e-01 -1.467234e-01 -2.023150e-01 1.416437e-01 4.680821e-01 2.465404e-01 -3.190109e-01 -3.482553e-01 9.457800e-01
<VARIANCE> 25
 5.149289e+01 5.258832e+01 3.838806e+01 7.731690e+01 6.196558e+01 4.490810e+01 7.369054e+01 4.094504e+01 8.412827e+01 5.114609e+01 4.451780e+01 3.749031e+01 5.489206e+00 5.606632e+00 3.354566e+00 7.820621e+00 6.683913e+00 4.837796e+00 7.223272e+00 3.841001e+00 6.080364e+00 4.378274e+00 4.924398e+00 4.689787e+00 1.163844e+01
<GCONST> 1.159455e+02
<TRANSP> 5
 0.000000e+00 1.000000e+00 0.000000e+00 0.000000e+00 0.000000e+00
 0.000000e+00 7.623478e-01 2.376523e-01 0.000000e+00 0.000000e+00
 0.000000e+00 0.000000e+00 5.007944e-01 4.992056e-01 0.000000e+00
 0.000000e+00 0.000000e+00 0.000000e+00 7.137389e-01 2.862611e-01
 0.000000e+00 0.000000e+00 0.000000e+00 0.000000e+00 0.000000e+00
<ENDHMM>
~h "sil"
<BEGINHMM>
<NUMSTATES> 5
<STATE> 2
<MEAN> 25
 -2.796112e+00 2.975598e+00 -7.989052e-01 4.007844e+00 3.297976e+00 1.228196e+00 3.951635e+00 2.675918e+00 2.899863e+00 2.513271e+00 2.570542e+00 3.172059e+00 2.789377e-03 -3.486952e-03 -3.826160e-02 9.778518e-03 -1.663516e-02 2.733217e-02 -2.210034e-02 1.294760e-02 4.379253e-02 3.945164e-02 1.510136e-02 -2.242084e-03 -2.174532e-02
<VARIANCE> 25
 2.809918e+01 5.057462e+00 7.748852e+00 8.328899e+00 1.283533e+01 1.445056e+01 1.594083e+01 1.459004e+01 1.626203e+01 1.538841e+01 1.605112e+01 1.550772e+01 1.713104e-01 2.593132e-01 3.526659e-01 5.054474e-01 6.918962e-01 7.638801e-01 9.397992e-01 8.910280e-01 1.038283e+00 9.673855e-01 8.743464e-01 8.722694e-01 1.212721e-01
<GCONST> 6.875262e+01
<STATE> 3
~s "silst"
<STATE> 4
<MEAN> 25
 -5.793166e+00 2.275929e+00 9.296129e-01 3.876303e+00 3.967312e+00 7.887849e-01 5.573298e+00 3.133281e+00 3.030822e+00 2.809297e+00 4.161106e+00 2.934707e+00 -3.201700e-02 -7.188989e-02 1.956989e-01 -1.593629e-01 -1.017999e-01 -1.725401e-01 -1.086562e-01 -1.757240e-01 -2.031304e-01 -1.931744e-01 -8.332825e-02 -1.253191e-01 5.139677e-01
<VARIANCE> 25
 3.246753e+01 2.238968e+01 1.786442e+01 3.507827e+01 4.179439e+01 3.347425e+01 3.386160e+01 2.972230e+01 3.323923e+01 2.317264e+01 2.001847e+01 2.078106e+01 2.911555e+00 2.072864e+00 2.182518e+00 2.476888e+00 2.546522e+00 3.950470e+00 3.080351e+00 2.557516e+00 2.678448e+00 2.462957e+00 2.060686e+00 2.064185e+00 5.574943e+00
<GCONST> 9.872168e+01
<TRANSP> 5
 0.000000e+00 1.000000e+00 0.000000e+00 0.000000e+00 0.000000e+00
 0.000000e+00 8.449352e-01 1.110268e-01 4.403790e-02 0.000000e+00
 0.000000e+00 0.000000e+00 9.795414e-01 2.045864e-02 0.000000e+00
 0.000000e+00 1.645743e-01 0.000000e+00 6.973380e-01 1.380877e-01
 0.000000e+00 0.000000e+00 0.000000e+00 0.000000e+00 0.000000e+00
<ENDHMM>
~h "\340\262\242\340\263\215"
<BEGINHMM>
<NUMSTATES> 5
<STATE> 2
<MEAN> 25
 5.630504e+00 5.355969e+00 6.605466e+00 2.467548e+00 -2.847102e+00 -2.885302e+00 -1.663281e+00 -6.068338e+00 -6.193292e+00 -6.227524e+00 -4.036016e+00 -4.985731e-01 1.158909e+00 -5.770304e-01 -1.697584e-01 -8.406268e-01 -1.624504e+00 -9.495555e-01 -2.322420e-01 2.273475e-01 -4.479462e-01 -5.838134e-01 -6.731680e-01 2.300873e-01 2.162951e+00
<VARIANCE> 25
 3.809017e+01 4.863260e+01 3.061358e+01 3.700920e+01 5.664837e+01 2.708101e+01 2.035049e+01 7.207240e+01 6.034969e+01 3.442418e+01 2.326761e+01 2.303644e+01 5.997911e+00 6.203263e+00 6.756752e+00 2.813060e+00 2.507982e+00 3.359680e+00 2.326089e+00 1.344578e+01 9.552058e+00 6.477887e+00 4.254895e+00 2.238400e+00 2.953782e+00
<GCONST> 1.086509e+02
<STATE> 3
<MEAN> 25
 8.269024e+00 -5.998854e+00 -5.700197e+00 -2.449455e+00 -7.829427e+00 -6.889213e+00 3.757913e-01 5.958320e+00 -3.344495e+00 -4.153907e+00 -6.042678e+00 -7.008176e-01 7.695094e-01 -6.319290e-01 -2.047442e+00 -4.962974e-01 1.032333e+00 1.110085e+00 3.676398e-01 -1.228707e+00 -9.873539e-02 -1.892138e-01 -6.347174e-01 -2.138105e+00 7.686849e-01
<VARIANCE> 25
 9.485386e+00 5.123738e+01 1.161195e+01 9.897758e+00 2.207608e+01 4.582698e+01 1.039486e+01 4.811736e+01 3.014834e+00 5.701109e+00 2.513897e+01 1.860349e+01 1.123784e+00 1.046796e+00 2.456539e+00 1.603744e+00 8.076839e+00 3.494423e+00 7.668967e-01 2.632559e+00 2.453552e+00 8.814663e-01 6.848813e-01 1.894512e+00 1.323464e+00
<GCONST> 8.589211e+01
<STATE> 4
<MEAN> 25
 7.999911e+00 -6.019946e+00 -5.609606e+00 -3.572644e+00 -4.056213e+00 9.859885e-01 -8.452767e-01 -1.115672e+00 -4.991285e+00 -3.432811e+00 -6.000577e+00 -5.678024e+00 3.316661e-01 8.998724e-01 1.823507e-01 -4.346095e-02 1.132059e+00 1.679305e+00 -7.136940e-01 -1.921924e+00 -4.296024e-01 8.995928e-01 -3.552981e-01 -1.586028e+00 -4.429914e-01
<VARIANCE> 25
 7.496456e+00 4.877687e+01 1.184394e+01 1.879873e+01 2.244223e+01 9.239013e+01 1.830592e+01 3.579189e+01 8.143594e+00 1.132981e+01 2.895946e+01 1.158134e+01 7.903922e-01 4.807172e-01 1.897895e+00 7.325940e-01 5.051543e-01 7.560171e-01 4.128207e+00 1.105619e+00 1.067902e+00 1.480559e+00 1.612674e+00 1.176361e+00 8.812992e-01
<GCONST> 8.260571e+01
<TRANSP> 5
 0.000000e+00 1.000000e+00 0.000000e+00 0.000000e+00 0.000000e+00
 0.000000e+00 8.806348e-01 1.193653e-01 0.000000e+00 0.000000e+00
 0.000000e+00 0.000000e+00 4.266647e-01 5.733353e-01 0.000000e+00
 0.000000e+00 0.000000e+00 0.000000e+00 4.311878e-01 5.688121e-01
 0.000000e+00 0.000000e+00 0.000000e+00 0.000000e+00 0.000000e+00
<ENDHMM>
~h "\340\262\263\340\263\215"
<BEGINHMM>
<NUMSTATES> 5
<STATE> 2
<MEAN> 25
 9.385896e+00 -9.569011e+00 -3.717772e+00 3.292928e+00 -7.728845e+00 -1.537638e+01 -9.488248e+00 4.570384e+00 -3.116240e+00 -3.682682e+00 -1.816224e+00 -5.346440e+00 -2.507284e-01 1.631013e+00 1.693554e+00 1.137289e+00 1.771915e+00 -2.732226e+00 -1.903957e+00 9.564782e-02 -8.311974e-01 -1.928967e+00 6.788489e-01 9.785550e-01 -1.000114e+00
<VARIANCE> 25
 1.338288e+01 3.635915e+01 4.442342e+01 2.852293e+01 6.228964e+01 5.776214e+01 6.880836e+01 6.144756e+01 4.506874e+01 5.088208e+01 4.383960e+01 2.950232e+01 6.247652e-01 2.036243e+00 2.422736e+00 1.987579e+00 3.925188e+00 5.101865e+00 3.854677e+00 6.701407e+00 4.117366e+00 6.029999e+00 3.991344e+00 2.913696e+00 6.134176e-01
<GCONST> 1.039571e+02
<STATE> 3
<MEAN> 25
 8.644150e+00 -4.284108e+00 2.942387e-01 2.220677e+00 -2.620822e+00 -1.628851e+01 -1.582137e+01 -5.196602e-01 -2.160445e+00 -6.692953e+00 -1.572346e+00 -3.958333e+00 -2.432307e-01 5.303515e-01 4.132438e-01 -1.106444e+00 -6.943544e-01 1.729778e+00 3.036114e-01 -2.021159e+00 1.884060e-01 1.284403e+00 -2.474654e-02 -3.746826e-01 3.062651e-02
<VARIANCE> 25
 1.070557e+01 2.207738e+01 5.353286e+01 4.080077e+01 5.481646e+01 5.751270e+01 6.237095e+01 5.018826e+01 5.320832e+01 9.953031e+01 3.313925e+01 2.352054e+01 7.575093e-01 1.123210e+00 3.216719e+00 2.941365e+00 3.625792e+00 3.031601e+00 5.221119e+00 3.364222e+00 4.582834e+00 8.681518e+00 3.994036e+00 1.918669e+00 9.361342e-01
<GCONST> 1.034421e+02
<STATE> 4
<MEAN> 25
 1.059467e+01 -6.998950e-02 -1.874032e+00 -5.742321e+00 -6.013880e+00 -4.473272e+00 -1.008658e+01 -1.041613e+01 -6.006651e+00 -2.642804e+00 2.395838e+00 -3.654472e+00 -1.324955e-01 7.142723e-01 9.353854e-03 -5.894329e-01 -4.091713e-01 9.943109e-01 1.799226e+00 -4.180865e-01 -1.276859e-01 -1.004550e+00 -3.794291e-01 5.060068e-01 -2.301161e-01
<VARIANCE> 25
 1.965079e+01 3.043119e+01 5.706599e+01 7.417435e+01 2.918967e+01 8.091563e+01 5.188292e+01 4.066808e+01 3.983852e+01 5.958685e+01 5.154607e+01 2.766658e+01 6.717510e-01 1.742824e+00 1.739103e+00 2.836917e+00 2.928427e+00 4.866378e+00 4.118942e+00 2.917548e+00 4.406882e+00 4.810337e+00 4.191231e+00 1.723435e+00 1.235026e+00
<GCONST> 1.032870e+02
<TRANSP> 5
 0.000000e+00 1.000000e+00 0.000000e+00 0.000000e+00 0.000000e+00
 0.000000e+00 6.825024e-01 3.174976e-01 0.000000e+00 0.000000e+00
 0.000000e+00 0.000000e+00 7.064452e-01 2.935548e-01 0.000000e+00
 0.000000e+00 0.000000e+00 0.000000e+00 5.950636e-01 4.049364e-01
 0.000000e+00 0.000000e+00 0.000000e+00 0.000000e+00 0.000000e+00
<ENDHMM>
~h "\340\262\232\340\263\215"
<BEGINHMM>
<NUMSTATES> 5
<STATE> 2
<MEAN> 25
 -6.750325e+00 8.082112e-01 3.702667e+00 1.488432e+00 1.635785e+00 1.592009e+00 3.327979e+00 2.375060e+00 2.880713e+00 1.691304e+00 1.759130e+00 2.959041e+00 -8.634399e-01 -2.507158e-01 -1.085691e-01 -3.185554e-01 4.910789e-01 3.768336e-01 4.764447e-02 2.462092e-01 4.527384e-01 3.545097e-01 4.420247e-01 1.625652e-01 -2.124332e-01
<VARIANCE> 25
 6.768845e+01 1.762348e+01 4.320547e+01 3.180074e+01 3.227129e+01 2.846698e+01 2.749616e+01 3.225102e+01 2.206113e+01 3.246362e+01 3.351468e+01 2.099918e+01 6.132499e+00 1.517695e+00 2.232047e+00 2.815494e+00 3.247596e+00 2.366396e+00 1.872945e+00 2.365268e+00 2.791920e+00 2.293971e+00 2.289148e+00 1.450003e+00 2.905906e+00
<GCONST> 9.871750e+01
<STATE> 3
<MEAN> 25
 -9.397573e+00 -3.767557e+00 2.964646e+00 -4.916661e+00 1.417899e+00 -4.392611e-01 3.182194e-01 1.977808e+00 2.926227e+00 1.168422e+00 3.752872e+00 2.277325e+00 -4.131293e+00 -5.032794e-01 5.637682e-01 -2.644019e+00 2.631280e-01 1.146338e-01 -5.890094e-01 -1.486473e-01 -1.301032e-01 -4.176900e-01 5.430505e-01 2.957074e-01 3.557102e+00
<VARIANCE> 25
 5.362570e+01 3.373428e+01 3.690969e+01 4.461069e+01 2.405300e+01 2.588658e+01 3.407412e+01 3.676418e+01 4.034141e+01 1.938004e+01 2.309034e+01 1.803824e+01 8.867836e+00 4.141196e+00 5.459629e+00 4.357765e+00 3.126917e+00 2.893441e+00 3.190791e+00 3.514604e+00 4.714557e+00 3.355462e+00 3.080854e+00 2.519463e+00 4.238361e+00
<GCONST> 1.047616e+02
<STATE> 4
<MEAN> 25
 -2.022547e+01 -9.087399e-01 9.074001e+00 -6.211358e+00 -1.202866e+00 -1.542691e+00 -7.289824e-01 3.366221e-01 3.754531e-01 -3.070672e+00 1.023842e+00 1.457887e+00 1.944931e+00 1.477062e-01 3.177242e-01 4.803729e-01 -1.248122e+00 -1.212452e+00 -3.051445e-01 -3.232074e-01 -1.007200e+00 -5.891775e-01 -8.124935e-01 -5.033061e-01 8.311638e-01
<VARIANCE> 25
 7.425204e+01 1.534856e+01 1.705987e+01 2.360038e+01 3.053434e+01 3.236919e+01 1.854236e+01 2.404587e+01 2.391804e+01 1.885250e+01 2.024448e+01 1.419489e+01 1.993044e+01 3.121241e+00 3.303765e+00 1.542079e+00 2.360346e+00 3.789842e+00 2.747268e+00 3.639123e+00 2.742373e+00 1.540679e+00 2.006543e+00 1.626094e+00 1.578275e+00
<GCONST> 9.708363e+01
<TRANSP> 5
 0.000000e+00 1.000000e+00 0.000000e+00 0.000000e+00 0.000000e+00
 0.000000e+00 6.844705e-01 3.155295e-01 0.000000e+00 0.000000e+00
 0.000000e+00 0.000000e+00 6.322215e-01 3.677785e-01 0.000000e+00
 0.000000e+00 0.000000e+00 0.000000e+00 8.205392e-01 1.794608e-01
 0.000000e+00 0.000000e+00 0.000000e+00 0.000000e+00 0.000000e+00
<ENDHMM>
~h "\340\262\253\340\263\215"
<BEGINHMM>
<NUMSTATES> 5
<STATE> 2
<MEAN> 25
 -5.467106e+00 3.068066e+00 -2.002288e+00 6.486925e+00 5.281951e+00 5.212796e+00 5.898690e+00 5.176481e+00 5.570170e+00 4.073417e+00 4.816348e+00 2.529729e+00 -4.020268e-02 1.482425e-02 4.927477e-02 7.887487e-02 -6.602342e-02 2.545560e-02 -4.210837e-03 -1.739275e-02 6.725096e-03 7.723685e-02 4.748590e-02 3.044831e-02 -3.022604e-02
<VARIANCE> 25
 2.810666e+00 2.033100e+00 4.362808e+00 1.222782e+01 6.769709e+00 9.793202e+00 1.183033e+01 1.052716e+01 7.651104e+00 8.831225e+00 1.297604e+01 1.009786e+01 4.744032e-01 1.813154e-01 3.674429e-01 5.902305e-01 5.817820e-01 9.288384e-01 1.286395e+00 9.955735e-01 8.729896e-01 1.156919e+00 1.111876e+00 1.182695e+00 3.227579e-01
<GCONST> 6.457728e+01
<STATE> 3
<MEAN> 25
 -5.967098e+00 4.614413e+00 -7.046102e-01 8.907766e+00 5.756155e+00 3.556205e+00 5.600559e+00 3.050088e+00 2.669360e+00 3.945396e+00 4.700039e+00 2.723181e+00 2.252893e-01 4.495008e-01 6.035352e-01 -6.732163e-01 -8.125540e-01 -1.634128e+00 -6.109294e-01 -1.143038e-01 -1.629177e+00 -4.821164e-01 -2.319544e-01 -2.867774e-01 8.202654e-01
<VARIANCE> 25
 5.218994e+00 1.156084e+01 6.257525e+00 2.641790e+01 7.555162e+00 6.911186e+00 2.023655e+01 1.017921e+01 1.320393e+01 2.736934e+01 2.504783e+01 1.367720e+01 4.129271e+00 7.370453e-01 5.711983e-01 1.867091e+00 1.645176e+00 1.001982e+00 1.394635e+00 1.079722e+00 1.033213e+00 1.862805e+00 1.089588e+00 2.143956e+00 7.037243e-01
<GCONST> 7.940272e+01
<STATE> 4
<MEAN> 25
 -1.036609e+01 -2.597448e+00 -6.481374e-01 -4.992937e-01 3.676731e+00 -6.724180e-01 5.261906e+00 1.546709e+00 1.207732e+00 1.055007e+00 2.804800e+00 2.507244e+00 -4.302257e-01 -6.713286e-01 3.901806e-02 -2.873734e-01 6.903902e-02 -4.032054e-01 -1.799141e-01 -9.459993e-02 2.421607e-02 -1.966644e-01 -1.202205e-01 -4.447220e-02 1.056212e+00
<VARIANCE> 25
 2.952784e+01 1.354588e+01 8.773596e+00 1.344292e+01 1.031511e+01 1.196575e+01 1.152166e+01 2.214924e+01 2.412507e+01 1.292354e+01 1.755345e+01 1.436324e+01 2.845856e+00 9.806886e-01 1.056630e+00 3.197269e+00 1.173814e+00 1.448653e+00 1.156260e+00 1.916284e+00 3.470552e+00 1.645314e+00 1.995494e+00 1.397148e+00 7.680407e-01
<GCONST> 8.441234e+01
<TRANSP> 5
 0.000000e+00 1.000000e+00 0.000000e+00 0.000000e+00 0.000000e+00
 0.000000e+00 9.527543e-01 4.724570e-02 0.000000e+00 0.000000e+00
 0.000000e+00 0.000000e+00 4.976235e-01 5.023765e-01 0.000000e+00
 0.000000e+00 0.000000e+00 0.000000e+00 9.028375e-01 9.716254e-02
 0.000000e+00 0.000000e+00 0.000000e+00 0.000000e+00 0.000000e+00
<ENDHMM>
~h "\340\262\243\340\263\215"
<BEGINHMM>
<NUMSTATES> 5
<STATE> 2
<MEAN> 25
 1.011375e+01 -1.268007e+01 -3.055823e+00 9.219164e-02 -7.467113e+00 -7.661902e+00 -4.390203e+00 1.239701e+00 -4.973410e+00 -5.640092e+00 -6.198718e+00 -3.119362e+00 2.503662e-01 6.647608e-01 5.420871e-01 6.387576e-01 1.478113e-01 -1.787776e+00 5.144576e-01 6.168695e-01 -1.092117e-01 -7.194181e-01 -8.406109e-01 1.217618e+00 -3.428640e-01
<VARIANCE> 25
 1.143497e+01 4.470151e+01 6.370830e+01 3.545212e+01 6.247601e+01 4.819730e+01 4.030203e+01 4.211479e+01 3.711100e+01 3.087264e+01 6.629973e+01 3.894320e+01 3.818994e-01 1.426901e+00 2.371614e+00 1.262867e+00 2.613422e+00 4.061424e+00 2.670261e+00 4.905262e+00 2.772541e+00 1.627331e+00 2.177181e+00 2.107556e+00 3.554178e-01
<GCONST> 9.767342e+01
<STATE> 3
<MEAN> 25
 1.111829e+01 -6.295842e+00 6.912948e-01 1.367394e+00 -5.684198e+00 -1.422958e+01 -3.589220e+00 2.374266e-01 -4.895372e+00 -6.091368e+00 -8.535823e+00 -2.637432e-01 3.825404e-01 2.948059e+00 1.742103e+00 -1.949255e-01 7.330743e-01 -1.232387e+00 2.341948e-01 -1.732251e+00 -9.141185e-01 6.354715e-01 -2.403826e-02 -3.469098e-02 -1.272445e+00
<VARIANCE> 25
 9.268386e+00 4.571222e+01 4.109347e+01 2.619487e+01 5.640588e+01 5.719162e+01 5.382361e+01 4.999909e+01 6.200010e+01 3.598075e+01 5.632654e+01 3.889268e+01 6.951560e-01 1.799962e+00 2.237604e+00 1.387664e+00 2.650522e+00 3.451387e+00 2.204693e+00 2.643009e+00 3.819706e+00 2.164388e+00 2.829216e+00 2.521258e+00 6.012796e-01
<GCONST> 9.925769e+01
<STATE> 4
<MEAN> 25
 1.188922e+01 -3.502865e-01 4.417019e+00 -2.330844e+00 -6.489635e+00 -1.070906e+01 -4.014726e+00 -6.551980e+00 -8.752892e+00 -4.809196e+00 -3.959004e+00 -3.369312e+00 -4.566253e-01 -7.669213e-01 -3.251670e-01 -8.089049e-01 -8.208371e-01 1.543459e+00 -7.272043e-01 1.483327e-01 4.299429e-01 -6.970237e-02 2.694052e-01 -8.323146e-01 8.464120e-01
<VARIANCE> 25
 6.106393e+00 2.965688e+01 2.726992e+01 2.590244e+01 5.386051e+01 5.790226e+01 4.879457e+01 5.563328e+01 6.337031e+01 3.264172e+01 6.238898e+01 3.295190e+01 1.133129e+00 3.363139e+00 4.052989e+00 2.811682e+00 5.955725e+00 6.950968e+00 3.699676e+00 3.737982e+00 4.365757e+00 2.325984e+00 5.190821e+00 2.808174e+00 1.101671e+00
<GCONST> 1.041360e+02
<TRANSP> 5
 0.000000e+00 1.000000e+00 0.000000e+00 0.000000e+00 0.000000e+00
 0.000000e+00 5.136832e-01 4.863168e-01 0.000000e+00 0.000000e+00
 0.000000e+00 0.000000e+00 6.039814e-01 3.960185e-01 0.000000e+00
 0.000000e+00 0.000000e+00 0.000000e+00 6.891999e-01 3.108001e-01
 0.000000e+00 0.000000e+00 0.000000e+00 0.000000e+00 0.000000e+00
<ENDHMM>
~h "\340\262\233\340\263\215"
<BEGINHMM>
<NUMSTATES> 5
<STATE> 2
<MEAN> 25
 4.498719e+00 -5.372468e+00 -1.140624e+01 -3.758153e+00 1.155160e+00 3.794630e-01 -1.746306e+00 -5.413002e+00 -5.714133e-01 -2.295855e+00 -1.523309e+01 -3.506661e+00 4.354309e-02 3.424553e-01 9.149954e-02 5.249549e-01 1.666657e-01 1.062877e+00 1.755134e-01 -6.368762e-01 2.277505e-01 -2.981209e-03 -2.439914e-01 -6.106001e-02 -9.188638e-01
<VARIANCE> 25
 3.351392e+01 6.125494e+01 5.479156e+01 2.642369e+01 1.147819e+01 3.022648e+01 1.349660e+01 9.589923e+01 1.098109e+01 1.396048e+01 6.405249e+01 2.465003e+01 8.539740e-01 2.778311e+00 3.609968e+00 2.265074e+00 1.904107e+00 3.310311e+00 2.560265e+00 3.346103e+00 1.680998e+00 8.804210e-01 1.903751e+00 2.877551e+00 1.318277e+00
<GCONST> 9.558691e+01
<STATE> 3
<MEAN> 25
 -3.724965e+00 7.711220e-01 -7.487825e-01 1.217697e+00 6.111804e+00 7.478028e+00 3.281570e+00 1.525840e+00 3.723360e+00 -1.129099e+00 1.437225e+00 8.234805e-01 -6.653873e-01 1.484773e-01 3.335529e-01 1.761965e-01 5.649262e-02 -3.108228e-01 8.838413e-01 8.904722e-01 1.328683e-01 8.429968e-01 9.500366e-01 7.725011e-01 -6.289074e-01
<VARIANCE> 25
 3.723540e+01 4.294701e+00 5.723793e+01 1.523876e+01 1.788184e+01 1.396920e+01 3.309807e+01 4.553562e+01 1.896507e+01 2.115924e+01 3.363508e+01 1.571814e+01 2.794911e+00 3.697352e-01 3.765733e+00 1.510259e+00 8.402726e-01 1.492180e+00 2.718010e+00 3.197122e+00 1.969811e+00 2.405258e+00 2.523873e+00 1.568088e+00 2.973055e+00
<GCONST> 9.107658e+01
<STATE> 4
<MEAN> 25
 -4.341565e+00 2.228733e+00 2.793436e-01 6.451689e+00 3.536058e+00 3.160153e+00 4.503316e+00 4.095972e+00 4.537301e+00 3.380816e+00 5.109810e+00 3.870053e+00 3.301188e-02 -5.015059e-02 5.257431e-02 1.566306e-01 -7.792696e-02 -9.939180e-02 -5.586500e-02 -3.711604e-02 3.135815e-02 -2.719672e-02 1.131041e-02 -6.145829e-02 3.556056e-03
<VARIANCE> 25
 4.821956e+00 4.083861e+00 7.423637e+00 1.049447e+01 1.200534e+01 1.337914e+01 1.362468e+01 1.530237e+01 1.275446e+01 1.302281e+01 1.445757e+01 1.255516e+01 5.562348e-01 6.635191e-01 7.391728e-01 9.554240e-01 1.023535e+00 1.643486e+00 1.362910e+00 1.670274e+00 1.277583e+00 1.234613e+00 1.472912e+00 1.229940e+00 6.151301e-01
<GCONST> 7.457766e+01
<TRANSP> 5
 0.000000e+00 1.000000e+00 0.000000e+00 0.000000e+00 0.000000e+00
 0.000000e+00 7.808480e-01 2.191520e-01 0.000000e+00 0.000000e+00
 0.000000e+00 0.000000e+00 8.187279e-01 1.812721e-01 0.000000e+00
 0.000000e+00 0.000000e+00 0.000000e+00 9.644230e-01 3.557695e-02
 0.000000e+00 0.000000e+00 0.000000e+00 0.000000e+00 0.000000e+00
<ENDHMM>
~h "\340\262\254\340\263\215"
<BEGINHMM>
<NUMSTATES> 5
<STATE> 2
<MEAN> 25
 2.752128e+00 -7.865591e-01 6.267649e+00 2.506249e+00 -2.988142e+00 -4.244600e+00 -1.081082e+00 -4.775149e-01 -4.180850e+00 -3.341835e+00 -1.949674e+00 -3.632202e+00 1.570786e+00 3.889499e-01 8.603354e-01 6.109102e-01 2.892272e-01 -8.962265e-01 -1.333043e+00 -1.090848e+00 -1.123246e+00 -5.813152e-01 -7.454965e-01 -1.388617e+00 1.261237e+00
<VARIANCE> 25
 3.698708e+01 9.260759e+01 4.520802e+01 7.476997e+01 8.926151e+01 4.524651e+01 3.507828e+01 6.280213e+01 3.641029e+01 4.604621e+01 2.388402e+01 2.607410e+01 3.160758e+00 4.988210e+00 4.936085e+00 4.395229e+00 4.947355e+00 4.280237e+00 4.366288e+00 4.821404e+00 4.397623e+00 4.154310e+00 1.775255e+00 2.245365e+00 6.468270e+00
<GCONST> 1.101612e+02
<STATE> 3
<MEAN> 25
 9.820234e+00 1.937523e+00 7.757265e+00 6.905609e+00 4.891567e+00 -3.611038e+00 -1.112868e+01 -1.141120e+01 -1.050941e+01 -2.400271e-01 -1.004866e+00 -1.048621e+01 1.439573e-02 1.002852e+00 -9.082478e-02 6.875694e-01 8.172449e-01 9.229237e-01 3.521091e-01 -1.442085e+00 -7.295069e-01 -7.886119e-03 2.092297e-01 -7.603511e-03 -9.072945e-01
<VARIANCE> 25
 5.926100e+00 4.543626e+01 2.329442e+01 3.044163e+01 2.828122e+01 5.102609e+01 5.597254e+01 6.879485e+01 3.745865e+01 3.174682e+01 2.727635e+01 3.244103e+01 9.364815e-01 1.407309e+00 2.242311e+00 2.351217e+00 2.227160e+00 2.631190e+00 3.644814e+00 2.944339e+00 3.027601e+00 2.608717e+00 1.649066e+00 1.959095e+00 1.966848e+00
<GCONST> 9.749924e+01
<STATE> 4
<MEAN> 25
 6.467184e+00 7.328002e+00 6.161766e+00 6.817189e+00 5.509317e+00 2.860102e-01 -2.395799e+00 -1.199235e+01 -9.813594e+00 -4.790055e+00 -1.917398e+00 -6.044856e+00 -1.136376e+00 -1.427458e+00 -9.253449e-01 -1.826434e+00 -1.038366e+00 -5.495229e-01 6.464770e-01 1.559504e+00 1.763357e+00 3.091604e-01 -1.635683e-01 8.012707e-01 1.243829e+00
<VARIANCE> 25
 1.440534e+01 3.977317e+01 2.876060e+01 4.334159e+01 3.488672e+01 4.157267e+01 2.592105e+01 9.577983e+01 5.976419e+01 3.104872e+01 2.944078e+01 2.593915e+01 1.758011e+00 5.274748e+00 2.987656e+00 6.298645e+00 4.968623e+00 4.599403e+00 3.695304e+00 4.555133e+00 5.525321e+00 3.507391e+00 3.149902e+00 2.159353e+00 7.067715e+00
<GCONST> 1.066378e+02
<TRANSP> 5
 0.000000e+00 1.000000e+00 0.000000e+00 0.000000e+00 0.000000e+00
 0.000000e+00 7.436564e-01 2.563436e-01 0.000000e+00 0.000000e+00
 0.000000e+00 0.000000e+00 7.121419e-01 2.878580e-01 0.000000e+00
 0.000000e+00 0.000000e+00 0.000000e+00 6.808048e-01 3.191952e-01
 0.000000e+00 0.000000e+00 0.000000e+00 0.000000e+00 0.000000e+00
<ENDHMM>
~h "\340\262\244\340\263\215"
<BEGINHMM>
<NUMSTATES> 5
<STATE> 2
<MEAN> 25
 -1.851558e+00 3.047149e-01 -2.946693e+00 2.891047e-01 6.242459e-01 -9.816381e-01 2.028770e-01 3.254173e+00 7.917435e+00 5.729180e+00 2.190225e+00 1.285383e+00 -9.468683e-01 -7.684594e-02 -5.036327e-01 1.578110e-01 1.766547e-01 7.592314e-01 1.119578e+00 7.636391e-01 7.922932e-01 9.650472e-01 1.096592e+00 7.087135e-01 -1.412288e+00
<VARIANCE> 25
 1.464184e+01 1.999926e+01 3.240957e+01 2.443534e+01 2.828858e+01 3.777182e+01 3.501589e+01 4.327697e+01 4.501690e+01 3.220668e+01 4.057205e+01 2.786362e+01 1.137011e+00 1.683111e+00 2.211004e+00 1.927226e+00 1.698879e+00 2.907042e+00 2.664572e+00 2.561180e+00 3.169554e+00 3.036212e+00 2.953546e+00 2.262796e+00 4.129278e+00
<GCONST> 9.810616e+01
<STATE> 3
<MEAN> 25
 -6.327703e+00 1.998903e+00 -2.924465e+00 2.782142e+00 2.643711e+00 2.927192e-01 4.007675e+00 3.649101e+00 6.190582e+00 6.040051e+00 4.293258e+00 3.786871e+00 -4.101322e-01 -1.809745e-01 -6.805880e-02 -4.362805e-01 -2.250308e-01 -1.411481e+00 -2.392621e-01 -1.259024e+00 -1.664299e+00 -1.594827e+00 -8.863751e-01 -3.452726e-01 3.544850e+00
<VARIANCE> 25
 1.308974e+01 1.420993e+01 1.755640e+01 1.571872e+01 1.734357e+01 2.648529e+01 1.971192e+01 2.351336e+01 3.244217e+01 2.117870e+01 1.656895e+01 1.500132e+01 1.768333e+00 1.585378e+00 2.764552e+00 2.149875e+00 2.510283e+00 4.726899e+00 2.682121e+00 3.516416e+00 4.722314e+00 2.978986e+00 2.681726e+00 2.147840e+00 8.068476e+00
<GCONST> 9.512333e+01
<STATE> 4
<MEAN> 25
 -1.054514e+00 -1.163849e+00 -2.017930e+00 -2.803813e+00 -1.455959e+00 -8.038360e+00 -3.598710e+00 -1.532077e+00 -3.315666e-01 1.863900e-01 -1.272960e+00 -7.018448e-01 2.628556e+00 -8.909549e-01 1.298986e-01 -1.633727e+00 -1.447305e+00 -1.513361e+00 -2.871799e+00 -7.834714e-01 -7.162181e-01 -7.178848e-01 -1.801435e+00 -1.433867e+00 3.676513e+00
<VARIANCE> 25
 5.201123e+01 2.761213e+01 2.490060e+01 3.325984e+01 3.143597e+01 5.141544e+01 8.383533e+01 3.413590e+01 5.104982e+01 3.073659e+01 3.317633e+01 3.273921e+01 4.212163e+00 3.834517e+00 3.153128e+00 4.806065e+00 4.183878e+00 7.774016e+00 6.929092e+00 4.792288e+00 6.414034e+00 5.314736e+00 4.986346e+00 2.902468e+00 1.106122e+01
<GCONST> 1.107214e+02
<TRANSP> 5
 0.000000e+00 1.000000e+00 0.000000e+00 0.000000e+00 0.000000e+00
 0.000000e+00 7.733057e-01 2.266943e-01 0.000000e+00 0.000000e+00
 0.000000e+00 0.000000e+00 5.423404e-01 4.576596e-01 0.000000e+00
 0.000000e+00 0.000000e+00 0.000000e+00 5.872302e-01 4.127698e-01
 0.000000e+00 0.000000e+00 0.000000e+00 0.000000e+00 0.000000e+00
<ENDHMM>
~h "\340\262\265\340\263\215"
<BEGINHMM>
<NUMSTATES> 5
<STATE> 2
<MEAN> 25
 9.701102e+00 -1.818251e+00 -4.626956e+00 -8.266288e+00 -1.388487e+00 -5.630414e-01 -5.958272e+00 -8.036424e+00 -5.924600e+00 2.697099e+00 1.859037e+00 -3.380042e+00 6.505703e-01 1.237132e+00 1.988944e-01 -4.654291e-01 3.925667e-02 8.664463e-01 7.087327e-01 -1.285225e+00 -1.230872e+00 -7.042075e-01 9.222559e-01 6.664138e-01 -8.941700e-01
<VARIANCE> 25
 3.144553e+01 2.959220e+01 2.897552e+01 7.432481e+01 2.831925e+01 4.331609e+01 4.114816e+01 3.275475e+01 3.783856e+01 4.042001e+01 2.813824e+01 2.475360e+01 2.507857e+00 2.838747e+00 2.880811e+00 5.358745e+00 4.632983e+00 3.832992e+00 4.617233e+00 3.338850e+00 3.314956e+00 4.703640e+00 3.379209e+00 2.389617e+00 3.331959e+00
<GCONST> 1.050056e+02
<STATE> 3
<MEAN> 25
 1.248870e+01 3.414757e+00 -4.530420e+00 -1.268998e+01 -6.235009e+00 2.408057e+00 -3.082166e+00 -6.826784e+00 -7.040584e+00 -4.320277e+00 1.432888e-01 -1.061427e+00 -1.754190e-01 -1.234908e-01 -1.567424e-01 -1.258100e-01 4.402125e-02 -8.118361e-03 2.696507e-01 2.197735e-01 4.099031e-01 -9.957463e-02 -3.311884e-01 -1.116815e-01 1.477317e-01
<VARIANCE> 25
 2.466256e+01 3.071939e+01 1.819987e+01 6.350768e+01 5.460312e+01 2.701820e+01 2.967425e+01 3.882759e+01 3.285702e+01 3.872643e+01 2.583285e+01 2.057867e+01 6.045369e-01 2.088464e+00 1.363786e+00 2.423265e+00 2.202885e+00 1.987098e+00 2.291492e+00 1.831652e+00 1.937862e+00 2.334820e+00 1.494248e+00 1.241171e+00 1.407948e+00
<GCONST> 9.420899e+01
<STATE> 4
<MEAN> 25
 4.468849e+00 4.745474e-01 -2.461876e+00 -3.270381e+00 1.598115e+00 7.366772e-01 5.203006e-01 -5.129213e+00 -3.573350e+00 -1.314335e-01 1.299445e+00 -8.921454e-01 -2.225277e-01 -9.618986e-01 -1.716339e-01 -1.199393e-01 -1.728842e-01 -1.012696e-01 5.760007e-03 3.188648e-01 5.458663e-01 4.004722e-01 -4.859052e-01 -5.154592e-01 7.446047e-01
<VARIANCE> 25
 6.581777e+01 3.438244e+01 4.024635e+01 9.700217e+01 4.712860e+01 5.504191e+01 4.939416e+01 4.439513e+01 4.406963e+01 4.358295e+01 2.654261e+01 2.282420e+01 2.338696e+00 2.592864e+00 2.478215e+00 3.628171e+00 3.350914e+00 3.057043e+00 3.520580e+00 2.631314e+00 3.316449e+00 3.341884e+00 2.929305e+00 2.185468e+00 2.326017e+00
<GCONST> 1.051197e+02
<TRANSP> 5
 0.000000e+00 1.000000e+00 0.000000e+00 0.000000e+00 0.000000e+00
