~o
<STREAMINFO> 1 25
<VECSIZE> 25<NULLD><MFCC_D_N_Z_0><DIAGC>
~h "\340\262\236\340\263\215"
<BEGINHMM>
<NUMSTATES> 5
<STATE> 2
<MEAN> 25
 4.925858e-08 -1.233895e-08 2.920008e-08 1.226765e-08 -5.222096e-08 1.835772e-08 3.730370e-08 -3.084009e-08 5.284326e-08 -7.177465e-09 3.337222e-08 1.065681e-08 -5.941017e-04 -3.072851e-04 5.426822e-05 -6.761555e-04 -2.272289e-05 -6.928663e-06 -4.446488e-04 -1.001891e-03 -5.636913e-04 -2.278803e-04 9.030614e-05 -4.183001e-04 3.126871e-03
<VARIANCE> 25
 6.337364e+01 4.811290e+01 5.212138e+01 6.297672e+01 6.965734e+01 5.789758e+01 6.618909e+01 5.280534e+01 5.847340e+01 4.740644e+01 4.464558e+01 3.826577e+01 2.126088e+00 2.240220e+00 2.076481e+00 2.780402e+00 2.979447e+00 3.084975e+00 3.029560e+00 2.887547e+00 2.790046e+00 2.530517e+00 2.348650e+00 2.055844e+00 2.977529e+00
<GCONST> 1.062192e+02
<STATE> 3
<MEAN> 25
 4.925858e-08 -1.233895e-08 2.920008e-08 1.226765e-08 -5.222096e-08 1.835772e-08 3.730370e-08 -3.084009e-08 5.284326e-08 -7.177465e-09 3.337222e-08 1.065681e-08 -5.941017e-04 -3.072851e-04 5.426822e-05 -6.761555e-04 -2.272289e-05 -6.928663e-06 -4.446488e-04 -1.001891e-03 -5.636913e-04 -2.278803e-04 9.030614e-05 -4.183001e-04 3.126871e-03
<VARIANCE> 25
 6.337364e+01 4.811290e+01 5.212138e+01 6.297672e+01 6.965734e+01 5.789758e+01 6.618909e+01 5.280534e+01 5.847340e+01 4.740644e+01 4.464558e+01 3.826577e+01 2.126088e+00 2.240220e+00 2.076481e+00 2.780402e+00 2.979447e+00 3.084975e+00 3.029560e+00 2.887547e+00 2.790046e+00 2.530517e+00 2.348650e+00 2.055844e+00 2.977529e+00
<GCONST> 1.062192e+02
<STATE> 4
<MEAN> 25
 4.925858e-08 -1.233895e-08 2.920008e-08 1.226765e-08 -5.222096e-08 1.835772e-08 3.730370e-08 -3.084009e-08 5.284326e-08 -7.177465e-09 3.337222e-08 1.065681e-08 -5.941017e-04 -3.072851e-04 5.426822e-05 -6.761555e-04 -2.272289e-05 -6.928663e-06 -4.446488e-04 -1.001891e-03 -5.636913e-04 -2.278803e-04 9.030614e-05 -4.183001e-04 3.126871e-03
<VARIANCE> 25
 6.337364e+01 4.811290e+01 5.212138e+01 6.297672e+01 6.965734e+01 5.789758e+01 6.618909e+01 5.280534e+01 5.847340e+01 4.740644e+01 4.464558e+01 3.826577e+01 2.126088e+00 2.240220e+00 2.076481e+00 2.780402e+00 2.979447e+00 3.084975e+00 3.029560e+00 2.887547e+00 2.790046e+00 2.530517e+00 2.348650e+00 2.055844e+00 2.977529e+00
<GCONST> 1.062192e+02
<TRANSP> 5
 0.000000e+00 1.000000e+00 0.000000e+00 0.000000e+00 0.000000e+00
 0.000000e+00 6.000000e-01 4.000000e-01 0.000000e+00 0.000000e+00
 0.000000e+00 0.000000e+00 6.000000e-01 4.000000e-01 0.000000e+00
 0.000000e+00 0.000000e+00 0.000000e+00 7.000000e-01 3.000000e-01
 0.000000e+00 0.000000e+00 0.000000e+00 0.000000e+00 0.000000e+00
<ENDHMM>
~h "\340\262\257\340\263\215"
<BEGINHMM>
<NUMSTATES> 5
<STATE> 2
<MEAN> 25
 1.673101e-01 -4.711602e-01 6.697202e-01 -6.954013e-01 -9.110844e-01 -5.572687e-01 -3.454422e-01 -2.492697e-01 -6.850482e-01 -4.610294e-01 -2.458335e-01 -5.116900e-01 3.772387e-03 5.587274e-04 1.046482e-03 -2.749906e-03 -9.127726e-03 -1.118797e-02 -7.422293e-04 -5.123947e-03 -7.274299e-03 -3.050995e-03 -3.473798e-03 -2.895347e-03 1.105284e-02
<VARIANCE> 25
 6.633366e+01 5.284624e+01 5.974446e+01 6.529962e+01 8.151145e+01 5.810763e+01 6.560220e+01 5.232490e+01 5.826138e+01 4.934961e+01 4.361448e+01 3.891081e+01 2.412271e+00 2.409492e+00 2.350516e+00 2.845009e+00 3.309829e+00 3.195273e+00 3.054924e+00 3.188849e+00 2.839360e+00 2.606833e+00 2.441838e+00 2.080301e+00 3.009341e+00
<GCONST> 1.074066e+02
<STATE> 3
<MEAN> 25
 1.827673e-01 -4.656673e-01 6.694704e-01 -7.065290e-01 -9.446606e-01 -6.002080e-01 -3.454274e-01 -2.709184e-01 -7.095264e-01 -4.737880e-01 -2.608137e-01 -5.216358e-01 2.633869e-03 1.528848e-03 -4.398461e-04 -1.934584e-03 -7.070215e-03 -1.003025e-02 1.342630e-03 -4.158504e-03 -4.549044e-03 -1.943946e-03 -2.892834e-03 -1.623344e-03 7.933008e-03
<VARIANCE> 25
 6.648217e+01 5.287823e+01 5.974630e+01 6.540884e+01 8.184789e+01 5.845633e+01 6.558038e+01 5.237687e+01 5.838551e+01 4.924244e+01 4.363345e+01 3.901568e+01 2.407371e+00 2.414376e+00 2.347251e+00 2.847024e+00 3.314152e+00 3.200814e+00 3.067022e+00 3.192831e+00 2.835305e+00 2.608060e+00 2.445691e+00 2.085380e+00 3.001904e+00
<GCONST> 1.074331e+02
<STATE> 4
<MEAN> 25
 2.561080e-01 -4.885733e-01 5.879861e-01 -7.790393e-01 -9.949551e-01 -6.710982e-01 -3.719943e-01 -3.339432e-01 -7.469833e-01 -5.187833e-01 -3.430924e-01 -5.745761e-01 9.927342e-04 3.766609e-03 -3.923357e-03 6.083230e-04 -1.048794e-03 -6.415382e-03 4.127148e-03 -2.497125e-03 5.855704e-04 -4.723842e-04 -1.571101e-03 6.400407e-04 4.791741e-04
<VARIANCE> 25
 6.557638e+01 5.275302e+01 5.917231e+01 6.611542e+01 8.220200e+01 5.828104e+01 6.516791e+01 5.256951e+01 5.812896e+01 4.935501e+01 4.392302e+01 3.961707e+01 2.339907e+00 2.380286e+00 2.313533e+00 2.827715e+00 3.279479e+00 3.170489e+00 3.077374e+00 3.159662e+00 2.795246e+00 2.612689e+00 2.442268e+00 2.101866e+00 2.961302e+00
<GCONST> 1.073260e+02
<TRANSP> 5
 0.000000e+00 1.000000e+00 0.000000e+00 0.000000e+00 0.000000e+00
 0.000000e+00 7.625857e-01 2.374143e-01 0.000000e+00 0.000000e+00
 0.000000e+00 0.000000e+00 7.625887e-01 2.374113e-01 0.000000e+00
 0.000000e+00 0.000000e+00 0.000000e+00 8.935557e-01 1.064443e-01
 0.000000e+00 0.000000e+00 0.000000e+00 0.000000e+00 0.000000e+00
<ENDHMM>
~h "\340\262\226\340\263\215"
<BEGINHMM>
<NUMSTATES> 5
<STATE> 2
<MEAN> 25
 -7.887846e-01 6.938690e-01 6.318453e-02 2.303320e-01 7.618070e-01 7.567885e-01 2.778305e-01 9.987118e-02 2.975829e-01 5.560642e-01 4.984581e-01 4.380171e-01 -5.231196e-04 -5.250372e-03 1.467110e-02 -9.556840e-03 -1.277186e-02 -1.030287e-02 -8.916631e-03 -2.904403e-03 -1.452957e-03 -1.219692e-02 -7.305717e-03 2.632914e-03 3.587768e-02
<VARIANCE> 25
 5.460849e+01 4.419063e+01 5.162410e+01 6.684061e+01 5.752924e+01 4.863277e+01 5.369263e+01 5.054689e+01 4.783319e+01 4.478556e+01 4.631384e+01 3.343989e+01 2.095010e+00 2.025628e+00 1.950439e+00 2.624855e+00 2.532669e+00 3.031341e+00 2.723581e+00 2.280468e+00 2.392666e+00 2.483994e+00 2.368651e+00 1.965358e+00 2.868897e+00
<GCONST> 1.040568e+02
<STATE> 3
<MEAN> 25
 -7.896605e-01 6.721686e-01 1.329915e-01 1.785210e-01 6.970831e-01 7.151532e-01 2.352294e-01 8.848252e-02 2.881466e-01 4.943630e-01 4.782974e-01 4.560208e-01 2.522857e-03 -7.148135e-03 1.512139e-02 -1.448090e-02 -1.797199e-02 -1.191560e-02 -1.111836e-02 -3.667159e-03 -3.212319e-03 -1.653153e-02 -9.002130e-03 1.693721e-03 4.030224e-02
<VARIANCE> 25
 5.485833e+01 4.438885e+01 5.170821e+01 6.647130e+01 5.765959e+01 4.922802e+01 5.359102e+01 5.083647e+01 4.816629e+01 4.488646e+01 4.621028e+01 3.332033e+01 2.127786e+00 2.053542e+00 1.974194e+00 2.630640e+00 2.545776e+00 3.035928e+00 2.729736e+00 2.306714e+00 2.411468e+00 2.487437e+00 2.380543e+00 1.950691e+00 2.886297e+00
<GCONST> 1.041602e+02
<STATE> 4
<MEAN> 25
 -7.871910e-01 6.718698e-01 3.626941e-01 6.329816e-02 4.787532e-01 6.726905e-01 1.905048e-01 1.118878e-01 2.516735e-01 3.816608e-01 5.024692e-01 4.552055e-01 5.802216e-03 -8.779808e-03 1.251908e-02 -1.690694e-02 -1.969660e-02 -1.397222e-02 -9.790203e-03 -4.051289e-03 -7.197334e-03 -1.650272e-02 -9.331438e-03 -8.962896e-04 3.829155e-02
<VARIANCE> 25
 5.221920e+01 4.492546e+01 5.244362e+01 6.619827e+01 5.853190e+01 4.795338e+01 5.194432e+01 5.118033e+01 4.801111e+01 4.418264e+01 4.550441e+01 3.350068e+01 2.021445e+00 1.987666e+00 2.011403e+00 2.580858e+00 2.501487e+00 2.970439e+00 2.652875e+00 2.259908e+00 2.352570e+00 2.460948e+00 2.356647e+00 1.896760e+00 2.823437e+00
<GCONST> 1.037999e+02
<TRANSP> 5
 0.000000e+00 1.000000e+00 0.000000e+00 0.000000e+00 0.000000e+00
 0.000000e+00 7.779462e-01 2.220539e-01 0.000000e+00 0.000000e+00
 0.000000e+00 0.000000e+00 7.779458e-01 2.220542e-01 0.000000e+00
 0.000000e+00 0.000000e+00 0.000000e+00 9.121803e-01 8.781967e-02
 0.000000e+00 0.000000e+00 0.000000e+00 0.000000e+00 0.000000e+00
<ENDHMM>
~h "\340\262\247\340\263\215"
<BEGINHMM>
<NUMSTATES> 5
<STATE> 2
<MEAN> 25
 2.396717e-02 1.668725e-01 1.708975e-01 3.439504e-02 1.207320e-01 2.497722e-01 -2.770418e-01 -4.781152e-01 1.064225e-01 -7.417957e-01 -6.877153e-01 -1.511603e-01 1.062869e-02 1.117585e-03 -4.512562e-03 -2.166658e-03 -2.523945e-03 -5.599971e-03 -4.862014e-03 -6.335382e-03 -5.216482e-03 -9.456852e-03 -7.607301e-03 -1.634583e-03 2.042941e-02
<VARIANCE> 25
 7.273646e+01 5.221167e+01 5.811150e+01 6.255185e+01 6.248451e+01 5.581200e+01 6.613348e+01 5.476197e+01 5.216956e+01 4.562245e+01 4.831765e+01 3.852091e+01 2.949531e+00 2.540953e+00 2.570010e+00 2.874278e+00 3.164218e+00 3.472484e+00 3.158313e+00 3.145639e+00 2.951759e+00 2.515602e+00 2.513681e+00 2.253344e+00 3.045876e+00
<GCONST> 1.076025e+02
<STATE> 3
<MEAN> 25
 6.812777e-02 1.664787e-01 1.470066e-01 2.290709e-02 1.189742e-01 2.322557e-01 -2.987142e-01 -5.004865e-01 8.596788e-02 -7.751965e-01 -7.196292e-01 -1.581806e-01 1.084319e-02 -5.290111e-04 -5.359934e-03 -2.116776e-03 -2.070147e-03 -6.242604e-03 -4.896267e-03 -4.586293e-03 -4.742696e-03 -6.800148e-03 -7.262872e-03 -2.318938e-03 1.811362e-02
<VARIANCE> 25
 7.271447e+01 5.211882e+01 5.808694e+01 6.262782e+01 6.238867e+01 5.587627e+01 6.624882e+01 5.503271e+01 5.204548e+01 4.548298e+01 4.833544e+01 3.848730e+01 2.955198e+00 2.546220e+00 2.586926e+00 2.885864e+00 3.178517e+00 3.472075e+00 3.163880e+00 3.168457e+00 2.955199e+00 2.506808e+00 2.524544e+00 2.252650e+00 3.067835e+00
<GCONST> 1.076384e+02
<STATE> 4
<MEAN> 25
 1.485093e-01 1.309140e-01 3.000489e-02 4.867082e-02 1.105422e-01 2.070530e-01 -2.826032e-01 -5.421448e-01 9.009050e-02 -7.760921e-01 -7.634811e-01 -1.869860e-01 1.126745e-02 -3.507742e-03 -7.360062e-03 -2.956554e-03 5.694578e-04 -4.638393e-03 -5.695911e-03 -1.303694e-03 -3.916296e-03 -2.355747e-03 -6.431987e-03 -2.798119e-03 1.444083e-02
<VARIANCE> 25
 7.157503e+01 5.134470e+01 5.790269e+01 6.245078e+01 6.171460e+01 5.535818e+01 6.653451e+01 5.587003e+01 5.089228e+01 4.581089e+01 4.836195e+01 3.909288e+01 2.902177e+00 2.508905e+00 2.583237e+00 2.868341e+00 3.178318e+00 3.434026e+00 3.168043e+00 3.171438e+00 2.916409e+00 2.504848e+00 2.535602e+00 2.260417e+00 3.072285e+00
<GCONST> 1.075478e+02
<TRANSP> 5
 0.000000e+00 1.000000e+00 0.000000e+00 0.000000e+00 0.000000e+00
 0.000000e+00 7.611768e-01 2.388232e-01 0.000000e+00 0.000000e+00
 0.000000e+00 0.000000e+00 7.611762e-01 2.388238e-01 0.000000e+00
 0.000000e+00 0.000000e+00 0.000000e+00 8.900230e-01 1.099770e-01
 0.000000e+00 0.000000e+00 0.000000e+00 0.000000e+00 0.000000e+00
<ENDHMM>
~h "\340\262\270\340\263\215"
<BEGINHMM>
<NUMSTATES> 5
<STATE> 2
<MEAN> 25
 -8.688669e-01 1.779911e-01 -6.515442e-03 -2.145997e-01 -1.668261e-01 -7.094200e-01 1.585364e-01 -6.529006e-02 -9.945969e-02 -1.254139e-01 -2.015761e-01 -1.628712e-02 1.330600e-03 9.588024e-04 -5.713684e-03 -1.850049e-03 8.475750e-03 1.544703e-04 1.485563e-03 -4.507695e-03 2.933098e-03 -5.488629e-03 -6.222300e-04 -1.672463e-03 1.415963e-02
<VARIANCE> 25
 7.918952e+01 5.080243e+01 5.323375e+01 6.141797e+01 6.802805e+01 6.337645e+01 6.987221e+01 5.216737e+01 5.937338e+01 4.376968e+01 4.505521e+01 3.743070e+01 3.094103e+00 2.459710e+00 2.166724e+00 2.964152e+00 3.093497e+00 3.276251e+00 3.353041e+00 2.949241e+00 2.819377e+00 2.432930e+00 2.476518e+00 2.071438e+00 2.901551e+00
<GCONST> 1.073251e+02
<STATE> 3
<MEAN> 25
 -8.636813e-01 1.829868e-01 -3.059958e-02 -2.154581e-01 -1.276809e-01 -7.048516e-01 1.655811e-01 -8.683854e-02 -8.807053e-02 -1.490023e-01 -2.010859e-01 -2.182054e-02 1.589061e-03 1.164202e-03 -6.105329e-03 -2.564513e-06 9.936456e-03 1.863303e-03 1.846757e-03 -5.243897e-03 2.968313e-03 -5.474297e-03 6.682670e-04 -1.074685e-03 9.216483e-03
<VARIANCE> 25
 7.938501e+01 5.081640e+01 5.315861e+01 6.140858e+01 6.765635e+01 6.354499e+01 6.993153e+01 5.210292e+01 5.915330e+01 4.391133e+01 4.510216e+01 3.755713e+01 3.093829e+00 2.458909e+00 2.159820e+00 2.956267e+00 3.076530e+00 3.281614e+00 3.349221e+00 2.940735e+00 2.812769e+00 2.437536e+00 2.478010e+00 2.068937e+00 2.873681e+00
<GCONST> 1.073022e+02
<STATE> 4
<MEAN> 25
 -8.236299e-01 2.010643e-01 -1.175609e-01 -2.016661e-01 -4.156756e-02 -7.349689e-01 1.679464e-01 -1.551334e-01 -9.308296e-02 -1.987867e-01 -2.073545e-01 -5.426216e-02 1.655317e-03 1.754597e-03 -6.455084e-03 2.910791e-03 1.122577e-02 4.198428e-03 3.032376e-03 -4.495780e-03 4.560100e-03 -4.088285e-03 2.116809e-03 -4.862809e-04 -1.761419e-03
<VARIANCE> 25
 7.887585e+01 5.014338e+01 5.173445e+01 6.208192e+01 6.626447e+01 6.382409e+01 6.918065e+01 5.212900e+01 5.826072e+01 4.416962e+01 4.506402e+01 3.750758e+01 3.053132e+00 2.421840e+00 2.127738e+00 2.932556e+00 3.017846e+00 3.265688e+00 3.330573e+00 2.908634e+00 2.784786e+00 2.448601e+00 2.472083e+00 2.064818e+00 2.783981e+00
<GCONST> 1.070942e+02
<TRANSP> 5
 0.000000e+00 1.000000e+00 0.000000e+00 0.000000e+00 0.000000e+00
 0.000000e+00 7.618505e-01 2.381494e-01 0.000000e+00 0.000000e+00
 0.000000e+00 0.000000e+00 7.618514e-01 2.381486e-01 0.000000e+00
 0.000000e+00 0.000000e+00 0.000000e+00 8.919723e-01 1.080278e-01
 0.000000e+00 0.000000e+00 0.000000e+00 0.000000e+00 0.000000e+00
<ENDHMM>
~h "\340\262\237\340\263\215"
<BEGINHMM>
<NUMSTATES> 5
<STATE> 2
<MEAN> 25
 -2.155529e-01 -2.129582e-01 -3.659650e-01 7.084800e-01 1.839972e-01 -5.749155e-02 3.573143e-01 4.432953e-01 4.803742e-01 8.849687e-01 6.645194e-01 3.526892e-01 2.134333e-02 -9.811724e-03 -8.753086e-03 -1.589334e-02 -1.878450e-02 -4.694691e-03 -1.166030e-02 -1.383146e-02 -1.152567e-02 -1.303602e-02 -8.091931e-03 -7.310913e-03 2.985452e-02
<VARIANCE> 25
 6.256787e+01 4.836277e+01 4.931774e+01 6.196274e+01 6.456303e+01 5.390341e+01 5.976191e+01 5.488269e+01 5.489353e+01 4.105647e+01 4.416402e+01 3.696367e+01 2.075938e+00 2.286476e+00 2.083355e+00 2.754543e+00 3.325261e+00 3.127537e+00 3.074781e+00 2.910252e+00 2.673090e+00 2.528225e+00 2.332174e+00 2.102056e+00 3.431630e+00
<GCONST> 1.059267e+02
<STATE> 3
<MEAN> 25
 -1.277144e-01 -2.537724e-01 -3.998646e-01 6.388078e-01 1.050289e-01 -8.152008e-02 3.127687e-01 3.923807e-01 4.373198e-01 8.260217e-01 6.197649e-01 3.205659e-01 1.921166e-02 -8.300608e-03 -7.336235e-03 -1.526100e-02 -1.753393e-02 -3.333065e-03 -7.759443e-03 -1.121907e-02 -1.077303e-02 -1.396991e-02 -9.291004e-03 -6.757389e-03 2.667100e-02
<VARIANCE> 25
 6.258918e+01 4.860147e+01 4.995225e+01 6.229205e+01 6.500583e+01 5.424592e+01 5.997235e+01 5.556455e+01 5.523488e+01 4.134496e+01 4.440426e+01 3.706243e+01 2.070850e+00 2.311314e+00 2.103305e+00 2.781274e+00 3.370836e+00 3.152236e+00 3.089195e+00 2.936907e+00 2.675472e+00 2.546703e+00 2.349687e+00 2.115391e+00 3.457444e+00
<GCONST> 1.060927e+02
<STATE> 4
<MEAN> 25
 5.538827e-02 -3.781392e-01 -4.644653e-01 4.427873e-01 -2.884703e-02 -1.118666e-01 2.273100e-01 3.270707e-01 3.966444e-01 6.502896e-01 4.220522e-01 2.716083e-01 1.511594e-02 -5.866047e-03 -5.181492e-03 -1.337638e-02 -1.447999e-02 -2.442119e-03 -3.443741e-03 -7.747306e-03 -7.777305e-03 -1.411434e-02 -1.181447e-02 -7.201017e-03 2.213691e-02
<VARIANCE> 25
 6.183214e+01 4.900309e+01 4.981163e+01 6.368954e+01 6.562227e+01 5.473250e+01 5.924387e+01 5.633910e+01 5.482456e+01 4.225847e+01 4.421256e+01 3.715326e+01 1.994152e+00 2.307136e+00 2.108701e+00 2.792345e+00 3.391437e+00 3.186597e+00 3.072453e+00 2.946801e+00 2.624345e+00 2.561557e+00 2.366045e+00 2.138120e+00 3.411873e+00
<GCONST> 1.061133e+02
<TRANSP> 5
 0.000000e+00 1.000000e+00 0.000000e+00 0.000000e+00 0.000000e+00
 0.000000e+00 7.653611e-01 2.346388e-01 0.000000e+00 0.000000e+00
 0.000000e+00 0.000000e+00 7.653625e-01 2.346375e-01 0.000000e+00
 0.000000e+00 0.000000e+00 0.000000e+00 8.973289e-01 1.026711e-01
 0.000000e+00 0.000000e+00 0.000000e+00 0.000000e+00 0.000000e+00
<ENDHMM>
~h "\340\262\260\340\263\215"
<BEGINHMM>
<NUMSTATES> 5
<STATE> 2
<MEAN> 25
 3.322864e-01 -4.680420e-01 -2.226869e-01 -1.970442e-01 -2.845075e-01 -6.140059e-02 -2.505147e-01 -3.087845e-01 3.604300e-03 -7.303038e-02 -3.965324e-01 -2.807031e-01 5.269515e-03 -2.331250e-03 -1.520827e-03 -3.140876e-03 -3.069215e-03 7.772032e-05 -3.562783e-03 -4.957214e-03 -3.390396e-03 -1.132178e-03 -2.578375e-03 -4.508855e-03 1.017874e-02
<VARIANCE> 25
 6.639781e+01 5.314961e+01 5.578786e+01 6.392042e+01 7.111012e+01 6.171348e+01 6.609973e+01 5.327888e+01 5.748643e+01 4.645858e+01 4.687021e+01 3.931397e+01 2.299917e+00 2.297008e+00 2.174087e+00 2.910002e+00 3.078322e+00 3.196341e+00 3.064449e+00 2.922204e+00 2.820501e+00 2.523363e+00 2.399946e+00 2.135454e+00 3.090562e+00
<GCONST> 1.069702e+02
<STATE> 3
<MEAN> 25
 3.531653e-01 -4.751994e-01 -2.283929e-01 -2.095895e-01 -2.951968e-01 -6.063100e-02 -2.661670e-01 -3.283400e-01 -1.044257e-02 -7.821872e-02 -4.068501e-01 -2.986847e-01 4.513223e-03 -1.136203e-03 -9.625441e-04 -2.856523e-03 -2.344611e-03 1.557252e-04 -3.722698e-03 -4.757165e-03 -3.744568e-03 -8.509267e-04 -1.860988e-03 -4.164543e-03 8.974892e-03
<VARIANCE> 25
 6.643406e+01 5.313964e+01 5.592833e+01 6.404610e+01 7.103818e+01 6.172139e+01 6.624924e+01 5.336702e+01 5.747577e+01 4.640821e+01 4.676464e+01 3.935460e+01 2.300997e+00 2.294199e+00 2.177486e+00 2.919345e+00 3.080227e+00 3.204093e+00 3.071972e+00 2.927872e+00 2.821344e+00 2.528303e+00 2.401409e+00 2.137891e+00 3.093136e+00
<GCONST> 1.069919e+02
<STATE> 4
<MEAN> 25
 3.871922e-01 -4.847338e-01 -2.126760e-01 -2.461302e-01 -3.247643e-01 -7.622562e-02 -3.118948e-01 -3.654112e-01 -6.721115e-02 -1.107896e-01 -4.400597e-01 -3.280057e-01 2.345363e-03 8.830704e-04 7.588720e-05 -2.088690e-03 -3.999735e-04 3.814934e-04 -3.404196e-03 -3.120143e-03 -3.208548e-03 -3.873473e-04 -1.055425e-03 -2.674192e-03 5.695471e-03
<VARIANCE> 25
 6.588343e+01 5.244559e+01 5.595423e+01 6.467799e+01 7.099133e+01 6.128642e+01 6.584490e+01 5.368724e+01 5.727233e+01 4.644323e+01 4.645179e+01 3.955844e+01 2.257234e+00 2.256753e+00 2.162001e+00 2.911992e+00 3.057985e+00 3.192096e+00 3.048836e+00 2.920024e+00 2.799646e+00 2.527045e+00 2.388682e+00 2.141537e+00 3.056415e+00
<GCONST> 1.068782e+02
<TRANSP> 5
 0.000000e+00 1.000000e+00 0.000000e+00 0.000000e+00 0.000000e+00
 0.000000e+00 7.601313e-01 2.398687e-01 0.000000e+00 0.000000e+00
 0.000000e+00 0.000000e+00 7.601311e-01 2.398689e-01 0.000000e+00
 0.000000e+00 0.000000e+00 0.000000e+00 8.901049e-01 1.098951e-01
 0.000000e+00 0.000000e+00 0.000000e+00 0.000000e+00 0.000000e+00
<ENDHMM>
~h "\340\262\227\340\263\215"
<BEGINHMM>
<NUMSTATES> 5
<STATE> 2
<MEAN> 25
 6.453760e-01 -3.869686e-01 5.305664e-02 -3.854581e-01 -2.777062e-01 -1.991676e-01 -4.506953e-01 -5.880041e-01 -8.138011e-01 -2.173930e-01 -1.174476e-01 -6.962512e-01 4.270454e-03 5.938932e-03 -5.083297e-04 1.688042e-03 3.220944e-03 1.115980e-03 2.253873e-03 -7.847112e-04 -4.171854e-03 1.173576e-03 2.271461e-03 4.495182e-03 -5.997038e-03
<VARIANCE> 25
 6.537849e+01 5.192340e+01 5.496393e+01 6.448099e+01 7.094823e+01 6.033368e+01 7.158067e+01 5.753390e+01 6.193593e+01 4.592375e+01 4.409064e+01 4.082046e+01 2.090514e+00 2.447114e+00 2.195753e+00 3.021521e+00 3.380283e+00 3.360821e+00 3.272618e+00 3.162428e+00 2.825759e+00 2.660738e+00 2.356446e+00 2.157094e+00 2.855550e+00
<GCONST> 1.073677e+02
<STATE> 3
<MEAN> 25
 6.663684e-01 -3.620501e-01 4.963691e-02 -3.790350e-01 -2.652332e-01 -1.943372e-01 -4.445325e-01 -5.929301e-01 -8.316180e-01 -2.127577e-01 -1.073721e-01 -6.784203e-01 4.158283e-03 6.952960e-03 -1.544463e-03 2.301104e-03 4.307163e-03 2.140129e-03 2.317493e-03 -6.759432e-04 -3.388745e-03 1.572266e-03 3.254536e-03 5.062935e-03 -8.407234e-03
<VARIANCE> 25
 6.522565e+01 5.179830e+01 5.479623e+01 6.479485e+01 7.109444e+01 6.039100e+01 7.194202e+01 5.775749e+01 6.224225e+01 4.594575e+01 4.403819e+01 4.081812e+01 2.077537e+00 2.441435e+00 2.193023e+00 3.023872e+00 3.375996e+00 3.351822e+00 3.277691e+00 3.160807e+00 2.832695e+00 2.672247e+00 2.357477e+00 2.156815e+00 2.856982e+00
<GCONST> 1.073765e+02
<STATE> 4
<MEAN> 25
 7.182795e-01 -3.205489e-01 2.096757e-02 -3.977723e-01 -2.423718e-01 -1.713807e-01 -4.794588e-01 -6.419365e-01 -8.351581e-01 -2.029301e-01 -1.019526e-01 -6.612853e-01 4.575158e-03 7.460060e-03 -2.486196e-03 1.735218e-03 3.499099e-03 2.692461e-03 9.012994e-04 -1.413172e-03 -2.468561e-03 1.567773e-03 3.987628e-03 4.378379e-03 -1.008596e-02
<VARIANCE> 25
 6.462875e+01 5.098734e+01 5.388435e+01 6.646041e+01 7.057771e+01 5.968061e+01 7.185483e+01 5.822491e+01 6.199369e+01 4.587331e+01 4.386100e+01 4.082671e+01 2.026869e+00 2.394097e+00 2.180738e+00 3.022603e+00 3.333384e+00 3.307864e+00 3.248543e+00 3.118848e+00 2.813607e+00 2.676526e+00 2.354721e+00 2.153083e+00 2.828511e+00
<GCONST> 1.072219e+02
<TRANSP> 5
 0.000000e+00 1.000000e+00 0.000000e+00 0.000000e+00 0.000000e+00
 0.000000e+00 7.617940e-01 2.382059e-01 0.000000e+00 0.000000e+00
 0.000000e+00 0.000000e+00 7.617947e-01 2.382053e-01 0.000000e+00
 0.000000e+00 0.000000e+00 0.000000e+00 8.919796e-01 1.080204e-01
 0.000000e+00 0.000000e+00 0.000000e+00 0.000000e+00 0.000000e+00
<ENDHMM>
~h "\340\262\250\340\263\215"
<BEGINHMM>
<NUMSTATES> 5
<STATE> 2
<MEAN> 25
 8.869686e-01 -2.626127e-01 4.535742e-01 -5.395193e-01 -6.257537e-01 -4.744123e-01 -6.062397e-01 -4.164600e-02 -9.101174e-01 -9.891835e-01 -4.454453e-01 -1.510835e-01 6.577206e-03 -3.554038e-03 2.412718e-03 -8.833953e-03 -9.075488e-03 -7.099582e-03 -5.766968e-03 -5.045501e-03 -4.355723e-03 -5.510390e-03 -7.008190e-03 -2.698642e-03 2.090019e-02
<VARIANCE> 25
 6.320883e+01 4.988892e+01 5.583833e+01 5.959132e+01 7.811826e+01 6.198857e+01 6.709901e+01 5.346043e+01 6.706742e+01 5.356974e+01 4.554581e+01 3.601017e+01 2.086398e+00 2.495353e+00 2.227299e+00 2.832572e+00 3.147062e+00 3.285066e+00 3.053066e+00 3.062577e+00 3.102586e+00 2.657802e+00 2.454412e+00 2.021663e+00 3.064965e+00
<GCONST> 1.072673e+02
<STATE> 3
<MEAN> 25
 9.145080e-01 -2.749096e-01 4.620329e-01 -5.749700e-01 -6.614993e-01 -5.019391e-01 -6.287682e-01 -6.409415e-02 -9.282921e-01 -1.012347e+00 -4.717928e-01 -1.627389e-01 5.393772e-03 -2.342048e-03 2.278551e-03 -7.035258e-03 -8.187397e-03 -6.079212e-03 -4.186559e-03 -5.720923e-03 -3.883426e-03 -4.628879e-03 -5.394811e-03 -2.715844e-03 1.780253e-02
<VARIANCE> 25
 6.298475e+01 5.016379e+01 5.611952e+01 5.965958e+01 7.860731e+01 6.215346e+01 6.720322e+01 5.348844e+01 6.696069e+01 5.355738e+01 4.577309e+01 3.614848e+01 2.083362e+00 2.502334e+00 2.231768e+00 2.840031e+00 3.163315e+00 3.294665e+00 3.051729e+00 3.074826e+00 3.099343e+00 2.656398e+00 2.457841e+00 2.024023e+00 3.075989e+00
<GCONST> 1.073156e+02
<STATE> 4
<MEAN> 25
 9.576817e-01 -2.901772e-01 4.675507e-01 -6.439863e-01 -7.228370e-01 -5.669912e-01 -6.675078e-01 -1.325034e-01 -9.614599e-01 -1.047053e+00 -5.263709e-01 -1.931241e-01 4.539149e-03 -6.301862e-04 1.051137e-03 -4.411688e-03 -5.869410e-03 -4.332253e-03 -2.877909e-03 -5.876341e-03 -2.192978e-03 -3.653310e-03 -2.823198e-03 -3.642084e-03 1.264124e-02
<VARIANCE> 25
 6.234458e+01 5.018962e+01 5.623923e+01 6.016729e+01 7.922325e+01 6.211612e+01 6.739003e+01 5.391094e+01 6.648681e+01 5.365762e+01 4.594706e+01 3.646290e+01 2.035439e+00 2.486359e+00 2.235741e+00 2.813867e+00 3.180526e+00 3.299221e+00 3.029228e+00 3.079096e+00 3.071059e+00 2.641396e+00 2.447208e+00 2.025582e+00 3.063874e+00
<GCONST> 1.072828e+02
<TRANSP> 5
 0.000000e+00 1.000000e+00 0.000000e+00 0.000000e+00 0.000000e+00
 0.000000e+00 7.585207e-01 2.414792e-01 0.000000e+00 0.000000e+00
 0.000000e+00 0.000000e+00 7.585191e-01 2.414809e-01 0.000000e+00
 0.000000e+00 0.000000e+00 0.000000e+00 8.874841e-01 1.125159e-01
 0.000000e+00 0.000000e+00 0.000000e+00 0.000000e+00 0.000000e+00
<ENDHMM>
~h "\340\262\271\340\263\215"
<BEGINHMM>
<NUMSTATES> 5
<STATE> 2
<MEAN> 25
 8.499759e-02 3.469744e-01 -2.480443e-01 9.261332e-02 3.617832e-01 4.262634e-01 2.052079e-01 9.715103e-02 -1.926538e-01 -1.420835e-01 2.736013e-01 3.152635e-01 -1.557672e-03 -8.334432e-03 -1.094984e-03 -1.036888e-02 -1.056410e-02 3.613436e-03 -2.451821e-03 -5.069459e-03 -6.472823e-03 -9.723932e-03 -5.202328e-03 -5.144282e-03 2.551822e-02
<VARIANCE> 25
 6.347937e+01 4.645839e+01 4.562812e+01 6.526334e+01 6.978730e+01 5.768771e+01 7.058265e+01 5.237702e+01 6.273905e+01 4.680233e+01 4.177063e+01 3.970383e+01 1.867656e+00 2.242452e+00 1.853907e+00 2.812179e+00 2.891999e+00 3.055795e+00 3.083820e+00 2.659858e+00 2.681187e+00 2.431048e+00 2.212812e+00 1.915959e+00 2.443384e+00
<GCONST> 1.054288e+02
<STATE> 3
<MEAN> 25
 7.146183e-02 3.177040e-01 -2.501973e-01 4.821589e-02 3.136220e-01 4.423865e-01 1.995398e-01 6.707107e-02 -2.197269e-01 -1.828862e-01 2.493258e-01 2.890209e-01 -4.611552e-03 -7.437796e-03 -1.243109e-03 -9.879875e-03 -1.124598e-02 4.832237e-03 6.317673e-05 -5.887364e-03 -5.820306e-03 -8.504796e-03 -5.325442e-03 -5.968800e-03 2.470682e-02
<VARIANCE> 25
 6.406525e+01 4.680072e+01 4.619728e+01 6.527501e+01 7.004212e+01 5.826915e+01 7.071059e+01 5.256011e+01 6.294298e+01 4.691161e+01 4.185639e+01 3.970224e+01 1.908577e+00 2.262087e+00 1.862140e+00 2.820557e+00 2.914024e+00 3.091697e+00 3.098324e+00 2.674686e+00 2.681108e+00 2.434955e+00 2.206575e+00 1.926335e+00 2.436814e+00
<GCONST> 1.055533e+02
<STATE> 4
<MEAN> 25
 4.043419e-02 2.615411e-01 -2.006202e-01 -9.786579e-02 2.082304e-01 5.103451e-01 1.710197e-01 -5.606777e-02 -2.937208e-01 -2.731879e-01 1.705639e-01 1.604598e-01 -5.151984e-03 -6.531215e-03 -1.710456e-03 -9.881159e-03 -1.076875e-02 3.933090e-03 1.079019e-03 -7.424017e-03 -7.144638e-03 -8.934012e-03 -5.247973e-03 -7.858676e-03 2.324194e-02
<VARIANCE> 25
 6.461403e+01 4.738670e+01 4.770871e+01 6.612655e+01 7.016611e+01 5.824311e+01 6.985739e+01 5.307867e+01 6.278900e+01 4.702644e+01 4.177004e+01 3.991216e+01 1.948222e+00 2.272875e+00 1.882331e+00 2.810147e+00 2.941920e+00 3.121179e+00 3.078855e+00 2.704211e+00 2.643304e+00 2.443775e+00 2.199933e+00 1.950087e+00 2.424870e+00
<GCONST> 1.056715e+02
<TRANSP> 5
 0.000000e+00 1.000000e+00 0.000000e+00 0.000000e+00 0.000000e+00
 0.000000e+00 7.580385e-01 2.419615e-01 0.000000e+00 0.000000e+00
 0.000000e+00 0.000000e+00 7.580389e-01 2.419612e-01 0.000000e+00
 0.000000e+00 0.000000e+00 0.000000e+00 8.870847e-01 1.129153e-01
 0.000000e+00 0.000000e+00 0.000000e+00 0.000000e+00 0.000000e+00
<ENDHMM>
~h "\340\262\205"
<BEGINHMM>
<NUMSTATES> 5
<STATE> 2
<MEAN> 25
 4.055059e-01 -4.299822e-01 -2.284443e-01 -2.959053e-01 -1.973252e-01 -2.613197e-01 -4.730298e-01 -1.138453e-01 -2.864993e-02 -3.184218e-01 -5.037161e-01 -2.954223e-01 -5.497759e-04 -2.195095e-04 1.879137e-03 5.400462e-04 -1.521733e-03 -2.194864e-03 3.594984e-04 1.200840e-03 -9.543003e-05 4.601563e-06 -5.600874e-04 -9.627739e-05 4.567689e-03
<VARIANCE> 25
 6.465934e+01 5.155908e+01 5.378565e+01 6.128404e+01 6.987590e+01 6.140403e+01 6.736441e+01 5.287590e+01 5.850311e+01 4.863305e+01 4.734499e+01 3.840332e+01 2.307514e+00 2.468666e+00 2.190975e+00 2.893557e+00 3.105972e+00 3.243689e+00 3.164079e+00 3.062727e+00 2.916817e+00 2.613015e+00 2.468580e+00 2.135456e+00 3.265653e+00
<GCONST> 1.072052e+02
<STATE> 3
<MEAN> 25
 4.034790e-01 -4.302694e-01 -2.201974e-01 -2.935067e-01 -2.037935e-01 -2.702726e-01 -4.716014e-01 -1.089890e-01 -3.026200e-02 -3.186034e-01 -5.053447e-01 -2.964584e-01 -5.089911e-04 9.434830e-05 2.345221e-03 5.187699e-04 -1.844074e-03 -2.274881e-03 3.001909e-04 1.215846e-03 -4.271125e-04 6.322270e-05 -3.619817e-04 -5.356967e-05 3.882473e-03
<VARIANCE> 25
 6.469467e+01 5.158067e+01 5.377122e+01 6.123419e+01 6.986726e+01 6.145075e+01 6.741614e+01 5.287679e+01 5.846582e+01 4.862974e+01 4.734358e+01 3.840583e+01 2.308406e+00 2.470640e+00 2.192915e+00 2.894402e+00 3.105044e+00 3.244991e+00 3.167856e+00 3.065149e+00 2.918054e+00 2.614971e+00 2.469122e+00 2.136515e+00 3.263802e+00
<GCONST> 1.072116e+02
<STATE> 4
<MEAN> 25
 4.001707e-01 -4.310992e-01 -1.990540e-01 -2.878995e-01 -2.237790e-01 -2.882441e-01 -4.636045e-01 -1.081272e-01 -3.891829e-02 -3.257194e-01 -5.009713e-01 -3.001853e-01 -3.955814e-04 7.338751e-04 2.617530e-03 5.092181e-04 -2.061139e-03 -2.202668e-03 2.915200e-04 7.336295e-04 -9.882783e-04 -1.040140e-04 2.679357e-04 1.108363e-04 2.406576e-03
<VARIANCE> 25
 6.411886e+01 5.124047e+01 5.329987e+01 6.149546e+01 6.963644e+01 6.099161e+01 6.688403e+01 5.289230e+01 5.796278e+01 4.875480e+01 4.707420e+01 3.861519e+01 2.264467e+00 2.438299e+00 2.175373e+00 2.863238e+00 3.075337e+00 3.217564e+00 3.133974e+00 3.037748e+00 2.886326e+00 2.606001e+00 2.449546e+00 2.134619e+00 3.217304e+00
<GCONST> 1.070401e+02
<TRANSP> 5
 0.000000e+00 1.000000e+00 0.000000e+00 0.000000e+00 0.000000e+00
 0.000000e+00 7.596712e-01 2.403288e-01 0.000000e+00 0.000000e+00
 0.000000e+00 0.000000e+00 7.596714e-01 2.403286e-01 0.000000e+00
 0.000000e+00 0.000000e+00 0.000000e+00 8.895056e-01 1.104944e-01
 0.000000e+00 0.000000e+00 0.000000e+00 0.000000e+00 0.000000e+00
<ENDHMM>
~h "\340\262\206"
<BEGINHMM>
<NUMSTATES> 5
<STATE> 2
<MEAN> 25
 5.799156e-01 -1.060253e+00 -9.669172e-01 -5.732619e-01 1.509824e-01 5.024621e-01 -3.809149e-01 -4.357018e-01 1.604935e-01 -6.576340e-01 -7.494894e-01 -6.460512e-01 3.770370e-03 -1.653149e-03 -3.743849e-03 -3.808640e-03 2.188070e-03 1.716512e-03 -2.696158e-03 -3.087016e-04 2.371011e-03 3.645486e-05 -3.637485e-03 -1.594319e-03 5.909437e-03
<VARIANCE> 25
 6.344719e+01 5.921014e+01 5.511806e+01 6.528449e+01 6.629187e+01 6.055456e+01 6.661819e+01 5.341640e+01 5.233110e+01 4.924495e+01 4.767064e+01 4.195798e+01 2.209809e+00 2.436764e+00 2.199514e+00 2.855639e+00 3.031770e+00 3.442680e+00 3.001067e+00 3.093820e+00 2.767409e+00 2.501037e+00 2.452051e+00 2.143541e+00 3.113854e+00
<GCONST> 1.071213e+02
<STATE> 3
<MEAN> 25
 5.993099e-01 -1.065478e+00 -9.824845e-01 -5.910658e-01 1.555712e-01 5.077862e-01 -3.925446e-01 -4.358370e-01 1.678714e-01 -6.571678e-01 -7.675973e-01 -6.507694e-01 3.829446e-03 6.611447e-05 -2.834859e-03 -3.239814e-03 1.499499e-03 1.238805e-03 -2.142892e-03 6.143978e-04 1.847042e-03 7.602170e-04 -3.051179e-03 -7.879182e-04 2.654365e-03
<VARIANCE> 25
 6.335790e+01 5.925586e+01 5.501933e+01 6.529929e+01 6.633362e+01 6.072461e+01 6.683702e+01 5.342442e+01 5.230468e+01 4.935207e+01 4.780582e+01 4.185866e+01 2.207756e+00 2.438427e+00 2.197407e+00 2.862046e+00 3.032597e+00 3.445417e+00 3.004511e+00 3.093442e+00 2.765159e+00 2.502580e+00 2.453494e+00 2.144532e+00 3.106211e+00
<GCONST> 1.071296e+02
<STATE> 4
<MEAN> 25
 6.865609e-01 -1.080297e+00 -1.009162e+00 -6.663519e-01 1.239947e-01 4.695386e-01 -4.557521e-01 -4.702730e-01 1.229539e-01 -6.768908e-01 -8.453587e-01 -6.773682e-01 3.381146e-03 2.848574e-03 -1.840474e-03 -1.373701e-03 4.840810e-04 2.469168e-04 -1.057920e-03 1.282062e-03 8.059063e-04 1.268309e-03 -1.874120e-03 6.005571e-04 -1.547515e-03
<VARIANCE> 25
 6.288882e+01 5.915470e+01 5.500951e+01 6.619379e+01 6.621222e+01 6.059391e+01 6.671162e+01 5.340726e+01 5.192727e+01 4.950811e+01 4.826538e+01 4.165813e+01 2.164638e+00 2.420506e+00 2.190504e+00 2.857451e+00 3.022170e+00 3.436846e+00 2.989455e+00 3.078861e+00 2.735841e+00 2.509514e+00 2.444223e+00 2.142421e+00 3.067949e+00
<GCONST> 1.070558e+02
<TRANSP> 5
 0.000000e+00 1.000000e+00 0.000000e+00 0.000000e+00 0.000000e+00
 0.000000e+00 7.623990e-01 2.376010e-01 0.000000e+00 0.000000e+00
 0.000000e+00 0.000000e+00 7.624003e-01 2.375998e-01 0.000000e+00
 0.000000e+00 0.000000e+00 0.000000e+00 8.925608e-01 1.074392e-01
 0.000000e+00 0.000000e+00 0.000000e+00 0.000000e+00 0.000000e+00
<ENDHMM>
~h "\340\262\207"
<BEGINHMM>
<NUMSTATES> 5
<STATE> 2
<MEAN> 25
 -4.282069e-01 4.985339e-01 6.555573e-01 3.208959e-02 -1.873478e-01 -2.697503e-02 1.956662e-01 -1.886221e-01 -3.074912e-01 1.499158e-01 1.289826e-01 1.579425e-01 -4.708229e-03 2.274997e-03 -1.355841e-03 1.978161e-03 6.558051e-03 1.580485e-03 3.486150e-03 -1.290311e-03 5.825954e-04 2.635812e-04 1.757661e-03 -4.281058e-04 -1.866324e-03
<VARIANCE> 25
 6.372726e+01 4.605934e+01 5.825220e+01 6.400180e+01 7.242742e+01 5.805255e+01 6.583847e+01 5.626019e+01 6.065241e+01 4.550927e+01 4.406651e+01 3.761261e+01 2.183067e+00 2.192311e+00 2.171559e+00 2.846950e+00 3.094691e+00 3.122999e+00 3.051780e+00 2.919679e+00 2.798447e+00 2.528229e+00 2.356848e+00 2.084027e+00 2.882071e+00
<GCONST> 1.065022e+02
<STATE> 3
<MEAN> 25
 -4.467032e-01 5.060444e-01 6.525794e-01 3.714318e-02 -1.647484e-01 -2.444283e-02 2.073779e-01 -1.960770e-01 -3.060764e-01 1.480950e-01 1.338624e-01 1.559252e-01 -4.794400e-03 1.586462e-03 -1.804382e-03 2.060615e-03 6.365033e-03 1.479376e-03 3.523904e-03 -9.342586e-04 1.419418e-03 -1.200693e-06 1.627376e-03 -8.175851e-05 -1.123904e-03
<VARIANCE> 25
 6.399943e+01 4.600798e+01 5.827636e+01 6.407321e+01 7.237981e+01 5.802617e+01 6.572540e+01 5.626316e+01 6.069224e+01 4.556927e+01 4.405096e+01 3.758143e+01 2.190352e+00 2.190028e+00 2.171992e+00 2.845276e+00 3.094872e+00 3.120052e+00 3.050157e+00 2.920655e+00 2.797416e+00 2.526171e+00 2.356096e+00 2.079689e+00 2.881155e+00
<GCONST> 1.065018e+02
<STATE> 4
<MEAN> 25
 -4.476256e-01 4.848020e-01 6.683390e-01 -4.306607e-03 -1.774904e-01 -7.276805e-02 1.792670e-01 -2.322498e-01 -3.367105e-01 1.218613e-01 1.082652e-01 1.204316e-01 -3.873639e-03 9.827456e-05 -1.134550e-03 1.004890e-03 4.799229e-03 4.656354e-04 2.519597e-03 -9.852134e-04 1.064490e-03 -8.551999e-04 9.313310e-04 -5.206652e-05 1.953131e-03
<VARIANCE> 25
 6.363984e+01 4.541664e+01 5.801152e+01 6.488947e+01 7.236095e+01 5.768915e+01 6.501340e+01 5.629131e+01 6.068019e+01 4.549639e+01 4.391732e+01 3.772701e+01 2.188022e+00 2.172260e+00 2.167851e+00 2.843185e+00 3.083894e+00 3.101949e+00 3.034805e+00 2.906414e+00 2.784460e+00 2.521298e+00 2.353043e+00 2.080524e+00 2.873361e+00
<GCONST> 1.064325e+02
<TRANSP> 5
 0.000000e+00 1.000000e+00 0.000000e+00 0.000000e+00 0.000000e+00
 0.000000e+00 7.628114e-01 2.371887e-01 0.000000e+00 0.000000e+00
 0.000000e+00 0.000000e+00 7.628103e-01 2.371897e-01 0.000000e+00
 0.000000e+00 0.000000e+00 0.000000e+00 8.932705e-01 1.067295e-01
 0.000000e+00 0.000000e+00 0.000000e+00 0.000000e+00 0.000000e+00
<ENDHMM>
~h "\340\262\210"
<BEGINHMM>
<NUMSTATES> 5
<STATE> 2
<MEAN> 25
 -1.404264e+00 1.268363e+00 2.077438e+00 6.476765e-01 1.229887e-01 8.374764e-01 5.293158e-01 -6.401284e-02 3.928589e-02 4.822754e-01 4.930675e-01 2.979906e-01 -9.686252e-03 6.859703e-03 1.059752e-02 3.891479e-03 -1.083571e-03 -2.028212e-03 1.140461e-03 -7.045660e-03 -7.378805e-03 1.204516e-02 -6.261090e-03 2.695105e-03 8.788208e-03
<VARIANCE> 25
 5.727652e+01 3.772821e+01 7.277384e+01 6.361681e+01 7.195438e+01 4.524424e+01 6.981985e+01 5.334540e+01 5.213471e+01 3.815012e+01 3.858393e+01 3.676772e+01 1.793562e+00 1.697415e+00 2.109398e+00 2.393489e+00 2.765288e+00 2.636023e+00 2.730600e+00 2.430019e+00 2.296634e+00 2.101581e+00 1.979312e+00 1.797990e+00 2.398762e+00
<GCONST> 1.035589e+02
<STATE> 3
<MEAN> 25
 -1.452328e+00 1.294299e+00 2.119889e+00 6.643900e-01 1.233680e-01 8.326153e-01 5.388075e-01 -8.220952e-02 1.869206e-02 5.429232e-01 4.731257e-01 3.174381e-01 -8.932313e-03 4.642028e-03 1.041085e-02 9.531966e-04 -2.617071e-03 -3.641257e-03 -4.583318e-04 -6.075522e-03 -6.997651e-03 1.241268e-02 -6.229748e-03 2.818436e-03 1.964935e-02
<VARIANCE> 25
 5.710192e+01 3.759103e+01 7.290875e+01 6.374487e+01 7.182925e+01 4.491547e+01 6.934135e+01 5.345211e+01 5.232229e+01 3.757578e+01 3.848093e+01 3.639242e+01 1.819371e+00 1.708177e+00 2.105758e+00 2.411275e+00 2.790551e+00 2.627391e+00 2.722869e+00 2.425148e+00 2.313784e+00 2.090043e+00 1.976458e+00 1.793463e+00 2.457227e+00
<GCONST> 1.035669e+02
<STATE> 4
<MEAN> 25
 -1.494293e+00 1.295402e+00 2.080063e+00 6.584926e-01 1.348208e-01 8.063568e-01 5.167507e-01 -8.729775e-02 2.511044e-02 6.208258e-01 4.436273e-01 3.728533e-01 -1.057321e-02 3.566899e-03 1.007606e-02 -1.724841e-03 -3.017727e-03 -3.981204e-03 -1.822238e-03 -4.720398e-03 -4.362234e-03 1.368208e-02 -4.356366e-03 6.062281e-03 3.131671e-02
<VARIANCE> 25
 5.654716e+01 3.669180e+01 7.224688e+01 6.383712e+01 7.121322e+01 4.412967e+01 6.850648e+01 5.486926e+01 5.269296e+01 3.750029e+01 3.872696e+01 3.603675e+01 1.825953e+00 1.705584e+00 2.086086e+00 2.433494e+00 2.779729e+00 2.610072e+00 2.716937e+00 2.420584e+00 2.316770e+00 2.099739e+00 1.995868e+00 1.798716e+00 2.525137e+00
<GCONST> 1.035479e+02
<TRANSP> 5
 0.000000e+00 1.000000e+00 0.000000e+00 0.000000e+00 0.000000e+00
 0.000000e+00 7.663409e-01 2.336591e-01 0.000000e+00 0.000000e+00
 0.000000e+00 0.000000e+00 7.663410e-01 2.336590e-01 0.000000e+00
 0.000000e+00 0.000000e+00 0.000000e+00 8.972046e-01 1.027954e-01
 0.000000e+00 0.000000e+00 0.000000e+00 0.000000e+00 0.000000e+00
<ENDHMM>
~h "\340\262\211"
<BEGINHMM>
<NUMSTATES> 5
<STATE> 2
<MEAN> 25
 2.430636e-02 7.229066e-01 -1.789948e-01 1.692787e-01 5.039735e-01 3.327392e-01 2.424811e-01 -7.530956e-02 -6.069048e-02 5.131296e-01 8.711739e-01 3.597741e-01 -5.334449e-03 8.551750e-04 -2.002073e-03 1.961334e-03 4.310284e-03 1.097470e-02 5.211913e-03 2.428034e-03 -6.529313e-04 3.270060e-03 4.964801e-03 3.210492e-03 -4.948109e-03
<VARIANCE> 25
 6.421745e+01 4.093814e+01 4.431907e+01 6.445897e+01 6.451737e+01 5.455371e+01 6.897908e+01 5.441729e+01 6.253543e+01 4.592623e+01 4.011899e+01 3.677892e+01 1.884765e+00 1.974644e+00 1.885774e+00 2.723702e+00 2.803231e+00 2.866480e+00 3.134492e+00 2.684956e+00 2.806480e+00 2.599674e+00 2.279458e+00 1.933376e+00 2.667147e+00
<GCONST> 1.050509e+02
<STATE> 3
<MEAN> 25
 -1.299341e-03 7.266174e-01 -1.875179e-01 1.812319e-01 5.231764e-01 3.789651e-01 2.682311e-01 -6.143498e-02 -5.943531e-02 5.291228e-01 8.914829e-01 3.748659e-01 -5.550176e-03 3.256293e-04 -2.239190e-03 2.002899e-03 3.913627e-03 1.050211e-02 5.585543e-03 2.932727e-03 -1.984368e-04 3.248199e-03 4.173535e-03 2.820861e-03 -3.518349e-03
<VARIANCE> 25
 6.405647e+01 4.085623e+01 4.423001e+01 6.448903e+01 6.447060e+01 5.427511e+01 6.898019e+01 5.441051e+01 6.257361e+01 4.582901e+01 4.015965e+01 3.678437e+01 1.882292e+00 1.968856e+00 1.880254e+00 2.720227e+00 2.801001e+00 2.862208e+00 3.125492e+00 2.679539e+00 2.807237e+00 2.591218e+00 2.277045e+00 1.932614e+00 2.672914e+00
<GCONST> 1.050206e+02
<STATE> 4
<MEAN> 25
 2.744874e-03 6.996036e-01 -1.925023e-01 1.667569e-01 4.942355e-01 4.099307e-01 2.780784e-01 -5.508193e-02 -8.413834e-02 4.973237e-01 8.734845e-01 3.563228e-01 -6.414544e-03 -7.578020e-04 -1.758764e-03 3.037176e-03 3.519813e-03 9.048814e-03 5.931604e-03 3.682290e-03 2.070859e-03 4.059924e-03 3.153228e-03 2.811576e-03 -3.437709e-03
<VARIANCE> 25
 6.332631e+01 4.036363e+01 4.368996e+01 6.519386e+01 6.423660e+01 5.323523e+01 6.797060e+01 5.437568e+01 6.217860e+01 4.553082e+01 3.981030e+01 3.679979e+01 1.854815e+00 1.931628e+00 1.860180e+00 2.708545e+00 2.775287e+00 2.830201e+00 3.087673e+00 2.650505e+00 2.782246e+00 2.569271e+00 2.264041e+00 1.928882e+00 2.644651e+00
<GCONST> 1.048080e+02
<TRANSP> 5
 0.000000e+00 1.000000e+00 0.000000e+00 0.000000e+00 0.000000e+00
 0.000000e+00 7.624827e-01 2.375173e-01 0.000000e+00 0.000000e+00
 0.000000e+00 0.000000e+00 7.624820e-01 2.375180e-01 0.000000e+00
 0.000000e+00 0.000000e+00 0.000000e+00 8.929459e-01 1.070540e-01
 0.000000e+00 0.000000e+00 0.000000e+00 0.000000e+00 0.000000e+00
<ENDHMM>
~h "\340\262\212"
<BEGINHMM>
<NUMSTATES> 5
<STATE> 2
<MEAN> 25
 5.091870e-01 6.024851e-01 2.223182e-02 -5.814344e-01 -1.527909e-01 1.719382e-01 -2.390808e-01 -9.017738e-01 -7.043308e-01 1.707370e-01 3.006791e-01 -7.388875e-03 1.847148e-03 -3.235745e-03 2.772625e-03 -4.452933e-03 -4.384299e-03 -4.205605e-03 -7.843621e-03 -1.289389e-03 -1.992936e-03 -2.304557e-03 -7.778406e-03 -2.607518e-03 1.413498e-02
<VARIANCE> 25
 7.335091e+01 4.032241e+01 5.149152e+01 7.357348e+01 7.006681e+01 5.641060e+01 7.277063e+01 5.909665e+01 7.260517e+01 4.891237e+01 4.445061e+01 3.674958e+01 2.180459e+00 2.044905e+00 2.137639e+00 3.168936e+00 3.142570e+00 3.126092e+00 3.239169e+00 2.814136e+00 3.050328e+00 2.731244e+00 2.376459e+00 2.041839e+00 2.932351e+00
<GCONST> 1.070790e+02
<STATE> 3
<MEAN> 25
 5.233568e-01 5.868075e-01 3.233752e-02 -6.006758e-01 -1.726882e-01 1.530703e-01 -2.730509e-01 -9.068997e-01 -7.146995e-01 1.549449e-01 2.675009e-01 -2.345437e-02 3.485772e-03 -5.091199e-03 2.056943e-03 -4.582227e-03 -5.339253e-03 -5.155725e-03 -8.621958e-03 -2.104114e-04 -1.587342e-03 -4.087529e-03 -8.987351e-03 -4.486176e-03 1.621186e-02
<VARIANCE> 25
 7.344330e+01 4.048793e+01 5.169531e+01 7.356663e+01 7.026778e+01 5.639928e+01 7.304099e+01 5.897951e+01 7.275546e+01 4.910278e+01 4.443158e+01 3.689968e+01 2.189174e+00 2.051122e+00 2.136257e+00 3.180632e+00 3.150586e+00 3.138038e+00 3.251580e+00 2.813304e+00 3.065654e+00 2.734741e+00 2.370762e+00 2.053099e+00 2.943861e+00
<GCONST> 1.071355e+02
<STATE> 4
<MEAN> 25
 6.253681e-01 5.269854e-01 7.027454e-02 -7.025553e-01 -2.837915e-01 1.097894e-01 -3.703527e-01 -9.189822e-01 -8.181451e-01 5.906695e-02 1.860685e-01 -1.197222e-01 6.451909e-03 -5.179564e-03 1.570719e-03 -6.060748e-03 -5.580042e-03 -3.994732e-03 -9.454391e-03 -1.050711e-03 -4.643431e-03 -7.468477e-03 -9.527201e-03 -7.128319e-03 1.792713e-02
<VARIANCE> 25
 7.322823e+01 4.036537e+01 5.167889e+01 7.426957e+01 7.076331e+01 5.612415e+01 7.385076e+01 5.891488e+01 7.375761e+01 4.964630e+01 4.410813e+01 3.761984e+01 2.171315e+00 2.044657e+00 2.121342e+00 3.198875e+00 3.158110e+00 3.133781e+00 3.270372e+00 2.806721e+00 3.109119e+00 2.739861e+00 2.355643e+00 2.067118e+00 2.934335e+00
<GCONST> 1.071924e+02
<TRANSP> 5
 0.000000e+00 1.000000e+00 0.000000e+00 0.000000e+00 0.000000e+00
 0.000000e+00 7.606762e-01 2.393238e-01 0.000000e+00 0.000000e+00
 0.000000e+00 0.000000e+00 7.606762e-01 2.393238e-01 0.000000e+00
 0.000000e+00 0.000000e+00 0.000000e+00 8.895614e-01 1.104386e-01
 0.000000e+00 0.000000e+00 0.000000e+00 0.000000e+00 0.000000e+00
<ENDHMM>
~h "\340\262\213"
<BEGINHMM>
<NUMSTATES> 5
<STATE> 2
<MEAN> 25
 -2.393740e-01 5.257099e-01 9.777718e-01 2.124337e+00 -8.187862e-01 -9.558228e-01 1.223764e+00 2.875389e-01 -2.361544e-01 -8.090603e-01 4.417197e-01 1.000304e+00 6.980056e-03 -1.551216e-02 2.374820e-03 -1.952712e-02 -4.687043e-02 3.298142e-03 1.786881e-02 7.320346e-03 -1.231339e-02 -5.564637e-03 -8.607553e-03 2.063297e-02 2.745751e-02
<VARIANCE> 25
 6.677785e+01 3.681178e+01 4.426836e+01 6.157671e+01 5.697081e+01 5.042542e+01 6.286781e+01 4.170247e+01 4.180318e+01 4.492736e+01 4.274915e+01 3.429823e+01 2.661262e+00 2.271634e+00 1.954641e+00 2.451464e+00 2.864138e+00 2.686314e+00 2.928241e+00 2.356728e+00 2.362114e+00 2.223008e+00 2.502072e+00 2.006174e+00 3.011322e+00
<GCONST> 1.040402e+02
<STATE> 3
<MEAN> 25
 -2.406487e-01 5.003574e-01 9.622320e-01 2.065572e+00 -9.280341e-01 -9.661837e-01 1.263536e+00 2.801710e-01 -2.480313e-01 -7.707297e-01 4.409348e-01 1.030118e+00 -4.228230e-03 -4.959033e-03 -8.016801e-03 -1.205900e-02 -2.114448e-02 4.570058e-04 1.057451e-02 2.031112e-04 1.742958e-03 1.332054e-02 3.281268e-03 9.293189e-03 2.345478e-02
<VARIANCE> 25
 6.719197e+01 3.633984e+01 4.469886e+01 6.135867e+01 5.735874e+01 4.987208e+01 6.279548e+01 4.218961e+01 4.223603e+01 4.503555e+01 4.204050e+01 3.454037e+01 2.688072e+00 2.264265e+00 1.959405e+00 2.463531e+00 2.872922e+00 2.671959e+00 2.897023e+00 2.344170e+00 2.403008e+00 2.221496e+00 2.548990e+00 1.993367e+00 3.088799e+00
<GCONST> 1.040987e+02
<STATE> 4
<MEAN> 25
 -2.303640e-01 5.963036e-01 8.744375e-01 1.979958e+00 -8.622891e-01 -9.664319e-01 1.114145e+00 1.631758e-01 -1.969661e-01 -6.884472e-01 4.678641e-01 9.710085e-01 -1.546604e-02 8.902254e-03 -1.536470e-02 -3.978474e-03 5.881319e-03 9.880355e-03 3.498564e-03 -1.034287e-03 8.715940e-03 1.814719e-02 2.019368e-02 5.035763e-03 4.258546e-02
<VARIANCE> 25
 6.863597e+01 3.493889e+01 4.580719e+01 6.246646e+01 5.804252e+01 4.926729e+01 6.338647e+01 4.218544e+01 4.318496e+01 4.627909e+01 4.184812e+01 3.570404e+01 2.805148e+00 2.281603e+00 1.981269e+00 2.499109e+00 2.921454e+00 2.657296e+00 2.970155e+00 2.329040e+00 2.492285e+00 2.259988e+00 2.585358e+00 2.027119e+00 3.417772e+00
<GCONST> 1.045012e+02
<TRANSP> 5
 0.000000e+00 1.000000e+00 0.000000e+00 0.000000e+00 0.000000e+00
 0.000000e+00 7.528866e-01 2.471133e-01 0.000000e+00 0.000000e+00
 0.000000e+00 0.000000e+00 7.528865e-01 2.471134e-01 0.000000e+00
 0.000000e+00 0.000000e+00 0.000000e+00 8.792796e-01 1.207204e-01
 0.000000e+00 0.000000e+00 0.000000e+00 0.000000e+00 0.000000e+00
<ENDHMM>
~h "\340\262\216"
<BEGINHMM>
<NUMSTATES> 5
<STATE> 2
<MEAN> 25
 -7.877601e-01 3.576042e-01 7.897477e-01 6.747295e-01 -5.521684e-01 6.610841e-02 1.225093e+00 9.872448e-01 -4.793553e-03 4.803303e-01 9.215567e-01 4.619579e-01 1.760996e-03 2.735330e-03 2.186808e-03 -2.416317e-03 -2.048871e-03 -4.495610e-03 -6.154058e-03 -6.429499e-03 -5.426900e-03 2.319635e-03 8.682480e-04 5.688256e-04 8.535064e-03
<VARIANCE> 25
 5.395383e+01 4.397061e+01 4.673466e+01 6.088202e+01 8.582581e+01 5.386171e+01 6.437549e+01 4.767319e+01 6.146513e+01 4.614530e+01 3.806475e+01 3.780366e+01 1.744020e+00 1.972149e+00 1.792073e+00 2.544075e+00 2.907351e+00 2.748446e+00 2.796335e+00 2.674953e+00 2.626812e+00 2.332316e+00 2.114043e+00 1.910329e+00 2.648103e+00
<GCONST> 1.043871e+02
<STATE> 3
<MEAN> 25
 -7.801301e-01 3.688355e-01 7.960941e-01 6.655571e-01 -5.591097e-01 4.941307e-02 1.199684e+00 9.612451e-01 -2.263047e-02 4.913624e-01 9.259583e-01 4.639359e-01 2.431815e-03 1.982435e-03 1.478654e-03 -3.234692e-03 -1.460528e-03 -4.325656e-03 -6.903908e-03 -6.428674e-03 -4.323360e-03 1.425332e-03 -1.147087e-03 -1.962646e-05 9.675195e-03
<VARIANCE> 25
 5.394141e+01 4.393523e+01 4.686657e+01 6.095885e+01 8.599240e+01 5.378341e+01 6.424358e+01 4.768616e+01 6.164861e+01 4.608606e+01 3.805147e+01 3.784122e+01 1.741419e+00 1.972184e+00 1.795991e+00 2.540173e+00 2.908224e+00 2.742684e+00 2.795459e+00 2.678854e+00 2.636311e+00 2.331303e+00 2.113196e+00 1.906379e+00 2.640995e+00
<GCONST> 1.043878e+02
<STATE> 4
<MEAN> 25
 -7.343296e-01 3.531810e-01 7.746689e-01 6.107652e-01 -5.598239e-01 3.245508e-02 1.110669e+00 9.040384e-01 -3.048765e-02 4.897700e-01 8.705735e-01 4.407658e-01 2.400729e-03 1.198001e-03 -3.532749e-04 -2.720016e-03 1.078597e-03 -2.289916e-03 -6.069111e-03 -4.864319e-03 -1.109756e-03 6.977724e-04 -3.056146e-03 -5.719987e-04 7.389428e-03
<VARIANCE> 25
 5.336803e+01 4.346854e+01 4.646026e+01 6.161232e+01 8.561958e+01 5.334303e+01 6.323167e+01 4.742780e+01 6.139661e+01 4.575685e+01 3.777837e+01 3.790948e+01 1.696598e+00 1.931286e+00 1.781264e+00 2.507362e+00 2.864118e+00 2.703403e+00 2.773718e+00 2.650259e+00 2.620392e+00 2.322108e+00 2.093885e+00 1.910099e+00 2.585649e+00
<GCONST> 1.041629e+02
<TRANSP> 5
 0.000000e+00 1.000000e+00 0.000000e+00 0.000000e+00 0.000000e+00
 0.000000e+00 7.616279e-01 2.383721e-01 0.000000e+00 0.000000e+00
 0.000000e+00 0.000000e+00 7.616273e-01 2.383727e-01 0.000000e+00
 0.000000e+00 0.000000e+00 0.000000e+00 8.915518e-01 1.084482e-01
 0.000000e+00 0.000000e+00 0.000000e+00 0.000000e+00 0.000000e+00
<ENDHMM>
~h "\340\262\217"
<BEGINHMM>
<NUMSTATES> 5
<STATE> 2
<MEAN> 25
 -4.777523e-01 -3.107467e-01 1.444087e+00 -4.481253e-01 -1.191157e+00 -5.046525e-01 -2.580245e-01 2.418394e-01 -3.109536e-01 -2.243850e-01 -3.245254e-01 -3.138057e-01 1.355560e-03 -3.024802e-03 1.177458e-02 -6.563500e-03 -1.421499e-02 -3.384574e-04 4.015405e-04 -4.391315e-03 -9.553992e-03 2.451655e-04 2.361174e-03 -3.796443e-03 9.024995e-03
<VARIANCE> 25
 5.690001e+01 4.567361e+01 6.748440e+01 6.460745e+01 8.928622e+01 5.545591e+01 6.133961e+01 4.756251e+01 6.010300e+01 4.667835e+01 4.169646e+01 3.943416e+01 2.079812e+00 2.198109e+00 2.021686e+00 2.633502e+00 2.977563e+00 2.741632e+00 2.935403e+00 2.673020e+00 2.599793e+00 2.380369e+00 2.255238e+00 1.963305e+00 3.116350e+00
<GCONST> 1.058193e+02
<STATE> 3
<MEAN> 25
 -4.712179e-01 -3.243285e-01 1.475406e+00 -4.673383e-01 -1.234892e+00 -5.011656e-01 -2.522750e-01 2.248147e-01 -3.389876e-01 -2.200462e-01 -3.110456e-01 -3.269925e-01 1.819370e-03 -3.426552e-03 7.492897e-03 -5.039775e-03 -1.046361e-02 9.256506e-04 1.088331e-03 -4.946114e-03 -6.967618e-03 1.193427e-03 3.097234e-03 -3.290986e-03 6.933977e-03
<VARIANCE> 25
 5.703326e+01 4.576868e+01 6.792824e+01 6.486118e+01 8.992706e+01 5.544215e+01 6.134177e+01 4.775975e+01 6.030383e+01 4.671868e+01 4.181824e+01 3.960024e+01 2.084464e+00 2.197802e+00 2.030649e+00 2.635113e+00 2.986678e+00 2.742284e+00 2.927507e+00 2.683290e+00 2.613928e+00 2.384253e+00 2.256906e+00 1.963221e+00 3.108302e+00
<GCONST> 1.058734e+02
<STATE> 4
<MEAN> 25
 -4.739338e-01 -2.917507e-01 1.341426e+00 -3.672372e-01 -1.084366e+00 -3.742329e-01 -1.928227e-01 2.072458e-01 -2.515526e-01 -1.388584e-01 -1.977804e-01 -2.878831e-01 3.483895e-03 -5.136348e-03 -6.237465e-04 -2.108744e-03 -3.546538e-03 1.822766e-03 1.733962e-03 -4.128090e-03 -1.022377e-03 8.043435e-04 2.556011e-03 -1.700500e-03 4.314701e-03
<VARIANCE> 25
 5.575556e+01 4.486887e+01 6.737726e+01 6.458102e+01 9.026287e+01 5.522969e+01 6.015123e+01 4.833579e+01 5.987569e+01 4.655665e+01 4.088842e+01 4.030766e+01 1.998133e+00 2.115954e+00 1.999108e+00 2.583547e+00 2.957006e+00 2.699203e+00 2.866182e+00 2.641165e+00 2.598475e+00 2.376051e+00 2.233456e+00 1.962846e+00 3.013979e+00
<GCONST> 1.055660e+02
<TRANSP> 5
 0.000000e+00 1.000000e+00 0.000000e+00 0.000000e+00 0.000000e+00
 0.000000e+00 7.677789e-01 2.322211e-01 0.000000e+00 0.000000e+00
 0.000000e+00 0.000000e+00 7.677771e-01 2.322229e-01 0.000000e+00
 0.000000e+00 0.000000e+00 0.000000e+00 8.994196e-01 1.005804e-01
 0.000000e+00 0.000000e+00 0.000000e+00 0.000000e+00 0.000000e+00
<ENDHMM>
~h "\340\262\220"
<BEGINHMM>
<NUMSTATES> 5
<STATE> 2
<MEAN> 25
 -4.863834e-01 2.713902e-01 4.018626e-01 5.474485e-01 1.172428e-01 2.623450e-01 -1.252759e-01 4.637325e-01 -2.191832e-01 2.345284e-01 3.716576e-01 3.182592e-01 -5.845354e-03 6.298815e-03 5.111302e-03 9.557076e-03 -9.459087e-04 -8.436446e-03 8.677662e-03 1.359539e-03 8.789392e-03 -5.188761e-03 6.923588e-03 4.394702e-03 -5.532362e-03
<VARIANCE> 25
 4.947303e+01 4.897855e+01 4.917256e+01 5.601734e+01 7.327505e+01 4.887955e+01 5.401167e+01 4.860605e+01 5.487563e+01 4.350620e+01 4.879557e+01 3.401012e+01 2.025781e+00 2.148822e+00 2.111195e+00 2.318891e+00 2.795190e+00 2.792256e+00 2.710982e+00 2.928545e+00 2.598549e+00 2.512467e+00 2.551366e+00 1.836364e+00 2.887689e+00
<GCONST> 1.045764e+02
<STATE> 3
<MEAN> 25
 -5.176535e-01 2.937910e-01 4.335852e-01 5.920413e-01 1.094150e-01 2.231970e-01 -9.100713e-02 4.691953e-01 -1.763773e-01 2.151997e-01 4.095968e-01 3.359911e-01 -6.261843e-03 4.553716e-03 8.169640e-03 7.253816e-03 -3.748871e-03 -1.064270e-02 6.439622e-03 -1.553771e-03 7.934076e-03 -7.056382e-03 6.282006e-03 2.665659e-03 2.158616e-03
<VARIANCE> 25
 4.974764e+01 4.939451e+01 4.902460e+01 5.598874e+01 7.266541e+01 4.874553e+01 5.393406e+01 4.833327e+01 5.478030e+01 4.366865e+01 4.835696e+01 3.382829e+01 2.057532e+00 2.180535e+00 2.122753e+00 2.336895e+00 2.790679e+00 2.799525e+00 2.707278e+00 2.921526e+00 2.599228e+00 2.536098e+00 2.569989e+00 1.833406e+00 2.916771e+00
<GCONST> 1.046222e+02
<STATE> 4
<MEAN> 25
 -5.790204e-01 3.503269e-01 4.024938e-01 7.720293e-01 1.980808e-01 2.136949e-01 3.506330e-02 5.130976e-01 3.710827e-03 2.898409e-01 5.497226e-01 3.984825e-01 -4.100016e-03 -3.415497e-03 1.105678e-02 -3.871538e-03 -8.672710e-03 -1.487580e-02 4.871535e-03 -7.548278e-03 -6.786000e-05 -8.702496e-03 -8.056890e-04 -3.933959e-03 2.145025e-02
<VARIANCE> 25
 4.805741e+01 4.957027e+01 4.764486e+01 5.661118e+01 7.174899e+01 4.836258e+01 5.172533e+01 4.687649e+01 5.193874e+01 4.431722e+01 4.727330e+01 3.373185e+01 1.960839e+00 2.200077e+00 2.108834e+00 2.341409e+00 2.744384e+00 2.774285e+00 2.668716e+00 2.840591e+00 2.499118e+00 2.646998e+00 2.565675e+00 1.822240e+00 2.945239e+00
<GCONST> 1.043100e+02
<TRANSP> 5
 0.000000e+00 1.000000e+00 0.000000e+00 0.000000e+00 0.000000e+00
 0.000000e+00 7.753582e-01 2.246419e-01 0.000000e+00 0.000000e+00
 0.000000e+00 0.000000e+00 7.753580e-01 2.246420e-01 0.000000e+00
 0.000000e+00 0.000000e+00 0.000000e+00 9.086375e-01 9.136252e-02
 0.000000e+00 0.000000e+00 0.000000e+00 0.000000e+00 0.000000e+00
<ENDHMM>
~h "\340\262\222"
<BEGINHMM>
<NUMSTATES> 5
<STATE> 2
<MEAN> 25
 2.706088e-01 3.176436e-01 -2.317304e-01 3.000347e-02 3.302954e-01 -2.123217e-02 4.683814e-02 -1.287957e-01 -2.539870e-01 1.588120e-01 2.854232e-01 7.179814e-02 -1.076959e-02 1.790009e-03 -4.295139e-03 7.408819e-03 1.239382e-02 1.070253e-02 5.225327e-03 8.133101e-03 1.269842e-02 2.528062e-03 8.060253e-03 2.540092e-03 -1.706148e-02
<VARIANCE> 25
 6.736744e+01 4.215564e+01 4.484344e+01 6.997173e+01 6.471844e+01 5.824201e+01 6.456857e+01 5.263142e+01 5.853158e+01 4.911325e+01 4.272300e+01 3.813498e+01 1.973443e+00 2.213159e+00 2.058047e+00 3.087516e+00 3.128798e+00 3.062047e+00 3.098312e+00 2.838323e+00 2.697439e+00 2.749645e+00 2.322548e+00 2.102287e+00 2.655301e+00
<GCONST> 1.059981e+02
<STATE> 3
<MEAN> 25
 2.292402e-01 3.215677e-01 -2.447201e-01 5.906664e-02 3.802923e-01 2.282222e-02 6.800006e-02 -9.680729e-02 -2.091264e-01 1.676071e-01 3.188093e-01 8.275300e-02 -1.000712e-02 1.192584e-03 -3.211603e-03 6.501299e-03 1.238225e-02 1.056976e-02 4.719579e-03 6.640623e-03 1.015374e-02 2.786563e-03 7.836347e-03 2.755623e-03 -1.574633e-02
<VARIANCE> 25
 6.706863e+01 4.201213e+01 4.479427e+01 6.970280e+01 6.464179e+01 5.806060e+01 6.439644e+01 5.257166e+01 5.822864e+01 4.889393e+01 4.251830e+01 3.815361e+01 1.957233e+00 2.197845e+00 2.053162e+00 3.073227e+00 3.120941e+00 3.058470e+00 3.087830e+00 2.823361e+00 2.676136e+00 2.746950e+00 2.314785e+00 2.102288e+00 2.648553e+00
<GCONST> 1.059139e+02
<STATE> 4
<MEAN> 25
 2.024819e-01 2.647304e-01 -2.874283e-01 6.189406e-02 4.227285e-01 1.045846e-01 6.135720e-02 -1.002818e-01 -1.742046e-01 8.813578e-02 3.486972e-01 6.591964e-02 -6.607019e-03 1.060373e-03 -9.872008e-05 5.701554e-03 9.964570e-03 7.657636e-03 2.282231e-03 4.010295e-03 5.981197e-03 2.459901e-03 6.558442e-03 3.077307e-03 -1.317146e-02
<VARIANCE> 25
 6.504126e+01 4.083885e+01 4.327054e+01 6.968429e+01 6.395546e+01 5.659080e+01 6.290507e+01 5.274878e+01 5.695359e+01 4.938877e+01 4.163680e+01 3.839068e+01 1.862062e+00 2.094282e+00 2.008633e+00 3.018809e+00 3.064485e+00 2.980160e+00 3.010360e+00 2.780876e+00 2.601758e+00 2.749310e+00 2.290892e+00 2.105589e+00 2.551248e+00
<GCONST> 1.054405e+02
<TRANSP> 5
 0.000000e+00 1.000000e+00 0.000000e+00 0.000000e+00 0.000000e+00
 0.000000e+00 7.666238e-01 2.333762e-01 0.000000e+00 0.000000e+00
 0.000000e+00 0.000000e+00 7.666259e-01 2.333741e-01 0.000000e+00
 0.000000e+00 0.000000e+00 0.000000e+00 8.996549e-01 1.003451e-01
 0.000000e+00 0.000000e+00 0.000000e+00 0.000000e+00 0.000000e+00
<ENDHMM>
~h "\340\262\223"
<BEGINHMM>
<NUMSTATES> 5
<STATE> 2
<MEAN> 25
 4.616030e-01 -3.025543e-01 -5.518438e-01 -3.228762e-01 6.316391e-02 3.163877e-01 -4.146749e-01 -3.543865e-01 -2.795457e-01 3.005942e-01 -2.377343e-01 -2.661955e-01 -9.639811e-03 4.301712e-03 -1.356472e-03 1.455636e-02 1.249483e-02 3.064319e-03 8.521025e-03 3.792109e-03 1.423445e-02 4.837699e-03 5.222163e-03 4.350257e-03 2.488161e-03
<VARIANCE> 25
 6.878111e+01 4.727230e+01 4.595982e+01 8.612904e+01 6.743805e+01 5.454313e+01 6.357528e+01 4.824776e+01 5.309589e+01 4.345184e+01 4.342775e+01 3.678213e+01 2.353305e+00 1.786171e+00 2.018857e+00 3.121883e+00 3.022559e+00 3.122398e+00 3.096944e+00 2.421366e+00 2.507252e+00 2.439539e+00 2.227265e+00 2.130347e+00 2.566818e+00
<GCONST> 1.055231e+02
<STATE> 3
<MEAN> 25
 4.022886e-01 -2.734262e-01 -5.486693e-01 -2.520581e-01 1.343959e-01 3.523115e-01 -3.732783e-01 -3.354221e-01 -2.072714e-01 3.248088e-01 -1.974846e-01 -2.405115e-01 -1.177200e-02 3.817782e-03 -1.343343e-03 1.341466e-02 1.518546e-02 8.306239e-03 9.395812e-03 4.000996e-03 1.540991e-02 3.854053e-03 8.450461e-03 4.855969e-03 6.987851e-03
<VARIANCE> 25
 6.848494e+01 4.734697e+01 4.592719e+01 8.542995e+01 6.684437e+01 5.413084e+01 6.343363e+01 4.843515e+01 5.269009e+01 4.353987e+01 4.309989e+01 3.701155e+01 2.331667e+00 1.781979e+00 2.004342e+00 3.107138e+00 3.014796e+00 3.134404e+00 3.099507e+00 2.427965e+00 2.495195e+00 2.438090e+00 2.218786e+00 2.149817e+00 2.583221e+00
<GCONST> 1.054772e+02
<STATE> 4
<MEAN> 25
 1.677769e-01 -9.408619e-02 -4.430878e-01 -5.495742e-02 3.345849e-01 5.095985e-01 -1.488295e-01 -2.250192e-01 5.233164e-02 3.647435e-01 -1.291060e-02 -7.591048e-02 -1.507996e-02 6.490928e-03 8.587026e-04 1.206500e-02 1.811881e-02 1.348612e-02 8.842619e-03 5.560172e-03 1.412031e-02 4.554822e-03 1.184951e-02 7.088307e-03 1.529425e-04
<VARIANCE> 25
 6.551337e+01 4.531686e+01 4.284017e+01 8.701070e+01 6.485565e+01 5.169092e+01 5.984789e+01 4.861995e+01 5.088249e+01 4.297802e+01 4.206607e+01 3.638110e+01 2.084819e+00 1.658463e+00 1.878348e+00 2.987415e+00 2.867275e+00 2.932293e+00 2.953356e+00 2.351073e+00 2.402383e+00 2.356534e+00 2.157716e+00 2.088761e+00 2.391199e+00
<GCONST> 1.044266e+02
<TRANSP> 5
 0.000000e+00 1.000000e+00 0.000000e+00 0.000000e+00 0.000000e+00
 0.000000e+00 7.806689e-01 2.193311e-01 0.000000e+00 0.000000e+00
 0.000000e+00 0.000000e+00 7.806689e-01 2.193311e-01 0.000000e+00
 0.000000e+00 0.000000e+00 0.000000e+00 9.167401e-01 8.325980e-02
 0.000000e+00 0.000000e+00 0.000000e+00 0.000000e+00 0.000000e+00
<ENDHMM>
~h "\340\262\224"
<BEGINHMM>
<NUMSTATES> 5
<STATE> 2
<MEAN> 25
 -9.064779e-01 2.957729e-01 -2.583287e-01 -5.353929e-02 1.166200e+00 8.934227e-01 8.175557e-01 3.030849e-01 1.174662e+00 9.079176e-01 2.319240e-01 5.925654e-01 6.635202e-03 5.489579e-03 5.700865e-03 -1.659978e-03 5.349132e-03 7.408032e-03 -6.996268e-03 -1.691844e-02 -8.980749e-04 -1.021128e-04 1.760555e-02 3.473236e-03 -1.459775e-02
<VARIANCE> 25
 6.437360e+01 3.961175e+01 4.162917e+01 7.702798e+01 4.743473e+01 5.010587e+01 6.192984e+01 5.204642e+01 4.169286e+01 4.384203e+01 4.156510e+01 3.444370e+01 2.695311e+00 1.974743e+00 2.062763e+00 2.870333e+00 2.322376e+00 3.111712e+00 3.186756e+00 2.679775e+00 2.475934e+00 2.390795e+00 2.226168e+00 2.148647e+00 2.797731e+00
<GCONST> 1.044380e+02
<STATE> 3
<MEAN> 25
 -8.608782e-01 3.155409e-01 -2.430133e-01 -7.108232e-02 1.172212e+00 9.121512e-01 7.740217e-01 2.200095e-01 1.144433e+00 8.944262e-01 2.961381e-01 6.007190e-01 9.339638e-03 6.025841e-03 4.492003e-03 -4.075486e-03 9.071150e-04 5.534195e-03 -9.706701e-03 -1.701636e-02 -6.997769e-03 -1.498986e-03 1.625898e-02 2.678013e-03 -9.666089e-03
<VARIANCE> 25
 6.470551e+01 3.952979e+01 4.150647e+01 7.810438e+01 4.775040e+01 5.023402e+01 6.215013e+01 5.212030e+01 4.186325e+01 4.375782e+01 4.146465e+01 3.496877e+01 2.673332e+00 1.969276e+00 2.065152e+00 2.884026e+00 2.321127e+00 3.132098e+00 3.205625e+00 2.679825e+00 2.479691e+00 2.412084e+00 2.228056e+00 2.151854e+00 2.796443e+00
<GCONST> 1.045001e+02
<STATE> 4
<MEAN> 25
 -6.299685e-01 2.380923e-01 -2.089546e-01 -1.250065e-01 9.399693e-01 7.982591e-01 5.749210e-01 1.920767e-02 8.758628e-01 8.551617e-01 3.274616e-01 4.242013e-01 2.095038e-02 -2.497687e-03 -7.308709e-04 -1.466489e-02 -1.031577e-02 -2.189357e-03 -1.565212e-02 -2.010299e-02 -1.992692e-02 -4.131522e-03 7.392204e-03 -1.255038e-02 1.730447e-02
<VARIANCE> 25
 6.526084e+01 4.007437e+01 4.114370e+01 8.186514e+01 4.899878e+01 5.035350e+01 6.165742e+01 5.315367e+01 4.323971e+01 4.431605e+01 4.131290e+01 3.686672e+01 2.676153e+00 2.006701e+00 2.079002e+00 2.983576e+00 2.357289e+00 3.070153e+00 3.208513e+00 2.657240e+00 2.526406e+00 2.465031e+00 2.272422e+00 2.251407e+00 2.891609e+00
<GCONST> 1.048819e+02
<TRANSP> 5
 0.000000e+00 1.000000e+00 0.000000e+00 0.000000e+00 0.000000e+00
 0.000000e+00 7.737864e-01 2.262135e-01 0.000000e+00 0.000000e+00
 0.000000e+00 0.000000e+00 7.737859e-01 2.262141e-01 0.000000e+00
 0.000000e+00 0.000000e+00 0.000000e+00 9.063031e-01 9.369689e-02
 0.000000e+00 0.000000e+00 0.000000e+00 0.000000e+00 0.000000e+00
<ENDHMM>
~h "\340\263\240"
<BEGINHMM>
<NUMSTATES> 5
<STATE> 2
<MEAN> 25
 4.925858e-08 -1.233895e-08 2.920008e-08 1.226765e-08 -5.222096e-08 1.835772e-08 3.730370e-08 -3.084009e-08 5.284326e-08 -7.177465e-09 3.337222e-08 1.065681e-08 -5.941017e-04 -3.072851e-04 5.426822e-05 -6.761555e-04 -2.272289e-05 -6.928663e-06 -4.446488e-04 -1.001891e-03 -5.636913e-04 -2.278803e-04 9.030614e-05 -4.183001e-04 3.126871e-03
<VARIANCE> 25
 6.337364e+01 4.811290e+01 5.212138e+01 6.297672e+01 6.965734e+01 5.789758e+01 6.618909e+01 5.280534e+01 5.847340e+01 4.740644e+01 4.464558e+01 3.826577e+01 2.126088e+00 2.240220e+00 2.076481e+00 2.780402e+00 2.979447e+00 3.084975e+00 3.029560e+00 2.887547e+00 2.790046e+00 2.530517e+00 2.348650e+00 2.055844e+00 2.977529e+00
<GCONST> 1.062192e+02
<STATE> 3
<MEAN> 25
 4.925858e-08 -1.233895e-08 2.920008e-08 1.226765e-08 -5.222096e-08 1.835772e-08 3.730370e-08 -3.084009e-08 5.284326e-08 -7.177465e-09 3.337222e-08 1.065681e-08 -5.941017e-04 -3.072851e-04 5.426822e-05 -6.761555e-04 -2.272289e-05 -6.928663e-06 -4.446488e-04 -1.001891e-03 -5.636913e-04 -2.278803e-04 9.030614e-05 -4.183001e-04 3.126871e-03
<VARIANCE> 25
 6.337364e+01 4.811290e+01 5.212138e+01 6.297672e+01 6.965734e+01 5.789758e+01 6.618909e+01 5.280534e+01 5.847340e+01 4.740644e+01 4.464558e+01 3.826577e+01 2.126088e+00 2.240220e+00 2.076481e+00 2.780402e+00 2.979447e+00 3.084975e+00 3.029560e+00 2.887547e+00 2.790046e+00 2.530517e+00 2.348650e+00 2.055844e+00 2.977529e+00
<GCONST> 1.062192e+02
<STATE> 4
<MEAN> 25
 4.925858e-08 -1.233895e-08 2.920008e-08 1.226765e-08 -5.222096e-08 1.835772e-08 3.730370e-08 -3.084009e-08 5.284326e-08 -7.177465e-09 3.337222e-08 1.065681e-08 -5.941017e-04 -3.072851e-04 5.426822e-05 -6.761555e-04 -2.272289e-05 -6.928663e-06 -4.446488e-04 -1.001891e-03 -5.636913e-04 -2.278803e-04 9.030614e-05 -4.183001e-04 3.126871e-03
<VARIANCE> 25
 6.337364e+01 4.811290e+01 5.212138e+01 6.297672e+01 6.965734e+01 5.789758e+01 6.618909e+01 5.280534e+01 5.847340e+01 4.740644e+01 4.464558e+01 3.826577e+01 2.126088e+00 2.240220e+00 2.076481e+00 2.780402e+00 2.979447e+00 3.084975e+00 3.029560e+00 2.887547e+00 2.790046e+00 2.530517e+00 2.348650e+00 2.055844e+00 2.977529e+00
<GCONST> 1.062192e+02
<TRANSP> 5
 0.000000e+00 1.000000e+00 0.000000e+00 0.000000e+00 0.000000e+00
 0.000000e+00 6.000000e-01 4.000000e-01 0.000000e+00 0.000000e+00
 0.000000e+00 0.000000e+00 6.000000e-01 4.000000e-01 0.000000e+00
 0.000000e+00 0.000000e+00 0.000000e+00 7.000000e-01 3.000000e-01
 0.000000e+00 0.000000e+00 0.000000e+00 0.000000e+00 0.000000e+00
<ENDHMM>
~h "\340\262\240\340\263\215"
<BEGINHMM>
<NUMSTATES> 5
<STATE> 2
<MEAN> 25
 -1.713032e+00 8.393419e-01 -8.120391e-01 1.133742e+00 1.674939e+00 1.465315e+00 2.619766e+00 1.686204e+00 2.367841e+00 2.021767e+00 1.924479e+00 4.632316e-01 -4.474871e-03 -2.541766e-02 1.768883e-02 1.121405e-01 7.479011e-03 2.186200e-02 1.674854e-02 1.060722e-02 4.197990e-02 9.955758e-03 4.463522e-03 3.938869e-03 -1.082525e-01
<VARIANCE> 25
 5.479247e+01 3.119349e+01 3.771070e+01 7.820507e+01 4.041825e+01 3.024522e+01 3.908835e+01 4.886537e+01 4.016828e+01 3.536616e+01 4.063136e+01 2.959768e+01 1.158107e+00 1.374079e+00 1.382344e+00 3.000916e+00 1.943377e+00 2.843493e+00 2.176536e+00 2.699116e+00 1.942927e+00 1.818877e+00 1.776287e+00 1.709976e+00 2.337790e+00
<GCONST> 9.898457e+01
<STATE> 3
<MEAN> 25
 -1.704417e+00 7.405192e-01 -7.649723e-01 1.654854e+00 1.713595e+00 1.525902e+00 2.679730e+00 1.714355e+00 2.544660e+00 2.108325e+00 1.960355e+00 5.220762e-01 5.779152e-03 -2.253389e-02 9.194377e-03 9.955866e-02 5.434005e-03 9.898543e-03 8.229205e-03 1.958571e-03 3.285777e-02 1.733367e-02 3.941621e-03 1.070860e-02 -9.135961e-02
<VARIANCE> 25
 4.988873e+01 3.006328e+01 3.632582e+01 7.541701e+01 3.814014e+01 2.988211e+01 3.731270e+01 4.650800e+01 3.864885e+01 3.407255e+01 3.901486e+01 2.891273e+01 1.134322e+00 1.328215e+00 1.364488e+00 2.897534e+00 1.898354e+00 2.775434e+00 2.107829e+00 2.612854e+00 1.904636e+00 1.810781e+00 1.769257e+00 1.686826e+00 2.364880e+00
<GCONST> 9.822888e+01
<STATE> 4
<MEAN> 25
 -1.540523e+00 5.768385e-01 -8.524578e-01 2.339403e+00 1.697608e+00 1.559152e+00 2.812729e+00 1.759444e+00 2.719352e+00 2.303868e+00 2.080786e+00 6.650102e-01 1.855990e-03 -2.068107e-02 -2.016011e-03 6.093227e-02 -1.153945e-03 4.324683e-03 1.284644e-02 7.579047e-03 2.335363e-02 2.377458e-02 1.374567e-02 1.769469e-02 -4.790905e-02
<VARIANCE> 25
 4.316916e+01 2.903425e+01 3.486861e+01 7.204777e+01 3.543444e+01 2.988863e+01 3.510381e+01 4.371224e+01 3.687122e+01 3.285481e+01 3.715570e+01 2.850794e+01 1.070590e+00 1.264356e+00 1.334956e+00 2.733138e+00 1.843892e+00 2.713455e+00 2.050104e+00 2.485194e+00 1.944323e+00 1.821481e+00 1.670868e+00 1.632818e+00 2.432011e+00
<GCONST> 9.726776e+01
<TRANSP> 5
 0.000000e+00 1.000000e+00 0.000000e+00 0.000000e+00 0.000000e+00
 0.000000e+00 7.930924e-01 2.069075e-01 0.000000e+00 0.000000e+00
 0.000000e+00 0.000000e+00 7.930923e-01 2.069078e-01 0.000000e+00
 0.000000e+00 0.000000e+00 0.000000e+00 9.244629e-01 7.553711e-02
 0.000000e+00 0.000000e+00 0.000000e+00 0.000000e+00 0.000000e+00
<ENDHMM>
~h "\340\262\230\340\263\215"
<BEGINHMM>
<NUMSTATES> 5
<STATE> 2
<MEAN> 25
 -4.679410e-01 3.010675e-01 -6.181605e-01 7.150603e-01 8.165293e-01 9.320929e-03 1.022566e+00 7.366359e-01 4.248751e-01 1.844899e-01 -5.763882e-02 4.239883e-01 4.173527e-03 3.099169e-03 -6.543856e-03 -8.809844e-03 -6.392553e-03 -1.409253e-02 -1.125114e-02 -8.367542e-03 -3.043042e-03 -8.247200e-03 -4.633429e-03 1.260842e-03 2.149986e-02
<VARIANCE> 25
 4.911859e+01 4.787464e+01 3.293724e+01 5.298232e+01 6.740584e+01 4.999839e+01 4.464162e+01 4.364482e+01 4.581614e+01 5.089432e+01 4.041581e+01 3.333779e+01 1.975312e+00 2.118872e+00 2.012063e+00 1.983821e+00 2.479487e+00 3.078314e+00 2.231962e+00 2.700118e+00 2.358990e+00 2.157133e+00 1.908848e+00 1.920325e+00 2.242023e+00
<GCONST> 1.022099e+02
<STATE> 3
<MEAN> 25
 -4.505722e-01 3.194076e-01 -6.453151e-01 6.782884e-01 7.887687e-01 -5.203509e-02 9.652484e-01 6.879272e-01 4.097748e-01 1.616786e-01 -6.734713e-02 4.257334e-01 2.734724e-03 3.762052e-03 -5.723997e-03 -7.737301e-03 -6.107831e-03 -1.340316e-02 -1.008205e-02 -7.271091e-03 -1.243086e-03 -5.968591e-03 -2.643484e-03 2.920946e-03 1.530390e-02
<VARIANCE> 25
 4.946584e+01 4.776823e+01 3.327825e+01 5.312574e+01 6.724861e+01 5.037968e+01 4.485624e+01 4.386234e+01 4.578295e+01 5.104094e+01 4.090680e+01 3.361230e+01 1.984676e+00 2.132794e+00 2.019633e+00 1.996797e+00 2.487486e+00 3.086280e+00 2.233567e+00 2.717762e+00 2.376284e+00 2.178536e+00 1.933188e+00 1.938234e+00 2.249421e+00
<GCONST> 1.023422e+02
<STATE> 4
<MEAN> 25
 -2.519019e-01 1.221233e-01 -5.473779e-01 4.942387e-01 3.798676e-01 -2.539787e-01 8.612051e-01 4.260400e-01 2.130827e-01 4.454057e-02 -1.515349e-01 2.445123e-01 3.480572e-03 4.887974e-03 -3.662785e-03 -8.588980e-03 -5.925461e-03 -9.701552e-03 -6.047566e-03 -7.455485e-03 -1.770416e-03 -4.119809e-03 -3.096743e-03 1.923984e-03 9.546926e-03
<VARIANCE> 25
 4.969647e+01 4.910942e+01 3.487817e+01 5.295299e+01 6.843060e+01 5.006076e+01 4.326298e+01 4.506611e+01 4.707744e+01 5.176410e+01 4.134263e+01 3.495095e+01 2.061931e+00 2.208579e+00 2.095584e+00 1.972098e+00 2.513039e+00 3.085400e+00 2.287315e+00 2.736242e+00 2.464902e+00 2.268437e+00 1.999777e+00 2.050448e+00 2.223839e+00
<GCONST> 1.028056e+02
<TRANSP> 5
 0.000000e+00 1.000000e+00 0.000000e+00 0.000000e+00 0.000000e+00
 0.000000e+00 7.923725e-01 2.076275e-01 0.000000e+00 0.000000e+00
 0.000000e+00 0.000000e+00 7.923726e-01 2.076274e-01 0.000000e+00
 0.000000e+00 0.000000e+00 0.000000e+00 9.279751e-01 7.202494e-02
 0.000000e+00 0.000000e+00 0.000000e+00 0.000000e+00 0.000000e+00
<ENDHMM>
~h "\340\262\241\340\263\215"
<BEGINHMM>
<NUMSTATES> 5
<STATE> 2
<MEAN> 25
 6.383955e-01 1.683512e-01 1.845003e-01 -4.272520e-01 -8.026918e-01 -8.787523e-02 -1.298413e-01 -4.690442e-01 -6.843456e-01 6.430529e-02 -6.783390e-02 -3.951306e-01 -8.575580e-03 4.388151e-03 2.731767e-04 3.483785e-03 7.891622e-03 3.974551e-03 6.165219e-03 4.480327e-03 6.884453e-03 1.742666e-03 1.228744e-03 4.036948e-03 -1.448895e-02
<VARIANCE> 25
 6.308427e+01 4.843830e+01 5.686723e+01 6.621603e+01 7.803790e+01 5.727700e+01 6.157061e+01 5.651330e+01 6.436552e+01 4.663725e+01 4.467764e+01 4.054215e+01 1.874549e+00 2.353940e+00 2.311325e+00 3.195595e+00 3.292641e+00 3.220670e+00 3.104005e+00 3.051092e+00 2.984522e+00 2.649344e+00 2.547018e+00 2.253638e+00 3.425257e+00
<GCONST> 1.074138e+02
<STATE> 3
<MEAN> 25
 6.033177e-01 1.903715e-01 1.851092e-01 -4.070374e-01 -7.670555e-01 -7.170954e-02 -1.045728e-01 -4.498678e-01 -6.558939e-01 7.121305e-02 -6.394812e-02 -3.776651e-01 -7.219781e-03 3.672474e-03 2.609533e-04 3.418774e-03 7.230152e-03 2.607511e-03 5.639722e-03 4.528590e-03 5.709964e-03 1.377254e-03 6.915499e-04 3.554938e-03 -1.211169e-02
<VARIANCE> 25
 6.274593e+01 4.812151e+01 5.676789e+01 6.606235e+01 7.770553e+01 5.693951e+01 6.147242e+01 5.665688e+01 6.449953e+01 4.659456e+01 4.447840e+01 4.049530e+01 1.849722e+00 2.336145e+00 2.298793e+00 3.166116e+00 3.283372e+00 3.199091e+00 3.088783e+00 3.046259e+00 2.972003e+00 2.623685e+00 2.530593e+00 2.237294e+00 3.392691e+00
<GCONST> 1.072952e+02
<STATE> 4
<MEAN> 25
 6.129225e-01 2.037121e-01 2.005261e-01 -3.698379e-01 -7.571337e-01 -5.596972e-02 -8.228044e-02 -4.318686e-01 -7.177159e-01 -4.013958e-02 -4.740639e-02 -3.988152e-01 -7.442525e-03 4.204411e-03 -3.108807e-04 6.369390e-03 8.497697e-03 3.402913e-03 5.200836e-03 5.853450e-03 7.197994e-03 9.118497e-04 1.721404e-03 4.541622e-03 -1.416019e-02
<VARIANCE> 25
 6.145368e+01 4.668491e+01 5.581065e+01 6.591858e+01 7.763425e+01 5.525788e+01 6.072487e+01 5.682214e+01 6.454961e+01 4.745649e+01 4.354588e+01 4.088503e+01 1.741981e+00 2.239795e+00 2.254050e+00 3.075595e+00 3.229664e+00 3.085745e+00 3.027635e+00 3.009895e+00 2.906157e+00 2.609476e+00 2.472265e+00 2.208552e+00 3.192069e+00
<GCONST> 1.068317e+02
<TRANSP> 5
 0.000000e+00 1.000000e+00 0.000000e+00 0.000000e+00 0.000000e+00
 0.000000e+00 7.637077e-01 2.362923e-01 0.000000e+00 0.000000e+00
 0.000000e+00 0.000000e+00 7.637076e-01 2.362923e-01 0.000000e+00
 0.000000e+00 0.000000e+00 0.000000e+00 8.953596e-01 1.046405e-01
 0.000000e+00 0.000000e+00 0.000000e+00 0.000000e+00 0.000000e+00
<ENDHMM>
~h "\340\262\262\340\263\215"
<BEGINHMM>
<NUMSTATES> 5
<STATE> 2
<MEAN> 25
 2.089508e-01 1.325721e-01 9.425285e-01 -3.752484e-01 -7.237834e-01 -8.494876e-01 -7.225364e-01 -2.475424e-01 -4.572179e-01 -4.348004e-01 -5.438898e-01 -4.469478e-02 1.092544e-03 -4.731731e-03 3.293568e-03 5.425812e-03 -1.603696e-04 -1.134060e-03 3.921802e-03 -3.530158e-04 1.552244e-03 -2.879271e-03 2.773505e-03 -2.507526e-03 2.074214e-04
<VARIANCE> 25
 5.816367e+01 5.155393e+01 5.997849e+01 6.511733e+01 7.584068e+01 6.794813e+01 7.521455e+01 5.413252e+01 5.710106e+01 5.099781e+01 4.891947e+01 3.677738e+01 2.067220e+00 2.441760e+00 2.118552e+00 2.962372e+00 3.152069e+00 3.305787e+00 3.346837e+00 3.094385e+00 2.779126e+00 2.608169e+00 2.475689e+00 2.039566e+00 2.933649e+00
<GCONST> 1.073671e+02
<STATE> 3
<MEAN> 25
 2.117258e-01 1.127757e-01 9.556441e-01 -3.530971e-01 -7.236149e-01 -8.491573e-01 -7.034687e-01 -2.469321e-01 -4.505428e-01 -4.463007e-01 -5.296003e-01 -5.644879e-02 6.010567e-04 -4.423823e-03 3.341939e-03 5.493837e-03 -5.312514e-04 -1.304627e-04 4.493549e-03 -3.714501e-04 1.120417e-03 -2.909956e-03 3.897172e-03 -2.905748e-03 -4.998667e-04
<VARIANCE> 25
 5.794485e+01 5.164980e+01 5.986147e+01 6.504878e+01 7.606985e+01 6.797456e+01 7.494823e+01 5.405548e+01 5.685849e+01 5.093825e+01 4.877132e+01 3.681737e+01 2.057535e+00 2.437120e+00 2.117486e+00 2.953429e+00 3.154096e+00 3.293231e+00 3.331516e+00 3.080405e+00 2.762981e+00 2.601437e+00 2.474913e+00 2.037547e+00 2.924222e+00
<GCONST> 1.073179e+02
<STATE> 4
<MEAN> 25
 1.984396e-01 5.374008e-02 9.662325e-01 -3.536150e-01 -7.225531e-01 -8.242390e-01 -6.654662e-01 -2.083787e-01 -4.221380e-01 -4.542882e-01 -4.856968e-01 -6.903515e-02 -7.701907e-04 -3.309384e-03 3.094818e-03 5.260951e-03 -3.101450e-04 2.501096e-03 5.816645e-03 1.106394e-04 8.443070e-04 -1.676334e-03 5.068799e-03 -2.778042e-03 -2.436398e-03
<VARIANCE> 25
 5.752496e+01 5.128030e+01 5.927275e+01 6.570158e+01 7.647430e+01 6.774786e+01 7.481480e+01 5.343363e+01 5.649134e+01 5.056268e+01 4.838805e+01 3.726633e+01 2.013070e+00 2.381823e+00 2.097617e+00 2.917520e+00 3.131565e+00 3.251020e+00 3.278518e+00 3.021043e+00 2.721702e+00 2.588256e+00 2.461797e+00 2.034104e+00 2.873873e+00
<GCONST> 1.071160e+02
<TRANSP> 5
 0.000000e+00 1.000000e+00 0.000000e+00 0.000000e+00 0.000000e+00
 0.000000e+00 7.578083e-01 2.421917e-01 0.000000e+00 0.000000e+00
 0.000000e+00 0.000000e+00 7.578089e-01 2.421911e-01 0.000000e+00
 0.000000e+00 0.000000e+00 0.000000e+00 8.867689e-01 1.132311e-01
 0.000000e+00 0.000000e+00 0.000000e+00 0.000000e+00 0.000000e+00
<ENDHMM>
~h "\340\262\252\340\263\215"
<BEGINHMM>
<NUMSTATES> 5
<STATE> 2
<MEAN> 25
 7.624137e-02 2.551322e-02 1.365754e-01 -2.690255e-01 -1.128401e-01 2.699493e-02 -1.566598e-01 -3.070265e-01 -1.010535e-01 1.071007e-01 -1.177966e-01 -6.643616e-02 -7.729822e-03 -3.168053e-03 2.995978e-03 3.351066e-03 -5.253168e-04 -2.936805e-03 -8.557463e-05 5.528978e-03 9.492112e-04 3.166650e-03 2.020138e-03 9.704248e-04 9.379311e-03
<VARIANCE> 25
 6.392747e+01 4.929806e+01 5.774268e+01 6.547470e+01 7.099231e+01 5.601567e+01 6.435828e+01 5.013696e+01 6.018956e+01 4.600571e+01 4.442821e+01 3.910236e+01 2.463686e+00 2.339533e+00 2.281431e+00 3.006805e+00 3.227483e+00 3.191809e+00 3.177704e+00 2.972629e+00 2.933713e+00 2.594667e+00 2.409748e+00 2.173282e+00 3.583195e+00
<GCONST> 1.072109e+02
<STATE> 3
<MEAN> 25
 4.834687e-02 8.244374e-03 1.476239e-01 -2.589216e-01 -1.191087e-01 1.219065e-02 -1.613441e-01 -2.859100e-01 -9.799921e-02 1.206161e-01 -1.096749e-01 -6.555963e-02 -7.140114e-03 -4.158705e-03 2.356295e-03 2.369805e-03 -1.522978e-03 -4.200230e-03 -1.489599e-03 5.883774e-03 1.521608e-03 3.753935e-03 2.093622e-03 7.256390e-04 1.039146e-02
<VARIANCE> 25
 6.406917e+01 4.941620e+01 5.764548e+01 6.552962e+01 7.107487e+01 5.636977e+01 6.453582e+01 5.001305e+01 6.038321e+01 4.612338e+01 4.444260e+01 3.913556e+01 2.481523e+00 2.341837e+00 2.284597e+00 3.025149e+00 3.231742e+00 3.195836e+00 3.184378e+00 2.980361e+00 2.937294e+00 2.602200e+00 2.409570e+00 2.179521e+00 3.595831e+00
<GCONST> 1.072627e+02
<STATE> 4
<MEAN> 25
 2.240779e-02 -6.725142e-02 1.592099e-01 -2.844248e-01 -1.438234e-01 -4.672236e-03 -1.878046e-01 -2.508427e-01 -9.796451e-02 1.351947e-01 -1.038502e-01 -7.443199e-02 -4.056279e-03 -6.089297e-03 9.341782e-04 -6.245203e-04 -3.474172e-03 -5.369502e-03 -3.634952e-03 4.813503e-03 5.831291e-04 3.222625e-03 1.015971e-03 -8.324819e-04 1.186690e-02
<VARIANCE> 25
 6.392608e+01 4.914098e+01 5.729259e+01 6.626031e+01 7.110207e+01 5.662260e+01 6.445095e+01 4.961449e+01 6.033952e+01 4.633628e+01 4.422042e+01 3.957346e+01 2.462843e+00 2.330625e+00 2.285067e+00 3.062564e+00 3.210834e+00 3.188871e+00 3.181578e+00 2.962978e+00 2.920286e+00 2.618097e+00 2.412528e+00 2.200840e+00 3.610102e+00
<GCONST> 1.072653e+02
<TRANSP> 5
 0.000000e+00 1.000000e+00 0.000000e+00 0.000000e+00 0.000000e+00
 0.000000e+00 7.582276e-01 2.417724e-01 0.000000e+00 0.000000e+00
 0.000000e+00 0.000000e+00 7.582291e-01 2.417709e-01 0.000000e+00
 0.000000e+00 0.000000e+00 0.000000e+00 8.875951e-01 1.124050e-01
 0.000000e+00 0.000000e+00 0.000000e+00 0.000000e+00 0.000000e+00
<ENDHMM>
~h "sil"
<BEGINHMM>
<NUMSTATES> 5
<STATE> 2
<MEAN> 25
 -4.911068e+00 3.576650e+00 -7.064045e-01 5.633750e+00 5.001300e+00 2.981611e+00 5.365084e+00 4.097081e+00 4.449432e+00 4.161074e+00 3.991994e+00 4.193940e+00 -5.249294e-02 -5.090912e-02 -4.409222e-02 -6.927279e-02 -6.003791e-02 -2.415585e-02 -2.781694e-02 -1.414723e-02 -1.976652e-02 -1.755161e-02 6.900311e-03 -5.094352e-05 1.021233e-01
<VARIANCE> 25
 1.234413e+01 4.145913e+00 5.770000e+00 9.054375e+00 1.081684e+01 1.204898e+01 1.477608e+01 1.436931e+01 1.472576e+01 1.517406e+01 1.279600e+01 1.345277e+01 2.176553e-01 2.943495e-01 4.328420e-01 6.485244e-01 7.584720e-01 9.779067e-01 1.174698e+00 1.249427e+00 1.223594e+00 1.246445e+00 1.078716e+00 1.155472e+00 4.038980e-01
<GCONST> 7.042625e+01
<STATE> 3
<MEAN> 25
 -5.048556e+00 3.477985e+00 -7.758940e-01 5.592186e+00 4.931263e+00 2.911094e+00 5.304615e+00 4.112622e+00 4.459728e+00 4.209795e+00 4.051789e+00 4.202996e+00 -1.052715e-02 -1.639016e-02 -8.037812e-03 -7.573554e-03 -1.348800e-02 -2.764541e-02 -2.457870e-02 -1.614427e-02 -8.608269e-03 -5.664977e-04 6.590849e-03 -1.290939e-02 2.989418e-02
<VARIANCE> 25
 1.184847e+01 4.001006e+00 5.441324e+00 8.283726e+00 1.000002e+01 1.159909e+01 1.392036e+01 1.341534e+01 1.421634e+01 1.442662e+01 1.278681e+01 1.315959e+01 2.194830e-01 2.750920e-01 4.014604e-01 5.880460e-01 7.067795e-01 9.446983e-01 1.133696e+00 1.159271e+00 1.182395e+00 1.207487e+00 1.093828e+00 1.089907e+00 4.891101e-01
<GCONST> 6.948159e+01
<STATE> 4
<MEAN> 25
 -4.887697e+00 3.365262e+00 -6.652466e-01 5.514326e+00 4.882993e+00 2.877229e+00 5.011861e+00 3.967117e+00 4.327889e+00 4.086629e+00 3.910502e+00 4.043111e+00 3.751697e-02 -8.255836e-03 8.779084e-03 -2.366453e-02 4.291827e-03 -3.765257e-03 -4.436922e-02 -6.267796e-02 -3.398611e-02 -3.158190e-02 -2.874567e-02 -3.526029e-02 -2.086897e-02
<VARIANCE> 25
 1.148831e+01 4.929426e+00 5.697669e+00 9.013067e+00 1.047347e+01 1.191266e+01 1.475196e+01 1.333671e+01 1.481033e+01 1.436905e+01 1.318460e+01 1.303877e+01 2.991969e-01 3.142850e-01 4.126959e-01 6.136747e-01 7.418659e-01 1.009053e+00 1.240093e+00 1.157929e+00 1.225334e+00 1.266609e+00 1.191159e+00 1.110561e+00 1.002811e+00
<GCONST> 7.159490e+01
<TRANSP> 5
 0.000000e+00 1.000000e+00 0.000000e+00 0.000000e+00 0.000000e+00
 0.000000e+00 7.637884e-01 2.362116e-01 0.000000e+00 0.000000e+00
 0.000000e+00 0.000000e+00 7.637898e-01 2.362102e-01 0.000000e+00
 0.000000e+00 0.000000e+00 0.000000e+00 8.945490e-01 1.054511e-01
 0.000000e+00 0.000000e+00 0.000000e+00 0.000000e+00 0.000000e+00
<ENDHMM>
~h "\340\262\242\340\263\215"
<BEGINHMM>
<NUMSTATES> 5
<STATE> 2
<MEAN> 25
 1.631535e+00 -2.040747e-01 1.508314e-01 -5.255898e-01 -2.080203e+00 9.786479e-01 -1.164348e+00 -2.753370e+00 -1.442559e+00 -1.221464e+00 -9.194538e-01 -8.715464e-01 5.116400e-03 1.165733e-03 -1.204714e-02 -5.510181e-03 1.183816e-02 2.465270e-02 -2.259086e-02 -1.496468e-02 9.966573e-03 -2.216502e-02 -1.951433e-02 -6.450302e-03 1.787587e-03
<VARIANCE> 25
 5.338694e+01 4.921598e+01 6.379214e+01 6.929545e+01 7.371498e+01 5.731436e+01 6.717520e+01 6.747090e+01 5.452768e+01 4.145947e+01 5.049401e+01 3.457428e+01 1.638047e+00 2.256422e+00 2.414860e+00 3.225273e+00 3.277563e+00 3.979125e+00 3.642665e+00 3.663355e+00 2.657337e+00 2.733083e+00 2.929663e+00 2.203275e+00 2.615236e+00
<GCONST> 1.074990e+02
<STATE> 3
<MEAN> 25
 1.622839e+00 -1.936172e-01 9.811951e-02 -5.282195e-01 -2.006737e+00 1.100269e+00 -1.245076e+00 -2.793798e+00 -1.372732e+00 -1.303913e+00 -9.894385e-01 -8.826870e-01 -1.653012e-03 2.139445e-03 -1.213320e-02 -1.211229e-03 1.689268e-02 2.573278e-02 -1.658256e-02 -7.127125e-03 1.496744e-02 -1.689398e-02 -1.461159e-02 -2.675383e-03 -1.118804e-02
<VARIANCE> 25
 5.327118e+01 4.967855e+01 6.427708e+01 6.891985e+01 7.259802e+01 5.636224e+01 6.757953e+01 6.740282e+01 5.330421e+01 4.146994e+01 5.127832e+01 3.465898e+01 1.650105e+00 2.248261e+00 2.409487e+00 3.234192e+00 3.265213e+00 3.943916e+00 3.633166e+00 3.648764e+00 2.632473e+00 2.734196e+00 2.930058e+00 2.204811e+00 2.621058e+00
<GCONST> 1.074558e+02
<STATE> 4
<MEAN> 25
 1.427694e+00 6.332801e-02 2.426096e-01 -4.316899e-01 -1.772958e+00 1.368361e+00 -1.343207e+00 -2.813149e+00 -1.232455e+00 -1.332751e+00 -1.061009e+00 -7.705291e-01 -1.412828e-02 2.786824e-03 -1.026135e-02 9.582018e-03 2.259463e-02 2.241663e-02 -2.511239e-03 9.258635e-03 2.191780e-02 -4.082336e-03 -3.202632e-03 4.290908e-03 -3.457500e-02
<VARIANCE> 25
 5.256032e+01 4.909281e+01 6.413952e+01 6.678938e+01 6.851731e+01 5.236282e+01 6.763059e+01 6.768759e+01 5.185035e+01 4.134911e+01 5.324440e+01 3.439090e+01 1.683711e+00 2.219661e+00 2.382605e+00 3.156805e+00 3.156945e+00 3.739495e+00 3.561387e+00 3.623446e+00 2.589420e+00 2.771445e+00 2.896626e+00 2.193864e+00 2.580793e+00
<GCONST> 1.070929e+02
<TRANSP> 5
 0.000000e+00 1.000000e+00 0.000000e+00 0.000000e+00 0.000000e+00
 0.000000e+00 7.866443e-01 2.133557e-01 0.000000e+00 0.000000e+00
 0.000000e+00 0.000000e+00 7.866444e-01 2.133556e-01 0.000000e+00
 0.000000e+00 0.000000e+00 0.000000e+00 9.185826e-01 8.141734e-02
 0.000000e+00 0.000000e+00 0.000000e+00 0.000000e+00 0.000000e+00
<ENDHMM>
~h "\340\262\263\340\263\215"
<BEGINHMM>
<NUMSTATES> 5
<STATE> 2
<MEAN> 25
 9.939706e-01 -2.900471e-01 -2.129281e-02 3.554796e-02 -1.041125e+00 -1.083508e+00 -6.655627e-01 -3.647663e-01 -7.150334e-01 -5.627373e-01 4.844583e-03 -6.618269e-01 -3.888275e-03 6.462910e-03 6.633667e-03 -5.966164e-03 -5.968031e-03 5.045703e-03 1.004297e-02 1.584249e-03 -6.740264e-03 -1.873421e-04 8.417365e-03 3.770362e-03 -7.251105e-03
<VARIANCE> 25
 6.189074e+01 5.115651e+01 5.274254e+01 5.862801e+01 7.885518e+01 7.191270e+01 7.101105e+01 5.888414e+01 5.986237e+01 5.042797e+01 4.235732e+01 3.943419e+01 1.902560e+00 2.351686e+00 2.238646e+00 2.855771e+00 3.363768e+00 3.535327e+00 3.218342e+00 3.132664e+00 3.074223e+00 3.031834e+00 2.501515e+00 2.164045e+00 2.735092e+00
<GCONST> 1.075261e+02
<STATE> 3
<MEAN> 25
 9.705223e-01 -2.635123e-01 4.480413e-03 1.438394e-02 -1.055166e+00 -1.057214e+00 -6.189300e-01 -3.537352e-01 -7.345989e-01 -5.603303e-01 3.924287e-02 -6.408566e-01 -5.249149e-03 6.049327e-03 5.191799e-03 -5.696671e-03 -2.742907e-03 6.437504e-03 1.038919e-02 1.890156e-03 -4.890245e-03 3.576347e-04 7.398911e-03 5.408580e-03 -8.921347e-03
<VARIANCE> 25
 6.200886e+01 5.099886e+01 5.268853e+01 5.856607e+01 7.919180e+01 7.154993e+01 7.101666e+01 5.871153e+01 5.992825e+01 5.037545e+01 4.196740e+01 3.929568e+01 1.897076e+00 2.345993e+00 2.233139e+00 2.859902e+00 3.352671e+00 3.509621e+00 3.200498e+00 3.113888e+00 3.074602e+00 3.028511e+00 2.483103e+00 2.153263e+00 2.714091e+00
<GCONST> 1.074569e+02
<STATE> 4
<MEAN> 25
 8.430750e-01 -2.056493e-01 1.016883e-02 1.659587e-02 -9.520557e-01 -9.278827e-01 -5.288464e-01 -2.721197e-01 -6.608537e-01 -5.100859e-01 7.695826e-02 -5.369490e-01 -8.209291e-03 5.050122e-03 3.870685e-03 -3.492236e-03 2.224831e-03 7.877111e-03 1.174284e-02 3.418959e-03 -1.301116e-04 1.610382e-03 5.373305e-03 7.498106e-03 -1.232387e-02
<VARIANCE> 25
 6.150319e+01 4.916786e+01 5.091769e+01 5.885552e+01 7.860023e+01 6.877590e+01 6.969728e+01 5.755978e+01 5.932752e+01 4.993129e+01 4.086627e+01 3.901755e+01 1.865088e+00 2.258662e+00 2.173333e+00 2.787328e+00 3.257606e+00 3.390103e+00 3.110377e+00 3.007744e+00 2.999844e+00 2.988394e+00 2.430010e+00 2.127872e+00 2.619603e+00
<GCONST> 1.069033e+02
<TRANSP> 5
 0.000000e+00 1.000000e+00 0.000000e+00 0.000000e+00 0.000000e+00
 0.000000e+00 7.644804e-01 2.355197e-01 0.000000e+00 0.000000e+00
 0.000000e+00 0.000000e+00 7.644809e-01 2.355191e-01 0.000000e+00
 0.000000e+00 0.000000e+00 0.000000e+00 8.964728e-01 1.035273e-01
 0.000000e+00 0.000000e+00 0.000000e+00 0.000000e+00 0.000000e+00
<ENDHMM>
~h "\340\262\232\340\263\215"
<BEGINHMM>
<NUMSTATES> 5
<STATE> 2
<MEAN> 25
 -1.288136e+00 3.201279e-01 3.497385e-01 1.662479e-01 6.404928e-01 7.122662e-01 7.345002e-01 5.950702e-01 5.339310e-01 6.638745e-01 4.007285e-01 8.317212e-01 -1.079592e-02 -1.439140e-02 2.351291e-03 -6.029690e-03 -8.382153e-03 -3.873345e-03 -6.638272e-05 1.525894e-03 1.514626e-04 6.393936e-03 -2.987585e-03 -2.894850e-03 2.004936e-02
<VARIANCE> 25
 6.670634e+01 4.477715e+01 4.564363e+01 6.462823e+01 6.144584e+01 4.639087e+01 5.692078e+01 4.668213e+01 5.417538e+01 4.373600e+01 4.088910e+01 3.652004e+01 2.835155e+00 2.151356e+00 1.927417e+00 2.720650e+00 2.901324e+00 2.742718e+00 2.665139e+00 2.677899e+00 2.572656e+00 2.360595e+00 2.148750e+00 1.970686e+00 3.115402e+00
<GCONST> 1.047460e+02
<STATE> 3
<MEAN> 25
 -1.322349e+00 2.533021e-01 3.670383e-01 1.259209e-01 5.885676e-01 6.825853e-01 7.240502e-01 5.928501e-01 5.166992e-01 6.840180e-01 3.837173e-01 8.086046e-01 -9.020563e-03 -1.602878e-02 5.350624e-03 -1.042143e-02 -1.276260e-02 -7.574615e-03 -3.259627e-03 -1.236775e-03 -3.906731e-03 4.021999e-03 -5.277244e-03 -5.594117e-03 2.873392e-02
<VARIANCE> 25
 6.744550e+01 4.513684e+01 4.598232e+01 6.459751e+01 6.180513e+01 4.625018e+01 5.693449e+01 4.706595e+01 5.432389e+01 4.355700e+01 4.101401e+01 3.641514e+01 2.922348e+00 2.173785e+00 1.942161e+00 2.746656e+00 2.920166e+00 2.757854e+00 2.678749e+00 2.698225e+00 2.602269e+00 2.366679e+00 2.166718e+00 1.982073e+00 3.187501e+00
<GCONST> 1.049154e+02
<STATE> 4
<MEAN> 25
 -1.343885e+00 8.177651e-02 3.959143e-01 -4.500565e-02 4.364370e-01 5.426049e-01 6.519053e-01 5.602303e-01 3.985715e-01 6.903078e-01 3.342153e-01 7.068750e-01 -4.885505e-03 -1.834287e-02 1.150524e-02 -1.781038e-02 -2.227503e-02 -1.566699e-02 -9.976327e-03 -6.351294e-03 -1.234675e-02 -9.552245e-05 -8.788126e-03 -1.021003e-02 4.417869e-02
<VARIANCE> 25
 6.836858e+01 4.552277e+01 4.641289e+01 6.588774e+01 6.315993e+01 4.679832e+01 5.641449e+01 4.739858e+01 5.451002e+01 4.325793e+01 4.102439e+01 3.651385e+01 3.052099e+00 2.184546e+00 1.948226e+00 2.787989e+00 2.935503e+00 2.762537e+00 2.672648e+00 2.713683e+00 2.637616e+00 2.369203e+00 2.204281e+00 2.022454e+00 3.313162e+00
<GCONST> 1.051648e+02
<TRANSP> 5
 0.000000e+00 1.000000e+00 0.000000e+00 0.000000e+00 0.000000e+00
 0.000000e+00 7.630031e-01 2.369969e-01 0.000000e+00 0.000000e+00
 0.000000e+00 0.000000e+00 7.630031e-01 2.369968e-01 0.000000e+00
 0.000000e+00 0.000000e+00 0.000000e+00 8.937867e-01 1.062133e-01
 0.000000e+00 0.000000e+00 0.000000e+00 0.000000e+00 0.000000e+00
<ENDHMM>
~h "\340\262\253\340\263\215"
<BEGINHMM>
<NUMSTATES> 5
<STATE> 2
<MEAN> 25
 -1.534258e+00 -6.113870e-01 -7.406871e-01 7.685084e-01 1.236296e+00 4.175513e-01 1.443041e+00 6.474793e-01 4.632096e-01 1.219720e+00 -1.628960e-02 1.122053e+00 2.193875e-03 6.103678e-03 -2.882446e-03 -1.506011e-02 5.510481e-03 -6.761070e-03 -1.694793e-02 -1.042627e-02 -9.205270e-03 -1.023577e-02 -2.477888e-02 6.269920e-03 2.672051e-02
<VARIANCE> 25
 6.156938e+01 4.580841e+01 4.126051e+01 6.983540e+01 6.277837e+01 6.627036e+01 5.437795e+01 5.051791e+01 5.839884e+01 3.418158e+01 4.710686e+01 2.931649e+01 2.261558e+00 2.140076e+00 1.633242e+00 2.686290e+00 2.868107e+00 2.980922e+00 2.128369e+00 2.689369e+00 3.122326e+00 2.313622e+00 2.135661e+00 1.807370e+00 2.949057e+00
<GCONST> 1.042945e+02
<STATE> 3
<MEAN> 25
 -1.500564e+00 -5.825394e-01 -7.393022e-01 7.125525e-01 1.244362e+00 3.642786e-01 1.329448e+00 5.670634e-01 4.068710e-01 1.182106e+00 -1.321836e-01 1.097676e+00 7.247880e-03 6.690364e-03 2.394501e-03 -1.483677e-02 9.208062e-05 -1.296332e-02 -2.763549e-02 -2.080501e-02 -1.370949e-02 -7.682382e-03 -2.794382e-02 -7.058407e-03 3.109601e-02
<VARIANCE> 25
 6.159637e+01 4.565252e+01 4.121163e+01 7.039460e+01 6.275093e+01 6.652087e+01 5.538756e+01 5.038445e+01 5.807824e+01 3.471039e+01 4.757084e+01 2.861579e+01 2.271662e+00 2.136999e+00 1.635415e+00 2.662407e+00 2.858493e+00 2.987518e+00 2.157850e+00 2.671405e+00 3.138782e+00 2.330096e+00 2.162322e+00 1.762323e+00 2.957159e+00
<GCONST> 1.043164e+02
<STATE> 4
<MEAN> 25
 -1.445737e+00 -5.453597e-01 -6.551772e-01 4.664133e-01 1.217629e+00 2.257544e-01 1.035835e+00 4.793960e-01 3.072576e-01 1.085542e+00 -2.649009e-01 1.036801e+00 1.837796e-02 -1.163552e-03 -3.947699e-03 -2.473871e-02 -7.574024e-03 -1.068660e-02 -3.311671e-02 -1.813404e-02 -4.105053e-03 -8.882307e-03 -2.374847e-02 -1.706811e-02 3.816357e-02
<VARIANCE> 25
 6.197858e+01 4.454523e+01 4.138377e+01 6.954977e+01 6.226810e+01 6.625035e+01 5.703995e+01 4.998706e+01 5.930013e+01 3.557990e+01 4.790136e+01 2.743048e+01 2.258716e+00 2.126207e+00 1.653004e+00 2.627796e+00 2.826653e+00 2.989769e+00 2.201246e+00 2.678993e+00 3.198181e+00 2.321243e+00 2.219331e+00 1.670940e+00 3.010042e+00
<GCONST> 1.043146e+02
<TRANSP> 5
 0.000000e+00 1.000000e+00 0.000000e+00 0.000000e+00 0.000000e+00
 0.000000e+00 7.578540e-01 2.421459e-01 0.000000e+00 0.000000e+00
 0.000000e+00 0.000000e+00 7.578544e-01 2.421456e-01 0.000000e+00
 0.000000e+00 0.000000e+00 0.000000e+00 8.855872e-01 1.144128e-01
 0.000000e+00 0.000000e+00 0.000000e+00 0.000000e+00 0.000000e+00
<ENDHMM>
~h "\340\262\243\340\263\215"
<BEGINHMM>
<NUMSTATES> 5
<STATE> 2
<MEAN> 25
 6.910245e-01 -7.921962e-01 1.824387e-01 1.773117e-01 -6.197605e-01 -2.592322e-01 -2.903544e-01 2.044085e-02 -3.975498e-01 -8.178570e-01 -4.611563e-01 -3.314371e-01 4.557157e-03 -1.031992e-02 8.733311e-03 -1.017629e-02 -1.337694e-02 -7.984168e-03 -1.039396e-02 -3.784939e-03 -1.143264e-02 -1.005413e-02 -7.369051e-03 -5.381494e-03 2.804122e-02
<VARIANCE> 25
 6.650503e+01 5.323038e+01 5.561010e+01 6.157677e+01 7.223279e+01 5.578741e+01 6.512555e+01 4.850546e+01 5.592632e+01 5.040747e+01 4.401108e+01 4.163100e+01 2.122081e+00 2.368119e+00 2.078290e+00 2.547693e+00 2.917234e+00 3.143053e+00 2.947702e+00 2.857208e+00 2.667031e+00 2.508676e+00 2.193713e+00 2.118624e+00 2.831235e+00
<GCONST> 1.061801e+02
<STATE> 3
<MEAN> 25
 7.089567e-01 -8.339349e-01 2.162111e-01 1.305520e-01 -6.692697e-01 -2.913318e-01 -3.403504e-01 1.561255e-03 -4.437642e-01 -8.597593e-01 -4.969127e-01 -3.526197e-01 3.232087e-03 -9.051013e-03 8.198482e-03 -1.116661e-02 -1.081010e-02 -6.237094e-03 -1.110962e-02 -4.111845e-03 -1.068330e-02 -9.657254e-03 -6.981506e-03 -4.303466e-03 2.652272e-02
<VARIANCE> 25
 6.638667e+01 5.359352e+01 5.593270e+01 6.174247e+01 7.280386e+01 5.594896e+01 6.533911e+01 4.853858e+01 5.574313e+01 5.033676e+01 4.406581e+01 4.159732e+01 2.142592e+00 2.377185e+00 2.086840e+00 2.560227e+00 2.940387e+00 3.160549e+00 2.955712e+00 2.873985e+00 2.670678e+00 2.513334e+00 2.195742e+00 2.115874e+00 2.847532e+00
<GCONST> 1.062571e+02
<STATE> 4
<MEAN> 25
 7.449706e-01 -8.321628e-01 1.957623e-01 4.393346e-02 -6.641804e-01 -3.769952e-01 -4.486804e-01 -7.727376e-02 -4.429556e-01 -8.502342e-01 -5.689669e-01 -3.699167e-01 2.063836e-04 -6.184583e-03 4.813046e-03 -1.037849e-02 -4.069108e-03 -1.913407e-03 -1.015730e-02 -4.373073e-03 -6.486222e-03 -7.572998e-03 -6.414446e-03 -1.746039e-03 1.972703e-02
<VARIANCE> 25
 6.513097e+01 5.302840e+01 5.483083e+01 6.220604e+01 7.280932e+01 5.570696e+01 6.450259e+01 4.897036e+01 5.423693e+01 5.011505e+01 4.464881e+01 4.121555e+01 2.095946e+00 2.325284e+00 2.074883e+00 2.547339e+00 2.909525e+00 3.134063e+00 2.934602e+00 2.877342e+00 2.636395e+00 2.508363e+00 2.202857e+00 2.109564e+00 2.796638e+00
<GCONST> 1.060663e+02
<TRANSP> 5
 0.000000e+00 1.000000e+00 0.000000e+00 0.000000e+00 0.000000e+00
 0.000000e+00 7.725260e-01 2.274740e-01 0.000000e+00 0.000000e+00
 0.000000e+00 0.000000e+00 7.725258e-01 2.274741e-01 0.000000e+00
 0.000000e+00 0.000000e+00 0.000000e+00 9.044332e-01 9.556681e-02
 0.000000e+00 0.000000e+00 0.000000e+00 0.000000e+00 0.000000e+00
<ENDHMM>
~h "\340\262\233\340\263\215"
<BEGINHMM>
<NUMSTATES> 5
<STATE> 2
<MEAN> 25
 -4.971264e-01 2.823343e-02 -3.695807e-01 1.044101e+00 4.770881e-01 3.620367e-01 5.091195e-01 -1.353906e-02 3.152839e-01 4.205867e-02 3.026042e-01 1.204730e-01 -7.724402e-02 1.187371e-02 3.223580e-02 1.569031e-02 2.178615e-02 5.050094e-02 2.977172e-02 3.804775e-02 4.574215e-02 3.178976e-02 3.746741e-02 4.103363e-02 1.572001e-01
<VARIANCE> 25
 7.191640e+01 3.292402e+01 5.494446e+01 5.789412e+01 5.203281e+01 4.128889e+01 4.328310e+01 3.878593e+01 4.849575e+01 4.396117e+01 5.400426e+01 2.651142e+01 2.769627e+00 1.977671e+00 2.032908e+00 2.559350e+00 2.213415e+00 2.777398e+00 2.748097e+00 2.432916e+00 2.261215e+00 2.306528e+00 2.074817e+00 1.738061e+00 4.816217e+00
<GCONST> 1.033835e+02
<STATE> 3
<MEAN> 25
 -8.852090e-01 7.017683e-02 -2.011100e-01 1.105080e+00 5.648907e-01 5.959756e-01 6.466419e-01 1.841365e-01 5.381026e-01 2.092531e-01 4.736959e-01 3.147056e-01 -7.898904e-02 9.285007e-03 3.511974e-02 1.255383e-02 1.750008e-02 4.699010e-02 2.778262e-02 4.051831e-02 4.447844e-02 3.316986e-02 3.340257e-02 3.956023e-02 1.834920e-01
<VARIANCE> 25
 6.893513e+01 3.296198e+01 5.507500e+01 5.777631e+01 5.206094e+01 4.008630e+01 4.283532e+01 3.952153e+01 4.970105e+01 4.380692e+01 5.487099e+01 2.692229e+01 2.747861e+00 1.962957e+00 2.034839e+00 2.546054e+00 2.224385e+00 2.767935e+00 2.722708e+00 2.488533e+00 2.288795e+00 2.295221e+00 2.106243e+00 1.759239e+00 4.938054e+00
<GCONST> 1.034289e+02
<STATE> 4
<MEAN> 25
 -1.508657e+00 6.224488e-02 1.624483e-01 1.202119e+00 7.047209e-01 9.558585e-01 7.660226e-01 5.927396e-01 8.380964e-01 5.280889e-01 7.722141e-01 5.972954e-01 -4.948791e-02 -1.790592e-03 3.272577e-02 5.752649e-03 5.672450e-03 2.618848e-02 1.386583e-02 2.632322e-02 1.654521e-02 2.361079e-02 8.415511e-03 1.900178e-02 1.293285e-01
<VARIANCE> 25
 6.363982e+01 3.270469e+01 5.443846e+01 5.823026e+01 5.134584e+01 3.757021e+01 4.214403e+01 3.946017e+01 5.116049e+01 4.383668e+01 5.475760e+01 2.674104e+01 2.574358e+00 1.926905e+00 2.022315e+00 2.514288e+00 2.264663e+00 2.700964e+00 2.682794e+00 2.538318e+00 2.291409e+00 2.289168e+00 2.136634e+00 1.726957e+00 4.291302e+00
<GCONST> 1.030116e+02
<TRANSP> 5
 0.000000e+00 1.000000e+00 0.000000e+00 0.000000e+00 0.000000e+00
 0.000000e+00 7.861445e-01 2.138555e-01 0.000000e+00 0.000000e+00
 0.000000e+00 0.000000e+00 7.861446e-01 2.138554e-01 0.000000e+00
 0.000000e+00 0.000000e+00 0.000000e+00 9.185823e-01 8.141768e-02
 0.000000e+00 0.000000e+00 0.000000e+00 0.000000e+00 0.000000e+00
<ENDHMM>
~h "\340\262\254\340\263\215"
<BEGINHMM>
<NUMSTATES> 5
<STATE> 2
<MEAN> 25
 9.069356e-01 -3.256249e-01 1.207291e-01 8.046973e-02 -3.751343e-01 -4.551360e-02 -8.602321e-01 -5.301781e-01 -4.503712e-01 -2.728621e-01 -2.970051e-01 -8.806564e-01 -1.606484e-02 1.755444e-02 9.923863e-03 2.521432e-03 3.743694e-03 5.656796e-03 1.451191e-02 5.473011e-03 6.724246e-03 5.322180e-03 1.431764e-02 1.224286e-02 -2.455534e-02
<VARIANCE> 25
 5.894370e+01 4.971851e+01 5.681710e+01 6.008656e+01 7.633575e+01 6.352373e+01 6.758441e+01 5.913667e+01 6.233928e+01 4.682453e+01 4.703592e+01 3.924401e+01 1.932216e+00 2.547213e+00 2.266804e+00 3.237979e+00 3.386824e+00 3.143638e+00 3.349107e+00 3.047166e+00 2.989912e+00 2.755630e+00 2.410469e+00 2.091577e+00 3.345674e+00
<GCONST> 1.075545e+02
<STATE> 3
<MEAN> 25
 8.414022e-01 -2.559083e-01 1.626770e-01 9.241589e-02 -3.582159e-01 -2.497032e-02 -8.074656e-01 -5.114791e-01 -4.287213e-01 -2.537207e-01 -2.389045e-01 -8.253449e-01 -1.812814e-02 1.786058e-02 1.019093e-02 4.645159e-03 5.866433e-03 4.921498e-03 1.550230e-02 6.275758e-03 6.163538e-03 5.785590e-03 1.627739e-02 1.477408e-02 -2.698199e-02
<VARIANCE> 25
 5.926759e+01 4.929808e+01 5.686666e+01 6.010122e+01 7.629504e+01 6.330421e+01 6.775325e+01 5.897926e+01 6.220149e+01 4.646775e+01 4.701699e+01 3.915198e+01 1.933947e+00 2.544008e+00 2.270164e+00 3.220944e+00 3.378791e+00 3.155434e+00 3.367489e+00 3.039114e+00 2.979419e+00 2.751805e+00 2.405000e+00 2.086493e+00 3.326818e+00
<GCONST> 1.075206e+02
<STATE> 4
<MEAN> 25
 7.071863e-01 -1.553370e-01 3.089795e-01 1.278843e-01 -4.040831e-01 -6.828766e-02 -6.873546e-01 -4.604945e-01 -4.640044e-01 -2.424948e-01 -1.257898e-01 -7.259009e-01 -1.567844e-02 1.642867e-02 7.114841e-03 4.393355e-03 7.509345e-03 5.084556e-03 1.352279e-02 5.535201e-03 5.133792e-03 5.187630e-03 1.432906e-02 1.394770e-02 -2.466102e-02
<VARIANCE> 25
 5.950750e+01 4.828556e+01 5.572990e+01 6.028483e+01 7.655374e+01 6.179840e+01 6.697517e+01 5.863422e+01 6.193562e+01 4.534481e+01 4.613710e+01 3.935835e+01 1.905843e+00 2.497518e+00 2.256169e+00 3.167851e+00 3.321814e+00 3.132231e+00 3.331844e+00 3.011336e+00 2.947106e+00 2.732949e+00 2.387796e+00 2.092577e+00 3.244991e+00
<GCONST> 1.072592e+02
<TRANSP> 5
 0.000000e+00 1.000000e+00 0.000000e+00 0.000000e+00 0.000000e+00
 0.000000e+00 7.596033e-01 2.403967e-01 0.000000e+00 0.000000e+00
 0.000000e+00 0.000000e+00 7.596039e-01 2.403961e-01 0.000000e+00
 0.000000e+00 0.000000e+00 0.000000e+00 8.886969e-01 1.113031e-01
 0.000000e+00 0.000000e+00 0.000000e+00 0.000000e+00 0.000000e+00
<ENDHMM>
~h "\340\262\244\340\263\215"
<BEGINHMM>
<NUMSTATES> 5
<STATE> 2
<MEAN> 25
 -3.672842e-01 1.676014e-01 -4.898956e-01 1.496800e-01 5.433714e-01 2.466512e-01 -2.562808e-02 3.171812e-01 7.616758e-01 5.246301e-01 3.246466e-01 3.192753e-01 7.354220e-03 -9.713737e-03 -2.316286e-03 -3.760681e-03 -6.268802e-03 -5.947448e-03 -1.564163e-02 -2.405877e-03 -2.026947e-03 2.216793e-03 -1.861946e-03 -5.968374e-03 1.945640e-02
<VARIANCE> 25
 5.808370e+01 4.508103e+01 4.548195e+01 6.106200e+01 6.160950e+01 5.708902e+01 6.735855e+01 5.110555e+01 5.880102e+01 4.777785e+01 4.538940e+01 3.698812e+01 2.098020e+00 2.128718e+00 2.009557e+00 2.811125e+00 2.784029e+00 3.143003e+00 3.170188e+00 2.874700e+00 3.052428e+00 2.652313e+00 2.503867e+00 2.098484e+00 3.687799e+00
<GCONST> 1.060847e+02
<STATE> 3
<MEAN> 25
 -3.405176e-01 1.288617e-01 -4.982992e-01 1.371110e-01 5.177566e-01 2.202757e-01 -8.627452e-02 3.116474e-01 7.573084e-01 5.338556e-01 3.162690e-01 2.952562e-01 8.021048e-03 -1.034258e-02 -2.274520e-03 -3.717555e-03 -7.227241e-03 -7.284983e-03 -1.564973e-02 -1.780184e-03 -1.688077e-03 1.680723e-03 -3.065581e-03 -6.459878e-03 1.986904e-02
<VARIANCE> 25
 5.799984e+01 4.532867e+01 4.553577e+01 6.098434e+01 6.161957e+01 5.721155e+01 6.748494e+01 5.105599e+01 5.869445e+01 4.785307e+01 4.557320e+01 3.706974e+01 2.101582e+00 2.140055e+00 2.021174e+00 2.826345e+00 2.795110e+00 3.156913e+00 3.186882e+00 2.881852e+00 3.066604e+00 2.654476e+00 2.517061e+00 2.105534e+00 3.710388e+00
<GCONST> 1.061523e+02
<STATE> 4
<MEAN> 25
 -2.991666e-01 6.136798e-02 -4.988845e-01 1.003721e-01 4.617627e-01 1.789173e-01 -1.701623e-01 3.261721e-01 7.431342e-01 5.145568e-01 2.892439e-01 2.358288e-01 6.970130e-03 -9.928401e-03 -1.113806e-03 -3.186420e-03 -7.792583e-03 -7.726143e-03 -1.259861e-02 2.007396e-05 -1.337313e-03 7.680672e-04 -4.477208e-03 -6.144870e-03 1.778831e-02
<VARIANCE> 25
 5.692148e+01 4.555598e+01 4.544030e+01 6.116783e+01 6.149028e+01 5.668293e+01 6.703039e+01 5.072427e+01 5.787914e+01 4.796922e+01 4.540366e+01 3.730328e+01 2.068794e+00 2.138069e+00 2.007570e+00 2.827816e+00 2.796026e+00 3.140894e+00 3.181783e+00 2.860842e+00 3.039509e+00 2.644272e+00 2.506897e+00 2.102741e+00 3.711610e+00
<GCONST> 1.060515e+02
<TRANSP> 5
 0.000000e+00 1.000000e+00 0.000000e+00 0.000000e+00 0.000000e+00
 0.000000e+00 7.584649e-01 2.415350e-01 0.000000e+00 0.000000e+00
 0.000000e+00 0.000000e+00 7.584668e-01 2.415332e-01 0.000000e+00
 0.000000e+00 0.000000e+00 0.000000e+00 8.878123e-01 1.121877e-01
 0.000000e+00 0.000000e+00 0.000000e+00 0.000000e+00 0.000000e+00
<ENDHMM>
~h "\340\262\265\340\263\215"
<BEGINHMM>
<NUMSTATES> 5
<STATE> 2
<MEAN> 25
 2.506466e-02 4.358811e-02 -2.981681e-01 -4.574369e-01 1.625475e-02 1.344720e-01 1.162033e-01 -6.493901e-02 2.223452e-02 3.395926e-01 2.492190e-01 1.107579e-01 -6.947232e-03 1.421503e-03 -2.368791e-03 -9.120543e-04 4.620650e-03 5.897908e-03 5.406600e-03 4.121090e-03 6.369443e-03 3.111472e-03 1.577089e-03 5.636686e-03 -3.859063e-04
<VARIANCE> 25
 7.242918e+01 4.669715e+01 5.317877e+01 7.097166e+01 6.987535e+01 5.873608e+01 6.609177e+01 5.312101e+01 5.813715e+01 4.737222e+01 4.290786e+01 3.655769e+01 2.180340e+00 2.111160e+00 2.011051e+00 2.700030e+00 2.939929e+00 2.957027e+00 2.934160e+00 2.776089e+00 2.802172e+00 2.618671e+00 2.411496e+00 1.984427e+00 2.751015e+00
<GCONST> 1.061206e+02
<STATE> 3
<MEAN> 25
 -1.130133e-03 4.788563e-02 -3.076363e-01 -4.618635e-01 3.228991e-02 1.544369e-01 1.375492e-01 -5.211123e-02 4.444817e-02 3.531511e-01 2.554123e-01 1.332266e-01 -6.753886e-03 1.525358e-03 -1.671999e-03 -5.143483e-04 4.720695e-03 4.785593e-03 4.762131e-03 2.886088e-03 5.563936e-03 2.958313e-03 1.575306e-03 5.643312e-03 4.871120e-05
<VARIANCE> 25
 7.283866e+01 4.668601e+01 5.310832e+01 7.088359e+01 6.951143e+01 5.864384e+01 6.591868e+01 5.307578e+01 5.811805e+01 4.748612e+01 4.289573e+01 3.652696e+01 2.194381e+00 2.115130e+00 2.009040e+00 2.691827e+00 2.937316e+00 2.961547e+00 2.935646e+00 2.776827e+00 2.804873e+00 2.612832e+00 2.403848e+00 1.984705e+00 2.742884e+00
<GCONST> 1.061125e+02
<STATE> 4
<MEAN> 25
 2.359511e-02 5.494672e-02 -2.992629e-01 -4.873382e-01 8.760389e-03 1.175443e-01 1.323287e-01 -9.308295e-02 3.647881e-02 3.364353e-01 2.420827e-01 1.595052e-01 -4.570371e-03 1.253628e-03 -1.174990e-03 4.469340e-04 3.584334e-03 2.115145e-03 3.768646e-03 9.497099e-04 3.218472e-03 2.639221e-03 6.496772e-04 4.460831e-03 2.071748e-04
<VARIANCE> 25
 7.241133e+01 4.625650e+01 5.271672e+01 7.161073e+01 6.899626e+01 5.796755e+01 6.453881e+01 5.320620e+01 5.788257e+01 4.736805e+01 4.272318e+01 3.648272e+01 2.164475e+00 2.100131e+00 1.986537e+00 2.663407e+00 2.905654e+00 2.929092e+00 2.896982e+00 2.756999e+00 2.776868e+00 2.566207e+00 2.365215e+00 1.975932e+00 2.690551e+00
<GCONST> 1.058977e+02
<TRANSP> 5
 0.000000e+00 1.000000e+00 0.000000e+00 0.000000e+00 0.000000e+00
 0.000000e+00 7.617378e-01 2.382622e-01 0.000000e+00 0.000000e+00
 0.000000e+00 0.000000e+00 7.617366e-01 2.382634e-01 0.000000e+00
 0.000000e+00 0.000000e+00 0.000000e+00 8.921855e-01 1.078145e-01
 0.000000e+00 0.000000e+00 0.000000e+00 0.000000e+00 0.000000e+00
<ENDHMM>
