~o
<STREAMINFO> 1 25
<VECSIZE> 25<NULLD><MFCC_D_N_Z_0><DIAGC>
~s "silst"
<MEAN> 25
 -5.413170e+00 3.503686e+00 -7.312817e-01 5.772325e+00 5.146413e+00 3.505810e+00 5.335356e+00 4.389494e+00 4.911903e+00 4.555162e+00 4.280452e+00 4.359351e+00 -6.791165e-03 1.139055e-02 2.296282e-02 1.975559e-02 -5.619244e-04 -1.302356e-02 -5.376766e-03 -6.519780e-03 -9.235390e-03 6.023693e-03 2.788883e-03 -2.954703e-03 -4.879411e-03
<VARIANCE> 25
 2.960030e+00 3.018006e+00 4.586839e+00 6.591808e+00 7.660854e+00 9.337684e+00 1.126859e+01 1.106716e+01 1.187004e+01 1.228727e+01 1.157364e+01 1.082267e+01 1.215154e-01 2.208691e-01 3.683826e-01 5.366203e-01 6.981286e-01 8.881891e-01 1.030271e+00 1.124716e+00 1.215728e+00 1.228872e+00 1.190409e+00 1.100073e+00 1.056604e-01
<GCONST> 6.330890e+01
~h "sp"
<BEGINHMM>
<NUMSTATES> 3
<STATE> 2
~s "silst"
<TRANSP> 3
 0.000000e+00 6.204951e-01 3.795049e-01
 0.000000e+00 9.720135e-01 2.798655e-02
 0.000000e+00 0.000000e+00 0.000000e+00
<ENDHMM>
~h "\340\262\236\340\263\215"
<BEGINHMM>
<NUMSTATES> 5
<STATE> 2
<MEAN> 25
 4.925858e-08 -1.233895e-08 2.920008e-08 1.226765e-08 -5.222096e-08 1.835772e-08 3.730370e-08 -3.084009e-08 5.284326e-08 -7.177465e-09 3.337222e-08 1.065681e-08 -5.941017e-04 -3.072851e-04 5.426822e-05 -6.761555e-04 -2.272289e-05 -6.928663e-06 -4.446488e-04 -1.001891e-03 -5.636913e-04 -2.278803e-04 9.030614e-05 -4.183001e-04 3.126871e-03
<VARIANCE> 25
 6.337364e+01 4.811290e+01 5.212138e+01 6.297672e+01 6.965734e+01 5.789758e+01 6.618909e+01 5.280534e+01 5.847340e+01 4.740644e+01 4.464558e+01 3.826577e+01 2.126088e+00 2.240220e+00 2.076481e+00 2.780402e+00 2.979447e+00 3.084975e+00 3.029560e+00 2.887547e+00 2.790046e+00 2.530517e+00 2.348650e+00 2.055844e+00 2.977529e+00
<GCONST> 1.062192e+02
<STATE> 3
<MEAN> 25
 4.925858e-08 -1.233895e-08 2.920008e-08 1.226765e-08 -5.222096e-08 1.835772e-08 3.730370e-08 -3.084009e-08 5.284326e-08 -7.177465e-09 3.337222e-08 1.065681e-08 -5.941017e-04 -3.072851e-04 5.426822e-05 -6.761555e-04 -2.272289e-05 -6.928663e-06 -4.446488e-04 -1.001891e-03 -5.636913e-04 -2.278803e-04 9.030614e-05 -4.183001e-04 3.126871e-03
<VARIANCE> 25
 6.337364e+01 4.811290e+01 5.212138e+01 6.297672e+01 6.965734e+01 5.789758e+01 6.618909e+01 5.280534e+01 5.847340e+01 4.740644e+01 4.464558e+01 3.826577e+01 2.126088e+00 2.240220e+00 2.076481e+00 2.780402e+00 2.979447e+00 3.084975e+00 3.029560e+00 2.887547e+00 2.790046e+00 2.530517e+00 2.348650e+00 2.055844e+00 2.977529e+00
<GCONST> 1.062192e+02
<STATE> 4
<MEAN> 25
 4.925858e-08 -1.233895e-08 2.920008e-08 1.226765e-08 -5.222096e-08 1.835772e-08 3.730370e-08 -3.084009e-08 5.284326e-08 -7.177465e-09 3.337222e-08 1.065681e-08 -5.941017e-04 -3.072851e-04 5.426822e-05 -6.761555e-04 -2.272289e-05 -6.928663e-06 -4.446488e-04 -1.001891e-03 -5.636913e-04 -2.278803e-04 9.030614e-05 -4.183001e-04 3.126871e-03
<VARIANCE> 25
 6.337364e+01 4.811290e+01 5.212138e+01 6.297672e+01 6.965734e+01 5.789758e+01 6.618909e+01 5.280534e+01 5.847340e+01 4.740644e+01 4.464558e+01 3.826577e+01 2.126088e+00 2.240220e+00 2.076481e+00 2.780402e+00 2.979447e+00 3.084975e+00 3.029560e+00 2.887547e+00 2.790046e+00 2.530517e+00 2.348650e+00 2.055844e+00 2.977529e+00
<GCONST> 1.062192e+02
<TRANSP> 5
 0.000000e+00 1.000000e+00 0.000000e+00 0.000000e+00 0.000000e+00
 0.000000e+00 6.000000e-01 4.000000e-01 0.000000e+00 0.000000e+00
 0.000000e+00 0.000000e+00 6.000000e-01 4.000000e-01 0.000000e+00
 0.000000e+00 0.000000e+00 0.000000e+00 7.000000e-01 3.000000e-01
 0.000000e+00 0.000000e+00 0.000000e+00 0.000000e+00 0.000000e+00
<ENDHMM>
~h "\340\262\257\340\263\215"
<BEGINHMM>
<NUMSTATES> 5
<STATE> 2
<MEAN> 25
 -1.056247e+00 2.457642e+00 9.229729e+00 -4.634655e+00 -6.687250e+00 -4.358925e+00 -2.227933e+00 -5.669015e+00 -5.401338e+00 -2.458816e+00 -1.995252e+00 -1.692833e+00 7.425882e-01 -1.956747e-01 1.071861e+00 -8.077813e-01 -1.665637e+00 -3.760861e-01 -6.014614e-01 -2.176782e-01 -1.097243e+00 2.818063e-01 2.464115e-01 -5.218475e-01 1.005881e+00
<VARIANCE> 25
 5.768855e+01 4.952547e+01 5.442902e+01 5.872621e+01 8.530916e+01 3.369778e+01 4.440043e+01 4.841727e+01 4.250179e+01 3.221091e+01 2.680447e+01 2.704896e+01 6.541580e+00 4.018424e+00 4.777209e+00 3.468089e+00 7.220404e+00 3.743789e+00 4.152459e+00 3.903555e+00 4.541045e+00 3.006744e+00 2.966848e+00 2.396075e+00 3.675672e+00
<GCONST> 1.094554e+02
<STATE> 3
<MEAN> 25
 3.441107e+00 -1.891272e+00 1.320946e+01 -8.349304e+00 -1.791711e+01 -5.113748e+00 -6.193021e+00 -3.793494e+00 -1.065803e+01 1.005392e+00 6.700679e-01 -5.670404e+00 4.452356e-01 -1.788342e+00 -1.403193e+00 4.080624e-01 -7.288144e-01 -1.500024e+00 9.277862e-01 2.026755e+00 1.591467e-01 1.878624e-01 6.146626e-01 -4.672201e-02 8.357266e-01
<VARIANCE> 25
 5.514893e+00 3.092556e+01 2.943756e+01 3.225111e+01 2.553156e+01 4.502852e+01 3.266031e+01 3.821714e+01 2.408173e+01 2.707191e+01 1.829308e+01 1.431663e+01 7.316185e-01 3.017381e+00 3.089539e+00 1.920801e+00 3.116082e+00 3.361640e+00 3.956600e+00 4.618197e+00 2.331399e+00 2.584121e+00 1.692450e+00 1.472035e+00 8.069311e-01
<GCONST> 9.448754e+01
<STATE> 4
<MEAN> 25
 4.666945e+00 -9.237848e+00 4.118313e+00 -6.195402e+00 -1.588221e+01 -1.056019e+01 -1.558581e+00 4.663902e+00 -6.511614e+00 -1.453440e+00 -4.212688e-01 -5.071753e+00 2.665222e-01 -6.412737e-01 -1.768630e+00 3.711311e-01 1.582367e+00 9.931298e-02 2.008479e-01 5.516800e-01 1.119227e+00 -1.051652e+00 -1.252993e+00 6.156280e-02 1.256471e-01
<VARIANCE> 25
 7.063321e+00 2.235333e+01 3.635447e+01 2.591349e+01 4.234890e+01 3.297088e+01 3.762114e+01 3.498524e+01 2.532555e+01 3.418013e+01 2.905047e+01 2.126519e+01 3.652320e-01 2.589738e+00 4.264029e+00 1.789823e+00 4.444945e+00 2.282339e+00 2.869187e+00 4.405143e+00 2.677132e+00 3.960378e+00 3.367292e+00 1.516779e+00 8.256350e-01
<GCONST> 9.610114e+01
<TRANSP> 5
 0.000000e+00 1.000000e+00 0.000000e+00 0.000000e+00 0.000000e+00
 0.000000e+00 6.476120e-01 3.523880e-01 0.000000e+00 0.000000e+00
 0.000000e+00 0.000000e+00 7.140868e-01 2.859132e-01 0.000000e+00
 0.000000e+00 0.000000e+00 0.000000e+00 7.513970e-01 2.486030e-01
 0.000000e+00 0.000000e+00 0.000000e+00 0.000000e+00 0.000000e+00
<ENDHMM>
~h "\340\262\226\340\263\215"
<BEGINHMM>
<NUMSTATES> 5
<STATE> 2
<MEAN> 25
 -4.878902e+00 2.769493e+00 7.874580e-02 4.338518e+00 3.812994e+00 2.044853e+00 5.342681e+00 2.649504e+00 2.451477e+00 3.139700e+00 3.146624e+00 2.952260e+00 -9.052457e-01 6.816004e-02 3.948547e-01 -3.172977e-01 2.394878e-01 -3.572961e-01 5.274187e-01 9.154812e-02 1.968238e-01 3.144380e-01 2.068239e-01 2.023524e-01 1.185215e-01
<VARIANCE> 25
 1.174568e+01 8.800599e+00 1.701475e+01 3.479092e+01 1.312766e+01 2.582906e+01 2.234811e+01 1.952588e+01 1.938927e+01 2.818473e+01 2.078987e+01 1.436046e+01 2.273778e+00 1.211428e+00 2.174389e+00 3.576461e+00 1.936432e+00 2.967829e+00 3.401258e+00 1.774440e+00 2.232554e+00 2.732798e+00 2.062351e+00 2.043274e+00 1.624876e+00
<GCONST> 9.121880e+01
<STATE> 3
<MEAN> 25
 -8.903179e+00 3.981573e+00 2.850339e+00 5.593630e-01 4.989789e+00 -6.593093e-01 6.993894e+00 2.469302e+00 2.505904e+00 2.595124e+00 3.077333e+00 2.428541e+00 7.906771e-01 1.007535e-01 -7.007706e-01 8.294775e-01 -2.420388e-01 8.387156e-01 -7.522115e-01 4.845551e-02 2.976567e-01 2.055878e-01 -8.085895e-02 3.128017e-01 -8.979858e-01
<VARIANCE> 25
 3.612663e+01 1.718643e+01 3.384193e+01 3.286606e+01 2.135298e+01 2.918956e+01 2.624035e+01 1.958225e+01 1.593201e+01 1.790413e+01 1.639732e+01 1.653484e+01 2.852497e+00 1.097663e+00 2.505799e+00 2.329017e+00 1.774302e+00 3.191670e+00 2.469421e+00 1.861460e+00 1.748512e+00 1.788830e+00 1.493940e+00 1.396826e+00 1.196559e+00
<GCONST> 9.154521e+01
<STATE> 4
<MEAN> 25
 -4.359022e+00 3.950585e+00 1.671294e-02 5.546504e+00 4.365454e+00 2.852375e+00 3.756672e+00 3.867334e+00 3.783056e+00 3.904171e+00 4.164440e+00 3.602074e+00 1.710071e-02 -1.961983e-02 1.910984e-02 1.978528e-03 -2.208220e-02 -2.317034e-02 -1.336462e-02 -4.939235e-03 1.550083e-02 1.286577e-03 -2.230618e-02 -1.972807e-02 2.086587e-02
<VARIANCE> 25
 2.951569e+00 4.163753e+00 5.490016e+00 8.740193e+00 7.097873e+00 1.048635e+01 1.030180e+01 9.934054e+00 1.112411e+01 1.140229e+01 1.218404e+01 9.933191e+00 2.156357e-01 3.820202e-01 5.637534e-01 7.556457e-01 8.084350e-01 1.077037e+00 1.048866e+00 1.016526e+00 1.176628e+00 1.222607e+00 1.229897e+00 1.041148e+00 2.968764e-01
<GCONST> 6.687598e+01
<TRANSP> 5
 0.000000e+00 1.000000e+00 0.000000e+00 0.000000e+00 0.000000e+00
 0.000000e+00 8.021596e-01 1.978404e-01 0.000000e+00 0.000000e+00
 0.000000e+00 0.000000e+00 5.818216e-01 4.181784e-01 0.000000e+00
 0.000000e+00 0.000000e+00 0.000000e+00 9.648574e-01 3.514263e-02
 0.000000e+00 0.000000e+00 0.000000e+00 0.000000e+00 0.000000e+00
<ENDHMM>
~h "\340\262\247\340\263\215"
<BEGINHMM>
<NUMSTATES> 5
<STATE> 2
<MEAN> 25
 6.359376e+00 3.941888e+00 5.318824e+00 4.295820e+00 4.036490e-01 -7.655999e+00 -6.380271e+00 -8.378475e-01 -1.207500e+00 -6.009449e+00 -8.689860e+00 -2.324919e+00 8.464541e-02 2.152700e+00 1.433414e+00 1.966281e+00 1.452230e+00 1.503850e+00 1.300034e+00 -4.893371e-01 4.162992e-02 -1.097871e+00 -1.475558e-01 -8.154604e-01 -2.613989e+00
<VARIANCE> 25
 1.671843e+01 3.292216e+01 3.110083e+01 3.001631e+01 3.583674e+01 5.491708e+01 7.368433e+01 3.218435e+01 4.570924e+01 2.712480e+01 2.334350e+01 2.704769e+01 2.022880e+00 1.709382e+00 3.158326e+00 2.736418e+00 3.530053e+00 4.760316e+00 5.062926e+00 3.001674e+00 3.796851e+00 1.891382e+00 1.996819e+00 2.171557e+00 4.202698e+00
<GCONST> 1.018376e+02
<STATE> 3
<MEAN> 25
 4.548056e+00 1.070607e+01 7.872425e+00 9.267743e+00 3.287901e+00 -1.852767e+00 -1.115345e+00 -1.577503e+00 -1.602267e+00 -6.803744e+00 -7.146528e+00 -3.490958e+00 -1.912059e+00 -6.830211e-01 -1.533075e+00 -4.720419e-01 2.001577e-01 2.011804e-01 8.736003e-01 2.899907e-02 2.254914e-01 8.736530e-01 1.319902e+00 2.832716e-01 1.019810e+00
<VARIANCE> 25
 1.750485e+01 2.285658e+01 2.018381e+01 1.999215e+01 2.515926e+01 2.563227e+01 3.117695e+01 2.016712e+01 4.378421e+01 1.728842e+01 2.201550e+01 1.853447e+01 2.964730e+00 2.977592e+00 2.978086e+00 2.662296e+00 2.285603e+00 2.383250e+00 3.166273e+00 2.423661e+00 4.600227e+00 2.455660e+00 2.281127e+00 1.853149e+00 4.993837e+00
<GCONST> 9.694791e+01
<STATE> 4
<MEAN> 25
 -2.813729e+00 1.729671e+00 -9.260727e-01 1.210527e+00 4.164094e-01 -4.834329e+00 2.831404e+00 1.131187e+00 9.068447e-01 -3.601948e+00 -2.666248e+00 2.164272e+00 -2.655878e-01 -1.636130e+00 -5.571268e-01 -1.631491e+00 -1.470870e+00 -7.406818e-01 -4.669675e-02 1.101993e+00 6.791686e-01 2.104167e-01 -1.140692e-01 1.264300e+00 2.746815e+00
<VARIANCE> 25
 2.056014e+01 1.415797e+01 1.598355e+01 1.758615e+01 1.945198e+01 2.988438e+01 2.006113e+01 3.744433e+01 2.403561e+01 1.952130e+01 2.692851e+01 3.011535e+01 3.373249e+00 2.924893e+00 3.592916e+00 3.592760e+00 4.802515e+00 5.293102e+00 3.974058e+00 5.790595e+00 4.280957e+00 3.077710e+00 5.146513e+00 4.040131e+00 4.546859e+00
<GCONST> 1.014414e+02
<TRANSP> 5
 0.000000e+00 1.000000e+00 0.000000e+00 0.000000e+00 0.000000e+00
 0.000000e+00 7.205902e-01 2.794098e-01 0.000000e+00 0.000000e+00
 0.000000e+00 0.000000e+00 6.719105e-01 3.280895e-01 0.000000e+00
 0.000000e+00 0.000000e+00 0.000000e+00 6.443570e-01 3.556430e-01
 0.000000e+00 0.000000e+00 0.000000e+00 0.000000e+00 0.000000e+00
<ENDHMM>
~h "\340\262\270\340\263\215"
<BEGINHMM>
<NUMSTATES> 5
<STATE> 2
<MEAN> 25
 -3.333158e+00 4.002983e+00 1.849311e+00 2.126641e+00 -3.074417e+00 -7.918628e+00 1.085416e+00 -3.496637e+00 -2.462687e+00 -2.144528e+00 -2.333761e+00 -4.032088e-01 -3.055536e+00 9.784978e-01 -1.074939e+00 5.728740e-01 1.412395e+00 -5.922996e-01 1.722858e+00 4.696908e-01 5.150142e-01 -1.568584e-01 7.566429e-01 6.637515e-01 5.629641e-01
<VARIANCE> 25
 7.364096e+01 6.179625e+01 3.531377e+01 4.352600e+01 6.761697e+01 5.208537e+01 7.481518e+01 7.578941e+01 4.894274e+01 2.955258e+01 3.119722e+01 2.777573e+01 8.932091e+00 5.897840e+00 3.332036e+00 6.685627e+00 5.179793e+00 5.848107e+00 7.948517e+00 5.991760e+00 3.687620e+00 2.779904e+00 3.359243e+00 2.884190e+00 4.406637e+00
<GCONST> 1.129821e+02
<STATE> 3
<MEAN> 25
 -2.065543e+01 7.351958e+00 -5.810069e+00 1.952481e+00 3.678693e+00 -5.582647e+00 9.726811e+00 -4.522386e-02 3.404769e+00 -4.091001e-01 2.920080e+00 3.658568e+00 -7.999746e-01 -2.210445e-01 -1.687751e-01 -3.486522e-01 1.020608e-01 -5.082320e-02 1.872623e-01 2.091811e-01 8.976184e-02 4.801603e-02 1.373971e-01 1.951163e-01 3.130958e-01
<VARIANCE> 25
 3.672872e+01 1.141004e+01 1.922858e+01 2.204022e+01 3.133306e+01 3.377036e+01 1.777533e+01 2.031006e+01 2.164906e+01 1.911226e+01 1.868403e+01 1.722204e+01 3.804438e+00 1.139562e+00 1.656123e+00 1.433970e+00 1.517219e+00 2.289343e+00 1.661038e+00 2.086520e+00 1.846088e+00 1.789593e+00 1.952655e+00 1.542722e+00 2.108666e+00
<GCONST> 9.055024e+01
<STATE> 4
<MEAN> 25
 -1.330421e+01 4.728550e+00 -6.298727e-01 -9.548893e-01 2.034031e+00 -1.019138e+01 3.483853e+00 -7.988210e-01 7.308324e-01 -2.300512e+00 -1.603788e+00 1.436820e+00 4.865589e+00 -9.627684e-01 9.504604e-01 -5.643313e-01 -1.711850e+00 -8.549948e-01 -2.910360e+00 -1.242771e+00 -3.819275e-01 -3.561537e-01 -1.447743e+00 -1.320545e+00 8.519266e-01
<VARIANCE> 25
 1.032913e+02 1.892906e+01 3.851424e+01 3.558867e+01 4.518455e+01 5.091059e+01 6.813792e+01 5.485339e+01 4.000716e+01 2.752508e+01 3.242612e+01 2.126694e+01 8.071867e+00 2.879251e+00 3.767879e+00 2.736593e+00 2.860341e+00 4.453360e+00 4.357589e+00 5.391977e+00 3.962610e+00 3.020235e+00 3.530624e+00 2.279060e+00 1.507797e+00
<GCONST> 1.064142e+02
<TRANSP> 5
 0.000000e+00 1.000000e+00 0.000000e+00 0.000000e+00 0.000000e+00
 0.000000e+00 7.594511e-01 2.405488e-01 0.000000e+00 0.000000e+00
 0.000000e+00 0.000000e+00 8.747084e-01 1.252916e-01 0.000000e+00
 0.000000e+00 0.000000e+00 0.000000e+00 7.268732e-01 2.731269e-01
 0.000000e+00 0.000000e+00 0.000000e+00 0.000000e+00 0.000000e+00
<ENDHMM>
~h "\340\262\237\340\263\215"
<BEGINHMM>
<NUMSTATES> 5
<STATE> 2
<MEAN> 25
 -8.285189e-02 -2.294774e+00 -3.886359e+00 3.685848e+00 -7.341740e-02 -2.206656e+00 2.703722e+00 2.909470e+00 4.475114e+00 3.612421e+00 2.840926e+00 7.732468e-01 -1.175241e+00 2.170032e-01 -3.337951e-01 -3.863201e-01 5.986329e-01 9.215190e-01 9.555107e-01 3.727832e-01 8.394449e-01 1.081028e+00 9.197035e-01 8.496579e-01 -1.473556e+00
<VARIANCE> 25
 3.520050e+01 2.848440e+01 4.536495e+01 2.125494e+01 3.960471e+01 3.450834e+01 3.193887e+01 4.723439e+01 3.903400e+01 4.030168e+01 4.181407e+01 3.082091e+01 1.759934e+00 2.799711e+00 2.249602e+00 2.437151e+00 3.346752e+00 2.715443e+00 3.543737e+00 2.473055e+00 3.082406e+00 3.789800e+00 3.378282e+00 2.486655e+00 3.906461e+00
<GCONST> 1.024130e+02
<STATE> 3
<MEAN> 25
 -5.281665e+00 -2.248058e+00 -1.267547e+00 3.107741e+00 1.149523e+00 1.552927e+00 4.594646e+00 2.366933e+00 5.935788e+00 4.617547e+00 4.186923e+00 3.074329e+00 3.482389e-02 -1.264008e+00 1.603334e+00 -8.775383e-01 -1.168664e+00 -8.963870e-01 -3.191670e-01 -7.129427e-01 -1.539141e+00 -1.476594e+00 -6.819146e-01 -3.016410e-01 3.487561e+00
<VARIANCE> 25
 3.418235e+01 4.087799e+01 5.539589e+01 2.027749e+01 2.601496e+01 3.213652e+01 2.064828e+01 2.672460e+01 3.113989e+01 2.691005e+01 2.701428e+01 1.769416e+01 1.909069e+00 3.377869e+00 4.722023e+00 5.804076e+00 4.823658e+00 4.911467e+00 3.134557e+00 4.474324e+00 4.178565e+00 2.854417e+00 2.954132e+00 2.209510e+00 7.432887e+00
<GCONST> 1.034970e+02
<STATE> 4
<MEAN> 25
 -4.766390e-01 -5.656906e+00 2.548461e+00 -2.292418e-01 -5.135062e+00 -3.724861e+00 -7.483696e-01 -2.393567e-01 -1.053637e+00 -1.002147e+00 1.384449e+00 -6.447051e-01 1.870492e+00 -3.299353e-01 8.512874e-01 -1.247875e+00 -2.287898e+00 -1.182509e+00 -2.019831e+00 -7.434543e-01 -1.801978e+00 -7.224348e-01 -1.066993e+00 -1.378730e+00 3.431334e+00
<VARIANCE> 25
 7.108026e+01 4.998781e+01 6.040353e+01 5.102855e+01 7.563383e+01 4.756113e+01 8.672521e+01 4.503440e+01 4.234927e+01 3.346265e+01 4.248127e+01 3.946259e+01 4.368455e+00 5.705746e+00 5.379937e+00 5.160473e+00 1.052620e+01 6.466794e+00 6.943518e+00 5.745730e+00 5.289032e+00 4.093923e+00 6.007102e+00 4.500181e+00 1.395095e+01
<GCONST> 1.167490e+02
<TRANSP> 5
 0.000000e+00 1.000000e+00 0.000000e+00 0.000000e+00 0.000000e+00
 0.000000e+00 7.854658e-01 2.145342e-01 0.000000e+00 0.000000e+00
 0.000000e+00 0.000000e+00 4.168400e-01 5.831600e-01 0.000000e+00
 0.000000e+00 0.000000e+00 0.000000e+00 5.591081e-01 4.408919e-01
 0.000000e+00 0.000000e+00 0.000000e+00 0.000000e+00 0.000000e+00
<ENDHMM>
~h "\340\262\260\340\263\215"
<BEGINHMM>
<NUMSTATES> 5
<STATE> 2
<MEAN> 25
 1.855393e+00 -4.626176e+00 1.731216e+00 3.803694e+00 -3.885259e+00 -9.162482e+00 -1.054728e+00 -9.801096e-01 1.175840e+00 -1.722083e+00 -4.168353e+00 -8.418801e-02 1.056947e+00 -4.578067e-01 3.860445e-01 7.916833e-01 -1.323497e+00 -6.196803e-01 -8.193035e-01 -1.494276e-01 2.754965e-02 -5.674188e-01 -1.205767e-01 2.561329e-01 4.520154e-01
<VARIANCE> 25
 4.347729e+01 3.892135e+01 5.289040e+01 3.832243e+01 6.297444e+01 5.327873e+01 4.400445e+01 4.263418e+01 3.396902e+01 2.811948e+01 3.021832e+01 2.809875e+01 5.750590e+00 3.424069e+00 5.705888e+00 4.250897e+00 5.485146e+00 5.000493e+00 5.322224e+00 4.175170e+00 3.499234e+00 3.195111e+00 3.465508e+00 3.203566e+00 5.416177e+00
<GCONST> 1.093483e+02
<STATE> 3
<MEAN> 25
 9.682301e+00 -1.004653e+01 -1.584192e+00 4.382359e+00 -1.355373e+01 -9.006575e+00 -8.793514e+00 -6.375378e-01 1.093138e+00 -2.271239e+00 -3.783936e+00 -2.576943e+00 8.865364e-01 -7.957094e-01 -8.579228e-01 -4.591086e-01 -1.254218e+00 1.526162e+00 -1.413009e+00 5.638782e-01 -2.829646e-01 -4.050288e-02 1.009352e+00 -1.182723e+00 5.073217e-01
<VARIANCE> 25
 1.846462e+01 2.804013e+01 5.403431e+01 3.096045e+01 5.754443e+01 4.060212e+01 4.246968e+01 3.986442e+01 4.354260e+01 2.124932e+01 3.034389e+01 2.991797e+01 2.495810e+00 3.145290e+00 4.645792e+00 4.126449e+00 6.172118e+00 4.724706e+00 4.609679e+00 4.357271e+00 3.680969e+00 3.405717e+00 3.651110e+00 3.572668e+00 2.626260e+00
<GCONST> 1.058998e+02
<STATE> 4
<MEAN> 25
 1.016075e+01 -5.532161e+00 -4.394311e+00 -6.213100e+00 -8.342882e+00 -1.393110e-01 -8.620468e+00 -4.138191e+00 -4.559629e+00 -2.552644e+00 2.041718e-01 -5.783434e+00 -3.335437e-01 6.262571e-01 5.510332e-02 -8.796037e-01 8.841231e-01 5.803790e-01 6.601353e-01 -1.441745e-01 -5.485490e-01 -2.614673e-01 -8.796157e-02 -8.815944e-02 -2.072681e-01
<VARIANCE> 25
 2.538754e+01 5.165295e+01 6.643958e+01 8.236880e+01 5.970409e+01 6.833482e+01 4.853876e+01 5.794639e+01 8.051366e+01 3.778045e+01 6.821950e+01 3.014802e+01 8.624511e-01 2.749538e+00 2.125612e+00 4.552621e+00 2.985911e+00 3.248774e+00 3.173887e+00 3.285832e+00 4.440963e+00 3.274835e+00 3.235336e+00 2.397045e+00 1.851408e+00
<GCONST> 1.067294e+02
<TRANSP> 5
 0.000000e+00 1.000000e+00 0.000000e+00 0.000000e+00 0.000000e+00
 0.000000e+00 6.376792e-01 3.623208e-01 0.000000e+00 0.000000e+00
 0.000000e+00 0.000000e+00 6.083993e-01 3.916007e-01 0.000000e+00
 0.000000e+00 0.000000e+00 0.000000e+00 6.787865e-01 3.212135e-01
 0.000000e+00 0.000000e+00 0.000000e+00 0.000000e+00 0.000000e+00
<ENDHMM>
~h "\340\262\227\340\263\215"
<BEGINHMM>
<NUMSTATES> 5
<STATE> 2
<MEAN> 25
 6.263548e+00 -5.399756e-01 4.768842e-02 -4.142871e+00 -1.330879e+00 -4.047934e+00 -6.595477e+00 -3.394113e+00 -6.810230e+00 7.226442e-01 -1.571051e+00 -4.216161e+00 7.782917e-01 1.368789e+00 9.923823e-01 6.920293e-01 -1.650514e-01 -5.552058e-01 -2.801628e-01 -1.239241e+00 -1.600053e+00 -2.398616e-01 4.609282e-01 -9.857427e-02 -7.663786e-01
<VARIANCE> 25
 3.855755e+01 4.674140e+01 5.749929e+01 6.130331e+01 7.374465e+01 6.211920e+01 6.585854e+01 7.389051e+01 5.290381e+01 4.158962e+01 4.179781e+01 4.004522e+01 3.327152e+00 6.744981e+00 5.028633e+00 8.589969e+00 7.571827e+00 4.279995e+00 6.417865e+00 5.519121e+00 5.631665e+00 3.453548e+00 3.956308e+00 4.232298e+00 1.049430e+01
<GCONST> 1.157093e+02
<STATE> 3
<MEAN> 25
 8.026675e+00 7.184145e-02 3.911781e+00 -1.063012e+00 -4.178249e+00 -5.035991e+00 -7.294360e+00 -5.125355e+00 -8.663954e+00 -1.137132e+00 -1.906770e+00 -6.318790e+00 -1.347194e-01 1.385311e+00 5.549652e-01 1.423134e+00 8.774790e-01 5.286310e-01 1.052676e+00 -1.059441e+00 2.991409e-01 -5.677989e-01 -4.583164e-01 -1.431083e-01 -1.808132e+00
<VARIANCE> 25
 1.935813e+01 5.645055e+01 4.778212e+01 5.213745e+01 7.417284e+01 4.534988e+01 6.295886e+01 6.343541e+01 5.527903e+01 3.775564e+01 4.947833e+01 2.541410e+01 1.576896e+00 5.250094e+00 2.824087e+00 5.448603e+00 7.652223e+00 5.189210e+00 5.487651e+00 7.226134e+00 4.306917e+00 3.754418e+00 4.423886e+00 2.579602e+00 6.134863e+00
<GCONST> 1.111984e+02
<STATE> 4
<MEAN> 25
 9.674194e+00 4.404472e+00 1.935883e+00 -2.528110e+00 -2.950286e+00 -1.192391e+00 -4.314025e+00 -7.675074e+00 -1.028256e+01 -3.764208e+00 -8.513950e-01 -5.656073e+00 -1.031291e+00 -1.552927e-01 -3.982677e-01 3.292076e-01 1.136646e+00 -2.758410e-01 5.326346e-01 5.378456e-01 9.301738e-01 9.361039e-02 -3.732886e-01 4.508443e-01 -2.377898e-01
<VARIANCE> 25
 2.208893e+01 3.593541e+01 4.491790e+01 7.801736e+01 6.326956e+01 5.419094e+01 5.469537e+01 4.036153e+01 6.486423e+01 3.290003e+01 6.215932e+01 1.945552e+01 2.457685e+00 3.800241e+00 2.643354e+00 3.373902e+00 5.071485e+00 3.996500e+00 4.405189e+00 4.323483e+00 3.331352e+00 2.854108e+00 2.375428e+00 2.278254e+00 3.331745e+00
<GCONST> 1.069112e+02
<TRANSP> 5
 0.000000e+00 1.000000e+00 0.000000e+00 0.000000e+00 0.000000e+00
 0.000000e+00 4.978345e-01 5.021655e-01 0.000000e+00 0.000000e+00
 0.000000e+00 0.000000e+00 4.955671e-01 5.044329e-01 0.000000e+00
 0.000000e+00 0.000000e+00 0.000000e+00 6.270803e-01 3.729198e-01
 0.000000e+00 0.000000e+00 0.000000e+00 0.000000e+00 0.000000e+00
<ENDHMM>
~h "\340\262\250\340\263\215"
<BEGINHMM>
<NUMSTATES> 5
<STATE> 2
<MEAN> 25
 7.517534e+00 -6.512271e-01 5.046466e+00 3.029417e-01 -5.122362e+00 -7.882208e+00 -2.721658e+00 6.768974e-01 -6.282945e+00 -6.416549e+00 -5.240388e+00 2.133527e-01 1.236961e+00 1.913535e+00 1.626631e+00 2.378034e-01 2.380653e-01 -1.653470e+00 3.793339e-01 -1.332247e+00 -2.113318e+00 2.415984e-01 7.605341e-02 3.096670e-01 -6.048489e-01
<VARIANCE> 25
 2.734138e+01 5.682405e+01 3.017029e+01 3.221311e+01 4.840477e+01 5.679540e+01 4.433999e+01 4.824526e+01 5.766394e+01 3.068979e+01 4.346510e+01 2.336544e+01 1.708640e+00 2.486971e+00 3.399539e+00 2.977441e+00 4.497595e+00 3.885323e+00 3.001039e+00 3.276721e+00 3.691545e+00 3.049011e+00 2.198128e+00 2.547741e+00 4.193682e+00
<GCONST> 1.046488e+02
<STATE> 3
<MEAN> 25
 1.144421e+01 4.035183e+00 7.762521e+00 -8.333390e-01 -6.264766e+00 -1.047970e+01 1.870751e-01 -4.284115e+00 -1.455372e+01 -5.515542e+00 -2.756361e+00 6.889248e-01 -2.239645e-01 -7.666079e-01 -2.090068e-01 -6.438668e-02 -5.188665e-01 1.568484e-01 -4.397973e-01 5.339671e-01 6.207295e-01 -4.002202e-01 -1.950425e-02 -2.454614e-01 5.899864e-01
<VARIANCE> 25
 6.283095e+00 2.055338e+01 1.562118e+01 1.795200e+01 2.228888e+01 2.951606e+01 3.098973e+01 4.233783e+01 5.657405e+01 2.664145e+01 3.581174e+01 2.813766e+01 5.667316e-01 3.142733e+00 1.215157e+00 1.720947e+00 2.493829e+00 2.392039e+00 2.892511e+00 3.355412e+00 5.353736e+00 2.006107e+00 1.902296e+00 1.692177e+00 1.696031e+00
<GCONST> 9.379091e+01
<STATE> 4
<MEAN> 25
 7.283578e+00 -3.695134e+00 3.911560e+00 -4.099606e+00 -7.682189e+00 -4.997618e+00 -5.480845e+00 -2.130974e-01 -5.595696e+00 -5.834911e+00 -3.290138e+00 -3.723366e+00 -5.427682e-01 -9.700929e-01 -9.368584e-01 -9.722576e-01 3.582899e-02 1.306776e+00 -2.928702e-01 9.300919e-02 7.976060e-01 2.811831e-01 2.697570e-01 -4.276115e-01 5.672163e-01
<VARIANCE> 25
 2.120560e+01 4.489164e+01 5.052094e+01 5.526923e+01 7.641969e+01 4.551578e+01 4.615190e+01 4.745771e+01 5.748785e+01 4.070748e+01 3.196807e+01 3.332884e+01 1.143493e+00 4.024810e+00 3.100440e+00 3.596304e+00 5.029135e+00 3.500415e+00 3.780240e+00 3.947909e+00 4.411857e+00 3.075988e+00 2.885158e+00 2.485640e+00 2.596782e+00
<GCONST> 1.063567e+02
<TRANSP> 5
 0.000000e+00 1.000000e+00 0.000000e+00 0.000000e+00 0.000000e+00
 0.000000e+00 6.674640e-01 3.325361e-01 0.000000e+00 0.000000e+00
 0.000000e+00 0.000000e+00 7.491231e-01 2.508770e-01 0.000000e+00
 0.000000e+00 0.000000e+00 0.000000e+00 6.305934e-01 3.694066e-01
 0.000000e+00 0.000000e+00 0.000000e+00 0.000000e+00 0.000000e+00
<ENDHMM>
~h "\340\262\271\340\263\215"
<BEGINHMM>
<NUMSTATES> 5
<STATE> 2
<MEAN> 25
 -5.138816e+00 3.106111e+00 -1.708819e+00 4.494256e+00 5.315910e+00 3.966238e+00 5.729585e+00 4.552200e+00 4.951945e+00 3.557266e+00 3.783345e+00 4.266421e+00 -2.021245e-02 5.005883e-02 2.265228e-02 1.156730e-02 5.506972e-03 -1.257544e-02 5.486595e-02 -1.357811e-02 -6.742786e-03 -4.057214e-02 2.597889e-02 1.968603e-02 -3.143723e-02
<VARIANCE> 25
 9.312066e+00 8.822961e+00 9.296873e+00 1.361703e+01 1.240500e+01 1.651966e+01 1.535905e+01 1.461252e+01 1.694675e+01 2.205576e+01 1.699852e+01 1.460494e+01 5.026668e-01 6.377335e-01 7.263323e-01 9.844469e-01 9.738985e-01 1.203753e+00 1.426549e+00 1.353694e+00 1.392566e+00 1.599298e+00 1.597882e+00 1.369432e+00 4.768328e-01
<GCONST> 7.755817e+01
<STATE> 3
<MEAN> 25
 -9.432741e-01 -2.164629e-01 -1.753078e+00 4.289227e-01 5.762203e+00 5.214471e+00 3.171182e+00 7.066962e-01 1.721171e+00 -2.579273e+00 1.010289e-01 1.977484e+00 3.442298e-01 -2.947249e-01 -1.329104e-01 -4.660493e-01 -4.683841e-01 3.378633e-02 -3.264512e-01 -7.178183e-01 -3.423299e-01 -3.359341e-01 -3.556942e-01 -2.132050e-01 6.700712e-01
<VARIANCE> 25
 2.261665e+01 2.436141e+01 2.388828e+01 3.835124e+01 3.273579e+01 3.502884e+01 4.218056e+01 3.279019e+01 2.681118e+01 3.574047e+01 2.997835e+01 1.763399e+01 1.137730e+00 1.460848e+00 1.918511e+00 2.139514e+00 2.372584e+00 3.045684e+00 3.065425e+00 1.894262e+00 2.091511e+00 3.029062e+00 2.578945e+00 2.016581e+00 1.050620e+00
<GCONST> 9.569213e+01
<STATE> 4
<MEAN> 25
 2.142415e-01 -2.243202e+00 -3.639726e+00 -1.731812e+00 3.059635e+00 4.177037e+00 1.900634e+00 -8.963795e-01 1.105469e+00 -3.669472e+00 -2.037060e+00 1.555352e+00 1.134040e+00 -7.759475e-01 -1.598167e-01 -1.495429e+00 -1.103718e+00 -1.949454e-01 -8.145127e-01 -9.464501e-01 -5.395284e-01 -6.975943e-01 -8.519963e-01 -7.806328e-01 2.433632e+00
<VARIANCE> 25
 2.257427e+01 3.123738e+01 3.086580e+01 3.603804e+01 4.338434e+01 3.402428e+01 3.718111e+01 3.262918e+01 2.392046e+01 3.135543e+01 3.368161e+01 2.014673e+01 1.435690e+00 3.509027e+00 2.338180e+00 2.869075e+00 2.939165e+00 3.181112e+00 3.056070e+00 2.439248e+00 2.452068e+00 2.700248e+00 2.654615e+00 2.029538e+00 2.566335e+00
<GCONST> 9.933929e+01
<TRANSP> 5
 0.000000e+00 1.000000e+00 0.000000e+00 0.000000e+00 0.000000e+00
 0.000000e+00 8.653497e-01 1.346503e-01 0.000000e+00 0.000000e+00
 0.000000e+00 0.000000e+00 4.219686e-01 5.780314e-01 0.000000e+00
 0.000000e+00 0.000000e+00 0.000000e+00 6.783949e-01 3.216051e-01
 0.000000e+00 0.000000e+00 0.000000e+00 0.000000e+00 0.000000e+00
<ENDHMM>
~h "\340\262\205"
<BEGINHMM>
<NUMSTATES> 5
<STATE> 2
<MEAN> 25
 4.186947e+00 -3.325782e+00 -1.912596e+00 -2.121173e+00 -2.978220e+00 -6.722003e+00 -4.632174e+00 -4.041113e-02 -1.478369e-01 -1.715467e+00 -4.405299e+00 -2.113679e+00 1.113534e+00 -2.167048e+00 -1.355165e+00 -1.811533e+00 -1.153632e+00 -9.058721e-02 -1.339490e+00 1.217400e+00 8.302288e-01 2.461976e-01 -9.728632e-01 -8.428721e-01 2.502502e+00
<VARIANCE> 25
 3.466314e+01 5.046472e+01 3.768790e+01 5.120601e+01 6.999464e+01 6.845256e+01 5.611221e+01 4.746284e+01 4.242702e+01 4.094090e+01 3.568892e+01 3.167504e+01 4.589912e+00 4.152434e+00 3.820331e+00 4.825209e+00 6.410500e+00 6.104269e+00 5.142501e+00 5.089035e+00 4.863766e+00 4.167482e+00 4.176561e+00 3.943410e+00 4.596529e+00
<GCONST> 1.119605e+02
<STATE> 3
<MEAN> 25
 6.394433e+00 -1.113426e+01 -5.846171e+00 -6.793781e+00 -5.177437e+00 -4.991047e+00 -6.691344e+00 4.021530e+00 1.784128e+00 -2.122422e+00 -9.421892e+00 -5.319878e+00 4.840789e-02 -7.839759e-01 -4.003708e-01 -2.943327e-01 3.284218e-01 5.678717e-01 -8.586803e-02 1.040400e-01 1.772879e-02 -8.404871e-02 -5.352415e-01 -3.544478e-01 4.154925e-01
<VARIANCE> 25
 1.073286e+01 2.855684e+01 2.341970e+01 3.430674e+01 3.627839e+01 5.748519e+01 3.740357e+01 3.753149e+01 2.420499e+01 3.913227e+01 3.399988e+01 3.299187e+01 6.995100e-01 2.450589e+00 1.742591e+00 2.617471e+00 3.231564e+00 4.373868e+00 2.883426e+00 4.060678e+00 2.020820e+00 2.127132e+00 2.317113e+00 2.072506e+00 1.420013e+00
<GCONST> 9.767039e+01
<STATE> 4
<MEAN> 25
 5.504681e+00 -4.726386e+00 -6.033226e+00 -4.001362e+00 2.285369e+00 2.155568e+00 -6.270277e+00 -1.894233e+00 1.269074e+00 -6.111593e+00 -5.622294e+00 -3.861638e+00 -3.034574e-01 1.005555e+00 5.101788e-01 8.738598e-01 4.359321e-01 -1.896274e-02 4.417387e-01 -1.301526e-01 -9.287059e-03 8.760659e-02 5.430305e-01 4.421184e-01 -1.534349e+00
<VARIANCE> 25
 2.036182e+01 3.839406e+01 2.541047e+01 4.232737e+01 5.319035e+01 7.603175e+01 5.573577e+01 4.540912e+01 2.354430e+01 5.682448e+01 3.936143e+01 3.336187e+01 1.041664e+00 1.729143e+00 1.728200e+00 2.621551e+00 2.450623e+00 3.199356e+00 3.185884e+00 3.241742e+00 1.976658e+00 3.381340e+00 2.309462e+00 2.150875e+00 1.677550e+00
<GCONST> 1.006228e+02
<TRANSP> 5
 0.000000e+00 1.000000e+00 0.000000e+00 0.000000e+00 0.000000e+00
 0.000000e+00 5.317049e-01 4.682951e-01 0.000000e+00 0.000000e+00
 0.000000e+00 0.000000e+00 6.806833e-01 3.193167e-01 0.000000e+00
 0.000000e+00 0.000000e+00 0.000000e+00 8.277661e-01 1.722339e-01
 0.000000e+00 0.000000e+00 0.000000e+00 0.000000e+00 0.000000e+00
<ENDHMM>
~h "\340\262\206"
<BEGINHMM>
<NUMSTATES> 5
<STATE> 2
<MEAN> 25
 3.608647e+00 -8.141363e+00 -5.738841e+00 -5.786151e+00 6.687624e-01 1.471213e+00 -1.441734e+00 -1.392967e+00 1.766883e-01 -3.020324e+00 -5.820004e+00 -4.108089e+00 7.025812e-01 -2.035111e+00 -1.280988e+00 -1.613754e+00 3.280135e-01 1.986566e+00 -4.213986e-01 -7.935185e-01 -2.257974e-01 -6.169868e-01 -4.824488e-01 -1.085287e+00 1.936111e+00
<VARIANCE> 25
 4.014436e+01 5.672631e+01 3.593567e+01 5.129638e+01 4.775034e+01 7.593051e+01 5.475430e+01 4.339807e+01 3.607764e+01 4.590634e+01 4.137391e+01 3.727594e+01 3.077802e+00 3.870893e+00 2.968843e+00 3.907653e+00 4.249728e+00 5.106055e+00 4.077545e+00 4.608131e+00 4.153214e+00 3.333647e+00 3.666152e+00 3.007134e+00 5.116829e+00
<GCONST> 1.095194e+02
<STATE> 3
<MEAN> 25
 7.145879e+00 -1.437583e+01 -9.970839e+00 -1.121031e+01 1.744192e+00 9.696498e+00 -4.995028e+00 -7.705034e+00 -1.592640e+00 -5.883147e+00 -4.506597e+00 -7.301645e+00 2.236799e-02 -4.160582e-02 -9.418377e-02 -1.183726e-01 1.553982e-01 2.786105e-01 -3.358831e-01 -2.578912e-01 3.866028e-02 4.053392e-02 1.316267e-02 1.989462e-02 1.008208e-01
<VARIANCE> 25
 8.476037e+00 2.056597e+01 1.613881e+01 2.779104e+01 2.152284e+01 3.291130e+01 5.128408e+01 2.468274e+01 2.631157e+01 3.947395e+01 3.925376e+01 3.460791e+01 2.689191e-01 8.050358e-01 6.157708e-01 1.115678e+00 1.042060e+00 1.705981e+00 9.784271e-01 1.753122e+00 8.228204e-01 8.841138e-01 1.208148e+00 7.540817e-01 2.702763e-01
<GCONST> 8.256958e+01
<STATE> 4
<MEAN> 25
 7.238677e+00 -1.041146e+01 -9.206383e+00 -7.032176e+00 -5.132619e-01 3.094038e+00 -6.707652e+00 -2.806045e+00 1.313476e+00 -4.942328e+00 -8.208789e+00 -6.372351e+00 3.419982e-02 1.246736e+00 8.059890e-01 1.231220e+00 -7.697192e-01 -2.041793e+00 7.652514e-02 1.137539e+00 3.269545e-01 2.480634e-01 -2.824037e-01 4.217702e-01 -1.014334e+00
<VARIANCE> 25
 8.482874e+00 3.295322e+01 1.914454e+01 4.047323e+01 3.461417e+01 5.250455e+01 4.305498e+01 3.874923e+01 2.378106e+01 4.487854e+01 3.491865e+01 3.217826e+01 5.856158e-01 1.823452e+00 2.002401e+00 1.958905e+00 2.745655e+00 3.841071e+00 2.895504e+00 3.287053e+00 2.314991e+00 2.091799e+00 2.732374e+00 2.102564e+00 1.536699e+00
<GCONST> 9.695133e+01
<TRANSP> 5
 0.000000e+00 1.000000e+00 0.000000e+00 0.000000e+00 0.000000e+00
 0.000000e+00 7.373633e-01 2.626367e-01 0.000000e+00 0.000000e+00
 0.000000e+00 0.000000e+00 8.798045e-01 1.201955e-01 0.000000e+00
 0.000000e+00 0.000000e+00 0.000000e+00 8.102236e-01 1.897764e-01
 0.000000e+00 0.000000e+00 0.000000e+00 0.000000e+00 0.000000e+00
<ENDHMM>
~h "\340\262\207"
<BEGINHMM>
<NUMSTATES> 5
<STATE> 2
<MEAN> 25
 2.419722e-01 1.663242e+00 1.149825e+01 -3.510740e+00 -9.130020e+00 -5.245326e+00 -3.127826e+00 -6.759128e+00 -8.032490e+00 -1.966826e+00 -1.686334e+00 -3.156228e+00 7.888157e-01 -3.702833e-01 1.877323e+00 -1.820936e+00 -3.031533e+00 2.392044e-01 -1.571015e+00 -8.550980e-01 -1.884248e+00 7.644249e-01 1.631728e-01 -9.852965e-01 1.900068e+00
<VARIANCE> 25
 3.276645e+01 4.085470e+01 4.013427e+01 4.715134e+01 8.175306e+01 5.093259e+01 3.355766e+01 4.292318e+01 4.862725e+01 2.695458e+01 3.046867e+01 2.387247e+01 6.476323e+00 3.983683e+00 4.241877e+00 3.867122e+00 5.484762e+00 5.447020e+00 4.219095e+00 4.451403e+00 5.041983e+00 3.345016e+00 3.935679e+00 3.046069e+00 3.911634e+00
<GCONST> 1.091175e+02
<STATE> 3
<MEAN> 25
 2.080862e+00 4.393030e+00 1.487228e+01 -8.735568e+00 -1.518420e+01 1.140620e-01 -8.431718e+00 -1.061179e+01 -1.023550e+01 -4.192501e-01 -4.855211e+00 -4.992532e+00 1.769107e-01 3.825908e-01 -3.141344e-01 4.927765e-01 3.583249e-01 2.334923e-01 4.824455e-01 -1.000189e-01 2.206105e-01 -2.977707e-01 -2.347135e-01 1.261399e-01 -6.385809e-01
<VARIANCE> 25
 9.684677e+00 4.629859e+01 2.443115e+01 3.550383e+01 2.907333e+01 6.273129e+01 3.290752e+01 3.693293e+01 2.889648e+01 2.643449e+01 4.704553e+01 2.236918e+01 6.244223e-01 1.964397e+00 1.415968e+00 2.835146e+00 2.788497e+00 3.297282e+00 3.212289e+00 2.629520e+00 1.785799e+00 1.780679e+00 1.967466e+00 1.538659e+00 1.312380e+00
<GCONST> 9.550964e+01
<STATE> 4
<MEAN> 25
 -1.453330e+00 2.582382e+00 7.297463e+00 1.879075e+00 -4.263684e+00 -1.825356e+00 2.470339e+00 -3.329706e+00 -3.797606e+00 -1.180140e+00 9.773865e-02 -4.700582e-01 -5.028540e-01 -2.000414e-01 -1.011306e+00 1.065167e+00 1.469085e+00 -3.449021e-01 7.414157e-01 9.882644e-01 9.577678e-01 2.605607e-01 7.443708e-01 7.362846e-01 -1.381712e+00
<VARIANCE> 25
 3.506631e+01 3.257916e+01 3.896990e+01 4.474076e+01 7.058588e+01 7.323385e+01 4.497368e+01 5.486363e+01 5.185107e+01 3.467421e+01 4.179505e+01 3.021352e+01 2.414884e+00 3.605799e+00 2.492869e+00 4.431293e+00 4.682260e+00 6.504005e+00 4.161457e+00 3.448355e+00 3.213238e+00 3.593199e+00 3.549323e+00 2.386440e+00 3.075951e+00
<GCONST> 1.078012e+02
<TRANSP> 5
 0.000000e+00 1.000000e+00 0.000000e+00 0.000000e+00 0.000000e+00
 0.000000e+00 6.865042e-01 3.134958e-01 0.000000e+00 0.000000e+00
 0.000000e+00 0.000000e+00 8.448423e-01 1.551577e-01 0.000000e+00
 0.000000e+00 0.000000e+00 0.000000e+00 7.378165e-01 2.621835e-01
 0.000000e+00 0.000000e+00 0.000000e+00 0.000000e+00 0.000000e+00
<ENDHMM>
~h "\340\262\210"
<BEGINHMM>
<NUMSTATES> 5
<STATE> 2
<MEAN> 25
 -3.234441e+00 4.313488e+00 1.429816e+01 -4.990820e+00 -5.193088e+00 -5.482234e-01 -5.258313e+00 -6.032766e+00 -5.916478e+00 -7.076779e-01 -2.409542e+00 -2.890693e+00 4.679444e-01 3.128457e-01 2.977503e+00 -2.146499e+00 -1.643362e+00 5.058587e-01 -2.070386e+00 -1.136607e+00 -1.546965e+00 -1.828960e-01 -1.302809e+00 -1.175269e+00 1.834809e+00
<VARIANCE> 25
 3.390234e+01 3.403408e+01 8.103595e+01 5.902883e+01 6.829517e+01 2.682605e+01 5.911755e+01 4.993357e+01 4.867631e+01 2.618795e+01 3.398289e+01 3.003607e+01 3.469034e+00 2.960861e+00 6.718351e+00 5.023642e+00 3.861182e+00 3.234350e+00 5.250980e+00 4.144938e+00 5.542808e+00 3.513333e+00 3.021902e+00 3.088891e+00 5.512468e+00
<GCONST> 1.094161e+02
<STATE> 3
<MEAN> 25
 -8.104557e-01 5.094739e+00 2.121036e+01 -1.212928e+01 -1.055100e+01 4.408053e+00 -1.305028e+01 -1.088880e+01 -9.405295e+00 -2.463603e+00 -9.349159e+00 -5.291593e+00 1.275672e-01 -1.411219e-04 -4.130643e-01 3.281166e-01 1.626007e-02 1.405007e-02 2.621689e-01 -5.784425e-02 1.160344e-01 1.035494e-02 -3.453768e-02 2.048856e-01 -2.681347e-01
<VARIANCE> 25
 1.562997e+01 2.489797e+01 4.468388e+01 4.332667e+01 2.720515e+01 3.173626e+01 3.690081e+01 3.479302e+01 3.298555e+01 3.335160e+01 2.720213e+01 2.917319e+01 3.829953e-01 1.148919e+00 1.320823e+00 1.455215e+00 1.664099e+00 1.796740e+00 2.166230e+00 1.724164e+00 1.537665e+00 1.344556e+00 1.286298e+00 1.302727e+00 8.994417e-01
<GCONST> 9.045959e+01
<STATE> 4
<MEAN> 25
 -3.015524e+00 2.365445e+00 5.522711e+00 1.855696e+00 -1.035514e+00 2.405245e+00 1.968177e+00 -2.754004e+00 -3.723745e-01 8.994894e-01 -5.719035e-01 1.790951e+00 -3.224297e-01 -8.048905e-02 -7.326930e-01 8.037435e-01 7.401246e-01 -2.570728e-01 6.063969e-01 6.868750e-01 5.241616e-01 3.868116e-01 6.865364e-01 3.533664e-01 -7.672577e-01
<VARIANCE> 25
 1.849645e+01 2.283320e+01 5.284766e+01 4.654556e+01 6.370341e+01 4.562784e+01 5.458427e+01 4.886340e+01 4.683916e+01 2.710081e+01 3.124350e+01 2.750228e+01 1.449894e+00 2.351908e+00 1.674312e+00 2.156857e+00 2.673731e+00 5.077443e+00 3.143561e+00 2.264297e+00 2.891183e+00 3.132553e+00 2.337800e+00 1.670216e+00 1.575840e+00
<GCONST> 1.006686e+02
<TRANSP> 5
 0.000000e+00 1.000000e+00 0.000000e+00 0.000000e+00 0.000000e+00
 0.000000e+00 8.023744e-01 1.976256e-01 0.000000e+00 0.000000e+00
 0.000000e+00 0.000000e+00 9.344213e-01 6.557863e-02 0.000000e+00
 0.000000e+00 0.000000e+00 0.000000e+00 7.290525e-01 2.709475e-01
 0.000000e+00 0.000000e+00 0.000000e+00 0.000000e+00 0.000000e+00
<ENDHMM>
~h "\340\262\211"
<BEGINHMM>
<NUMSTATES> 5
<STATE> 2
<MEAN> 25
 8.739022e+00 2.696752e+00 -4.263712e+00 -7.550957e+00 7.259994e-01 2.286074e+00 -4.417267e+00 -6.079253e+00 -7.069592e+00 -5.654582e+00 1.618445e-01 -4.095068e+00 -7.160303e-01 3.461741e-01 6.924725e-02 6.373275e-01 6.098600e-01 3.765412e-01 9.921747e-01 4.059420e-01 3.204938e-01 2.300143e-04 1.366293e-01 4.828472e-01 -1.307104e+00
<VARIANCE> 25
 2.496124e+01 2.752870e+01 2.163625e+01 5.837133e+01 4.260282e+01 5.281242e+01 8.662323e+01 2.921448e+01 4.202120e+01 7.392735e+01 3.273578e+01 2.631052e+01 1.708288e+00 2.010428e+00 1.782498e+00 3.851432e+00 2.928452e+00 4.337729e+00 4.277378e+00 2.496540e+00 2.904352e+00 4.991177e+00 2.937507e+00 2.574861e+00 1.136402e+00
<GCONST> 1.028708e+02
<STATE> 3
<MEAN> 25
 -4.068022e+00 2.863806e+00 -1.649712e+00 1.932701e+00 4.832721e+00 1.759337e+00 4.682656e+00 1.643183e+00 1.971119e+00 1.922301e+00 3.500161e+00 2.854464e+00 -7.259235e-01 1.182536e-01 2.319124e-01 6.592340e-01 -3.507812e-02 -7.073558e-02 2.789072e-01 6.733443e-01 7.328109e-01 8.699653e-01 3.449354e-01 5.295947e-01 -8.746366e-01
<VARIANCE> 25
 3.096454e+01 1.548065e+01 2.778827e+01 2.405520e+01 2.269425e+01 3.283080e+01 3.276134e+01 2.561691e+01 2.754650e+01 2.827952e+01 2.482517e+01 1.766147e+01 3.037207e+00 1.664992e+00 2.860661e+00 2.200565e+00 2.106935e+00 3.451637e+00 3.038223e+00 2.256685e+00 2.619122e+00 2.813364e+00 2.253793e+00 1.848397e+00 1.425847e+00
<GCONST> 9.586025e+01
<STATE> 4
<MEAN> 25
 -5.013247e+00 3.382932e+00 -7.072856e-01 5.375745e+00 4.990845e+00 3.230164e+00 4.925286e+00 3.938895e+00 4.506560e+00 4.013359e+00 3.748034e+00 4.141741e+00 -3.964574e-02 -6.256623e-03 5.227964e-02 8.100076e-02 8.973896e-03 1.119374e-02 1.129799e-02 2.153767e-02 1.758361e-02 -2.009936e-03 8.566363e-03 1.633881e-02 -3.569515e-02
<VARIANCE> 25
 5.686306e+00 4.493010e+00 6.565318e+00 8.753273e+00 9.234171e+00 1.210428e+01 1.413198e+01 1.396216e+01 1.472933e+01 1.447406e+01 1.373881e+01 1.223612e+01 2.744859e-01 3.674984e-01 5.231622e-01 6.975033e-01 9.081486e-01 1.098538e+00 1.183419e+00 1.329568e+00 1.405346e+00 1.384290e+00 1.287514e+00 1.202236e+00 4.293682e-01
<GCONST> 7.113263e+01
<TRANSP> 5
 0.000000e+00 1.000000e+00 0.000000e+00 0.000000e+00 0.000000e+00
 0.000000e+00 8.714424e-01 1.285575e-01 0.000000e+00 0.000000e+00
 0.000000e+00 0.000000e+00 7.863864e-01 2.136137e-01 0.000000e+00
 0.000000e+00 0.000000e+00 0.000000e+00 9.350634e-01 6.493661e-02
 0.000000e+00 0.000000e+00 0.000000e+00 0.000000e+00 0.000000e+00
<ENDHMM>
~h "\340\262\212"
<BEGINHMM>
<NUMSTATES> 5
<STATE> 2
<MEAN> 25
 5.265100e+00 9.051604e-01 1.537827e+00 -1.120335e+00 -1.215075e+00 -4.864120e+00 -5.272620e+00 -4.405465e+00 -5.050448e+00 -1.369166e+00 -5.643006e-01 -3.484156e+00 1.477012e+00 -1.940533e-01 -5.603735e-01 -1.778186e+00 -9.448346e-01 6.788712e-01 -1.550475e+00 -6.689918e-01 -1.687580e+00 2.466598e-01 7.738180e-01 -1.168913e+00 1.252256e+00
<VARIANCE> 25
 5.833116e+01 4.722332e+01 4.602868e+01 6.438363e+01 5.924113e+01 4.879172e+01 9.483446e+01 3.710590e+01 7.871108e+01 4.502971e+01 3.406215e+01 2.954752e+01 4.818927e+00 3.741435e+00 4.494687e+00 5.043524e+00 8.304133e+00 5.469071e+00 6.074504e+00 4.261324e+00 6.854757e+00 5.803119e+00 3.720530e+00 3.629706e+00 3.931777e+00
<GCONST> 1.138225e+02
<STATE> 3
<MEAN> 25
 1.256107e+01 2.606452e-01 -2.956512e+00 -1.100414e+01 -7.445276e+00 1.667340e+00 -9.878362e+00 -8.512950e+00 -1.299449e+01 -2.008417e+00 3.503582e+00 -6.932431e+00 1.791875e-01 2.547929e-01 -3.642069e-01 -8.257566e-01 -1.791782e-01 9.463052e-01 1.240229e-01 -2.803433e-01 -5.937481e-01 -3.552693e-01 3.557400e-01 3.724434e-01 -2.968410e-02
<VARIANCE> 25
 7.845798e+00 2.568859e+01 1.789586e+01 2.912960e+01 5.185702e+01 2.884519e+01 5.067142e+01 5.593605e+01 6.744386e+01 5.605917e+01 3.429538e+01 3.576611e+01 2.514667e-01 8.532295e-01 7.670920e-01 1.388126e+00 1.535653e+00 1.585273e+00 1.936124e+00 1.850689e+00 1.837191e+00 1.523443e+00 1.962109e+00 1.473097e+00 4.079447e-01
<GCONST> 9.000256e+01
<STATE> 4
<MEAN> 25
 1.087500e+01 2.037732e+00 -3.896339e+00 -7.950408e+00 -4.881998e+00 6.595529e-01 -5.049917e+00 -9.871495e+00 -9.731549e+00 -1.356678e+00 -5.442333e-02 -2.673249e+00 -4.838999e-01 -1.562224e-01 6.938448e-02 1.355637e+00 7.048808e-01 -9.298886e-01 2.269562e-01 5.480385e-02 9.872586e-01 5.523338e-01 -5.681450e-01 7.373605e-02 -4.444939e-01
<VARIANCE> 25
 2.794694e+01 3.316776e+01 2.124941e+01 6.374828e+01 4.697289e+01 3.749953e+01 8.506492e+01 5.288535e+01 4.765277e+01 5.277235e+01 5.275073e+01 3.348117e+01 1.326002e+00 1.790771e+00 1.442764e+00 3.775715e+00 3.297014e+00 3.514900e+00 4.311822e+00 2.781735e+00 3.099638e+00 3.608260e+00 3.136138e+00 2.324407e+00 1.579565e+00
<GCONST> 1.035345e+02
<TRANSP> 5
 0.000000e+00 1.000000e+00 0.000000e+00 0.000000e+00 0.000000e+00
 0.000000e+00 7.566237e-01 2.433763e-01 0.000000e+00 0.000000e+00
 0.000000e+00 0.000000e+00 8.305054e-01 1.694946e-01 0.000000e+00
 0.000000e+00 0.000000e+00 0.000000e+00 8.762353e-01 1.237647e-01
 0.000000e+00 0.000000e+00 0.000000e+00 0.000000e+00 0.000000e+00
<ENDHMM>
~h "\340\262\213"
<BEGINHMM>
<NUMSTATES> 5
<STATE> 2
<MEAN> 25
 4.822016e-01 3.019309e+00 5.762261e+00 8.116026e+00 -2.454661e-01 -5.579679e+00 -3.070939e-01 -1.326475e+00 -2.548186e+00 -4.656674e+00 -4.319827e+00 1.685508e-02 1.534751e+00 -2.028629e-01 1.045033e+00 1.641279e-01 -1.554296e+00 -1.472037e+00 -1.483717e+00 -3.030890e-01 -7.187643e-01 -1.027119e+00 -6.165091e-01 -1.786627e-01 1.592706e+00
<VARIANCE> 25
 3.672879e+01 7.647731e+01 3.579286e+01 2.586794e+01 4.813145e+01 5.206376e+01 4.727325e+01 2.462310e+01 3.903062e+01 2.166712e+01 2.222570e+01 1.466735e+01 6.788175e+00 6.159021e+00 7.201520e+00 2.424442e+00 4.308510e+00 4.135846e+00 5.160800e+00 1.857686e+00 5.472382e+00 2.823528e+00 3.142400e+00 1.904316e+00 4.580492e+00
<GCONST> 1.059136e+02
<STATE> 3
<MEAN> 25
 9.157271e+00 -7.455496e+00 4.352993e+00 7.654045e+00 -1.267779e+01 -1.142246e+01 -1.252191e+01 1.890288e+00 -3.809879e+00 -6.520809e+00 -3.745592e+00 9.576297e-01 6.211808e-01 -6.526160e-01 -1.065229e+00 -1.519499e-01 -5.453539e-01 -1.150036e-02 -1.646074e+00 8.426412e-01 8.160483e-02 4.005109e-01 7.265230e-02 5.486028e-01 8.760625e-01
<VARIANCE> 25
 9.686473e+00 1.075197e+01 5.013968e+01 2.212465e+01 8.437601e+01 5.323390e+01 5.662194e+01 2.085672e+01 2.501767e+01 1.490296e+01 2.437084e+01 2.446990e+01 3.790319e+00 2.811895e+00 1.770394e+00 1.873325e+00 4.348346e+00 3.187411e+00 4.682766e+00 1.513942e+00 1.520728e+00 1.647261e+00 1.488681e+00 1.080556e+00 2.261398e+00
<GCONST> 9.576278e+01
<STATE> 4
<MEAN> 25
 1.554215e+00 -1.997141e+00 6.377191e+00 4.837799e+00 -6.302507e+00 -1.046653e+01 -9.197783e+00 -7.014823e-02 -3.692155e+00 -6.715681e+00 -5.543191e+00 3.487682e+00 -2.084472e+00 1.470298e+00 6.270294e-01 -2.186748e-01 1.693997e+00 5.376431e-01 2.093711e+00 -8.791721e-01 2.623883e-01 6.233860e-01 3.317288e-01 -4.427179e-02 -1.142910e+00
<VARIANCE> 25
 8.161827e+01 3.062324e+01 5.685377e+01 3.337996e+01 8.381059e+01 4.764750e+01 5.212261e+01 2.470638e+01 1.870667e+01 2.312658e+01 1.800932e+01 1.979678e+01 1.161487e+01 4.335827e+00 3.497749e+00 3.678181e+00 6.241815e+00 5.622951e+00 6.785570e+00 2.415259e+00 1.550627e+00 2.349137e+00 3.237027e+00 2.267843e+00 5.284617e+00
<GCONST> 1.064980e+02
<TRANSP> 5
 0.000000e+00 1.000000e+00 0.000000e+00 0.000000e+00 0.000000e+00
 0.000000e+00 8.033286e-01 1.966714e-01 0.000000e+00 0.000000e+00
 0.000000e+00 0.000000e+00 7.709202e-01 2.290798e-01 0.000000e+00
 0.000000e+00 0.000000e+00 0.000000e+00 7.457820e-01 2.542180e-01
 0.000000e+00 0.000000e+00 0.000000e+00 0.000000e+00 0.000000e+00
<ENDHMM>
~h "\340\262\216"
<BEGINHMM>
<NUMSTATES> 5
<STATE> 2
<MEAN> 25
 3.216460e+00 -6.136408e+00 4.504929e+00 -4.885013e+00 -1.667080e+01 -5.946605e+00 5.465337e+00 3.088901e+00 -7.924431e+00 -3.461912e+00 -7.934940e-01 -6.072067e+00 -1.065478e-01 2.869102e-01 1.919509e-02 3.881041e-01 2.248217e-01 5.820968e-01 6.710435e-01 -8.332007e-02 -1.374670e-01 -2.613658e-01 -6.555687e-02 -2.615732e-02 -6.327820e-01
<VARIANCE> 25
 6.411241e+00 2.945036e+01 2.412171e+01 3.406404e+01 3.417084e+01 3.975689e+01 3.725359e+01 3.081636e+01 2.594395e+01 3.638909e+01 1.942359e+01 2.045111e+01 4.042467e-01 1.847752e+00 1.287274e+00 2.178981e+00 2.295136e+00 1.800982e+00 1.487469e+00 2.167480e+00 1.290296e+00 1.688816e+00 1.101492e+00 1.295147e+00 1.569665e+00
<GCONST> 8.990816e+01
<STATE> 3
<MEAN> 25
 -2.843039e+00 -1.040941e+00 1.586263e+00 2.849172e+00 -2.111046e+00 -1.167996e-02 9.234657e+00 4.312181e+00 -8.915313e-01 -2.345562e+00 1.687321e+00 1.426732e+00 -7.399836e-01 3.880252e-01 -3.547347e-01 1.876759e-01 1.001952e+00 8.161378e-02 -2.130716e-01 3.123978e-01 1.123713e+00 1.179797e+00 5.646169e-01 7.394051e-01 -1.305463e+00
<VARIANCE> 25
 2.980308e+01 2.159808e+01 2.677147e+01 3.112064e+01 6.753682e+01 3.620511e+01 5.267525e+01 3.557450e+01 4.852493e+01 4.625366e+01 2.403481e+01 2.769899e+01 1.899656e+00 1.977923e+00 2.060348e+00 2.408089e+00 3.100676e+00 4.139169e+00 3.406690e+00 2.989907e+00 3.278016e+00 2.843414e+00 2.369651e+00 2.384039e+00 1.508811e+00
<GCONST> 1.008678e+02
<STATE> 4
<MEAN> 25
 -5.188250e+00 3.305721e+00 -6.671660e-02 4.853373e+00 4.307475e+00 2.725924e+00 5.630989e+00 3.814864e+00 4.234849e+00 3.724301e+00 3.828326e+00 3.877756e+00 -2.435110e-02 8.950762e-02 6.909265e-02 7.629682e-02 8.590139e-02 1.835274e-02 -9.824295e-02 -6.262703e-02 1.877329e-02 4.540382e-02 2.062523e-02 2.072081e-02 -7.819887e-02
<VARIANCE> 25
 7.804480e+00 7.200844e+00 1.023861e+01 1.487378e+01 2.671036e+01 1.581737e+01 1.573776e+01 1.651368e+01 1.981708e+01 1.611977e+01 1.415060e+01 1.579610e+01 4.678192e-01 5.320123e-01 6.999857e-01 9.941623e-01 1.154605e+00 1.338326e+00 1.462292e+00 1.542032e+00 1.511027e+00 1.491111e+00 1.416476e+00 1.367775e+00 5.177149e-01
<GCONST> 7.809441e+01
<TRANSP> 5
 0.000000e+00 1.000000e+00 0.000000e+00 0.000000e+00 0.000000e+00
 0.000000e+00 8.901082e-01 1.098918e-01 0.000000e+00 0.000000e+00
 0.000000e+00 0.000000e+00 8.100623e-01 1.899377e-01 0.000000e+00
 0.000000e+00 0.000000e+00 0.000000e+00 9.053385e-01 9.466157e-02
 0.000000e+00 0.000000e+00 0.000000e+00 0.000000e+00 0.000000e+00
<ENDHMM>
~h "\340\262\217"
<BEGINHMM>
<NUMSTATES> 5
<STATE> 2
<MEAN> 25
 7.014475e-01 -3.257152e-01 8.617007e+00 -2.019325e+00 -8.434935e+00 -5.108361e+00 -5.507271e-01 -1.319131e+00 -5.206912e+00 -3.402700e-01 7.953374e-01 -1.761409e+00 1.371143e-01 -1.460927e+00 1.458380e+00 -2.218457e+00 -2.594241e+00 -7.049681e-01 -6.456168e-01 -2.726052e-01 -1.423884e+00 6.753736e-01 3.984703e-01 -7.836593e-01 2.701019e+00
<VARIANCE> 25
 2.936852e+01 5.801585e+01 4.576460e+01 6.946503e+01 8.867050e+01 5.233676e+01 3.716728e+01 3.548119e+01 5.099704e+01 3.754112e+01 2.494501e+01 2.396429e+01 3.240280e+00 3.975458e+00 4.052207e+00 4.815454e+00 6.225465e+00 4.898140e+00 4.188051e+00 2.921005e+00 3.763269e+00 3.259212e+00 2.692413e+00 3.247551e+00 5.235113e+00
<GCONST> 1.088085e+02
<STATE> 3
<MEAN> 25
 1.215563e+00 -7.579274e+00 1.534272e+01 -1.327477e+01 -1.923228e+01 -5.494545e+00 -5.151336e+00 -2.623078e+00 -1.213276e+01 3.347793e+00 6.434709e-01 -7.420442e+00 -7.201976e-02 3.090230e-02 6.298393e-02 -1.673955e-01 -1.880991e-01 1.909066e-01 -1.628686e-01 -1.607512e-01 -1.839915e-01 3.018315e-01 -1.946992e-01 -1.100989e-01 2.021607e-01
<VARIANCE> 25
 8.522467e+00 1.656750e+01 2.942340e+01 2.548612e+01 1.411663e+01 3.865361e+01 3.392228e+01 3.064368e+01 1.888472e+01 2.451601e+01 1.456818e+01 1.187514e+01 2.819547e-01 5.027930e-01 7.096236e-01 9.774559e-01 7.164124e-01 7.223210e-01 7.373587e-01 8.353242e-01 6.190245e-01 7.538749e-01 5.711561e-01 7.268195e-01 4.899331e-01
<GCONST> 7.623886e+01
<STATE> 4
<MEAN> 25
 2.361046e+00 -2.244876e+00 1.045298e+01 -7.261130e+00 -1.708993e+01 -5.409047e+00 -1.596965e+00 -4.341731e+00 -1.092774e+01 1.051836e+00 -6.975880e-01 -4.274626e+00 -4.424763e-02 1.282502e+00 -5.201895e-01 1.292482e+00 1.174759e+00 -5.813682e-02 4.825990e-01 -4.948061e-01 7.613664e-01 -7.265887e-01 -2.144132e-01 6.143058e-01 -1.400584e+00
<VARIANCE> 25
 1.245310e+01 3.090376e+01 3.430237e+01 3.630812e+01 3.692382e+01 4.378119e+01 5.308296e+01 4.409431e+01 2.288537e+01 4.335404e+01 2.044790e+01 2.045475e+01 1.431948e+00 1.553436e+00 1.953491e+00 2.517931e+00 3.049037e+00 2.398709e+00 2.715881e+00 3.053502e+00 2.072291e+00 2.928741e+00 1.551647e+00 1.297175e+00 1.826297e+00
<GCONST> 9.671200e+01
<TRANSP> 5
 0.000000e+00 1.000000e+00 0.000000e+00 0.000000e+00 0.000000e+00
 0.000000e+00 8.084858e-01 1.915143e-01 0.000000e+00 0.000000e+00
 0.000000e+00 0.000000e+00 8.814295e-01 1.185705e-01 0.000000e+00
 0.000000e+00 0.000000e+00 0.000000e+00 8.323352e-01 1.676647e-01
 0.000000e+00 0.000000e+00 0.000000e+00 0.000000e+00 0.000000e+00
<ENDHMM>
~h "\340\262\220"
<BEGINHMM>
<NUMSTATES> 5
<STATE> 2
<MEAN> 25
 3.701684e+00 -3.759464e+00 1.367948e+00 -1.587679e+00 -2.776425e+00 7.281357e-01 -5.730716e+00 -7.002320e-01 -2.411260e+00 -5.201910e+00 -3.729383e+00 -2.918614e+00 -2.689962e-01 3.050393e-01 -2.013402e-01 7.222955e-01 5.870425e-01 8.392195e-02 4.275843e-01 1.572962e-01 3.851128e-01 1.516029e-02 -1.462690e-01 1.116488e-01 -1.169888e+00
<VARIANCE> 25
 1.689605e+01 7.160484e+01 5.364860e+01 4.534727e+01 9.247144e+01 5.129165e+01 2.748739e+01 4.101012e+01 4.410720e+01 4.355955e+01 2.290958e+01 1.971951e+01 1.014255e+00 2.588217e+00 3.656832e+00 3.637872e+00 4.004541e+00 3.102679e+00 2.328253e+00 3.726117e+00 4.189286e+00 2.595141e+00 2.957971e+00 1.356615e+00 2.835319e+00
<GCONST> 1.030590e+02
<STATE> 3
<MEAN> 25
 -4.121181e+00 1.728425e-01 1.687095e+00 2.064741e+00 5.599790e-01 9.314641e-01 3.931981e+00 3.324678e+00 1.527961e+00 2.014397e+00 1.123723e+00 2.322038e+00 -2.820314e-01 4.022372e-02 -1.679360e-01 5.366305e-03 1.320046e-02 -2.532773e-02 3.776072e-01 1.386873e-01 1.712121e-01 3.502954e-01 5.813962e-01 4.525727e-01 -5.279852e-01
<VARIANCE> 25
 2.790504e+01 3.228926e+01 3.810919e+01 3.340733e+01 7.404356e+01 5.008502e+01 2.331263e+01 2.448656e+01 4.221915e+01 1.870505e+01 2.895551e+01 2.338584e+01 2.256349e+00 3.226252e+00 2.979165e+00 1.587712e+00 2.075167e+00 2.746455e+00 1.672664e+00 3.494678e+00 2.256831e+00 2.390767e+00 3.319738e+00 1.974575e+00 1.656432e+00
<GCONST> 9.877026e+01
<STATE> 4
<MEAN> 25
 -4.155305e+00 2.578873e+00 -7.565223e-01 4.615695e+00 3.831815e+00 1.192398e+00 3.839349e+00 4.924572e+00 2.927797e+00 2.391586e+00 2.910787e+00 4.308715e+00 -1.332991e-03 -5.995876e-02 -4.371773e-02 3.175134e-02 8.098206e-02 -1.018248e-01 1.449057e-01 -3.368956e-02 -1.068425e-01 -1.556404e-02 -1.398999e-01 -2.155832e-01 3.278767e-02
<VARIANCE> 25
 6.567587e+00 1.628403e+01 1.250640e+01 2.119444e+01 3.006415e+01 2.194608e+01 1.287741e+01 1.536189e+01 1.968962e+01 2.099902e+01 1.767681e+01 1.736754e+01 2.753861e-01 6.779466e-01 7.505792e-01 8.485429e-01 9.417794e-01 1.129963e+00 1.298363e+00 1.082079e+00 1.572538e+00 1.769095e+00 2.265099e+00 1.331168e+00 5.120229e-01
<GCONST> 7.946014e+01
<TRANSP> 5
 0.000000e+00 1.000000e+00 0.000000e+00 0.000000e+00 0.000000e+00
 0.000000e+00 7.596619e-01 2.403381e-01 0.000000e+00 0.000000e+00
 0.000000e+00 0.000000e+00 6.084201e-01 3.915799e-01 0.000000e+00
 0.000000e+00 0.000000e+00 0.000000e+00 8.133845e-01 1.866155e-01
 0.000000e+00 0.000000e+00 0.000000e+00 0.000000e+00 0.000000e+00
<ENDHMM>
~h "\340\262\222"
<BEGINHMM>
<NUMSTATES> 5
<STATE> 2
<MEAN> 25
 4.775968e+00 2.330452e+00 -2.304391e+00 -5.381064e+00 -1.275551e+00 2.291269e+00 3.938932e-01 -3.124115e+00 -3.622188e+00 -2.113132e+00 4.918578e-01 8.110918e-02 2.324104e+00 -6.389619e-01 -4.097246e-01 -2.709479e+00 -2.436746e+00 -6.629038e-02 -9.404911e-01 -9.377864e-01 -1.016222e+00 -6.294290e-01 -3.225336e-01 -4.604088e-01 2.736290e+00
<VARIANCE> 25
 6.415664e+01 3.291104e+01 4.525512e+01 9.206100e+01 7.068022e+01 3.811657e+01 4.838669e+01 4.416354e+01 5.149375e+01 3.968192e+01 3.129011e+01 2.436630e+01 4.101920e+00 4.255910e+00 4.374489e+00 6.579056e+00 5.912267e+00 3.705667e+00 3.553032e+00 4.905656e+00 3.875622e+00 3.716631e+00 3.572075e+00 2.084753e+00 4.620465e+00
<GCONST> 1.101320e+02
<STATE> 3
<MEAN> 25
 1.273740e+01 -4.575388e+00 -5.535855e+00 -1.876584e+01 -7.840919e+00 5.183759e+00 -4.569366e+00 -5.782038e+00 -7.517150e+00 -2.976639e+00 -1.212573e-01 -9.923202e-01 -1.816646e-01 -1.205359e+00 -3.909430e-01 -5.076006e-02 4.861715e-01 3.278875e-01 -6.907513e-01 -9.202398e-02 4.777546e-02 7.300563e-01 2.661386e-01 -3.914117e-01 1.032063e+00
<VARIANCE> 25
 9.319307e+00 2.152689e+01 2.392902e+01 4.920114e+01 5.730274e+01 3.014328e+01 3.522204e+01 2.831903e+01 2.581894e+01 3.661525e+01 3.477180e+01 2.646364e+01 6.422635e-01 2.854080e+00 1.170012e+00 3.812478e+00 2.763100e+00 2.708864e+00 3.036711e+00 1.917840e+00 2.544738e+00 3.102929e+00 1.685682e+00 2.062346e+00 1.885831e+00
<GCONST> 9.617789e+01
<STATE> 4
<MEAN> 25
 9.789167e+00 -7.608027e+00 -6.370949e+00 -1.162218e+01 -2.342139e+00 1.281857e+00 -1.087899e+01 -4.351630e+00 -2.541773e+00 1.196175e+00 -1.238575e-01 -5.833116e+00 -4.255543e-01 2.598968e-01 5.202421e-01 2.808514e+00 1.148784e+00 -2.506405e+00 -1.064858e+00 8.826573e-01 8.178892e-01 1.090473e-01 -9.200284e-01 -8.496323e-01 -5.604295e-01
<VARIANCE> 25
 1.589005e+01 3.349166e+01 2.034221e+01 5.397483e+01 4.166088e+01 4.566811e+01 7.116945e+01 3.947643e+01 4.505007e+01 5.842089e+01 4.022063e+01 3.218678e+01 5.273409e-01 2.700576e+00 2.056790e+00 2.646238e+00 2.462635e+00 6.002641e+00 4.303517e+00 3.673484e+00 3.238060e+00 4.164495e+00 3.710198e+00 3.495204e+00 2.154699e+00
<GCONST> 1.031918e+02
<TRANSP> 5
 0.000000e+00 1.000000e+00 0.000000e+00 0.000000e+00 0.000000e+00
 0.000000e+00 7.636126e-01 2.363874e-01 0.000000e+00 0.000000e+00
 0.000000e+00 0.000000e+00 7.798277e-01 2.201723e-01 0.000000e+00
 0.000000e+00 0.000000e+00 0.000000e+00 5.875042e-01 4.124958e-01
 0.000000e+00 0.000000e+00 0.000000e+00 0.000000e+00 0.000000e+00
<ENDHMM>
~h "\340\262\223"
<BEGINHMM>
<NUMSTATES> 5
<STATE> 2
<MEAN> 25
 5.613995e+00 -1.719641e+00 -3.479289e+00 -7.480631e+00 -3.087451e+00 1.102999e+00 -1.928577e+00 -3.270111e+00 -4.995157e+00 2.226794e+00 2.208527e+00 -1.875103e+00 1.750003e+00 -6.468874e-01 -3.470371e-01 -2.925354e+00 -1.374630e+00 6.337402e-01 -4.480018e-01 -9.693822e-01 -1.340577e+00 -2.160915e-01 -5.446183e-02 -5.625881e-01 1.842181e+00
<VARIANCE> 25
 5.531801e+01 4.065314e+01 5.209771e+01 1.027100e+02 6.608179e+01 3.227770e+01 5.290978e+01 4.066733e+01 4.622311e+01 4.576924e+01 3.583577e+01 3.394042e+01 3.555613e+00 4.292384e+00 5.673172e+00 6.320859e+00 7.063636e+00 3.678087e+00 2.595344e+00 3.340245e+00 3.698928e+00 4.401047e+00 3.285099e+00 2.627564e+00 5.337245e+00
<GCONST> 1.106922e+02
<STATE> 3
<MEAN> 25
 1.375732e+01 -4.399760e+00 -3.861361e+00 -2.309706e+01 -1.068593e+01 4.358953e+00 -5.309643e+00 -6.364547e+00 -1.068885e+01 -7.592887e-01 -1.045999e-01 -2.856487e+00 2.841901e-02 2.786186e-02 -2.296550e-01 -4.765327e-02 2.976033e-01 1.556376e-01 -2.632503e-01 -1.596636e-01 -1.315402e-01 -1.106978e-02 8.025843e-02 1.450421e-01 1.126188e-01
<VARIANCE> 25
 4.108431e+00 2.187784e+01 2.323295e+01 4.928469e+01 3.486022e+01 1.992977e+01 2.863743e+01 2.390405e+01 3.092766e+01 4.877860e+01 3.676854e+01 1.596127e+01 3.352233e-01 1.373741e+00 9.654046e-01 3.370923e+00 1.772386e+00 1.698003e+00 1.864976e+00 1.355215e+00 1.556200e+00 2.349726e+00 1.605821e+00 1.062521e+00 8.166964e-01
<GCONST> 8.831658e+01
<STATE> 4
<MEAN> 25
 1.106288e+01 -7.161804e+00 -7.753143e+00 -1.189662e+01 -3.250011e+00 -1.667163e+00 -1.261099e+01 -5.349378e+00 -5.734734e+00 5.139249e+00 2.988369e-01 -6.055371e+00 -7.554303e-01 3.134634e-01 3.040004e-01 3.152252e+00 1.335612e+00 -2.437974e+00 -9.823352e-01 1.066722e+00 1.855177e+00 -1.078426e-01 -1.099833e+00 -7.508970e-01 -7.620977e-01
<VARIANCE> 25
 2.399174e+01 3.480499e+01 2.427060e+01 6.560312e+01 3.851091e+01 5.793131e+01 7.525647e+01 4.713626e+01 7.897804e+01 5.070380e+01 3.899641e+01 2.032646e+01 1.036154e+00 3.153353e+00 2.508203e+00 3.647030e+00 3.272582e+00 5.140053e+00 6.200981e+00 2.413825e+00 4.147675e+00 6.300963e+00 2.794812e+00 2.586040e+00 2.765984e+00
<GCONST> 1.060865e+02
<TRANSP> 5
 0.000000e+00 1.000000e+00 0.000000e+00 0.000000e+00 0.000000e+00
 0.000000e+00 8.216435e-01 1.783565e-01 0.000000e+00 0.000000e+00
 0.000000e+00 0.000000e+00 9.003597e-01 9.964031e-02 0.000000e+00
 0.000000e+00 0.000000e+00 0.000000e+00 7.284542e-01 2.715458e-01
 0.000000e+00 0.000000e+00 0.000000e+00 0.000000e+00 0.000000e+00
<ENDHMM>
~h "\340\262\224"
<BEGINHMM>
<NUMSTATES> 5
<STATE> 2
<MEAN> 25
 -6.014536e+00 2.909750e+00 1.581939e+00 1.631144e+00 4.113478e+00 5.436264e+00 4.411007e+00 4.839302e+00 5.172422e+00 1.821681e+00 3.717023e+00 3.672031e+00 -1.755682e-01 1.429788e-01 2.284530e-01 3.638824e-01 -1.241559e-01 6.718130e-02 2.007785e-01 2.179471e-01 1.668784e-01 2.137579e-01 2.467502e-01 1.312672e-01 -3.457110e-01
<VARIANCE> 25
 1.529376e+01 6.617523e+00 3.226579e+01 2.419683e+01 1.372255e+01 3.204517e+01 4.783807e+01 1.973113e+01 1.711245e+01 2.131228e+01 2.273706e+01 1.618353e+01 1.011449e+00 5.674821e-01 1.047406e+00 1.337459e+00 1.665284e+00 2.511451e+00 3.099393e+00 1.911861e+00 1.388754e+00 2.599610e+00 1.557923e+00 1.439992e+00 7.306762e-01
<GCONST> 8.673765e+01
<STATE> 3
<MEAN> 25
 -4.864175e+00 3.459371e+00 3.818071e-01 6.181667e+00 4.606041e+00 3.540358e+00 5.500304e+00 4.538015e+00 3.751341e+00 4.098952e+00 3.688093e+00 3.577492e+00 1.382825e-02 -2.795714e-02 -3.640431e-02 -1.094562e-02 -4.845679e-03 -2.649910e-02 5.179744e-03 -1.732773e-02 1.684667e-02 4.067048e-02 -7.218363e-02 -3.559431e-02 2.510388e-02
<VARIANCE> 25
 4.029226e+00 3.078942e+00 4.794660e+00 6.979325e+00 6.628743e+00 1.034022e+01 1.293242e+01 1.083410e+01 1.079469e+01 1.327743e+01 1.161663e+01 1.072526e+01 1.724069e-01 3.159551e-01 4.626731e-01 5.773031e-01 6.525313e-01 1.027153e+00 1.088855e+00 1.258975e+00 1.077241e+00 1.356344e+00 1.239595e+00 1.216404e+00 3.838774e-01
<GCONST> 6.645319e+01
<STATE> 4
<MEAN> 25
 7.867630e+00 -7.260908e+00 -3.211771e+00 -1.241413e+01 -3.910800e+00 1.378327e+00 -4.935410e+00 -5.617157e+00 -5.571534e+00 4.826296e+00 1.932310e+00 -5.448729e+00 7.614506e-01 -3.705350e-01 -1.661292e-01 -2.917608e-01 -5.204504e-01 -3.599494e-01 -9.716290e-01 -8.810241e-01 -3.438776e-01 -1.607997e-01 1.835650e-01 -4.061575e-01 1.154543e+00
<VARIANCE> 25
 4.662613e+01 3.960091e+01 2.055405e+01 1.173402e+02 3.891007e+01 3.440868e+01 5.521414e+01 6.530055e+01 5.890810e+01 3.659063e+01 4.436777e+01 3.765269e+01 2.586930e+00 4.757238e+00 2.165951e+00 1.182509e+01 2.089071e+00 3.389242e+00 3.299862e+00 2.396785e+00 4.388371e+00 3.033688e+00 3.942290e+00 4.618402e+00 9.284371e+00
<GCONST> 1.092400e+02
<TRANSP> 5
 0.000000e+00 1.000000e+00 0.000000e+00 0.000000e+00 0.000000e+00
 0.000000e+00 8.985243e-01 1.014758e-01 0.000000e+00 0.000000e+00
 0.000000e+00 0.000000e+00 9.642569e-01 3.574308e-02 0.000000e+00
 0.000000e+00 0.000000e+00 0.000000e+00 9.325575e-01 6.744248e-02
 0.000000e+00 0.000000e+00 0.000000e+00 0.000000e+00 0.000000e+00
<ENDHMM>
~h "\340\263\240"
<BEGINHMM>
<NUMSTATES> 5
<STATE> 2
<MEAN> 25
 4.925858e-08 -1.233895e-08 2.920008e-08 1.226765e-08 -5.222096e-08 1.835772e-08 3.730370e-08 -3.084009e-08 5.284326e-08 -7.177465e-09 3.337222e-08 1.065681e-08 -5.941017e-04 -3.072851e-04 5.426822e-05 -6.761555e-04 -2.272289e-05 -6.928663e-06 -4.446488e-04 -1.001891e-03 -5.636913e-04 -2.278803e-04 9.030614e-05 -4.183001e-04 3.126871e-03
<VARIANCE> 25
 6.337364e+01 4.811290e+01 5.212138e+01 6.297672e+01 6.965734e+01 5.789758e+01 6.618909e+01 5.280534e+01 5.847340e+01 4.740644e+01 4.464558e+01 3.826577e+01 2.126088e+00 2.240220e+00 2.076481e+00 2.780402e+00 2.979447e+00 3.084975e+00 3.029560e+00 2.887547e+00 2.790046e+00 2.530517e+00 2.348650e+00 2.055844e+00 2.977529e+00
<GCONST> 1.062192e+02
<STATE> 3
<MEAN> 25
 4.925858e-08 -1.233895e-08 2.920008e-08 1.226765e-08 -5.222096e-08 1.835772e-08 3.730370e-08 -3.084009e-08 5.284326e-08 -7.177465e-09 3.337222e-08 1.065681e-08 -5.941017e-04 -3.072851e-04 5.426822e-05 -6.761555e-04 -2.272289e-05 -6.928663e-06 -4.446488e-04 -1.001891e-03 -5.636913e-04 -2.278803e-04 9.030614e-05 -4.183001e-04 3.126871e-03
<VARIANCE> 25
 6.337364e+01 4.811290e+01 5.212138e+01 6.297672e+01 6.965734e+01 5.789758e+01 6.618909e+01 5.280534e+01 5.847340e+01 4.740644e+01 4.464558e+01 3.826577e+01 2.126088e+00 2.240220e+00 2.076481e+00 2.780402e+00 2.979447e+00 3.084975e+00 3.029560e+00 2.887547e+00 2.790046e+00 2.530517e+00 2.348650e+00 2.055844e+00 2.977529e+00
<GCONST> 1.062192e+02
<STATE> 4
<MEAN> 25
 4.925858e-08 -1.233895e-08 2.920008e-08 1.226765e-08 -5.222096e-08 1.835772e-08 3.730370e-08 -3.084009e-08 5.284326e-08 -7.177465e-09 3.337222e-08 1.065681e-08 -5.941017e-04 -3.072851e-04 5.426822e-05 -6.761555e-04 -2.272289e-05 -6.928663e-06 -4.446488e-04 -1.001891e-03 -5.636913e-04 -2.278803e-04 9.030614e-05 -4.183001e-04 3.126871e-03
<VARIANCE> 25
 6.337364e+01 4.811290e+01 5.212138e+01 6.297672e+01 6.965734e+01 5.789758e+01 6.618909e+01 5.280534e+01 5.847340e+01 4.740644e+01 4.464558e+01 3.826577e+01 2.126088e+00 2.240220e+00 2.076481e+00 2.780402e+00 2.979447e+00 3.084975e+00 3.029560e+00 2.887547e+00 2.790046e+00 2.530517e+00 2.348650e+00 2.055844e+00 2.977529e+00
<GCONST> 1.062192e+02
<TRANSP> 5
 0.000000e+00 1.000000e+00 0.000000e+00 0.000000e+00 0.000000e+00
 0.000000e+00 6.000000e-01 4.000000e-01 0.000000e+00 0.000000e+00
 0.000000e+00 0.000000e+00 6.000000e-01 4.000000e-01 0.000000e+00
 0.000000e+00 0.000000e+00 0.000000e+00 7.000000e-01 3.000000e-01
 0.000000e+00 0.000000e+00 0.000000e+00 0.000000e+00 0.000000e+00
<ENDHMM>
~h "\340\262\240\340\263\215"
<BEGINHMM>
<NUMSTATES> 5
<STATE> 2
<MEAN> 25
 -4.725727e+00 -1.042645e+00 2.130695e-01 4.859047e-01 2.067976e+00 4.283629e+00 4.732913e+00 3.661865e+00 4.874932e+00 4.268836e+00 5.770961e+00 3.526229e+00 -7.653445e-01 2.100496e-01 8.580660e-01 -4.535363e-01 3.610384e-01 -2.619783e-01 1.244563e-01 5.512775e-01 4.584744e-01 -8.860257e-02 -4.915000e-01 3.497838e-01 -2.950812e-02
<VARIANCE> 25
 2.096601e+01 3.997097e+00 3.989481e+01 4.560567e+01 3.523338e+01 2.942822e+01 1.073045e+01 1.559057e+01 8.101383e+00 1.856344e+01 1.204098e+01 1.272257e+01 2.333275e+00 7.459521e-01 3.504896e+00 6.854367e+00 4.449219e+00 1.907276e+00 2.941818e+00 9.353405e-01 1.524509e+00 2.619346e+00 1.311850e+00 6.750328e-01 2.283532e+00
<GCONST> 8.896288e+01
<STATE> 3
<MEAN> 25
 -6.303753e+00 2.771749e+00 9.005868e-01 4.414838e+00 5.351786e+00 5.844576e-01 6.359380e+00 4.640795e+00 5.967024e+00 1.508005e+00 1.967798e+00 3.525525e+00 7.941167e-01 4.975557e-02 -4.692425e-01 7.107762e-01 7.334670e-02 4.996776e-01 9.398592e-02 -6.442455e-01 3.987004e-01 3.335212e-01 1.090851e-01 -5.499376e-01 -9.467821e-01
<VARIANCE> 25
 5.776600e+00 8.056686e+00 2.561700e+00 2.079219e+01 8.178172e+00 1.082496e+01 9.072024e+00 6.756551e+00 6.827062e+00 5.261958e+00 8.364185e+00 3.305835e+01 1.222896e+00 4.925569e-01 1.058536e+00 1.697390e+00 2.418217e+00 1.079400e+00 2.431710e+00 9.989677e-01 4.625890e-01 2.008767e+00 1.130209e+00 1.434569e+00 3.881033e-01
<GCONST> 7.295459e+01
<STATE> 4
<MEAN> 25
 -3.931542e+00 2.113319e+00 -3.606050e-01 8.697793e+00 1.781709e+00 2.940594e+00 5.538562e+00 4.040020e+00 4.978883e+00 4.781933e+00 5.211663e+00 3.625313e+00 1.339410e-02 -3.789547e-03 -1.272650e-02 -4.427331e-03 -6.666972e-02 1.053149e-02 -4.063258e-02 2.113450e-02 1.613870e-02 3.268620e-02 5.177284e-02 1.819060e-02 1.236777e-03
<VARIANCE> 25
 1.756633e+00 2.493896e+00 3.674371e+00 5.558513e+00 6.330168e+00 7.680990e+00 9.031390e+00 1.162444e+01 1.040559e+01 8.759209e+00 9.304012e+00 9.366896e+00 2.291095e-01 2.809483e-01 4.357615e-01 5.381067e-01 6.494581e-01 9.759179e-01 1.015885e+00 1.340762e+00 1.318095e+00 8.588051e-01 8.354434e-01 1.026996e+00 3.513768e-01
<GCONST> 6.254328e+01
<TRANSP> 5
 0.000000e+00 1.000000e+00 0.000000e+00 0.000000e+00 0.000000e+00
 0.000000e+00 7.887267e-01 2.112733e-01 0.000000e+00 0.000000e+00
 0.000000e+00 0.000000e+00 5.181373e-01 4.818626e-01 0.000000e+00
 0.000000e+00 0.000000e+00 0.000000e+00 9.754588e-01 2.454117e-02
 0.000000e+00 0.000000e+00 0.000000e+00 0.000000e+00 0.000000e+00
<ENDHMM>
~h "\340\262\230\340\263\215"
<BEGINHMM>
<NUMSTATES> 5
<STATE> 2
<MEAN> 25
 -3.663091e+00 3.988969e+00 2.909403e-01 4.832004e+00 3.790856e+00 1.656841e+00 2.847545e+00 2.679410e+00 3.974825e+00 3.646852e+00 3.456275e+00 3.048988e+00 -3.843100e-02 -7.273152e-03 6.580763e-02 -4.339168e-03 -6.033441e-02 5.269181e-02 -9.302708e-02 6.746246e-02 1.816016e-01 5.466909e-02 8.083574e-02 4.020302e-02 -2.622537e-02
<VARIANCE> 25
 5.779332e+00 4.094364e+00 5.707788e+00 6.454479e+00 9.588556e+00 1.784294e+01 1.614792e+01 1.403203e+01 1.419227e+01 1.262798e+01 1.567178e+01 9.285433e+00 6.869150e-01 6.362340e-01 3.936372e-01 5.750317e-01 1.183576e+00 1.881704e+00 1.978437e+00 1.283756e+00 1.486271e+00 1.447914e+00 1.530728e+00 1.037814e+00 5.485270e-01
<GCONST> 7.349984e+01
<STATE> 3
<MEAN> 25
 -3.284338e+00 3.172464e+00 -5.715134e-01 4.022919e+00 4.427824e+00 2.944971e+00 2.157494e+00 3.711262e+00 4.389893e+00 4.536617e+00 3.299769e+00 3.626902e+00 1.251064e-03 1.089291e-02 -8.502066e-03 1.595608e-02 1.789993e-02 1.456099e-03 6.081902e-03 1.667809e-02 -3.363833e-03 -9.887457e-03 -1.575386e-02 1.576971e-02 -5.355593e-03
<VARIANCE> 25
 9.312546e-01 1.973476e+00 3.014892e+00 4.644797e+00 6.067331e+00 7.203898e+00 9.096185e+00 8.841496e+00 1.006403e+01 1.026143e+01 9.618760e+00 1.085872e+01 7.828982e-02 1.722302e-01 3.246271e-01 4.455509e-01 6.028373e-01 7.388666e-01 1.054488e+00 9.611010e-01 1.193185e+00 1.128163e+00 1.083438e+00 1.346425e+00 1.058709e-01
<GCONST> 5.803983e+01
<STATE> 4
<MEAN> 25
 -2.949738e+00 2.838311e+00 9.165179e-01 3.952811e+00 3.277712e+00 2.709984e+00 2.604784e+00 2.931482e+00 2.080688e+00 2.870819e+00 1.813875e+00 2.164395e+00 8.300835e-01 2.549471e-01 7.390647e-01 -4.891639e-02 -1.028007e+00 -5.257357e-01 -3.330583e-01 -1.124954e+00 -1.514595e+00 -9.245284e-01 -7.025462e-01 -1.024103e+00 6.748021e-01
<VARIANCE> 25
 5.493375e+00 8.918296e+00 1.848355e+01 8.125116e+00 1.189424e+01 1.330277e+01 1.429217e+01 1.364394e+01 2.046938e+01 9.414667e+00 1.721422e+01 2.216490e+01 2.008792e+00 2.067930e+00 2.857443e+00 1.294291e+00 3.475300e+00 3.505628e+00 1.585016e+00 2.959298e+00 5.391356e+00 2.170081e+00 1.646658e+00 3.054164e+00 1.111918e+00
<GCONST> 8.735137e+01
<TRANSP> 5
 0.000000e+00 1.000000e+00 0.000000e+00 0.000000e+00 0.000000e+00
 0.000000e+00 9.304332e-01 6.956682e-02 0.000000e+00 0.000000e+00
 0.000000e+00 0.000000e+00 9.792364e-01 2.076357e-02 0.000000e+00
 0.000000e+00 0.000000e+00 0.000000e+00 7.511176e-01 2.488824e-01
 0.000000e+00 0.000000e+00 0.000000e+00 0.000000e+00 0.000000e+00
<ENDHMM>
~h "\340\262\241\340\263\215"
<BEGINHMM>
<NUMSTATES> 5
<STATE> 2
<MEAN> 25
 8.259748e+00 -6.917037e+00 -8.771853e-01 3.850734e+00 -6.690752e+00 -8.542695e+00 -7.555383e+00 3.111585e-01 -2.510039e+00 -3.001642e+00 -2.752561e+00 -3.407811e+00 -1.606940e-01 1.792419e-01 6.502938e-01 -1.599150e-01 1.100754e-01 -3.600596e-01 -3.705212e-01 1.313821e-01 -1.793995e-01 2.607050e-01 4.538029e-03 2.248576e-02 3.651166e-02
<VARIANCE> 25
 3.439375e+01 7.269086e+01 6.575115e+01 7.377631e+01 8.765577e+01 6.436453e+01 8.354813e+01 5.966805e+01 4.602179e+01 3.816232e+01 4.823679e+01 3.543496e+01 2.260972e+00 1.050239e+01 5.581203e+00 1.353266e+01 1.164394e+01 6.645178e+00 9.396582e+00 6.926390e+00 5.817362e+00 6.914799e+00 7.002925e+00 5.844496e+00 1.150120e+01
<GCONST> 1.201900e+02
<STATE> 3
<MEAN> 25
 7.722391e+00 -6.468620e+00 6.645484e-01 -3.064643e+00 -7.021605e+00 -6.146693e+00 -7.460905e+00 -1.141539e+00 -6.448297e+00 1.614099e+00 -1.851731e+00 -4.569781e+00 -3.627378e-02 8.553670e-01 1.481808e-01 -1.438644e-01 8.859400e-02 4.973826e-01 2.888691e-01 -5.470650e-01 -2.903071e-01 -1.431343e-02 2.850223e-01 -1.797024e-01 -5.102562e-01
<VARIANCE> 25
 2.488572e+01 4.820196e+01 7.107877e+01 1.185928e+02 1.131754e+02 7.562725e+01 7.703682e+01 6.477821e+01 4.664008e+01 5.303754e+01 7.310905e+01 3.323105e+01 1.751988e+00 5.094270e+00 3.009117e+00 7.189205e+00 6.095654e+00 5.008570e+00 4.140807e+00 4.286538e+00 4.905499e+00 3.793159e+00 2.917617e+00 2.267634e+00 5.228241e+00
<GCONST> 1.132803e+02
<STATE> 4
<MEAN> 25
 1.003568e+01 1.131320e+00 -4.241665e-01 -3.673969e+00 -4.776454e+00 -1.295458e+00 -4.744411e+00 -7.587846e+00 -6.638989e+00 -4.369433e+00 -9.025630e-01 -5.149312e+00 -4.139798e-01 6.893014e-01 1.336255e-01 7.359657e-02 3.285373e-01 2.422292e-01 5.368190e-01 -1.052921e-01 3.147272e-01 -5.230525e-01 -3.842700e-01 7.587249e-02 -5.666831e-01
<VARIANCE> 25
 2.576552e+01 4.426334e+01 7.819163e+01 1.599900e+02 4.869670e+01 5.464206e+01 5.720738e+01 6.843620e+01 3.748576e+01 5.303123e+01 3.855157e+01 2.204086e+01 7.387123e-01 1.865772e+00 2.487066e+00 2.507671e+00 2.769426e+00 2.927294e+00 3.042176e+00 2.663167e+00 1.620601e+00 3.844393e+00 2.028092e+00 2.101291e+00 1.338858e+00
<GCONST> 1.028261e+02
<TRANSP> 5
 0.000000e+00 1.000000e+00 0.000000e+00 0.000000e+00 0.000000e+00
 0.000000e+00 6.432963e-01 3.567037e-01 0.000000e+00 0.000000e+00
 0.000000e+00 0.000000e+00 6.291170e-01 3.708831e-01 0.000000e+00
 0.000000e+00 0.000000e+00 0.000000e+00 7.434844e-01 2.565156e-01
 0.000000e+00 0.000000e+00 0.000000e+00 0.000000e+00 0.000000e+00
<ENDHMM>
~h "\340\262\262\340\263\215"
<BEGINHMM>
<NUMSTATES> 5
<STATE> 2
<MEAN> 25
 5.400831e+00 -4.323999e+00 2.038726e+00 -1.558339e+00 -8.030901e+00 -9.964122e+00 -8.804585e+00 -1.157667e+00 4.298505e-01 -6.030074e+00 -5.952927e+00 -1.408368e+00 1.681055e-01 1.450801e+00 1.322313e+00 1.112353e+00 7.482961e-01 -4.206363e-01 -1.128630e+00 -1.316879e+00 -7.200719e-01 -7.844043e-01 3.272259e-01 2.710212e-01 -1.300138e+00
<VARIANCE> 25
 1.184269e+01 4.288328e+01 5.463919e+01 4.229623e+01 4.465671e+01 4.559793e+01 4.763740e+01 4.820374e+01 4.449310e+01 4.251160e+01 3.598711e+01 2.535210e+01 8.017350e-01 2.695213e+00 2.308788e+00 3.434042e+00 4.143680e+00 3.085045e+00 3.665176e+00 4.649261e+00 2.916504e+00 3.263016e+00 2.628296e+00 1.782839e+00 2.235377e+00
<GCONST> 1.024683e+02
<STATE> 3
<MEAN> 25
 3.937114e+00 2.601880e+00 1.041565e+01 -3.159040e-01 -3.214457e+00 -1.074332e+01 -1.200384e+01 -2.822530e+00 -3.611979e+00 -1.198793e+01 -3.919495e+00 1.324320e+00 -1.844597e-01 1.522293e-01 3.922455e-01 -3.681782e-01 1.486524e-01 3.073831e-01 1.784343e-01 -2.092487e-01 -2.228518e-01 4.834129e-01 -1.743852e-01 -2.630159e-02 -1.934626e-01
<VARIANCE> 25
 8.360372e+00 1.828148e+01 4.194469e+01 3.638289e+01 2.035729e+01 3.975585e+01 4.097976e+01 3.318362e+01 3.217062e+01 4.873312e+01 3.695568e+01 2.413221e+01 3.149409e-01 7.405480e-01 1.388483e+00 1.316867e+00 1.865978e+00 1.802803e+00 2.425510e+00 2.167140e+00 1.906084e+00 2.412384e+00 1.789957e+00 1.610973e+00 6.347501e-01
<GCONST> 9.051926e+01
<STATE> 4
<MEAN> 25
 3.785437e+00 4.352338e-01 8.034575e+00 -1.406850e+00 -6.017944e+00 -8.831934e+00 -9.046567e+00 -4.074098e+00 -3.607242e+00 -5.053515e+00 -4.505307e+00 -1.387569e+00 -1.564790e-01 -7.397727e-01 -1.014199e+00 -6.793501e-01 -1.114501e+00 1.803270e-02 1.402059e+00 4.981533e-01 -7.401413e-02 1.377285e+00 8.423393e-01 -6.245323e-01 7.233527e-01
<VARIANCE> 25
 1.668602e+01 3.724738e+01 5.404708e+01 4.577255e+01 6.079534e+01 4.756881e+01 5.907721e+01 5.464794e+01 3.182199e+01 5.148213e+01 4.544378e+01 2.379873e+01 7.737602e-01 2.633775e+00 2.628570e+00 2.902301e+00 5.146395e+00 3.588471e+00 5.801554e+00 4.157330e+00 3.074946e+00 4.866342e+00 3.240780e+00 2.262660e+00 2.905246e+00
<GCONST> 1.052370e+02
<TRANSP> 5
 0.000000e+00 1.000000e+00 0.000000e+00 0.000000e+00 0.000000e+00
 0.000000e+00 6.790614e-01 3.209386e-01 0.000000e+00 0.000000e+00
 0.000000e+00 0.000000e+00 7.177693e-01 2.822307e-01 0.000000e+00
 0.000000e+00 0.000000e+00 0.000000e+00 3.120364e-01 6.879636e-01
 0.000000e+00 0.000000e+00 0.000000e+00 0.000000e+00 0.000000e+00
<ENDHMM>
~h "\340\262\252\340\263\215"
<BEGINHMM>
<NUMSTATES> 5
<STATE> 2
<MEAN> 25
 -3.978290e+00 1.321214e+00 -2.328809e+00 2.320203e+00 3.536458e+00 1.570527e+00 4.874733e+00 2.985405e+00 5.307631e+00 5.012613e+00 3.694260e+00 3.260119e+00 -2.396244e-01 -4.451485e-01 4.326763e-02 -3.178629e-01 -8.689371e-02 -7.935547e-01 -8.322898e-02 -2.664496e-01 -2.299866e-01 -2.329241e-01 -1.436292e-01 -5.845214e-02 1.134597e+00
<VARIANCE> 25
 1.582873e+01 2.336790e+01 3.041409e+01 2.828509e+01 2.142813e+01 3.077455e+01 2.081833e+01 2.400231e+01 3.550384e+01 3.124917e+01 2.617858e+01 2.549248e+01 2.320122e+00 2.090188e+00 2.307730e+00 2.547704e+00 2.086713e+00 3.421624e+00 3.221340e+00 3.774991e+00 4.304081e+00 3.916853e+00 2.961241e+00 2.845623e+00 7.953234e+00
<GCONST> 9.968176e+01
<STATE> 3
<MEAN> 25
 -6.528739e-01 6.331971e-02 -1.361628e-01 -4.639567e-01 1.599470e+00 -3.370309e+00 7.801018e-01 -3.019422e+00 -2.008152e+00 -4.986142e-01 4.962660e-01 -3.311660e-01 3.054005e+00 -1.568511e+00 -5.543832e-01 -2.680581e+00 -1.927340e+00 -7.940093e-01 -2.095428e+00 -1.981305e+00 -2.567064e+00 -1.456358e+00 -7.576730e-01 -1.931590e+00 5.355369e+00
<VARIANCE> 25
 3.841341e+01 3.037191e+01 3.812065e+01 3.933340e+01 3.898631e+01 3.388636e+01 3.462748e+01 3.398045e+01 4.925550e+01 2.745789e+01 2.567915e+01 1.729140e+01 4.603827e+00 3.914496e+00 5.053815e+00 5.795128e+00 4.004370e+00 6.763343e+00 4.550544e+00 4.339638e+00 5.620033e+00 4.398899e+00 4.324457e+00 3.312830e+00 5.521979e+00
<GCONST> 1.080131e+02
<STATE> 4
<MEAN> 25
 7.171646e+00 -1.665604e+00 -2.693496e+00 -6.560229e+00 -3.616063e+00 4.223644e-01 -4.223972e+00 -5.014872e+00 -6.112742e+00 -8.735144e-01 1.991970e+00 -3.730320e+00 2.310655e-01 -7.196727e-01 -3.745865e-01 -2.813556e-01 -2.730483e-01 -1.040283e-01 -2.359587e-01 6.936458e-02 4.315439e-01 2.077795e-01 -3.750712e-01 -3.508402e-01 9.890975e-01
<VARIANCE> 25
 5.305051e+01 5.325222e+01 3.828591e+01 7.789308e+01 6.010274e+01 5.321165e+01 7.459418e+01 3.573622e+01 8.748765e+01 4.772987e+01 5.415165e+01 3.701924e+01 5.575379e+00 5.597072e+00 3.183449e+00 8.018468e+00 6.459165e+00 5.141557e+00 7.435927e+00 3.667110e+00 5.904062e+00 4.288929e+00 4.774733e+00 4.704954e+00 1.171572e+01
<GCONST> 1.160859e+02
<TRANSP> 5
 0.000000e+00 1.000000e+00 0.000000e+00 0.000000e+00 0.000000e+00
 0.000000e+00 7.673600e-01 2.326400e-01 0.000000e+00 0.000000e+00
 0.000000e+00 0.000000e+00 4.376771e-01 5.623229e-01 0.000000e+00
 0.000000e+00 0.000000e+00 0.000000e+00 7.276361e-01 2.723639e-01
 0.000000e+00 0.000000e+00 0.000000e+00 0.000000e+00 0.000000e+00
<ENDHMM>
~h "sil"
<BEGINHMM>
<NUMSTATES> 5
<STATE> 2
<MEAN> 25
 -3.912817e+00 3.143891e+00 -6.977830e-01 4.394096e+00 4.108529e+00 1.775753e+00 4.841250e+00 3.260998e+00 3.594038e+00 3.168192e+00 3.187070e+00 3.629256e+00 6.710006e-03 2.460575e-03 -3.604174e-02 1.059346e-02 -3.272340e-02 2.221715e-02 -2.051174e-02 -6.276988e-03 2.107902e-02 3.158139e-02 1.208007e-02 1.261411e-02 -1.918188e-02
<VARIANCE> 25
 2.866793e+01 5.335738e+00 7.649893e+00 9.329428e+00 1.489843e+01 1.578569e+01 1.779276e+01 1.570459e+01 1.740515e+01 1.673630e+01 1.683592e+01 1.567120e+01 2.023392e-01 3.174812e-01 4.142224e-01 5.636263e-01 7.780703e-01 9.021167e-01 1.092555e+00 1.021504e+00 1.141943e+00 1.132960e+00 1.016833e+00 9.372781e-01 1.488902e-01
<GCONST> 7.144869e+01
<STATE> 3
~s "silst"
<STATE> 4
<MEAN> 25
 -5.446116e+00 2.255980e+00 8.563089e-01 3.832536e+00 3.719734e+00 6.384842e-01 5.439308e+00 2.796212e+00 2.714442e+00 2.677578e+00 3.987309e+00 2.697245e+00 -4.914553e-02 -5.387613e-02 2.215816e-01 -1.750380e-01 -1.057961e-01 -1.894554e-01 -1.194684e-01 -1.787208e-01 -2.132442e-01 -2.061782e-01 -6.532041e-02 -1.240450e-01 5.381543e-01
<VARIANCE> 25
 3.290422e+01 2.294405e+01 1.768404e+01 3.521828e+01 4.195740e+01 3.365933e+01 3.458270e+01 2.892937e+01 3.312659e+01 2.336203e+01 2.000040e+01 2.049741e+01 2.961757e+00 2.047539e+00 2.145327e+00 2.449680e+00 2.558789e+00 4.039953e+00 3.184880e+00 2.528937e+00 2.663957e+00 2.538199e+00 2.105237e+00 2.037227e+00 5.761894e+00
<GCONST> 9.883868e+01
<TRANSP> 5
 0.000000e+00 1.000000e+00 0.000000e+00 0.000000e+00 0.000000e+00
 0.000000e+00 8.653755e-01 9.248409e-02 4.214039e-02 0.000000e+00
 0.000000e+00 0.000000e+00 9.795079e-01 2.049214e-02 0.000000e+00
 0.000000e+00 1.771599e-01 0.000000e+00 6.768934e-01 1.459468e-01
 0.000000e+00 0.000000e+00 0.000000e+00 0.000000e+00 0.000000e+00
<ENDHMM>
~h "\340\262\242\340\263\215"
<BEGINHMM>
<NUMSTATES> 5
<STATE> 2
<MEAN> 25
 5.518230e+00 5.311057e+00 6.494535e+00 2.544073e+00 -2.747929e+00 -2.815958e+00 -1.637799e+00 -6.009325e+00 -6.129269e+00 -6.111480e+00 -3.924828e+00 -4.456450e-01 1.149998e+00 -5.663455e-01 -1.577303e-01 -8.468974e-01 -1.607459e+00 -9.433708e-01 -2.369789e-01 2.235336e-01 -4.725673e-01 -6.100475e-01 -6.859844e-01 2.347884e-01 2.138190e+00
<VARIANCE> 25
 3.819183e+01 4.793811e+01 3.080148e+01 3.674094e+01 5.630581e+01 2.702887e+01 2.022018e+01 7.114391e+01 5.965620e+01 3.461443e+01 2.357875e+01 2.281746e+01 5.902102e+00 6.107909e+00 6.654363e+00 2.767740e+00 2.570392e+00 3.305681e+00 2.287548e+00 1.323425e+01 9.424623e+00 6.411483e+00 4.197045e+00 2.227361e+00 2.938558e+00
<GCONST> 1.084735e+02
<STATE> 3
<MEAN> 25
 8.247516e+00 -6.052420e+00 -5.706213e+00 -2.463642e+00 -7.802612e+00 -6.760935e+00 3.775267e-01 5.924329e+00 -3.366035e+00 -4.140231e+00 -6.052320e+00 -7.344535e-01 7.634045e-01 -6.260056e-01 -2.020536e+00 -4.943591e-01 1.031138e+00 1.130026e+00 3.413762e-01 -1.253801e+00 -1.077098e-01 -1.734799e-01 -6.337883e-01 -2.146178e+00 7.547714e-01
<VARIANCE> 25
 9.443799e+00 5.095905e+01 1.153729e+01 9.802952e+00 2.189563e+01 4.768184e+01 1.033351e+01 4.767311e+01 3.042749e+00 5.672404e+00 2.498874e+01 1.855654e+01 1.114106e+00 1.038972e+00 2.496454e+00 1.587016e+00 8.005535e+00 3.495654e+00 8.368453e-01 2.664136e+00 2.454149e+00 9.189390e-01 6.809540e-01 1.880518e+00 1.326524e+00
<GCONST> 8.598931e+01
<STATE> 4
<MEAN> 25
 8.121099e+00 -5.916435e+00 -5.596773e+00 -3.562308e+00 -4.137463e+00 3.370861e-01 -7.394136e-01 -1.320831e+00 -4.777801e+00 -3.706067e+00 -5.778476e+00 -5.804236e+00 2.975896e-01 9.129707e-01 3.396731e-01 -4.439571e-02 1.141022e+00 1.689082e+00 -7.348496e-01 -1.911431e+00 -3.945426e-01 9.828701e-01 -2.735435e-01 -1.601322e+00 -4.971054e-01
<VARIANCE> 25
 7.600833e+00 4.986211e+01 1.217632e+01 1.934144e+01 2.261356e+01 8.986303e+01 1.827499e+01 3.555812e+01 8.283264e+00 1.025072e+01 2.841177e+01 1.257713e+01 7.707255e-01 4.805919e-01 1.549695e+00 7.547204e-01 4.855023e-01 7.176696e-01 4.346913e+00 1.104399e+00 1.089225e+00 1.494917e+00 1.674037e+00 1.146198e+00 1.021469e+00
<GCONST> 8.259839e+01
<TRANSP> 5
 0.000000e+00 1.000000e+00 0.000000e+00 0.000000e+00 0.000000e+00
 0.000000e+00 8.826842e-01 1.173158e-01 0.000000e+00 0.000000e+00
 0.000000e+00 0.000000e+00 4.335298e-01 5.664702e-01 0.000000e+00
 0.000000e+00 0.000000e+00 0.000000e+00 4.136031e-01 5.863969e-01
 0.000000e+00 0.000000e+00 0.000000e+00 0.000000e+00 0.000000e+00
<ENDHMM>
~h "\340\262\263\340\263\215"
<BEGINHMM>
<NUMSTATES> 5
<STATE> 2
<MEAN> 25
 9.264086e+00 -8.861406e+00 -3.867265e+00 2.222023e+00 -7.242382e+00 -1.337845e+01 -9.180806e+00 3.430355e+00 -3.573449e+00 -3.091306e+00 -1.227103e+00 -5.287170e+00 -1.189709e-01 1.235432e+00 1.396612e+00 1.136107e+00 1.471104e+00 -2.592137e+00 -1.776526e+00 2.154638e-01 -6.384946e-01 -1.760646e+00 4.985321e-01 7.424923e-01 -6.960984e-01
<VARIANCE> 25
 1.891683e+01 4.536189e+01 4.631137e+01 3.747949e+01 5.511479e+01 7.368242e+01 6.775983e+01 7.094904e+01 5.086822e+01 5.424424e+01 5.381410e+01 2.932560e+01 1.059579e+00 3.066986e+00 2.982588e+00 2.846601e+00 4.710993e+00 5.847417e+00 4.473295e+00 6.948050e+00 4.615028e+00 5.965282e+00 4.131685e+00 3.115589e+00 1.502805e+00
<GCONST> 1.085824e+02
<STATE> 3
<MEAN> 25
 8.693103e+00 -4.335946e+00 1.033049e-01 1.979698e+00 -2.771554e+00 -1.573946e+01 -1.567446e+01 -8.816755e-01 -2.356544e+00 -6.287414e+00 -1.254623e+00 -4.276284e+00 -2.118167e-01 5.613169e-01 3.421344e-01 -1.117244e+00 -6.611425e-01 1.684433e+00 3.788558e-01 -1.936137e+00 8.093834e-03 1.206435e+00 1.357515e-01 -3.176212e-01 -2.298949e-03
<VARIANCE> 25
 1.124092e+01 2.154120e+01 5.518058e+01 4.563664e+01 5.534288e+01 6.434560e+01 6.417369e+01 5.303648e+01 5.216750e+01 1.025883e+02 3.345166e+01 2.292739e+01 7.260848e-01 1.117817e+00 2.977919e+00 2.874463e+00 3.662216e+00 3.248491e+00 5.285949e+00 3.281156e+00 4.812479e+00 8.538137e+00 4.024604e+00 1.900624e+00 9.458862e-01
<GCONST> 1.037684e+02
<STATE> 4
<MEAN> 25
 1.064441e+01 9.708492e-01 -2.119256e+00 -6.950066e+00 -5.353555e+00 -3.470580e+00 -8.524448e+00 -1.014846e+01 -6.241976e+00 -3.945281e+00 1.331167e+00 -3.356193e+00 -2.717896e-01 6.868565e-01 9.862067e-02 -2.849737e-01 -7.288741e-02 8.327104e-01 1.619337e+00 -1.616774e-01 3.201616e-02 -9.536339e-01 -5.734702e-01 3.730489e-01 -3.576965e-01
<VARIANCE> 25
 1.947580e+01 3.491843e+01 5.141269e+01 7.838396e+01 3.263863e+01 8.332393e+01 4.895048e+01 3.879544e+01 3.944177e+01 5.535280e+01 4.729650e+01 2.709880e+01 6.014134e-01 1.678411e+00 1.610963e+00 2.930569e+00 2.965801e+00 4.431082e+00 3.963668e+00 2.722281e+00 3.579430e+00 4.814049e+00 3.462646e+00 1.771526e+00 1.234835e+00
<GCONST> 1.024598e+02
<TRANSP> 5
 0.000000e+00 1.000000e+00 0.000000e+00 0.000000e+00 0.000000e+00
 0.000000e+00 7.230312e-01 2.769688e-01 0.000000e+00 0.000000e+00
 0.000000e+00 0.000000e+00 7.296462e-01 2.703537e-01 0.000000e+00
 0.000000e+00 0.000000e+00 0.000000e+00 6.514884e-01 3.485116e-01
 0.000000e+00 0.000000e+00 0.000000e+00 0.000000e+00 0.000000e+00
<ENDHMM>
~h "\340\262\232\340\263\215"
<BEGINHMM>
<NUMSTATES> 5
<STATE> 2
<MEAN> 25
 -5.068583e+00 2.161371e+00 2.084289e+00 4.627595e+00 2.698765e+00 1.756264e+00 4.367061e+00 2.990471e+00 3.563560e+00 3.214795e+00 3.679231e+00 2.416428e+00 -9.160367e-01 -1.781815e-01 -5.924601e-02 -4.977693e-01 4.428691e-01 2.899433e-01 -2.298338e-02 2.146795e-01 3.624405e-01 3.166799e-01 4.093904e-01 1.222668e-01 -2.263637e-02
<VARIANCE> 25
 2.632009e+01 1.482325e+01 3.342237e+01 2.177481e+01 2.841872e+01 2.633249e+01 2.217163e+01 2.849405e+01 2.072166e+01 2.729374e+01 3.060530e+01 1.912785e+01 5.017529e+00 1.224635e+00 1.647231e+00 2.111247e+00 2.559062e+00 1.914508e+00 1.611956e+00 1.989102e+00 2.488338e+00 2.352883e+00 2.226078e+00 1.389668e+00 1.503176e+00
<GCONST> 9.340028e+01
<STATE> 3
<MEAN> 25
 -8.132837e+00 -3.300137e+00 2.674753e+00 -3.787091e+00 1.310243e+00 -5.392712e-02 1.290483e+00 2.299729e+00 3.182795e+00 1.914341e+00 4.218390e+00 2.567350e+00 -3.736826e+00 -7.492901e-01 4.399484e-01 -2.632153e+00 2.753549e-01 1.603337e-02 -5.519916e-01 -1.636857e-01 -7.987976e-02 -3.728347e-01 6.596640e-01 3.907041e-01 3.299802e+00
<VARIANCE> 25
 4.189880e+01 3.539269e+01 3.393705e+01 4.569888e+01 2.685005e+01 2.331526e+01 3.580598e+01 4.013545e+01 3.873047e+01 2.074462e+01 2.380380e+01 1.826063e+01 9.443314e+00 3.749804e+00 5.276401e+00 4.785813e+00 3.619064e+00 2.880973e+00 3.297433e+00 3.530052e+00 4.490289e+00 3.151642e+00 3.130302e+00 2.531569e+00 4.206573e+00
<GCONST> 1.048197e+02
<STATE> 4
<MEAN> 25
 -1.901823e+01 -1.175990e+00 8.621245e+00 -6.243613e+00 -1.310658e+00 -1.769563e+00 -6.724426e-01 6.207202e-01 2.860719e-01 -2.838626e+00 1.084985e+00 1.525005e+00 1.502654e+00 1.981388e-01 3.523263e-01 3.318249e-01 -1.106663e+00 -1.058024e+00 -3.882157e-01 -2.745849e-01 -9.463276e-01 -5.834460e-01 -7.642807e-01 -4.899641e-01 9.928994e-01
<VARIANCE> 25
 8.966386e+01 1.742925e+01 1.975325e+01 2.584238e+01 3.240836e+01 3.524153e+01 2.547899e+01 2.562702e+01 2.552272e+01 1.853559e+01 2.072544e+01 1.423223e+01 2.049306e+01 3.090433e+00 3.349300e+00 2.160596e+00 2.620281e+00 4.006411e+00 3.287921e+00 3.771832e+00 2.863261e+00 1.622523e+00 2.021053e+00 1.681969e+00 2.738432e+00
<GCONST> 9.966820e+01
<TRANSP> 5
 0.000000e+00 1.000000e+00 0.000000e+00 0.000000e+00 0.000000e+00
 0.000000e+00 6.618518e-01 3.381483e-01 0.000000e+00 0.000000e+00
 0.000000e+00 0.000000e+00 6.100240e-01 3.899761e-01 0.000000e+00
 0.000000e+00 0.000000e+00 0.000000e+00 8.412330e-01 1.587670e-01
 0.000000e+00 0.000000e+00 0.000000e+00 0.000000e+00 0.000000e+00
<ENDHMM>
~h "\340\262\253\340\263\215"
<BEGINHMM>
<NUMSTATES> 5
<STATE> 2
<MEAN> 25
 -5.487699e+00 3.068291e+00 -2.026431e+00 6.388804e+00 5.281201e+00 5.158952e+00 5.976493e+00 5.261012e+00 5.608667e+00 4.088547e+00 4.803314e+00 2.517264e+00 -4.029596e-02 1.452031e-02 4.342609e-02 7.487391e-02 -5.425138e-02 3.894450e-02 9.506034e-03 -6.693897e-03 -5.848436e-03 4.844864e-02 4.339505e-02 4.422380e-02 -3.271961e-02
<VARIANCE> 25
 2.934788e+00 2.135370e+00 4.392184e+00 1.281448e+01 6.906140e+00 1.006739e+01 1.208131e+01 1.014489e+01 7.775553e+00 8.677639e+00 1.352923e+01 1.043414e+01 5.028383e-01 1.901496e-01 3.667043e-01 6.032768e-01 6.030080e-01 9.186059e-01 1.297235e+00 9.915050e-01 8.651870e-01 1.086491e+00 1.130579e+00 1.189546e+00 3.376559e-01
<GCONST> 6.497832e+01
<STATE> 3
<MEAN> 25
 -6.083776e+00 4.640038e+00 -8.377090e-01 8.928231e+00 5.924100e+00 3.729311e+00 6.192209e+00 3.342609e+00 2.645917e+00 3.575995e+00 4.272563e+00 2.739690e+00 2.183946e-01 4.602217e-01 6.715862e-01 -5.696694e-01 -8.259085e-01 -1.600575e+00 -6.882573e-01 -1.356823e-01 -1.592461e+00 -5.346119e-01 -2.438385e-01 -2.902004e-01 7.619579e-01
<VARIANCE> 25
 5.124166e+00 1.175361e+01 6.427092e+00 2.845931e+01 7.061375e+00 6.598881e+00 1.758977e+01 9.307631e+00 1.246252e+01 2.656260e+01 2.185819e+01 1.418365e+01 4.318294e+00 6.936070e-01 5.571065e-01 1.793177e+00 1.606145e+00 9.628150e-01 1.304833e+00 1.070738e+00 9.970484e-01 1.872693e+00 1.111581e+00 2.268892e+00 6.409026e-01
<GCONST> 7.870364e+01
<STATE> 4
<MEAN> 25
 -1.027151e+01 -2.553136e+00 -6.561000e-01 -4.966087e-01 3.669530e+00 -6.924196e-01 5.235520e+00 1.619246e+00 1.144165e+00 1.005715e+00 2.864273e+00 2.509974e+00 -3.851249e-01 -6.795008e-01 4.565702e-02 -2.999298e-01 6.382132e-02 -4.137275e-01 -1.951123e-01 -1.304714e-01 1.706808e-02 -1.749981e-01 -1.345551e-01 -6.736985e-02 1.074936e+00
<VARIANCE> 25
 2.962401e+01 1.379105e+01 8.669930e+00 1.421778e+01 1.049867e+01 1.195319e+01 1.129685e+01 2.220263e+01 2.380155e+01 1.320812e+01 1.848937e+01 1.398012e+01 3.189101e+00 9.803432e-01 1.056680e+00 3.312474e+00 1.163134e+00 1.511181e+00 1.222446e+00 1.920810e+00 3.562229e+00 1.662835e+00 2.032581e+00 1.453053e+00 7.846234e-01
<GCONST> 8.486593e+01
<TRANSP> 5
 0.000000e+00 1.000000e+00 0.000000e+00 0.000000e+00 0.000000e+00
 0.000000e+00 9.493788e-01 5.062113e-02 0.000000e+00 0.000000e+00
 0.000000e+00 0.000000e+00 4.603734e-01 5.396266e-01 0.000000e+00
 0.000000e+00 0.000000e+00 0.000000e+00 9.048911e-01 9.510890e-02
 0.000000e+00 0.000000e+00 0.000000e+00 0.000000e+00 0.000000e+00
<ENDHMM>
~h "\340\262\243\340\263\215"
<BEGINHMM>
<NUMSTATES> 5
<STATE> 2
<MEAN> 25
 1.006668e+01 -1.258943e+01 -3.903686e+00 6.641397e-01 -6.778604e+00 -8.241979e+00 -4.328582e+00 1.458024e+00 -4.212559e+00 -5.189703e+00 -6.238342e+00 -3.678730e+00 2.411735e-01 5.834850e-01 5.256803e-01 5.543299e-01 1.108120e-01 -1.641928e+00 3.680208e-01 6.249312e-01 -4.042712e-02 -7.226111e-01 -8.587521e-01 1.055890e+00 -2.538389e-01
<VARIANCE> 25
 1.583891e+01 4.583756e+01 5.869919e+01 3.118970e+01 6.222964e+01 4.924850e+01 4.543200e+01 3.758255e+01 3.988305e+01 3.230500e+01 6.370540e+01 4.503699e+01 4.995676e-01 1.523644e+00 2.528042e+00 1.616725e+00 2.611137e+00 5.008001e+00 3.132002e+00 4.433096e+00 3.074117e+00 1.808117e+00 2.184774e+00 2.453605e+00 4.717302e-01
<GCONST> 9.961995e+01
<STATE> 3
<MEAN> 25
 1.078456e+01 -7.058887e+00 2.613381e-01 1.711191e+00 -6.051868e+00 -1.399550e+01 -3.456663e+00 1.286982e+00 -4.844458e+00 -6.083609e+00 -8.608615e+00 -4.492086e-01 3.781971e-01 2.849290e+00 1.769346e+00 -2.179002e-01 6.109234e-01 -1.266510e+00 2.518247e-01 -1.623917e+00 -9.307340e-01 5.470688e-01 4.412522e-02 8.336918e-02 -1.220080e+00
<VARIANCE> 25
 1.236976e+01 4.989221e+01 4.083394e+01 2.619487e+01 5.819894e+01 5.894990e+01 4.530183e+01 3.944406e+01 6.018515e+01 3.430374e+01 6.208271e+01 4.154743e+01 7.224090e-01 2.297898e+00 2.261035e+00 1.354192e+00 2.633745e+00 3.674442e+00 2.296622e+00 2.822446e+00 3.968286e+00 2.215305e+00 2.476212e+00 2.675834e+00 7.487320e-01
<GCONST> 1.000039e+02
<STATE> 4
<MEAN> 25
 1.166419e+01 -4.843602e-01 4.213033e+00 -2.994620e+00 -6.784564e+00 -1.055005e+01 -3.511817e+00 -5.842415e+00 -9.382586e+00 -4.694843e+00 -2.978269e+00 -3.325666e+00 -3.210701e-01 -3.353153e-01 -7.886273e-02 -7.463872e-01 -4.892940e-01 1.178858e+00 -4.799233e-01 -1.644391e-01 1.488416e-01 1.301249e-01 2.912860e-01 -7.273518e-01 5.247334e-01
<VARIANCE> 25
 9.944724e+00 3.166299e+01 3.092893e+01 3.317756e+01 6.648602e+01 5.983728e+01 5.390688e+01 5.115733e+01 6.494711e+01 3.670421e+01 6.389359e+01 3.433561e+01 1.024657e+00 3.710590e+00 3.087922e+00 2.694280e+00 6.584136e+00 6.407825e+00 3.512089e+00 3.871105e+00 3.698800e+00 2.285095e+00 5.332356e+00 2.977704e+00 1.308011e+00
<GCONST> 1.052873e+02
<TRANSP> 5
 0.000000e+00 1.000000e+00 0.000000e+00 0.000000e+00 0.000000e+00
 0.000000e+00 4.697390e-01 5.302610e-01 0.000000e+00 0.000000e+00
 0.000000e+00 0.000000e+00 5.980242e-01 4.019757e-01 0.000000e+00
 0.000000e+00 0.000000e+00 0.000000e+00 6.676779e-01 3.323221e-01
 0.000000e+00 0.000000e+00 0.000000e+00 0.000000e+00 0.000000e+00
<ENDHMM>
~h "\340\262\233\340\263\215"
<BEGINHMM>
<NUMSTATES> 5
<STATE> 2
<MEAN> 25
 4.544964e+00 -5.400044e+00 -1.151799e+01 -3.832573e+00 1.115921e+00 2.788012e-01 -1.698657e+00 -5.364050e+00 -5.986750e-01 -2.229098e+00 -1.521432e+01 -3.434274e+00 6.302506e-02 3.418384e-01 8.303686e-02 5.253100e-01 1.628877e-01 1.048707e+00 2.001315e-01 -6.390945e-01 2.106973e-01 -8.005258e-04 -2.343906e-01 -5.397023e-02 -9.261440e-01
<VARIANCE> 25
 3.089061e+01 6.142504e+01 5.340069e+01 2.623002e+01 1.147385e+01 2.952019e+01 1.331551e+01 9.680531e+01 1.094830e+01 1.365901e+01 6.470952e+01 2.455755e+01 8.881928e-01 2.798164e+00 3.589581e+00 2.258469e+00 1.920321e+00 3.380992e+00 2.551886e+00 3.389642e+00 1.583480e+00 9.064426e-01 1.751787e+00 2.908873e+00 1.293547e+00
<GCONST> 9.538373e+01
<STATE> 3
<MEAN> 25
 -3.203210e+00 8.048059e-01 -9.722635e-01 1.618266e+00 5.895171e+00 7.679975e+00 3.273702e+00 1.055021e+00 3.783902e+00 -1.448808e+00 8.506708e-01 5.349019e-01 -7.592371e-01 1.515972e-01 3.843696e-01 2.399195e-01 4.720230e-02 -1.922407e-01 8.349867e-01 9.123488e-01 2.251624e-01 8.696269e-01 1.033247e+00 7.867514e-01 -6.847487e-01
<VARIANCE> 25
 3.650961e+01 3.999090e+00 5.946958e+01 1.295742e+01 1.388479e+01 1.261456e+01 3.219457e+01 4.290956e+01 1.972361e+01 2.036201e+01 3.223434e+01 1.550836e+01 2.662791e+00 3.783027e-01 3.919974e+00 1.471543e+00 8.566399e-01 1.457650e+00 2.757597e+00 3.307814e+00 2.119388e+00 2.436826e+00 2.526352e+00 1.451716e+00 3.099873e+00
<GCONST> 9.044930e+01
<STATE> 4
<MEAN> 25
 -4.397799e+00 2.213288e+00 3.203250e-01 6.417042e+00 3.651819e+00 3.146385e+00 4.497308e+00 4.128469e+00 4.563242e+00 3.285469e+00 5.098619e+00 3.899945e+00 2.692617e-02 -6.889627e-02 5.628333e-02 1.215774e-01 -7.788759e-02 -1.208313e-01 -7.426683e-02 -4.178011e-02 1.201248e-03 -1.354200e-02 2.314475e-02 -2.932291e-02 2.117133e-02
<VARIANCE> 25
 4.960787e+00 4.032801e+00 7.308211e+00 1.171630e+01 1.278399e+01 1.352162e+01 1.437324e+01 1.609074e+01 1.282738e+01 1.343946e+01 1.547370e+01 1.248114e+01 5.566298e-01 7.441197e-01 7.334194e-01 9.880095e-01 1.014210e+00 1.633288e+00 1.463324e+00 1.629772e+00 1.273807e+00 1.285810e+00 1.479274e+00 1.280669e+00 7.869682e-01
<GCONST> 7.546528e+01
<TRANSP> 5
 0.000000e+00 1.000000e+00 0.000000e+00 0.000000e+00 0.000000e+00
 0.000000e+00 7.789553e-01 2.210446e-01 0.000000e+00 0.000000e+00
 0.000000e+00 0.000000e+00 8.081567e-01 1.918433e-01 0.000000e+00
 0.000000e+00 0.000000e+00 0.000000e+00 9.654052e-01 3.459480e-02
 0.000000e+00 0.000000e+00 0.000000e+00 0.000000e+00 0.000000e+00
<ENDHMM>
~h "\340\262\254\340\263\215"
<BEGINHMM>
<NUMSTATES> 5
<STATE> 2
<MEAN> 25
 3.209375e+00 -2.381600e+00 6.133648e+00 -9.745073e-02 -5.900040e+00 -4.159561e+00 -1.385409e+00 -2.778963e-01 -5.120178e+00 -3.760952e+00 -2.046242e+00 -3.546167e+00 1.379215e+00 -5.008356e-02 6.675518e-01 3.913524e-01 -1.287720e-01 -8.664311e-01 -1.046756e+00 -5.553598e-01 -9.753650e-01 -6.360285e-01 -6.724103e-01 -1.106715e+00 1.446267e+00
<VARIANCE> 25
 2.912052e+01 9.079979e+01 4.643161e+01 7.656622e+01 1.054177e+02 4.486482e+01 3.425216e+01 6.506241e+01 3.742401e+01 4.146023e+01 2.670005e+01 2.388489e+01 3.112255e+00 5.024193e+00 4.409329e+00 4.663636e+00 6.144566e+00 4.055891e+00 4.486100e+00 4.673079e+00 4.404147e+00 3.692715e+00 2.038765e+00 2.254359e+00 7.195510e+00
<GCONST> 1.102980e+02
<STATE> 3
<MEAN> 25
 9.729869e+00 1.089484e+00 8.027503e+00 6.128691e+00 4.085895e+00 -5.117858e+00 -1.143266e+01 -9.516307e+00 -9.785544e+00 -4.499106e-01 -2.438249e+00 -1.003628e+01 8.812963e-02 1.069520e+00 1.327264e-01 9.081096e-01 9.316669e-01 7.913759e-01 2.387127e-01 -1.467885e+00 -7.532718e-01 9.895062e-02 2.691709e-01 -7.896712e-02 -9.824985e-01
<VARIANCE> 25
 6.588547e+00 4.262495e+01 2.511206e+01 3.050949e+01 3.206450e+01 6.874374e+01 5.337182e+01 6.903470e+01 3.860547e+01 3.343312e+01 3.700031e+01 3.883563e+01 9.225476e-01 1.357667e+00 2.199512e+00 2.810884e+00 2.628407e+00 2.904465e+00 3.870915e+00 3.233392e+00 3.257163e+00 2.908578e+00 1.648494e+00 2.354054e+00 2.145735e+00
<GCONST> 9.954386e+01
<STATE> 4
<MEAN> 25
 7.687129e+00 6.725426e+00 4.735002e+00 4.762214e+00 4.964256e+00 7.348917e-01 -3.433463e+00 -1.307395e+01 -1.005308e+01 -4.040478e+00 -9.847369e-01 -5.623137e+00 -1.023323e+00 -7.285631e-01 -7.159957e-01 -1.197714e+00 -5.071636e-01 -2.278208e-01 6.293449e-01 1.169188e+00 1.476758e+00 9.117382e-02 -2.667727e-01 6.937070e-01 5.308872e-01
<VARIANCE> 25
 1.374931e+01 3.560053e+01 3.581878e+01 7.258672e+01 3.690244e+01 4.208903e+01 3.350008e+01 8.706506e+01 6.030675e+01 3.440236e+01 3.549607e+01 2.818288e+01 1.554733e+00 4.388345e+00 2.589113e+00 6.363254e+00 4.190432e+00 4.556961e+00 4.460310e+00 4.871341e+00 5.493648e+00 3.499260e+00 2.923084e+00 2.152196e+00 5.328366e+00
<GCONST> 1.070940e+02
<TRANSP> 5
 0.000000e+00 1.000000e+00 0.000000e+00 0.000000e+00 0.000000e+00
 0.000000e+00 7.682779e-01 2.317221e-01 0.000000e+00 0.000000e+00
 0.000000e+00 0.000000e+00 7.170812e-01 2.829188e-01 0.000000e+00
 0.000000e+00 0.000000e+00 0.000000e+00 7.159528e-01 2.840473e-01
 0.000000e+00 0.000000e+00 0.000000e+00 0.000000e+00 0.000000e+00
<ENDHMM>
~h "\340\262\244\340\263\215"
<BEGINHMM>
<NUMSTATES> 5
<STATE> 2
<MEAN> 25
 -2.102559e+00 4.411950e-01 -2.825198e+00 5.898487e-01 7.453823e-01 -9.145146e-01 5.667212e-01 3.556159e+00 7.956771e+00 5.632973e+00 2.309157e+00 1.460336e+00 -9.037464e-01 -6.331914e-02 -4.753047e-01 1.552502e-01 1.831781e-01 7.287691e-01 1.058329e+00 7.183939e-01 7.419659e-01 9.195638e-01 1.047680e+00 6.861149e-01 -1.355552e+00
<VARIANCE> 25
 1.523195e+01 2.009770e+01 3.113836e+01 2.288135e+01 2.919300e+01 3.743206e+01 3.455884e+01 4.228292e+01 4.330531e+01 3.096042e+01 3.893648e+01 2.703160e+01 1.141745e+00 1.625956e+00 2.143784e+00 1.867293e+00 1.636224e+00 2.837037e+00 2.711219e+00 2.495766e+00 3.127802e+00 3.015804e+00 2.952854e+00 2.206950e+00 3.920910e+00
<GCONST> 9.762089e+01
<STATE> 3
<MEAN> 25
 -6.025681e+00 1.954191e+00 -3.104369e+00 2.707929e+00 2.442403e+00 2.479498e-01 3.816312e+00 3.826975e+00 6.454501e+00 6.200745e+00 4.286939e+00 3.793487e+00 -5.198228e-01 -2.247662e-01 -1.136471e-01 -4.705481e-01 -2.172874e-01 -1.458714e+00 -1.847945e-01 -1.303651e+00 -1.736957e+00 -1.617700e+00 -8.541121e-01 -3.329628e-01 3.689085e+00
<VARIANCE> 25
 1.343834e+01 1.485155e+01 1.904311e+01 1.667358e+01 1.711551e+01 2.624222e+01 1.975005e+01 2.337369e+01 3.404200e+01 2.204757e+01 1.756503e+01 1.593891e+01 1.775303e+00 1.736684e+00 2.937513e+00 2.161525e+00 2.513421e+00 4.510980e+00 2.629417e+00 3.512873e+00 4.869214e+00 3.000457e+00 2.693808e+00 2.241240e+00 7.359370e+00
<GCONST> 9.560259e+01
<STATE> 4
<MEAN> 25
 -8.570048e-01 -1.619765e+00 -2.116066e+00 -3.162154e+00 -1.284207e+00 -7.804984e+00 -3.692249e+00 -1.332489e+00 -4.113393e-01 5.516237e-01 -1.155729e+00 -9.551500e-01 2.367617e+00 -7.868668e-01 1.160461e-01 -1.563907e+00 -1.347207e+00 -1.399554e+00 -2.619754e+00 -8.326795e-01 -8.330340e-01 -6.789266e-01 -1.599276e+00 -1.351704e+00 3.543540e+00
<VARIANCE> 25
 5.551233e+01 3.102682e+01 2.545708e+01 3.783689e+01 3.133612e+01 5.193137e+01 8.849509e+01 3.422908e+01 5.025014e+01 3.304788e+01 3.355967e+01 3.490922e+01 4.305142e+00 3.882235e+00 3.082864e+00 4.858415e+00 4.039200e+00 8.091307e+00 7.021438e+00 4.747555e+00 6.277419e+00 5.445623e+00 5.315031e+00 2.889680e+00 1.176948e+01
<GCONST> 1.114056e+02
<TRANSP> 5
 0.000000e+00 1.000000e+00 0.000000e+00 0.000000e+00 0.000000e+00
 0.000000e+00 7.793571e-01 2.206429e-01 0.000000e+00 0.000000e+00
 0.000000e+00 0.000000e+00 4.864419e-01 5.135581e-01 0.000000e+00
 0.000000e+00 0.000000e+00 0.000000e+00 6.147947e-01 3.852053e-01
 0.000000e+00 0.000000e+00 0.000000e+00 0.000000e+00 0.000000e+00
<ENDHMM>
~h "\340\262\265\340\263\215"
<BEGINHMM>
<NUMSTATES> 5
<STATE> 2
<MEAN> 25
 9.603801e+00 -1.952176e+00 -4.753442e+00 -8.741946e+00 -1.601876e+00 -6.104887e-03 -5.741488e+00 -7.957356e+00 -5.719873e+00 2.568653e+00 1.971155e+00 -3.070402e+00 4.226009e-01 1.026266e+00 1.769740e-01 -4.414912e-01 -9.530157e-03 7.565259e-01 7.594190e-01 -9.918527e-01 -9.081925e-01 -5.853543e-01 7.364233e-01 6.173310e-01 -8.194584e-01
<VARIANCE> 25
 3.515687e+01 2.831586e+01 2.957525e+01 7.425900e+01 3.179997e+01 4.407539e+01 4.102032e+01 3.894751e+01 4.191528e+01 4.455755e+01 2.913524e+01 2.437986e+01 2.374002e+00 3.529741e+00 2.932956e+00 5.145587e+00 4.783151e+00 3.943688e+00 4.435138e+00 3.814599e+00 3.726485e+00 4.672359e+00 3.559281e+00 2.370063e+00 3.484923e+00
<GCONST> 1.061081e+02
<STATE> 3
<MEAN> 25
 1.192965e+01 3.839034e+00 -4.239630e+00 -1.231120e+01 -6.363541e+00 1.867335e+00 -2.760048e+00 -6.002885e+00 -6.552526e+00 -4.358030e+00 2.751672e-02 -1.202480e+00 -2.438977e-01 -4.853433e-02 -8.253957e-02 1.406593e-02 1.941680e-01 -1.458266e-02 3.586896e-01 1.949023e-01 3.666088e-01 -1.844548e-01 -3.156188e-01 -1.055091e-01 5.654164e-02
<VARIANCE> 25
 3.303897e+01 3.125995e+01 1.907740e+01 7.099252e+01 5.903735e+01 2.819546e+01 3.165524e+01 3.935803e+01 3.227074e+01 4.153830e+01 2.579781e+01 2.168411e+01 6.532004e-01 1.901313e+00 1.300460e+00 2.298151e+00 2.224416e+00 2.058732e+00 2.262443e+00 1.878954e+00 1.891749e+00 2.173888e+00 1.530324e+00 1.206962e+00 1.326188e+00
<GCONST> 9.476077e+01
<STATE> 4
<MEAN> 25
 2.544850e+00 1.335064e+00 -2.061283e+00 -1.503828e+00 2.614633e+00 7.816805e-01 1.761370e+00 -3.892848e+00 -2.013947e+00 4.233771e-01 1.471404e+00 -9.558582e-02 -1.097323e-01 -5.171881e-01 -2.209418e-02 -5.478087e-02 -1.882675e-01 -6.889795e-02 4.795272e-02 1.338406e-01 2.514729e-01 1.397854e-01 -3.907014e-01 -3.707210e-01 5.087049e-01
<VARIANCE> 25
 6.495284e+01 3.203767e+01 3.337685e+01 9.070889e+01 4.480149e+01 4.534845e+01 4.211489e+01 4.447384e+01 4.302974e+01 4.004493e+01 2.687840e+01 2.362136e+01 1.994560e+00 2.187222e+00 2.026700e+00 2.849238e+00 2.358590e+00 2.588513e+00 2.966237e+00 2.548770e+00 2.966261e+00 3.028003e+00 2.454271e+00 1.813097e+00 1.863436e+00
<GCONST> 1.020294e+02
<TRANSP> 5
 0.000000e+00 1.000000e+00 0.000000e+00 0.000000e+00 0.000000e+00
