~o
<STREAMINFO> 1 25
<VECSIZE> 25<NULLD><MFCC_D_N_Z_0><DIAGC>
~h "proto"
<BEGINHMM>
<NUMSTATES> 5
<STATE> 2
<MEAN> 25
 3.363246e-09 -5.073974e-09 -2.667070e-08 -7.742742e-09 -4.152962e-08 5.464628e-08 -2.856819e-08 -3.137197e-08 -1.315223e-08 -1.457514e-08 1.178106e-08 -4.705634e-08 -5.036812e-04 -4.192874e-04 1.220702e-04 -4.396494e-04 -3.006390e-04 7.270148e-05 1.006791e-04 -4.520885e-04 -6.791297e-04 -7.117605e-04 -2.317067e-04 -1.422502e-04 3.583877e-03
<VARIANCE> 25
 7.771582e+01 4.669401e+01 4.885701e+01 4.639305e+01 7.525224e+01 6.131878e+01 4.945510e+01 6.535645e+01 4.383388e+01 5.195151e+01 3.898161e+01 3.388782e+01 2.163800e+00 2.160548e+00 2.178321e+00 2.195785e+00 3.386122e+00 2.583580e+00 2.687976e+00 2.741140e+00 2.512795e+00 2.406658e+00 2.020564e+00 1.918339e+00 2.693773e+00
<GCONST> 1.047231e+02
<STATE> 3
<MEAN> 25
 3.363246e-09 -5.073974e-09 -2.667070e-08 -7.742742e-09 -4.152962e-08 5.464628e-08 -2.856819e-08 -3.137197e-08 -1.315223e-08 -1.457514e-08 1.178106e-08 -4.705634e-08 -5.036812e-04 -4.192874e-04 1.220702e-04 -4.396494e-04 -3.006390e-04 7.270148e-05 1.006791e-04 -4.520885e-04 -6.791297e-04 -7.117605e-04 -2.317067e-04 -1.422502e-04 3.583877e-03
<VARIANCE> 25
 7.771582e+01 4.669401e+01 4.885701e+01 4.639305e+01 7.525224e+01 6.131878e+01 4.945510e+01 6.535645e+01 4.383388e+01 5.195151e+01 3.898161e+01 3.388782e+01 2.163800e+00 2.160548e+00 2.178321e+00 2.195785e+00 3.386122e+00 2.583580e+00 2.687976e+00 2.741140e+00 2.512795e+00 2.406658e+00 2.020564e+00 1.918339e+00 2.693773e+00
<GCONST> 1.047231e+02
<STATE> 4
<MEAN> 25
 3.363246e-09 -5.073974e-09 -2.667070e-08 -7.742742e-09 -4.152962e-08 5.464628e-08 -2.856819e-08 -3.137197e-08 -1.315223e-08 -1.457514e-08 1.178106e-08 -4.705634e-08 -5.036812e-04 -4.192874e-04 1.220702e-04 -4.396494e-04 -3.006390e-04 7.270148e-05 1.006791e-04 -4.520885e-04 -6.791297e-04 -7.117605e-04 -2.317067e-04 -1.422502e-04 3.583877e-03
<VARIANCE> 25
 7.771582e+01 4.669401e+01 4.885701e+01 4.639305e+01 7.525224e+01 6.131878e+01 4.945510e+01 6.535645e+01 4.383388e+01 5.195151e+01 3.898161e+01 3.388782e+01 2.163800e+00 2.160548e+00 2.178321e+00 2.195785e+00 3.386122e+00 2.583580e+00 2.687976e+00 2.741140e+00 2.512795e+00 2.406658e+00 2.020564e+00 1.918339e+00 2.693773e+00
<GCONST> 1.047231e+02
<TRANSP> 5
 0.000000e+00 1.000000e+00 0.000000e+00 0.000000e+00 0.000000e+00
 0.000000e+00 6.000000e-01 4.000000e-01 0.000000e+00 0.000000e+00
 0.000000e+00 0.000000e+00 6.000000e-01 4.000000e-01 0.000000e+00
 0.000000e+00 0.000000e+00 0.000000e+00 7.000000e-01 3.000000e-01
 0.000000e+00 0.000000e+00 0.000000e+00 0.000000e+00 0.000000e+00
<ENDHMM>
