~o
<STREAMINFO> 1 25
<VECSIZE> 25<NULLD><MFCC_D_N_Z_0><DIAGC>
~h "\340\262\236\340\263\215"
<BEGINHMM>
<NUMSTATES> 5
<STATE> 2
<MEAN> 25
 4.925858e-08 -1.233895e-08 2.920008e-08 1.226765e-08 -5.222096e-08 1.835772e-08 3.730370e-08 -3.084009e-08 5.284326e-08 -7.177465e-09 3.337222e-08 1.065681e-08 -5.941017e-04 -3.072851e-04 5.426822e-05 -6.761555e-04 -2.272289e-05 -6.928663e-06 -4.446488e-04 -1.001891e-03 -5.636913e-04 -2.278803e-04 9.030614e-05 -4.183001e-04 3.126871e-03
<VARIANCE> 25
 6.337364e+01 4.811290e+01 5.212138e+01 6.297672e+01 6.965734e+01 5.789758e+01 6.618909e+01 5.280534e+01 5.847340e+01 4.740644e+01 4.464558e+01 3.826577e+01 2.126088e+00 2.240220e+00 2.076481e+00 2.780402e+00 2.979447e+00 3.084975e+00 3.029560e+00 2.887547e+00 2.790046e+00 2.530517e+00 2.348650e+00 2.055844e+00 2.977529e+00
<GCONST> 1.062192e+02
<STATE> 3
<MEAN> 25
 4.925858e-08 -1.233895e-08 2.920008e-08 1.226765e-08 -5.222096e-08 1.835772e-08 3.730370e-08 -3.084009e-08 5.284326e-08 -7.177465e-09 3.337222e-08 1.065681e-08 -5.941017e-04 -3.072851e-04 5.426822e-05 -6.761555e-04 -2.272289e-05 -6.928663e-06 -4.446488e-04 -1.001891e-03 -5.636913e-04 -2.278803e-04 9.030614e-05 -4.183001e-04 3.126871e-03
<VARIANCE> 25
 6.337364e+01 4.811290e+01 5.212138e+01 6.297672e+01 6.965734e+01 5.789758e+01 6.618909e+01 5.280534e+01 5.847340e+01 4.740644e+01 4.464558e+01 3.826577e+01 2.126088e+00 2.240220e+00 2.076481e+00 2.780402e+00 2.979447e+00 3.084975e+00 3.029560e+00 2.887547e+00 2.790046e+00 2.530517e+00 2.348650e+00 2.055844e+00 2.977529e+00
<GCONST> 1.062192e+02
<STATE> 4
<MEAN> 25
 4.925858e-08 -1.233895e-08 2.920008e-08 1.226765e-08 -5.222096e-08 1.835772e-08 3.730370e-08 -3.084009e-08 5.284326e-08 -7.177465e-09 3.337222e-08 1.065681e-08 -5.941017e-04 -3.072851e-04 5.426822e-05 -6.761555e-04 -2.272289e-05 -6.928663e-06 -4.446488e-04 -1.001891e-03 -5.636913e-04 -2.278803e-04 9.030614e-05 -4.183001e-04 3.126871e-03
<VARIANCE> 25
 6.337364e+01 4.811290e+01 5.212138e+01 6.297672e+01 6.965734e+01 5.789758e+01 6.618909e+01 5.280534e+01 5.847340e+01 4.740644e+01 4.464558e+01 3.826577e+01 2.126088e+00 2.240220e+00 2.076481e+00 2.780402e+00 2.979447e+00 3.084975e+00 3.029560e+00 2.887547e+00 2.790046e+00 2.530517e+00 2.348650e+00 2.055844e+00 2.977529e+00
<GCONST> 1.062192e+02
<TRANSP> 5
 0.000000e+00 1.000000e+00 0.000000e+00 0.000000e+00 0.000000e+00
 0.000000e+00 6.000000e-01 4.000000e-01 0.000000e+00 0.000000e+00
 0.000000e+00 0.000000e+00 6.000000e-01 4.000000e-01 0.000000e+00
 0.000000e+00 0.000000e+00 0.000000e+00 7.000000e-01 3.000000e-01
 0.000000e+00 0.000000e+00 0.000000e+00 0.000000e+00 0.000000e+00
<ENDHMM>
~h "\340\262\257\340\263\215"
<BEGINHMM>
<NUMSTATES> 5
<STATE> 2
<MEAN> 25
 2.263134e+00 -1.693761e+00 6.102915e+00 -4.730873e+00 -8.155297e+00 -3.069730e+00 -3.418486e+00 -2.510328e+00 -5.668969e+00 -8.153814e-01 -9.029749e-01 -2.995556e+00 7.521091e-01 -3.172098e-01 2.470324e-01 -2.948152e-01 -8.806745e-01 -2.764399e-01 -4.146132e-01 -1.312985e-02 -6.018759e-01 -1.249283e-01 2.273697e-02 -4.835206e-01 7.184957e-01
<VARIANCE> 25
 5.214148e+01 6.481883e+01 9.130109e+01 6.271015e+01 1.037254e+02 6.467614e+01 5.931743e+01 5.802749e+01 5.270040e+01 3.969752e+01 3.636414e+01 3.145421e+01 4.044303e+00 4.750069e+00 4.922289e+00 4.055451e+00 5.694261e+00 4.254908e+00 4.313179e+00 5.430737e+00 4.260631e+00 3.364589e+00 3.345120e+00 2.640036e+00 4.745265e+00
<GCONST> 1.130569e+02
<STATE> 3
<MEAN> 25
 3.911303e+00 -3.053614e+00 5.748284e+00 -5.239398e+00 -9.849889e+00 -4.005273e+00 -4.293347e+00 -1.954025e+00 -6.374217e+00 -1.351277e+00 -1.068869e+00 -3.949941e+00 4.046380e-01 -4.309828e-01 -4.222044e-01 3.908431e-03 -1.845792e-01 -2.313832e-01 -1.014271e-01 2.735577e-01 6.011024e-02 -2.111857e-01 -1.756860e-01 -1.603144e-01 4.409208e-01
<VARIANCE> 25
 3.619211e+01 6.808582e+01 9.158215e+01 5.722527e+01 9.553580e+01 7.305988e+01 5.592420e+01 6.421714e+01 5.171931e+01 4.128309e+01 3.751398e+01 2.865591e+01 2.927210e+00 4.401393e+00 4.852633e+00 3.765976e+00 5.762519e+00 4.509423e+00 4.138376e+00 5.589501e+00 3.923736e+00 3.257428e+00 3.125739e+00 2.434704e+00 3.812004e+00
<GCONST> 1.117800e+02
<STATE> 4
<MEAN> 25
 4.666702e+00 -3.429111e+00 4.741536e+00 -5.178013e+00 -1.035921e+01 -4.703904e+00 -4.178825e+00 -1.994854e+00 -6.045088e+00 -2.176525e+00 -1.984446e+00 -3.848913e+00 1.118805e-01 -1.768458e-01 -5.628561e-01 1.674029e-01 3.668702e-01 -4.555234e-02 1.133590e-01 1.097267e-01 3.239449e-01 -1.514389e-01 -2.603714e-01 7.262042e-02 -6.484761e-03
<VARIANCE> 25
 3.523315e+01 6.598721e+01 8.919850e+01 5.209711e+01 8.268668e+01 6.930804e+01 5.430807e+01 6.922080e+01 5.105603e+01 4.356800e+01 3.938081e+01 2.601318e+01 1.866963e+00 3.313244e+00 4.179565e+00 3.283724e+00 5.098783e+00 4.339806e+00 3.814647e+00 5.104115e+00 3.623052e+00 3.171098e+00 3.193720e+00 2.157967e+00 2.590808e+00
<GCONST> 1.094980e+02
<TRANSP> 5
 0.000000e+00 1.000000e+00 0.000000e+00 0.000000e+00 0.000000e+00
 0.000000e+00 6.411905e-01 3.588096e-01 0.000000e+00 0.000000e+00
 0.000000e+00 0.000000e+00 6.558666e-01 3.441334e-01 0.000000e+00
 0.000000e+00 0.000000e+00 0.000000e+00 8.446660e-01 1.553339e-01
 0.000000e+00 0.000000e+00 0.000000e+00 0.000000e+00 0.000000e+00
<ENDHMM>
~h "\340\262\226\340\263\215"
<BEGINHMM>
<NUMSTATES> 5
<STATE> 2
<MEAN> 25
 -4.469803e+00 2.886751e+00 -2.974457e-01 3.458406e+00 4.007930e+00 1.648671e+00 4.108153e+00 2.473955e+00 2.546091e+00 2.721129e+00 3.054794e+00 3.076523e+00 -3.763690e-01 -8.720718e-02 1.056416e-01 4.961261e-02 -1.323783e-02 8.831151e-02 8.089895e-02 1.518015e-01 9.561086e-02 1.621459e-01 1.481258e-01 1.245669e-01 -8.066191e-02
<VARIANCE> 25
 2.873107e+01 1.927888e+01 2.424738e+01 3.122072e+01 2.075463e+01 2.861937e+01 2.521085e+01 2.651977e+01 2.165111e+01 2.208865e+01 3.105717e+01 1.717262e+01 2.045760e+00 1.014364e+00 1.636046e+00 1.690081e+00 1.308019e+00 1.980172e+00 2.095179e+00 1.441928e+00 1.598027e+00 2.041253e+00 1.837116e+00 1.594905e+00 1.300481e+00
<GCONST> 9.055907e+01
<STATE> 3
<MEAN> 25
 -5.129583e+00 2.685492e+00 6.230728e-02 2.962931e+00 3.804197e+00 1.510539e+00 4.136769e+00 2.568442e+00 2.684691e+00 2.812242e+00 2.740815e+00 3.114125e+00 -1.909868e-01 -3.996120e-02 4.451642e-02 -6.973632e-02 -6.950165e-02 2.211661e-02 -1.964903e-02 5.386371e-02 1.136890e-01 2.858774e-02 3.182986e-02 4.077831e-02 5.397870e-02
<VARIANCE> 25
 3.479945e+01 2.065840e+01 2.559166e+01 3.846117e+01 2.115123e+01 3.080247e+01 2.495140e+01 2.731352e+01 2.114897e+01 2.289155e+01 3.131049e+01 1.695810e+01 1.936533e+00 1.090019e+00 1.784169e+00 1.493144e+00 1.518521e+00 1.951448e+00 1.853331e+00 1.337029e+00 1.557087e+00 1.855308e+00 1.719823e+00 1.435780e+00 1.314765e+00
<GCONST> 9.083636e+01
<STATE> 4
<MEAN> 25
 -4.961401e+00 3.297385e+00 3.624278e-02 4.685968e+00 4.327106e+00 2.916365e+00 4.143919e+00 3.681410e+00 3.826368e+00 3.800442e+00 3.771743e+00 3.486130e+00 2.548660e-02 -2.550958e-02 6.361889e-02 -6.807489e-02 -6.197403e-02 -6.793097e-02 -5.847710e-02 -6.273086e-02 -1.515587e-02 -3.869359e-02 -8.408179e-02 -5.278692e-02 1.603278e-01
<VARIANCE> 25
 1.173071e+01 9.323799e+00 1.120900e+01 2.321576e+01 1.131614e+01 1.642135e+01 1.468200e+01 1.526324e+01 1.396101e+01 1.501230e+01 1.736490e+01 1.163820e+01 6.561491e-01 7.525586e-01 9.619535e-01 1.185359e+00 1.150212e+00 1.448240e+00 1.196428e+00 1.261240e+00 1.353887e+00 1.445422e+00 1.457511e+00 1.220913e+00 1.037442e+00
<GCONST> 7.912584e+01
<TRANSP> 5
 0.000000e+00 1.000000e+00 0.000000e+00 0.000000e+00 0.000000e+00
 0.000000e+00 7.158374e-01 2.841626e-01 0.000000e+00 0.000000e+00
 0.000000e+00 0.000000e+00 6.649974e-01 3.350026e-01 0.000000e+00
 0.000000e+00 0.000000e+00 0.000000e+00 9.305125e-01 6.948743e-02
 0.000000e+00 0.000000e+00 0.000000e+00 0.000000e+00 0.000000e+00
<ENDHMM>
~h "\340\262\247\340\263\215"
<BEGINHMM>
<NUMSTATES> 5
<STATE> 2
<MEAN> 25
 2.054108e+00 2.596432e+00 4.228780e+00 2.050503e+00 -5.411299e-01 -3.607918e+00 -3.238696e+00 -2.007034e+00 -1.176443e+00 -3.384625e+00 -4.437947e+00 -2.215350e+00 -4.571155e-01 6.711648e-01 4.744684e-01 4.583710e-01 3.794414e-01 -4.719752e-04 3.944157e-01 -2.159770e-01 7.287057e-02 -2.671528e-01 -2.549877e-01 -1.658642e-01 -1.490638e-01
<VARIANCE> 25
 8.417246e+01 6.257374e+01 6.559375e+01 5.703038e+01 5.001340e+01 4.544796e+01 6.125433e+01 5.578405e+01 4.783794e+01 3.563201e+01 5.398037e+01 3.212927e+01 6.953465e+00 5.568429e+00 6.311720e+00 5.690492e+00 4.975220e+00 5.253064e+00 4.433338e+00 4.952280e+00 4.921843e+00 3.512798e+00 4.636649e+00 3.093877e+00 6.833232e+00
<GCONST> 1.145332e+02
<STATE> 3
<MEAN> 25
 6.996549e-01 3.224973e+00 4.395503e+00 2.095150e+00 2.189324e-02 -3.347579e+00 -2.345748e+00 -1.899307e+00 -7.943336e-01 -3.708524e+00 -4.719572e+00 -2.194509e+00 -2.085511e-01 -1.141028e-01 -1.518135e-01 -2.466196e-01 -1.168033e-01 1.028738e-01 1.820937e-01 -5.105248e-02 4.010955e-03 8.054995e-02 1.115040e-01 -1.623927e-02 5.186284e-01
<VARIANCE> 25
 8.923098e+01 6.625607e+01 6.426797e+01 5.980374e+01 4.424064e+01 4.199825e+01 5.362193e+01 4.953206e+01 4.482390e+01 2.910501e+01 4.276546e+01 3.585610e+01 7.993688e+00 6.176477e+00 5.457618e+00 5.048124e+00 4.915694e+00 5.493861e+00 5.197039e+00 5.126329e+00 4.682423e+00 3.576711e+00 4.287221e+00 3.533466e+00 7.065480e+00
<GCONST> 1.140919e+02
<STATE> 4
<MEAN> 25
 1.523684e+00 1.212559e+00 2.157037e+00 4.263934e-01 -5.679694e-01 -2.399316e+00 -1.960778e+00 -1.729936e+00 -1.722563e-01 -3.265517e+00 -5.058584e+00 -1.883620e+00 2.168472e-01 -5.682213e-01 -3.632076e-01 -6.715198e-01 -4.887244e-01 3.149899e-01 2.415572e-03 -9.919054e-02 -2.373589e-01 3.024783e-01 1.297908e-01 6.170993e-02 7.508907e-01
<VARIANCE> 25
 6.003155e+01 7.098129e+01 6.995340e+01 5.719992e+01 4.100679e+01 5.087683e+01 6.055684e+01 5.358527e+01 4.576826e+01 3.294608e+01 4.258312e+01 3.772901e+01 6.054534e+00 4.923002e+00 4.892178e+00 4.369170e+00 4.638520e+00 5.488936e+00 4.956223e+00 5.401736e+00 3.970207e+00 3.325020e+00 4.096954e+00 3.926416e+00 6.180115e+00
<GCONST> 1.131880e+02
<TRANSP> 5
 0.000000e+00 1.000000e+00 0.000000e+00 0.000000e+00 0.000000e+00
 0.000000e+00 6.184669e-01 3.815331e-01 0.000000e+00 0.000000e+00
 0.000000e+00 0.000000e+00 6.340596e-01 3.659404e-01 0.000000e+00
 0.000000e+00 0.000000e+00 0.000000e+00 7.378611e-01 2.621390e-01
 0.000000e+00 0.000000e+00 0.000000e+00 0.000000e+00 0.000000e+00
<ENDHMM>
~h "\340\262\270\340\263\215"
<BEGINHMM>
<NUMSTATES> 5
<STATE> 2
<MEAN> 25
 -7.278006e+00 4.311595e+00 -1.637370e-01 1.006534e+00 -5.469199e-01 -5.596816e+00 2.555671e+00 -1.808135e+00 -3.531029e-01 -1.546340e+00 -7.127956e-01 5.843247e-01 -1.925826e+00 4.773730e-01 -5.783218e-01 3.080290e-01 6.600715e-01 -4.817366e-01 8.797312e-01 2.396673e-01 3.298340e-01 -1.865371e-01 3.852454e-01 3.516954e-01 5.474253e-01
<VARIANCE> 25
 1.408670e+02 5.485576e+01 5.342705e+01 4.651791e+01 6.765535e+01 5.666645e+01 7.866187e+01 5.538425e+01 5.518123e+01 3.055163e+01 3.575233e+01 2.724265e+01 9.536749e+00 4.454073e+00 3.569205e+00 5.310865e+00 4.843274e+00 4.476254e+00 6.705569e+00 4.444240e+00 3.751038e+00 2.917807e+00 2.959431e+00 2.462056e+00 3.887075e+00
<GCONST> 1.125586e+02
<STATE> 3
<MEAN> 25
 -1.301817e+01 5.020765e+00 -1.938844e+00 8.071466e-01 1.345527e+00 -6.191914e+00 4.573589e+00 -9.602557e-01 7.249815e-01 -1.403677e+00 2.351374e-01 1.470104e+00 -4.694060e-01 -1.464435e-01 -2.047472e-01 -1.510434e-01 8.354473e-02 -1.863379e-01 7.686111e-02 9.576468e-02 1.392170e-01 1.792848e-02 3.178012e-02 4.032904e-02 3.580626e-01
<VARIANCE> 25
 1.471155e+02 4.270858e+01 5.084928e+01 3.947700e+01 5.229224e+01 5.433809e+01 7.109124e+01 4.229337e+01 4.456723e+01 2.616917e+01 3.173697e+01 2.645537e+01 1.241158e+01 3.233793e+00 3.193041e+00 3.368847e+00 3.836954e+00 3.554483e+00 5.959835e+00 4.279679e+00 3.227706e+00 2.490255e+00 3.174517e+00 2.451008e+00 2.776338e+00
<GCONST> 1.091289e+02
<STATE> 4
<MEAN> 25
 -1.108632e+01 4.268297e+00 -2.248198e+00 2.983308e-02 8.396729e-01 -6.989794e+00 3.354059e+00 -1.299097e+00 1.005685e+00 -1.320108e+00 -3.129166e-01 1.069235e+00 1.641881e+00 -6.399872e-01 2.073909e-01 -4.472671e-01 -5.746733e-01 -9.217983e-02 -8.658238e-01 -1.375841e-01 -1.365681e-01 1.422096e-02 -3.752944e-01 -3.833778e-01 2.874485e-01
<VARIANCE> 25
 1.624760e+02 3.865540e+01 4.806642e+01 4.120539e+01 5.080346e+01 5.549280e+01 7.538242e+01 4.253839e+01 4.570198e+01 2.765318e+01 3.431630e+01 2.798747e+01 1.178927e+01 3.195428e+00 3.152595e+00 3.031031e+00 3.585255e+00 3.947649e+00 5.919147e+00 3.969453e+00 3.027711e+00 2.463593e+00 3.298424e+00 2.636714e+00 2.459463e+00
<GCONST> 1.090749e+02
<TRANSP> 5
 0.000000e+00 1.000000e+00 0.000000e+00 0.000000e+00 0.000000e+00
 0.000000e+00 7.152438e-01 2.847562e-01 0.000000e+00 0.000000e+00
 0.000000e+00 0.000000e+00 7.146940e-01 2.853060e-01 0.000000e+00
 0.000000e+00 0.000000e+00 0.000000e+00 8.288321e-01 1.711679e-01
 0.000000e+00 0.000000e+00 0.000000e+00 0.000000e+00 0.000000e+00
<ENDHMM>
~h "\340\262\237\340\263\215"
<BEGINHMM>
<NUMSTATES> 5
<STATE> 2
<MEAN> 25
 -1.231273e+00 -4.776118e-01 -1.844598e+00 2.721941e+00 1.111419e+00 -1.836777e-01 1.903688e+00 1.938782e+00 3.066994e+00 2.542097e+00 2.433293e+00 1.325954e+00 -2.316885e-01 1.392466e-01 2.018323e-02 -6.730920e-02 3.291282e-02 1.361439e-01 2.615867e-01 6.873158e-02 1.930710e-01 1.473412e-01 2.422917e-01 2.991844e-01 -3.165862e-01
<VARIANCE> 25
 4.921088e+01 3.772814e+01 4.297940e+01 3.884991e+01 5.512754e+01 4.302751e+01 3.968686e+01 4.621722e+01 4.404924e+01 3.509293e+01 4.405682e+01 2.746138e+01 2.784168e+00 2.979651e+00 2.652537e+00 2.740090e+00 4.605380e+00 3.076613e+00 3.079252e+00 3.009831e+00 3.675584e+00 2.772282e+00 2.845469e+00 2.637820e+00 5.361392e+00
<GCONST> 1.056145e+02
<STATE> 3
<MEAN> 25
 -8.014075e-01 -1.009111e+00 -1.604098e+00 2.082173e+00 -1.302155e-01 -5.258084e-01 1.678989e+00 1.354599e+00 2.559570e+00 2.395685e+00 2.461974e+00 1.321050e+00 8.130966e-02 -1.484159e-01 2.008234e-01 -3.422174e-01 -3.983343e-01 -7.942800e-02 -1.380801e-01 -1.625421e-01 -2.808908e-01 -1.726294e-01 3.583888e-02 5.676095e-02 5.754185e-01
<VARIANCE> 25
 5.035944e+01 4.377847e+01 4.670551e+01 4.617399e+01 6.337679e+01 4.575674e+01 4.108337e+01 4.958878e+01 4.936683e+01 3.876131e+01 4.893486e+01 3.006484e+01 3.214740e+00 3.774368e+00 3.500865e+00 3.298728e+00 6.096579e+00 3.982988e+00 3.493595e+00 3.366100e+00 4.767366e+00 3.077064e+00 3.231548e+00 3.005423e+00 7.869144e+00
<GCONST> 1.093830e+02
<STATE> 4
<MEAN> 25
 -2.913550e-01 -2.229007e+00 -8.893901e-01 1.334080e+00 -1.794961e+00 -1.310109e+00 9.159652e-01 1.552026e+00 1.776309e+00 2.047976e+00 2.434324e+00 7.066987e-01 2.822016e-01 -1.280951e-01 2.321379e-01 -4.023898e-01 -4.630015e-01 -2.129439e-01 -3.979124e-01 -1.896203e-01 -4.391935e-01 -2.565905e-01 -2.024984e-01 -2.245884e-01 8.034309e-01
<VARIANCE> 25
 4.950432e+01 4.991425e+01 4.871034e+01 5.069160e+01 7.443801e+01 4.957988e+01 5.004538e+01 5.314525e+01 5.059772e+01 3.764100e+01 4.590370e+01 3.269779e+01 3.276515e+00 4.121884e+00 3.475739e+00 3.837648e+00 7.223688e+00 4.223073e+00 4.506180e+00 3.899974e+00 4.856593e+00 2.993603e+00 3.709862e+00 3.298047e+00 8.692747e+00
<GCONST> 1.113580e+02
<TRANSP> 5
 0.000000e+00 1.000000e+00 0.000000e+00 0.000000e+00 0.000000e+00
 0.000000e+00 5.651787e-01 4.348214e-01 0.000000e+00 0.000000e+00
 0.000000e+00 0.000000e+00 5.106319e-01 4.893681e-01 0.000000e+00
 0.000000e+00 0.000000e+00 0.000000e+00 6.240732e-01 3.759267e-01
 0.000000e+00 0.000000e+00 0.000000e+00 0.000000e+00 0.000000e+00
<ENDHMM>
~h "\340\262\260\340\263\215"
<BEGINHMM>
<NUMSTATES> 5
<STATE> 2
<MEAN> 25
 4.306036e+00 -4.321371e+00 -1.162279e+00 -1.442816e+00 -3.825406e+00 -2.834998e+00 -3.198682e+00 -1.630785e+00 -6.153399e-01 -1.764388e+00 -3.341431e+00 -2.547244e+00 2.323764e-01 -1.315114e-01 7.562444e-02 1.770630e-01 -2.800802e-01 -9.697491e-02 -1.310293e-01 -1.465034e-03 -7.821832e-02 -1.006506e-01 -2.024166e-02 -7.139330e-02 7.044056e-02
<VARIANCE> 25
 4.825546e+01 6.562098e+01 6.434465e+01 6.556825e+01 7.876620e+01 8.519649e+01 6.072477e+01 5.627845e+01 5.047739e+01 4.211206e+01 5.138187e+01 3.501186e+01 3.164363e+00 3.190760e+00 3.512884e+00 4.009490e+00 4.715951e+00 4.738432e+00 4.323467e+00 3.915295e+00 3.491678e+00 2.884726e+00 3.171777e+00 2.626095e+00 3.992654e+00
<GCONST> 1.111666e+02
<STATE> 3
<MEAN> 25
 4.833573e+00 -4.510813e+00 -1.237966e+00 -1.407613e+00 -4.183022e+00 -2.644338e+00 -3.512261e+00 -1.725990e+00 -9.368808e-01 -2.017195e+00 -3.254258e+00 -2.763742e+00 1.468361e-01 -9.822845e-04 1.284951e-03 3.149186e-02 -1.137336e-01 1.194296e-01 -9.515229e-02 -2.852313e-03 -1.698153e-01 -4.037404e-02 1.241351e-01 -4.804423e-02 -5.157912e-02
<VARIANCE> 25
 4.684925e+01 6.603188e+01 6.587960e+01 6.680260e+01 8.221680e+01 8.522897e+01 6.180196e+01 5.556754e+01 5.349620e+01 4.177266e+01 5.095252e+01 3.550006e+01 2.976981e+00 3.197694e+00 3.369490e+00 4.111433e+00 4.934046e+00 4.402842e+00 4.309464e+00 3.878641e+00 3.650136e+00 2.912378e+00 3.068184e+00 2.608530e+00 3.734249e+00
<GCONST> 1.111198e+02
<STATE> 4
<MEAN> 25
 5.231781e+00 -4.152153e+00 -2.101705e+00 -1.884595e+00 -3.445349e+00 -1.366790e+00 -3.476281e+00 -1.998005e+00 -1.255351e+00 -2.544779e+00 -3.048204e+00 -2.958202e+00 -7.432179e-02 1.891937e-01 5.527826e-04 4.597832e-02 1.462738e-01 1.580281e-01 6.378420e-02 7.259096e-02 -1.107504e-01 2.229144e-03 1.807293e-01 5.168690e-02 -3.165577e-01
<VARIANCE> 25
 4.363847e+01 6.154007e+01 6.524046e+01 6.694627e+01 8.669495e+01 8.551180e+01 6.234869e+01 5.464724e+01 5.564460e+01 4.572978e+01 5.124203e+01 3.692527e+01 2.240841e+00 2.861782e+00 2.972305e+00 3.915400e+00 4.408583e+00 3.980192e+00 3.916377e+00 3.644909e+00 3.410270e+00 2.990469e+00 2.771671e+00 2.570451e+00 3.169876e+00
<GCONST> 1.099318e+02
<TRANSP> 5
 0.000000e+00 1.000000e+00 0.000000e+00 0.000000e+00 0.000000e+00
 0.000000e+00 5.075141e-01 4.924859e-01 0.000000e+00 0.000000e+00
 0.000000e+00 0.000000e+00 5.137625e-01 4.862376e-01 0.000000e+00
 0.000000e+00 0.000000e+00 0.000000e+00 6.549508e-01 3.450491e-01
 0.000000e+00 0.000000e+00 0.000000e+00 0.000000e+00 0.000000e+00
<ENDHMM>
~h "\340\262\227\340\263\215"
<BEGINHMM>
<NUMSTATES> 5
<STATE> 2
<MEAN> 25
 5.390314e+00 -1.138112e+00 1.849393e+00 -3.390982e+00 -3.701887e+00 -2.225901e+00 -5.469051e+00 -3.857716e+00 -5.772373e+00 -9.224824e-01 -1.941403e+00 -4.155286e+00 1.891467e-01 3.688847e-01 3.247754e-01 1.855778e-01 -9.205030e-02 -1.773650e-01 -1.907674e-01 -2.787514e-01 -3.885845e-01 -1.040192e-01 -4.365594e-03 -2.101972e-01 -1.318085e-01
<VARIANCE> 25
 4.633334e+01 6.224506e+01 7.850170e+01 6.697800e+01 8.632409e+01 6.727247e+01 6.716538e+01 6.633150e+01 6.325146e+01 4.151137e+01 4.748487e+01 3.455940e+01 3.137102e+00 4.918643e+00 3.777709e+00 5.483212e+00 6.808541e+00 4.886040e+00 5.639098e+00 5.273507e+00 4.764662e+00 3.415937e+00 3.309582e+00 3.245727e+00 5.938957e+00
<GCONST> 1.144357e+02
<STATE> 3
<MEAN> 25
 5.721876e+00 -8.204067e-01 2.144168e+00 -3.080239e+00 -4.070242e+00 -2.506482e+00 -6.000550e+00 -4.036639e+00 -6.192986e+00 -1.280072e+00 -1.944387e+00 -4.566918e+00 -3.105746e-02 1.710486e-01 4.681204e-02 1.456356e-01 7.973249e-02 -7.593279e-02 -1.175199e-02 -5.462800e-03 4.818207e-02 -5.044153e-02 -6.077329e-02 -5.431791e-02 -1.533661e-01
<VARIANCE> 25
 4.209534e+01 6.527789e+01 8.118481e+01 6.592811e+01 8.838258e+01 6.661845e+01 7.187807e+01 6.639153e+01 6.486358e+01 4.260575e+01 5.011234e+01 3.303061e+01 2.571324e+00 4.489804e+00 3.492883e+00 4.926764e+00 6.849415e+00 4.788767e+00 5.501514e+00 4.874737e+00 4.259534e+00 3.232567e+00 3.351442e+00 3.021860e+00 4.857825e+00
<GCONST> 1.135275e+02
<STATE> 4
<MEAN> 25
 6.569194e+00 1.189232e-03 1.641418e+00 -3.544498e+00 -4.831815e+00 -2.075206e+00 -5.482418e+00 -4.158101e+00 -6.579252e+00 -1.983687e+00 -1.186517e+00 -4.428420e+00 -1.650320e-01 7.063801e-02 -1.376542e-01 1.357871e-01 1.513337e-01 -6.619006e-02 3.124931e-01 1.398370e-01 2.885631e-01 -1.369074e-02 -8.323960e-02 1.356478e-01 -2.477170e-01
<VARIANCE> 25
 4.087109e+01 6.453172e+01 7.683299e+01 6.761510e+01 8.498282e+01 6.865368e+01 8.170213e+01 5.990826e+01 6.445290e+01 4.469089e+01 5.294995e+01 3.401625e+01 2.026257e+00 3.830747e+00 2.838835e+00 4.501796e+00 5.884909e+00 4.543756e+00 4.997635e+00 3.970281e+00 3.682843e+00 3.247656e+00 3.176909e+00 2.778859e+00 3.942728e+00
<GCONST> 1.119118e+02
<TRANSP> 5
 0.000000e+00 1.000000e+00 0.000000e+00 0.000000e+00 0.000000e+00
 0.000000e+00 6.142114e-01 3.857886e-01 0.000000e+00 0.000000e+00
 0.000000e+00 0.000000e+00 6.140915e-01 3.859085e-01 0.000000e+00
 0.000000e+00 0.000000e+00 0.000000e+00 7.598523e-01 2.401477e-01
 0.000000e+00 0.000000e+00 0.000000e+00 0.000000e+00 0.000000e+00
<ENDHMM>
~h "\340\262\250\340\263\215"
<BEGINHMM>
<NUMSTATES> 5
<STATE> 2
<MEAN> 25
 7.472968e+00 -9.808971e-01 3.569842e+00 -2.635082e+00 -5.200901e+00 -5.405221e+00 -3.467966e+00 -1.439413e+00 -7.433808e+00 -5.367115e+00 -3.431959e+00 -1.043621e+00 4.075069e-01 2.752834e-01 3.783777e-01 -6.734975e-02 -1.863260e-01 -3.872732e-01 6.431095e-02 -2.028015e-01 -6.430135e-01 -1.853259e-01 5.454384e-04 4.932252e-02 1.646209e-01
<VARIANCE> 25
 3.032597e+01 6.003465e+01 5.917263e+01 5.377153e+01 6.738686e+01 6.987316e+01 4.989098e+01 5.994753e+01 7.367453e+01 4.412955e+01 3.976949e+01 3.131484e+01 2.018680e+00 4.102842e+00 3.491210e+00 3.768950e+00 4.133981e+00 4.722186e+00 3.410286e+00 4.078550e+00 5.207137e+00 3.223940e+00 2.561619e+00 2.174762e+00 4.114606e+00
<GCONST> 1.094414e+02
<STATE> 3
<MEAN> 25
 7.948873e+00 -1.037525e+00 3.972265e+00 -3.106523e+00 -5.690757e+00 -5.720959e+00 -3.547639e+00 -1.744193e+00 -8.162876e+00 -5.809509e+00 -3.333321e+00 -1.271164e+00 2.553966e-03 -9.433240e-02 1.245783e-02 -1.475166e-01 -6.619170e-02 8.269528e-02 -1.894884e-02 -1.458709e-02 -4.201785e-03 -9.475414e-02 2.828248e-02 -7.948998e-02 1.524903e-01
<VARIANCE> 25
 2.585427e+01 5.880416e+01 5.939782e+01 5.002363e+01 6.885219e+01 6.821039e+01 4.943388e+01 5.987074e+01 7.434435e+01 4.314516e+01 4.003168e+01 3.034797e+01 1.582462e+00 4.238662e+00 3.149174e+00 3.699535e+00 4.197941e+00 4.476062e+00 3.505350e+00 4.023871e+00 4.973827e+00 3.220674e+00 2.555044e+00 2.027746e+00 3.623727e+00
<GCONST> 1.085381e+02
<STATE> 4
<MEAN> 25
 7.291490e+00 -1.770796e+00 3.535322e+00 -3.799012e+00 -6.183501e+00 -4.628954e+00 -4.106213e+00 -2.019764e+00 -7.109550e+00 -6.225585e+00 -3.324295e+00 -2.143548e+00 -2.103115e-01 -1.016576e-01 -2.634332e-01 -4.101270e-02 1.714890e-01 3.380160e-01 6.163679e-03 3.304129e-03 3.376536e-01 1.828826e-02 3.832717e-02 -8.649856e-02 -1.424695e-01
<VARIANCE> 25
 2.357164e+01 6.146421e+01 6.736644e+01 4.908868e+01 8.605814e+01 6.907542e+01 5.465496e+01 5.607314e+01 6.273046e+01 4.508695e+01 3.898587e+01 2.927090e+01 1.241467e+00 3.898088e+00 2.898844e+00 3.484094e+00 4.213389e+00 4.037541e+00 3.479170e+00 3.831156e+00 3.870439e+00 3.217390e+00 2.433817e+00 2.137393e+00 3.165786e+00
<GCONST> 1.076709e+02
<TRANSP> 5
 0.000000e+00 1.000000e+00 0.000000e+00 0.000000e+00 0.000000e+00
 0.000000e+00 6.538323e-01 3.461678e-01 0.000000e+00 0.000000e+00
 0.000000e+00 0.000000e+00 6.712568e-01 3.287432e-01 0.000000e+00
 0.000000e+00 0.000000e+00 0.000000e+00 8.575728e-01 1.424272e-01
 0.000000e+00 0.000000e+00 0.000000e+00 0.000000e+00 0.000000e+00
<ENDHMM>
~h "\340\262\271\340\263\215"
<BEGINHMM>
<NUMSTATES> 5
<STATE> 2
<MEAN> 25
 -1.109471e+00 1.549624e+00 -1.625944e+00 1.608085e+00 4.038105e+00 3.537479e+00 2.106391e+00 9.855558e-01 1.550927e+00 7.142701e-01 1.452871e+00 2.227188e+00 -1.210647e-01 8.472107e-02 4.073315e-02 1.142539e-01 8.012828e-02 -3.799520e-03 2.516941e-01 1.351079e-01 6.516859e-03 -6.469898e-02 9.889896e-02 1.884060e-01 -1.392241e-01
<VARIANCE> 25
 4.270044e+01 2.554587e+01 2.216023e+01 5.184050e+01 3.546663e+01 2.987473e+01 5.197377e+01 4.099093e+01 4.958676e+01 3.966296e+01 3.090650e+01 2.873687e+01 7.994160e-01 1.233315e+00 9.870995e-01 2.025748e+00 1.738268e+00 1.994258e+00 2.292666e+00 1.800910e+00 1.792300e+00 2.003264e+00 2.004720e+00 1.687630e+00 1.522753e+00
<GCONST> 9.524863e+01
<STATE> 3
<MEAN> 25
 -4.512003e-01 1.077574e+00 -1.682613e+00 8.482532e-01 3.738331e+00 3.644982e+00 1.945801e+00 5.303476e-01 8.978024e-01 -3.922861e-01 1.046252e+00 2.005446e+00 -4.189501e-02 -2.319631e-03 3.382899e-02 4.054709e-02 4.380003e-02 -5.381064e-02 1.785324e-01 -9.359456e-03 -5.549341e-02 -1.598270e-01 -9.581603e-02 6.106201e-02 3.119444e-02
<VARIANCE> 25
 4.720406e+01 2.866552e+01 2.666542e+01 5.495893e+01 4.172796e+01 3.466050e+01 5.721369e+01 4.614734e+01 5.789221e+01 4.242187e+01 3.169342e+01 3.156433e+01 9.893881e-01 1.481606e+00 9.851196e-01 2.389372e+00 1.749371e+00 2.072636e+00 2.300325e+00 1.865966e+00 1.970297e+00 1.906388e+00 2.007189e+00 1.683578e+00 2.027122e+00
<GCONST> 9.754792e+01
<STATE> 4
<MEAN> 25
 -4.683000e-01 1.142555e+00 -1.460775e+00 9.806970e-01 3.702801e+00 3.739777e+00 2.051024e+00 2.580537e-02 9.129810e-01 -4.466906e-01 8.182286e-01 1.989336e+00 7.181761e-02 -4.317578e-02 3.311644e-02 -1.093959e-01 -1.639467e-01 -7.976602e-02 -4.554718e-02 -1.672732e-01 -6.116520e-02 -1.108073e-01 -2.215421e-01 -1.003940e-01 1.785587e-01
<VARIANCE> 25
 4.402904e+01 3.125596e+01 2.735926e+01 5.729752e+01 4.307761e+01 3.358404e+01 5.482742e+01 4.690691e+01 5.526715e+01 4.103753e+01 3.181604e+01 3.117480e+01 1.280400e+00 1.558455e+00 1.071409e+00 2.606107e+00 1.989006e+00 2.270813e+00 2.673274e+00 1.963983e+00 2.069452e+00 1.897703e+00 2.071800e+00 1.750243e+00 2.182719e+00
<GCONST> 9.860738e+01
<TRANSP> 5
 0.000000e+00 1.000000e+00 0.000000e+00 0.000000e+00 0.000000e+00
 0.000000e+00 6.163066e-01 3.836934e-01 0.000000e+00 0.000000e+00
 0.000000e+00 0.000000e+00 5.242905e-01 4.757095e-01 0.000000e+00
 0.000000e+00 0.000000e+00 0.000000e+00 6.184329e-01 3.815671e-01
 0.000000e+00 0.000000e+00 0.000000e+00 0.000000e+00 0.000000e+00
<ENDHMM>
~h "\340\262\205"
<BEGINHMM>
<NUMSTATES> 5
<STATE> 2
<MEAN> 25
 4.372901e+00 -3.342140e+00 -2.119525e+00 -2.614911e+00 -2.047191e+00 -3.002439e+00 -4.046834e+00 -8.293437e-01 -2.093944e-01 -2.490415e+00 -4.506347e+00 -2.356853e+00 3.098055e-01 -4.159750e-01 -2.511734e-01 -2.651532e-01 -6.031416e-02 -5.232116e-02 -3.228215e-01 1.382275e-01 9.317593e-02 -7.356980e-02 -3.287714e-01 -2.604557e-01 4.783130e-01
<VARIANCE> 25
 3.882225e+01 6.171603e+01 5.282224e+01 5.902244e+01 6.582922e+01 7.722653e+01 6.140524e+01 5.540861e+01 4.834300e+01 4.680970e+01 4.841857e+01 3.447502e+01 3.210577e+00 4.481598e+00 3.356394e+00 4.672494e+00 4.650102e+00 4.721275e+00 4.530705e+00 4.495421e+00 3.829047e+00 3.265218e+00 3.559484e+00 3.031357e+00 5.956741e+00
<GCONST> 1.117949e+02
<STATE> 3
<MEAN> 25
 4.781822e+00 -4.058958e+00 -2.403523e+00 -3.026053e+00 -1.952905e+00 -2.881968e+00 -4.559271e+00 -6.853140e-01 -1.381686e-01 -2.627663e+00 -4.902956e+00 -2.820607e+00 1.182092e-01 -1.337619e-01 1.492114e-02 -5.125678e-02 3.028656e-02 2.738056e-03 -7.617489e-02 2.718635e-02 -4.371214e-02 -1.618244e-02 -4.785671e-02 -9.415338e-02 5.624517e-02
<VARIANCE> 25
 3.584993e+01 6.125552e+01 5.210131e+01 5.840530e+01 6.456979e+01 7.989287e+01 6.346928e+01 5.418076e+01 4.616593e+01 4.816355e+01 4.996072e+01 3.426976e+01 2.727643e+00 4.401160e+00 3.175945e+00 4.590931e+00 4.481102e+00 4.767926e+00 4.568255e+00 4.469080e+00 3.737991e+00 3.360505e+00 3.483341e+00 3.008497e+00 5.803398e+00
<GCONST> 1.113872e+02
<STATE> 4
<MEAN> 25
 4.875241e+00 -3.848240e+00 -2.525934e+00 -2.705030e+00 -1.103822e+00 -2.061196e+00 -4.352732e+00 -9.504494e-01 -7.873964e-03 -3.064544e+00 -4.906059e+00 -2.817487e+00 -1.063487e-01 2.741509e-01 1.977862e-01 2.435542e-01 1.189671e-01 7.201015e-02 2.189741e-01 -4.329486e-02 -8.384860e-02 6.323648e-02 2.461604e-01 1.549260e-01 -5.056536e-01
<VARIANCE> 25
 3.432299e+01 5.861636e+01 5.080968e+01 5.703094e+01 6.599213e+01 8.187427e+01 6.379555e+01 5.350544e+01 4.585788e+01 5.207793e+01 5.095000e+01 3.507079e+01 2.145334e+00 3.655926e+00 2.848556e+00 4.006399e+00 3.837739e+00 4.329779e+00 4.191307e+00 4.117460e+00 3.390941e+00 3.445183e+00 3.178093e+00 2.739218e+00 4.557389e+00
<GCONST> 1.098139e+02
<TRANSP> 5
 0.000000e+00 1.000000e+00 0.000000e+00 0.000000e+00 0.000000e+00
 0.000000e+00 5.419831e-01 4.580170e-01 0.000000e+00 0.000000e+00
 0.000000e+00 0.000000e+00 5.429093e-01 4.570907e-01 0.000000e+00
 0.000000e+00 0.000000e+00 0.000000e+00 6.649802e-01 3.350198e-01
 0.000000e+00 0.000000e+00 0.000000e+00 0.000000e+00 0.000000e+00
<ENDHMM>
~h "\340\262\206"
<BEGINHMM>
<NUMSTATES> 5
<STATE> 2
<MEAN> 25
 5.449986e+00 -9.370535e+00 -6.095029e+00 -5.682192e+00 -8.658111e-01 2.577476e+00 -3.396033e+00 -2.969382e+00 -9.385753e-02 -3.873296e+00 -4.758262e+00 -5.163239e+00 2.223825e-01 -1.109235e+00 -6.596469e-01 -7.973501e-01 2.603337e-01 1.117337e+00 -2.710159e-01 -4.117670e-01 -4.867380e-02 -2.970036e-01 -1.774801e-01 -5.362875e-01 9.692156e-01
<VARIANCE> 25
 2.867871e+01 6.659512e+01 4.349672e+01 5.941023e+01 5.105552e+01 7.878201e+01 5.169168e+01 4.881430e+01 3.358310e+01 4.299308e+01 4.354808e+01 3.923212e+01 1.867815e+00 4.050244e+00 2.624425e+00 3.704163e+00 3.440908e+00 5.063641e+00 3.010618e+00 4.145415e+00 3.019192e+00 2.459449e+00 2.845455e+00 2.688047e+00 4.219395e+00
<GCONST> 1.073692e+02
<STATE> 3
<MEAN> 25
 5.935470e+00 -1.104426e+01 -7.280288e+00 -7.315012e+00 -1.723304e-02 5.123548e+00 -4.177282e+00 -4.486326e+00 -5.264732e-01 -4.521148e+00 -4.811906e+00 -6.043976e+00 1.077564e-01 -2.079439e-01 -1.835398e-01 -2.661474e-01 1.563645e-01 4.197916e-01 -2.115489e-01 -2.697195e-01 -8.164738e-02 -1.248470e-01 -3.397250e-02 -1.453568e-01 2.394884e-01
<VARIANCE> 25
 2.232028e+01 5.711174e+01 3.608661e+01 5.042153e+01 4.300029e+01 7.367419e+01 5.378754e+01 4.545200e+01 3.016872e+01 4.298775e+01 4.421049e+01 3.832088e+01 1.236615e+00 3.038193e+00 1.923062e+00 3.094273e+00 2.687783e+00 4.332492e+00 2.372679e+00 3.348480e+00 2.108273e+00 1.972998e+00 2.277728e+00 2.046097e+00 3.004592e+00
<GCONST> 1.027682e+02
<STATE> 4
<MEAN> 25
 6.625811e+00 -9.259123e+00 -7.612782e+00 -6.768932e+00 -4.042474e-02 4.115998e+00 -5.063603e+00 -4.269547e+00 -1.680198e-01 -4.486881e+00 -5.953373e+00 -5.634680e+00 -1.931767e-02 5.086645e-01 2.685646e-01 3.523326e-01 -8.693188e-02 -4.536122e-01 -4.838755e-02 2.608386e-01 5.287366e-02 4.565389e-02 -6.162612e-02 1.832198e-01 -4.504689e-01
<VARIANCE> 25
 1.989002e+01 5.829134e+01 3.303630e+01 5.064740e+01 4.451070e+01 7.584091e+01 4.959912e+01 4.712713e+01 2.901691e+01 4.499246e+01 4.198464e+01 3.480298e+01 1.166785e+00 2.550222e+00 2.129958e+00 2.759412e+00 2.871779e+00 4.539495e+00 2.621612e+00 3.611355e+00 2.123031e+00 2.173473e+00 2.435392e+00 2.104504e+00 2.640167e+00
<GCONST> 1.025790e+02
<TRANSP> 5
 0.000000e+00 1.000000e+00 0.000000e+00 0.000000e+00 0.000000e+00
 0.000000e+00 6.821911e-01 3.178090e-01 0.000000e+00 0.000000e+00
 0.000000e+00 0.000000e+00 6.898003e-01 3.101997e-01 0.000000e+00
 0.000000e+00 0.000000e+00 0.000000e+00 8.864003e-01 1.135997e-01
 0.000000e+00 0.000000e+00 0.000000e+00 0.000000e+00 0.000000e+00
<ENDHMM>
~h "\340\262\207"
<BEGINHMM>
<NUMSTATES> 5
<STATE> 2
<MEAN> 25
 2.388782e-01 2.165131e+00 6.202342e+00 -1.533844e+00 -4.654299e+00 -1.410274e+00 -1.265817e+00 -4.181944e+00 -4.345027e+00 -4.803963e-01 -8.553769e-01 -1.356690e+00 5.263614e-02 8.203436e-02 3.446598e-01 -1.355862e-01 -4.046620e-01 9.531087e-02 -1.793801e-01 -9.294006e-02 -2.962910e-01 2.167137e-01 3.058830e-02 -3.131265e-02 1.459450e-02
<VARIANCE> 25
 5.033921e+01 3.874306e+01 7.882380e+01 6.229330e+01 9.992864e+01 5.879373e+01 6.039517e+01 6.340766e+01 6.806744e+01 3.633652e+01 4.004487e+01 3.193386e+01 2.934252e+00 2.697682e+00 3.412668e+00 3.944677e+00 5.614314e+00 3.740895e+00 4.024175e+00 3.586888e+00 4.107978e+00 2.636765e+00 2.646430e+00 2.431241e+00 3.632294e+00
<GCONST> 1.098346e+02
<STATE> 3
<MEAN> 25
 1.314880e-01 2.332528e+00 6.419399e+00 -1.503719e+00 -4.842552e+00 -1.106903e+00 -1.290361e+00 -4.043037e+00 -4.513928e+00 -7.925951e-02 -6.511201e-01 -1.176825e+00 -1.452069e-02 7.469475e-02 -1.873829e-02 1.318651e-01 1.827382e-02 4.131340e-02 7.360244e-02 4.517572e-02 -7.318770e-03 9.628859e-02 7.346342e-02 8.311156e-02 -2.025156e-01
<VARIANCE> 25
 5.227284e+01 3.876138e+01 8.263458e+01 6.510419e+01 1.010900e+02 5.792327e+01 6.182775e+01 6.488783e+01 7.235490e+01 3.474010e+01 4.044015e+01 3.270884e+01 2.135699e+00 2.420598e+00 2.924173e+00 3.783870e+00 4.814707e+00 3.442730e+00 3.528283e+00 3.122055e+00 3.465015e+00 2.439701e+00 2.219685e+00 2.103659e+00 3.305796e+00
<GCONST> 1.082655e+02
<STATE> 4
<MEAN> 25
 -6.847643e-01 2.834814e+00 5.652563e+00 -1.206001e-02 -3.221614e+00 -6.785996e-01 3.418859e-01 -2.729183e+00 -3.419991e+00 3.479036e-01 2.541352e-01 -6.995165e-02 -1.948490e-02 2.622198e-03 -3.308248e-01 3.153900e-01 3.039439e-01 -1.191350e-01 2.263454e-01 1.991916e-01 2.029984e-01 -8.263434e-02 8.801243e-02 1.510605e-01 -2.368950e-01
<VARIANCE> 25
 5.210972e+01 3.412151e+01 7.416978e+01 5.935935e+01 9.397588e+01 5.506492e+01 5.970683e+01 6.874854e+01 7.580181e+01 3.371090e+01 4.060670e+01 3.487181e+01 2.027839e+00 2.264896e+00 2.653466e+00 3.341742e+00 3.988436e+00 3.196891e+00 3.226546e+00 2.849656e+00 3.105978e+00 2.381933e+00 2.195332e+00 2.012490e+00 2.989123e+00
<GCONST> 1.068462e+02
<TRANSP> 5
 0.000000e+00 1.000000e+00 0.000000e+00 0.000000e+00 0.000000e+00
 0.000000e+00 5.194367e-01 4.805633e-01 0.000000e+00 0.000000e+00
 0.000000e+00 0.000000e+00 5.182325e-01 4.817675e-01 0.000000e+00
 0.000000e+00 0.000000e+00 0.000000e+00 6.942153e-01 3.057847e-01
 0.000000e+00 0.000000e+00 0.000000e+00 0.000000e+00 0.000000e+00
<ENDHMM>
~h "\340\262\210"
<BEGINHMM>
<NUMSTATES> 5
<STATE> 2
<MEAN> 25
 -3.589068e+00 3.377418e+00 4.815867e+00 -2.707834e-01 2.142017e-01 3.277562e+00 5.907431e-01 -6.624416e-01 8.670549e-01 1.643280e+00 1.318384e+00 7.915354e-01 -5.378575e-02 3.483642e-02 3.264484e-01 -2.326431e-01 -1.389804e-01 2.399024e-01 -2.295235e-01 -8.349450e-02 8.902613e-03 1.816457e-01 -5.991963e-02 1.577343e-02 3.788890e-02
<VARIANCE> 25
 2.442500e+01 1.273317e+01 1.084719e+02 8.145182e+01 8.270369e+01 2.092568e+01 7.366223e+01 6.066173e+01 5.569993e+01 2.962624e+01 2.987659e+01 3.426260e+01 9.258724e-01 9.136795e-01 1.892815e+00 1.973544e+00 1.759432e+00 1.544906e+00 2.243843e+00 1.696913e+00 1.625815e+00 1.664014e+00 1.471496e+00 1.473692e+00 1.601335e+00
<GCONST> 9.670174e+01
<STATE> 3
<MEAN> 25
 -3.645086e+00 3.381535e+00 5.205874e+00 -2.547701e-01 1.902481e-01 3.580390e+00 4.652663e-01 -7.939287e-01 7.985997e-01 1.888897e+00 9.180003e-01 1.133680e+00 3.976145e-03 -3.498568e-03 8.920970e-02 -4.740737e-02 -2.411411e-02 7.162964e-02 -4.012319e-02 -6.948239e-02 -3.217577e-02 1.347658e-02 -9.745691e-02 7.395229e-02 -1.544997e-02
<VARIANCE> 25
 2.262435e+01 1.111208e+01 1.061913e+02 9.019442e+01 7.689984e+01 2.140914e+01 7.388449e+01 6.526628e+01 5.489191e+01 3.068053e+01 3.890573e+01 3.484615e+01 5.107055e-01 7.465926e-01 1.168654e+00 1.308925e+00 1.322828e+00 1.457770e+00 1.823232e+00 1.501841e+00 1.425271e+00 1.388834e+00 1.398742e+00 1.159715e+00 1.194313e+00
<GCONST> 9.363856e+01
<STATE> 4
<MEAN> 25
 -4.343411e+00 3.047304e+00 3.419329e+00 2.469090e+00 1.959912e+00 3.452992e+00 1.681753e+00 1.202133e+00 1.833090e+00 2.516210e+00 1.520646e+00 2.237893e+00 1.138607e-02 1.141877e-02 -6.989399e-04 3.394583e-02 -1.467071e-04 -2.374964e-02 3.508112e-03 -3.545607e-02 -2.462241e-02 -4.648756e-03 -1.650290e-02 1.365034e-02 -7.247686e-03
<VARIANCE> 25
 1.172920e+01 9.385401e+00 8.703505e+01 5.514173e+01 5.111819e+01 1.754513e+01 6.119470e+01 4.718949e+01 4.567105e+01 2.123554e+01 3.607280e+01 2.771012e+01 4.907676e-01 6.060022e-01 1.531198e+00 1.299876e+00 1.348408e+00 1.411140e+00 1.716952e+00 1.509427e+00 1.800221e+00 1.409234e+00 1.329844e+00 1.273638e+00 9.547875e-01
<GCONST> 9.015891e+01
<TRANSP> 5
 0.000000e+00 1.000000e+00 0.000000e+00 0.000000e+00 0.000000e+00
 0.000000e+00 7.705958e-01 2.294042e-01 0.000000e+00 0.000000e+00
 0.000000e+00 0.000000e+00 7.650155e-01 2.349845e-01 0.000000e+00
 0.000000e+00 0.000000e+00 0.000000e+00 9.629172e-01 3.708275e-02
 0.000000e+00 0.000000e+00 0.000000e+00 0.000000e+00 0.000000e+00
<ENDHMM>
~h "\340\262\211"
<BEGINHMM>
<NUMSTATES> 5
<STATE> 2
<MEAN> 25
 2.579686e-01 2.390859e+00 -2.028116e+00 -2.717711e-01 2.714100e+00 2.380041e+00 1.069917e+00 -9.284590e-02 -2.621257e-01 1.374904e+00 2.954416e+00 1.053657e+00 -3.543615e-01 1.860733e-01 1.186392e-02 1.706640e-01 1.258613e-01 1.989559e-01 3.857242e-01 2.312463e-01 1.766017e-01 2.756630e-01 2.699615e-01 3.482132e-01 -5.625064e-01
<VARIANCE> 25
 6.456419e+01 1.805403e+01 2.406857e+01 6.267130e+01 3.662537e+01 3.748398e+01 7.167389e+01 4.412117e+01 6.097514e+01 4.048581e+01 2.481768e+01 2.993015e+01 1.427284e+00 1.286468e+00 1.419330e+00 2.236340e+00 1.852957e+00 2.646952e+00 2.890143e+00 2.083397e+00 2.607500e+00 3.154126e+00 2.165530e+00 1.800595e+00 1.510835e+00
<GCONST> 9.906107e+01
<STATE> 3
<MEAN> 25
 -1.308019e+00 2.853354e+00 -1.593797e+00 1.142578e+00 3.375478e+00 2.681247e+00 2.497944e+00 9.257461e-01 7.542590e-01 1.931687e+00 3.362040e+00 2.037478e+00 -3.013397e-01 7.557409e-02 1.190423e-01 2.541350e-01 1.112547e-01 5.222588e-02 2.486271e-01 1.960093e-01 1.718706e-01 1.053675e-01 6.878673e-02 1.887621e-01 -3.630832e-01
<VARIANCE> 25
 5.890984e+01 1.447479e+01 2.199792e+01 5.669728e+01 3.163654e+01 3.255616e+01 5.524618e+01 4.130205e+01 5.997235e+01 3.629037e+01 2.296449e+01 2.606079e+01 1.138962e+00 1.049184e+00 1.254354e+00 1.818789e+00 1.675358e+00 2.203734e+00 2.406387e+00 1.827210e+00 2.218898e+00 2.461236e+00 1.843873e+00 1.573784e+00 1.277990e+00
<GCONST> 9.537216e+01
<STATE> 4
<MEAN> 25
 -4.283602e+00 3.461115e+00 -7.603342e-01 4.381680e+00 4.698230e+00 3.022742e+00 4.661579e+00 3.179661e+00 3.372930e+00 3.473438e+00 3.890143e+00 3.590169e+00 -6.863254e-02 1.597462e-02 8.901959e-02 1.189763e-01 9.224512e-03 -4.435723e-02 2.493813e-02 4.147660e-03 2.887502e-02 1.665225e-03 -3.413490e-02 1.822712e-02 -6.332901e-02
<VARIANCE> 25
 2.508822e+01 7.704006e+00 1.212022e+01 2.712172e+01 1.718103e+01 1.839564e+01 2.527495e+01 2.414910e+01 3.205118e+01 2.253045e+01 1.642587e+01 1.713663e+01 7.200187e-01 6.273912e-01 8.801193e-01 1.137666e+00 1.245220e+00 1.461355e+00 1.628314e+00 1.548610e+00 1.772967e+00 1.746108e+00 1.484706e+00 1.381588e+00 8.342986e-01
<GCONST> 8.379605e+01
<TRANSP> 5
 0.000000e+00 1.000000e+00 0.000000e+00 0.000000e+00 0.000000e+00
 0.000000e+00 6.550674e-01 3.449326e-01 0.000000e+00 0.000000e+00
 0.000000e+00 0.000000e+00 6.665235e-01 3.334765e-01 0.000000e+00
 0.000000e+00 0.000000e+00 0.000000e+00 9.071543e-01 9.284563e-02
 0.000000e+00 0.000000e+00 0.000000e+00 0.000000e+00 0.000000e+00
<ENDHMM>
~h "\340\262\212"
<BEGINHMM>
<NUMSTATES> 5
<STATE> 2
<MEAN> 25
 7.141739e+00 1.278103e+00 -5.027308e-01 -5.996555e+00 -2.869721e+00 -1.063820e+00 -5.285136e+00 -8.500159e+00 -6.736598e+00 -6.915541e-01 2.571452e-01 -2.538975e+00 5.247902e-01 2.249817e-01 -2.564836e-01 -8.714505e-01 -3.057915e-01 5.856327e-01 -2.526024e-01 -5.501420e-01 -7.260187e-01 -4.224902e-02 2.385899e-01 -4.413300e-02 2.000278e-01
<VARIANCE> 25
 7.020175e+01 3.444654e+01 4.844426e+01 7.813243e+01 5.811472e+01 4.931650e+01 6.985896e+01 5.803127e+01 7.388084e+01 5.499615e+01 3.693494e+01 3.189894e+01 2.605443e+00 1.942920e+00 2.463085e+00 4.022244e+00 4.538036e+00 3.968721e+00 4.291786e+00 3.261116e+00 5.167184e+00 4.068446e+00 2.748120e+00 2.558429e+00 2.513234e+00
<GCONST> 1.089883e+02
<STATE> 3
<MEAN> 25
 8.036066e+00 1.547396e+00 -1.175532e+00 -7.232379e+00 -3.487229e+00 -5.419284e-02 -5.414628e+00 -8.985569e+00 -7.982616e+00 -1.015024e+00 5.694972e-01 -2.387165e+00 2.507265e-01 1.090833e-01 -1.947775e-01 -2.011632e-01 -9.749014e-02 2.288080e-01 -1.546050e-03 -9.882410e-02 -2.636193e-01 -7.488520e-02 3.822935e-02 -3.250070e-02 8.086609e-03
<VARIANCE> 25
 6.084191e+01 3.040782e+01 4.913449e+01 7.841357e+01 6.041114e+01 4.310933e+01 6.601855e+01 5.696098e+01 7.337106e+01 5.519086e+01 4.011772e+01 3.267800e+01 2.258445e+00 1.763544e+00 1.952339e+00 4.102915e+00 3.912477e+00 3.538825e+00 3.683530e+00 2.783788e+00 4.570158e+00 3.655125e+00 2.702338e+00 2.320933e+00 2.219381e+00
<GCONST> 1.071759e+02
<STATE> 4
<MEAN> 25
 9.730888e+00 1.824117e+00 -2.304218e+00 -7.914038e+00 -4.105937e+00 4.261331e-01 -5.993209e+00 -9.642166e+00 -8.214994e+00 -1.734897e+00 1.318711e-01 -2.836725e+00 -1.044051e-01 3.068581e-02 -4.400830e-02 2.543173e-01 1.657223e-01 -3.125463e-02 1.678418e-01 1.564456e-01 2.271774e-01 -4.623256e-02 -1.446899e-01 -2.592637e-02 -1.967084e-01
<VARIANCE> 25
 3.574770e+01 3.269926e+01 4.927205e+01 8.403641e+01 5.408275e+01 4.906037e+01 7.150631e+01 5.047089e+01 6.847849e+01 5.305135e+01 5.042120e+01 3.271788e+01 1.905564e+00 1.757933e+00 1.721698e+00 4.884926e+00 3.932604e+00 3.886894e+00 4.027240e+00 2.632638e+00 4.249798e+00 3.781015e+00 3.255187e+00 2.357972e+00 1.853489e+00
<GCONST> 1.068786e+02
<TRANSP> 5
 0.000000e+00 1.000000e+00 0.000000e+00 0.000000e+00 0.000000e+00
 0.000000e+00 6.521939e-01 3.478061e-01 0.000000e+00 0.000000e+00
 0.000000e+00 0.000000e+00 6.600189e-01 3.399810e-01 0.000000e+00
 0.000000e+00 0.000000e+00 0.000000e+00 8.931906e-01 1.068095e-01
 0.000000e+00 0.000000e+00 0.000000e+00 0.000000e+00 0.000000e+00
<ENDHMM>
~h "\340\262\213"
<BEGINHMM>
<NUMSTATES> 5
<STATE> 2
<MEAN> 25
 1.604684e+00 -8.744276e-02 2.974694e+00 6.008889e+00 -2.237007e+00 -5.721713e+00 -2.663617e+00 -3.990806e-01 -1.198987e+00 -3.466815e+00 -1.350133e+00 1.554729e+00 6.607452e-01 -2.658112e-01 -2.321869e-01 -2.375258e-01 -1.084550e+00 -6.733037e-01 -3.212186e-01 -1.721556e-01 -2.711402e-01 -1.382003e-01 -1.060906e-01 6.928596e-01 6.887808e-01
<VARIANCE> 25
 6.532178e+01 4.883030e+01 3.636671e+01 3.215036e+01 7.135426e+01 7.334080e+01 7.269857e+01 2.109003e+01 4.823204e+01 2.432727e+01 3.143985e+01 2.417676e+01 7.401761e+00 4.364350e+00 3.997874e+00 2.662706e+00 4.512664e+00 4.519995e+00 5.530910e+00 2.178011e+00 2.240832e+00 3.067825e+00 3.191785e+00 2.236279e+00 4.667744e+00
<GCONST> 1.074560e+02
<STATE> 3
<MEAN> 25
 2.741108e+00 -1.694150e+00 2.239007e+00 5.482077e+00 -4.448531e+00 -7.146348e+00 -4.006327e+00 -1.599993e-01 -1.963725e+00 -3.441412e+00 -1.970346e+00 3.085504e+00 -2.725923e-02 9.681972e-03 -1.067614e-01 -1.660243e-01 -5.676394e-01 -4.152322e-01 1.457115e-02 -1.045964e-01 -1.797365e-01 1.877800e-01 -1.966175e-01 3.301824e-01 4.339446e-01
<VARIANCE> 25
 6.078211e+01 3.967401e+01 2.888568e+01 2.852440e+01 7.529827e+01 7.645580e+01 8.177164e+01 2.180678e+01 4.224905e+01 2.942140e+01 2.789296e+01 2.188709e+01 7.186202e+00 3.802358e+00 3.614027e+00 2.800673e+00 5.899860e+00 4.252853e+00 6.920838e+00 2.174077e+00 1.621121e+00 2.414609e+00 2.875122e+00 2.066642e+00 5.642873e+00
<GCONST> 1.065661e+02
<STATE> 4
<MEAN> 25
 1.380394e+00 -1.218084e+00 4.042514e+00 5.667867e+00 -6.191604e+00 -8.029894e+00 -4.586547e+00 -2.322286e-01 -2.160240e+00 -3.474051e+00 -1.452286e+00 2.881605e+00 -1.021441e+00 3.304549e-02 2.568712e-01 -3.254473e-01 -6.734232e-02 8.227947e-02 2.398238e-01 8.272951e-03 1.127136e-01 6.210318e-01 5.979058e-01 -2.049380e-01 2.811374e-01
<VARIANCE> 25
 6.369765e+01 3.536122e+01 4.188022e+01 2.632709e+01 9.300693e+01 5.643872e+01 9.082246e+01 2.485587e+01 3.745528e+01 3.485640e+01 3.125284e+01 2.113377e+01 1.090161e+01 4.131379e+00 3.712855e+00 2.257112e+00 7.371823e+00 4.758306e+00 1.155306e+01 2.543387e+00 2.130302e+00 2.467404e+00 2.977242e+00 2.096454e+00 7.916195e+00
<GCONST> 1.090583e+02
<TRANSP> 5
 0.000000e+00 1.000000e+00 0.000000e+00 0.000000e+00 0.000000e+00
 0.000000e+00 5.615168e-01 4.384833e-01 0.000000e+00 0.000000e+00
 0.000000e+00 0.000000e+00 5.476321e-01 4.523679e-01 0.000000e+00
 0.000000e+00 0.000000e+00 0.000000e+00 7.088821e-01 2.911178e-01
 0.000000e+00 0.000000e+00 0.000000e+00 0.000000e+00 0.000000e+00
<ENDHMM>
~h "\340\262\216"
<BEGINHMM>
<NUMSTATES> 5
<STATE> 2
<MEAN> 25
 -1.718837e+00 -1.064923e+00 7.971778e-01 1.001574e+00 -3.159536e+00 -8.206130e-01 5.621948e+00 4.058477e+00 -1.767229e-02 6.950547e-01 1.866050e+00 4.629538e-01 -2.414308e-01 1.461504e-01 8.851004e-03 1.689066e-01 8.158326e-02 2.235005e-01 3.116491e-01 1.543054e-01 1.418327e-01 2.672861e-01 1.619947e-01 1.218659e-01 -4.356005e-01
<VARIANCE> 25
 2.667830e+01 3.863529e+01 2.709973e+01 3.568483e+01 1.233555e+02 4.925513e+01 3.597104e+01 2.578895e+01 5.199714e+01 3.335060e+01 2.143531e+01 3.374035e+01 8.993934e-01 1.170905e+00 1.117255e+00 1.490321e+00 1.688671e+00 1.876230e+00 1.873519e+00 1.799485e+00 1.768559e+00 1.988479e+00 1.414740e+00 1.495557e+00 1.082957e+00
<GCONST> 9.436274e+01
<STATE> 3
<MEAN> 25
 -2.600984e+00 7.831705e-02 9.205840e-01 2.116666e+00 -1.949250e+00 2.322973e-01 6.405775e+00 4.085393e+00 4.705058e-01 1.228607e+00 2.390085e+00 1.195303e+00 -1.760174e-01 2.341648e-01 3.555715e-02 2.157356e-01 2.410081e-01 1.734625e-01 9.040133e-02 -9.149205e-03 1.212681e-01 1.324266e-01 1.212878e-01 1.502438e-01 -4.548289e-01
<VARIANCE> 25
 2.576500e+01 3.143618e+01 2.492957e+01 3.601352e+01 1.091796e+02 3.933873e+01 3.814816e+01 2.671767e+01 5.341351e+01 3.455178e+01 2.097295e+01 3.327549e+01 7.866144e-01 1.035091e+00 1.087572e+00 1.380470e+00 1.672956e+00 2.034227e+00 1.843874e+00 1.678903e+00 1.785474e+00 1.799002e+00 1.392477e+00 1.410574e+00 1.009655e+00
<GCONST> 9.321160e+01
<STATE> 4
<MEAN> 25
 -4.685374e+00 2.648737e+00 2.864752e-01 4.646565e+00 2.837953e+00 2.404078e+00 6.012708e+00 4.170783e+00 3.428142e+00 3.190306e+00 3.737315e+00 3.303047e+00 -3.428228e-02 9.016813e-02 1.326742e-02 7.878635e-02 1.293592e-01 3.935045e-02 -6.004451e-02 -4.998161e-02 5.061414e-02 3.134296e-02 1.093547e-02 3.986945e-02 -1.418860e-01
<VARIANCE> 25
 1.212435e+01 1.326688e+01 1.272118e+01 1.915696e+01 4.753110e+01 1.978405e+01 2.230287e+01 1.778401e+01 2.991317e+01 2.361984e+01 1.521922e+01 1.934063e+01 5.433882e-01 7.269558e-01 8.397049e-01 1.066881e+00 1.343606e+00 1.529033e+00 1.501339e+00 1.551276e+00 1.623034e+00 1.623868e+00 1.376746e+00 1.316244e+00 8.007797e-01
<GCONST> 8.346587e+01
<TRANSP> 5
 0.000000e+00 1.000000e+00 0.000000e+00 0.000000e+00 0.000000e+00
 0.000000e+00 7.497354e-01 2.502646e-01 0.000000e+00 0.000000e+00
 0.000000e+00 0.000000e+00 7.444392e-01 2.555608e-01 0.000000e+00
 0.000000e+00 0.000000e+00 0.000000e+00 9.440367e-01 5.596327e-02
 0.000000e+00 0.000000e+00 0.000000e+00 0.000000e+00 0.000000e+00
<ENDHMM>
~h "\340\262\217"
<BEGINHMM>
<NUMSTATES> 5
<STATE> 2
<MEAN> 25
 1.976175e+00 -3.242845e+00 8.800760e+00 -5.351677e+00 -1.210097e+01 -4.473899e+00 -1.233642e+00 -1.032871e+00 -6.999264e+00 -9.032682e-01 7.167834e-01 -3.449219e+00 -1.254796e-01 -5.793220e-01 5.869535e-01 -9.468817e-01 -1.012480e+00 1.929563e-02 -1.066305e-01 -1.734824e-01 -3.452239e-01 4.390865e-01 1.076115e-01 -3.489388e-01 9.693463e-01
<VARIANCE> 25
 2.558416e+01 5.057430e+01 6.240941e+01 7.122276e+01 9.665714e+01 4.253841e+01 4.046528e+01 3.473031e+01 4.665752e+01 3.400141e+01 2.405843e+01 2.731867e+01 2.082103e+00 2.775731e+00 2.310525e+00 3.713592e+00 4.945578e+00 2.784903e+00 2.748648e+00 2.155805e+00 1.937938e+00 1.861742e+00 1.572822e+00 1.695171e+00 3.916344e+00
<GCONST> 1.028735e+02
<STATE> 3
<MEAN> 25
 1.417237e+00 -4.236082e+00 1.061960e+01 -7.486784e+00 -1.401524e+01 -4.667113e+00 -1.891974e+00 -2.029865e+00 -8.276080e+00 5.549793e-01 6.188869e-01 -4.440594e+00 -7.801577e-02 -4.716446e-02 1.628449e-01 -1.944145e-01 -2.230398e-01 -1.999300e-02 -2.740088e-02 -2.317377e-01 -1.368433e-01 2.620292e-01 -8.640435e-02 -4.229390e-02 1.624465e-01
<VARIANCE> 25
 1.945695e+01 4.605082e+01 6.408076e+01 6.976263e+01 8.904639e+01 3.950645e+01 4.048689e+01 3.763337e+01 4.208838e+01 3.807715e+01 2.213921e+01 2.526699e+01 1.106135e+00 2.308480e+00 1.914190e+00 2.795151e+00 3.446329e+00 1.846914e+00 2.113755e+00 1.835473e+00 1.616119e+00 1.561019e+00 1.363897e+00 1.276954e+00 3.047903e+00
<GCONST> 9.876672e+01
<STATE> 4
<MEAN> 25
 9.381709e-01 -2.548768e+00 1.029432e+01 -6.856351e+00 -1.408095e+01 -4.248637e+00 -1.247420e+00 -2.977799e+00 -8.170472e+00 1.241045e+00 2.851579e-01 -3.992396e+00 -5.218808e-02 4.291619e-01 -1.760734e-01 4.527072e-01 3.983457e-01 -3.702356e-03 1.412952e-01 -1.317608e-01 2.168120e-01 -1.795873e-01 -1.066180e-01 2.416692e-01 -4.668516e-01
<VARIANCE> 25
 1.672308e+01 3.895609e+01 5.211749e+01 5.455280e+01 8.811507e+01 3.486832e+01 4.448045e+01 4.247260e+01 4.061811e+01 3.910645e+01 2.163764e+01 2.648323e+01 1.159055e+00 1.960925e+00 1.919797e+00 2.271835e+00 3.097804e+00 1.853181e+00 2.254371e+00 2.119965e+00 1.807997e+00 2.076396e+00 1.378653e+00 1.302179e+00 2.014856e+00
<GCONST> 9.788864e+01
<TRANSP> 5
 0.000000e+00 1.000000e+00 0.000000e+00 0.000000e+00 0.000000e+00
 0.000000e+00 6.980410e-01 3.019591e-01 0.000000e+00 0.000000e+00
 0.000000e+00 0.000000e+00 7.250970e-01 2.749030e-01 0.000000e+00
 0.000000e+00 0.000000e+00 0.000000e+00 8.475711e-01 1.524289e-01
 0.000000e+00 0.000000e+00 0.000000e+00 0.000000e+00 0.000000e+00
<ENDHMM>
~h "\340\262\220"
<BEGINHMM>
<NUMSTATES> 5
<STATE> 2
<MEAN> 25
 -1.258191e+00 -7.124387e-01 6.305847e-01 1.728095e+00 5.416018e-01 1.460214e+00 1.549525e+00 2.822949e+00 7.904449e-01 -7.446730e-01 5.155936e-01 5.153289e-01 -1.411785e-01 -4.822564e-02 1.014874e-01 5.565367e-02 -3.640527e-02 -2.367252e-02 2.660438e-01 2.961189e-01 -9.627546e-02 1.927116e-01 2.246207e-01 1.999528e-01 -4.340818e-01
<VARIANCE> 25
 4.041330e+01 4.510102e+01 4.582158e+01 3.287449e+01 8.624193e+01 3.297406e+01 3.353155e+01 2.858212e+01 3.804712e+01 5.162756e+01 4.281713e+01 2.506166e+01 1.853159e+00 2.930759e+00 3.143238e+00 1.880366e+00 3.031037e+00 2.377443e+00 2.360021e+00 3.006899e+00 3.144516e+00 2.449018e+00 3.053862e+00 1.829948e+00 2.123298e+00
<GCONST> 1.020701e+02
<STATE> 3
<MEAN> 25
 -1.578885e+00 -2.975333e-01 9.600393e-01 1.928559e+00 2.924931e-01 1.271617e+00 2.042602e+00 2.852607e+00 6.611196e-01 -5.176415e-01 1.003805e+00 1.151209e+00 -3.771525e-02 7.644738e-02 5.084766e-02 -7.334250e-02 -9.496585e-02 -2.475738e-02 9.803908e-02 -9.108901e-02 -1.866430e-01 1.228302e-01 1.614423e-01 1.789272e-01 -3.075350e-01
<VARIANCE> 25
 4.122472e+01 4.113683e+01 4.362977e+01 3.508684e+01 8.097856e+01 3.097350e+01 2.670766e+01 2.823423e+01 4.343369e+01 4.476514e+01 3.423138e+01 2.681002e+01 1.608635e+00 3.071992e+00 3.021163e+00 1.487824e+00 2.451264e+00 2.124502e+00 2.012332e+00 2.952746e+00 2.199577e+00 2.668786e+00 2.498203e+00 1.457850e+00 2.220327e+00
<GCONST> 9.995673e+01
<STATE> 4
<MEAN> 25
 -4.168816e+00 2.466277e+00 -3.765188e-01 4.710226e+00 3.663774e+00 2.444420e+00 3.933959e+00 4.009992e+00 3.337026e+00 2.625180e+00 3.871729e+00 3.409445e+00 -5.920947e-02 7.309712e-02 2.538637e-02 -4.046296e-02 -4.693812e-02 -1.177489e-02 5.348004e-02 -6.643967e-02 -7.900373e-03 5.575816e-02 3.515179e-02 -1.669867e-02 -2.005509e-02
<VARIANCE> 25
 1.741463e+01 1.718719e+01 1.575482e+01 1.693664e+01 2.749372e+01 1.825819e+01 1.490350e+01 1.645533e+01 2.393290e+01 2.263411e+01 1.705578e+01 1.665074e+01 6.100475e-01 1.060593e+00 8.952597e-01 8.997814e-01 1.004040e+00 1.397048e+00 1.280712e+00 1.407720e+00 1.488502e+00 1.645899e+00 1.559966e+00 1.173036e+00 1.122386e+00
<GCONST> 8.279140e+01
<TRANSP> 5
 0.000000e+00 1.000000e+00 0.000000e+00 0.000000e+00 0.000000e+00
 0.000000e+00 5.338921e-01 4.661079e-01 0.000000e+00 0.000000e+00
 0.000000e+00 0.000000e+00 5.320152e-01 4.679848e-01 0.000000e+00
 0.000000e+00 0.000000e+00 0.000000e+00 8.883634e-01 1.116366e-01
 0.000000e+00 0.000000e+00 0.000000e+00 0.000000e+00 0.000000e+00
<ENDHMM>
~h "\340\262\222"
<BEGINHMM>
<NUMSTATES> 5
<STATE> 2
<MEAN> 25
 4.367931e+00 1.004576e-01 -2.528167e+00 -5.090581e+00 -1.987845e-02 1.770810e+00 -1.459991e+00 -2.234786e+00 -2.237482e+00 -1.546769e+00 -5.126071e-01 7.639255e-02 2.139092e-01 -5.639739e-02 -1.038711e-01 -4.471278e-01 -1.506120e-01 1.730040e-01 -4.807167e-03 1.139440e-01 -1.852558e-02 -1.489899e-01 -3.517027e-02 -1.324036e-02 2.336761e-01
<VARIANCE> 25
 5.710693e+01 3.241898e+01 4.281668e+01 1.103905e+02 5.433598e+01 4.514473e+01 6.095297e+01 5.147754e+01 5.662067e+01 5.658570e+01 3.580372e+01 3.036208e+01 2.121746e+00 2.394163e+00 1.969150e+00 4.847545e+00 3.528359e+00 2.810153e+00 3.052808e+00 3.137409e+00 2.808234e+00 3.886190e+00 2.319816e+00 2.123235e+00 2.820451e+00
<GCONST> 1.063074e+02
<STATE> 3
<MEAN> 25
 4.509194e+00 -2.051029e-01 -2.676915e+00 -5.590267e+00 -2.422148e-02 1.961757e+00 -1.491329e+00 -2.046742e+00 -2.150726e+00 -1.593410e+00 -5.087051e-01 4.939128e-02 8.238004e-02 -1.268835e-01 6.736274e-03 -7.015219e-02 -4.766696e-02 -2.686266e-02 -4.020450e-02 -3.837524e-03 -1.693173e-02 -2.105309e-02 -1.925955e-03 -1.004308e-01 2.117551e-01
<VARIANCE> 25
 5.927837e+01 3.316455e+01 4.265949e+01 1.151095e+02 5.353418e+01 4.450247e+01 6.081067e+01 5.112888e+01 5.396717e+01 5.454859e+01 3.467479e+01 3.130802e+01 1.864452e+00 2.237616e+00 1.923871e+00 4.535563e+00 3.400914e+00 2.789243e+00 3.055508e+00 2.837134e+00 2.370934e+00 3.419135e+00 2.313215e+00 2.090163e+00 2.703464e+00
<GCONST> 1.054924e+02
<STATE> 4
<MEAN> 25
 2.173255e+00 3.625432e-01 -2.058903e+00 -3.065495e+00 1.465758e+00 2.470195e+00 -9.484611e-03 -6.855826e-01 -8.289565e-01 -3.273904e-01 8.421048e-01 7.499567e-01 -2.386179e-02 4.337451e-02 1.461950e-01 3.580708e-01 3.986984e-02 -2.097789e-01 -6.597878e-02 -9.191198e-02 -3.691238e-02 6.497784e-02 -2.361615e-03 -1.642102e-01 2.757472e-02
<VARIANCE> 25
 6.762235e+01 3.176847e+01 3.574083e+01 1.154591e+02 4.673632e+01 3.852174e+01 6.530938e+01 5.324804e+01 5.507714e+01 5.563791e+01 3.589712e+01 3.298814e+01 1.235358e+00 1.736401e+00 1.647602e+00 3.830299e+00 2.642094e+00 2.777169e+00 2.684959e+00 2.342398e+00 2.097146e+00 3.000662e+00 2.219406e+00 1.941255e+00 2.104352e+00
<GCONST> 1.031801e+02
<TRANSP> 5
 0.000000e+00 1.000000e+00 0.000000e+00 0.000000e+00 0.000000e+00
 0.000000e+00 4.106122e-01 5.893878e-01 0.000000e+00 0.000000e+00
 0.000000e+00 0.000000e+00 4.053544e-01 5.946456e-01 0.000000e+00
 0.000000e+00 0.000000e+00 0.000000e+00 5.884546e-01 4.115454e-01
 0.000000e+00 0.000000e+00 0.000000e+00 0.000000e+00 0.000000e+00
<ENDHMM>
~h "\340\262\223"
<BEGINHMM>
<NUMSTATES> 5
<STATE> 2
<MEAN> 25
 6.789162e+00 -2.769949e+00 -2.325384e+00 -1.050766e+01 -3.195575e+00 1.258143e+00 -3.426688e+00 -3.855937e+00 -4.913021e+00 1.112346e+00 3.900638e-01 -2.892431e+00 6.841488e-01 -1.599778e-03 -1.206335e-01 -1.441461e+00 -4.306918e-01 5.506136e-01 -1.509846e-01 -4.054715e-01 -3.896433e-01 -2.303768e-01 1.340164e-01 -7.195734e-02 5.071352e-01
<VARIANCE> 25
 5.686888e+01 4.305991e+01 4.942563e+01 1.421939e+02 8.618311e+01 3.985203e+01 5.213692e+01 3.670840e+01 4.897462e+01 6.003180e+01 3.310695e+01 3.251300e+01 2.602597e+00 1.855782e+00 2.073806e+00 4.979536e+00 4.860393e+00 2.919606e+00 2.878851e+00 2.773751e+00 2.418625e+00 3.016718e+00 2.625400e+00 1.931884e+00 2.844863e+00
<GCONST> 1.065703e+02
<STATE> 3
<MEAN> 25
 7.750577e+00 -3.240558e+00 -2.102742e+00 -1.327638e+01 -3.701422e+00 1.949781e+00 -3.716353e+00 -4.500622e+00 -4.957940e+00 3.220749e-01 4.282914e-01 -2.804175e+00 1.986562e-01 4.278164e-02 -1.149994e-02 -4.279242e-01 -6.260222e-02 2.710249e-01 -1.119356e-01 -1.837120e-01 6.654014e-02 -1.902817e-01 7.478762e-02 8.366042e-02 1.372676e-01
<VARIANCE> 25
 5.885813e+01 3.912698e+01 4.795618e+01 1.577625e+02 7.923331e+01 3.822299e+01 4.356545e+01 3.741166e+01 5.473683e+01 5.731555e+01 3.557064e+01 2.917704e+01 1.261234e+00 1.527085e+00 1.477591e+00 4.196064e+00 2.605145e+00 2.655704e+00 2.424528e+00 1.864437e+00 2.462291e+00 2.568824e+00 2.385945e+00 1.698148e+00 2.253930e+00
<GCONST> 1.030075e+02
<STATE> 4
<MEAN> 25
 2.297805e+00 -4.143332e-01 -1.290922e+00 -5.706801e+00 3.927818e-01 3.138225e+00 -3.314900e-01 -1.214557e+00 -4.359343e-01 1.672508e+00 2.182555e+00 3.225415e-01 -1.089675e-01 6.042606e-02 -7.533994e-02 4.123436e-01 1.891295e-01 -1.604037e-01 -1.746217e-01 -3.260541e-02 1.428324e-01 1.066068e-01 2.734836e-02 2.043163e-03 -6.544971e-02
<VARIANCE> 25
 9.171672e+01 3.588291e+01 2.642829e+01 2.332904e+02 6.576491e+01 2.695660e+01 6.283605e+01 5.463787e+01 5.721046e+01 3.935669e+01 3.284184e+01 2.943465e+01 5.958008e-01 9.851702e-01 9.731804e-01 2.410452e+00 1.568236e+00 2.236821e+00 1.811108e+00 1.401875e+00 2.068722e+00 2.211090e+00 1.406362e+00 1.536984e+00 8.658484e-01
<GCONST> 9.764127e+01
<TRANSP> 5
 0.000000e+00 1.000000e+00 0.000000e+00 0.000000e+00 0.000000e+00
 0.000000e+00 6.292005e-01 3.707996e-01 0.000000e+00 0.000000e+00
 0.000000e+00 0.000000e+00 5.753079e-01 4.246921e-01 0.000000e+00
 0.000000e+00 0.000000e+00 0.000000e+00 7.876827e-01 2.123173e-01
 0.000000e+00 0.000000e+00 0.000000e+00 0.000000e+00 0.000000e+00
<ENDHMM>
~h "\340\262\224"
<BEGINHMM>
<NUMSTATES> 5
<STATE> 2
<MEAN> 25
 -5.780234e+00 3.281034e+00 -6.975918e-01 4.257527e+00 4.670950e+00 3.705646e+00 6.369544e+00 4.649502e+00 4.152000e+00 3.742720e+00 3.567700e+00 3.139694e+00 -2.684639e-01 4.372871e-02 1.399015e-01 2.270715e-01 -4.628764e-02 -5.472334e-02 2.338004e-01 1.687887e-01 5.372518e-02 2.998337e-01 1.703393e-01 1.724472e-01 -2.212447e-01
<VARIANCE> 25
 1.331935e+01 6.558869e+00 1.286474e+01 2.154124e+01 1.216361e+01 1.876490e+01 2.053502e+01 1.808405e+01 1.490230e+01 2.327998e+01 1.872379e+01 1.305979e+01 1.244807e+00 5.535827e-01 9.085312e-01 9.876606e-01 1.164381e+00 1.791377e+00 2.024730e+00 1.772300e+00 1.488824e+00 2.017885e+00 1.448826e+00 1.207819e+00 1.012014e+00
<GCONST> 8.194118e+01
<STATE> 3
<MEAN> 25
 -6.713983e+00 3.168984e+00 2.143103e-02 5.524951e+00 4.515751e+00 2.930817e+00 6.570785e+00 4.571176e+00 4.432996e+00 4.120113e+00 4.273712e+00 3.971995e+00 -1.043083e-01 -9.374352e-02 2.453781e-02 -3.902698e-02 -4.919312e-02 -1.207911e-01 -3.633285e-02 -5.308681e-02 1.601435e-02 1.257616e-02 -2.288692e-03 -1.449925e-02 1.843580e-01
<VARIANCE> 25
 1.684404e+01 9.879587e+00 1.162949e+01 1.650116e+01 1.210051e+01 1.742092e+01 1.794006e+01 1.655476e+01 1.430361e+01 1.941598e+01 1.828790e+01 1.322232e+01 9.812792e-01 6.675860e-01 9.523104e-01 1.093590e+00 1.080894e+00 1.669461e+00 1.566327e+00 1.658749e+00 1.325090e+00 1.721460e+00 1.433341e+00 1.389144e+00 1.342964e+00
<GCONST> 8.144868e+01
<STATE> 4
<MEAN> 25
 -2.610698e+00 -5.365662e-01 -1.662211e+00 -1.168238e+00 1.914423e+00 2.048841e+00 3.535006e+00 9.124169e-01 2.346191e+00 4.036346e+00 2.621196e+00 1.244845e+00 4.883612e-01 -1.985749e-01 -1.086068e-01 -5.213566e-01 -3.560817e-01 -1.101523e-01 -4.477454e-01 -4.437702e-01 -2.360035e-01 -8.124350e-02 -1.290438e-01 -2.580768e-01 7.950152e-01
<VARIANCE> 25
 9.203529e+01 3.962147e+01 2.391380e+01 1.329135e+02 3.590006e+01 3.019069e+01 4.680980e+01 5.589962e+01 4.031922e+01 2.637383e+01 2.520012e+01 2.874365e+01 2.757643e+00 2.016480e+00 1.471800e+00 4.580900e+00 1.822306e+00 2.539841e+00 3.428312e+00 2.363919e+00 2.163853e+00 2.507355e+00 1.872851e+00 2.258547e+00 3.764894e+00
<GCONST> 1.023327e+02
<TRANSP> 5
 0.000000e+00 1.000000e+00 0.000000e+00 0.000000e+00 0.000000e+00
 0.000000e+00 9.047564e-01 9.524368e-02 0.000000e+00 0.000000e+00
 0.000000e+00 0.000000e+00 8.776721e-01 1.223278e-01 0.000000e+00
 0.000000e+00 0.000000e+00 0.000000e+00 8.635949e-01 1.364052e-01
 0.000000e+00 0.000000e+00 0.000000e+00 0.000000e+00 0.000000e+00
<ENDHMM>
~h "\340\263\240"
<BEGINHMM>
<NUMSTATES> 5
<STATE> 2
<MEAN> 25
 4.925858e-08 -1.233895e-08 2.920008e-08 1.226765e-08 -5.222096e-08 1.835772e-08 3.730370e-08 -3.084009e-08 5.284326e-08 -7.177465e-09 3.337222e-08 1.065681e-08 -5.941017e-04 -3.072851e-04 5.426822e-05 -6.761555e-04 -2.272289e-05 -6.928663e-06 -4.446488e-04 -1.001891e-03 -5.636913e-04 -2.278803e-04 9.030614e-05 -4.183001e-04 3.126871e-03
<VARIANCE> 25
 6.337364e+01 4.811290e+01 5.212138e+01 6.297672e+01 6.965734e+01 5.789758e+01 6.618909e+01 5.280534e+01 5.847340e+01 4.740644e+01 4.464558e+01 3.826577e+01 2.126088e+00 2.240220e+00 2.076481e+00 2.780402e+00 2.979447e+00 3.084975e+00 3.029560e+00 2.887547e+00 2.790046e+00 2.530517e+00 2.348650e+00 2.055844e+00 2.977529e+00
<GCONST> 1.062192e+02
<STATE> 3
<MEAN> 25
 4.925858e-08 -1.233895e-08 2.920008e-08 1.226765e-08 -5.222096e-08 1.835772e-08 3.730370e-08 -3.084009e-08 5.284326e-08 -7.177465e-09 3.337222e-08 1.065681e-08 -5.941017e-04 -3.072851e-04 5.426822e-05 -6.761555e-04 -2.272289e-05 -6.928663e-06 -4.446488e-04 -1.001891e-03 -5.636913e-04 -2.278803e-04 9.030614e-05 -4.183001e-04 3.126871e-03
<VARIANCE> 25
 6.337364e+01 4.811290e+01 5.212138e+01 6.297672e+01 6.965734e+01 5.789758e+01 6.618909e+01 5.280534e+01 5.847340e+01 4.740644e+01 4.464558e+01 3.826577e+01 2.126088e+00 2.240220e+00 2.076481e+00 2.780402e+00 2.979447e+00 3.084975e+00 3.029560e+00 2.887547e+00 2.790046e+00 2.530517e+00 2.348650e+00 2.055844e+00 2.977529e+00
<GCONST> 1.062192e+02
<STATE> 4
<MEAN> 25
 4.925858e-08 -1.233895e-08 2.920008e-08 1.226765e-08 -5.222096e-08 1.835772e-08 3.730370e-08 -3.084009e-08 5.284326e-08 -7.177465e-09 3.337222e-08 1.065681e-08 -5.941017e-04 -3.072851e-04 5.426822e-05 -6.761555e-04 -2.272289e-05 -6.928663e-06 -4.446488e-04 -1.001891e-03 -5.636913e-04 -2.278803e-04 9.030614e-05 -4.183001e-04 3.126871e-03
<VARIANCE> 25
 6.337364e+01 4.811290e+01 5.212138e+01 6.297672e+01 6.965734e+01 5.789758e+01 6.618909e+01 5.280534e+01 5.847340e+01 4.740644e+01 4.464558e+01 3.826577e+01 2.126088e+00 2.240220e+00 2.076481e+00 2.780402e+00 2.979447e+00 3.084975e+00 3.029560e+00 2.887547e+00 2.790046e+00 2.530517e+00 2.348650e+00 2.055844e+00 2.977529e+00
<GCONST> 1.062192e+02
<TRANSP> 5
 0.000000e+00 1.000000e+00 0.000000e+00 0.000000e+00 0.000000e+00
 0.000000e+00 6.000000e-01 4.000000e-01 0.000000e+00 0.000000e+00
 0.000000e+00 0.000000e+00 6.000000e-01 4.000000e-01 0.000000e+00
 0.000000e+00 0.000000e+00 0.000000e+00 7.000000e-01 3.000000e-01
 0.000000e+00 0.000000e+00 0.000000e+00 0.000000e+00 0.000000e+00
<ENDHMM>
~h "\340\262\240\340\263\215"
<BEGINHMM>
<NUMSTATES> 5
<STATE> 2
<MEAN> 25
 -4.072004e+00 9.759824e-01 -9.901079e-01 3.297184e+00 2.822836e+00 4.861191e+00 5.072981e+00 5.151202e+00 3.586467e+00 2.581048e+00 3.541884e+00 1.075211e+00 -1.508929e-01 4.117633e-01 6.400000e-02 3.126850e-01 -1.517254e-01 -1.923431e-01 -1.712211e-01 1.765961e-01 5.265268e-01 3.634030e-01 -3.153200e-01 5.012234e-01 -3.946285e-01
<VARIANCE> 25
 2.234861e+01 6.597695e+00 2.379545e+01 3.771940e+01 2.680189e+01 2.723177e+01 1.254791e+01 2.396663e+01 2.613674e+01 2.124039e+01 2.809304e+01 2.059409e+01 2.648970e+00 7.930302e-01 2.796414e+00 7.904642e+00 3.806425e+00 1.876329e+00 2.203882e+00 2.305868e+00 2.686653e+00 1.530356e+00 1.700651e+00 1.376822e+00 1.595916e+00
<GCONST> 9.288071e+01
<STATE> 3
<MEAN> 25
 -4.897161e+00 1.936739e+00 1.234603e-01 3.836499e+00 3.043574e+00 2.656416e+00 5.431878e+00 4.051302e+00 3.655485e+00 2.105285e+00 2.897024e+00 2.764601e+00 4.225320e-02 2.038496e-01 8.187396e-02 9.461902e-02 1.463356e-01 -3.078657e-01 -1.981890e-02 -6.392766e-01 5.732236e-02 1.015599e-01 2.352906e-01 3.943792e-01 -2.937051e-01
<VARIANCE> 25
 1.763647e+01 4.409920e+00 1.643935e+01 2.398492e+01 2.427882e+01 1.451665e+01 1.375667e+01 1.872244e+01 1.518484e+01 1.385497e+01 1.743018e+01 2.159713e+01 2.870361e+00 3.195909e-01 2.659483e+00 4.962459e+00 3.493890e+00 1.731338e+00 1.481030e+00 2.220952e+00 2.752065e+00 1.317877e+00 1.952002e+00 1.865350e+00 1.490060e+00
<GCONST> 8.743755e+01
<STATE> 4
<MEAN> 25
 -3.996948e+00 2.182627e+00 -1.814339e-01 7.919058e+00 1.652097e+00 2.670865e+00 5.397048e+00 4.000837e+00 5.020311e+00 4.714306e+00 5.183652e+00 3.428929e+00 -2.349295e-02 -3.432763e-02 3.426383e-02 -8.109538e-02 -5.027802e-02 2.871067e-02 -4.041244e-02 -1.701771e-02 1.144828e-02 2.940060e-02 4.828048e-02 -1.640300e-02 7.547857e-02
<VARIANCE> 25
 2.587045e+00 2.547082e+00 4.777499e+00 1.594165e+01 7.959646e+00 8.458171e+00 9.619240e+00 1.162490e+01 1.228409e+01 1.011234e+01 9.880399e+00 1.064261e+01 4.167396e-01 3.333338e-01 6.380036e-01 9.800854e-01 9.036659e-01 1.038531e+00 1.027633e+00 1.348227e+00 1.538880e+00 1.008196e+00 8.753295e-01 1.204921e+00 6.518245e-01
<GCONST> 6.845278e+01
<TRANSP> 5
 0.000000e+00 1.000000e+00 0.000000e+00 0.000000e+00 0.000000e+00
 0.000000e+00 6.010352e-01 3.989647e-01 0.000000e+00 0.000000e+00
 0.000000e+00 0.000000e+00 6.497161e-01 3.502839e-01 0.000000e+00
 0.000000e+00 0.000000e+00 0.000000e+00 9.773678e-01 2.263222e-02
 0.000000e+00 0.000000e+00 0.000000e+00 0.000000e+00 0.000000e+00
<ENDHMM>
~h "\340\262\230\340\263\215"
<BEGINHMM>
<NUMSTATES> 5
<STATE> 2
<MEAN> 25
 -3.622670e+00 3.718620e+00 -1.049482e-01 5.001298e+00 3.928778e+00 2.663615e+00 3.428997e+00 3.654408e+00 4.105259e+00 3.956676e+00 3.198552e+00 3.475493e+00 -4.693249e-02 3.845816e-03 1.098028e-02 3.276374e-02 -6.851769e-03 8.797041e-03 2.486439e-02 4.587448e-02 7.313063e-02 9.673853e-02 5.353685e-02 2.603965e-02 -3.916137e-02
<VARIANCE> 25
 3.195931e+00 4.249066e+00 5.776578e+00 6.982710e+00 9.730897e+00 1.165124e+01 1.077645e+01 1.171696e+01 1.307902e+01 1.514060e+01 1.207604e+01 1.070626e+01 2.966901e-01 3.334873e-01 5.391549e-01 5.535055e-01 8.368762e-01 1.303523e+00 1.230591e+00 1.272290e+00 1.226811e+00 1.569088e+00 1.242144e+00 1.127205e+00 7.112608e-01
<GCONST> 6.963594e+01
<STATE> 3
<MEAN> 25
 -3.619068e+00 3.322431e+00 -1.419128e-01 4.615218e+00 3.554802e+00 2.482605e+00 3.560944e+00 4.139709e+00 4.462451e+00 4.372307e+00 3.544190e+00 3.639521e+00 2.388268e-03 -9.084111e-03 -1.845673e-02 7.129608e-03 8.898949e-03 7.748987e-03 -2.107750e-02 -3.630878e-02 3.427949e-03 3.109956e-02 -2.800478e-02 1.052896e-02 3.108797e-02
<VARIANCE> 25
 2.596203e+00 7.366262e+00 6.632785e+00 7.964936e+00 1.422969e+01 9.455200e+00 1.056831e+01 1.053915e+01 1.344711e+01 1.575997e+01 1.346273e+01 1.334691e+01 1.800065e-01 2.732776e-01 5.874285e-01 6.257636e-01 6.989933e-01 1.138146e+00 1.054049e+00 1.058606e+00 1.314408e+00 1.514089e+00 1.172570e+00 1.461572e+00 4.383646e-01
<GCONST> 6.929752e+01
<STATE> 4
<MEAN> 25
 -3.420524e+00 2.562936e+00 1.027691e-02 4.204570e+00 3.170426e+00 2.153499e+00 3.107613e+00 3.313398e+00 3.982597e+00 3.773231e+00 2.852273e+00 3.379907e+00 9.634908e-02 2.241840e-02 5.245832e-02 -1.949608e-01 -5.849352e-02 -1.149514e-01 -6.927317e-02 -4.360826e-01 -1.961377e-01 -2.451254e-01 -1.730913e-01 -4.871402e-02 2.868875e-01
<VARIANCE> 25
 5.430030e+00 1.622824e+01 1.327695e+01 1.287551e+01 2.833938e+01 1.129237e+01 1.070545e+01 1.261139e+01 1.639836e+01 1.871619e+01 1.885802e+01 1.772598e+01 7.015403e-01 9.398257e-01 1.181611e+00 9.892767e-01 1.455654e+00 1.467960e+00 1.211972e+00 1.567392e+00 1.852231e+00 1.598586e+00 1.276082e+00 1.829857e+00 1.090726e+00
<GCONST> 8.094019e+01
<TRANSP> 5
 0.000000e+00 1.000000e+00 0.000000e+00 0.000000e+00 0.000000e+00
 0.000000e+00 9.734111e-01 2.658895e-02 0.000000e+00 0.000000e+00
 0.000000e+00 0.000000e+00 9.045793e-01 9.542066e-02 0.000000e+00
 0.000000e+00 0.000000e+00 0.000000e+00 7.766253e-01 2.233747e-01
 0.000000e+00 0.000000e+00 0.000000e+00 0.000000e+00 0.000000e+00
<ENDHMM>
~h "\340\262\241\340\263\215"
<BEGINHMM>
<NUMSTATES> 5
<STATE> 2
<MEAN> 25
 5.391339e+00 -3.940313e-01 3.330658e+00 -1.955858e+00 -6.250968e+00 -2.556031e+00 -4.232443e+00 -4.311403e+00 -6.170623e+00 -1.987104e+00 -5.705830e-01 -2.814317e+00 8.902980e-02 -8.970683e-02 4.553356e-01 -3.607933e-01 -4.140661e-01 -6.079810e-02 -2.316953e-01 -3.895293e-01 -2.818646e-01 8.694590e-02 -2.309768e-02 -1.910309e-01 5.549700e-01
<VARIANCE> 25
 4.709727e+01 5.188667e+01 9.734210e+01 8.327728e+01 9.298208e+01 6.465838e+01 5.905496e+01 6.886845e+01 7.236540e+01 4.179868e+01 5.382722e+01 3.979576e+01 2.579522e+00 4.658732e+00 4.871151e+00 7.264592e+00 7.614196e+00 4.415323e+00 5.516250e+00 4.964815e+00 5.870080e+00 3.995370e+00 3.962844e+00 3.450630e+00 8.806155e+00
<GCONST> 1.162688e+02
<STATE> 3
<MEAN> 25
 5.050047e+00 -4.983696e-01 3.992738e+00 -2.763345e+00 -6.296339e+00 -2.503341e+00 -4.367730e+00 -4.963491e+00 -5.745927e+00 -1.140139e+00 -1.531161e+00 -3.114009e+00 -1.089170e-01 -1.572726e-02 6.901762e-02 -2.075537e-01 -1.254378e-03 9.978804e-02 3.716671e-02 -1.131719e-01 8.931880e-02 2.015275e-01 -3.037604e-02 -5.552032e-02 8.873814e-02
<VARIANCE> 25
 3.960238e+01 4.715211e+01 9.675753e+01 8.438799e+01 9.233907e+01 6.185573e+01 5.367428e+01 6.982401e+01 7.058192e+01 3.810333e+01 5.521095e+01 3.946459e+01 1.774303e+00 3.964782e+00 3.843333e+00 5.548349e+00 5.934781e+00 4.054266e+00 4.796223e+00 4.398083e+00 4.283475e+00 3.583514e+00 4.023669e+00 3.030956e+00 6.002477e+00
<GCONST> 1.132143e+02
<STATE> 4
<MEAN> 25
 5.353898e+00 6.739721e-02 3.348083e+00 -4.035792e+00 -5.939919e+00 -9.366577e-01 -3.653179e+00 -5.850206e+00 -5.697114e+00 -1.964065e+00 -1.710300e+00 -3.214591e+00 -2.698562e-01 7.398385e-02 -1.772239e-01 1.527705e-01 3.206739e-01 1.462541e-01 1.994279e-01 1.949192e-01 3.568208e-01 1.395350e-03 6.529365e-02 1.580663e-01 -3.683217e-01
<VARIANCE> 25
 3.798701e+01 4.650152e+01 8.811736e+01 7.107041e+01 8.278659e+01 5.301422e+01 5.306824e+01 7.317561e+01 6.191897e+01 4.452031e+01 4.888088e+01 3.929020e+01 1.217961e+00 2.672410e+00 2.814895e+00 4.220841e+00 3.610221e+00 2.871350e+00 3.676382e+00 3.319743e+00 2.980959e+00 3.142212e+00 3.336818e+00 2.615335e+00 3.184322e+00
<GCONST> 1.083567e+02
<TRANSP> 5
 0.000000e+00 1.000000e+00 0.000000e+00 0.000000e+00 0.000000e+00
 0.000000e+00 6.605096e-01 3.394904e-01 0.000000e+00 0.000000e+00
 0.000000e+00 0.000000e+00 6.066349e-01 3.933652e-01 0.000000e+00
 0.000000e+00 0.000000e+00 0.000000e+00 7.360892e-01 2.639107e-01
 0.000000e+00 0.000000e+00 0.000000e+00 0.000000e+00 0.000000e+00
<ENDHMM>
~h "\340\262\262\340\263\215"
<BEGINHMM>
<NUMSTATES> 5
<STATE> 2
<MEAN> 25
 3.417798e+00 2.305720e-02 6.187227e+00 -2.900883e+00 -6.498539e+00 -6.037874e+00 -7.573705e+00 -3.591454e+00 -3.044276e+00 -4.649556e+00 -4.364444e+00 -1.502222e+00 9.429920e-03 3.322981e-01 3.540348e-01 1.027857e-01 -5.936578e-02 -5.134245e-04 -1.385106e-01 -3.087073e-01 -2.687349e-01 -1.283023e-02 1.004485e-01 1.337204e-02 -2.224991e-01
<VARIANCE> 25
 2.428703e+01 5.366601e+01 8.209064e+01 5.113159e+01 7.045874e+01 7.501696e+01 6.079337e+01 6.640250e+01 4.773517e+01 6.457327e+01 4.470860e+01 2.522397e+01 1.077015e+00 3.053861e+00 2.529396e+00 3.720506e+00 4.450307e+00 3.564708e+00 4.293611e+00 4.317331e+00 3.003511e+00 3.546843e+00 2.708516e+00 1.926663e+00 3.269203e+00
<GCONST> 1.077181e+02
<STATE> 3
<MEAN> 25
 3.322519e+00 8.405149e-01 6.740252e+00 -2.970172e+00 -6.637925e+00 -5.472679e+00 -7.260014e+00 -4.428874e+00 -3.628367e+00 -4.298407e+00 -4.135804e+00 -1.667536e+00 -6.840204e-02 1.553312e-01 3.554386e-02 5.541365e-02 5.430540e-02 1.602090e-01 2.514848e-01 -1.025316e-01 -1.234850e-01 1.712735e-01 1.431537e-01 -3.044658e-02 -2.683779e-01
<VARIANCE> 25
 2.464638e+01 5.236912e+01 7.847453e+01 5.091441e+01 7.539745e+01 8.225978e+01 6.752101e+01 6.718740e+01 4.504565e+01 6.508173e+01 4.509897e+01 2.613134e+01 1.038546e+00 2.905419e+00 2.420753e+00 3.605553e+00 4.273027e+00 3.725525e+00 4.424063e+00 4.282237e+00 2.883950e+00 3.586711e+00 2.858365e+00 1.980136e+00 2.881690e+00
<GCONST> 1.077189e+02
<STATE> 4
<MEAN> 25
 3.049380e+00 1.557999e+00 7.055191e+00 -3.275663e+00 -7.224371e+00 -4.594363e+00 -6.084986e+00 -5.140369e+00 -4.160915e+00 -3.527012e+00 -3.772717e+00 -2.069073e+00 -1.378668e-01 6.076086e-02 -2.241452e-01 6.883737e-02 1.506732e-01 3.382093e-01 4.673752e-01 3.082986e-02 7.156391e-02 2.918063e-01 1.469531e-01 8.147423e-03 -3.880085e-01
<VARIANCE> 25
 2.433780e+01 5.380615e+01 7.267041e+01 5.610315e+01 8.226468e+01 8.445350e+01 7.150595e+01 6.190732e+01 4.142100e+01 5.982057e+01 4.461198e+01 2.801179e+01 1.032021e+00 2.768920e+00 2.094962e+00 3.319427e+00 4.167745e+00 3.988527e+00 4.150524e+00 3.919619e+00 2.675271e+00 3.515577e+00 2.983194e+00 2.109745e+00 2.511178e+00
<GCONST> 1.072157e+02
<TRANSP> 5
 0.000000e+00 1.000000e+00 0.000000e+00 0.000000e+00 0.000000e+00
 0.000000e+00 6.476364e-01 3.523636e-01 0.000000e+00 0.000000e+00
 0.000000e+00 0.000000e+00 6.448770e-01 3.551230e-01 0.000000e+00
 0.000000e+00 0.000000e+00 0.000000e+00 7.753972e-01 2.246028e-01
 0.000000e+00 0.000000e+00 0.000000e+00 0.000000e+00 0.000000e+00
<ENDHMM>
~h "\340\262\252\340\263\215"
<BEGINHMM>
<NUMSTATES> 5
<STATE> 2
<MEAN> 25
 8.541602e-01 1.074289e+00 2.195195e-01 -1.496159e-01 -9.802060e-02 -9.043456e-02 -2.656307e-01 -1.626225e+00 -5.482783e-01 -2.287381e-02 5.211755e-01 -4.489487e-01 3.609313e-01 -2.988099e-01 5.709982e-02 -3.755929e-01 -4.148720e-01 -3.742281e-01 -3.129062e-01 -2.673531e-01 -3.817763e-01 -3.568690e-01 -6.527287e-02 -3.548293e-01 8.914157e-01
<VARIANCE> 25
 6.197083e+01 4.409334e+01 5.821918e+01 6.633287e+01 6.637245e+01 5.215936e+01 5.675380e+01 5.362001e+01 8.013499e+01 4.742759e+01 4.193738e+01 3.511462e+01 5.111602e+00 3.465698e+00 3.441056e+00 5.347741e+00 4.983872e+00 4.215609e+00 5.710550e+00 4.596818e+00 6.332575e+00 3.733283e+00 3.067692e+00 3.267157e+00 9.990074e+00
<GCONST> 1.136957e+02
<STATE> 3
<MEAN> 25
 1.607593e+00 1.785812e-01 5.901226e-02 -1.185249e+00 -1.030536e+00 -8.351473e-01 -6.482485e-01 -2.087867e+00 -1.395752e+00 -4.515516e-01 5.369018e-01 -1.202660e+00 4.599173e-01 -5.958670e-01 -1.658090e-01 -5.275105e-01 -4.928151e-01 -3.010827e-01 -3.438345e-01 -1.437637e-01 -2.294725e-01 -1.368781e-01 -1.494305e-01 -3.340763e-01 1.209012e+00
<VARIANCE> 25
 6.336011e+01 4.832080e+01 6.247255e+01 6.486839e+01 6.575379e+01 5.378173e+01 5.628930e+01 4.986826e+01 8.897991e+01 4.776294e+01 4.136288e+01 3.454427e+01 5.717191e+00 4.078327e+00 3.946124e+00 5.618342e+00 5.800345e+00 4.611235e+00 5.788098e+00 4.823580e+00 5.905701e+00 3.716548e+00 3.616175e+00 3.676669e+00 1.064298e+01
<GCONST> 1.149154e+02
<STATE> 4
<MEAN> 25
 2.133543e+00 -8.689970e-01 -9.552078e-01 -2.059284e+00 -1.301282e+00 -7.080404e-01 -7.981291e-01 -2.272890e+00 -1.196817e+00 3.312133e-01 8.568567e-01 -1.460443e+00 5.521902e-01 -7.568957e-01 -3.735463e-01 -4.670151e-01 -4.376940e-01 -1.866206e-01 -5.100067e-01 -4.277826e-02 -1.941762e-02 7.978918e-02 -3.180782e-01 -3.729014e-01 1.187402e+00
<VARIANCE> 25
 6.170314e+01 5.009909e+01 6.130682e+01 6.140808e+01 6.520925e+01 5.533199e+01 5.549561e+01 4.696151e+01 7.524080e+01 4.795244e+01 4.228826e+01 3.704498e+01 5.758895e+00 4.303081e+00 3.634313e+00 5.445092e+00 5.869107e+00 4.782667e+00 5.626122e+00 4.515191e+00 4.706259e+00 3.672181e+00 3.920936e+00 3.995402e+00 1.019480e+01
<GCONST> 1.145086e+02
<TRANSP> 5
 0.000000e+00 1.000000e+00 0.000000e+00 0.000000e+00 0.000000e+00
 0.000000e+00 5.176179e-01 4.823821e-01 0.000000e+00 0.000000e+00
 0.000000e+00 0.000000e+00 5.278703e-01 4.721297e-01 0.000000e+00
 0.000000e+00 0.000000e+00 0.000000e+00 6.758808e-01 3.241192e-01
 0.000000e+00 0.000000e+00 0.000000e+00 0.000000e+00 0.000000e+00
<ENDHMM>
~h "sil"
<BEGINHMM>
<NUMSTATES> 5
<STATE> 2
<MEAN> 25
 -5.773898e+00 3.943424e+00 -4.003850e-01 5.673890e+00 5.478982e+00 3.171449e+00 5.840282e+00 4.536532e+00 4.780713e+00 4.625602e+00 4.375760e+00 4.432847e+00 -2.031572e-02 -3.490530e-03 -2.979174e-03 -3.480695e-03 -2.435692e-03 7.944169e-03 -2.670180e-02 -7.462617e-03 1.680333e-02 1.800674e-02 1.877186e-02 1.757074e-02 -3.147267e-03
<VARIANCE> 25
 1.011025e+01 3.755355e+00 6.096272e+00 8.763366e+00 1.146042e+01 1.267912e+01 1.358584e+01 1.389525e+01 1.500139e+01 1.479022e+01 1.326126e+01 1.261847e+01 1.795284e-01 2.641093e-01 4.388157e-01 6.024432e-01 8.200993e-01 1.010159e+00 1.158387e+00 1.218146e+00 1.295111e+00 1.245932e+00 1.154417e+00 1.109794e+00 1.078500e-01
<GCONST> 6.857959e+01
<STATE> 3
<MEAN> 25
 -5.286829e+00 3.448616e+00 -8.921866e-01 5.699841e+00 5.128051e+00 3.276073e+00 5.378424e+00 4.488115e+00 4.882225e+00 4.698929e+00 4.243730e+00 4.403050e+00 -1.761736e-04 3.032451e-03 1.896384e-03 8.457160e-03 5.054882e-03 5.496666e-04 -3.539044e-04 -2.242116e-03 -9.588744e-04 1.428141e-03 -1.429587e-03 -2.363728e-03 -3.092609e-03
<VARIANCE> 25
 6.822753e+00 2.767695e+00 4.077222e+00 6.059891e+00 7.582489e+00 9.216445e+00 1.148687e+01 1.149379e+01 1.206480e+01 1.217403e+01 1.196389e+01 1.120282e+01 9.924980e-02 1.938087e-01 3.067056e-01 4.744431e-01 6.273895e-01 7.856439e-01 9.339729e-01 1.015542e+00 1.136214e+00 1.114565e+00 1.103678e+00 1.024637e+00 5.344303e-02
<GCONST> 6.190102e+01
<STATE> 4
<MEAN> 25
 -1.849890e-01 -3.477192e-02 8.433497e-02 -2.684350e-01 1.104498e-02 8.106589e-02 -2.468529e-01 -1.727057e-02 -1.658173e-01 -9.752131e-02 -4.921603e-02 -1.338511e-01 1.182221e-03 6.603124e-04 1.473898e-03 -9.044111e-04 5.249451e-04 -2.223407e-04 -3.028795e-03 -4.713740e-03 -3.180986e-03 -2.422508e-03 -2.509685e-03 -3.094181e-03 8.656265e-03
<VARIANCE> 25
 6.102128e+01 4.475020e+01 5.186438e+01 6.747601e+01 6.970565e+01 5.542488e+01 6.633157e+01 5.026202e+01 6.011105e+01 4.852174e+01 4.404827e+01 4.126751e+01 1.955084e+00 2.085813e+00 1.995152e+00 2.762795e+00 2.846045e+00 2.982680e+00 2.961726e+00 2.800459e+00 2.733701e+00 2.553239e+00 2.326717e+00 2.105552e+00 2.996524e+00
<GCONST> 1.058708e+02
<TRANSP> 5
 0.000000e+00 1.000000e+00 0.000000e+00 0.000000e+00 0.000000e+00
 0.000000e+00 9.654423e-01 3.455773e-02 0.000000e+00 0.000000e+00
 0.000000e+00 0.000000e+00 9.827968e-01 1.720309e-02 0.000000e+00
 0.000000e+00 0.000000e+00 0.000000e+00 9.956468e-01 4.353231e-03
 0.000000e+00 0.000000e+00 0.000000e+00 0.000000e+00 0.000000e+00
<ENDHMM>
~h "\340\262\242\340\263\215"
<BEGINHMM>
<NUMSTATES> 5
<STATE> 2
<MEAN> 25
 9.860321e+00 -5.301189e+00 -4.945886e+00 -6.215743e-01 -7.942259e+00 -5.233589e+00 -4.105299e+00 -6.770700e+00 -5.296140e+00 -2.905631e+00 -7.272771e-01 -2.311115e+00 1.155875e-01 5.070420e-02 2.866420e-01 -1.600596e-01 -2.377745e-01 1.034911e-01 -1.508710e-01 -4.724123e-01 -4.303626e-01 -3.757266e-01 6.555682e-02 -1.277890e-01 4.591524e-01
<VARIANCE> 25
 3.918100e+01 5.804073e+01 6.896278e+01 7.453839e+01 1.319124e+02 7.594109e+01 8.629118e+01 1.192950e+02 5.441083e+01 2.683628e+01 5.153962e+01 2.323169e+01 2.801123e+00 3.098814e+00 5.169270e+00 7.120540e+00 7.687109e+00 5.985721e+00 5.658381e+00 5.943158e+00 3.696794e+00 2.603629e+00 4.299428e+00 2.667831e+00 4.460978e+00
<GCONST> 1.143573e+02
<STATE> 3
<MEAN> 25
 1.004855e+01 -4.530025e+00 -4.447606e+00 -2.896129e+00 -7.030696e+00 -2.261648e+00 -6.456258e+00 -8.376545e+00 -5.258248e+00 -4.069159e+00 -1.647061e+00 -4.581620e+00 -4.754260e-02 -3.237836e-02 -9.692679e-02 -6.560709e-01 1.768942e-01 6.832518e-01 8.480485e-02 -1.777579e-01 6.032435e-02 -4.599211e-02 2.694769e-02 -2.496553e-01 4.805356e-02
<VARIANCE> 25
 3.192953e+01 7.140027e+01 1.130959e+02 8.885972e+01 1.078685e+02 7.588799e+01 6.794127e+01 1.044276e+02 6.474012e+01 2.751722e+01 3.281007e+01 2.716610e+01 1.034729e+00 2.592545e+00 3.495107e+00 6.385422e+00 5.011459e+00 3.886016e+00 4.299920e+00 4.222057e+00 3.664143e+00 1.769512e+00 3.285904e+00 2.610255e+00 3.416595e+00
<GCONST> 1.102565e+02
<STATE> 4
<MEAN> 25
 1.002975e+01 -3.516310e+00 -6.946780e+00 -8.181392e+00 -1.735427e+00 3.248749e+00 -4.359231e+00 -1.036196e+01 -4.616316e+00 -4.859205e+00 -2.465424e+00 -6.316481e+00 -2.319875e-01 2.783875e-01 -7.238596e-03 1.249082e-01 7.732077e-01 5.494881e-02 2.955666e-01 4.488793e-01 2.657597e-01 -7.746590e-02 -1.915074e-01 7.086180e-02 -6.555390e-01
<VARIANCE> 25
 2.356731e+01 9.621470e+01 1.307343e+02 4.573660e+01 6.487702e+01 2.952616e+01 6.752076e+01 4.846771e+01 5.049852e+01 2.588639e+01 2.339292e+01 2.182490e+01 7.262539e-01 1.784905e+00 2.445115e+00 4.072839e+00 4.885628e+00 2.956582e+00 5.545442e+00 3.218361e+00 2.435992e+00 2.295377e+00 2.558360e+00 1.861259e+00 2.289165e+00
<GCONST> 1.036519e+02
<TRANSP> 5
 0.000000e+00 1.000000e+00 0.000000e+00 0.000000e+00 0.000000e+00
 0.000000e+00 9.101700e-01 8.982997e-02 0.000000e+00 0.000000e+00
 0.000000e+00 0.000000e+00 8.797292e-01 1.202708e-01 0.000000e+00
 0.000000e+00 0.000000e+00 0.000000e+00 8.723797e-01 1.276203e-01
 0.000000e+00 0.000000e+00 0.000000e+00 0.000000e+00 0.000000e+00
<ENDHMM>
~h "\340\262\263\340\263\215"
<BEGINHMM>
<NUMSTATES> 5
<STATE> 2
<MEAN> 25
 7.055536e+00 -4.885716e+00 3.450168e-01 -5.076951e-02 -7.025996e+00 -9.104780e+00 -7.762449e+00 -9.684502e-01 -3.573227e+00 -4.359298e+00 -1.495109e+00 -4.338466e+00 2.377707e-02 2.168203e-01 3.686687e-01 2.156518e-01 3.193651e-03 -4.136794e-01 -2.319736e-01 -2.870078e-01 -2.205298e-01 -1.893442e-01 1.298336e-01 5.479991e-02 -7.408888e-02
<VARIANCE> 25
 2.821603e+01 5.397727e+01 7.233298e+01 5.300763e+01 7.420228e+01 9.595060e+01 7.788072e+01 7.796078e+01 5.767120e+01 5.832899e+01 4.571451e+01 2.991585e+01 1.395375e+00 3.538136e+00 3.366447e+00 3.929874e+00 6.418666e+00 7.694111e+00 5.888784e+00 5.754425e+00 4.469136e+00 6.700904e+00 3.969795e+00 2.976460e+00 2.792195e+00
<GCONST> 1.129484e+02
<STATE> 3
<MEAN> 25
 6.830260e+00 -3.491730e+00 1.112776e+00 -8.063651e-01 -6.949285e+00 -8.599604e+00 -7.863522e+00 -2.960892e+00 -4.155134e+00 -4.327113e+00 -9.692318e-01 -4.164818e+00 -8.764168e-02 3.466611e-01 1.301938e-01 -2.371666e-01 1.340883e-02 3.543895e-01 1.918384e-01 -3.867871e-01 -1.244023e-01 6.421608e-02 5.954742e-02 3.490723e-02 -2.188653e-01
<VARIANCE> 25
 2.611607e+01 4.916593e+01 7.343092e+01 5.855457e+01 7.530708e+01 1.057517e+02 8.396013e+01 7.513943e+01 5.832298e+01 6.379084e+01 4.673097e+01 2.767525e+01 9.873066e-01 2.743781e+00 3.037573e+00 3.877465e+00 5.407097e+00 6.551818e+00 5.671309e+00 4.662211e+00 4.299202e+00 6.201622e+00 3.957219e+00 2.381561e+00 2.120449e+00
<GCONST> 1.111732e+02
<STATE> 4
<MEAN> 25
 6.227479e+00 -1.262684e+00 9.549473e-01 -2.297682e+00 -6.325274e+00 -4.758834e+00 -5.017854e+00 -4.294605e+00 -4.639536e+00 -4.276402e+00 -7.513183e-01 -3.873755e+00 -2.825771e-01 3.144861e-01 -5.934795e-04 -1.353914e-01 2.180862e-01 6.061590e-01 4.624824e-01 -8.311992e-03 7.297900e-02 8.136953e-02 -8.988417e-02 2.050019e-01 -4.724116e-01
<VARIANCE> 25
 2.736817e+01 4.456244e+01 6.805959e+01 5.580310e+01 7.773353e+01 1.029783e+02 7.914506e+01 6.593963e+01 5.259828e+01 5.963549e+01 4.273586e+01 2.706948e+01 1.113358e+00 1.944311e+00 2.382751e+00 3.436706e+00 3.905522e+00 4.801277e+00 4.396730e+00 3.472459e+00 3.508934e+00 4.467972e+00 3.362591e+00 2.242083e+00 1.787432e+00
<GCONST> 1.078328e+02
<TRANSP> 5
 0.000000e+00 1.000000e+00 0.000000e+00 0.000000e+00 0.000000e+00
 0.000000e+00 7.995892e-01 2.004108e-01 0.000000e+00 0.000000e+00
 0.000000e+00 0.000000e+00 7.678325e-01 2.321674e-01 0.000000e+00
 0.000000e+00 0.000000e+00 0.000000e+00 7.774590e-01 2.225410e-01
 0.000000e+00 0.000000e+00 0.000000e+00 0.000000e+00 0.000000e+00
<ENDHMM>
~h "\340\262\232\340\263\215"
<BEGINHMM>
<NUMSTATES> 5
<STATE> 2
<MEAN> 25
 -5.669872e+00 2.605805e+00 1.835512e-01 4.758661e+00 4.578440e+00 2.437446e+00 4.883101e+00 2.842351e+00 3.926318e+00 3.508052e+00 3.611370e+00 3.366927e+00 -5.335699e-01 8.215240e-02 1.744589e-02 -5.722137e-02 1.102102e-01 6.965182e-02 6.141292e-02 1.331972e-01 1.694434e-01 1.846646e-01 2.353535e-01 1.154709e-01 -1.244224e-01
<VARIANCE> 25
 3.181661e+01 1.311905e+01 2.286040e+01 2.203041e+01 1.949069e+01 2.337543e+01 2.261206e+01 2.340552e+01 1.939219e+01 2.116965e+01 1.985308e+01 1.664916e+01 3.565045e+00 1.080402e+00 1.524451e+00 2.049714e+00 1.907409e+00 1.997245e+00 1.803162e+00 1.505852e+00 1.720652e+00 1.763712e+00 1.788251e+00 1.600136e+00 2.107598e+00
<GCONST> 9.014529e+01
<STATE> 3
<MEAN> 25
 -7.966766e+00 2.232725e+00 1.280120e+00 3.261567e+00 3.889776e+00 1.748069e+00 3.983308e+00 2.588059e+00 3.588742e+00 2.900335e+00 3.478726e+00 3.283256e+00 -6.301587e-01 -2.255760e-02 1.753263e-01 -3.070312e-01 -8.555664e-03 -1.071469e-02 -3.196449e-02 1.191659e-01 3.116053e-03 -1.013701e-01 7.771383e-02 8.767508e-02 3.973455e-01
<VARIANCE> 25
 5.959375e+01 1.805576e+01 2.546663e+01 3.780083e+01 1.937511e+01 2.356871e+01 2.490975e+01 2.543371e+01 1.954827e+01 2.736630e+01 2.194930e+01 1.717411e+01 7.047515e+00 1.389637e+00 1.731100e+00 2.791838e+00 1.723587e+00 2.071666e+00 1.896962e+00 1.887270e+00 1.865993e+00 1.784249e+00 1.758190e+00 1.686639e+00 3.108385e+00
<GCONST> 9.441647e+01
<STATE> 4
<MEAN> 25
 -1.078661e+01 8.535236e-01 3.708367e+00 -1.342017e+00 1.842056e+00 -5.276408e-01 1.816285e+00 1.947050e+00 1.645400e+00 6.872661e-01 2.085609e+00 2.317602e+00 9.667630e-01 -1.348560e-01 1.491972e-01 -3.537300e-01 -6.667995e-01 -6.149658e-01 -4.536734e-01 -2.000858e-01 -4.605490e-01 -2.687285e-01 -5.589526e-01 -2.607913e-01 9.476814e-01
<VARIANCE> 25
 1.002957e+02 2.840363e+01 4.073859e+01 5.573456e+01 3.288955e+01 3.524794e+01 3.127590e+01 3.008163e+01 2.613153e+01 3.332670e+01 2.795123e+01 1.934991e+01 1.485542e+01 2.764470e+00 3.287618e+00 3.750638e+00 2.941093e+00 3.350092e+00 2.446815e+00 3.011721e+00 2.514710e+00 1.929018e+00 2.018980e+00 1.716776e+00 4.387496e+00
<GCONST> 1.034076e+02
<TRANSP> 5
 0.000000e+00 1.000000e+00 0.000000e+00 0.000000e+00 0.000000e+00
 0.000000e+00 8.173377e-01 1.826623e-01 0.000000e+00 0.000000e+00
 0.000000e+00 0.000000e+00 7.246593e-01 2.753407e-01 0.000000e+00
 0.000000e+00 0.000000e+00 0.000000e+00 8.334434e-01 1.665567e-01
 0.000000e+00 0.000000e+00 0.000000e+00 0.000000e+00 0.000000e+00
<ENDHMM>
~h "\340\262\253\340\263\215"
<BEGINHMM>
<NUMSTATES> 5
<STATE> 2
<MEAN> 25
 -5.152637e+00 3.264241e+00 -8.368562e-01 5.493708e+00 5.065904e+00 5.139192e+00 5.459253e+00 4.908732e+00 5.057471e+00 3.569221e+00 4.718192e+00 3.300511e+00 -1.824079e-01 1.936836e-02 2.044740e-01 -2.747077e-02 -1.680446e-02 -9.433121e-02 7.975158e-02 8.292675e-02 -5.894680e-02 7.367836e-02 1.776228e-01 1.975286e-01 -6.485600e-02
<VARIANCE> 25
 9.313687e+00 6.697317e+00 1.819651e+01 2.477761e+01 1.067479e+01 1.767792e+01 1.421419e+01 1.597383e+01 2.038948e+01 1.820965e+01 1.413788e+01 1.159330e+01 6.513457e-01 5.559620e-01 1.755594e+00 1.867270e+00 1.045480e+00 1.451125e+00 1.442658e+00 1.554903e+00 1.963023e+00 1.857109e+00 1.826529e+00 1.313980e+00 1.315682e+00
<GCONST> 8.171251e+01
<STATE> 3
<MEAN> 25
 -5.785700e+00 3.050339e+00 3.431453e-01 5.512883e+00 4.645525e+00 4.016721e+00 5.630829e+00 4.750421e+00 4.075226e+00 3.637264e+00 4.717693e+00 3.577150e+00 -2.077649e-01 -1.019241e-01 2.821481e-02 -1.939423e-01 1.377508e-02 -6.164631e-02 -6.071008e-02 -5.378590e-02 2.108928e-02 -3.640319e-02 -3.382771e-02 -3.026143e-02 3.147715e-01
<VARIANCE> 25
 1.829269e+01 1.734830e+01 1.559742e+01 3.554587e+01 1.132055e+01 1.934049e+01 1.634381e+01 1.722334e+01 2.531567e+01 2.128312e+01 1.456363e+01 1.098824e+01 1.334743e+00 9.464861e-01 1.356874e+00 1.966868e+00 9.769434e-01 1.585976e+00 1.582393e+00 1.492890e+00 2.663354e+00 1.516790e+00 1.383383e+00 1.181568e+00 1.368648e+00
<GCONST> 8.513274e+01
<STATE> 4
<MEAN> 25
 -6.808008e+00 -3.763524e-01 9.223366e-02 2.006109e+00 3.937303e+00 2.269332e+00 4.943323e+00 2.169455e+00 2.908451e+00 2.299202e+00 2.828277e+00 2.218100e+00 3.498158e-02 -3.035603e-01 -3.574944e-02 -2.770306e-01 -2.156210e-01 -3.956074e-01 -1.987181e-01 -1.458767e-01 -2.001045e-01 -9.365023e-02 -2.780426e-01 -9.041969e-02 8.392985e-01
<VARIANCE> 25
 5.367371e+01 4.526413e+01 1.605323e+01 6.556574e+01 1.975006e+01 3.431035e+01 2.123426e+01 3.507281e+01 3.390353e+01 2.435873e+01 2.546467e+01 1.092796e+01 5.155243e+00 2.189236e+00 1.087648e+00 3.613382e+00 1.992558e+00 3.351080e+00 1.536393e+00 2.169112e+00 3.823315e+00 2.205739e+00 1.974383e+00 9.701487e-01 2.295569e+00
<GCONST> 9.668581e+01
<TRANSP> 5
 0.000000e+00 1.000000e+00 0.000000e+00 0.000000e+00 0.000000e+00
 0.000000e+00 9.081872e-01 9.181283e-02 0.000000e+00 0.000000e+00
 0.000000e+00 0.000000e+00 8.582851e-01 1.417148e-01 0.000000e+00
 0.000000e+00 0.000000e+00 0.000000e+00 9.288447e-01 7.115534e-02
 0.000000e+00 0.000000e+00 0.000000e+00 0.000000e+00 0.000000e+00
<ENDHMM>
~h "\340\262\243\340\263\215"
<BEGINHMM>
<NUMSTATES> 5
<STATE> 2
<MEAN> 25
 5.765009e+00 -4.827148e+00 -1.980172e-01 -1.189924e-01 -4.395070e+00 -4.089937e+00 -4.383895e+00 -4.508231e-01 -2.587618e+00 -4.992366e+00 -4.442974e+00 -2.626677e+00 6.297584e-02 1.819479e-01 5.785258e-02 6.793714e-02 -8.773828e-02 -2.235585e-01 1.675123e-01 1.740010e-01 -1.459401e-01 -2.105325e-01 4.924211e-02 2.322026e-01 -2.176563e-01
<VARIANCE> 25
 4.884643e+01 8.832094e+01 5.937131e+01 4.525373e+01 6.694226e+01 6.423240e+01 6.029808e+01 4.367240e+01 4.145437e+01 6.105547e+01 4.932824e+01 4.553216e+01 1.862865e+00 3.613459e+00 2.552344e+00 1.835305e+00 3.154301e+00 3.820588e+00 3.368710e+00 3.069178e+00 3.180200e+00 2.501614e+00 2.421771e+00 2.290334e+00 2.122659e+00
<GCONST> 1.068242e+02
<STATE> 3
<MEAN> 25
 6.011623e+00 -4.096916e+00 3.332090e-01 -3.142046e-01 -4.526012e+00 -4.491888e+00 -4.157792e+00 -3.446550e-01 -3.399318e+00 -5.168047e+00 -4.312294e+00 -2.137490e+00 -2.900051e-02 4.851933e-01 2.076998e-01 -1.343322e-01 3.528098e-02 -6.129549e-03 2.299661e-01 -1.072774e-01 -3.538891e-01 1.217982e-01 2.086008e-01 2.000192e-01 -4.215032e-01
<VARIANCE> 25
 5.039226e+01 8.588290e+01 5.977428e+01 4.470547e+01 7.107663e+01 6.934708e+01 6.270889e+01 4.308816e+01 4.528942e+01 5.915881e+01 4.740717e+01 4.027522e+01 1.683622e+00 3.787158e+00 2.673173e+00 1.913101e+00 2.986183e+00 3.700024e+00 3.149762e+00 2.876264e+00 2.916045e+00 2.528490e+00 2.409383e+00 2.199835e+00 2.006158e+00
<GCONST> 1.065154e+02
<STATE> 4
<MEAN> 25
 6.419543e+00 -1.636470e+00 1.112960e+00 -4.753444e-01 -4.150384e+00 -4.498325e+00 -3.884679e+00 -1.242739e+00 -4.627528e+00 -5.728360e+00 -4.357043e+00 -1.820808e+00 -2.605135e-01 5.620613e-01 1.877191e-01 -1.554025e-01 1.068074e-01 2.870445e-01 2.042233e-01 -2.825896e-01 -1.349473e-01 2.728691e-01 3.484956e-01 8.402353e-02 -5.422657e-01
<VARIANCE> 25
 4.744917e+01 7.616337e+01 5.957869e+01 4.751947e+01 7.023553e+01 7.449130e+01 6.505013e+01 4.443864e+01 4.801701e+01 5.407561e+01 4.793903e+01 3.594481e+01 1.526583e+00 3.218704e+00 2.441731e+00 2.610941e+00 3.156319e+00 3.950114e+00 2.739142e+00 2.759617e+00 2.805921e+00 2.521889e+00 2.967837e+00 2.176056e+00 2.017386e+00
<GCONST> 1.064478e+02
<TRANSP> 5
 0.000000e+00 1.000000e+00 0.000000e+00 0.000000e+00 0.000000e+00
 0.000000e+00 4.361977e-01 5.638023e-01 0.000000e+00 0.000000e+00
 0.000000e+00 0.000000e+00 4.551041e-01 5.448959e-01 0.000000e+00
 0.000000e+00 0.000000e+00 0.000000e+00 5.988473e-01 4.011527e-01
 0.000000e+00 0.000000e+00 0.000000e+00 0.000000e+00 0.000000e+00
<ENDHMM>
~h "\340\262\233\340\263\215"
<BEGINHMM>
<NUMSTATES> 5
<STATE> 2
<MEAN> 25
 3.741293e+00 -2.193462e+00 -8.018476e+00 -2.730212e+00 1.598888e+00 1.403777e+00 -2.062128e+00 -7.867861e+00 -1.448568e+00 -1.633997e+00 -1.312816e+01 -2.074439e+00 -2.762913e-01 6.183204e-01 6.363910e-01 3.109048e-01 1.582469e-01 2.766887e-01 5.363605e-02 -5.657814e-01 1.854541e-01 1.728940e-01 -2.739589e-01 3.528854e-01 -8.714756e-01
<VARIANCE> 25
 2.541658e+01 3.928109e+01 1.060040e+02 3.946014e+01 3.974726e+01 2.153008e+01 2.590292e+01 4.290856e+01 2.912088e+01 1.732816e+01 1.040438e+02 1.866531e+01 1.170095e+00 1.715988e+00 1.438161e+00 1.599348e+00 1.817634e+00 2.786116e+00 1.434335e+00 3.184481e+00 1.690583e+00 1.019810e+00 2.783503e+00 2.468679e+00 1.436662e+00
<GCONST> 9.625813e+01
<STATE> 3
<MEAN> 25
 1.098361e+00 1.021997e+00 -1.015155e+00 1.294759e+00 2.627501e+00 2.558462e+00 -8.105339e-01 -4.479408e+00 3.750449e-02 -7.348302e-02 -5.664648e+00 -1.472543e+00 -3.056227e-01 -4.893409e-02 6.113721e-02 2.973391e-01 -6.137756e-02 5.362245e-01 9.964144e-03 6.741480e-01 4.315486e-01 2.674225e-01 6.176758e-01 4.051796e-01 -5.630727e-01
<VARIANCE> 25
 5.001720e+01 1.181058e+01 6.732698e+01 3.533292e+01 6.683753e+01 3.741264e+01 4.389354e+01 4.849580e+01 4.026895e+01 2.410056e+01 1.074744e+02 2.075791e+01 1.952856e+00 1.202095e+00 2.309780e+00 1.164240e+00 1.111410e+00 2.882428e+00 1.864908e+00 2.837389e+00 1.996606e+00 1.182894e+00 4.059492e+00 2.104409e+00 2.567546e+00
<GCONST> 9.879857e+01
<STATE> 4
<MEAN> 25
 -6.258878e+00 1.954654e+00 1.190273e+00 4.343673e+00 4.103275e+00 2.877924e+00 3.032335e+00 3.143557e+00 3.051407e+00 2.341697e+00 4.543497e+00 2.369156e+00 -2.192509e-01 -3.032246e-02 1.600128e-01 -1.641534e-01 -1.765200e-01 -9.128798e-02 -7.146142e-02 -3.732391e-02 -1.679961e-01 -3.909529e-02 -4.503593e-02 -1.844439e-02 4.390911e-01
<VARIANCE> 25
 4.390829e+01 1.235257e+01 1.942141e+01 4.223330e+01 2.715111e+01 1.718805e+01 3.385054e+01 1.981049e+01 2.683986e+01 1.855045e+01 2.831390e+01 1.708121e+01 1.838130e+00 8.705285e-01 1.024336e+00 1.832253e+00 9.453712e-01 1.370449e+00 2.944587e+00 1.656901e+00 1.309678e+00 1.703466e+00 2.040220e+00 1.777593e+00 2.792079e+00
<GCONST> 9.005913e+01
<TRANSP> 5
 0.000000e+00 1.000000e+00 0.000000e+00 0.000000e+00 0.000000e+00
 0.000000e+00 7.409749e-01 2.590251e-01 0.000000e+00 0.000000e+00
 0.000000e+00 0.000000e+00 6.382685e-01 3.617315e-01 0.000000e+00
 0.000000e+00 0.000000e+00 0.000000e+00 9.500366e-01 4.996341e-02
 0.000000e+00 0.000000e+00 0.000000e+00 0.000000e+00 0.000000e+00
<ENDHMM>
~h "\340\262\254\340\263\215"
<BEGINHMM>
<NUMSTATES> 5
<STATE> 2
<MEAN> 25
 6.252274e+00 -1.646702e+00 2.679912e+00 -2.616905e+00 -3.566096e+00 -2.152889e+00 -6.054944e+00 -4.543788e+00 -6.193660e+00 -2.824423e+00 -1.806458e+00 -3.735343e+00 1.984569e-01 -1.060806e-01 1.819005e-01 4.550894e-02 -6.218471e-02 2.368614e-02 -2.115441e-01 -8.883347e-02 1.657392e-03 -1.351108e-01 -2.086235e-01 -2.075907e-01 3.103371e-01
<VARIANCE> 25
 2.883394e+01 6.554800e+01 8.529576e+01 7.107384e+01 9.197442e+01 7.490387e+01 6.452807e+01 7.232291e+01 6.665826e+01 4.406164e+01 4.910460e+01 2.976096e+01 2.410302e+00 4.473732e+00 4.109303e+00 7.337655e+00 6.388334e+00 4.188982e+00 4.795081e+00 4.746746e+00 5.247495e+00 3.915799e+00 3.103074e+00 2.724772e+00 7.171065e+00
<GCONST> 1.140832e+02
<STATE> 3
<MEAN> 25
 6.386946e+00 -6.761431e-01 2.506118e+00 -1.972920e+00 -2.297788e+00 -2.124209e+00 -6.695274e+00 -5.202667e+00 -5.135352e+00 -2.922374e+00 -2.494864e+00 -4.189198e+00 -9.187080e-02 4.562432e-03 -7.579075e-02 5.822497e-02 6.851581e-02 -1.776900e-02 6.583378e-02 1.231311e-01 2.960588e-01 4.502059e-02 -1.417893e-01 -4.601535e-02 -4.718456e-02
<VARIANCE> 25
 2.855962e+01 5.180720e+01 9.021530e+01 7.116953e+01 8.615762e+01 8.040036e+01 7.608382e+01 6.507373e+01 6.951231e+01 4.812623e+01 4.545646e+01 3.201974e+01 2.000331e+00 4.050996e+00 4.128724e+00 6.789647e+00 5.676183e+00 4.566120e+00 5.358419e+00 4.465616e+00 4.746998e+00 4.220015e+00 3.211201e+00 2.876528e+00 5.583359e+00
<GCONST> 1.135587e+02
<STATE> 4
<MEAN> 25
 6.392908e+00 2.601866e-01 2.120224e+00 -1.781235e+00 -2.553561e+00 -2.097912e+00 -6.375358e+00 -5.140484e+00 -4.783834e+00 -3.031839e+00 -2.328033e+00 -3.562406e+00 -1.737998e-01 -6.517526e-02 -2.662150e-01 -1.382159e-01 2.827117e-02 -1.830807e-02 1.903454e-01 1.936556e-01 3.909516e-01 1.885546e-01 -4.671417e-02 1.381956e-01 -9.683812e-02
<VARIANCE> 25
 3.108496e+01 4.635760e+01 7.480745e+01 7.402950e+01 9.509866e+01 7.392957e+01 7.153739e+01 6.686520e+01 6.975374e+01 4.563227e+01 3.884081e+01 3.228004e+01 1.949676e+00 4.016328e+00 3.315489e+00 5.883653e+00 4.894878e+00 4.224951e+00 5.407709e+00 3.813680e+00 3.981565e+00 3.779047e+00 3.013482e+00 2.698061e+00 5.170048e+00
<GCONST> 1.119040e+02
<TRANSP> 5
 0.000000e+00 1.000000e+00 0.000000e+00 0.000000e+00 0.000000e+00
 0.000000e+00 7.676029e-01 2.323971e-01 0.000000e+00 0.000000e+00
 0.000000e+00 0.000000e+00 7.175294e-01 2.824706e-01 0.000000e+00
 0.000000e+00 0.000000e+00 0.000000e+00 7.933576e-01 2.066424e-01
 0.000000e+00 0.000000e+00 0.000000e+00 0.000000e+00 0.000000e+00
<ENDHMM>
~h "\340\262\244\340\263\215"
<BEGINHMM>
<NUMSTATES> 5
<STATE> 2
<MEAN> 25
 -1.762005e+00 9.710082e-01 -1.890910e+00 1.063255e+00 1.576569e+00 -7.251393e-01 5.798063e-01 2.145194e+00 4.190096e+00 2.835396e+00 1.143947e+00 1.362699e+00 -3.473688e-01 -7.861325e-02 -2.246782e-01 -2.742332e-03 7.625055e-02 5.947114e-02 2.985180e-01 1.992610e-01 2.535030e-01 3.009529e-01 3.323407e-01 2.398743e-01 -3.058810e-01
<VARIANCE> 25
 3.525092e+01 2.428067e+01 3.001561e+01 3.774006e+01 3.873354e+01 4.792542e+01 6.411156e+01 3.957335e+01 5.246238e+01 4.244733e+01 4.226504e+01 2.845498e+01 2.175976e+00 2.189601e+00 2.130600e+00 3.173344e+00 2.606914e+00 4.111373e+00 4.488428e+00 3.225886e+00 3.785012e+00 3.877683e+00 3.356453e+00 2.389200e+00 7.896800e+00
<GCONST> 1.052489e+02
<STATE> 3
<MEAN> 25
 -1.902481e+00 5.152927e-01 -2.266136e+00 4.946895e-01 1.346169e+00 -1.250506e+00 3.251857e-01 2.090279e+00 4.159299e+00 3.201051e+00 1.360048e+00 1.541805e+00 7.769917e-02 -1.769849e-01 -1.514526e-01 -2.580028e-01 -1.357868e-01 -2.214059e-01 -2.162995e-01 -9.892549e-02 -1.359585e-01 -2.586105e-02 -4.051545e-02 -6.665163e-02 6.698452e-01
<VARIANCE> 25
 3.775647e+01 2.510895e+01 2.819983e+01 3.958662e+01 3.589563e+01 4.835705e+01 6.760992e+01 4.077674e+01 5.443214e+01 4.183416e+01 3.983485e+01 2.865491e+01 3.002480e+00 2.187312e+00 2.128542e+00 3.317770e+00 2.471436e+00 4.699912e+00 5.303925e+00 3.505988e+00 4.327335e+00 3.966774e+00 3.804773e+00 2.650714e+00 9.162336e+00
<GCONST> 1.065522e+02
<STATE> 4
<MEAN> 25
 -1.813641e+00 2.887727e-01 -2.339039e+00 1.992844e-01 1.391806e+00 -1.248137e+00 -3.718720e-01 1.832017e+00 3.747284e+00 3.346316e+00 1.369009e+00 1.199414e+00 3.541930e-01 -1.617533e-01 -1.960993e-02 -3.609215e-01 -2.811861e-01 -2.385226e-01 -4.152894e-01 -2.519053e-01 -3.912055e-01 -2.355973e-01 -2.945510e-01 -2.877259e-01 1.013914e+00
<VARIANCE> 25
 4.110886e+01 2.592072e+01 2.424099e+01 4.461449e+01 3.355680e+01 5.024702e+01 7.716226e+01 3.948694e+01 5.048083e+01 3.956993e+01 3.947056e+01 3.029617e+01 3.027076e+00 2.228019e+00 2.076862e+00 3.199440e+00 2.691357e+00 4.650260e+00 5.055999e+00 3.529576e+00 4.409311e+00 3.591334e+00 3.850121e+00 2.544359e+00 8.884875e+00
<GCONST> 1.064824e+02
<TRANSP> 5
 0.000000e+00 1.000000e+00 0.000000e+00 0.000000e+00 0.000000e+00
 0.000000e+00 5.924932e-01 4.075067e-01 0.000000e+00 0.000000e+00
 0.000000e+00 0.000000e+00 5.896441e-01 4.103560e-01 0.000000e+00
 0.000000e+00 0.000000e+00 0.000000e+00 7.429541e-01 2.570460e-01
 0.000000e+00 0.000000e+00 0.000000e+00 0.000000e+00 0.000000e+00
<ENDHMM>
~h "\340\262\265\340\263\215"
<BEGINHMM>
<NUMSTATES> 5
<STATE> 2
<MEAN> 25
 4.978977e+00 -3.609050e-01 -2.846266e+00 -5.588672e+00 -8.429135e-01 1.239653e+00 -1.556617e+00 -3.331671e+00 -2.434503e+00 2.960225e-01 1.325214e-01 -7.688559e-01 -1.258137e-01 2.596876e-01 6.148657e-02 -2.230769e-02 6.491077e-02 1.078740e-01 3.121604e-01 -6.246177e-02 1.953174e-02 -2.262811e-02 1.025963e-01 1.762035e-01 -2.980545e-01
<VARIANCE> 25
 7.512284e+01 3.944587e+01 4.088456e+01 1.041054e+02 5.601904e+01 4.750531e+01 5.077802e+01 5.224189e+01 5.576634e+01 4.437976e+01 3.680531e+01 2.577253e+01 1.670320e+00 2.180557e+00 1.805741e+00 2.891723e+00 2.858200e+00 2.386089e+00 2.599896e+00 2.566194e+00 2.771211e+00 3.254939e+00 2.767160e+00 1.704831e+00 2.132316e+00
<GCONST> 1.040070e+02
<STATE> 3
<MEAN> 25
 4.314420e+00 7.568133e-02 -2.619701e+00 -5.174536e+00 -5.464367e-01 1.406182e+00 -9.064968e-01 -3.148589e+00 -2.104783e+00 2.136723e-01 7.317847e-02 -4.574783e-01 -1.885042e-01 6.797190e-02 7.219154e-02 1.145379e-01 9.618715e-02 9.491458e-03 1.610406e-01 1.766070e-02 1.369252e-01 -9.510732e-02 -9.996934e-02 1.593014e-02 -7.715969e-02
<VARIANCE> 25
 7.970197e+01 4.133431e+01 4.056563e+01 1.068776e+02 5.584029e+01 4.791251e+01 5.136005e+01 5.280379e+01 5.230970e+01 4.149952e+01 3.437529e+01 2.463640e+01 1.492102e+00 1.972698e+00 1.664714e+00 2.623889e+00 2.491638e+00 2.177657e+00 2.461034e+00 2.241999e+00 2.516641e+00 2.810313e+00 2.401915e+00 1.600262e+00 1.940236e+00
<GCONST> 1.025618e+02
<STATE> 4
<MEAN> 25
 2.799440e+00 1.030041e+00 -2.553593e+00 -3.676224e+00 6.246828e-01 2.102861e+00 3.208431e-01 -1.813261e+00 -9.197704e-01 2.431189e-01 2.786967e-01 2.513177e-01 -1.098777e-01 -7.351253e-02 4.294729e-02 2.144848e-01 7.350026e-02 -9.968727e-02 3.118187e-02 2.060717e-02 1.320120e-01 -1.336145e-01 -1.687156e-01 -1.583275e-01 6.914193e-02
<VARIANCE> 25
 7.885955e+01 3.957443e+01 3.487792e+01 1.136353e+02 5.205989e+01 4.187764e+01 5.149886e+01 5.055543e+01 4.800084e+01 4.005014e+01 3.283196e+01 2.617338e+01 1.279375e+00 1.633523e+00 1.435893e+00 2.262387e+00 2.027547e+00 2.027872e+00 2.283522e+00 1.864853e+00 2.146501e+00 2.315930e+00 1.987518e+00 1.539951e+00 1.661275e+00
<GCONST> 1.001548e+02
<TRANSP> 5
 0.000000e+00 1.000000e+00 0.000000e+00 0.000000e+00 0.000000e+00
 0.000000e+00 4.934192e-01 5.065808e-01 0.000000e+00 0.000000e+00
 0.000000e+00 0.000000e+00 4.928187e-01 5.071813e-01 0.000000e+00
 0.000000e+00 0.000000e+00 0.000000e+00 6.937754e-01 3.062246e-01
