~o
<STREAMINFO> 1 25
<VECSIZE> 25<NULLD><MFCC_D_N_Z_0><DIAGC>
~s "silst"
<MEAN> 25
 -7.006294e+00 4.020690e+00 -7.654385e-01 3.406445e+00 6.035350e+00 4.726902e+00 3.333897e+00 5.906744e+00 3.749363e+00 4.870452e+00 4.207222e+00 3.734053e+00 -6.550496e-03 6.692854e-03 1.469300e-02 2.000936e-02 1.293443e-02 -1.761401e-03 -1.052482e-02 -6.345495e-03 -9.155212e-03 -8.802452e-03 3.978599e-04 3.501407e-03 -3.632601e-03
<VARIANCE> 25
 2.939399e+00 2.674904e+00 3.777847e+00 5.002763e+00 6.719429e+00 7.219388e+00 8.408218e+00 1.051947e+01 9.413335e+00 9.871519e+00 9.759772e+00 8.939705e+00 8.706464e-02 1.709385e-01 2.957326e-01 4.210558e-01 5.611617e-01 6.844816e-01 8.088233e-01 9.078882e-01 9.574237e-01 9.929801e-01 9.677928e-01 8.874524e-01 6.991479e-02
<GCONST> 5.789329e+01
~h "sp"
<BEGINHMM>
<NUMSTATES> 3
<STATE> 2
~s "silst"
<TRANSP> 3
 0.000000e+00 5.744362e-01 4.255638e-01
 0.000000e+00 9.680118e-01 3.198823e-02
 0.000000e+00 0.000000e+00 0.000000e+00
<ENDHMM>
~h "\340\262\236\340\263\215"
<BEGINHMM>
<NUMSTATES> 5
<STATE> 2
<MEAN> 25
 3.363246e-09 -5.073974e-09 -2.667070e-08 -7.742742e-09 -4.152962e-08 5.464628e-08 -2.856819e-08 -3.137197e-08 -1.315223e-08 -1.457514e-08 1.178106e-08 -4.705634e-08 -5.036812e-04 -4.192874e-04 1.220702e-04 -4.396494e-04 -3.006390e-04 7.270148e-05 1.006791e-04 -4.520885e-04 -6.791297e-04 -7.117605e-04 -2.317067e-04 -1.422502e-04 3.583877e-03
<VARIANCE> 25
 7.771582e+01 4.669402e+01 4.885701e+01 4.639305e+01 7.525224e+01 6.131878e+01 4.945510e+01 6.535645e+01 4.383388e+01 5.195151e+01 3.898161e+01 3.388782e+01 2.163800e+00 2.160548e+00 2.178321e+00 2.195785e+00 3.386122e+00 2.583580e+00 2.687976e+00 2.741140e+00 2.512795e+00 2.406658e+00 2.020564e+00 1.918339e+00 2.693773e+00
<GCONST> 1.047231e+02
<STATE> 3
<MEAN> 25
 3.363246e-09 -5.073974e-09 -2.667070e-08 -7.742742e-09 -4.152962e-08 5.464628e-08 -2.856819e-08 -3.137197e-08 -1.315223e-08 -1.457514e-08 1.178106e-08 -4.705634e-08 -5.036812e-04 -4.192874e-04 1.220702e-04 -4.396494e-04 -3.006390e-04 7.270148e-05 1.006791e-04 -4.520885e-04 -6.791297e-04 -7.117605e-04 -2.317067e-04 -1.422502e-04 3.583877e-03
<VARIANCE> 25
 7.771582e+01 4.669402e+01 4.885701e+01 4.639305e+01 7.525224e+01 6.131878e+01 4.945510e+01 6.535645e+01 4.383388e+01 5.195151e+01 3.898161e+01 3.388782e+01 2.163800e+00 2.160548e+00 2.178321e+00 2.195785e+00 3.386122e+00 2.583580e+00 2.687976e+00 2.741140e+00 2.512795e+00 2.406658e+00 2.020564e+00 1.918339e+00 2.693773e+00
<GCONST> 1.047231e+02
<STATE> 4
<MEAN> 25
 3.363246e-09 -5.073974e-09 -2.667070e-08 -7.742742e-09 -4.152962e-08 5.464628e-08 -2.856819e-08 -3.137197e-08 -1.315223e-08 -1.457514e-08 1.178106e-08 -4.705634e-08 -5.036812e-04 -4.192874e-04 1.220702e-04 -4.396494e-04 -3.006390e-04 7.270148e-05 1.006791e-04 -4.520885e-04 -6.791297e-04 -7.117605e-04 -2.317067e-04 -1.422502e-04 3.583877e-03
<VARIANCE> 25
 7.771582e+01 4.669402e+01 4.885701e+01 4.639305e+01 7.525224e+01 6.131878e+01 4.945510e+01 6.535645e+01 4.383388e+01 5.195151e+01 3.898161e+01 3.388782e+01 2.163800e+00 2.160548e+00 2.178321e+00 2.195785e+00 3.386122e+00 2.583580e+00 2.687976e+00 2.741140e+00 2.512795e+00 2.406658e+00 2.020564e+00 1.918339e+00 2.693773e+00
<GCONST> 1.047231e+02
<TRANSP> 5
 0.000000e+00 1.000000e+00 0.000000e+00 0.000000e+00 0.000000e+00
 0.000000e+00 6.000000e-01 4.000000e-01 0.000000e+00 0.000000e+00
 0.000000e+00 0.000000e+00 6.000000e-01 4.000000e-01 0.000000e+00
 0.000000e+00 0.000000e+00 0.000000e+00 7.000000e-01 3.000000e-01
 0.000000e+00 0.000000e+00 0.000000e+00 0.000000e+00 0.000000e+00
<ENDHMM>
~h "\340\262\257\340\263\215"
<BEGINHMM>
<NUMSTATES> 5
<STATE> 2
<MEAN> 25
 -4.179785e-01 -2.865618e-01 8.757777e+00 1.129192e+00 -5.857512e+00 -5.210510e+00 -2.120435e+00 -2.433077e+00 -4.591487e+00 -5.559307e+00 -1.539306e+00 -2.240150e+00 1.082716e+00 -4.416153e-01 5.926812e-01 2.950115e-01 -1.826165e+00 -1.262577e+00 -6.169177e-01 -6.981776e-01 -1.944052e-01 -1.220524e+00 -1.571818e-01 4.347879e-01 1.407870e+00
<VARIANCE> 25
 6.435989e+01 4.724655e+01 6.081501e+01 5.652822e+01 8.969585e+01 5.707299e+01 3.427731e+01 4.738104e+01 4.088037e+01 3.954519e+01 3.207602e+01 2.508600e+01 6.636700e+00 4.122408e+00 5.347628e+00 5.018909e+00 6.034721e+00 4.560659e+00 3.545442e+00 3.727664e+00 3.558588e+00 3.448260e+00 2.581079e+00 3.224409e+00 4.177199e+00
<GCONST> 1.106725e+02
<STATE> 3
<MEAN> 25
 5.321019e+00 -4.446679e+00 9.179247e+00 3.654102e+00 -1.584299e+01 -1.326060e+01 -4.692846e+00 -6.441256e+00 -1.847770e+00 -1.032267e+01 -1.387359e+00 2.329258e+00 6.851754e-01 -1.637955e+00 -2.013132e+00 -3.107996e-01 2.241892e-01 -1.315162e+00 -1.215289e+00 1.109176e+00 2.137190e+00 5.026547e-01 -5.407354e-02 4.428110e-01 9.375423e-01
<VARIANCE> 25
 9.881195e+00 2.944829e+01 3.751961e+01 2.792072e+01 3.491795e+01 4.500442e+01 4.120575e+01 3.574125e+01 3.759652e+01 2.345455e+01 2.592393e+01 1.537887e+01 1.085051e+00 2.285867e+00 4.345132e+00 2.252641e+00 4.278338e+00 3.998415e+00 2.869009e+00 4.327136e+00 4.026600e+00 3.226488e+00 2.111986e+00 2.422974e+00 9.012493e-01
<GCONST> 9.864004e+01
<STATE> 4
<MEAN> 25
 7.082935e+00 -8.707127e+00 1.390628e+00 6.729889e-01 -1.123328e+01 -1.355909e+01 -7.597655e+00 -2.800142e+00 3.096501e+00 -6.143752e+00 -2.966202e+00 3.655677e-01 1.405461e-01 -1.747328e-01 -9.163967e-01 -6.144263e-01 1.004709e+00 7.021122e-01 1.546250e-02 2.335844e-01 2.308405e-01 8.333575e-01 -3.538338e-01 -7.559049e-01 -8.832422e-02
<VARIANCE> 25
 1.170669e+01 3.588199e+01 4.726745e+01 3.579754e+01 5.337704e+01 5.573579e+01 5.663784e+01 3.914873e+01 4.035953e+01 3.931070e+01 2.823044e+01 2.717897e+01 5.700399e-01 2.125731e+00 4.243144e+00 3.037358e+00 3.736988e+00 3.979493e+00 2.902372e+00 2.955576e+00 3.438054e+00 3.392601e+00 2.706024e+00 3.118160e+00 1.411578e+00
<GCONST> 1.016662e+02
<TRANSP> 5
 0.000000e+00 1.000000e+00 0.000000e+00 0.000000e+00 0.000000e+00
 0.000000e+00 6.374090e-01 3.625910e-01 0.000000e+00 0.000000e+00
 0.000000e+00 0.000000e+00 6.692016e-01 3.307984e-01 0.000000e+00
 0.000000e+00 0.000000e+00 0.000000e+00 8.190629e-01 1.809371e-01
 0.000000e+00 0.000000e+00 0.000000e+00 0.000000e+00 0.000000e+00
<ENDHMM>
~h "\340\262\226\340\263\215"
<BEGINHMM>
<NUMSTATES> 5
<STATE> 2
<MEAN> 25
 -5.806726e+00 2.722432e+00 5.575588e-01 1.363267e+00 5.266929e+00 3.270378e+00 2.712960e+00 4.858474e+00 2.158457e+00 2.485902e+00 2.588147e+00 2.071748e+00 -1.085244e+00 -3.432995e-01 8.741627e-01 -3.454384e-01 5.798000e-01 -2.857224e-01 -2.000043e-01 6.986988e-01 2.183319e-01 1.048419e-01 5.745088e-01 4.371106e-01 4.633680e-03
<VARIANCE> 25
 1.226727e+01 1.134999e+01 2.806605e+01 2.846469e+01 2.367049e+01 1.842093e+01 1.489391e+01 2.065684e+01 1.599833e+01 1.376849e+01 1.888661e+01 1.983389e+01 1.588171e+00 1.694973e+00 3.222325e+00 3.528305e+00 3.273775e+00 1.733092e+00 1.894154e+00 3.136326e+00 1.503504e+00 1.680403e+00 1.895032e+00 1.708819e+00 1.542560e+00
<GCONST> 9.016788e+01
<STATE> 3
<MEAN> 25
 -9.048629e+00 1.537973e+00 4.941823e+00 -5.507418e-01 6.090114e+00 1.954350e+00 7.330115e-01 7.129695e+00 2.410604e+00 1.477823e+00 3.440573e+00 3.028451e+00 6.786949e-01 7.488248e-01 -1.396413e+00 9.833300e-01 -3.452431e-01 6.058986e-01 3.396649e-01 -8.197671e-01 -9.167288e-02 3.444436e-01 1.650690e-01 9.030490e-02 -9.223921e-01
<VARIANCE> 25
 2.228095e+01 1.994304e+01 4.703754e+01 4.286015e+01 3.072112e+01 2.592625e+01 1.612379e+01 3.208461e+01 2.131768e+01 1.568900e+01 1.161518e+01 1.630521e+01 1.899065e+00 1.522725e+00 4.009757e+00 3.876507e+00 2.251151e+00 2.156287e+00 1.878589e+00 2.910877e+00 1.708708e+00 1.662889e+00 1.549178e+00 1.326743e+00 1.035864e+00
<GCONST> 9.252191e+01
<STATE> 4
<MEAN> 25
 -5.787192e+00 4.208212e+00 -2.274865e-01 3.673602e+00 5.307413e+00 3.722355e+00 2.643795e+00 4.236788e+00 3.626685e+00 3.549237e+00 3.577274e+00 3.515845e+00 1.099098e-02 -1.891934e-02 1.378002e-02 1.468306e-02 -2.872669e-02 -1.701299e-02 -1.412208e-02 2.426576e-03 1.668080e-03 2.028564e-03 1.104671e-02 -1.045579e-02 1.835843e-02
<VARIANCE> 25
 2.222008e+00 4.727571e+00 6.221000e+00 6.457437e+00 8.027714e+00 6.965067e+00 8.629656e+00 9.454639e+00 9.163987e+00 9.431359e+00 9.542119e+00 9.118971e+00 1.721425e-01 4.394722e-01 5.935552e-01 6.300713e-01 8.557683e-01 7.488589e-01 9.157379e-01 9.838374e-01 9.649724e-01 1.029228e+00 1.009488e+00 9.235653e-01 2.853807e-01
<GCONST> 6.389754e+01
<TRANSP> 5
 0.000000e+00 1.000000e+00 0.000000e+00 0.000000e+00 0.000000e+00
 0.000000e+00 7.450975e-01 2.549025e-01 0.000000e+00 0.000000e+00
 0.000000e+00 0.000000e+00 5.649542e-01 4.350459e-01 0.000000e+00
 0.000000e+00 0.000000e+00 0.000000e+00 9.718384e-01 2.816167e-02
 0.000000e+00 0.000000e+00 0.000000e+00 0.000000e+00 0.000000e+00
<ENDHMM>
~h "\340\262\247\340\263\215"
<BEGINHMM>
<NUMSTATES> 5
<STATE> 2
<MEAN> 25
 5.707808e+00 3.552826e+00 5.439049e+00 5.128514e+00 3.101352e+00 -2.419460e+00 -7.794556e+00 -4.459073e+00 -1.264583e+00 -1.399830e+00 -3.927246e+00 -7.294516e+00 -1.788149e-01 1.986228e+00 1.517565e+00 1.847718e+00 1.542674e+00 1.158514e+00 1.188441e+00 1.296793e+00 -5.144836e-01 -4.594341e-02 -8.938699e-01 -5.176566e-01 -2.202604e+00
<VARIANCE> 25
 2.970855e+01 4.097891e+01 3.813312e+01 3.272454e+01 2.573063e+01 4.344639e+01 4.103864e+01 7.739249e+01 3.465583e+01 3.671275e+01 2.506913e+01 2.301716e+01 2.481057e+00 3.743584e+00 3.449803e+00 2.924051e+00 3.664787e+00 4.625177e+00 4.896883e+00 5.320059e+00 3.237216e+00 3.717699e+00 1.975873e+00 2.038891e+00 4.903693e+00
<GCONST> 1.048713e+02
<STATE> 3
<MEAN> 25
 2.745260e+00 9.972952e+00 7.917605e+00 8.715705e+00 6.765958e+00 7.603489e-01 -2.258409e+00 -1.143537e-01 -2.046556e+00 -1.798997e+00 -5.102963e+00 -6.757823e+00 -1.782208e+00 -7.596457e-01 -1.171988e+00 -1.251451e+00 1.907598e-01 -7.348593e-02 6.302995e-01 5.580552e-01 2.183370e-01 1.561426e-01 7.060919e-01 8.155984e-01 1.088942e+00
<VARIANCE> 25
 2.195465e+01 2.580366e+01 2.471681e+01 2.813614e+01 1.926137e+01 3.625747e+01 2.036758e+01 2.249564e+01 1.813972e+01 3.407836e+01 1.565271e+01 1.391346e+01 2.903245e+00 3.108247e+00 3.030496e+00 3.280907e+00 2.582621e+00 3.034202e+00 2.022671e+00 2.738697e+00 2.607781e+00 3.820581e+00 2.126454e+00 1.667318e+00 4.795580e+00
<GCONST> 9.671689e+01
<STATE> 4
<MEAN> 25
 -3.210994e+00 6.466327e-01 2.129350e+00 -1.303613e+00 2.653548e+00 -3.642138e+00 -1.864618e+00 1.815185e+00 1.710097e-01 -4.476631e-01 -1.208200e+00 -3.949063e+00 4.141815e-01 -1.405826e+00 -1.501230e-01 -1.106536e+00 -1.770609e+00 -1.519214e+00 -4.004281e-01 -5.276883e-01 7.143730e-01 4.711925e-01 3.198963e-01 -2.652374e-02 2.359290e+00
<VARIANCE> 25
 2.275317e+01 1.557696e+01 3.657172e+01 2.006546e+01 2.419634e+01 2.128734e+01 2.873767e+01 2.073541e+01 2.998638e+01 2.175983e+01 1.406388e+01 1.818257e+01 3.134851e+00 2.945030e+00 5.067128e+00 3.742147e+00 2.586870e+00 4.883402e+00 3.657210e+00 3.095622e+00 5.061180e+00 3.260997e+00 2.441967e+00 2.562886e+00 4.958252e+00
<GCONST> 9.944166e+01
<TRANSP> 5
 0.000000e+00 1.000000e+00 0.000000e+00 0.000000e+00 0.000000e+00
 0.000000e+00 7.250876e-01 2.749124e-01 0.000000e+00 0.000000e+00
 0.000000e+00 0.000000e+00 7.149921e-01 2.850079e-01 0.000000e+00
 0.000000e+00 0.000000e+00 0.000000e+00 6.501930e-01 3.498069e-01
 0.000000e+00 0.000000e+00 0.000000e+00 0.000000e+00 0.000000e+00
<ENDHMM>
~h "\340\262\270\340\263\215"
<BEGINHMM>
<NUMSTATES> 5
<STATE> 2
<MEAN> 25
 5.888703e-01 1.134768e+00 3.325722e+00 -5.815421e-02 -9.337649e-01 -5.823743e+00 -4.775661e+00 -2.852438e+00 -3.063596e+00 -3.992209e+00 -1.054004e+00 -2.699326e+00 -2.059188e+00 4.769698e-01 5.051511e-02 -5.937600e-01 1.510702e+00 -1.378079e-01 -2.547265e-01 1.023454e+00 1.592607e-01 1.859799e-01 -7.013634e-02 -5.040120e-02 6.735909e-01
<VARIANCE> 25
 8.524252e+01 4.875734e+01 5.159566e+01 4.071564e+01 8.251958e+01 6.955508e+01 6.379236e+01 8.124866e+01 6.075306e+01 5.225928e+01 2.862869e+01 3.035810e+01 1.172009e+01 4.943617e+00 3.577873e+00 3.275272e+00 9.392645e+00 4.034502e+00 5.514321e+00 7.849823e+00 4.505480e+00 3.951915e+00 2.405316e+00 2.626157e+00 3.762699e+00
<GCONST> 1.139392e+02
<STATE> 3
<MEAN> 25
 -2.101106e+01 3.878608e+00 9.621136e-01 -6.488065e+00 9.142252e+00 -4.323380e+00 -6.673415e-01 7.637645e+00 2.608722e-01 2.001067e+00 1.091248e+00 -3.275109e-01 -1.396421e+00 -4.214728e-01 -1.539673e-01 -7.024519e-01 2.981593e-02 1.402458e-01 1.030537e-01 4.600137e-01 2.863962e-01 1.700021e-01 1.366150e-01 1.937101e-01 5.380977e-01
<VARIANCE> 25
 5.021871e+01 8.794659e+00 2.555700e+01 2.522225e+01 1.656506e+01 2.903690e+01 2.967493e+01 2.046913e+01 1.658063e+01 1.977233e+01 1.731313e+01 1.652426e+01 4.697350e+00 9.096810e-01 1.715312e+00 2.241652e+00 1.452728e+00 2.137638e+00 1.921167e+00 1.713406e+00 1.854060e+00 1.776817e+00 1.424920e+00 1.606808e+00 2.062413e+00
<GCONST> 9.040816e+01
<STATE> 4
<MEAN> 25
 -1.550960e+01 7.080330e-01 3.665790e+00 -6.215219e+00 5.752220e+00 -4.684809e+00 -6.045465e+00 4.415428e+00 4.137516e-03 -1.392093e-01 -1.326235e-01 -3.103163e+00 4.476669e+00 -2.475810e-01 -6.258880e-03 7.827318e-01 -1.447202e+00 -7.782196e-01 -1.139390e+00 -2.187392e+00 -8.682632e-01 -2.910194e-01 -2.402216e-01 -7.741259e-01 1.444402e-01
<VARIANCE> 25
 1.148657e+02 1.734288e+01 3.245871e+01 2.507629e+01 2.757102e+01 6.168346e+01 5.358022e+01 5.234884e+01 3.841032e+01 2.990195e+01 2.078199e+01 2.460300e+01 9.297776e+00 2.349000e+00 3.299653e+00 2.261446e+00 3.029490e+00 2.978997e+00 4.172864e+00 4.509410e+00 4.085224e+00 3.389792e+00 2.076737e+00 2.867354e+00 1.382239e+00
<GCONST> 1.038712e+02
<TRANSP> 5
 0.000000e+00 1.000000e+00 0.000000e+00 0.000000e+00 0.000000e+00
 0.000000e+00 8.053410e-01 1.946590e-01 0.000000e+00 0.000000e+00
 0.000000e+00 0.000000e+00 8.668885e-01 1.331115e-01 0.000000e+00
 0.000000e+00 0.000000e+00 0.000000e+00 7.529364e-01 2.470635e-01
 0.000000e+00 0.000000e+00 0.000000e+00 0.000000e+00 0.000000e+00
<ENDHMM>
~h "\340\262\237\340\263\215"
<BEGINHMM>
<NUMSTATES> 5
<STATE> 2
<MEAN> 25
 -8.816235e-01 -1.175328e-01 -5.095576e+00 1.137804e+00 3.217017e+00 -1.012038e+00 -8.978462e-01 3.644343e+00 2.341301e+00 4.073657e+00 3.125255e+00 2.941780e+00 -1.130372e+00 8.725011e-02 -4.036243e-02 -3.583849e-01 3.426837e-02 7.168406e-01 7.132757e-01 7.004053e-01 3.428681e-01 5.952679e-01 8.788164e-01 5.773531e-01 -1.127913e+00
<VARIANCE> 25
 3.688679e+01 2.529026e+01 4.255464e+01 2.345668e+01 3.284048e+01 3.811095e+01 2.860801e+01 3.279653e+01 3.698858e+01 3.652372e+01 3.008410e+01 2.977184e+01 1.904162e+00 2.136678e+00 2.812462e+00 2.242709e+00 2.703395e+00 3.360501e+00 2.584213e+00 3.125279e+00 2.035455e+00 2.522594e+00 3.114435e+00 2.728681e+00 3.040842e+00
<GCONST> 1.001020e+02
<STATE> 3
<MEAN> 25
 -3.941309e+00 -1.064532e+00 -2.552048e+00 1.406264e+00 3.084118e+00 -2.039886e-02 1.878939e+00 3.482497e+00 1.478442e+00 3.873530e+00 3.389048e+00 3.145328e+00 2.481260e-01 -1.584680e+00 5.583395e-01 4.426963e-01 -8.968697e-01 -5.844705e-01 -4.547560e-01 -5.735941e-01 -3.299864e-01 -1.037603e+00 -8.226264e-01 -5.481265e-01 2.365806e+00
<VARIANCE> 25
 4.590419e+01 5.344039e+01 6.845163e+01 3.710904e+01 3.092221e+01 3.197930e+01 3.452097e+01 2.436518e+01 3.228311e+01 3.893759e+01 2.850912e+01 2.565939e+01 2.304075e+00 3.892185e+00 5.175975e+00 4.436182e+00 5.119948e+00 5.295062e+00 4.234792e+00 2.837093e+00 4.577492e+00 3.975700e+00 2.497805e+00 2.858251e+00 6.187324e+00
<GCONST> 1.067579e+02
<STATE> 4
<MEAN> 25
 6.224845e-01 -5.540728e+00 -1.251450e+00 2.523950e+00 -3.069479e+00 -4.459935e+00 -2.133874e+00 -1.379687e+00 -3.912071e-01 -1.229223e+00 -1.112242e+00 1.335676e+00 1.571752e+00 -2.828497e-01 7.092062e-01 2.968632e-01 -1.757060e+00 -1.347051e+00 -1.292235e+00 -1.516375e+00 -7.090338e-01 -1.458768e+00 -8.666111e-01 -6.003890e-01 2.826833e+00
<VARIANCE> 25
 8.039411e+01 5.511375e+01 8.759817e+01 2.464093e+01 6.088804e+01 6.141455e+01 4.602674e+01 7.182414e+01 5.116483e+01 4.381438e+01 2.922465e+01 3.686966e+01 4.754788e+00 6.362463e+00 5.909923e+00 4.089819e+00 1.025657e+01 8.779386e+00 4.948022e+00 6.643430e+00 6.439511e+00 5.725092e+00 2.971772e+00 5.484235e+00 1.469786e+01
<GCONST> 1.167217e+02
<TRANSP> 5
 0.000000e+00 1.000000e+00 0.000000e+00 0.000000e+00 0.000000e+00
 0.000000e+00 7.985356e-01 2.014644e-01 0.000000e+00 0.000000e+00
 0.000000e+00 0.000000e+00 3.057497e-01 6.942503e-01 0.000000e+00
 0.000000e+00 0.000000e+00 0.000000e+00 6.413204e-01 3.586796e-01
 0.000000e+00 0.000000e+00 0.000000e+00 0.000000e+00 0.000000e+00
<ENDHMM>
~h "\340\262\260\340\263\215"
<BEGINHMM>
<NUMSTATES> 5
<STATE> 2
<MEAN> 25
 3.301044e+00 -4.752750e+00 -1.766141e+00 2.436202e+00 1.369539e+00 -7.117126e+00 -6.779877e+00 -1.099344e+00 -5.558314e-01 6.932869e-01 3.727899e-01 -4.244401e+00 8.468200e-01 -1.167579e-01 -2.759050e-01 1.377192e+00 -2.701008e-01 -1.228517e+00 -5.464971e-01 -6.446656e-01 -6.453132e-02 1.849308e-01 -4.729013e-01 -1.917798e-01 2.655010e-01
<VARIANCE> 25
 4.972299e+01 3.774500e+01 5.307797e+01 4.405313e+01 4.491039e+01 5.788570e+01 4.943633e+01 4.436404e+01 3.500769e+01 2.971803e+01 2.539595e+01 2.420280e+01 4.682714e+00 3.575212e+00 5.747155e+00 4.142858e+00 4.724483e+00 4.019407e+00 5.240824e+00 4.327425e+00 3.572978e+00 2.977586e+00 2.553893e+00 2.851562e+00 4.740362e+00
<GCONST> 1.081255e+02
<STATE> 3
<MEAN> 25
 9.449060e+00 -6.165083e+00 -5.979442e+00 6.399998e+00 -4.105300e+00 -1.279029e+01 -7.863245e+00 -7.357363e+00 -8.213105e-01 7.797446e-01 -1.810526e+00 -3.064888e+00 8.135682e-01 -1.543662e-01 -1.370135e+00 2.442763e-01 -1.474282e+00 -9.297314e-02 8.062791e-01 -1.328715e+00 4.757813e-01 1.723186e-01 -5.640631e-01 1.101084e+00 4.728737e-01
<VARIANCE> 25
 2.619306e+01 2.571079e+01 7.561611e+01 3.461975e+01 5.278915e+01 4.570874e+01 4.638971e+01 4.411885e+01 3.309739e+01 4.099302e+01 1.983625e+01 2.482239e+01 2.689229e+00 2.887388e+00 6.130294e+00 4.391789e+00 5.426920e+00 4.403608e+00 4.413108e+00 4.319008e+00 3.773247e+00 3.560127e+00 2.623510e+00 3.252747e+00 2.947342e+00
<GCONST> 1.064407e+02
<STATE> 4
<MEAN> 25
 1.043558e+01 -2.861028e+00 -5.400468e+00 -3.085778e+00 -7.996494e+00 -4.699078e+00 -1.767998e+00 -8.032883e+00 -3.544596e+00 -2.943356e+00 -4.186322e+00 7.828391e-02 -3.144878e-01 3.064983e-01 5.097581e-01 -7.806226e-01 8.745939e-02 7.997944e-01 4.457085e-01 5.388668e-01 -1.263896e-01 -4.252960e-01 -2.039141e-01 -4.394137e-02 -2.117770e-01
<VARIANCE> 25
 2.474221e+01 5.436451e+01 7.153920e+01 8.061604e+01 7.047177e+01 6.509488e+01 6.326263e+01 5.438244e+01 5.450419e+01 6.505732e+01 3.275867e+01 5.618489e+01 7.916658e-01 2.508852e+00 2.461679e+00 3.850266e+00 4.196608e+00 3.569987e+00 3.165649e+00 3.438183e+00 3.001872e+00 3.366124e+00 2.596260e+00 3.210222e+00 1.760374e+00
<GCONST> 1.071051e+02
<TRANSP> 5
 0.000000e+00 1.000000e+00 0.000000e+00 0.000000e+00 0.000000e+00
 0.000000e+00 6.198661e-01 3.801340e-01 0.000000e+00 0.000000e+00
 0.000000e+00 0.000000e+00 6.002845e-01 3.997155e-01 0.000000e+00
 0.000000e+00 0.000000e+00 0.000000e+00 7.429042e-01 2.570959e-01
 0.000000e+00 0.000000e+00 0.000000e+00 0.000000e+00 0.000000e+00
<ENDHMM>
~h "\340\262\227\340\263\215"
<BEGINHMM>
<NUMSTATES> 5
<STATE> 2
<MEAN> 25
 6.267585e+00 -1.186621e+00 -5.464419e-01 -1.896508e+00 -4.445562e+00 -9.062416e-01 -5.757315e+00 -5.525417e+00 -2.327895e+00 -5.707535e+00 -2.096324e-01 2.375519e-01 3.669818e-01 1.632457e+00 1.044683e+00 1.238021e+00 5.628047e-01 -2.028052e-01 -5.175009e-01 -6.921601e-02 -1.235391e+00 -1.543750e+00 -4.096082e-01 -3.987371e-02 -9.901723e-01
<VARIANCE> 25
 4.964844e+01 4.918544e+01 5.020788e+01 6.750643e+01 5.616800e+01 7.876738e+01 5.911968e+01 5.412334e+01 6.008524e+01 5.047822e+01 3.449353e+01 3.235692e+01 3.768338e+00 5.868273e+00 4.603527e+00 6.880112e+00 8.158792e+00 5.264079e+00 5.245223e+00 5.130511e+00 5.096661e+00 4.862701e+00 3.254866e+00 3.769996e+00 8.156438e+00
<GCONST> 1.147969e+02
<STATE> 3
<MEAN> 25
 7.377552e+00 2.535931e+00 3.726235e+00 3.254143e+00 -3.015751e+00 -3.189848e+00 -5.688202e+00 -5.575125e+00 -5.196009e+00 -8.588747e+00 -2.445638e+00 -1.544517e+00 -4.023014e-01 9.371059e-01 4.305194e-01 4.819200e-01 1.239190e+00 5.138990e-01 5.897375e-01 7.018670e-01 -7.401551e-01 1.262744e-01 -1.042290e-02 -5.910991e-01 -1.250288e+00
<VARIANCE> 25
 2.131492e+01 4.397156e+01 4.909808e+01 5.657222e+01 6.152571e+01 7.239729e+01 4.150897e+01 4.121428e+01 5.000572e+01 4.399878e+01 2.367332e+01 4.001442e+01 2.478093e+00 5.467422e+00 4.037220e+00 4.923686e+00 9.025096e+00 6.329485e+00 5.556973e+00 4.823704e+00 6.545626e+00 4.183301e+00 2.895068e+00 4.751360e+00 6.743344e+00
<GCONST> 1.118850e+02
<STATE> 4
<MEAN> 25
 9.586225e+00 4.647680e+00 -8.831596e-02 -9.283136e-01 -6.922484e+00 -9.362643e-01 -2.682524e+00 -4.854409e+00 -7.101274e+00 -1.037344e+01 -4.429029e+00 -1.734501e-01 -6.952994e-01 -1.705822e-01 -9.850664e-02 -2.940788e-01 7.997848e-01 3.161847e-01 3.183264e-02 3.737993e-01 4.203477e-01 5.492597e-01 2.500632e-01 -4.116357e-01 -1.914480e-01
<VARIANCE> 25
 2.551584e+01 3.876623e+01 5.550190e+01 5.875447e+01 1.215310e+02 5.321047e+01 5.203968e+01 5.527474e+01 3.288211e+01 4.926317e+01 3.145818e+01 4.895148e+01 1.770300e+00 3.223283e+00 2.840041e+00 2.724297e+00 6.117510e+00 3.613732e+00 3.919998e+00 3.635180e+00 3.360936e+00 2.895202e+00 2.753807e+00 2.457176e+00 2.703092e+00
<GCONST> 1.071238e+02
<TRANSP> 5
 0.000000e+00 1.000000e+00 0.000000e+00 0.000000e+00 0.000000e+00
 0.000000e+00 5.572389e-01 4.427611e-01 0.000000e+00 0.000000e+00
 0.000000e+00 0.000000e+00 4.971193e-01 5.028806e-01 0.000000e+00
 0.000000e+00 0.000000e+00 0.000000e+00 7.202948e-01 2.797052e-01
 0.000000e+00 0.000000e+00 0.000000e+00 0.000000e+00 0.000000e+00
<ENDHMM>
~h "\340\262\250\340\263\215"
<BEGINHMM>
<NUMSTATES> 5
<STATE> 2
<MEAN> 25
 7.986149e+00 -8.147163e-01 4.385058e+00 2.770766e+00 -2.070673e+00 -6.679889e+00 -6.433469e+00 -2.718760e+00 -4.549742e-03 -5.362544e+00 -5.902357e+00 -4.114474e+00 1.133159e+00 1.467020e+00 1.890299e+00 5.160192e-01 4.075269e-01 -3.131743e-01 -1.544016e+00 6.186339e-01 -1.317106e+00 -1.882055e+00 -1.596086e-01 2.593264e-01 -5.763762e-01
<VARIANCE> 25
 4.506470e+01 5.224483e+01 4.059399e+01 2.853811e+01 5.358216e+01 4.706505e+01 5.404407e+01 4.400827e+01 4.567517e+01 4.927598e+01 2.659757e+01 3.511251e+01 2.170044e+00 2.559265e+00 3.793811e+00 2.629932e+00 5.752993e+00 3.410492e+00 4.301025e+00 3.395630e+00 3.285716e+00 3.208341e+00 2.601457e+00 2.115606e+00 4.381124e+00
<GCONST> 1.061419e+02
<STATE> 3
<MEAN> 25
 1.201563e+01 2.163245e+00 7.779106e+00 2.793323e+00 -3.117496e+00 -8.561431e+00 -8.516942e+00 2.682080e-01 -3.416485e+00 -1.212409e+01 -7.359996e+00 -2.521496e+00 -2.221878e-01 -6.850836e-01 -5.629127e-01 3.157394e-02 -5.029652e-01 -2.700194e-01 2.620008e-01 -4.304126e-01 6.000333e-01 5.739455e-01 -1.628035e-01 -2.103164e-01 6.123074e-01
<VARIANCE> 25
 7.801999e+00 2.683709e+01 1.627201e+01 2.179090e+01 2.674512e+01 2.769641e+01 3.160913e+01 2.990879e+01 4.104108e+01 4.934969e+01 1.885148e+01 3.144406e+01 6.369386e-01 3.096359e+00 2.267765e+00 1.369066e+00 3.560478e+00 1.995478e+00 2.823647e+00 2.792508e+00 3.458115e+00 4.687658e+00 1.523255e+00 2.075631e+00 1.757489e+00
<GCONST> 9.495807e+01
<STATE> 4
<MEAN> 25
 8.647110e+00 -3.687803e+00 1.369929e+00 -2.183973e-01 -6.176992e+00 -5.757426e+00 -4.500315e+00 -5.240621e+00 -1.427670e-01 -4.071582e+00 -5.790329e+00 -3.327097e+00 -3.857849e-01 -3.588257e-01 -6.867990e-01 -7.269151e-01 -4.014474e-01 7.131737e-01 7.280746e-01 -1.624902e-01 4.199406e-03 4.059352e-01 2.182109e-01 1.342146e-01 2.076427e-01
<VARIANCE> 25
 2.299209e+01 4.715319e+01 5.213710e+01 4.576405e+01 8.723400e+01 6.441476e+01 4.857377e+01 4.743875e+01 4.643562e+01 4.700163e+01 3.020237e+01 2.983277e+01 7.385325e-01 3.131478e+00 3.131031e+00 3.038466e+00 3.987432e+00 3.630164e+00 3.224752e+00 3.366268e+00 3.076922e+00 2.944093e+00 2.214105e+00 2.148820e+00 2.109347e+00
<GCONST> 1.042392e+02
<TRANSP> 5
 0.000000e+00 1.000000e+00 0.000000e+00 0.000000e+00 0.000000e+00
 0.000000e+00 6.618232e-01 3.381768e-01 0.000000e+00 0.000000e+00
 0.000000e+00 0.000000e+00 7.803755e-01 2.196245e-01 0.000000e+00
 0.000000e+00 0.000000e+00 0.000000e+00 6.764467e-01 3.235533e-01
 0.000000e+00 0.000000e+00 0.000000e+00 0.000000e+00 0.000000e+00
<ENDHMM>
~h "\340\262\271\340\263\215"
<BEGINHMM>
<NUMSTATES> 5
<STATE> 2
<MEAN> 25
 -6.203392e+00 3.753399e+00 -1.439244e+00 1.857196e+00 5.392861e+00 5.019933e+00 3.089076e+00 6.069167e+00 3.368884e+00 4.279705e+00 3.518951e+00 2.732648e+00 -7.314552e-02 3.915166e-02 4.701777e-02 8.618060e-03 3.827644e-02 2.904997e-02 1.396542e-02 9.993878e-02 3.885963e-02 9.705029e-03 -1.850204e-02 -1.977371e-02 -6.160308e-02
<VARIANCE> 25
 1.329439e+01 8.931952e+00 1.009443e+01 1.288587e+01 1.275948e+01 1.238567e+01 1.549953e+01 1.582325e+01 1.284021e+01 1.303748e+01 1.762080e+01 1.646292e+01 5.147865e-01 5.134564e-01 7.766143e-01 9.360518e-01 1.089388e+00 9.660569e-01 1.242880e+00 1.317858e+00 1.368406e+00 1.257370e+00 1.270277e+00 1.393200e+00 5.376999e-01
<GCONST> 7.633581e+01
<STATE> 3
<MEAN> 25
 -8.418221e-01 2.581131e-02 -1.154184e+00 -1.487283e+00 4.271566e+00 5.354287e+00 5.124883e+00 2.254752e+00 1.163284e+00 1.705445e+00 -1.470835e+00 -2.050862e+00 4.407709e-01 -4.329889e-01 -1.554395e-01 -5.228226e-01 -3.939097e-01 -3.298772e-01 -1.468681e-01 -2.531327e-01 -4.787503e-01 -3.453031e-01 -4.052578e-01 -3.768940e-01 6.224930e-01
<VARIANCE> 25
 3.226442e+01 2.812289e+01 2.209543e+01 3.156701e+01 1.863984e+01 3.325557e+01 3.481350e+01 4.466076e+01 2.532817e+01 2.042146e+01 2.466660e+01 2.802528e+01 1.431363e+00 1.501070e+00 2.047674e+00 2.009263e+00 1.986680e+00 2.012211e+00 2.665445e+00 3.085939e+00 1.926320e+00 1.836882e+00 2.233661e+00 2.385703e+00 1.084497e+00
<GCONST> 9.456078e+01
<STATE> 4
<MEAN> 25
 -1.241886e+00 -9.445122e-01 -1.572580e+00 -2.957919e+00 2.330564e+00 3.302953e+00 3.556314e+00 1.462538e+00 1.734027e-01 1.239510e+00 -1.625190e+00 -2.643797e+00 1.062362e+00 -7.007190e-01 -7.666561e-02 -8.442518e-01 -1.190377e+00 -7.541428e-01 -3.182331e-01 -9.013135e-01 -6.232063e-01 -5.766025e-01 -4.687120e-01 -6.738656e-01 1.808105e+00
<VARIANCE> 25
 3.987527e+01 2.425262e+01 3.963878e+01 3.935122e+01 3.435703e+01 4.696390e+01 3.036189e+01 3.809633e+01 2.342577e+01 2.113531e+01 2.156803e+01 2.664287e+01 2.119684e+00 2.842179e+00 2.669921e+00 2.492679e+00 2.981316e+00 3.234833e+00 2.835721e+00 3.072347e+00 2.313903e+00 1.954999e+00 2.221766e+00 2.402821e+00 2.429061e+00
<GCONST> 9.936565e+01
<TRANSP> 5
 0.000000e+00 1.000000e+00 0.000000e+00 0.000000e+00 0.000000e+00
 0.000000e+00 8.507548e-01 1.492452e-01 0.000000e+00 0.000000e+00
 0.000000e+00 0.000000e+00 3.257917e-01 6.742083e-01 0.000000e+00
 0.000000e+00 0.000000e+00 0.000000e+00 6.183947e-01 3.816053e-01
 0.000000e+00 0.000000e+00 0.000000e+00 0.000000e+00 0.000000e+00
<ENDHMM>
~h "\340\262\205"
<BEGINHMM>
<NUMSTATES> 5
<STATE> 2
<MEAN> 25
 4.103751e+00 -2.101960e+00 -1.249737e+00 -1.676272e+00 -1.256959e+00 -4.016165e+00 -5.979913e+00 -3.656330e+00 1.513240e-01 -6.242860e-01 -8.351468e-01 -3.661058e+00 1.296997e+00 -1.625686e+00 -1.334425e+00 -1.288323e+00 -1.554664e+00 -5.075457e-01 -5.383297e-01 -1.100941e+00 9.737549e-01 7.295115e-01 1.415123e-01 -2.456456e-01 2.132848e+00
<VARIANCE> 25
 4.767417e+01 5.191729e+01 4.274501e+01 4.948936e+01 6.095997e+01 6.420862e+01 5.693827e+01 5.309099e+01 4.138230e+01 3.994957e+01 3.387867e+01 3.242475e+01 5.323121e+00 4.834560e+00 4.094411e+00 4.143458e+00 6.536935e+00 4.927868e+00 5.447087e+00 4.668946e+00 4.645957e+00 4.340755e+00 3.816001e+00 3.299779e+00 4.881630e+00
<GCONST> 1.120265e+02
<STATE> 3
<MEAN> 25
 8.241319e+00 -8.479097e+00 -5.853925e+00 -5.186422e+00 -5.537255e+00 -5.480852e+00 -6.584183e+00 -6.103106e+00 3.583785e+00 2.056888e+00 -1.185554e+00 -5.284375e+00 3.341654e-01 -9.620216e-01 -5.272520e-01 -5.044950e-01 -1.780793e-01 4.795905e-01 4.678372e-01 -1.026359e-01 2.719852e-01 1.739453e-01 -1.055570e-01 -2.385250e-01 4.694505e-01
<VARIANCE> 25
 1.661970e+01 3.912086e+01 2.550951e+01 3.954763e+01 3.244168e+01 4.525511e+01 5.572049e+01 3.904208e+01 3.739497e+01 2.478757e+01 3.504697e+01 3.208375e+01 1.214210e+00 3.335584e+00 2.459478e+00 3.298869e+00 3.293874e+00 3.832335e+00 4.367241e+00 3.265280e+00 3.870271e+00 2.308989e+00 2.223854e+00 2.255573e+00 2.356681e+00
<GCONST> 1.015197e+02
<STATE> 4
<MEAN> 25
 7.117940e+00 -5.171781e+00 -5.341173e+00 -6.708469e+00 -1.391529e+00 1.218153e+00 -1.318934e-01 -6.863530e+00 -3.142382e-01 1.317559e+00 -3.713799e+00 -5.638607e+00 -3.727517e-01 8.569077e-01 4.677243e-01 6.652796e-01 6.481457e-01 2.395234e-01 1.038874e-01 2.936721e-01 -2.764612e-01 -9.019133e-02 9.712271e-03 2.079329e-01 -1.189457e+00
<VARIANCE> 25
 2.521869e+01 4.328930e+01 2.301466e+01 3.894762e+01 3.865371e+01 5.877192e+01 7.334174e+01 5.483144e+01 4.029747e+01 2.067180e+01 4.377417e+01 2.918835e+01 8.949007e-01 1.755722e+00 1.778276e+00 2.563308e+00 2.214139e+00 2.857910e+00 2.734131e+00 3.084473e+00 2.789332e+00 1.739654e+00 2.242527e+00 1.741848e+00 1.684004e+00
<GCONST> 9.905547e+01
<TRANSP> 5
 0.000000e+00 1.000000e+00 0.000000e+00 0.000000e+00 0.000000e+00
 0.000000e+00 5.678197e-01 4.321803e-01 0.000000e+00 0.000000e+00
 0.000000e+00 0.000000e+00 5.690260e-01 4.309740e-01 0.000000e+00
 0.000000e+00 0.000000e+00 0.000000e+00 8.411324e-01 1.588676e-01
 0.000000e+00 0.000000e+00 0.000000e+00 0.000000e+00 0.000000e+00
<ENDHMM>
~h "\340\262\206"
<BEGINHMM>
<NUMSTATES> 5
<STATE> 2
<MEAN> 25
 5.489951e+00 -7.707658e+00 -4.944055e+00 -6.628073e+00 -2.207153e+00 4.018140e-02 2.056883e-01 -2.485303e+00 -9.121587e-01 1.985931e-01 -2.236579e+00 -4.048479e+00 1.127204e+00 -1.935344e+00 -1.397502e+00 -1.719029e+00 -1.069973e+00 1.134274e+00 1.617249e+00 -6.054085e-01 -6.109901e-01 8.764438e-02 -6.918969e-01 -2.263531e-01 1.868063e+00
<VARIANCE> 25
 5.204216e+01 5.363741e+01 3.693148e+01 4.605112e+01 4.600975e+01 6.108415e+01 5.682801e+01 4.986222e+01 4.176304e+01 3.495758e+01 3.779068e+01 3.436985e+01 3.378731e+00 4.407465e+00 3.186916e+00 3.040913e+00 5.258161e+00 4.480740e+00 5.015155e+00 4.119144e+00 4.741714e+00 3.967713e+00 3.202041e+00 2.874325e+00 4.658330e+00
<GCONST> 1.095184e+02
<STATE> 3
<MEAN> 25
 1.014539e+01 -1.336580e+01 -9.594069e+00 -1.242341e+01 -5.923457e+00 5.105213e+00 7.966504e+00 -6.107838e+00 -7.169750e+00 -4.619604e-01 -6.173862e+00 -2.307546e+00 7.726316e-02 -1.835041e-01 -1.347129e-01 -2.514285e-01 -1.294177e-01 4.970624e-01 4.179768e-01 -4.255296e-01 -4.711621e-01 -5.927514e-02 -1.053834e-01 1.601272e-01 1.521759e-01
<VARIANCE> 25
 9.398554e+00 2.450243e+01 1.614255e+01 1.967881e+01 2.628986e+01 2.897080e+01 3.152468e+01 5.309450e+01 2.438903e+01 2.206856e+01 3.331411e+01 2.463451e+01 2.759596e-01 1.172912e+00 7.976068e-01 8.416402e-01 1.201027e+00 1.498013e+00 1.559345e+00 1.100828e+00 1.594204e+00 7.756193e-01 9.337189e-01 9.078200e-01 3.664921e-01
<GCONST> 8.284829e+01
<STATE> 4
<MEAN> 25
 9.754372e+00 -9.535998e+00 -8.856180e+00 -1.046312e+01 -3.691282e+00 2.125164e+00 3.155486e+00 -8.237517e+00 -3.356545e+00 1.048324e+00 -4.421652e+00 -5.422720e+00 -1.772083e-01 1.040081e+00 5.390972e-01 9.832438e-01 4.620093e-01 -1.288816e+00 -1.487028e+00 1.962295e-01 1.027688e+00 2.758991e-01 4.232603e-01 -4.303408e-01 -6.723949e-01
<VARIANCE> 25
 8.472577e+00 3.280919e+01 1.835049e+01 3.323829e+01 3.139162e+01 4.492276e+01 4.120060e+01 4.774115e+01 3.551460e+01 2.254031e+01 3.770754e+01 2.651568e+01 4.113449e-01 1.519372e+00 1.518876e+00 1.968942e+00 1.806449e+00 2.809773e+00 2.988487e+00 2.492466e+00 2.548523e+00 1.609449e+00 1.511562e+00 1.674899e+00 1.077706e+00
<GCONST> 9.308949e+01
<TRANSP> 5
 0.000000e+00 1.000000e+00 0.000000e+00 0.000000e+00 0.000000e+00
 0.000000e+00 7.241385e-01 2.758615e-01 0.000000e+00 0.000000e+00
 0.000000e+00 0.000000e+00 8.708019e-01 1.291981e-01 0.000000e+00
 0.000000e+00 0.000000e+00 0.000000e+00 8.476268e-01 1.523732e-01
 0.000000e+00 0.000000e+00 0.000000e+00 0.000000e+00 0.000000e+00
<ENDHMM>
~h "\340\262\207"
<BEGINHMM>
<NUMSTATES> 5
<STATE> 2
<MEAN> 25
 1.131933e+00 -7.915150e-01 1.002963e+01 4.120518e+00 -7.532624e+00 -7.904019e+00 -3.735483e+00 -3.770619e+00 -5.604404e+00 -8.201607e+00 -2.176072e+00 -2.077888e+00 9.717557e-01 -4.094200e-01 1.256526e+00 5.723643e-01 -3.079873e+00 -1.364928e+00 -9.832650e-03 -1.534061e+00 -6.209284e-01 -1.679103e+00 8.845375e-02 6.324162e-01 1.580131e+00
<VARIANCE> 25
 4.179570e+01 3.930519e+01 4.389615e+01 3.421207e+01 8.288189e+01 6.218834e+01 4.213715e+01 3.498604e+01 3.689623e+01 4.225235e+01 2.505254e+01 2.966311e+01 6.233088e+00 4.231475e+00 4.964415e+00 3.281537e+00 6.527351e+00 5.017288e+00 4.894839e+00 3.950956e+00 4.085788e+00 4.495203e+00 2.762023e+00 2.965062e+00 4.106976e+00
<GCONST> 1.094117e+02
<STATE> 3
<MEAN> 25
 3.054338e+00 1.184389e+00 1.437233e+01 3.546221e+00 -1.601618e+01 -8.638902e+00 7.182015e-01 -9.909227e+00 -8.558578e+00 -1.091805e+01 -1.140806e+00 -2.422259e+00 1.028739e-01 4.179209e-01 -1.870087e-01 4.046218e-02 5.504202e-01 1.062382e-01 3.828949e-01 3.712894e-01 -9.799913e-02 1.713746e-01 -8.159333e-02 -2.720181e-01 -5.870931e-01
<VARIANCE> 25
 1.282844e+01 4.182164e+01 2.837474e+01 3.178438e+01 3.699847e+01 4.487109e+01 5.671623e+01 3.340631e+01 3.131399e+01 2.481535e+01 2.055136e+01 3.537182e+01 7.010510e-01 1.649844e+00 1.758178e+00 1.565251e+00 3.904167e+00 2.425117e+00 2.855962e+00 3.029119e+00 2.099648e+00 1.514624e+00 1.451221e+00 1.558252e+00 1.331909e+00
<GCONST> 9.506528e+01
<STATE> 4
<MEAN> 25
 -8.304986e-01 1.362042e+00 6.543579e+00 4.714415e+00 -1.695598e+00 -4.898799e+00 -2.822119e-02 1.624923e+00 -2.923992e+00 -4.398304e+00 -1.116637e+00 -4.963109e-01 -5.378249e-01 -2.684041e-02 -9.198043e-01 -3.325382e-02 1.708458e+00 7.030988e-01 -4.384668e-01 9.410172e-01 7.413090e-01 9.415491e-01 1.289029e-01 3.554987e-01 -1.218246e+00
<VARIANCE> 25
 4.014886e+01 2.959871e+01 4.048134e+01 3.392994e+01 7.327135e+01 6.603012e+01 5.766508e+01 4.263024e+01 4.315546e+01 5.276726e+01 2.830178e+01 3.115772e+01 2.014689e+00 3.341583e+00 2.887879e+00 2.594335e+00 6.546486e+00 3.463001e+00 4.181765e+00 3.866074e+00 2.768753e+00 2.638246e+00 2.578492e+00 2.655066e+00 2.661006e+00
<GCONST> 1.057723e+02
<TRANSP> 5
 0.000000e+00 1.000000e+00 0.000000e+00 0.000000e+00 0.000000e+00
 0.000000e+00 6.997455e-01 3.002544e-01 0.000000e+00 0.000000e+00
 0.000000e+00 0.000000e+00 8.433689e-01 1.566312e-01 0.000000e+00
 0.000000e+00 0.000000e+00 0.000000e+00 7.444469e-01 2.555531e-01
 0.000000e+00 0.000000e+00 0.000000e+00 0.000000e+00 0.000000e+00
<ENDHMM>
~h "\340\262\210"
<BEGINHMM>
<NUMSTATES> 5
<STATE> 2
<MEAN> 25
 -4.506017e+00 1.304248e+00 1.128681e+01 3.359837e+00 -5.049253e+00 6.050431e-01 3.132691e-01 -3.021556e+00 -3.155025e+00 -3.861525e+00 2.064079e-01 -1.295125e-01 5.223398e-01 -1.758046e-01 2.378561e+00 3.350362e-01 -2.458830e+00 -1.285347e-01 -1.534268e-01 -1.749811e+00 -7.690248e-01 -1.174688e+00 -3.358808e-01 -5.187262e-01 1.337615e+00
<VARIANCE> 25
 3.534649e+01 2.974002e+01 1.058176e+02 2.644554e+01 1.339476e+02 5.284417e+01 2.316766e+01 6.651067e+01 4.478914e+01 5.365130e+01 2.046675e+01 2.403741e+01 2.912884e+00 3.116438e+00 9.360432e+00 3.064011e+00 7.648028e+00 2.958611e+00 2.413250e+00 5.933257e+00 3.974411e+00 4.777390e+00 2.490203e+00 2.156074e+00 4.930693e+00
<GCONST> 1.085919e+02
<STATE> 3
<MEAN> 25
 -2.095536e-01 2.054132e-01 2.044434e+01 3.809618e+00 -1.657181e+01 -1.918859e+00 1.855255e+00 -1.300225e+01 -8.584370e+00 -9.368975e+00 -1.271326e+00 -5.960910e+00 2.228823e-02 1.007676e-01 -3.720539e-01 3.257126e-03 2.975395e-01 -5.047694e-02 1.076023e-01 1.383618e-01 2.713710e-02 1.506615e-01 6.126653e-02 -5.236346e-02 -2.591903e-01
<VARIANCE> 25
 1.305221e+01 2.740428e+01 4.989388e+01 2.519270e+01 6.521478e+01 3.609238e+01 2.443808e+01 4.539732e+01 3.375345e+01 3.291201e+01 2.219399e+01 2.481878e+01 3.507251e-01 1.060204e+00 1.185860e+00 9.702677e-01 2.281745e+00 1.641936e+00 1.471546e+00 1.798495e+00 1.429147e+00 1.388288e+00 9.986214e-01 1.019103e+00 8.855834e-01
<GCONST> 8.908900e+01
<STATE> 4
<MEAN> 25
 -5.526677e+00 2.757943e+00 2.859420e+00 4.283122e+00 2.200478e+00 3.249145e+00 2.874386e+00 2.422029e+00 -4.937730e-01 1.774605e+00 2.444393e+00 1.438747e+00 -9.814410e-02 4.946782e-02 -3.123185e-01 -1.289364e-03 3.727340e-01 -1.452413e-02 3.586875e-02 3.638668e-01 2.327465e-01 8.221722e-02 1.380237e-01 2.033219e-01 -2.919105e-01
<VARIANCE> 25
 1.388465e+01 1.291204e+01 4.068789e+01 1.021036e+01 6.188085e+01 3.207706e+01 1.675418e+01 4.431921e+01 3.090456e+01 3.803885e+01 1.870151e+01 1.997949e+01 4.062996e-01 1.088937e+00 8.579484e-01 9.677148e-01 1.696594e+00 1.773018e+00 1.862544e+00 1.595929e+00 1.381083e+00 1.713553e+00 1.640647e+00 1.215093e+00 8.837981e-01
<GCONST> 8.697848e+01
<TRANSP> 5
 0.000000e+00 1.000000e+00 0.000000e+00 0.000000e+00 0.000000e+00
 0.000000e+00 7.152312e-01 2.847688e-01 0.000000e+00 0.000000e+00
 0.000000e+00 0.000000e+00 9.172083e-01 8.279172e-02 0.000000e+00
 0.000000e+00 0.000000e+00 0.000000e+00 7.788629e-01 2.211371e-01
 0.000000e+00 0.000000e+00 0.000000e+00 0.000000e+00 0.000000e+00
<ENDHMM>
~h "\340\262\211"
<BEGINHMM>
<NUMSTATES> 5
<STATE> 2
<MEAN> 25
 7.207700e+00 4.322420e+00 -2.071479e+00 -6.762235e+00 -3.607209e+00 4.044631e+00 1.896729e+00 -2.914281e+00 -4.943501e+00 -5.283193e+00 -5.876962e+00 -7.478639e-01 -9.628778e-01 1.545296e-01 9.750997e-02 3.615318e-01 7.762321e-01 3.468511e-01 3.798854e-01 9.236801e-01 4.868903e-01 4.378264e-01 2.519581e-01 3.090578e-02 -1.261956e+00
<VARIANCE> 25
 3.215925e+01 2.740043e+01 2.129602e+01 3.930725e+01 6.615964e+01 3.459973e+01 3.798492e+01 6.864360e+01 2.684509e+01 3.483300e+01 4.084407e+01 3.761082e+01 1.281369e+00 2.328874e+00 2.078989e+00 2.697402e+00 3.609464e+00 3.406389e+00 2.731946e+00 3.625163e+00 2.047260e+00 2.043123e+00 3.403124e+00 2.737086e+00 9.189411e-01
<GCONST> 1.004355e+02
<STATE> 3
<MEAN> 25
 -5.126255e+00 2.619792e+00 -1.254063e-01 -6.620951e-01 4.710654e+00 3.886586e+00 2.441194e+00 4.829031e+00 1.824646e+00 2.332296e+00 1.928516e+00 2.459611e+00 -6.663836e-01 1.817937e-01 4.932684e-02 6.321189e-01 3.151144e-01 -8.585086e-02 -1.561558e-02 3.577706e-01 5.426674e-01 6.310335e-01 7.299261e-01 3.956447e-01 -7.672386e-01
<VARIANCE> 25
 2.286489e+01 1.664233e+01 3.167123e+01 2.740182e+01 2.475614e+01 2.404472e+01 2.061384e+01 2.557614e+01 2.134117e+01 2.162858e+01 2.159693e+01 1.886844e+01 1.905801e+00 2.127857e+00 3.756857e+00 2.944138e+00 2.400717e+00 2.507861e+00 1.846667e+00 2.240237e+00 2.038409e+00 2.236699e+00 2.174955e+00 1.766825e+00 1.108532e+00
<GCONST> 9.344079e+01
<STATE> 4
<MEAN> 25
 -6.262888e+00 3.696470e+00 -7.067623e-01 2.992982e+00 5.533847e+00 4.397594e+00 2.939394e+00 5.240473e+00 3.387685e+00 4.419830e+00 3.773980e+00 3.106108e+00 -3.779918e-02 -6.220012e-03 2.924631e-02 8.620123e-02 3.501604e-02 -4.178948e-03 4.441291e-04 3.605396e-03 1.421011e-02 3.436823e-03 2.080107e-03 7.657465e-03 -2.364528e-02
<VARIANCE> 25
 4.606365e+00 4.295023e+00 5.619589e+00 7.054817e+00 8.273490e+00 8.571623e+00 1.014939e+01 1.236485e+01 1.103859e+01 1.167638e+01 1.127424e+01 1.035306e+01 1.919132e-01 3.341336e-01 4.739029e-01 5.994763e-01 7.587142e-01 8.175584e-01 8.909390e-01 1.030960e+00 1.101169e+00 1.140956e+00 1.107050e+00 9.984947e-01 3.648109e-01
<GCONST> 6.607648e+01
<TRANSP> 5
 0.000000e+00 1.000000e+00 0.000000e+00 0.000000e+00 0.000000e+00
 0.000000e+00 8.522564e-01 1.477436e-01 0.000000e+00 0.000000e+00
 0.000000e+00 0.000000e+00 7.656332e-01 2.343667e-01 0.000000e+00
 0.000000e+00 0.000000e+00 0.000000e+00 9.467542e-01 5.324579e-02
 0.000000e+00 0.000000e+00 0.000000e+00 0.000000e+00 0.000000e+00
<ENDHMM>
~h "\340\262\212"
<BEGINHMM>
<NUMSTATES> 5
<STATE> 2
<MEAN> 25
 5.314420e+00 9.390337e-01 -1.797254e-01 5.339577e-01 -1.757610e+00 -1.776242e+00 -6.262894e+00 -6.041471e+00 -4.486095e+00 -4.548927e+00 -2.289551e-01 -4.079014e-01 1.507925e+00 1.041510e-01 -7.643140e-01 -1.070599e+00 -2.448569e+00 5.538952e-01 2.545150e-01 -1.480612e+00 -8.694159e-01 -1.758635e+00 -2.017393e-01 1.178535e+00 1.224850e+00
<VARIANCE> 25
 5.774018e+01 4.807603e+01 4.540171e+01 4.965024e+01 6.321431e+01 3.877626e+01 4.759264e+01 9.363206e+01 3.252291e+01 6.282949e+01 3.581978e+01 2.630383e+01 4.273829e+00 5.011505e+00 3.134489e+00 5.186054e+00 6.563934e+00 5.914806e+00 4.989985e+00 5.091516e+00 3.739121e+00 6.102359e+00 4.876865e+00 3.572497e+00 3.913847e+00
<GCONST> 1.123697e+02
<STATE> 3
<MEAN> 25
 1.105138e+01 2.755992e+00 -3.794568e+00 -4.435299e+00 -1.365370e+01 6.964948e-01 -1.523228e+00 -9.205431e+00 -6.973712e+00 -1.269241e+01 -3.648356e+00 3.699688e+00 1.883564e-01 4.491522e-01 -1.336323e-01 -5.073642e-01 -1.074336e+00 2.221391e-01 1.000934e+00 1.979829e-01 -1.977248e-01 -5.766841e-01 -6.835651e-01 2.319696e-01 2.093957e-02
<VARIANCE> 25
 1.754696e+01 2.827878e+01 1.865823e+01 2.844435e+01 9.318713e+01 3.252016e+01 2.595169e+01 5.472906e+01 5.199728e+01 5.906194e+01 5.446892e+01 2.528089e+01 6.229702e-01 1.431077e+00 1.288042e+00 1.406508e+00 3.848031e+00 1.901439e+00 1.488781e+00 1.904568e+00 2.132008e+00 1.808229e+00 1.724931e+00 1.682863e+00 9.721311e-01
<GCONST> 9.485933e+01
<STATE> 4
<MEAN> 25
 1.165871e+01 4.908740e+00 -3.446605e+00 -5.754745e+00 -9.728421e+00 -2.331197e+00 -9.362662e-01 -6.060416e+00 -1.087711e+01 -9.742328e+00 -3.727601e+00 5.425388e-01 -2.383054e-01 -1.727812e-01 5.393462e-02 2.601380e-01 1.054111e+00 -7.329408e-02 -4.260997e-01 1.711783e-01 -2.187669e-03 5.343307e-01 4.290098e-01 -3.149361e-01 -2.536308e-01
<VARIANCE> 25
 9.807204e+00 2.788479e+01 3.256760e+01 3.522652e+01 6.730097e+01 3.390256e+01 3.412664e+01 6.274749e+01 4.377740e+01 3.661781e+01 5.125470e+01 4.542038e+01 6.574980e-01 1.596313e+00 1.806021e+00 2.059741e+00 4.717165e+00 2.838192e+00 2.713082e+00 3.397623e+00 2.503642e+00 2.409663e+00 2.662576e+00 2.620633e+00 1.027875e+00
<GCONST> 9.908260e+01
<TRANSP> 5
 0.000000e+00 1.000000e+00 0.000000e+00 0.000000e+00 0.000000e+00
 0.000000e+00 7.437788e-01 2.562212e-01 0.000000e+00 0.000000e+00
 0.000000e+00 0.000000e+00 7.573510e-01 2.426490e-01 0.000000e+00
 0.000000e+00 0.000000e+00 0.000000e+00 9.037295e-01 9.627051e-02
 0.000000e+00 0.000000e+00 0.000000e+00 0.000000e+00 0.000000e+00
<ENDHMM>
~h "\340\262\213"
<BEGINHMM>
<NUMSTATES> 5
<STATE> 2
<MEAN> 25
 -3.820758e-01 2.950363e+00 4.426595e+00 7.922541e+00 5.230249e+00 -2.943422e+00 -4.132277e+00 2.855754e-01 -1.763744e+00 -2.276002e+00 -4.060264e+00 -4.751477e+00 1.622551e+00 3.292948e-03 4.236287e-01 9.199957e-01 -8.834846e-01 -1.340161e+00 -1.469500e+00 -1.006298e+00 -2.869324e-01 -5.812420e-01 -8.558371e-01 -7.700878e-01 1.225147e+00
<VARIANCE> 25
 3.019673e+01 7.759228e+01 2.360591e+01 3.184781e+01 2.792075e+01 5.478434e+01 5.202465e+01 4.347610e+01 1.887419e+01 3.007385e+01 1.838074e+01 1.458830e+01 5.787868e+00 6.707762e+00 5.901718e+00 4.202730e+00 3.376791e+00 3.327574e+00 3.731344e+00 4.581483e+00 1.755960e+00 3.624230e+00 2.346355e+00 2.050498e+00 3.830412e+00
<GCONST> 1.042108e+02
<STATE> 3
<MEAN> 25
 9.651453e+00 -3.298692e+00 -2.268710e+00 9.813792e+00 -1.008319e+00 -1.132329e+01 -1.259089e+01 -7.033520e+00 5.681090e-01 -3.627598e+00 -5.183054e+00 -6.088406e+00 1.042808e+00 -4.121267e-01 -1.676328e+00 -2.794916e-02 -1.115905e+00 -5.163556e-01 -3.172891e-01 -1.639553e+00 8.109694e-01 2.542630e-01 3.869199e-01 1.840690e-01 1.089063e+00
<VARIANCE> 25
 7.826327e+00 2.204174e+01 3.561763e+01 5.081084e+01 5.987331e+01 5.661815e+01 5.712690e+01 4.200868e+01 1.598804e+01 3.014553e+01 1.554895e+01 1.113243e+01 3.766863e+00 3.763281e+00 3.473327e+00 1.483414e+00 4.473666e+00 2.545828e+00 3.226205e+00 4.364021e+00 1.287186e+00 2.303885e+00 1.486619e+00 9.177896e-01 3.793190e+00
<GCONST> 9.794110e+01
<STATE> 4
<MEAN> 25
 4.157269e+00 -2.864457e+00 7.264073e-01 1.110071e+01 -3.766793e+00 -9.840699e+00 -1.021947e+01 -1.056557e+01 1.770121e+00 -2.996714e+00 -6.179414e+00 -5.245759e+00 -1.488697e+00 3.538756e-01 1.058160e+00 -6.913579e-01 8.312769e-01 9.387828e-01 1.980230e-01 8.474416e-01 -4.551327e-01 6.341888e-02 3.868456e-01 1.600766e-01 -4.348927e-01
<VARIANCE> 25
 6.959782e+01 1.727388e+01 6.112368e+01 6.375156e+01 5.765818e+01 5.599901e+01 4.861620e+01 5.754505e+01 2.344968e+01 1.333837e+01 1.904367e+01 1.924942e+01 9.136525e+00 1.939000e+00 7.404928e+00 3.775893e+00 6.206498e+00 2.016323e+00 6.253336e+00 7.666980e+00 2.403709e+00 1.052208e+00 1.910497e+00 2.649783e+00 4.552443e+00
<GCONST> 1.056404e+02
<TRANSP> 5
 0.000000e+00 1.000000e+00 0.000000e+00 0.000000e+00 0.000000e+00
 0.000000e+00 7.922761e-01 2.077239e-01 0.000000e+00 0.000000e+00
 0.000000e+00 0.000000e+00 6.746345e-01 3.253655e-01 0.000000e+00
 0.000000e+00 0.000000e+00 0.000000e+00 8.038374e-01 1.961627e-01
 0.000000e+00 0.000000e+00 0.000000e+00 0.000000e+00 0.000000e+00
<ENDHMM>
~h "\340\262\216"
<BEGINHMM>
<NUMSTATES> 5
<STATE> 2
<MEAN> 25
 5.430809e+00 -8.425270e+00 2.026291e+00 -1.951181e-01 -1.171410e+01 -1.626734e+01 -2.841770e+00 3.961069e+00 4.152951e+00 -6.472644e+00 -3.806193e+00 7.251022e-01 -1.245817e-01 3.517121e-01 9.419673e-02 1.515917e-01 1.582509e-01 -1.380205e-02 6.791663e-01 5.587268e-01 -1.232201e-01 -1.571102e-01 -2.390064e-01 -1.152936e-01 -3.894857e-01
<VARIANCE> 25
 9.571404e+00 2.920438e+01 2.068150e+01 1.432007e+01 4.129550e+01 3.659742e+01 3.272902e+01 2.759407e+01 2.336549e+01 2.487505e+01 2.203646e+01 1.829609e+01 3.535065e-01 1.973341e+00 1.106054e+00 1.391781e+00 1.828094e+00 1.503163e+00 1.411638e+00 1.290946e+00 1.560656e+00 1.050668e+00 1.169867e+00 9.164686e-01 1.096724e+00
<GCONST> 8.610077e+01
<STATE> 3
<MEAN> 25
 -1.122663e+00 -1.388531e+00 1.312128e+00 3.702066e+00 -2.608897e-01 -5.334285e+00 3.375821e+00 9.361896e+00 3.514930e+00 -2.279328e+00 -3.882362e+00 -4.268233e-01 -7.762312e-01 4.010272e-01 -2.340009e-01 7.416171e-02 8.586332e-01 1.141565e+00 2.926861e-02 6.731886e-02 2.044133e-01 8.548857e-01 7.849741e-01 3.694176e-01 -1.398253e+00
<VARIANCE> 25
 2.672841e+01 2.011071e+01 2.733754e+01 2.205470e+01 5.237131e+01 6.010506e+01 3.227042e+01 3.988851e+01 2.899550e+01 4.778198e+01 4.550095e+01 2.158082e+01 1.098412e+00 2.207969e+00 2.537484e+00 2.589098e+00 3.405175e+00 2.561851e+00 3.456208e+00 2.703342e+00 2.464867e+00 2.506768e+00 2.741717e+00 1.741201e+00 1.125162e+00
<GCONST> 9.864504e+01
<STATE> 4
<MEAN> 25
 -6.433384e+00 3.480050e+00 -9.462683e-02 2.951135e+00 5.391814e+00 3.921796e+00 3.020973e+00 5.760584e+00 3.204235e+00 4.215142e+00 3.539880e+00 3.015624e+00 -3.394867e-02 7.646119e-02 5.865019e-02 7.346738e-02 6.038202e-02 5.895587e-02 -8.407682e-03 -8.935452e-02 -5.628883e-02 7.673190e-03 3.107881e-02 3.166796e-02 -6.108633e-02
<VARIANCE> 25
 6.836918e+00 6.549270e+00 8.564758e+00 8.567904e+00 1.588846e+01 1.775343e+01 1.141975e+01 1.380772e+01 1.252428e+01 1.504344e+01 1.171859e+01 1.083365e+01 3.006146e-01 4.419718e-01 7.000043e-01 8.135604e-01 9.963035e-01 1.083304e+00 1.061583e+00 1.220232e+00 1.255372e+00 1.230120e+00 1.115932e+00 1.106544e+00 4.142071e-01
<GCONST> 7.234727e+01
<TRANSP> 5
 0.000000e+00 1.000000e+00 0.000000e+00 0.000000e+00 0.000000e+00
 0.000000e+00 8.671873e-01 1.328128e-01 0.000000e+00 0.000000e+00
 0.000000e+00 0.000000e+00 8.463775e-01 1.536225e-01 0.000000e+00
 0.000000e+00 0.000000e+00 0.000000e+00 9.287419e-01 7.125814e-02
 0.000000e+00 0.000000e+00 0.000000e+00 0.000000e+00 0.000000e+00
<ENDHMM>
~h "\340\262\217"
<BEGINHMM>
<NUMSTATES> 5
<STATE> 2
<MEAN> 25
 1.675376e+00 -9.241166e-01 6.410429e+00 4.553675e+00 -5.001076e+00 -7.073255e+00 -3.874925e+00 -6.527203e-01 -9.760157e-01 -4.634199e+00 -1.458534e+00 -1.397606e-01 6.488510e-01 -1.712906e+00 1.064037e+00 -2.984890e-01 -2.843519e+00 -1.733856e+00 -6.158364e-01 -7.583752e-01 -1.506175e-01 -1.496876e+00 1.809411e-01 5.889910e-01 2.482220e+00
<VARIANCE> 25
 4.058882e+01 7.086746e+01 3.975478e+01 2.236149e+01 1.104258e+02 6.501537e+01 4.031736e+01 3.633229e+01 3.004441e+01 4.949849e+01 3.478642e+01 2.625095e+01 3.610582e+00 5.590437e+00 3.960898e+00 2.829406e+00 7.802161e+00 5.290978e+00 4.478673e+00 4.014684e+00 2.889715e+00 3.572231e+00 2.654457e+00 2.913089e+00 5.316154e+00
<GCONST> 1.090730e+02
<STATE> 3
<MEAN> 25
 4.334631e+00 -1.074037e+01 1.145097e+01 2.090364e+00 -2.074006e+01 -1.383980e+01 -4.326580e+00 -5.212811e+00 -9.658223e-01 -1.250962e+01 7.108449e-01 3.402867e+00 -7.848254e-02 -1.078099e-03 8.086027e-02 -4.031078e-02 -2.821272e-01 -5.174780e-02 1.573194e-01 -1.732897e-01 -1.400526e-01 -2.239312e-01 2.567519e-01 2.224348e-02 1.999136e-01
<VARIANCE> 25
 6.324387e+00 2.242530e+01 2.969525e+01 1.593044e+01 2.438684e+01 2.482457e+01 3.493244e+01 3.693171e+01 2.670997e+01 1.919865e+01 2.001673e+01 1.143624e+01 2.117371e-01 9.360468e-01 7.608813e-01 7.012446e-01 1.378657e+00 1.003222e+00 1.028282e+00 8.851000e-01 9.415470e-01 6.599954e-01 6.537591e-01 5.988001e-01 5.526933e-01
<GCONST> 7.827930e+01
<STATE> 4
<MEAN> 25
 3.767689e+00 -3.813369e+00 9.169477e+00 3.176304e+00 -1.452241e+01 -1.345362e+01 -2.814857e+00 -3.120189e+00 -3.612119e+00 -1.166949e+01 -1.093207e-01 4.541414e-01 -3.592656e-01 1.444327e+00 -1.713009e-01 3.000990e-01 1.998972e+00 5.929442e-01 1.757514e-01 5.640856e-01 -5.110747e-01 9.735388e-01 -4.259496e-01 -7.433683e-01 -1.522434e+00
<VARIANCE> 25
 1.360806e+01 3.416297e+01 3.642049e+01 2.380172e+01 4.953847e+01 3.074417e+01 4.693153e+01 5.217507e+01 4.007952e+01 2.678832e+01 3.242641e+01 1.550313e+01 1.452149e+00 1.578509e+00 2.004596e+00 2.290209e+00 3.299741e+00 2.672139e+00 2.518983e+00 2.900136e+00 2.812410e+00 1.996360e+00 2.128909e+00 1.496728e+00 1.924576e+00
<GCONST> 9.724213e+01
<TRANSP> 5
 0.000000e+00 1.000000e+00 0.000000e+00 0.000000e+00 0.000000e+00
 0.000000e+00 8.246095e-01 1.753906e-01 0.000000e+00 0.000000e+00
 0.000000e+00 0.000000e+00 8.979053e-01 1.020947e-01 0.000000e+00
 0.000000e+00 0.000000e+00 0.000000e+00 8.109704e-01 1.890297e-01
 0.000000e+00 0.000000e+00 0.000000e+00 0.000000e+00 0.000000e+00
<ENDHMM>
~h "\340\262\220"
<BEGINHMM>
<NUMSTATES> 5
<STATE> 2
<MEAN> 25
 5.063478e+00 -8.489292e+00 5.530314e+00 1.905742e+00 -1.201660e+01 -7.923108e+00 -3.267699e+00 -1.144788e+00 2.048483e+00 -8.536581e+00 -3.443254e+00 -4.681563e-01 -2.145046e-01 7.426500e-01 5.480204e-01 3.312762e-01 -3.351033e-03 1.094032e-01 6.087860e-01 -2.847480e-01 -6.992186e-01 -3.833534e-01 2.425719e-01 2.183844e-01 -7.219171e-01
<VARIANCE> 25
 1.626896e+01 6.478901e+01 4.878463e+01 3.428206e+01 7.546213e+01 4.694476e+01 6.172976e+01 3.850418e+01 3.898549e+01 7.851843e+01 4.826922e+01 2.724766e+01 6.616628e-01 2.494367e+00 2.816698e+00 1.601176e+00 3.112247e+00 2.687463e+00 2.236940e+00 3.962659e+00 3.397498e+00 4.739946e+00 3.482684e+00 1.874123e+00 1.731558e+00
<GCONST> 1.030011e+02
<STATE> 3
<MEAN> 25
 7.491472e-01 3.869703e-01 3.612991e+00 1.874611e+00 -4.084387e+00 -6.485713e-01 1.132258e+00 -1.157597e+00 -1.395254e+00 -3.577120e+00 -1.104987e+00 5.372756e-01 -2.810369e-01 4.566050e-01 -5.613592e-01 1.371813e-01 4.426817e-01 5.085584e-01 1.549707e-01 3.490245e-01 -4.936647e-02 4.613437e-01 -1.414118e-01 1.456122e-01 -8.716007e-01
<VARIANCE> 25
 2.757131e+01 2.061188e+01 3.628644e+01 2.304906e+01 1.207830e+02 8.889646e+01 4.400715e+01 4.424294e+01 4.001430e+01 3.733137e+01 1.691765e+01 2.101088e+01 8.490261e-01 1.958534e+00 1.984500e+00 2.364502e+00 2.352084e+00 1.464219e+00 1.704276e+00 1.824095e+00 2.324538e+00 1.873437e+00 3.251185e+00 2.536329e+00 1.357294e+00
<GCONST> 9.736847e+01
<STATE> 4
<MEAN> 25
 -5.569115e+00 3.162506e+00 3.180913e-01 2.800015e+00 3.924458e+00 2.973574e+00 2.099526e+00 4.499290e+00 3.146262e+00 2.765925e+00 3.082522e+00 2.533915e+00 -2.910510e-02 -3.337144e-02 -1.840281e-01 -4.538486e-02 1.137453e-01 -2.230830e-02 -2.255058e-02 4.569605e-02 -1.030861e-02 9.303458e-02 9.858713e-02 5.427741e-02 3.890015e-03
<VARIANCE> 25
 1.591358e+01 1.368642e+01 1.893586e+01 1.214597e+01 3.883154e+01 2.131271e+01 1.605191e+01 1.931980e+01 1.496185e+01 2.028615e+01 1.377187e+01 1.273802e+01 8.576696e-01 1.443407e+00 1.868134e+00 1.208068e+00 1.563339e+00 8.164618e-01 1.008918e+00 1.159518e+00 1.037356e+00 1.408630e+00 1.416291e+00 1.380031e+00 9.493938e-01
<GCONST> 8.253260e+01
<TRANSP> 5
 0.000000e+00 1.000000e+00 0.000000e+00 0.000000e+00 0.000000e+00
 0.000000e+00 8.482002e-01 1.517998e-01 0.000000e+00 0.000000e+00
 0.000000e+00 0.000000e+00 1.989098e-01 8.010902e-01 0.000000e+00
 0.000000e+00 0.000000e+00 0.000000e+00 8.407748e-01 1.592252e-01
 0.000000e+00 0.000000e+00 0.000000e+00 0.000000e+00 0.000000e+00
<ENDHMM>
~h "\340\262\222"
<BEGINHMM>
<NUMSTATES> 5
<STATE> 2
<MEAN> 25
 5.129447e+00 2.607464e+00 -1.581192e+00 -5.132575e+00 -5.848932e+00 2.499993e-01 1.305394e+00 -6.383133e-01 -2.970426e+00 -3.150113e+00 -1.877930e+00 -8.560383e-01 2.270161e+00 -6.347854e-01 -3.554740e-01 -1.518625e+00 -2.967358e+00 -1.094519e+00 -2.014160e-02 -8.822584e-01 -8.986338e-01 -8.334144e-01 -5.334632e-01 -1.403528e-01 2.421374e+00
<VARIANCE> 25
 6.980052e+01 3.905621e+01 3.597691e+01 6.082095e+01 1.090079e+02 4.986509e+01 3.729530e+01 4.096539e+01 3.522244e+01 3.844518e+01 3.323475e+01 2.827353e+01 4.457988e+00 5.113522e+00 3.793414e+00 4.699621e+00 7.385532e+00 4.818132e+00 3.421569e+00 2.968283e+00 4.142439e+00 3.731300e+00 2.946923e+00 3.222279e+00 3.971583e+00
<GCONST> 1.098026e+02
<STATE> 3
<MEAN> 25
 1.318093e+01 -3.398116e+00 -4.490870e+00 -1.283359e+01 -1.654009e+01 6.247134e-01 2.541630e+00 -5.968485e+00 -5.580599e+00 -5.826725e+00 -3.338015e+00 -6.296582e-01 -1.570906e-01 -6.562175e-01 -3.618734e-01 3.816726e-02 5.615819e-01 4.393847e-01 -1.384046e-01 -6.133908e-01 5.015521e-02 1.612157e-01 4.001041e-01 3.339613e-01 4.398623e-01
<VARIANCE> 25
 1.284285e+01 3.047891e+01 2.694460e+01 2.974233e+01 7.140442e+01 4.302135e+01 3.214253e+01 4.085763e+01 2.381332e+01 2.571300e+01 2.595795e+01 3.682757e+01 6.354649e-01 3.034669e+00 1.635600e+00 1.683784e+00 4.659740e+00 2.000111e+00 3.214818e+00 2.767891e+00 1.684464e+00 2.078202e+00 2.381347e+00 1.878807e+00 2.310214e+00
<GCONST> 9.676976e+01
<STATE> 4
<MEAN> 25
 8.312926e+00 -2.052693e+00 -4.795870e+00 -8.681896e+00 -8.052229e+00 1.781414e+00 1.122410e+00 -5.086668e+00 -3.385645e+00 -2.292114e+00 -5.366442e-01 1.777436e+00 -4.473962e-01 7.419780e-02 7.267459e-02 1.205437e+00 1.950880e+00 -1.704828e-01 -1.360392e+00 -2.729717e-01 4.560326e-01 3.892927e-01 4.692302e-01 1.656572e-01 -4.166203e-01
<VARIANCE> 25
 5.194996e+01 4.414687e+01 3.189973e+01 3.828722e+01 8.445354e+01 4.708430e+01 3.212993e+01 8.061343e+01 3.770683e+01 4.927341e+01 4.602127e+01 3.699177e+01 3.882852e-01 2.218389e+00 2.055792e+00 1.524826e+00 3.157628e+00 1.806833e+00 3.972825e+00 2.487141e+00 1.905373e+00 2.160581e+00 3.143130e+00 2.383939e+00 1.070451e+00
<GCONST> 1.004295e+02
<TRANSP> 5
 0.000000e+00 1.000000e+00 0.000000e+00 0.000000e+00 0.000000e+00
 0.000000e+00 7.643480e-01 2.356520e-01 0.000000e+00 0.000000e+00
 0.000000e+00 0.000000e+00 7.875528e-01 2.124472e-01 0.000000e+00
 0.000000e+00 0.000000e+00 0.000000e+00 2.930101e-01 7.069899e-01
 0.000000e+00 0.000000e+00 0.000000e+00 0.000000e+00 0.000000e+00
<ENDHMM>
~h "\340\262\223"
<BEGINHMM>
<NUMSTATES> 5
<STATE> 2
<MEAN> 25
 6.572118e+00 -1.343858e+00 -3.145478e+00 -6.185669e+00 -9.143389e+00 4.130195e-01 -3.773236e-01 -1.922463e+00 -3.758265e+00 -5.955323e+00 3.900713e-01 3.041317e+00 1.796357e+00 -4.206794e-01 -1.879275e-01 -1.408483e+00 -3.169229e+00 3.735610e-02 1.413423e-01 -1.461248e-01 -1.014688e+00 -1.136891e+00 -5.655513e-01 1.036214e-01 1.686078e+00
<VARIANCE> 25
 6.262493e+01 4.901184e+01 3.920582e+01 6.512247e+01 1.253571e+02 3.141316e+01 4.738071e+01 4.346564e+01 3.397262e+01 3.945092e+01 3.351790e+01 2.863389e+01 3.380291e+00 5.569685e+00 3.697925e+00 4.967893e+00 7.786128e+00 4.803158e+00 3.557800e+00 2.165187e+00 2.868889e+00 3.335540e+00 3.247734e+00 1.955853e+00 4.577831e+00
<GCONST> 1.089350e+02
<STATE> 3
<MEAN> 25
 1.410480e+01 -2.132077e+00 -4.380919e+00 -1.242143e+01 -2.398589e+01 4.722431e-01 2.127339e-01 -4.650263e+00 -7.867413e+00 -8.687741e+00 -1.740552e+00 1.126313e+00 -8.046075e-02 8.451408e-02 -2.833581e-01 -1.518567e-02 6.698449e-01 1.991265e-01 -2.646622e-01 -4.248556e-01 -4.276045e-02 1.937134e-01 2.030300e-01 -5.351734e-02 7.573481e-02
<VARIANCE> 25
 6.934776e+00 2.167515e+01 2.451186e+01 1.819349e+01 6.428128e+01 2.967571e+01 2.704429e+01 2.633054e+01 2.093000e+01 2.545961e+01 3.100130e+01 4.790665e+01 2.432766e-01 1.229365e+00 1.075030e+00 1.144058e+00 4.322982e+00 1.266228e+00 2.785981e+00 1.954135e+00 1.205230e+00 1.716019e+00 2.195023e+00 1.355156e+00 4.851580e-01
<GCONST> 8.825114e+01
<STATE> 4
<MEAN> 25
 8.750867e+00 -2.590361e+00 -6.262584e+00 -8.156456e+00 -9.523037e+00 1.714450e+00 -2.761005e+00 -6.021091e+00 -4.451326e+00 -3.628556e+00 2.305225e+00 4.034126e+00 -7.336028e-01 2.394976e-01 -6.623627e-02 1.161752e+00 2.550369e+00 -2.823054e-01 -1.857339e+00 -5.814665e-01 1.213517e+00 1.048508e+00 5.359568e-02 -4.186545e-01 -4.321730e-01
<VARIANCE> 25
 7.046446e+01 3.704468e+01 3.980509e+01 3.415688e+01 1.049060e+02 3.629843e+01 4.834245e+01 8.414380e+01 5.255710e+01 7.247956e+01 3.756083e+01 2.995526e+01 9.103836e-01 4.792351e+00 3.414805e+00 1.167659e+00 5.088996e+00 4.222780e+00 4.491856e+00 2.986721e+00 2.311683e+00 4.475114e+00 2.288102e+00 3.409220e+00 1.295824e+00
<GCONST> 1.060258e+02
<TRANSP> 5
 0.000000e+00 1.000000e+00 0.000000e+00 0.000000e+00 0.000000e+00
 0.000000e+00 8.238204e-01 1.761796e-01 0.000000e+00 0.000000e+00
 0.000000e+00 0.000000e+00 8.890899e-01 1.109102e-01 0.000000e+00
 0.000000e+00 0.000000e+00 0.000000e+00 1.877437e-01 8.122563e-01
 0.000000e+00 0.000000e+00 0.000000e+00 0.000000e+00 0.000000e+00
<ENDHMM>
~h "\340\262\224"
<BEGINHMM>
<NUMSTATES> 5
<STATE> 2
<MEAN> 25
 -6.688713e+00 2.348324e+00 1.365041e+00 1.754032e+00 3.150209e+00 5.084813e+00 4.809006e+00 4.769370e+00 4.377585e+00 5.100641e+00 1.808913e+00 2.567570e+00 -2.118169e-01 9.093016e-02 1.119170e-01 4.077267e-01 6.669373e-02 -8.091924e-02 5.636868e-02 1.201079e-01 1.693369e-01 1.491020e-01 1.866092e-01 2.085519e-01 -3.537778e-01
<VARIANCE> 25
 8.843044e+00 5.796439e+00 2.307188e+01 1.971083e+01 3.345372e+01 1.630705e+01 1.410914e+01 3.731683e+01 1.609580e+01 1.617991e+01 1.574071e+01 1.319423e+01 5.164247e-01 3.938720e-01 1.201768e+00 1.672562e+00 1.316730e+00 1.202104e+00 1.417107e+00 2.264772e+00 1.453752e+00 1.394091e+00 1.778327e+00 1.217592e+00 6.002301e-01
<GCONST> 8.116937e+01
<STATE> 3
<MEAN> 25
 -6.073372e+00 3.806655e+00 -7.624035e-02 4.348626e+00 5.657392e+00 4.042531e+00 3.414937e+00 5.604176e+00 3.832762e+00 3.774052e+00 3.722883e+00 3.413137e+00 9.776386e-03 -3.397107e-02 -1.700536e-02 -2.990273e-02 -1.390345e-03 -4.506147e-03 -2.557858e-02 5.860830e-03 -8.886994e-03 9.777742e-03 3.513904e-02 -2.102612e-02 5.662665e-02
<VARIANCE> 25
 3.049643e+00 2.348082e+00 3.422381e+00 4.587979e+00 6.101938e+00 6.237771e+00 7.858091e+00 1.112227e+01 9.441232e+00 8.921022e+00 9.421319e+00 9.163651e+00 1.199101e-01 2.406583e-01 3.532383e-01 5.583234e-01 5.565615e-01 6.527377e-01 9.071132e-01 9.618934e-01 1.049993e+00 8.290957e-01 1.006061e+00 9.486086e-01 2.926873e-01
<GCONST> 5.993906e+01
<STATE> 4
<MEAN> 25
 8.100189e+00 -5.615182e+00 -4.294681e+00 -6.977512e+00 -1.065849e+01 9.264369e-01 -1.206947e+00 -3.180550e+00 -5.305207e+00 -5.037437e+00 2.751492e+00 4.015034e+00 8.308064e-01 -2.199517e-01 -3.201314e-01 -1.876167e-01 -5.502428e-01 -4.785179e-01 -3.735720e-01 -9.555312e-01 -8.772219e-01 -3.817381e-01 -3.028132e-01 9.229186e-02 1.201757e+00
<VARIANCE> 25
 7.792365e+01 4.804880e+01 2.335239e+01 6.523375e+01 1.269832e+02 2.038507e+01 2.993158e+01 5.912635e+01 7.364898e+01 6.236340e+01 3.376838e+01 2.399082e+01 3.438786e+00 6.041667e+00 2.140405e+00 5.349474e+00 8.500508e+00 1.522205e+00 2.737390e+00 3.188337e+00 2.346794e+00 3.947555e+00 2.698404e+00 2.556870e+00 7.784194e+00
<GCONST> 1.083788e+02
<TRANSP> 5
 0.000000e+00 1.000000e+00 0.000000e+00 0.000000e+00 0.000000e+00
 0.000000e+00 9.122570e-01 8.774306e-02 0.000000e+00 0.000000e+00
 0.000000e+00 0.000000e+00 9.655030e-01 3.449707e-02 0.000000e+00
 0.000000e+00 0.000000e+00 0.000000e+00 9.278353e-01 7.216472e-02
 0.000000e+00 0.000000e+00 0.000000e+00 0.000000e+00 0.000000e+00
<ENDHMM>
~h "\340\263\240"
<BEGINHMM>
<NUMSTATES> 5
<STATE> 2
<MEAN> 25
 3.363246e-09 -5.073974e-09 -2.667070e-08 -7.742742e-09 -4.152962e-08 5.464628e-08 -2.856819e-08 -3.137197e-08 -1.315223e-08 -1.457514e-08 1.178106e-08 -4.705634e-08 -5.036812e-04 -4.192874e-04 1.220702e-04 -4.396494e-04 -3.006390e-04 7.270148e-05 1.006791e-04 -4.520885e-04 -6.791297e-04 -7.117605e-04 -2.317067e-04 -1.422502e-04 3.583877e-03
<VARIANCE> 25
 7.771582e+01 4.669402e+01 4.885701e+01 4.639305e+01 7.525224e+01 6.131878e+01 4.945510e+01 6.535645e+01 4.383388e+01 5.195151e+01 3.898161e+01 3.388782e+01 2.163800e+00 2.160548e+00 2.178321e+00 2.195785e+00 3.386122e+00 2.583580e+00 2.687976e+00 2.741140e+00 2.512795e+00 2.406658e+00 2.020564e+00 1.918339e+00 2.693773e+00
<GCONST> 1.047231e+02
<STATE> 3
<MEAN> 25
 3.363246e-09 -5.073974e-09 -2.667070e-08 -7.742742e-09 -4.152962e-08 5.464628e-08 -2.856819e-08 -3.137197e-08 -1.315223e-08 -1.457514e-08 1.178106e-08 -4.705634e-08 -5.036812e-04 -4.192874e-04 1.220702e-04 -4.396494e-04 -3.006390e-04 7.270148e-05 1.006791e-04 -4.520885e-04 -6.791297e-04 -7.117605e-04 -2.317067e-04 -1.422502e-04 3.583877e-03
<VARIANCE> 25
 7.771582e+01 4.669402e+01 4.885701e+01 4.639305e+01 7.525224e+01 6.131878e+01 4.945510e+01 6.535645e+01 4.383388e+01 5.195151e+01 3.898161e+01 3.388782e+01 2.163800e+00 2.160548e+00 2.178321e+00 2.195785e+00 3.386122e+00 2.583580e+00 2.687976e+00 2.741140e+00 2.512795e+00 2.406658e+00 2.020564e+00 1.918339e+00 2.693773e+00
<GCONST> 1.047231e+02
<STATE> 4
<MEAN> 25
 3.363246e-09 -5.073974e-09 -2.667070e-08 -7.742742e-09 -4.152962e-08 5.464628e-08 -2.856819e-08 -3.137197e-08 -1.315223e-08 -1.457514e-08 1.178106e-08 -4.705634e-08 -5.036812e-04 -4.192874e-04 1.220702e-04 -4.396494e-04 -3.006390e-04 7.270148e-05 1.006791e-04 -4.520885e-04 -6.791297e-04 -7.117605e-04 -2.317067e-04 -1.422502e-04 3.583877e-03
<VARIANCE> 25
 7.771582e+01 4.669402e+01 4.885701e+01 4.639305e+01 7.525224e+01 6.131878e+01 4.945510e+01 6.535645e+01 4.383388e+01 5.195151e+01 3.898161e+01 3.388782e+01 2.163800e+00 2.160548e+00 2.178321e+00 2.195785e+00 3.386122e+00 2.583580e+00 2.687976e+00 2.741140e+00 2.512795e+00 2.406658e+00 2.020564e+00 1.918339e+00 2.693773e+00
<GCONST> 1.047231e+02
<TRANSP> 5
 0.000000e+00 1.000000e+00 0.000000e+00 0.000000e+00 0.000000e+00
 0.000000e+00 6.000000e-01 4.000000e-01 0.000000e+00 0.000000e+00
 0.000000e+00 0.000000e+00 6.000000e-01 4.000000e-01 0.000000e+00
 0.000000e+00 0.000000e+00 0.000000e+00 7.000000e-01 3.000000e-01
 0.000000e+00 0.000000e+00 0.000000e+00 0.000000e+00 0.000000e+00
<ENDHMM>
~h "\340\262\240\340\263\215"
<BEGINHMM>
<NUMSTATES> 5
<STATE> 2
<MEAN> 25
 -6.386076e+00 -2.948595e+00 7.584262e-01 2.400436e+00 6.139953e+00 2.723730e+00 2.784469e+00 5.510324e+00 3.059239e+00 3.223933e+00 2.401259e+00 3.810709e+00 -5.329292e-01 3.221285e-01 -2.753652e-01 1.109592e+00 5.084793e-01 -3.616913e-01 -1.513426e-01 2.103961e-01 4.401100e-01 1.010908e+00 5.984939e-01 8.031936e-02 -8.115920e-01
<VARIANCE> 25
 1.403704e+01 2.873595e+01 7.442694e+01 5.555717e+01 4.529495e+01 5.029877e+01 4.083812e+01 1.341585e+01 2.254485e+01 1.405449e+01 9.504683e+00 1.280171e+01 1.685305e+00 4.272648e+00 1.020109e+01 9.750918e+00 4.952914e+00 4.229595e+00 2.692502e+00 3.866429e+00 2.588697e+00 1.859647e+00 2.875984e+00 2.295070e+00 2.542983e+00
<GCONST> 1.012220e+02
<STATE> 3
<MEAN> 25
 -6.173789e+00 1.788627e+00 2.690344e-01 3.490044e+00 6.556591e+00 1.888305e+00 2.524447e+00 6.586543e+00 3.316966e+00 5.041821e+00 2.719909e+00 3.688500e+00 2.175313e-01 3.447490e-01 -3.876140e-01 4.393911e-01 1.652534e-01 -1.976462e-01 5.906983e-02 1.216892e-01 -1.606713e-01 7.599294e-03 2.332221e-01 3.769650e-01 -5.076901e-01
<VARIANCE> 25
 3.145339e+00 5.210386e+00 7.620329e+00 8.004593e+00 1.992678e+01 5.767931e+00 7.204542e+00 8.045773e+00 1.595207e+01 6.854612e+00 4.393684e+00 5.793558e+00 8.410474e-01 8.517154e-01 1.888640e+00 1.002533e+00 2.426078e+00 9.478079e-01 1.195894e+00 1.226019e+00 1.642913e+00 5.271996e-01 5.989712e-01 4.045395e-01 8.443048e-01
<GCONST> 6.937962e+01
<STATE> 4
<MEAN> 25
 -5.187134e+00 3.394248e+00 -2.127367e+00 6.527725e+00 5.978457e+00 1.180430e+00 3.748869e+00 5.529439e+00 3.425759e+00 4.950665e+00 4.072784e+00 4.851315e+00 9.534292e-03 -4.908721e-03 -1.924666e-02 2.048927e-02 -5.669645e-02 -2.444785e-02 2.790622e-02 -6.560921e-02 5.501262e-03 2.026369e-02 3.255012e-02 2.132884e-02 2.459593e-02
<VARIANCE> 25
 7.771582e-01 2.363733e+00 2.626490e+00 3.895209e+00 5.856491e+00 5.947876e+00 5.674205e+00 7.891646e+00 7.848888e+00 8.215288e+00 8.038011e+00 7.684278e+00 9.633888e-02 2.461638e-01 3.356948e-01 5.147709e-01 5.195844e-01 7.636896e-01 6.540566e-01 9.380168e-01 9.115110e-01 1.062398e+00 8.412166e-01 6.007246e-01 2.470300e-01
<GCONST> 5.549952e+01
<TRANSP> 5
 0.000000e+00 1.000000e+00 0.000000e+00 0.000000e+00 0.000000e+00
 0.000000e+00 8.051122e-01 1.948878e-01 0.000000e+00 0.000000e+00
 0.000000e+00 0.000000e+00 8.076520e-01 1.923480e-01 0.000000e+00
 0.000000e+00 0.000000e+00 0.000000e+00 9.726548e-01 2.734514e-02
 0.000000e+00 0.000000e+00 0.000000e+00 0.000000e+00 0.000000e+00
<ENDHMM>
~h "\340\262\230\340\263\215"
<BEGINHMM>
<NUMSTATES> 5
<STATE> 2
<MEAN> 25
 -4.600567e+00 4.199199e+00 -5.448744e-01 2.805953e+00 4.509876e+00 4.130212e+00 1.917425e+00 3.000864e+00 3.161368e+00 3.696972e+00 4.076947e+00 3.114373e+00 -2.219909e-02 3.831532e-03 2.544565e-02 3.489138e-02 -6.574202e-03 -9.184811e-03 -5.833650e-03 -1.128949e-05 7.983015e-03 7.478400e-03 3.699753e-02 2.031631e-02 -2.263828e-02
<VARIANCE> 25
 7.771582e-01 1.544026e+00 2.610880e+00 4.255528e+00 4.281697e+00 6.611001e+00 7.100084e+00 7.993013e+00 7.605417e+00 7.749117e+00 7.805046e+00 7.999273e+00 6.872378e-02 1.765956e-01 2.370832e-01 3.744509e-01 4.753095e-01 6.466701e-01 7.441115e-01 8.518844e-01 8.430980e-01 8.452347e-01 9.178340e-01 8.770784e-01 1.969183e-01
<GCONST> 5.347999e+01
<STATE> 3
<MEAN> 25
 -4.795266e+00 3.518002e+00 -9.364486e-01 2.511681e+00 3.702371e+00 4.826872e+00 2.634344e+00 2.795067e+00 3.567985e+00 4.576009e+00 4.162354e+00 2.791435e+00 4.885796e-02 4.319955e-02 -1.375173e-02 -3.200500e-02 2.263561e-03 -3.258409e-03 -2.376471e-02 -2.383519e-02 -1.940992e-02 -3.325859e-02 -9.006089e-02 -9.829634e-02 1.415824e-02
<VARIANCE> 25
 2.059778e+00 2.432857e+00 2.865733e+00 4.539249e+00 6.505291e+00 5.543537e+00 7.200296e+00 9.909505e+00 8.447411e+00 9.975949e+00 9.194005e+00 8.719206e+00 1.243649e-01 1.382809e-01 3.187303e-01 5.104274e-01 5.451702e-01 6.307404e-01 8.002424e-01 1.014876e+00 7.227356e-01 1.169196e+00 1.300843e+00 8.334900e-01 4.808844e-02
<GCONST> 5.651841e+01
<STATE> 4
<MEAN> 25
 -4.334429e+00 2.894334e+00 9.592619e-01 3.563223e+00 3.139438e+00 3.479058e+00 2.245971e+00 3.271013e+00 2.381783e+00 2.300429e+00 2.619822e+00 2.385099e+00 7.755942e-01 5.053152e-01 6.897883e-01 2.976236e-01 -5.623685e-01 -1.052178e+00 -3.903223e-01 -3.270285e-01 -1.062652e+00 -1.549817e+00 -8.972342e-01 -4.373205e-01 5.002062e-01
<VARIANCE> 25
 3.052747e+00 1.858474e+01 1.405016e+01 7.993402e+00 1.547129e+01 1.017642e+01 1.453166e+01 8.041349e+00 1.151228e+01 1.584879e+01 6.744617e+00 8.003640e+00 1.831491e+00 4.599791e+00 2.029230e+00 7.082473e-01 2.673404e+00 3.102280e+00 2.167134e+00 1.512500e+00 2.890954e+00 3.788293e+00 2.365432e+00 1.207654e+00 1.013432e+00
<GCONST> 8.297469e+01
<TRANSP> 5
 0.000000e+00 1.000000e+00 0.000000e+00 0.000000e+00 0.000000e+00
 0.000000e+00 9.826258e-01 1.737420e-02 0.000000e+00 0.000000e+00
 0.000000e+00 0.000000e+00 9.093508e-01 9.064917e-02 0.000000e+00
 0.000000e+00 0.000000e+00 0.000000e+00 7.514688e-01 2.485312e-01
 0.000000e+00 0.000000e+00 0.000000e+00 0.000000e+00 0.000000e+00
<ENDHMM>
~h "\340\262\241\340\263\215"
<BEGINHMM>
<NUMSTATES> 5
<STATE> 2
<MEAN> 25
 8.917911e+00 -2.503106e+00 -4.057534e+00 3.518960e+00 -1.491043e+00 -5.273392e+00 -8.601088e+00 -6.730537e+00 -2.365488e+00 -4.195583e+00 -4.451984e+00 8.925187e-02 -1.918969e-01 -2.693197e-01 4.905735e-01 4.889328e-01 -3.087801e-01 -2.075133e-01 -6.737165e-01 -5.348967e-01 1.080846e-01 -1.166228e-01 2.043015e-01 -1.276976e-01 3.041024e-01
<VARIANCE> 25
 3.770599e+01 4.868213e+01 9.535880e+01 5.034824e+01 8.877840e+01 8.333459e+01 7.924149e+01 6.235509e+01 4.949123e+01 5.332282e+01 3.421456e+01 5.561134e+01 2.889394e+00 7.349391e+00 7.757714e+00 5.337278e+00 1.765374e+01 6.986296e+00 6.721784e+00 6.602733e+00 5.641453e+00 6.427260e+00 4.214251e+00 6.628073e+00 9.288011e+00
<GCONST> 1.193182e+02
<STATE> 3
<MEAN> 25
 8.518305e+00 -4.597917e+00 -6.489483e-01 5.182367e+00 -6.803906e+00 -9.210541e+00 -7.283525e+00 -7.041886e+00 -1.146533e+00 -5.758363e+00 -2.062133e+00 1.552577e+00 -2.183191e-01 7.905138e-01 4.442880e-01 -5.189319e-01 -4.000034e-01 2.774343e-01 8.410943e-01 -6.097525e-02 -5.142657e-01 -2.722571e-01 9.931636e-02 4.683042e-01 -2.909213e-01
<VARIANCE> 25
 2.369497e+01 4.551625e+01 7.362983e+01 5.881752e+01 1.072260e+02 9.196851e+01 4.814566e+01 7.348309e+01 5.984704e+01 3.939360e+01 3.229826e+01 5.280466e+01 1.865669e+00 4.340861e+00 4.347144e+00 4.492088e+00 9.530701e+00 5.580762e+00 4.029377e+00 5.374834e+00 3.978141e+00 4.004492e+00 3.002565e+00 5.322858e+00 5.173116e+00
<GCONST> 1.131743e+02
<STATE> 4
<MEAN> 25
 9.501610e+00 3.147906e+00 4.778631e-01 -2.799634e+00 -6.809716e+00 -2.098350e+00 -1.189124e+00 -5.206090e+00 -7.431149e+00 -6.553915e+00 -4.956947e+00 -6.463337e-01 -4.284835e-01 5.170040e-01 4.095649e-01 -1.452683e-01 5.194675e-01 1.313049e-01 5.008968e-01 5.963846e-01 1.026835e-01 2.864506e-01 -3.293322e-01 -5.953468e-01 -5.812862e-01
<VARIANCE> 25
 3.041349e+01 3.791142e+01 6.944745e+01 1.083559e+02 1.291400e+02 5.031481e+01 4.175867e+01 6.137487e+01 4.706247e+01 3.865069e+01 3.916486e+01 4.669849e+01 7.128235e-01 1.677273e+00 2.111602e+00 2.151620e+00 3.949912e+00 2.523351e+00 3.015103e+00 4.115276e+00 1.907925e+00 1.647818e+00 2.964733e+00 2.202739e+00 1.316345e+00
<GCONST> 1.033754e+02
<TRANSP> 5
 0.000000e+00 1.000000e+00 0.000000e+00 0.000000e+00 0.000000e+00
 0.000000e+00 7.205433e-01 2.794567e-01 0.000000e+00 0.000000e+00
 0.000000e+00 0.000000e+00 5.589312e-01 4.410689e-01 0.000000e+00
 0.000000e+00 0.000000e+00 0.000000e+00 7.578063e-01 2.421937e-01
 0.000000e+00 0.000000e+00 0.000000e+00 0.000000e+00 0.000000e+00
<ENDHMM>
~h "\340\262\262\340\263\215"
<BEGINHMM>
<NUMSTATES> 5
<STATE> 2
<MEAN> 25
 5.932875e+00 -1.816769e+00 3.569474e+00 3.158838e+00 -3.151536e+00 -7.973455e+00 -1.069574e+01 -9.442487e+00 -1.259871e+00 -4.487083e-01 -7.210425e+00 -5.519446e+00 -8.534422e-02 1.083685e+00 1.320452e+00 1.006986e+00 5.911008e-01 7.225911e-01 -6.129894e-01 -8.381755e-01 -9.050146e-01 -6.293942e-01 -8.436846e-01 -3.345171e-01 -9.841415e-01
<VARIANCE> 25
 1.394405e+01 3.746053e+01 4.739421e+01 3.185184e+01 4.518076e+01 4.352882e+01 4.445380e+01 4.069980e+01 3.658267e+01 3.349123e+01 5.345279e+01 2.752991e+01 8.251422e-01 2.577024e+00 1.846981e+00 2.776741e+00 3.860077e+00 2.945251e+00 3.380878e+00 3.641764e+00 3.457277e+00 2.901399e+00 2.708417e+00 2.281384e+00 2.177065e+00
<GCONST> 1.012501e+02
<STATE> 3
<MEAN> 25
 4.405900e+00 4.242904e-01 9.030163e+00 4.705491e+00 -4.020891e+00 -4.350893e+00 -1.169126e+01 -9.412893e+00 -3.166564e+00 -3.411968e+00 -8.237841e+00 -6.261906e+00 -1.313517e-01 -3.318226e-01 6.737530e-03 -3.804461e-01 -6.702247e-01 -4.504480e-01 3.092557e-01 5.417034e-01 -1.630754e-01 -6.024770e-01 9.698239e-01 7.056093e-01 3.316993e-01
<VARIANCE> 25
 1.224176e+01 2.053638e+01 4.528094e+01 2.192404e+01 4.417292e+01 4.343221e+01 4.060102e+01 4.523839e+01 2.829435e+01 2.920266e+01 5.165174e+01 3.314862e+01 4.129567e-01 1.375157e+00 1.900381e+00 1.461578e+00 2.243322e+00 4.901352e+00 2.513951e+00 3.083081e+00 2.299574e+00 2.093575e+00 2.519810e+00 3.646899e+00 1.531099e+00
<GCONST> 9.672856e+01
<STATE> 4
<MEAN> 25
 3.189721e+00 2.330218e-01 9.725460e+00 2.367317e+00 -8.627837e+00 -7.581531e+00 -5.483725e+00 -8.080467e+00 -6.045978e+00 -5.490088e+00 -2.517582e+00 -3.443935e+00 -1.211847e-01 9.410647e-02 -2.524405e-01 -5.210282e-01 -5.111904e-01 -2.116357e-01 9.698976e-01 3.458619e-01 -3.143043e-02 1.103652e-01 4.178953e-01 1.948373e-01 1.092641e-01
<VARIANCE> 25
 1.958896e+01 3.760340e+01 6.532347e+01 2.033369e+01 7.489053e+01 5.924113e+01 7.802986e+01 5.475457e+01 4.134715e+01 2.979689e+01 3.922492e+01 4.261415e+01 5.091046e-01 2.358062e+00 1.866522e+00 1.453043e+00 3.208821e+00 3.796547e+00 2.965371e+00 3.966839e+00 2.672723e+00 1.889024e+00 2.076059e+00 2.791932e+00 2.017760e+00
<GCONST> 1.012599e+02
<TRANSP> 5
 0.000000e+00 1.000000e+00 0.000000e+00 0.000000e+00 0.000000e+00
 0.000000e+00 6.778520e-01 3.221480e-01 0.000000e+00 0.000000e+00
 0.000000e+00 0.000000e+00 6.866188e-01 3.133812e-01 0.000000e+00
 0.000000e+00 0.000000e+00 0.000000e+00 4.788612e-01 5.211387e-01
 0.000000e+00 0.000000e+00 0.000000e+00 0.000000e+00 0.000000e+00
<ENDHMM>
~h "\340\262\252\340\263\215"
<BEGINHMM>
<NUMSTATES> 5
<STATE> 2
<MEAN> 25
 -3.746152e+00 1.632068e+00 -1.843620e+00 -4.406914e-03 2.921469e+00 2.843052e+00 1.190140e+00 4.186085e+00 1.644282e+00 4.151507e+00 4.437371e+00 2.261667e+00 -8.441189e-02 -6.082845e-01 2.049986e-01 -4.211932e-01 6.512329e-02 -4.929951e-01 -5.243325e-01 -4.815552e-02 -2.661096e-01 -3.506019e-01 -2.749699e-01 -1.981652e-01 9.430193e-01
<VARIANCE> 25
 2.410012e+01 2.569071e+01 3.033157e+01 2.632079e+01 2.787376e+01 1.998913e+01 2.700644e+01 2.452072e+01 2.356571e+01 3.211648e+01 2.860699e+01 2.120021e+01 3.460547e+00 2.692531e+00 2.379044e+00 2.443893e+00 3.730056e+00 2.209358e+00 2.901918e+00 3.839017e+00 3.367912e+00 4.751305e+00 3.503585e+00 2.410456e+00 8.353322e+00
<GCONST> 1.004540e+02
<STATE> 3
<MEAN> 25
 2.139831e-01 -2.693786e-01 7.844877e-01 -1.091631e+00 5.740126e-01 -4.349915e-01 -2.804026e+00 -8.015991e-01 -3.269083e+00 -4.058450e+00 -8.607392e-01 2.402046e-01 2.675868e+00 -1.420018e+00 -5.572932e-01 -1.384801e+00 -2.315416e+00 -1.065027e+00 -8.683137e-01 -1.818664e+00 -1.281599e+00 -1.952551e+00 -1.217503e+00 -5.317560e-01 4.466697e+00
<VARIANCE> 25
 3.842646e+01 4.971982e+01 2.974358e+01 3.778270e+01 7.734908e+01 2.747069e+01 2.781161e+01 4.363425e+01 3.264101e+01 6.041444e+01 3.229790e+01 2.496608e+01 6.122495e+00 5.507286e+00 4.144889e+00 5.226129e+00 8.991381e+00 4.114586e+00 4.827221e+00 5.538601e+00 4.452319e+00 6.044704e+00 4.946350e+00 3.549244e+00 7.420784e+00
<GCONST> 1.112213e+02
<STATE> 4
<MEAN> 25
 6.557147e+00 -6.102228e-02 -3.027450e+00 -4.479861e+00 -6.643449e+00 -8.615153e-01 -8.366812e-01 -2.742629e+00 -4.525126e+00 -4.601088e+00 -1.817820e+00 8.662611e-01 7.608951e-01 -7.279407e-01 -5.621806e-01 -5.242152e-01 -5.568208e-01 -2.770724e-01 -1.129479e-01 -3.684281e-01 -1.083183e-01 3.067693e-01 1.892737e-01 -2.137529e-01 1.233320e+00
<VARIANCE> 25
 5.546479e+01 5.874940e+01 3.679630e+01 4.484405e+01 1.194832e+02 3.073206e+01 4.300920e+01 4.801518e+01 2.971877e+01 5.401682e+01 4.277009e+01 3.906256e+01 6.854702e+00 5.237339e+00 3.800951e+00 3.759930e+00 1.234237e+01 3.802761e+00 4.090078e+00 6.193834e+00 3.566673e+00 3.989808e+00 3.541989e+00 4.110587e+00 1.151524e+01
<GCONST> 1.131866e+02
<TRANSP> 5
 0.000000e+00 1.000000e+00 0.000000e+00 0.000000e+00 0.000000e+00
 0.000000e+00 7.499962e-01 2.500038e-01 0.000000e+00 0.000000e+00
 0.000000e+00 0.000000e+00 3.857338e-01 6.142663e-01 0.000000e+00
 0.000000e+00 0.000000e+00 0.000000e+00 7.132841e-01 2.867160e-01
 0.000000e+00 0.000000e+00 0.000000e+00 0.000000e+00 0.000000e+00
<ENDHMM>
~h "sil"
<BEGINHMM>
<NUMSTATES> 5
<STATE> 2
<MEAN> 25
 -4.057540e+00 3.128058e+00 -6.322627e-01 2.040146e+00 4.188233e+00 2.577755e+00 1.112071e+00 4.340126e+00 2.037581e+00 3.032041e+00 2.379109e+00 2.164188e+00 -9.404900e-03 7.217227e-03 -2.984921e-02 3.685839e-03 -1.616922e-02 3.812809e-03 1.361722e-02 -3.945479e-03 1.090301e-02 1.845852e-02 2.165168e-02 2.394795e-02 -1.003536e-03
<VARIANCE> 25
 2.562121e+01 5.162681e+00 7.247000e+00 7.170374e+00 9.278841e+00 1.233477e+01 1.240636e+01 1.439566e+01 1.346090e+01 1.298833e+01 1.381111e+01 1.113415e+01 1.329922e-01 2.746989e-01 3.685044e-01 4.664569e-01 5.884467e-01 6.823472e-01 7.767956e-01 8.590648e-01 7.983748e-01 9.170924e-01 8.376859e-01 7.498605e-01 1.126456e-01
<GCONST> 6.555936e+01
<STATE> 3
~s "silst"
<STATE> 4
<MEAN> 25
 -3.984081e+00 1.012005e+00 1.126772e+00 4.233568e-01 2.610726e+00 2.123386e+00 1.139132e+00 3.316388e+00 1.075951e+00 8.310921e-01 1.475801e+00 2.354061e+00 3.992341e-02 -1.603409e-01 2.027201e-01 -8.935488e-02 -1.645964e-01 -1.117898e-01 -1.742262e-01 -1.655338e-01 -1.150791e-01 -2.134123e-01 -1.484090e-01 -9.364747e-02 5.262155e-01
<VARIANCE> 25
 5.770512e+01 3.221046e+01 3.834318e+01 4.214024e+01 9.210458e+01 3.630790e+01 3.707228e+01 6.145843e+01 3.205119e+01 5.530433e+01 2.674056e+01 2.341108e+01 2.369254e+00 2.830465e+00 3.113325e+00 2.732203e+00 3.880725e+00 2.805162e+00 3.112979e+00 3.076192e+00 2.533789e+00 2.827624e+00 2.373116e+00 1.982243e+00 6.988298e+00
<GCONST> 1.047803e+02
<TRANSP> 5
 0.000000e+00 1.000000e+00 0.000000e+00 0.000000e+00 0.000000e+00
 0.000000e+00 8.807645e-01 7.544436e-02 4.379106e-02 0.000000e+00
 0.000000e+00 0.000000e+00 9.814513e-01 1.854866e-02 0.000000e+00
 0.000000e+00 1.604213e-01 0.000000e+00 6.974059e-01 1.421727e-01
 0.000000e+00 0.000000e+00 0.000000e+00 0.000000e+00 0.000000e+00
<ENDHMM>
~h "\340\262\242\340\263\215"
<BEGINHMM>
<NUMSTATES> 5
<STATE> 2
<MEAN> 25
 6.197302e+00 4.218477e+00 3.988603e+00 4.078750e+00 -2.226537e+00 -4.196554e+00 -3.420384e+00 -1.290104e+00 -3.828618e+00 -5.642306e+00 -5.419866e+00 -5.820325e+00 1.231827e+00 -4.992185e-01 -5.568399e-01 -6.514144e-01 -8.590638e-01 -1.142716e+00 -4.161848e-01 -1.531453e-01 1.428158e-01 -3.593051e-01 -4.310672e-01 -5.774903e-01 1.876643e+00
<VARIANCE> 25
 3.197284e+01 7.483758e+01 4.726785e+01 2.205621e+01 4.758570e+01 3.985552e+01 3.048821e+01 2.028115e+01 8.316972e+01 4.712108e+01 2.337183e+01 1.722884e+01 4.737413e+00 6.520197e+00 6.081462e+00 2.572392e+00 4.368102e+00 3.899298e+00 4.114111e+00 2.236095e+00 1.032720e+01 7.448072e+00 4.296769e+00 2.667369e+00 2.983022e+00
<GCONST> 1.080325e+02
<STATE> 3
<MEAN> 25
 9.170062e+00 -2.959843e+00 -5.972270e+00 -4.040309e+00 -3.688670e+00 -6.335057e+00 8.500743e-01 -1.462061e-01 -1.870427e-01 -4.966996e+00 -4.798935e+00 -4.361947e+00 5.642313e-01 1.092827e-01 4.374862e-01 -1.661119e-01 -7.210165e-02 1.348027e+00 1.565875e+00 -3.773887e-01 -2.396513e+00 -2.716518e-02 2.988982e-01 1.236002e+00 -7.452634e-02
<VARIANCE> 25
 8.757421e+00 5.650684e+01 1.474597e+01 3.068542e+01 1.658301e+01 2.581168e+01 6.062331e+01 1.512811e+01 4.897155e+01 8.683899e+00 9.434032e-01 1.709627e+01 1.593504e-01 5.987604e-01 4.649690e-01 3.455209e-01 6.145966e-01 2.792392e+00 1.767259e+00 3.816272e+00 2.273959e+00 1.583838e+00 1.239529e+00 1.187406e+00 1.253094e+00
<GCONST> 8.014399e+01
<STATE> 4
<MEAN> 25
 9.864293e+00 -8.465066e-01 -4.401474e+00 -2.327376e+00 -3.919789e+00 -4.377031e+00 -3.920777e-01 5.075550e-01 -2.470303e+00 -3.422173e+00 -4.647234e+00 -2.794277e+00 -2.219920e-01 1.028528e+00 1.558490e+00 5.420285e-01 7.995363e-01 1.999946e+00 2.078460e-01 -8.206054e-01 -1.834332e+00 1.968896e-01 6.122324e-01 6.965002e-01 -7.088155e-01
<VARIANCE> 25
 5.987668e+00 7.252829e+01 2.272230e+01 3.011567e+01 2.506111e+01 4.047963e+01 4.525753e+01 5.008273e+01 1.760340e+01 2.075668e+01 5.362925e+00 4.490030e+00 1.950043e+00 5.011394e-01 2.069631e+00 1.797496e+00 1.616869e+00 2.167837e+00 3.094988e+00 2.759815e+00 1.830385e+00 7.324358e-01 1.520045e+00 2.230481e+00 2.232508e+00
<GCONST> 8.928664e+01
<TRANSP> 5
 0.000000e+00 1.000000e+00 0.000000e+00 0.000000e+00 0.000000e+00
 0.000000e+00 8.903827e-01 1.096172e-01 0.000000e+00 0.000000e+00
 0.000000e+00 0.000000e+00 2.851546e-01 7.148455e-01 0.000000e+00
 0.000000e+00 0.000000e+00 0.000000e+00 5.712286e-02 9.428772e-01
 0.000000e+00 0.000000e+00 0.000000e+00 0.000000e+00 0.000000e+00
<ENDHMM>
~h "\340\262\263\340\263\215"
<BEGINHMM>
<NUMSTATES> 5
<STATE> 2
<MEAN> 25
 1.055181e+01 -7.194829e+00 -7.405377e+00 1.655101e+00 -2.260306e+00 -1.058083e+01 -1.177709e+01 -6.496964e+00 2.665332e+00 -2.027339e+00 -4.670726e+00 1.373594e+00 -1.696805e-01 5.936974e-01 1.238312e+00 9.538424e-01 1.419003e+00 1.917255e-02 -2.582584e+00 -7.765850e-01 1.697245e-01 -3.987376e-01 -1.255803e+00 -1.475060e-01 -4.950067e-01
<VARIANCE> 25
 1.611064e+01 4.345575e+01 5.439138e+01 2.576186e+01 5.621059e+01 4.554617e+01 9.623121e+01 4.790476e+01 5.789676e+01 4.979383e+01 4.869795e+01 3.552562e+01 9.298437e-01 2.618160e+00 3.605182e+00 1.912658e+00 3.709754e+00 4.104158e+00 6.784490e+00 4.102155e+00 5.311036e+00 3.946095e+00 4.539653e+00 3.540019e+00 1.379619e+00
<GCONST> 1.064605e+02
<STATE> 3
<MEAN> 25
 8.894684e+00 -3.346589e+00 -1.190791e+00 2.220135e+00 -6.999303e-01 -7.366464e+00 -1.491094e+01 -1.203784e+01 -1.665969e+00 -1.420073e+00 -5.986536e+00 -6.357246e-01 -1.832803e-01 3.528773e-01 4.299574e-01 -6.442095e-01 -1.274350e+00 1.573954e-01 1.842466e+00 -7.242195e-03 -1.474491e+00 -2.236875e-01 1.150276e+00 1.093077e-01 5.894396e-02
<VARIANCE> 25
 1.252480e+01 2.270852e+01 4.331690e+01 5.055996e+01 5.284830e+01 5.495607e+01 6.535584e+01 4.823914e+01 4.398132e+01 4.092722e+01 8.356609e+01 3.680729e+01 5.838568e-01 1.460714e+00 2.335739e+00 3.046007e+00 2.947753e+00 4.636530e+00 4.061459e+00 4.277793e+00 3.048272e+00 3.876118e+00 6.682679e+00 4.231111e+00 1.056668e+00
<GCONST> 1.039855e+02
<STATE> 4
<MEAN> 25
 9.653316e+00 7.509469e-01 -2.407886e-01 -2.806698e+00 -6.569370e+00 -4.802493e+00 -3.289990e+00 -6.868780e+00 -8.949931e+00 -4.495796e+00 -5.507201e+00 -6.206064e-01 -3.663803e-01 4.443590e-01 4.270005e-01 -1.866888e-01 6.494496e-02 1.975463e-01 1.022521e+00 1.107333e+00 5.978142e-02 5.109851e-02 -4.583530e-01 -7.290862e-01 -4.218300e-01
<VARIANCE> 25
 1.889253e+01 4.627377e+01 5.166382e+01 7.395743e+01 5.303756e+01 6.077436e+01 6.145928e+01 5.000497e+01 4.870491e+01 3.420100e+01 3.604523e+01 4.339594e+01 4.983956e-01 1.661738e+00 2.070133e+00 2.689431e+00 3.843992e+00 3.292310e+00 3.133063e+00 3.482756e+00 2.587494e+00 2.392914e+00 2.900534e+00 2.531808e+00 1.400044e+00
<GCONST> 1.024603e+02
<TRANSP> 5
 0.000000e+00 1.000000e+00 0.000000e+00 0.000000e+00 0.000000e+00
 0.000000e+00 7.681639e-01 2.318361e-01 0.000000e+00 0.000000e+00
 0.000000e+00 0.000000e+00 7.500836e-01 2.499164e-01 0.000000e+00
 0.000000e+00 0.000000e+00 0.000000e+00 6.884828e-01 3.115171e-01
 0.000000e+00 0.000000e+00 0.000000e+00 0.000000e+00 0.000000e+00
<ENDHMM>
~h "\340\262\232\340\263\215"
<BEGINHMM>
<NUMSTATES> 5
<STATE> 2
<MEAN> 25
 -6.227233e+00 2.949504e+00 5.052756e-01 3.417432e+00 4.945818e+00 3.753888e+00 2.520811e+00 5.748722e+00 3.202392e+00 3.923037e+00 3.741718e+00 3.332565e+00 -3.285410e-01 -3.373202e-02 6.776518e-02 -1.926936e-01 8.775819e-03 1.782998e-01 9.361200e-02 1.556186e-02 4.992423e-02 1.174659e-01 1.362612e-01 1.546893e-01 -1.055256e-01
<VARIANCE> 25
 1.611591e+01 9.702947e+00 1.991213e+01 1.119584e+01 1.563512e+01 1.632333e+01 1.489596e+01 1.547373e+01 1.746058e+01 1.386241e+01 1.344919e+01 1.506853e+01 1.705756e+00 8.902793e-01 1.009520e+00 1.409268e+00 1.146258e+00 1.594848e+00 1.184552e+00 1.349288e+00 1.331227e+00 1.442505e+00 1.261275e+00 1.386114e+00 9.584127e-01
<GCONST> 8.120023e+01
<STATE> 3
<MEAN> 25
 -4.638725e+00 -2.623830e+00 2.511087e+00 6.224711e-01 -1.446633e-01 1.611200e+00 7.906547e-01 1.955808e+00 1.210062e+00 3.019133e+00 2.056206e+00 2.397376e+00 -2.208741e+00 -2.266084e+00 6.832170e-01 -1.980220e+00 -1.066399e+00 3.523119e-01 -1.967407e-02 -7.325881e-01 2.430323e-01 -1.427476e-01 -3.969295e-02 1.550826e-01 2.404202e+00
<VARIANCE> 25
 2.846448e+01 4.191527e+01 5.449532e+01 2.866446e+01 3.285973e+01 2.143907e+01 2.380533e+01 4.047585e+01 3.661987e+01 3.038412e+01 2.057398e+01 2.558707e+01 1.033965e+01 2.344928e+00 3.768057e+00 4.853048e+00 4.422730e+00 3.240309e+00 2.591498e+00 3.665731e+00 3.520290e+00 3.226605e+00 2.395036e+00 2.519552e+00 4.265777e+00
<GCONST> 1.037799e+02
<STATE> 4
<MEAN> 25
 -1.534293e+01 -8.144092e+00 9.823216e+00 -2.987369e+00 -3.710873e+00 -2.142171e+00 -2.802022e-01 -2.459470e+00 2.113569e+00 -1.164749e+00 -3.205254e-01 -1.605266e+00 6.910269e-01 1.691251e-01 2.766075e-01 2.675739e-01 -5.111378e-01 -9.733534e-01 -6.907527e-01 -4.298001e-01 -1.669568e-01 -6.784052e-01 -4.145656e-01 -5.196405e-01 1.250199e+00
<VARIANCE> 25
 1.111605e+02 1.762844e+01 3.183857e+01 3.731253e+01 1.533427e+01 3.734639e+01 3.584617e+01 2.408606e+01 2.228577e+01 2.557260e+01 1.597086e+01 1.915635e+01 2.279057e+01 3.335700e+00 6.013439e+00 3.277052e+00 2.607950e+00 3.158053e+00 4.501251e+00 2.589965e+00 3.377843e+00 2.770699e+00 1.797337e+00 1.464961e+00 4.925363e+00
<GCONST> 1.024629e+02
<TRANSP> 5
 0.000000e+00 1.000000e+00 0.000000e+00 0.000000e+00 0.000000e+00
 0.000000e+00 8.481706e-01 1.518294e-01 0.000000e+00 0.000000e+00
 0.000000e+00 0.000000e+00 5.110114e-01 4.889886e-01 0.000000e+00
 0.000000e+00 0.000000e+00 0.000000e+00 8.757915e-01 1.242084e-01
 0.000000e+00 0.000000e+00 0.000000e+00 0.000000e+00 0.000000e+00
<ENDHMM>
~h "\340\262\253\340\263\215"
<BEGINHMM>
<NUMSTATES> 5
<STATE> 2
<MEAN> 25
 -7.274612e+00 4.165089e+00 -1.052388e+00 3.332031e+00 6.407470e+00 5.827542e+00 4.374542e+00 6.834131e+00 3.981999e+00 5.705058e+00 4.232498e+00 4.248910e+00 -1.323890e-01 9.103614e-02 1.735883e-01 1.917785e-01 1.201732e-01 -1.398795e-01 -2.161109e-02 8.339915e-02 -1.274422e-03 -2.779746e-02 7.152092e-02 9.584484e-02 -7.176922e-02
<VARIANCE> 25
 5.637248e+00 4.136184e+00 1.168017e+01 1.439874e+01 1.319271e+01 9.312198e+00 1.332738e+01 1.268134e+01 9.586125e+00 8.813770e+00 9.584028e+00 1.207081e+01 3.123284e-01 3.076175e-01 1.193303e+00 5.494658e-01 9.308651e-01 1.061514e+00 1.365201e+00 1.093904e+00 7.919445e-01 8.260671e-01 8.530661e-01 1.583823e+00 6.837568e-01
<GCONST> 7.047045e+01
<STATE> 3
<MEAN> 25
 -8.421731e+00 5.540918e+00 1.778859e+00 1.724556e+00 7.904438e+00 1.318949e+00 2.960853e+00 7.151636e+00 3.820202e+00 3.666599e+00 4.064818e+00 3.663363e+00 9.896877e-01 -4.747670e-01 1.951848e-01 -7.761309e-01 -1.427710e+00 -2.224900e-01 -6.132517e-01 -2.233712e-01 2.395559e-01 -8.619360e-01 -8.328507e-01 -5.395838e-01 1.111893e+00
<VARIANCE> 25
 1.067709e+01 1.006844e+01 1.345438e+01 3.587339e+01 4.871671e+01 7.976544e+00 2.050987e+01 1.510458e+01 1.696840e+01 1.203512e+01 5.436485e+00 1.889061e+01 1.072021e+00 9.645749e-01 1.977229e+00 1.600887e+00 2.098562e+00 1.337176e+00 2.961074e+00 1.121739e+00 2.134107e+00 1.773778e+00 1.301299e+00 1.917838e+00 6.199176e-01
<GCONST> 8.363866e+01
<STATE> 4
<MEAN> 25
 -9.043970e+00 -4.101848e+00 8.736587e-02 -1.662130e+00 2.533918e+00 2.423172e+00 -2.849926e-01 5.250206e+00 1.927979e+00 1.179112e+00 9.136316e-01 1.276480e+00 6.164253e-02 -8.112408e-01 -1.674125e-01 -2.812037e-01 -8.428872e-03 -6.712824e-03 -2.708607e-01 -3.946348e-01 -1.914165e-01 -4.307956e-02 -1.542827e-01 -4.500828e-01 1.174685e+00
<VARIANCE> 25
 2.171038e+01 1.884215e+01 6.722641e+00 9.527344e+00 1.870831e+01 1.016117e+01 1.168542e+01 8.352515e+00 1.864848e+01 2.180752e+01 1.270588e+01 1.259263e+01 4.277321e+00 1.720966e+00 1.128343e+00 2.052701e+00 2.591182e+00 1.290268e+00 1.777194e+00 1.589541e+00 2.227581e+00 2.764741e+00 1.950078e+00 1.454456e+00 5.844270e-01
<GCONST> 8.443690e+01
<TRANSP> 5
 0.000000e+00 1.000000e+00 0.000000e+00 0.000000e+00 0.000000e+00
 0.000000e+00 9.391669e-01 6.083311e-02 0.000000e+00 0.000000e+00
 0.000000e+00 0.000000e+00 5.621476e-01 4.378524e-01 0.000000e+00
 0.000000e+00 0.000000e+00 0.000000e+00 8.867527e-01 1.132473e-01
 0.000000e+00 0.000000e+00 0.000000e+00 0.000000e+00 0.000000e+00
<ENDHMM>
~h "\340\262\243\340\263\215"
<BEGINHMM>
<NUMSTATES> 5
<STATE> 2
<MEAN> 25
 1.173774e+01 -8.106428e+00 -5.269725e+00 5.600126e-01 -2.946637e+00 -8.573770e+00 -5.960898e+00 -2.245276e+00 -4.006677e-01 -3.145667e+00 -5.964839e+00 -3.295003e+00 2.809597e-01 4.459594e-02 1.916764e-01 2.122282e-01 3.680767e-01 -7.291216e-01 -1.117376e+00 3.314256e-01 6.307182e-01 2.871855e-02 -7.895426e-01 -6.779406e-01 2.471093e-01
<VARIANCE> 25
 2.375692e+01 6.671091e+01 6.732097e+01 2.899559e+01 6.351539e+01 4.524302e+01 5.178972e+01 2.612995e+01 4.052768e+01 5.276996e+01 3.389799e+01 4.262297e+01 1.656838e+00 2.200017e+00 3.065053e+00 2.191899e+00 4.390716e+00 2.706174e+00 4.597160e+00 2.336068e+00 4.992763e+00 3.809091e+00 1.316256e+00 1.348307e+00 1.269626e+00
<GCONST> 1.028140e+02
<STATE> 3
<MEAN> 25
 1.237357e+01 -7.220007e+00 -2.594766e+00 1.361582e+00 -1.190701e+00 -1.028117e+01 -1.059080e+01 -1.796931e+00 1.863533e+00 -4.017027e+00 -7.050449e+00 -5.423006e+00 2.150759e-01 1.464430e+00 2.037009e+00 -1.054612e-01 3.669563e-01 -6.169513e-02 -6.631631e-01 -4.876583e-02 -8.566810e-01 -7.904447e-01 4.094537e-01 3.849919e-02 -8.781707e-01
<VARIANCE> 25
 1.822473e+01 4.346545e+01 5.657287e+01 3.127673e+01 6.507716e+01 3.862951e+01 4.178889e+01 3.262280e+01 3.083349e+01 4.864653e+01 3.417485e+01 3.569064e+01 7.564158e-01 2.915707e+00 4.646202e+00 1.577778e+00 2.690190e+00 2.526081e+00 4.031399e+00 1.829207e+00 2.555688e+00 4.006793e+00 1.587560e+00 2.084730e+00 1.279311e+00
<GCONST> 1.000336e+02
<STATE> 4
<MEAN> 25
 1.105325e+01 -3.649171e+00 5.516233e+00 6.974198e-01 -5.226294e+00 -1.122013e+01 -6.066138e+00 -6.177044e-01 -3.108325e+00 -8.095280e+00 -5.901404e+00 -2.164677e+00 -2.670504e-01 1.692064e-01 4.451582e-01 -4.995508e-01 -3.000589e-01 5.539926e-01 4.312856e-01 -4.479570e-01 -3.727818e-01 -7.487001e-02 4.190853e-01 1.226986e-01 1.202585e-01
<VARIANCE> 25
 3.264693e+01 3.684467e+01 3.333226e+01 3.283530e+01 8.623869e+01 5.357231e+01 6.832893e+01 3.643717e+01 3.851012e+01 4.404356e+01 4.107893e+01 3.223800e+01 1.505719e+00 3.104726e+00 2.933860e+00 2.464100e+00 9.017762e+00 2.731654e+00 6.509863e+00 2.206836e+00 3.648875e+00 2.569741e+00 2.287755e+00 2.191901e+00 2.247749e+00
<GCONST> 1.049700e+02
<TRANSP> 5
 0.000000e+00 1.000000e+00 0.000000e+00 0.000000e+00 0.000000e+00
 0.000000e+00 4.846598e-01 5.153403e-01 0.000000e+00 0.000000e+00
 0.000000e+00 0.000000e+00 6.352776e-01 3.647224e-01 0.000000e+00
 0.000000e+00 0.000000e+00 0.000000e+00 5.745312e-01 4.254688e-01
 0.000000e+00 0.000000e+00 0.000000e+00 0.000000e+00 0.000000e+00
<ENDHMM>
~h "\340\262\233\340\263\215"
<BEGINHMM>
<NUMSTATES> 5
<STATE> 2
<MEAN> 25
 3.895822e+00 -6.981445e+00 -6.907334e+00 -9.856120e+00 1.610869e+00 -4.699078e-02 2.087487e+00 -1.641181e+00 -1.244354e+00 -4.575574e-01 -6.734608e-01 -6.689546e+00 -5.157768e-01 3.839146e-02 -2.018667e-01 2.543612e-01 1.156122e-01 9.487420e-03 7.173511e-01 -2.590372e-01 -1.111282e+00 -1.527479e-01 3.979384e-01 -4.633443e-01 -4.760242e-02
<VARIANCE> 25
 6.310852e+01 5.162114e+01 1.084736e+02 6.271168e+01 8.215993e+00 3.061600e+01 4.003119e+01 2.467157e+01 6.595976e+01 1.604635e+01 1.599408e+01 5.901237e+01 1.400339e+00 4.512404e+00 7.543931e+00 3.151592e+00 1.266542e+00 2.236749e+00 3.736168e+00 9.827593e-01 3.382618e+00 1.194915e+00 6.612403e-01 1.098702e+00 3.799483e+00
<GCONST> 9.886445e+01
<STATE> 3
<MEAN> 25
 1.316057e+00 2.337715e+00 -3.742617e+00 -2.790975e+00 3.181755e+00 5.222010e+00 3.961801e+00 -5.866635e-02 -3.653493e+00 9.649656e-01 -5.493163e-01 -5.055543e+00 -5.894330e-01 5.247124e-01 -7.472501e-02 1.151600e+00 2.817797e-01 2.655744e-01 2.402731e-01 1.200319e+00 1.001168e+00 4.317793e-01 3.379590e-01 1.136982e+00 -1.573041e+00
<VARIANCE> 25
 1.968427e+01 6.880226e+00 2.114836e+01 1.998485e+01 1.345863e+01 1.789563e+01 1.423743e+01 2.166136e+01 4.254939e+01 1.682399e+01 1.824114e+01 5.950508e+01 1.365377e+00 9.976296e-01 2.831923e+00 9.438031e-01 1.427204e+00 9.390106e-01 1.577168e+00 1.524472e+00 1.131245e+00 2.808948e+00 1.964686e+00 1.122164e+00 7.598239e-01
<GCONST> 8.581502e+01
<STATE> 4
<MEAN> 25
 -5.358851e+00 2.790321e+00 -6.026558e-01 4.465787e+00 5.520304e+00 3.628528e+00 3.294033e+00 4.516282e+00 3.392552e+00 4.641551e+00 2.523368e+00 3.918246e+00 -5.205001e-02 -2.027436e-02 6.756420e-02 1.202116e-01 6.255640e-03 -8.032583e-02 -6.586191e-02 -2.108318e-02 1.107826e-02 7.027155e-02 6.998448e-02 5.549162e-02 -2.802317e-02
<VARIANCE> 25
 3.630323e+00 4.271766e+00 9.535964e+00 1.221533e+01 8.701169e+00 1.271689e+01 9.013156e+00 1.367093e+01 1.271481e+01 9.738371e+00 1.030546e+01 1.060650e+01 3.553389e-01 4.310534e-01 1.227114e+00 9.954864e-01 7.502041e-01 1.011505e+00 1.220584e+00 1.329770e+00 1.208564e+00 1.016345e+00 9.666169e-01 1.050993e+00 4.902394e-01
<GCONST> 7.052023e+01
<TRANSP> 5
 0.000000e+00 1.000000e+00 0.000000e+00 0.000000e+00 0.000000e+00
 0.000000e+00 7.375135e-01 2.624865e-01 0.000000e+00 0.000000e+00
 0.000000e+00 0.000000e+00 7.978084e-01 2.021916e-01 0.000000e+00
 0.000000e+00 0.000000e+00 0.000000e+00 9.697002e-01 3.029989e-02
 0.000000e+00 0.000000e+00 0.000000e+00 0.000000e+00 0.000000e+00
<ENDHMM>
~h "\340\262\254\340\263\215"
<BEGINHMM>
<NUMSTATES> 5
<STATE> 2
<MEAN> 25
 4.313590e+00 2.419436e+00 7.138772e+00 5.253212e+00 8.751631e-03 -2.723878e-01 -2.245992e+00 -5.714803e+00 -7.923898e+00 -8.792219e+00 -2.657447e+00 1.551371e-01 6.586550e-01 2.550180e-01 2.309313e-01 5.143192e-02 2.023062e-02 7.598961e-02 -1.604040e-01 -3.831216e-01 -5.789843e-01 -5.926689e-01 -2.744939e-01 -1.576500e-01 3.863939e-01
<VARIANCE> 25
 4.385607e+01 5.779819e+01 7.080346e+01 4.485435e+01 1.225010e+02 5.146404e+01 4.331747e+01 4.977735e+01 6.679516e+01 6.126821e+01 2.550363e+01 2.844789e+01 3.639535e+00 3.119243e+00 2.995590e+00 3.759416e+00 5.267375e+00 3.614781e+00 4.556675e+00 4.013185e+00 4.399512e+00 4.726902e+00 3.157748e+00 2.026137e+00 4.403770e+00
<GCONST> 1.102538e+02
<STATE> 3
<MEAN> 25
 7.301177e+00 9.838104e-01 6.347243e-01 -2.196667e+00 -9.121211e-01 1.946519e+00 -1.071500e+00 -8.155252e+00 -6.915743e+00 -4.065032e+00 -9.621463e-01 -9.515560e-01 -1.394404e-01 -9.634594e-01 -5.855168e-01 -6.343569e-01 -4.053534e-01 -7.952721e-01 -8.449607e-01 -2.097070e-01 1.593484e+00 1.775694e+00 6.456571e-01 -7.553715e-01 7.574549e-01
<VARIANCE> 25
 2.182129e+01 5.150357e+01 3.814559e+01 6.848022e+01 6.995468e+01 3.840967e+01 4.187059e+01 6.853159e+01 7.152617e+01 4.840434e+01 3.360867e+01 2.445970e+01 2.162280e+00 4.868861e+00 4.655689e+00 9.251501e+00 1.022352e+01 3.352376e+00 5.427682e+00 5.548594e+00 4.607561e+00 5.576788e+00 5.853971e+00 2.388402e+00 6.771481e+00
<GCONST> 1.124120e+02
<STATE> 4
<MEAN> 25
 6.968255e+00 1.787964e+00 4.812456e+00 4.967402e+00 3.281026e+00 -2.937705e+00 -8.363519e+00 -3.134620e+00 -1.865775e+00 -3.506935e+00 -1.947576e+00 -5.302009e+00 -5.060384e-01 -1.166647e-01 -2.442826e-01 -2.675683e-01 -8.457678e-02 -2.427356e-01 1.354142e-01 4.241945e-01 4.187963e-01 3.268822e-01 1.346608e-01 -1.246682e-01 9.477437e-04
<VARIANCE> 25
 2.830535e+01 4.902774e+01 4.626283e+01 5.223279e+01 4.462080e+01 6.048700e+01 8.886252e+01 4.390916e+01 4.694949e+01 3.668722e+01 3.356353e+01 4.233373e+01 1.939843e+00 4.300232e+00 2.416144e+00 4.601694e+00 4.559743e+00 3.546810e+00 3.776940e+00 2.258772e+00 3.796091e+00 2.624173e+00 2.387101e+00 2.082062e+00 4.763125e+00
<GCONST> 1.067728e+02
<TRANSP> 5
 0.000000e+00 1.000000e+00 0.000000e+00 0.000000e+00 0.000000e+00
 0.000000e+00 7.193413e-01 2.806587e-01 0.000000e+00 0.000000e+00
 0.000000e+00 0.000000e+00 5.856507e-01 4.143493e-01 0.000000e+00
 0.000000e+00 0.000000e+00 0.000000e+00 6.931968e-01 3.068032e-01
 0.000000e+00 0.000000e+00 0.000000e+00 0.000000e+00 0.000000e+00
<ENDHMM>
~h "\340\262\244\340\263\215"
<BEGINHMM>
<NUMSTATES> 5
<STATE> 2
<MEAN> 25
 -2.479053e+00 1.311330e+00 -2.371666e+00 -3.244260e-01 1.007573e+00 4.304715e-01 -1.511990e+00 8.247684e-01 2.621674e+00 6.769264e+00 5.150547e+00 2.047724e+00 -1.042164e+00 5.688537e-02 -4.999765e-01 -2.408667e-02 1.850209e-01 4.448777e-01 8.659766e-01 1.103512e+00 6.783370e-01 8.049963e-01 8.325225e-01 9.331721e-01 -1.412766e+00
<VARIANCE> 25
 2.138109e+01 1.816491e+01 2.585666e+01 2.789469e+01 2.602361e+01 3.422598e+01 3.352647e+01 3.886966e+01 3.488977e+01 3.655512e+01 2.630683e+01 3.358869e+01 1.325374e+00 1.623231e+00 2.040657e+00 1.814614e+00 2.353501e+00 1.917608e+00 2.539903e+00 2.729324e+00 2.197369e+00 2.817966e+00 2.469620e+00 2.522267e+00 4.143634e+00
<GCONST> 9.698199e+01
<STATE> 3
<MEAN> 25
 -5.834097e+00 2.133812e+00 -2.728521e+00 -1.291466e-02 2.645072e+00 1.409935e+00 2.174173e-01 3.441944e+00 3.903290e+00 7.049535e+00 6.116427e+00 3.411618e+00 -7.128271e-01 -4.603813e-01 4.060706e-02 -7.514223e-01 3.619903e-01 -6.960236e-01 -4.931424e-01 -1.730984e-01 -6.193459e-01 -1.514565e+00 -8.119906e-01 -8.011549e-01 2.698853e+00
<VARIANCE> 25
 1.974198e+01 1.556439e+01 2.034041e+01 2.249187e+01 2.033029e+01 2.346417e+01 2.239954e+01 2.234889e+01 2.196225e+01 3.973330e+01 2.504062e+01 1.911927e+01 2.004204e+00 2.394577e+00 2.472389e+00 3.024308e+00 2.196583e+00 2.760882e+00 3.045812e+00 2.415619e+00 2.737673e+00 3.931262e+00 2.604858e+00 2.532351e+00 6.848098e+00
<GCONST> 9.669159e+01
<STATE> 4
<MEAN> 25
 -1.609715e+00 -1.226302e+00 -1.468657e+00 -3.437845e+00 -2.186242e-01 -2.416093e+00 -6.151883e+00 -2.958430e+00 -7.760479e-01 -6.435980e-01 2.203600e+00 -5.718700e-01 2.027591e+00 -6.118258e-01 4.895823e-02 -7.907829e-01 -1.344702e+00 -1.137120e+00 -1.417972e+00 -2.010645e+00 -8.266706e-01 -9.830946e-01 -7.572936e-01 -1.016792e+00 3.233767e+00
<VARIANCE> 25
 7.720641e+01 3.122536e+01 2.152506e+01 2.629428e+01 5.099357e+01 4.089936e+01 5.363653e+01 7.935722e+01 3.551948e+01 4.125025e+01 2.414512e+01 3.026965e+01 5.893809e+00 3.373751e+00 3.092335e+00 3.238169e+00 6.062649e+00 5.444075e+00 6.446512e+00 6.173396e+00 4.100149e+00 5.849053e+00 3.060128e+00 5.664161e+00 1.104783e+01
<GCONST> 1.108627e+02
<TRANSP> 5
 0.000000e+00 1.000000e+00 0.000000e+00 0.000000e+00 0.000000e+00
 0.000000e+00 7.746621e-01 2.253379e-01 0.000000e+00 0.000000e+00
 0.000000e+00 0.000000e+00 3.654728e-01 6.345272e-01 0.000000e+00
 0.000000e+00 0.000000e+00 0.000000e+00 6.927830e-01 3.072170e-01
 0.000000e+00 0.000000e+00 0.000000e+00 0.000000e+00 0.000000e+00
<ENDHMM>
~h "\340\262\265\340\263\215"
<BEGINHMM>
<NUMSTATES> 5
<STATE> 2
<MEAN> 25
 1.046032e+01 1.086448e-01 -3.447155e+00 -7.601128e+00 -7.722939e+00 1.213826e+00 -1.384648e+00 -5.651866e+00 -7.961214e+00 -6.782313e+00 6.421318e-01 2.907171e+00 2.506718e-01 6.236023e-01 2.950085e-01 -3.817612e-01 -3.467161e-01 1.492730e-01 6.308905e-01 4.387629e-01 -6.796098e-01 -4.897161e-01 -3.211666e-01 1.340063e-01 -4.514768e-01
<VARIANCE> 25
 3.953193e+01 2.994625e+01 2.376280e+01 5.042760e+01 7.692897e+01 2.586351e+01 3.616985e+01 3.651449e+01 3.124081e+01 4.102547e+01 3.785443e+01 2.770196e+01 2.026366e+00 3.879124e+00 2.773862e+00 3.624209e+00 5.998858e+00 3.245211e+00 3.407539e+00 3.437690e+00 3.484053e+00 3.442936e+00 3.840945e+00 2.815825e+00 3.472773e+00
<GCONST> 1.049146e+02
<STATE> 3
<MEAN> 25
 1.073854e+01 4.786097e+00 -2.266303e+00 -9.243328e+00 -1.046663e+01 -1.161815e+00 1.570047e+00 -3.136514e+00 -5.979500e+00 -4.895594e+00 -3.776250e+00 -1.789060e+00 -2.997912e-01 -4.153200e-02 1.529556e-01 -2.629644e-02 5.164216e-01 7.359145e-02 2.452338e-02 3.536901e-01 2.327868e-01 3.062721e-01 -1.358400e-01 -4.260910e-01 -7.391034e-02
<VARIANCE> 25
 3.452029e+01 5.080099e+01 1.893769e+01 4.166008e+01 9.410880e+01 4.141546e+01 2.891884e+01 3.305967e+01 3.344100e+01 2.525265e+01 3.926571e+01 3.003327e+01 6.703190e-01 1.611686e+00 1.366305e+00 1.656533e+00 3.043140e+00 2.061983e+00 1.826446e+00 2.269260e+00 1.682417e+00 1.475902e+00 1.723381e+00 1.529116e+00 1.305056e+00
<GCONST> 9.532659e+01
<STATE> 4
<MEAN> 25
 6.320755e-01 2.010273e+00 -1.009353e+00 -2.425870e+00 2.444781e+00 3.052576e+00 1.210355e+00 1.950358e+00 -2.701479e+00 -5.270921e-01 7.340207e-01 3.125321e-01 -8.914959e-02 -2.663387e-01 -3.196589e-02 1.745195e-01 1.597942e-02 -2.348813e-01 -1.897014e-01 2.618290e-03 2.413780e-01 6.758326e-02 8.406591e-03 -1.529775e-01 2.036270e-01
<VARIANCE> 25
 8.066858e+01 3.012932e+01 2.539409e+01 5.753771e+01 6.451202e+01 3.518336e+01 3.310723e+01 4.562810e+01 3.805905e+01 3.424740e+01 3.312777e+01 2.615767e+01 1.359312e+00 1.495391e+00 1.599041e+00 1.729015e+00 2.409817e+00 2.010542e+00 1.852226e+00 2.157174e+00 1.865532e+00 1.920423e+00 1.793658e+00 1.698830e+00 1.496215e+00
<GCONST> 9.749738e+01
<TRANSP> 5
